Generation,CountEval,Fitness,phi.proc.1,phi.startTime.1,phi.endTime.1,phi.jobOps.1,phi.arrival.1,phi.procTotal.1,phi.wait.1,phi.mac.1,phi.macOps.1,phi.macFree.1,phi.makespan.1,phi.step.1,phi.slotReduced.1,phi.slots.1,phi.slotsTotal.1,phi.wrmMac.1,phi.wrmJob.1,phi.wrmTotal.1
1,12,740.9820,0.12578317450495974,0.32206580036294874,0.12152859565396588,-0.15480364872845603,0.12412606003288726,0.10846929798186597,0.20675641853369434,0.21134626579626364,0.22661837675061969,0.20303769882680847,0.155874880017998,0.1866120896021031,0.33489762103032739,-0.19833183271994506,0.11617269977835469,0.18825327750262269,0.208044600134592,0.0587911412522353
2,24,694.5080,0.19616690823473504,0.14213085081390359,-0.034636968774896582,0.00071714528949149412,-0.09857107439004556,0.15756186660790497,0.04134821201271871,0.33359513741933727,0.09898294241236881,-0.10939929943125419,0.073285823072506875,0.10941872912768572,0.028493310287608715,-0.2196736167059474,-0.085124775820849041,0.19529846906149753,0.1514438755976899,0.19639445760230775
3,36,675.0560,-0.042953367084128023,0.080848842392483466,-0.11398377905243903,-0.022491699227926217,-0.2357591383759027,0.15603983068342489,0.046672449910445335,0.20171273058769262,-0.13869560852207413,-0.33203093738885492,-0.049832273511572406,0.12422123257355948,-0.1063970290561901,-0.14452536562250981,-0.18206507136355168,0.24360103880547243,0.12851127693415024,0.13176842518310541
4,48,703.7540,0.13951439928033715,0.012142183790455658,-0.31404757179005544,0.079869651395978472,-0.12259041269347286,0.31189421424163649,0.017124196592693302,0.03303621846781063,-0.015432099382071946,-0.051384442188028664,-0.031380447547770668,0.12929239153768407,0.034013327979057567,-0.15882715935531075,0.0028633816292139283,0.17205433083633093,0.14023704294940231,0.20233249891226562
5,60,699.8220,0.031567799919993561,-0.11162834956974421,-0.12722197629033524,0.077599542300177515,-0.099184003672978485,0.15774445321798963,0.0967121023215318,0.18801315277046565,0.10736496266735948,-0.092993020093992476,-0.13972536976598102,-0.0765624587744946,0.039285351281319457,-0.044844583447020955,-0.083923003458252612,0.00046781108443050019,0.15849364211054556,0.011453302904576336
6,72,680.2000,0.0019885487154942781,-0.089970342672464232,-0.29508256159115986,-0.063752314079457667,-0.3112472842082718,0.079872463518196435,0.020746201279586637,0.0065424305415262441,0.038559023853478078,-0.036841646477438275,-0.035611574879062427,-0.25771061211436846,0.26095381198729489,0.079507927288555186,0.13040395750095599,-0.12303755773854037,0.14021039029917207,-0.0790786931937022
7,84,681.7760,-0.21802450631284506,-0.12937264078769928,-0.3082509468404202,0.10691574904954791,-0.48777319898891375,0.051013236130354939,-0.014665509330903062,0.10938410623282173,-0.002921070387511937,-0.10508269056938932,0.020634319390542173,-0.1369260546790397,0.11767717313257525,0.024742002639426428,0.00940763627224451,-0.0088133157458126481,0.12681143198262329,-0.098554632534805314
8,96,670.0920,-0.14192050827217231,-0.20090725830314096,-0.23758751376746198,0.0390964930965467,-0.31368140988637672,0.14431566592892803,-0.1651769329371876,0.21017167564071165,0.07184803397571389,-0.18657541655756893,0.066340110804923358,-0.15727931271315643,0.11594867214888331,0.10604319999259221,-0.059394207258015488,0.00024133849713341062,0.30017928091521334,-0.12892818941411149
9,108,689.1820,0.015146786789080666,-0.061191891447679447,-0.11723113735706751,0.17331719048976779,-0.09249729030147695,0.061557192909169507,0.024179368104301369,-0.11978001181132132,0.0084335994937142673,-0.0045449317890539527,-0.16127213526673082,-0.14031611642395006,0.19850993090162686,-0.090696120125960636,-0.11251414784468627,0.10594485607847165,0.27128928694031318,-0.042021243948578042
10,120,689.7480,-0.15242930554146961,-0.069923795422519641,0.0027504198381367857,0.53826120521185927,-0.208489450423258,0.096969915626604883,0.017331150192191551,0.22346266161021686,0.023635547943513094,-0.083986509407587978,-0.024753759287974606,-0.20076836166936252,0.20549820689617582,0.079199516387635824,-0.030918314371471606,-0.043393169642195105,0.078178374668432166,-0.070847274100078281
11,132,683.3240,-0.03820216686078616,-0.14527336593303805,-0.090466091776672447,0.30961408481957942,-0.32091379939519804,0.14334221821770446,0.11457889908703141,0.20423754276411443,0.018264220146183067,-0.22759961585069322,-0.086043573674679352,-0.090834493981667749,0.19556595935074439,0.0901417412812384,-0.01669826069154793,0.018718097281901925,0.0030088355755833063,-0.17155953202575216
12,144,680.6340,0.15860093241673731,-0.24438014333658079,-0.17285922640781279,0.3468696697628631,-0.3291902932645937,0.13473491360757556,0.089940880992942077,0.11976858893451053,-0.0571212453612554,-0.19896308805916019,-0.23354579085660873,-0.12106974708456629,0.13782362638387907,0.10876608208242307,0.033493456811204796,-0.07936056639424334,0.19379803621664521,-0.038869016897230581
13,156,670.8160,0.0041076787459554615,-0.24496097482163393,-0.14988101959356906,0.19798845976053131,-0.27095019963599681,0.075069647860812327,-0.0702359740892386,0.258103922692533,-0.239372427334208,-0.25679186222947464,-0.24194891927361867,-0.09099154117614093,0.20815975782533261,0.19754483125839511,-0.10788101599349098,0.065549490707856733,0.36293157697857725,0.044998231083648935
14,168,671.2280,-0.039530752957155114,-0.16068429090548206,-0.26065416297046329,0.16130584693466268,-0.29428542506048677,0.1276753138924189,0.064079842426371242,0.21372364347018954,-0.084701229648535589,-0.358123088445891,-0.17248747698404415,0.028922865624443031,0.18239862666024595,0.21171285877973481,-0.1190143830894107,0.0082582315639958947,0.37645237394798003,-0.16312503718933938
15,180,670.8800,0.13607013277661767,-0.15040143921547952,-0.37294498609518378,0.1492033830389507,-0.082292373562401086,0.051557387595771546,0.18862099032191745,0.12492120651674087,-0.015131799701069558,-0.31171129652610213,-0.13128458041805466,0.1076812184614383,0.011085326393898802,0.11138605502084055,-0.19328806308518098,-0.008601637497256568,0.4182660100824811,-0.27751765484150115
16,192,669.2060,0.1746905484623637,-0.22551804997924449,-0.31710960320339238,-0.028954367930213009,-0.15409575349607407,-0.0056469999241213226,0.069882852405604948,0.0739143254051887,-0.13154431063793046,-0.32374049174420894,-0.12329743987118934,0.0062366121370203,0.088649061153012979,0.23347803620239901,-0.27638219700100081,-0.079361033499063885,0.39321578538062069,-0.256126923590929
17,204,670.8140,0.077915490319033553,-0.15856364288413244,-0.21783717176423947,0.013041211315323806,-0.11109878058177716,0.0028137015720397871,0.14917287935319279,0.22977241478538529,0.011863704220140648,-0.33255062746311309,-0.21352992838763052,0.012253675112515929,0.059689823978866505,0.23790735462493462,-0.2238332245252862,-0.10139292642671462,0.45156337296321497,-0.18045991452959734
18,216,670.1600,0.025880687238181609,-0.19116547403575035,-0.26683838711454039,0.069738304400588716,-0.12030729652437917,0.020704240779211132,0.12666242291782129,0.20541523587924823,0.076738334846293985,-0.36790696025048347,-0.12787042346275765,0.0076954402354252067,0.068419015748387421,0.20963430121680382,-0.12118606548552821,-0.19414297115529852,0.55249835499255062,-0.1919532271123057
19,228,669.4740,-0.12101392102806284,-0.17048563349246165,-0.29313522118988677,0.097154698048021376,-0.13038960337597905,0.0818071291955198,0.0067916425040379872,0.227017806741582,0.11615409536109306,-0.32559937001435052,-0.15617144716822287,0.0083535382803884648,0.22350822077909951,0.19678312612536308,-0.17248854026253158,-0.1744989171252791,0.50175690832393816,-0.17726531284651134
20,240,669.7220,0.00083297620467603223,-0.17501152702894224,-0.38595873553361587,0.11477678214415508,-0.16976715801699771,0.063859505533859592,-0.0501293116247654,0.14221037772718048,0.16569849968409264,-0.27063160741063336,-0.180284371581985,-0.073245975549356232,0.17571942378091582,0.19779618509638955,-0.20078386807012155,-0.19178936203756736,0.49871506361739365,-0.12657058121379866
21,252,668.7020,0.01207913925641785,-0.22467162516455541,-0.36392488922885469,0.057936831043516129,-0.20691628018334068,0.0073667327585190618,-0.083050000211523145,0.090683952838222281,0.13327459853779483,-0.2494848453519542,-0.18112179639902537,0.049551222017341919,0.20124676990811854,0.16332248523965506,-0.038941368417020894,-0.31339648499152972,0.5144385123827937,-0.25430790034941481
22,264,671.0740,0.19190315198741476,-0.19512272189136343,-0.4517092145326842,0.0327601259231552,-0.28308903570773308,0.019349400826122055,-0.081699294284581434,0.098335626640633542,0.13981857143772702,-0.18195383924252109,-0.15693666515813523,-0.013331131578314252,0.16209009764968543,0.074667783102099178,-0.021931512529788141,-0.26871526318338806,0.45955896997999091,-0.19331710517917453
23,276,668.8020,0.1155826709996939,-0.23052577576353306,-0.49058855066292706,0.042229620790436358,-0.28664078395689963,0.12776740894250288,-0.096258814982484328,0.15136726760921609,0.15816652956278596,-0.1857386210045697,-0.17638768179242573,0.056232827201120106,0.11638950863490449,0.047756547483002482,0.0023947875557799058,-0.31569293793349251,0.38663015106104148,-0.17433349722526154
24,288,671.0080,0.10179381355090879,-0.25228229778904,-0.49072711245778416,0.040451433639453908,-0.33132639362785654,0.060707078117125488,-0.14569739081397762,0.048829593287705947,-0.0029075151908221218,-0.11889980228791987,-0.27722923651983716,-0.13854605918769172,0.087888663717002991,0.096595358261305816,-0.038153456439177773,-0.21782902002817864,0.38042774294941806,-0.26098922029920263
25,300,669.7080,0.088397320979108684,-0.13345566809623571,-0.42985293828273607,0.060604083172990222,-0.35171048019314471,0.0849177069852717,-0.11736026025310159,0.11819596860533421,-0.018097654194578774,-0.21094638470872251,-0.28773268623321879,-0.15098830287355625,0.087393552258753185,0.074597290633755545,-0.084498435203556987,-0.19389171512275452,0.42449578536394672,-0.318400733314838
26,312,670.2420,0.13636287531531385,-0.21780144186828387,-0.41918757938892648,0.055387879133149888,-0.30471910055538487,0.13392765740465132,-0.069816294737004125,0.16606223094039566,-0.028818572244244674,-0.24987732855246253,-0.27434137704165529,-0.19077871361579152,0.11506617249441682,0.10278757284486773,-0.12251766441764388,-0.20671832475198404,0.39868617886525443,-0.32841802205273218
27,324,670.1040,0.071424681869503251,-0.26789871438209339,-0.42788069372756077,0.026565489628779672,-0.26483173256162612,0.11982189883486617,-0.063623839422330727,0.12588498621031854,-0.035645282812686231,-0.22927502292398566,-0.24958073981211099,-0.19739316966411496,0.13798736272806719,0.16395028861312624,-0.13259219738957126,-0.18616664857011622,0.40974207838402682,-0.32762327443795108
28,336,671.1760,0.17758032483085079,-0.28933854237387741,-0.43164515681415916,0.02462285412986356,-0.30594759157975726,0.070780598027194247,-0.046653240931430043,0.05717540900587418,-0.084058894206442913,-0.17463987029450184,-0.22504490061504906,-0.20125092711218723,0.083719504831043179,0.083183805942174768,-0.11831395656415322,-0.18598498132265079,0.4429935249600751,-0.35962628412511666
29,348,669.0060,0.19339219363682808,-0.2524933442596734,-0.45201576980166436,-0.049392333854436518,-0.289284527765041,0.027809211740646059,-0.14264524686263855,0.075248693856965615,-0.11220550927922468,-0.13426139112777641,-0.26680705704373076,-0.22809216172144103,0.042329200964927767,0.070169487700362368,-0.096571511687392864,-0.14233280619021527,0.42864311229104785,-0.37534568129513518
30,360,668.7240,0.13203430772613337,-0.287629997875186,-0.39618774903486431,-0.041946298967374319,-0.25876625981927026,0.03159769631164526,-0.1293272364676086,0.063588173738285042,-0.10168425159654595,-0.12148520121584828,-0.30094089909307631,-0.23962586123647334,-0.0075191043281518533,0.10616888872700216,-0.092785543429402248,-0.17957168903736198,0.45362394537389522,-0.34654257885801232
31,372,668.3620,0.0431084199115107,-0.29757415889557709,-0.30860552152542003,-0.081295488130875337,-0.26070291511589605,0.034319234243017104,-0.11685874227471674,0.1181773710664423,-0.15323554847359372,-0.172734621369004,-0.32784938767297911,-0.24969212881754579,-0.019237102764383021,0.15694550920786024,-0.083773976654271692,-0.17886004865885513,0.500502761104253,-0.29250103541237671
32,384,669.3980,-0.0022193899941153738,-0.31394344996602086,-0.30698725316478825,-0.031958044509896692,-0.25696693986310132,0.011874016646329342,-0.12585510641542821,0.18549034761521158,-0.14096053371403608,-0.20981706801849492,-0.28339985345263885,-0.2824450597761719,0.054546669338723867,0.15399025909438965,-0.10607673701744821,-0.1234029776809317,0.50337901156243547,-0.28103883735531254
33,396,668.5160,0.024907567084811406,-0.34308705205636253,-0.28168618572096282,-0.0628791835848595,-0.23773036205035578,0.0583285090488467,-0.071469868868714662,0.26666763602416876,-0.09665264384536372,-0.25995878071937645,-0.28511220238348417,-0.303035282144168,0.13253497974425504,0.11274601838078153,-0.076021139319050843,-0.10063536210006624,0.50299537389835958,-0.22145075508272691
34,408,669.4260,0.09343656252205744,-0.29457839678219738,-0.2365571516085378,-0.10444981492043921,-0.28021479878323385,0.027785422372150759,-0.12392375352338385,0.26755141240047869,-0.049246148245951915,-0.23717638390723855,-0.29238744029715086,-0.34299463471271641,0.20009064744431984,0.051292979909939911,-0.099080875680897018,-0.0650559288774875,0.46424079392252127,-0.215113808516007
35,420,669.5640,0.06016499653436256,-0.33320061363455711,-0.3060025318020862,-0.12041897154066894,-0.21586228236577026,0.024946026070757753,-0.084973677327795011,0.3161205676883127,-0.10920089585834844,-0.20653361179711976,-0.24059320730002365,-0.32061556035383026,0.17195254452354228,0.074505776939122859,-0.10546861510069611,-0.044741082070604843,0.50032532974100419,-0.19009737920493777
36,432,668.3820,0.043411461620642772,-0.36878499688388561,-0.33323642789462854,-0.11900149187313973,-0.15765188748691641,0.004424085281339734,-0.081956075516159244,0.31273512141684395,-0.14635533109258092,-0.22596920331072412,-0.15276244348629781,-0.33497171871031639,0.2003393071008765,0.055300293106545231,-0.093721322579429278,-0.093538140373760459,0.5007414685278363,-0.18028588184429956
37,444,667.7980,0.0546660935123157,-0.33928923559329782,-0.38933682446630929,-0.10374803913229737,-0.12899661563411322,0.063076334617647278,-0.042815560061724614,0.28739728427646327,-0.15105451421201571,-0.24796220078590198,-0.12773697567112485,-0.27474678259749563,0.21281024626215914,0.010604167472888166,-0.12604498883196388,-0.16905289444063537,0.49796776924119929,-0.17163240396942545
38,456,667.8640,0.032088638643225371,-0.26853640322930994,-0.3414456641250338,-0.066743514768767484,-0.08390205931061949,0.051889718756997813,-0.011390428378251731,0.25376194123874973,-0.11953148861629787,-0.28774549205167682,-0.17769255105342588,-0.2539232149269342,0.23342820986949453,-0.0095902229739474026,-0.14392597067218177,-0.16909440483748581,0.59171937706943378,-0.16968542748978674
39,468,668.2000,0.01392350758768343,-0.2711800619488634,-0.38137446515903062,-0.027011875456765769,-0.12626342667610829,0.067985498639483652,-0.047468675279405209,0.20916231813374292,-0.1284424599420049,-0.29455740947794373,-0.13255173363158612,-0.28829711585357676,0.24879887284451208,-0.0062655887293225762,-0.15552895829915722,-0.14901423356463939,0.571674266400859,-0.17439716685115286
40,480,667.8320,0.0030195718259875327,-0.301071015392855,-0.3690819601705459,0.0018738649530941024,-0.093552230527503652,0.030955556531200284,-0.055156634420021083,0.20378699321974778,-0.13527003241418931,-0.25002690102619451,-0.11350541427703831,-0.28204023631482988,0.20860775998034911,-0.027893840650516286,-0.10874058515966681,-0.14640212189331703,0.60142796505880136,-0.14507707743060211
41,492,667.8920,-0.02167186306930639,-0.28289155670542565,-0.39033568337095376,-0.046243503202436725,-0.13221819934614457,0.0085755805541169652,-0.076380998829479713,0.23707883808312796,-0.1274387377194334,-0.25320273767202017,-0.12554204634916746,-0.25847518200337766,0.22216168828094748,-0.030679488398002282,-0.0733494777786331,-0.17704633489864696,0.61419272219882293,-0.1284438164764517
42,504,667.8960,-0.060765015916225566,-0.2823105211331044,-0.3553280301899705,-0.042730634967981337,-0.16003591327037142,0.010154482682554594,-0.0987904462242588,0.29119190768127146,-0.070475313578458543,-0.22813827494321917,-0.10662203431625211,-0.28205286874755864,0.28178823282791188,0.0026284877483019049,-0.11929786421221709,-0.11552234830997808,0.6039922373225115,-0.096827698882562457
43,516,668.0700,-0.087460387855121877,-0.23061769368580468,-0.35321885952697651,-0.00080373750927037425,-0.156908734702642,0.0071719338298402253,-0.091703467426838381,0.30127616267254675,-0.07745440082705575,-0.2286261687559378,-0.080143593411791142,-0.27413057139606123,0.31403120376865573,0.048618311638476838,-0.137334589122022,-0.14212160308689295,0.58820389533868755,-0.11052137320963756
44,528,667.7400,-0.09755398321077785,-0.24634441359556836,-0.33993157307167043,-0.013520141269731039,-0.12651991282125497,0.019645535281996158,-0.060920594932641653,0.37318995699342089,-0.11765397934868235,-0.21502520830830285,-0.023725177396455178,-0.29014514510966227,0.33268541764212306,0.039954473131155688,-0.11508956320780456,-0.11820372245666749,0.55972944308317774,-0.15724694179257137
45,540,668.4140,-0.113356434546168,-0.21024258476862098,-0.38213446477862,0.028703617373101387,-0.10422163211367637,0.034013638856562986,-0.0077567750071812691,0.4005006876203614,-0.08745280646436443,-0.1820845070843066,-0.027977076799161324,-0.33046386211979645,0.31746954128752991,-0.044905839235823454,-0.10662080864038649,-0.14380480284440589,0.53258826108106549,-0.1401183090737797
46,552,667.7860,-0.11582183306804067,-0.18911075979880265,-0.35360017690782697,0.01673278256517979,-0.12749067119364041,0.053773273652811052,-0.070586598168382836,0.41719904161589516,-0.023471588334108669,-0.20990320699722972,0.027054026646287459,-0.3256410357400672,0.34828908450327445,-0.072718794601899242,-0.099594566456611064,-0.11054390540005485,0.52501542938171475,-0.13146698059476705
47,564,667.8880,-0.11286448752070322,-0.15757520652768875,-0.34058745617106667,0.045349268463691139,-0.11547307461309878,0.05648075931275779,-0.06167738678401808,0.48820432847736567,-0.041287047163885475,-0.19078286432471725,0.0086993186374757243,-0.31453280300015091,0.35048014691947843,-0.092954846444433609,-0.022838947494420579,-0.11481761160946766,0.49028812974362562,-0.13718355074967339
48,576,667.9100,-0.070445048296335,-0.17708458150554016,-0.3364004997197822,0.052237525355987378,-0.10428355915511361,0.026052526597859813,-0.052397211388924808,0.46426778236286542,-0.069041715885777621,-0.22713343418756926,0.02826564153555922,-0.27318423134606945,0.36811374942537706,-0.098208021708569793,-0.054618519802358295,-0.131907301411041,0.51722770751010794,-0.13129294283808052
49,588,667.7440,-0.088476698467298748,-0.24920088952248826,-0.31109670554529073,0.0075170226315168856,-0.11381284853312769,0.031052678880798996,-0.069068161031967418,0.51021693951505731,-0.11006203633199904,-0.22099193876345641,0.041162961693527247,-0.23936755102185078,0.36695695875363826,-0.090758015361804362,-0.03167089194531722,-0.092613336967112547,0.47772655789260959,-0.13009165867052275
50,600,667.9720,-0.090171852672841737,-0.26300019952932785,-0.305787659346553,0.012912908968289536,-0.14189867733874498,0.026179017762079027,-0.071144670152107722,0.46836531379661345,-0.17551883671151289,-0.24368559744039961,0.018714892787525823,-0.24573327409779955,0.27487509296007356,-0.094873859371366359,0.012719014611933678,-0.13793890105546683,0.52345465549226655,-0.11002919685254857
51,612,667.7320,-0.10634056236922124,-0.27526115522207595,-0.2934001125234027,0.04998236191273351,-0.17477005314481547,0.01297830862764668,-0.12087786974628002,0.3971111356698237,-0.14935800036375649,-0.27877001206798646,0.023282630296949044,-0.23806347341262923,0.32016456161041512,-0.050660537035554322,0.0025558733225218579,-0.0870638994041028,0.55432790459144232,-0.10987880537349851
52,624,667.8560,-0.11910635440773701,-0.26961118015793745,-0.34975186025399241,0.095169594196799129,-0.15218408891237528,0.0366605174319353,-0.096970020647958566,0.43999368610685557,-0.15692533734160216,-0.23850330673515302,0.042614860819700381,-0.19380479338114143,0.28504841356000771,-0.083149875762046591,0.03879072888848447,-0.054108639135499251,0.53703405592675213,-0.13487769943452618
53,636,668.6560,-0.12439808975764131,-0.24625511303422995,-0.32278411339585406,0.07532501389616833,-0.15496807773050428,0.0013703377363682423,-0.11354772482271316,0.42657826430209983,-0.15089248719281873,-0.28443921562379876,0.022900527725356067,-0.19040736127430627,0.28712498348636079,-0.079365297985753008,0.031326331688259705,-0.018121559717008195,0.55741335945266846,-0.14340974471766882
54,648,667.6860,-0.093757176702508174,-0.23775964203487673,-0.31358602188600526,0.052030366452411818,-0.16099566490613332,0.042285563207097428,-0.098731889513266363,0.42780802538716933,-0.15258692508784319,-0.31594336142345864,0.0020226332988736969,-0.14427623360998149,0.28960865969891203,-0.071363206898623854,-0.012927734112840034,0.012505132430864707,0.57511045119837367,-0.13923730900633119
55,660,668.0440,-0.12118952217695023,-0.19532339535075788,-0.31676078932055868,0.08515191717779072,-0.15872672393692119,0.057602448451327289,-0.10445212664065419,0.43513361639839915,-0.11255008403138553,-0.32378719132104461,0.0066817209076019627,-0.16269647456849196,0.28293720422111635,-0.085916857082863785,-0.049443260477681335,-0.0016257425095314655,0.573879262270493,-0.11859404269048568
56,672,668.0360,-0.097094340455282271,-0.15042551194945333,-0.33279659707946274,0.025979579424609007,-0.14345107226371,0.036333545267977607,-0.06358907634209171,0.4025242644637626,-0.14474021857908567,-0.32087796540828234,-0.025245317917977125,-0.16176972891066974,0.31769856308566258,-0.088270189435802948,-0.025042838591826318,-0.013194978037494958,0.60699263790349034,-0.098063329552042819
57,684,667.8420,-0.064559227566727,-0.11968593930058997,-0.35002943474131831,-0.0059914470904310181,-0.12925478648106722,0.04625928107940265,-0.049453719628425687,0.43506504432216697,-0.18967601467542519,-0.3027660540267883,-0.03905971321366037,-0.12019293137867654,0.31422778237645194,-0.081299227533785837,-0.071157625689173651,-0.045381893221891519,0.603628480033186,-0.10665043987699709
58,696,667.7000,-0.079584161228320086,-0.12777881861658411,-0.3197382497610699,0.0071741826262298053,-0.14223502081694683,0.064498979011847118,-0.061541000946748248,0.4323363408942632,-0.13994956152523078,-0.31817145569174493,-0.025158957733576924,-0.16365988691201191,0.36066084591804781,-0.092069160392863128,-0.040943004593069758,-0.054552520126830414,0.581858310158767,-0.10996791089643464
59,708,667.9620,-0.064083623692688288,-0.17733347066370239,-0.29555512952018537,-0.0060965668485816809,-0.15415230338922928,0.037983659675796685,-0.057712130078508235,0.41681622262092838,-0.15123698657477147,-0.33255321749862005,-0.06064700302605517,-0.18137750305555447,0.35009784857919124,-0.093507981483251387,-0.048384523278347573,-0.045683055096499621,0.58267424251346911,-0.085323491193436116
60,720,667.8660,-0.054187003129456061,-0.1471530410222068,-0.297889950432124,0.0047085773937276185,-0.13666894130052176,0.038278047530725938,-0.076272702630559019,0.40148647000353338,-0.13581347330209409,-0.34107809278897655,-0.084991538104734671,-0.18505648041806691,0.32964932120808627,-0.12994861970588581,-0.050293458638623161,-0.018452129342207555,0.60644346490298939,-0.084061704482818189
61,732,667.6920,-0.068155636906838582,-0.12304650396668035,-0.3194901287320645,0.015276064243935343,-0.11957756313666507,0.04013040978765664,-0.070009733623751319,0.353406528513185,-0.14612516092298922,-0.32022799404159685,-0.096336163837212357,-0.12451345315098931,0.33588009103543881,-0.15317168092867706,-0.077397803052932063,-0.0649733351362038,0.64523031441693024,-0.075705954414264642
62,744,667.5880,-0.057085388919466733,-0.12558856502614385,-0.31753762105643285,-0.0067257791147969414,-0.10850201158466742,0.039944676614213956,-0.077108144468936171,0.35052344595935536,-0.16005215764395722,-0.33120853374291392,-0.09658545842208692,-0.13794778365420932,0.32180417612930257,-0.16547842422302567,-0.077080213376985382,-0.058859661245481858,0.64644188479311282,-0.061645326848331718
63,756,667.8500,-0.012076657339352885,-0.12326210061423325,-0.31395084483366914,-0.014617882206731547,-0.12217097308764494,0.01569043827391178,-0.087764436464620954,0.35866232789556046,-0.17208311912136409,-0.33448560013003964,-0.1081277637768626,-0.11620469478617459,0.31241697094140375,-0.14563069220631519,-0.081595587856017227,-0.067246097077169012,0.645465218258723,-0.0743554694828874
64,768,667.8080,-0.0071112520251397351,-0.13786347761934356,-0.32012389382180617,-0.014296019541233808,-0.12861926905033716,0.015524899804619408,-0.094754119354107255,0.35806983615040033,-0.15431282920093173,-0.32975873785345922,-0.083395513123349571,-0.12570082267201402,0.32977865236810155,-0.16606520406943787,-0.094677274269918468,-0.048125950962639538,0.63566761297194219,-0.061034271132355052
65,780,667.9200,-0.0069767813767207558,-0.12188105279015855,-0.33627058135126459,-0.021922129481295943,-0.12280589465222361,0.017065528433425389,-0.089106518869135481,0.36170820353619432,-0.12765725789673357,-0.33148060758533687,-0.10168247378790968,-0.10807551899779649,0.30603334979463431,-0.17661084028516436,-0.094611786580389975,-0.051212016199969915,0.64539856734777423,-0.062304687786272864
66,792,667.7460,0.0084571603275316,-0.11776565611825668,-0.3331878237511437,-0.016772826289702607,-0.12017765387389248,0.015671463062190766,-0.085224357103994161,0.34876947070899916,-0.10634078380073549,-0.35027133890723389,-0.091808110322809389,-0.10383600879960596,0.32999382198692573,-0.20028556087550065,-0.084590726449972287,-0.065991427104493128,0.63581473672920563,0.0027796299141166344
67,804,667.8500,-0.016125566176339028,-0.11606362665678921,-0.32354923667144142,0.002753772579780571,-0.13305749541016632,0.028672555181581422,-0.1034266071110873,0.35428063178627855,-0.090966520319878008,-0.34925141410495542,-0.083686412791475193,-0.068521999120112781,0.31352154633999346,-0.18402906179784576,-0.082202149572131136,-0.049269701478472816,0.657752672264696,-0.0113477878230467
68,816,667.8840,-0.0276571863680039,-0.11203536450493636,-0.33719166634255138,0.032844890563855561,-0.15779029657127264,0.034180981854681582,-0.10623490605478624,0.37492676834081845,-0.054764268176730815,-0.35061173075117646,-0.077770882390065993,-0.10387458424539929,0.30994475612998323,-0.16724667539319282,-0.087728318733925156,-0.037308539307350647,0.6336674627081027,-0.028033986212523013
69,828,667.6280,-0.03468704593421524,-0.10702090420816833,-0.33580071800310957,-0.0048076203164507253,-0.18623939713172585,0.010117985907811402,-0.11431744749612059,0.36270399537385195,-0.061706851294673466,-0.33607830000795974,-0.091134412399144729,-0.11070809003910317,0.32284565951639765,-0.15193241335715543,-0.051105369735901546,-0.051606034304788884,0.64251214444026639,-0.055001727855970357
70,840,667.4440,-0.016229661173692317,-0.080159625126890913,-0.34839488944465696,-0.00039284425962713684,-0.1817399833051338,0.026657479012420531,-0.1262887062091558,0.37611250085992542,-0.059121834450855074,-0.32346914768460555,-0.095943650552905255,-0.11936657701295439,0.33648587508810057,-0.16837481810092014,-0.034894922307878481,-0.071838648441781922,0.62267565922471169,-0.061855456653261393
71,852,667.5900,-0.038350094939590934,-0.086627774315560166,-0.34933075111489303,-0.0061498531470947889,-0.18725920834581014,0.04807970715957393,-0.127140982163465,0.3921313503127124,-0.046910269544746155,-0.3078419941885811,-0.080168131283328281,-0.11820886990704629,0.34561588889449718,-0.15308068651312579,-0.026837463299222965,-0.088043148220576642,0.61653707615122511,-0.061153440438878583
72,864,667.6460,-0.054450812957446131,-0.097806716133750027,-0.33818972803170527,0.0083298845641395867,-0.18483900033587128,0.048341255687506191,-0.13426621458633858,0.41283918798003327,-0.012479006000236034,-0.30674153597014536,-0.055137076740417609,-0.11336483056109746,0.33948571872515149,-0.15535580843521468,-0.03330667573992039,-0.085289867014428117,0.61277732775032978,-0.0556466126552614
73,876,667.6380,-0.0779530445882989,-0.093906903612661657,-0.33031389130441119,0.031715963895172249,-0.19125037091142619,0.041377929008739767,-0.12893467246657453,0.42030227028983969,0.019356046534075539,-0.31340403923648141,-0.056565063297598223,-0.080826939343014659,0.34229868511232642,-0.15484536117586437,-0.030747896641550539,-0.096041282797166214,0.61155548036586516,-0.050270818052753144
74,888,667.7600,-0.062104537849300194,-0.10476645271752671,-0.33131536686245677,0.0336687294452923,-0.19436526415724331,0.040059367928339279,-0.14199034491150095,0.3733977902998501,0.038377041578532008,-0.32495106126146595,-0.041255568208049612,-0.047097493270806139,0.35380547505250304,-0.17361096617015936,-0.043708731289391622,-0.095811065471821416,0.621358944099081,-0.031181263831350132
75,900,667.6280,-0.038800599178679659,-0.11706601431490839,-0.34524535817594937,0.0077630979140369981,-0.18569858814253806,0.026424900376052895,-0.12764110590361161,0.33739751063783963,0.024414298165175718,-0.32097281791344168,-0.068624779179839362,-0.044321053699663437,0.35759830070340076,-0.16732248402618821,-0.072891132694410665,-0.091004985303978991,0.6360157896187163,-0.026831789934348406
76,912,667.8780,-0.00039204976553828305,-0.10257901279564817,-0.36028016436636651,-0.011432419198622418,-0.20111539311771584,0.018139782783598124,-0.12700181593165388,0.32244966354819116,0.016107748885344188,-0.32474515943322618,-0.082703772675373849,-0.045715946217766985,0.3696381348417852,-0.14572734892272327,-0.0789523068952947,-0.066188134299108248,0.63384854631970333,-0.038404402414916584
77,924,667.5880,-0.029626616310288487,-0.11740412911710761,-0.3764578807215363,-0.011367847247546498,-0.18447054048901876,0.035253001268206706,-0.13514304582811232,0.30033103217624635,0.0040053880442022308,-0.31111333860078311,-0.074008027718259525,-0.024440651325176782,0.35871859172691273,-0.13600764512646818,-0.086314411357431717,-0.087833652194197559,0.65227270773582335,-0.047126466241753442
78,936,667.7580,-0.032422763215543084,-0.11768574596539824,-0.38880104428494805,0.0071336232376371048,-0.19091603517497807,0.041577533906735582,-0.14272242833462723,0.30803224823938291,0.017888953315704288,-0.29395975610816349,-0.0713843090531178,-0.0030799791821113877,0.33817066731972362,-0.13685993584449621,-0.058296613883268032,-0.10616239411580983,0.65088004889833317,-0.0657937367176024
79,948,667.4880,-0.049772455144398833,-0.10464666900950369,-0.38579197197290838,0.0098850323856729521,-0.18657794624750776,0.039223850847332938,-0.16013936613668264,0.29031868488913015,0.057495138300738491,-0.29049617300712666,-0.068485994605785083,0.0074578352530271629,0.36345506474360095,-0.11929033682936141,-0.0449404776919193,-0.10114096243526348,0.64842410541007056,-0.089896331617961719
80,960,667.8060,-0.05074448149533646,-0.0920942868756705,-0.35403875466856616,0.017211398441649421,-0.20697922170395075,0.040319653482147222,-0.16078921977561306,0.34018090242081228,0.053551949407852642,-0.29621453305114831,-0.0671478237043793,-0.00014875929465505067,0.3618741396873385,-0.11325955920425532,-0.030552788129313491,-0.10102629706639198,0.63746881167794078,-0.1023075348697069
81,972,667.7360,-0.054715852337100052,-0.091121489747927609,-0.36117364168948579,0.040823321075555787,-0.21356883704044255,0.048106587747103059,-0.17466341951087172,0.32428155932116581,0.053405997547999122,-0.30789346758578956,-0.069860016736370434,-0.013714451607800085,0.35413220640845555,-0.090271663923718409,-0.047252674167387404,-0.097041766321280754,0.63621175954260867,-0.10632602675362961
82,984,667.6060,-0.062755450775204141,-0.086994187441877882,-0.34633214522207506,0.057886607188301936,-0.21767187274419753,0.040947911353329716,-0.17562572489923461,0.356141597262537,0.074931394829835574,-0.28874278606060455,-0.073655700898302215,0.002417327270897586,0.34861939696978284,-0.0977319402196967,-0.0463245639396156,-0.088026737354026635,0.63469200697183747,-0.10512776614520254
83,996,667.5880,-0.073077608528246074,-0.08048396729135783,-0.33178959557002569,0.064073804705005635,-0.229992853690775,0.033985473015998906,-0.17076461676947252,0.37347019689082372,0.049182390643447906,-0.29691416046106267,-0.088579020205231646,-0.0051063257398414053,0.35417578957794388,-0.10096641043821526,-0.052742038003509774,-0.087041725107758747,0.6274287055228881,-0.0735565375390525
84,1008,667.6940,-0.057575887366526218,-0.055992706895101788,-0.33389671459089965,0.04575507162615227,-0.22623419547953544,0.05634451901684049,-0.173766030214804,0.36194766493536029,0.036871315372982043,-0.29489595758774639,-0.095562351049882213,-0.013738377174264058,0.37072229609431917,-0.11032373594792512,-0.056575104468447344,-0.092377554447873253,0.62575279379896465,-0.076441072984129721
85,1020,667.6920,-0.0681759609343354,-0.072141267311706864,-0.32975486901742418,0.061236409511780235,-0.226084167233881,0.051793613865080891,-0.16822086733812117,0.37969775735769407,0.04940917801401723,-0.29956059745151709,-0.062336450669117666,-0.038015048763769044,0.38790416818711504,-0.0982957878806168,-0.04283808671790558,-0.081811100821892191,0.6123635243028801,-0.054038838539395
86,1032,667.6520,-0.072204016484983438,-0.0797583454157955,-0.33806031248543672,0.054917170014273105,-0.2289177142845629,0.051798648338166456,-0.1777048343461553,0.34807774925431578,0.033213535941191925,-0.29825645578880983,-0.085880900990104689,-0.022536520224321288,0.38013335048081415,-0.12174843451695459,-0.046631081778623823,-0.079633062797140733,0.62357813991252042,-0.046250260216141155
87,1044,667.7040,-0.059196367481466665,-0.084997900532206655,-0.33481652591237937,0.060408141278142771,-0.23135779569986284,0.050466204942095888,-0.17717732836860792,0.3160077502970654,0.0072417689522865925,-0.3162228599249966,-0.07386458503421714,-0.013666504240493357,0.3835013141549935,-0.10503858439400264,-0.052992785520405282,-0.084378359363024472,0.63071165625882442,-0.068437394358504378
88,1056,667.7660,-0.045500334908052019,-0.091723712097317889,-0.3459128171340875,0.042185878326400583,-0.2317860601118579,0.041312777550819926,-0.16823510462843574,0.29545226533466951,-0.013341159880274621,-0.30290171118975728,-0.0840106335570798,-0.0042540994409645911,0.38406976913317936,-0.10156330184157242,-0.045376994591094531,-0.0930544954167377,0.64570950202161126,-0.08332319799609085
89,1068,667.2920,-0.057359267862626677,-0.10976473465788084,-0.3586768607396566,0.035658726834639151,-0.21553500125632952,0.055077954153929992,-0.16191244921773795,0.31188418939464563,-0.0084989256340785874,-0.30816993298336426,-0.084277710964148614,-0.010237192628309062,0.370554475858396,-0.090181485551644083,-0.065454238890434863,-0.10485610963963195,0.63820585375698147,-0.0848922137626813
90,1080,667.4440,-0.050261919570098512,-0.11090408059932606,-0.3722098715089639,0.052120843073148515,-0.21902612335852334,0.063201776653094885,-0.15919350020071538,0.31238000579983966,0.01307637839492228,-0.3063698076593005,-0.10725286404958997,-0.000755198487748258,0.3407774407566555,-0.089191274232516132,-0.073915410417597208,-0.10265805718566118,0.640123250505021,-0.082988715171515667
91,1092,667.3020,-0.052865289438162544,-0.11515360775593733,-0.36729371160341334,0.0486203007765054,-0.21395126166420539,0.05781539914386645,-0.15517678727676415,0.31151658825470563,0.0041703669418705772,-0.31102965885753647,-0.087594922922869231,0.0049226617711026627,0.349745932005383,-0.088285090867983126,-0.0789182845333077,-0.11581074485438352,0.6411402899956079,-0.072340193818226525
92,1104,667.3440,-0.048302555191866145,-0.10951025034445354,-0.36314221794109974,0.062031781654016141,-0.21073005691088714,0.047850569551909396,-0.14732622416997815,0.32476355785000127,0.019364113782706343,-0.30474277489239349,-0.091200702137680278,-0.013542635240529722,0.36196786072407616,-0.093916119798703013,-0.060479726102120365,-0.11238273908525806,0.63772231650550781,-0.078501277512405071
93,1116,667.3400,-0.05890967260963411,-0.12130223746092024,-0.36971854815628419,0.064237486482315961,-0.20920711181239732,0.051841316057345023,-0.15014505735728789,0.32608893245620041,0.025434951457990275,-0.30131070746235217,-0.078324435839153259,-0.020520987668777222,0.35757012622362488,-0.09648873252664,-0.065707960538706853,-0.12267247527417949,0.63434371476128959,-0.075067995798770035
94,1128,667.4880,-0.061619317242089994,-0.12954358275081074,-0.3680472160998996,0.073404436571851944,-0.21444843027434529,0.051275276855304495,-0.15085586974790449,0.32867218505952922,0.036199953400304435,-0.30125315117781543,-0.069080201120956433,-0.016120885430900653,0.35886559771284626,-0.088098823761234013,-0.0597312303324423,-0.11496848808272227,0.63100927891563952,-0.086108717069449184
95,1140,667.3840,-0.061206740918923,-0.13528535870086367,-0.37684211631376918,0.0753909859190851,-0.21043467056608747,0.057530686434993442,-0.14785229259703545,0.29982387764435053,0.044104997272205217,-0.30565131090240194,-0.067499526355321082,-0.01719071241283442,0.36172144329283368,-0.09828677419307856,-0.053706001609185865,-0.11105441263703478,0.63516286662012245,-0.094723778318496668
96,1152,667.4260,-0.046635135490326114,-0.12596632207723785,-0.37306233117349141,0.077408923105946423,-0.218146410858813,0.056636187852896182,-0.14749144624515434,0.2892479516084101,0.028169105785790852,-0.30802371779079551,-0.089507852866407861,-0.00946456059063676,0.35904374247156784,-0.095192924310522051,-0.057205712701612933,-0.10659420584497749,0.64386770297333074,-0.085429094529327176
97,1164,667.2760,-0.042821277327620866,-0.13368466536141832,-0.38224264208993147,0.064865057532085379,-0.21623173278555488,0.057878784592184131,-0.13811512565953671,0.27249666689706903,0.02978982731666183,-0.31104002023604949,-0.08281260264645883,0.0058456533779020206,0.36795171857842668,-0.089493435216257661,-0.04648951478896985,-0.11585881534472746,0.642959221579379,-0.085310716323342889
98,1176,667.2800,-0.043511079050679261,-0.13130289988780486,-0.3750534169035708,0.057792268926284023,-0.22585142824397866,0.051408102901833487,-0.14878939643943753,0.27562619750752587,0.018962727955899993,-0.318842840487875,-0.076186597785556268,0.00283252086100802,0.36672347558275287,-0.094667781526985462,-0.037199668681242991,-0.11754854346142964,0.64051830254144837,-0.074789660212671444
99,1188,667.4140,-0.047469847676186845,-0.12905777382448436,-0.37322420398771072,0.050403754144863804,-0.23411550561334948,0.042957419191275076,-0.14731624057123513,0.26955177942484537,0.023129906955619135,-0.30967697012586032,-0.0847043150281547,-0.0034894183041680863,0.37150275644987807,-0.086466682244595833,-0.027820738222237722,-0.11505492633612534,0.64561859913421016,-0.075938014788732355
100,1200,667.2740,-0.04709089007825084,-0.1369267853647366,-0.36395349492910961,0.047812644033230989,-0.23491039005856421,0.044945045434788972,-0.15438892938195786,0.29167108596541158,0.0041257354036627215,-0.3087880854071518,-0.085735751790267628,-0.010149685971903572,0.37017608646965927,-0.085398448986546985,-0.0310125437899545,-0.11812314950375279,0.63738769213286794,-0.084011914970817142
101,1212,667.4020,-0.054291902345220355,-0.12284520596274991,-0.35906864482341372,0.054150498180914976,-0.24004485374873938,0.046420454495646371,-0.15630502540119959,0.29272220079942912,0.013165968258148747,-0.31323395496663281,-0.081701828803604132,0.0047260054361387763,0.37556178879556595,-0.099172641681037357,-0.025262401169703214,-0.1123818746936681,0.63373043929225492,-0.083824625677537914
102,1224,667.3300,-0.054035235313860223,-0.1140475011528455,-0.36000310283741338,0.044638111126456513,-0.238334482012209,0.049952040678787134,-0.15730569956141466,0.28441256261893688,0.012067475970554107,-0.31494832654324795,-0.093464043885020609,0.003531314964090774,0.37762481049137808,-0.11128111812209877,-0.028848701037281686,-0.11679660785334391,0.633371187778603,-0.084364268946710369
103,1236,667.2580,-0.047461286497197885,-0.12515626541207606,-0.373156248953198,0.045473152859666813,-0.23179713010522432,0.053876735947052189,-0.15885884643428211,0.28101971239468648,0.0040094223005658469,-0.30718559006925417,-0.0948065928442541,0.0055131531825683595,0.37449518752527838,-0.10933126572754474,-0.02993216220451925,-0.12399735014419561,0.63080265947959935,-0.093340911330579479
104,1248,667.3200,-0.057422165917341381,-0.12320087634970336,-0.37595881386579438,0.050181407071729266,-0.23665584697215725,0.051838240929159757,-0.16006145707388911,0.29049955505145419,0.0059879947596693317,-0.29080813227332364,-0.091022701448262147,0.015038037982142739,0.37501431539869579,-0.10256993432907796,-0.03017171894620924,-0.12810273927547319,0.6310142165331909,-0.084525024545916261
105,1260,667.3620,-0.054981934521397866,-0.12568773679452883,-0.37892525858868348,0.048790210429652578,-0.233732733213002,0.05362081891740534,-0.16129383973149608,0.28434890357197928,0.0058409839687788775,-0.28769240958061776,-0.090846965848142391,0.012064911703379689,0.38335105201442432,-0.10303826863501578,-0.029371218661600078,-0.12499692538110403,0.6294348517619468,-0.089446507016565063
106,1272,667.3500,-0.050188169407064415,-0.12148398772601481,-0.37495858100374596,0.050169310259548981,-0.22659862794398086,0.051019969327367264,-0.16266730108240487,0.28301717165991019,0.0073654591556276154,-0.29815612931284852,-0.0815590785955544,0.01739394573004872,0.39133949097054965,-0.10029924138876796,-0.024810703542521927,-0.12194575400499619,0.627587842614404,-0.095855807626658865
107,1284,667.2980,-0.04908635909521198,-0.11631369901460258,-0.37211601644939418,0.0512926858151757,-0.22717327486681058,0.049302347401009639,-0.16961600358163126,0.27747178119451787,-0.00014284549179678023,-0.29692137546023306,-0.095239618594015515,0.028417775795099003,0.3828546954868976,-0.1113805146067393,-0.022200198199592153,-0.12041902372534226,0.633472396507022,-0.0937895771561556
108,1296,667.3080,-0.052615573370445916,-0.113127828914699,-0.373836792678067,0.054618327654247165,-0.22986460005459494,0.051871461447948741,-0.17149639285797569,0.27262828921908,0.00024140284103229686,-0.28948774436476077,-0.099561332913244233,0.029697393288638012,0.39388240340599295,-0.11417027001151951,-0.01748839278286821,-0.12463148413114027,0.628066709717846,-0.092503340020725758
109,1308,667.2840,-0.045710091772288568,-0.10537019400530802,-0.37391555401643572,0.06696406317934965,-0.224587351033263,0.044082398039421072,-0.17220039966308534,0.27918763320080103,0.003492897850390675,-0.29002112815870434,-0.093411842882441184,0.029893802900688982,0.39473327307368139,-0.11109793002282631,-0.012133475275404907,-0.11422484337464127,0.629380032527012,-0.096745305322639308
110,1320,667.4200,-0.039673018915128318,-0.0957592085537908,-0.36797940625005249,0.064733146335344688,-0.21967997115690543,0.04586152236613248,-0.17722321679683326,0.281224212711283,0.0095880238718752675,-0.29989555911321897,-0.091066491943476477,0.020833981457113678,0.39780268566769267,-0.11473793623849123,-0.011380577340411929,-0.10785800462988672,0.62959190913120922,-0.093538729411248064
111,1332,667.2940,-0.03003889669486285,-0.10173261593474776,-0.37083026553725679,0.068678959951900292,-0.21898883459629853,0.052702412724009579,-0.169716675718144,0.28635301663915558,0.020929613393584692,-0.30328957994234068,-0.10054865453715259,0.019809462200510133,0.39372103416872156,-0.11372883490390638,-0.0070271969353465713,-0.1089231969737933,0.62503661728143955,-0.10218988313904688
112,1344,667.2560,-0.017941804798074459,-0.094187744178463692,-0.37285371487651287,0.069374261966767048,-0.2160136944442457,0.051922399838473882,-0.16270538888937885,0.28143694053491114,0.023780665322336629,-0.3119646792307762,-0.1110407335088978,0.0282244858604466,0.384462981982497,-0.10922692276257286,-0.0093914097864733568,-0.10499061218573132,0.62927528683894185,-0.11268711128711791
113,1356,667.2800,-0.014594631983147661,-0.099560657973504676,-0.37267998132491353,0.066979531864654454,-0.21563026277122721,0.050221842203972883,-0.15705798257638515,0.29370334161357209,0.027430631979695235,-0.31166274474924965,-0.11202231586220958,0.015582135826373626,0.37836207829023988,-0.11553398266092309,-0.0076094188616062279,-0.10397306873613826,0.62579133383146535,-0.12170068974638462
114,1368,667.2100,-0.021625591989247291,-0.092139773177876777,-0.36903151297056591,0.070221797057888335,-0.21965671885086518,0.0471300163707274,-0.15871831339587228,0.30034889593220093,0.024494040179525067,-0.30302652817792747,-0.11002281634978857,0.020702515826037386,0.37519750604114877,-0.11860893901507455,-0.013732340842654548,-0.10415521650670551,0.629567288107755,-0.11669722705884097
115,1380,667.3100,-0.016919715430348425,-0.08784289435030318,-0.37454962015276377,0.063777254005372791,-0.21439001432853902,0.046750559067640786,-0.15130206924589687,0.29648865029487459,0.017384786428713585,-0.30099956098805936,-0.12248239690885798,0.030306314218270076,0.37501327053892203,-0.12112769497744877,-0.02060538675086308,-0.10813362820035402,0.63389836659298882,-0.10404838293303498
116,1392,667.3500,-0.017549798249892716,-0.090009222639365977,-0.36302921764293911,0.059108697077010865,-0.22354241041115361,0.0491290617734981,-0.1536481936033772,0.29256526615951312,0.022724221215045807,-0.30912860798860248,-0.1302603075635391,0.027252295718362105,0.36651345381397493,-0.11765768897210119,-0.019444152093751482,-0.10308892048872612,0.63924897955366566,-0.10773058879630924
117,1404,667.3060,-0.01916345333941798,-0.084113003812317441,-0.36396406921151792,0.05374915393599753,-0.20764591798021886,0.04910904673173698,-0.1485677139436353,0.29523718500300211,0.0189099923402145,-0.31188213713947804,-0.12791156815485891,0.026650950517642352,0.37252165033266954,-0.11730860042529979,-0.030320803280604033,-0.099241021292288817,0.64172427197688053,-0.10285895301479739
118,1416,667.2140,-0.019249953694589105,-0.075239658581732885,-0.3617128026136473,0.045185457963395632,-0.21508468270497061,0.047391378701234096,-0.15458218516828631,0.30218462041234007,0.0057968118542920423,-0.30440496717000876,-0.13581184631009463,0.013212837341467892,0.37437118509557915,-0.12263850120310588,-0.030644977221197918,-0.099667888577425617,0.64054145033133425,-0.088459265370918777
119,1428,667.2720,-0.014168439768691565,-0.080035995814552174,-0.36374001759954216,0.040228307076451843,-0.21492658305984094,0.0457052277131522,-0.14963457228567678,0.30133139615921872,0.0054690581458994242,-0.31007848803313109,-0.13959257447141238,0.017981364588990634,0.37283346437578885,-0.12263749558357247,-0.028006432851784106,-0.090154721416788361,0.64069840363903019,-0.082672647814742
120,1440,667.4080,-0.017591891764417392,-0.087297887760354839,-0.36587803149215409,0.040039210488665544,-0.21460514829773267,0.044235955364189415,-0.15617890096063064,0.3020992399580068,0.01835345501087305,-0.30960348402187648,-0.14088308520091664,0.01555443209374599,0.36617058369603589,-0.12685255221753317,-0.035572821909246349,-0.093742764540672832,0.63753472931902,-0.092670559693964275
121,1452,667.4180,-0.013950854106406516,-0.081074244217203051,-0.36617174059440832,0.041386508546844426,-0.21217418849805933,0.041283891927719821,-0.1591756418833907,0.30162084977598869,0.014725606936714488,-0.30698110180486593,-0.13770070382428329,0.011889784249554544,0.36630431440245603,-0.13443274685667181,-0.031301904486887751,-0.094837326988482074,0.639655644620933,-0.088466172337808735
122,1464,667.2700,-0.012145699673558859,-0.077114805037359221,-0.36770239065317833,0.046056423649036428,-0.21747492405996002,0.045800437619375904,-0.15525793654282652,0.29808153877455751,0.028213358682422127,-0.31055037471619018,-0.14060824635288874,0.023974847929121676,0.36064662634497269,-0.13674125036429238,-0.03405011089351246,-0.096665521749698738,0.63920750924258352,-0.088100926262459786
123,1476,667.3100,-0.016158728452200753,-0.0811551753331222,-0.36902995769016367,0.048409323169335591,-0.21355511256174226,0.047033713531031057,-0.15183360287839356,0.29560169189612351,0.023410190033579741,-0.31374857041750492,-0.1397485221141524,0.016153547264145026,0.349669825294182,-0.13184347115811412,-0.039543540434128485,-0.095585961693912189,0.64640176673148286,-0.086124668222775563
124,1488,667.2600,-0.013448547072829959,-0.080646070160596661,-0.36961709893135636,0.049068382122571384,-0.21490732652309771,0.044712688219729034,-0.14725504230595993,0.29179918605078781,0.017766167975716458,-0.3170792401178088,-0.14006128439777629,0.018558226526455879,0.34597393242019364,-0.13020751286381535,-0.04065585563569047,-0.096104234388185453,0.65032363538561888,-0.084783602340578079
125,1500,667.2440,-0.01507818731031626,-0.086294723781963012,-0.37400494604546269,0.048820516648555023,-0.21651685393056228,0.046525570113874572,-0.15095441213458496,0.28131331940624543,0.021903641787829508,-0.31095663756204134,-0.14203144916882204,0.030773956799755014,0.34929289376856887,-0.12757771009735502,-0.042787626854094943,-0.096601878262662866,0.65036234420939465,-0.086446410109684166
126,1512,667.1840,-0.011205486051409216,-0.08665100339968472,-0.37704452014160517,0.047407579393110605,-0.21766807745180189,0.049338143690899609,-0.1493874125294605,0.27668514217323331,0.026101267569467825,-0.312948847624386,-0.1422786828734563,0.029775041786145963,0.34736128063263277,-0.12454953250156366,-0.043035842499913206,-0.10448422399267375,0.65022395498232433,-0.08401601318695566
127,1524,667.2240,-0.016419468960881159,-0.090348708611955431,-0.37721298507847656,0.046622305369600527,-0.22086260479686784,0.048591091788990043,-0.14774284417604278,0.28261660256600385,0.016068953794057761,-0.31541233616855685,-0.13445532555604917,0.028545304511694809,0.35268061586895816,-0.12251679330793094,-0.04107787165118483,-0.10614756896926371,0.64503281872656015,-0.079654177210527616
128,1536,667.2340,-0.014008171837852759,-0.094815415668227113,-0.37654021721918418,0.035921053171123166,-0.22351576578135995,0.050374148330468944,-0.15040201368280162,0.275230525769854,0.018061122874860679,-0.31828880353805533,-0.13680033992712193,0.031123931933518725,0.35024425488548305,-0.12280647361914647,-0.043882568178163418,-0.10748970828713168,0.64638724577240048,-0.074919060294740741
129,1548,667.2340,-0.011880324197258915,-0.10025284910168022,-0.38078202195893951,0.041254556276334807,-0.22520844544654842,0.0514031319079953,-0.15183699748678958,0.27797590848139309,0.02675585707541097,-0.31765940243451762,-0.12613355105370855,0.030731284736024031,0.350794264049491,-0.11324395218513182,-0.043444223904850567,-0.10676591956448984,0.64340323366015573,-0.084057005909143362
130,1560,667.2000,-0.010724832648408412,-0.098845445371874854,-0.37691785946172163,0.036455010325022207,-0.22702419090729761,0.048934150394745309,-0.15211357222138427,0.28121761794961164,0.018753832167098302,-0.32154865075702155,-0.12609837015815173,0.030174529029964887,0.3503928015839553,-0.11156153731813595,-0.044970992812508784,-0.10229431487819683,0.643300234257194,-0.088045521346589883
131,1572,667.2400,-0.019064478668832624,-0.0942940893337517,-0.37331987390078625,0.037950404862543585,-0.22726015972279115,0.050179208711602377,-0.15299497247146124,0.28751301034394272,0.025855049035087393,-0.31911033318602955,-0.1200056037788227,0.029224240227957322,0.35310714641507163,-0.11085092528322268,-0.051052639698207933,-0.10276092212567357,0.64241137178052465,-0.092356167372182121
132,1584,667.2000,-0.018492896330064974,-0.097723189353480136,-0.37266716252018384,0.041562404439058787,-0.22090918521955172,0.0501072951406162,-0.15116700561767929,0.28632444740794011,0.030263728920814029,-0.31856039319508872,-0.11958686368044483,0.031523857758264932,0.3553448952428262,-0.11074578318129422,-0.045103411130214578,-0.1063823142240944,0.64376407116162138,-0.093952070840473925
133,1596,667.2340,-0.022899136850401538,-0.10220670260768504,-0.37361791322918114,0.041883072837908708,-0.21914735159901472,0.04900354703993047,-0.14997887279101146,0.28864945488487226,0.029075548215994645,-0.31709634226435468,-0.11835120593224564,0.029056297098578848,0.34877042351125126,-0.11321162935710005,-0.049580407979993385,-0.11000444007912297,0.64589068083104972,-0.092197946870421627
134,1608,667.2100,-0.020800846543331804,-0.10128867201308163,-0.37248594390269824,0.040578804763703243,-0.22685314840624851,0.050595137576671029,-0.15515312272511697,0.28686780884871776,0.036972262202556186,-0.31864630622101492,-0.11491298925196604,0.028126362338871828,0.34280390270659278,-0.11521390807093491,-0.051241241286749645,-0.11234332968433773,0.64555221581705236,-0.091929464218944379
135,1620,667.1700,-0.020267181639866252,-0.099607898251480018,-0.37166105805971789,0.044380641139619988,-0.22734900402071584,0.051959975820627329,-0.15158920524563965,0.292587786179465,0.03625946526779586,-0.31286803160440196,-0.11914892929558007,0.021277944942264176,0.34868457892478366,-0.11431251255521141,-0.0493410776567046,-0.10928536680048768,0.64405538467209911,-0.0924050364252191
136,1632,667.1540,-0.022182418864927198,-0.10307156478758947,-0.37170135433318879,0.047440524000813236,-0.23263884311862348,0.051077482653968789,-0.1526565521573241,0.28851727348556677,0.039588353973673274,-0.31353129536478447,-0.11774672174669282,0.025669552096249753,0.34620570116686505,-0.1137078341052614,-0.047825636550024114,-0.11509686651339361,0.64336490085465059,-0.090875063221305
137,1644,667.1660,-0.024833185560416825,-0.10509943964590564,-0.371580133120008,0.050711578700622144,-0.23101688030887629,0.049563618972869809,-0.15278699080167765,0.29347035271781341,0.038472814884875008,-0.31369770263446778,-0.1164240366165676,0.023925324277155102,0.34265781484606039,-0.1206052817207357,-0.04605376544161037,-0.11256612337717803,0.64374054172710493,-0.082630612628496539
138,1656,667.1760,-0.023460063640982243,-0.10354555205319066,-0.37033641995956912,0.048871412222393232,-0.22717288692304927,0.045790986257876934,-0.15579476475803428,0.29544196616083568,0.032949699628427469,-0.31394045601167669,-0.11647519413517736,0.021543518882387355,0.3423039416098686,-0.121763797925784,-0.043667723278799156,-0.11095530655115254,0.64521407873908254,-0.085360644593393417
139,1668,667.1680,-0.022378441140924823,-0.10413549650797964,-0.375297274988573,0.047163739362608238,-0.22762779524721949,0.047512103659563279,-0.1542819415972993,0.29017048058455286,0.024617706766621745,-0.312782236232292,-0.11524990135109897,0.027626216035793533,0.34492828517602775,-0.12097982520017406,-0.044281141425692651,-0.10722445811738603,0.64458561871386055,-0.089392935977607321
140,1680,667.1620,-0.022992494298292324,-0.10619711329857895,-0.37071806313215561,0.050196745122466926,-0.23071514688453146,0.047212962395554753,-0.15704648465644835,0.29263478407587934,0.022974529624114486,-0.31101565993882135,-0.1138819087038383,0.029414639004355914,0.34591986118332763,-0.12185031590544039,-0.042238722028174518,-0.10515011334017513,0.64448068138168613,-0.091569367912744754
141,1692,667.2180,-0.022193338519232834,-0.10652001539588543,-0.37302126172716638,0.050827000615734252,-0.23640576659889898,0.04701845025788684,-0.15961527313033519,0.29155882360761071,0.024902007543701893,-0.30920023737015717,-0.11530059340581134,0.028691145027526985,0.34470287858254711,-0.11875589804294616,-0.036803818816728569,-0.10812712053954859,0.6420070502213634,-0.095248257315205989
142,1704,667.2160,-0.025490134344892546,-0.10795623481945649,-0.37230084018265935,0.0500331803299591,-0.23640476957035486,0.047133409254227321,-0.15793196446799876,0.29877081660583543,0.023705239568455223,-0.30875568480113053,-0.11420502848868695,0.026579341018148163,0.34033130576672405,-0.11635510765866511,-0.039240527079691764,-0.10644158992828257,0.64278443874262492,-0.0946034704249298
143,1716,667.1760,-0.024077000634652002,-0.10715801899373253,-0.37341063155599541,0.054128062902020366,-0.23731765558764323,0.047753201560381105,-0.15912128669194961,0.30428121924360707,0.019871378537102524,-0.30695159785984688,-0.10999530365541868,0.02715816808243415,0.33987846067212868,-0.11401548322756631,-0.042071442635197034,-0.10460990068952418,0.64081646684194149,-0.096825264551049769
144,1728,667.2080,-0.018405541492811175,-0.10956998558551806,-0.37992932717808148,0.052397661956534593,-0.23667763230592231,0.047158003805115124,-0.15505670488775436,0.29883103034978659,0.023736598722777006,-0.30661708794425258,-0.11733662134130704,0.033781298001254755,0.33587802051303656,-0.11437906219850716,-0.042840237389618181,-0.10658584247906321,0.64106865927486523,-0.095618448600605838
145,1740,667.1780,-0.019472053308020584,-0.10589460775239494,-0.37842286441954909,0.050213810782000511,-0.23509809957571648,0.04765694412195795,-0.15893806030049637,0.29641059364909922,0.022511723239520803,-0.30721111479227359,-0.1155458545334441,0.031113040208123333,0.34133584485846358,-0.11389914738764559,-0.038911888403044395,-0.10487788797491611,0.64102846774740052,-0.097145140175835615
146,1752,667.1880,-0.017796749202365344,-0.10708463691414256,-0.3779695727517387,0.050194612789781247,-0.23593218357044321,0.048161788993149893,-0.16141901117109089,0.29346679366134432,0.023149816674060211,-0.30549255585329771,-0.11787690148970334,0.032636115217579836,0.34087788952872711,-0.1152289278719572,-0.039780780864520734,-0.10343710607200751,0.64210337497664194,-0.097983189035587587
147,1764,667.1600,-0.01814313197426224,-0.10676570164987076,-0.3805836948847669,0.051770570091180142,-0.23782960547186113,0.050409090966868519,-0.16006355044273016,0.29059318898704278,0.026920294270535369,-0.30538868525616414,-0.11676017225311142,0.037478016863036527,0.34232631287222565,-0.11292985199424925,-0.040495808835087715,-0.10708454154370194,0.63994610921223383,-0.098920858508469156
148,1776,667.1880,-0.020604172095346904,-0.10503671826579326,-0.37948866467292169,0.053349003887941122,-0.23718393388004386,0.050152707740710248,-0.15970116376469531,0.28717944871972939,0.022733664072115887,-0.30554347920987346,-0.11498741011227741,0.037087354326174646,0.34388096486786368,-0.11238701760284894,-0.042083637659502716,-0.10768834554049059,0.64201956273585348,-0.099227979838514863
149,1788,667.1740,-0.019378680058374433,-0.10727462038728219,-0.38067245147100548,0.0540264499206605,-0.2349699424490988,0.049014633059839913,-0.15839665596194541,0.29128353721385031,0.025324618485945909,-0.30360939117789176,-0.11087001214017932,0.038284824220949372,0.3427755618858373,-0.11082249161307751,-0.04254946208387568,-0.10952360311054264,0.64190861070168215,-0.10178810632803222
150,1800,667.1560,-0.023458079532840629,-0.10708404654331319,-0.37822733991911039,0.054687264472133248,-0.23584839000610094,0.046864784221754878,-0.15959569629172485,0.29267613844028878,0.024713993259552931,-0.30255027222954423,-0.11053658817634915,0.034879152551859589,0.34475412933790678,-0.11115148775332344,-0.042717858576406871,-0.11148051087232064,0.64172155133999131,-0.099592110293615685
151,1812,667.1560,-0.025145419075806291,-0.10722129475108323,-0.3765803020594346,0.053162405702150771,-0.2366724405184214,0.047527421513095566,-0.15882785822239878,0.29689178229367325,0.023748653886165719,-0.303905171163424,-0.10773898932534648,0.0327226809284317,0.34374366430016867,-0.11314635140475335,-0.042382502333780804,-0.11069992091389452,0.64109483156191993,-0.099089273026881933
152,1824,667.1620,-0.025756176302192884,-0.10755286644851697,-0.37501374300155749,0.053064081001307717,-0.23655689211110242,0.0476304627120148,-0.15956436934611065,0.30013855547451668,0.024178406616086289,-0.30364954171122183,-0.10680711053977429,0.031447808815091696,0.34301607785795779,-0.11340965270693419,-0.039285000437194829,-0.10799341065783713,0.64166284891310321,-0.099009047436374467
153,1836,667.1620,-0.027182447515156433,-0.11202480853813077,-0.37451754624004618,0.052450400705481161,-0.23649882996167648,0.047951468076752622,-0.15863599025567976,0.30244303219841084,0.023342592195502734,-0.30412462519225736,-0.1062210513759914,0.027051829060469018,0.34089975160435337,-0.10972505341672399,-0.040435233786749153,-0.10640284050582195,0.64244796381292346,-0.098546172391079573
154,1848,667.1580,-0.028789170028866273,-0.11056731396215072,-0.373255103358327,0.055544381171640317,-0.23706675579069805,0.046518090964529434,-0.16060855268064306,0.30850019314201393,0.023682312168258668,-0.3035072072338188,-0.10382672845565773,0.026937236040287131,0.34036404799906794,-0.11082925612710351,-0.041344327117030504,-0.10489908279181047,0.64015856565111329,-0.10128920559640921
155,1860,667.1620,-0.029431349118325661,-0.11020209975164297,-0.37544341586108937,0.055373697796536711,-0.2348735933865298,0.047428092607087191,-0.15884750547159115,0.30793625425326615,0.027375539049713113,-0.301535735109878,-0.10302316697685028,0.028003771876266823,0.34002165201702655,-0.11167057829146294,-0.0421109275105439,-0.10759395869180505,0.6404061107911635,-0.1035245370982666
156,1872,667.1580,-0.029466983723225468,-0.10897625697240067,-0.37402156638556966,0.057009350292907324,-0.23323122374343114,0.046516414048751932,-0.1576125751634615,0.31098140719164341,0.02788943546704812,-0.30202724704613121,-0.10317461093328603,0.030214142787284539,0.33943067783078107,-0.1121351324226442,-0.04278799658716502,-0.10691466491632977,0.64047616194262025,-0.10535046420889055
157,1884,667.1620,-0.029268951918651791,-0.10997855247941528,-0.373163265232664,0.05544069987354773,-0.2309035290804681,0.046678347253900736,-0.15594788992689337,0.31019490277818079,0.026776375714950656,-0.30483474903482816,-0.10215937141814255,0.027956513588020461,0.33986808228195342,-0.11249644731889513,-0.045553149577993557,-0.10523000671095523,0.64152977074882533,-0.10416276095687513
158,1896,667.1560,-0.032533934923412514,-0.11007193451262932,-0.37046831428038451,0.057259126899330166,-0.22878754986690436,0.045750453412261215,-0.15556296435744041,0.31051286683783547,0.026785264586054555,-0.30505858944977038,-0.10033166829401337,0.024609706262658151,0.34089198455610281,-0.11262662315281168,-0.04488781385988224,-0.10440802114258434,0.64367019754154831,-0.10275409335783324
159,1908,667.1500,-0.0290681644831474,-0.10561541225515399,-0.37142292539450833,0.057578511810909616,-0.23054635874743612,0.044486722772672835,-0.15767487551465975,0.30827470957355019,0.027655984427224788,-0.30470096359289228,-0.10338326701519054,0.027567764788319585,0.34198100933616188,-0.11417428883259169,-0.040894634801642377,-0.10418859170072586,0.64327260449473478,-0.10102079594559847
160,1920,667.1740,-0.028866870731577253,-0.10342210681512601,-0.37047415624496627,0.060395658899271634,-0.22877611052093036,0.04350352500659032,-0.1572832564832147,0.30956130222625527,0.024655206881294384,-0.30589584891206095,-0.1023310892737518,0.02746729625799503,0.34233716174606554,-0.11464832818955929,-0.040885722733269972,-0.10386842320697251,0.64318605834932818,-0.1036148198227291
161,1932,667.1560,-0.027755343056110916,-0.10344373747109076,-0.3704303847494021,0.060968284028212631,-0.2303158830699841,0.043931331052530623,-0.15779908320759359,0.30990941291910057,0.0272828787573675,-0.30563479444438568,-0.10106971780221058,0.030054247072308127,0.34354771378219262,-0.11360818773495006,-0.040219807899816447,-0.10457376976323145,0.6419227102704903,-0.1037214269902324
162,1944,667.1620,-0.028981634983486257,-0.10391762300032566,-0.37080136423906523,0.0644184796927515,-0.230734018894006,0.044095735418176282,-0.15825559747634352,0.3130869764321943,0.029628292143026102,-0.30530022553218283,-0.098508315996506016,0.029371731482699118,0.34195363334276269,-0.11145575869260588,-0.039026596019488248,-0.10234613896997606,0.64135647259091377,-0.10503384556469003
163,1956,667.1620,-0.031312916860391525,-0.10525585299541798,-0.371036530996633,0.063640264822748718,-0.23108513428197378,0.045636281422620995,-0.15844712725143756,0.31482224398118841,0.03022247352289913,-0.30453319527823514,-0.097799582363946619,0.02865339697429755,0.34325254303093417,-0.10946524167647381,-0.039065837598767757,-0.10143875450047099,0.63997628662037176,-0.10570816452314694
164,1968,667.1660,-0.029092322803334156,-0.1068194691197426,-0.37290574928917192,0.061873906220457853,-0.23090648058368657,0.045308380563576341,-0.15962963686521509,0.31201363841973007,0.029042102860811835,-0.30342638469477412,-0.09982764180558315,0.031909434818265275,0.34343282432379441,-0.11017609994604488,-0.038760139857783649,-0.10198828073582843,0.640053515147116,-0.10481761765429917
165,1980,667.1620,-0.030478035104221177,-0.10769000914215043,-0.37312412657430832,0.061795436780617552,-0.23121518900596,0.044993238373453349,-0.1588687721724564,0.31380003426229391,0.027727350665227267,-0.30004108406899249,-0.0996445377028009,0.032295360016066844,0.344046195446861,-0.10916727456181399,-0.039498713155383849,-0.10130003587044709,0.64006151115476029,-0.10775581241320134
166,1992,667.1740,-0.031264983263358227,-0.10710708299348491,-0.37264236420319596,0.061178104909291577,-0.2304628218068116,0.045006073595215107,-0.15914617164722905,0.31269395348278067,0.02692643390096644,-0.30009941967895715,-0.10038816865408424,0.032074570142555242,0.34460546257380104,-0.11021367024372566,-0.039638149024007911,-0.1010572531057343,0.6410987914647146,-0.10501753438293857
167,2004,667.1620,-0.031571394667660686,-0.10846341607379954,-0.37270673478247496,0.0613404245219942,-0.2330443475238955,0.04521391179133278,-0.16091377955479816,0.31212073244104083,0.0263018050238383,-0.30008757558414195,-0.10136212891380914,0.032858208476045932,0.34398035647549841,-0.11000660618780186,-0.038851586244205351,-0.10157617824448119,0.63971869452937047,-0.10604539070893741
168,2016,667.1740,-0.032783759090179936,-0.10801490120257709,-0.37255134287936753,0.062545316960113478,-0.2332462383087166,0.045228339853563025,-0.16090059056839959,0.31263888246102262,0.0282715753522077,-0.3001334438347848,-0.099706896477040827,0.03461758392241901,0.346586065538627,-0.11087293828766914,-0.037535528037252117,-0.10251815042713472,0.63764341702856087,-0.1069581332239989
169,2028,667.1560,-0.032252754800350357,-0.10870488198017265,-0.37240453436365917,0.061690514448700905,-0.23242548699358651,0.04558378519254274,-0.1596607320982637,0.31283878295673789,0.028376923234595,-0.29987713996130128,-0.099259642756074323,0.033109198173267657,0.346995372357289,-0.11070513780524352,-0.038688651960278854,-0.10312470566769755,0.63829678788705413,-0.10589021508428317
170,2040,667.1620,-0.033576033395072265,-0.10872805034220005,-0.37276438556697278,0.061495229680385018,-0.23141049063293517,0.04546010222770857,-0.15879307017324082,0.31333634993228232,0.030118297912873973,-0.298075637358476,-0.098318657186227384,0.0326631994395977,0.348627305920966,-0.11048429273473429,-0.038195024858235734,-0.10361344385367253,0.63852573843485894,-0.1054578616545888
171,2052,667.1580,-0.032836551561501781,-0.10867053784554437,-0.37385664391199719,0.0612719780108065,-0.23289966031217471,0.046248358023778649,-0.15837280313433164,0.31176112992439714,0.030716777471179773,-0.29786544768725765,-0.099962903153571342,0.033865845854733428,0.34780617612957687,-0.11185615224020079,-0.037141461931137425,-0.10421855766277158,0.63818941508406568,-0.10524334983051617
172,2064,667.1580,-0.033781090102879496,-0.10800372293086806,-0.37263401687692804,0.061173670395102055,-0.23390674409096032,0.045679447843765986,-0.15908530596694687,0.31328248786819279,0.032188241841547852,-0.2987203178051715,-0.0990908810786057,0.031774123757331817,0.34652546278848956,-0.11269812174659564,-0.036195303592256013,-0.10590672661925871,0.63769088520561856,-0.10601801470128142
173,2076,667.1560,-0.034963544792249196,-0.10934013127039705,-0.372291318814431,0.060111443815857576,-0.23365370768732224,0.045506959082501845,-0.15797924548044243,0.31199974794007646,0.03251376803878793,-0.29755738322685166,-0.099379087758113771,0.030672691523134996,0.34703302036605604,-0.11294133199413145,-0.035383003676921237,-0.10813779900128506,0.63844038586221941,-0.10698138126721483
174,2088,667.1560,-0.0341538735069345,-0.11002191257548029,-0.37239419217271019,0.060023820760379591,-0.23315442886462254,0.044871637282986064,-0.15875079169387576,0.31267082871798124,0.031853578622842611,-0.29619679220642847,-0.10015763240364223,0.028977370324991435,0.34742107131909028,-0.11459357291656833,-0.0339179311623036,-0.10714255437291674,0.63829379184335588,-0.10751404375930851
175,2100,667.1700,-0.035430638354063244,-0.11215108399261055,-0.37271162995116769,0.059599401803577479,-0.23375363569747759,0.0448318545376292,-0.15928673304215488,0.31338564223835708,0.033872794770682807,-0.29571018483425521,-0.099498856367731,0.028914600511784811,0.34729472819546342,-0.11439576757983723,-0.03350629919363371,-0.10523459269226573,0.63714165929294719,-0.11066252069378023
176,2112,667.1580,-0.033955868829747084,-0.11071163064294821,-0.37135632808915642,0.059656906875860873,-0.23415883213758532,0.044707069010635883,-0.15895805689507467,0.3144388016110678,0.035092184428132216,-0.29782576568740721,-0.099930874297312539,0.030308989993239617,0.34664867369534069,-0.1150050397185607,-0.034565748236322913,-0.10373195861385696,0.63694364160304662,-0.11056386604561774
177,2124,667.1560,-0.034900031541971063,-0.11081255960477618,-0.37068680020750605,0.059498863980615456,-0.2351394098543633,0.045745802628015989,-0.15955635206678698,0.31629215296083635,0.037623379361610573,-0.29722456652981954,-0.099072288023329139,0.0291503220113297,0.3466623162428652,-0.11422853440662371,-0.032748362424421508,-0.1038080138503247,0.63605550216231233,-0.1119712103565153
178,2136,667.1560,-0.0337235847778296,-0.11220755475842753,-0.37125334381673436,0.058852611791398335,-0.23467887126005213,0.045332904491703456,-0.16001663450555945,0.31684785771546586,0.03668063386215243,-0.29702042104308307,-0.099725723641422889,0.029551518311405473,0.34685185386090839,-0.11245919567038341,-0.031412634146189937,-0.10232239894853801,0.6358128660180018,-0.11288904788082703
179,2148,667.1560,-0.035034594046561347,-0.11428125312810147,-0.37106694977750909,0.059200783554774726,-0.23510657728110584,0.045015361325198539,-0.16012166447286352,0.31527705259368932,0.037206553894187311,-0.29608862837397348,-0.09926959690839976,0.029538391280303805,0.34686291483480552,-0.11362200477730404,-0.031912573711100824,-0.10294255710355067,0.63602522643441728,-0.11382265348363037
180,2160,667.1560,-0.036387158667223404,-0.11327316212716823,-0.36952961760938535,0.05964711476588902,-0.23566691225559608,0.044497240574679624,-0.16152551061927653,0.31536489286395114,0.0381906970569734,-0.29657519286462641,-0.097588720009017263,0.028173671787245981,0.34799974622605867,-0.11396856867302058,-0.031414526805023768,-0.10309285310874755,0.63570821377511866,-0.11423140039833073
181,2172,667.1560,-0.037560361659082678,-0.11454977856552991,-0.36869697682595348,0.061078835057744189,-0.23575139690167915,0.043853076992153739,-0.16194868162963991,0.31760686664233656,0.0367803895994403,-0.29631758613541181,-0.095610435980507016,0.028473025261287272,0.34782681318944897,-0.11255532831402762,-0.028181039592421252,-0.10234601487252226,0.63513629946441952,-0.11714452793077779
182,2184,667.1560,-0.036130526311493126,-0.11281984770590679,-0.3690287260918157,0.061244553462324262,-0.23484539614424518,0.04313356845298013,-0.16170516456422362,0.31767517492126596,0.038311426270896426,-0.29692121434124608,-0.094372889110933667,0.030552214312082052,0.34890337361275481,-0.11379362381747614,-0.026494437640680123,-0.10195352044658688,0.63494044162340213,-0.11614089348012976
183,2196,667.1620,-0.036372463902500624,-0.11205354512878611,-0.36860326130685234,0.061625117542664261,-0.23538538971905368,0.0428671776242732,-0.16116224631505818,0.32003978266844413,0.037847128674619639,-0.29669634833222991,-0.094712000347132522,0.030420119352247497,0.34740594268557773,-0.11516787295746996,-0.025966962287158109,-0.10230479020280256,0.63512004128006272,-0.11369714292394092
184,2208,667.1560,-0.034579037751293243,-0.1112781139105213,-0.36970636556395514,0.061302772588827908,-0.23537878265173212,0.044080514801727949,-0.1628910718033682,0.3170139387233108,0.039022252910044061,-0.29761290160963327,-0.094854525695517555,0.03036235164299203,0.34849370684947839,-0.11326014930988604,-0.02691207894471194,-0.10227241133485865,0.63503844064652282,-0.11308854767322618
185,2220,667.1560,-0.034566638271410308,-0.11039943993195647,-0.36982684407978189,0.062365352133671809,-0.2353131246587081,0.043748995395602452,-0.16247538869393538,0.31581977878953832,0.038568028916824759,-0.29684133500623583,-0.096061514329929487,0.03070578983969742,0.34949206135495664,-0.11274391348549503,-0.025288524905961507,-0.10175503322454411,0.63513900978385285,-0.11594370096927013
186,2232,667.1560,-0.034845104516012276,-0.11160233967657038,-0.37119532479454592,0.063055790405773068,-0.2346127763892476,0.044790706270150506,-0.16113621452659066,0.31531144185436516,0.039708745399721357,-0.29706018821522479,-0.095944460142719054,0.0312561332774007,0.34799334016382022,-0.11277013449585621,-0.028482061270707917,-0.10207746633743835,0.6353703409785636,-0.11538378378293065
187,2244,667.1580,-0.03558903179328575,-0.11224150182877876,-0.3700912269212977,0.061347936931353909,-0.23478589189317417,0.043873897910756514,-0.16083396626299423,0.315546496120634,0.039835910304345412,-0.29730276018304119,-0.095203202113779958,0.031417379639048094,0.348775251122694,-0.11282344464930248,-0.028747776735489429,-0.10095192709363203,0.6355902082589826,-0.11608898679322492
188,2256,667.1560,-0.035307620665439264,-0.11398740974501563,-0.37012299754099853,0.059801098540990756,-0.23449335744828639,0.044234633574465124,-0.16014490457768157,0.3142368112052632,0.039623018173852984,-0.29848609786171526,-0.095464851207452947,0.032217148383202991,0.34871749584023115,-0.11348902211808422,-0.028590729994295405,-0.10063142079142134,0.63546830276509736,-0.11727644152195067
189,2268,667.1560,-0.036246210082786563,-0.11359220309283928,-0.36862494936499052,0.059854097701650649,-0.23409350978441018,0.044298843593313229,-0.15975869782075622,0.31510741697057582,0.038992524894520028,-0.29916200126747522,-0.095117052723661139,0.032288059356719905,0.34933074337857078,-0.11414599805832917,-0.027926571979393178,-0.099450976730199189,0.63586988510272768,-0.11634986788096312
190,2280,667.1560,-0.036054430207139512,-0.11273489817824656,-0.36785143398438769,0.058690836273586358,-0.23474556661836971,0.044764772469030552,-0.16023157982825628,0.31558219051314229,0.039217212000941304,-0.30001645466003884,-0.095941071942740777,0.032435260875490271,0.34863616922463586,-0.11350002679405653,-0.029352741936885265,-0.098652883596837451,0.635985551523971,-0.11624209985456231
191,2292,667.1560,-0.036339430380188047,-0.11219149823471813,-0.36688361999752361,0.058486884264538054,-0.23430595581904085,0.04435247777068492,-0.16108770881641707,0.31464784526966783,0.03790310243529002,-0.30034454154525209,-0.096045790726822178,0.03183590366032598,0.34867439528928834,-0.11315718272347619,-0.028673470672690396,-0.099549134076235529,0.63671701223764743,-0.11752454988801662
192,2304,667.1560,-0.03702649445078731,-0.11260289247083123,-0.36583958108460662,0.05902008229669068,-0.23451117751533529,0.044469268325363347,-0.16154890180077339,0.31556426929381864,0.038494938331370451,-0.29994895960017159,-0.096690180934353623,0.031338975690871018,0.34833459070984263,-0.11421386502556101,-0.0305431103653084,-0.099311365231329524,0.63687160575804458,-0.11559889891384766
193,2316,667.1560,-0.037168115099212279,-0.1139797388865329,-0.36596060678573605,0.058929409944634817,-0.23499824046331588,0.044018504697784053,-0.16174010673407238,0.3150379934152861,0.036953619653448608,-0.29966660418548258,-0.097103203688981,0.030995608746461491,0.34821923021972806,-0.11367583789932013,-0.03077456085209692,-0.099837542651437225,0.63683542905781343,-0.1158586309328354
194,2328,667.1560,-0.038148642663943806,-0.11529282938567813,-0.36494315581156483,0.060197692649142667,-0.23495373914155948,0.044055728813486676,-0.16111048757726981,0.31726809879556372,0.0383903416178065,-0.29965758569088141,-0.095878588141260171,0.030202759041183375,0.34861078340211843,-0.11317866399400403,-0.03016169465318954,-0.09950334405295852,0.63625656498346139,-0.11538581429443073
195,2340,667.1560,-0.039840249662052782,-0.11738398317261586,-0.36386403427157182,0.059166088391334672,-0.23558934618741675,0.044306787177819357,-0.16139053136278209,0.3194966081767226,0.039639713933780393,-0.29911493603022005,-0.095639101071564508,0.029454642564221332,0.34773484710557295,-0.11342902992310572,-0.030895769641112562,-0.098735096921421212,0.6357960385751199,-0.11544305103284679
196,2352,667.1560,-0.040680820631341853,-0.11872131918269213,-0.36433787584991295,0.06014343063901139,-0.23562166505650914,0.044888589216558659,-0.16160022402679394,0.31963737227517808,0.042504913773991564,-0.298580938609119,-0.095326349934318808,0.030170364702071229,0.34714549297252661,-0.11343904922178422,-0.03042876914034447,-0.098706022696609289,0.63508644291957039,-0.11708035798642404
197,2364,667.1560,-0.040820124058508545,-0.11817490020460365,-0.36430294499545612,0.061171744615473672,-0.23666348284709363,0.044803613758339071,-0.16299311387053089,0.31984786115752706,0.044168685090519876,-0.29800210225401891,-0.094445060700557318,0.031500056768360013,0.34730300418939269,-0.11403737011362471,-0.029145363703913546,-0.0983388401284248,0.63414611975541946,-0.11839670372623924
198,2376,667.1560,-0.04198676358645835,-0.11741998902933881,-0.36356123398342371,0.060393719416286074,-0.23632316678783494,0.044600221745302655,-0.16264100765104436,0.32003879252450235,0.043412550663522217,-0.29855118747535259,-0.093388402541294255,0.03119794125866418,0.34744816658935512,-0.11491094937093072,-0.02842144341564291,-0.0979388739031651,0.634857577694748,-0.1174702977953314
199,2388,667.1560,-0.0415674813868997,-0.11745100357824864,-0.36258526185637779,0.060628529005929459,-0.23642132127333546,0.04477196429305709,-0.1621555991041832,0.32243596218129128,0.043104320004556919,-0.2994443064400612,-0.094030297465727344,0.032269658118755595,0.34567167104438878,-0.11621005631176939,-0.030388353513234573,-0.097235938829897839,0.63467935797546271,-0.1163743432544156
200,2400,667.1560,-0.042498385154595211,-0.11864382216107497,-0.36332174159828723,0.059937539963674936,-0.23607268456511726,0.044534461024078459,-0.16172315878080057,0.32104473623642316,0.04088446335558097,-0.29855591149599603,-0.093579579613522812,0.0304641082137382,0.34498425828404172,-0.11703962649917242,-0.031704975127228793,-0.098559017911419175,0.6356129204576294,-0.11675870323810524
201,2412,667.1560,-0.041677242279266641,-0.11542195253599566,-0.3633464435319701,0.062504457291877161,-0.23475314250614429,0.043760402571359054,-0.16158853635459094,0.32266310385086089,0.040515764000721939,-0.2991549026262954,-0.093563666652711833,0.030871826347219918,0.34505359006584346,-0.11718018143915221,-0.033812909331472414,-0.097589877464410724,0.63602645585219664,-0.11352321974231211
202,2424,667.1560,-0.041254265601785807,-0.11506695629546161,-0.36301065756876005,0.062565809148249052,-0.23420563111544168,0.044767360829457266,-0.1605432721088455,0.32068535899274442,0.041328759805192614,-0.30141161441054087,-0.093607464619045649,0.02846556291973661,0.34577381456030348,-0.11671489822433097,-0.034033124424546493,-0.098629863956466654,0.63586825437318928,-0.11536819761663838
203,2436,667.1560,-0.039973848225265465,-0.11458785462550568,-0.36344669328819446,0.061653055077611291,-0.2339617889276564,0.044030095161925895,-0.16091471492936357,0.31756537289362641,0.0416732299267495,-0.30231572652726718,-0.093728317091114316,0.029949757567333406,0.34568359257219089,-0.11665627070164186,-0.034518799162650292,-0.099791843390690319,0.63689861408827964,-0.11498563882632915
204,2448,667.1520,-0.038985055238895526,-0.11418679654351596,-0.362779621985901,0.063085884704686859,-0.23388482486654108,0.043792549632983138,-0.16159063580462121,0.31514545035347746,0.040992280552785684,-0.30248842823387245,-0.095384091714982147,0.029941810691451527,0.347294108907986,-0.11849173904309375,-0.033240662586840719,-0.10119586828474736,0.63670244471314608,-0.11477052598601595
205,2460,667.1560,-0.041216388894239633,-0.11460710961298234,-0.36095654372303482,0.064271149944450157,-0.23426386092691726,0.043705228765126863,-0.16193528989793665,0.31679693880851151,0.0428741316297199,-0.30182828235961434,-0.094278895952636013,0.02942118445110058,0.34751948617874923,-0.1191694985777233,-0.032235407895229107,-0.10115327390373163,0.63634222060119949,-0.11591059883527684
206,2472,667.1560,-0.04165074028825231,-0.11526317710573046,-0.36004768460358971,0.061627488642056187,-0.23520259222547429,0.043924399362025843,-0.16196201876527988,0.3156497086560181,0.040587900605970874,-0.30198938749123172,-0.095420953376109591,0.027968511605273631,0.34743773687351331,-0.12003370083053344,-0.031585611105015572,-0.10114490410435915,0.63723541971650688,-0.1151397685289902
207,2484,667.1560,-0.040056653061264345,-0.11454327536190261,-0.36231741451558724,0.060176801772619436,-0.23464754082795694,0.044222454608117807,-0.16042054929891214,0.31409431161517609,0.041645501683885422,-0.30142648440826891,-0.097636477379486955,0.027651484365825419,0.3467031108783668,-0.12050616153974525,-0.031850764498730186,-0.10343111796605121,0.63745836674640388,-0.11507513409027051
208,2496,667.1560,-0.040710981251893597,-0.11593975018208781,-0.36225640164532807,0.05961769811136268,-0.23379498259596906,0.043797026230928009,-0.15987111360142778,0.31570495424400835,0.041873189912195741,-0.3004935827775978,-0.09768718880821374,0.028201667541695563,0.3463765354253871,-0.12016181370538032,-0.031186275491775068,-0.10243421189719133,0.63753335083171891,-0.11638721313473996
209,2508,667.1560,-0.0412830746801767,-0.11501627767309865,-0.36155349545865617,0.057498617941754614,-0.23156866636425832,0.043422783290773349,-0.15920715088746312,0.31495804313491466,0.040262779156982481,-0.30091452148794895,-0.097955028662616142,0.027165105905124803,0.34737595932007742,-0.12105764346951603,-0.030504466293776011,-0.10114977206104954,0.6393805318948883,-0.11460899825266267
210,2520,667.1520,-0.040982713935850068,-0.11469094048114381,-0.36180076950187962,0.059334530082462623,-0.23228333449423497,0.042945256608841388,-0.15936093488903375,0.3157978693401684,0.041104274012966492,-0.30061262166126013,-0.098796210353975511,0.028853722090043138,0.34611958149706223,-0.12101333048247219,-0.031075548287119854,-0.101681357882346,0.63896401542531878,-0.11449223896078452
211,2532,667.1560,-0.0429462218771275,-0.11677121583875764,-0.36001789005004964,0.058754380846559894,-0.23158721165871798,0.043410233442717196,-0.15857708978159946,0.3175809251286395,0.040936843217182425,-0.30047155176528989,-0.0989924809387372,0.027680210222806815,0.34537272209781916,-0.12122656734516224,-0.03233911015745479,-0.10251501142513263,0.63942433501420914,-0.11390909131087792
212,2544,667.1520,-0.0393201665847224,-0.11442043500327703,-0.36033459699744919,0.057782190221833438,-0.2314342236431958,0.042690006551615353,-0.15847854312722404,0.31853815069326247,0.040459386144329805,-0.301879893173315,-0.099984427236236281,0.02690829785872877,0.34534290860467293,-0.12132088481557682,-0.0309894036135302,-0.10137738838773981,0.63887386339113938,-0.11533065145976701
213,2556,667.1560,-0.039689352713476435,-0.11556025114571604,-0.35959926591090352,0.05755023218869125,-0.23067527850581807,0.042314675925589289,-0.15790276252988172,0.3200865504901706,0.041220581290687189,-0.30129418793438817,-0.099959232494897812,0.026788551911991539,0.34532649161763646,-0.12135433173965282,-0.029260702034488838,-0.10214484020669701,0.63885775804910228,-0.11585850974492527
214,2568,667.1500,-0.0390528013713009,-0.11421506202802668,-0.36032634324909307,0.056599111230624673,-0.22992906813320146,0.042041395127187173,-0.15806890250031719,0.31797570890101368,0.038771819077485815,-0.301590402273089,-0.101091813389013,0.027372483034526978,0.34620760427096325,-0.12010381976605025,-0.029016993739691854,-0.10262398376395702,0.63990477562069137,-0.11420996882687195
215,2580,667.1500,-0.037303359068802652,-0.11375501397906904,-0.36083847872609681,0.056324337288500594,-0.22965201682824588,0.0417630756981028,-0.15810617980365438,0.31720612429217343,0.039638164472770215,-0.30154548143443233,-0.10214899676710287,0.026837827312509579,0.34655471213831796,-0.12124261456280785,-0.028074748362453873,-0.10316468963551458,0.63970043860031311,-0.11415863232340541
216,2592,667.1620,-0.037157450340367347,-0.11304112761772672,-0.36177912358984682,0.056968102187917563,-0.22980650468647465,0.042764628667501796,-0.15792325708137023,0.31552206388792431,0.039419966405815618,-0.30167408469986184,-0.10196940585254374,0.028594056550159778,0.34736879440385576,-0.12178776263248102,-0.026997224669124079,-0.10399785496388413,0.63946635150924391,-0.11312924051485067
217,2604,667.1520,-0.036866674527946744,-0.11442947795366837,-0.3618735538745067,0.056664620661275387,-0.23121919046198208,0.043028161521224087,-0.1584666683703071,0.31607778459091579,0.040052528940541156,-0.30056983753204086,-0.10278222915523669,0.02805905525451113,0.347929760664216,-0.12152142386830123,-0.025262095997223781,-0.10459391193702168,0.63828549930678968,-0.11359828817813719
218,2616,667.1580,-0.03667173959920627,-0.11475947464070711,-0.3624776985807826,0.056455770730886951,-0.23146026718089996,0.043318155185867777,-0.15732178423939316,0.31726826974865013,0.038963129062361677,-0.30116027948005236,-0.10250232293402035,0.02497246497942027,0.34695822474704197,-0.12270238002458964,-0.025293008258308308,-0.1045140090348172,0.63792828457089423,-0.11269955851661322
219,2628,667.1520,-0.037634324110001539,-0.11470299515174992,-0.36235765990205787,0.055883913510296992,-0.23229370239180602,0.043297698343515836,-0.15788509428595546,0.31773945827129518,0.039955641032125178,-0.30020629434770441,-0.10205336626270392,0.025319439243208178,0.34681579705761573,-0.12160392294395746,-0.024519072417926387,-0.10551027009048394,0.63771520061321985,-0.11396841283310546
220,2640,667.1520,-0.036543796211434214,-0.1150142527989662,-0.36280184287931322,0.055527166155785394,-0.23242033326387654,0.043600979188973862,-0.15815348915823138,0.3157960555082619,0.038910116217612867,-0.30028829401924123,-0.1032324746464312,0.028270055426717879,0.34678373977599114,-0.12230630090267902,-0.025331119715790985,-0.10541678287032404,0.63805212751356921,-0.11304183457450023
221,2652,667.1500,-0.035744666238557335,-0.11585695514066313,-0.364184785018765,0.056099000311957414,-0.23194508187792384,0.043022491613666704,-0.157895808904217,0.31600254383966075,0.039814609265155912,-0.29922227540402263,-0.10250455895186546,0.028520457595292828,0.3469821295113365,-0.12185866831253855,-0.025403714614148434,-0.10375670021219227,0.63799166609834579,-0.11363588172007315
222,2664,667.1560,-0.036214970964092735,-0.11676343436591063,-0.36392480667340726,0.056832060114407681,-0.23181398007790158,0.043009025611569565,-0.157760305100474,0.31646287414387531,0.039911827858859932,-0.29858176780467965,-0.10257164277195642,0.026936387817843584,0.34790707945812183,-0.12072614263953274,-0.024925566106728109,-0.1038963001273801,0.63772562190242188,-0.11411652333231757
223,2676,667.1520,-0.036580814024221156,-0.11701503292862062,-0.36331444267779095,0.05712101805466889,-0.23164132485598082,0.042759114986314427,-0.15818140893401603,0.31592178162691192,0.038835227665947582,-0.299161616284455,-0.10273136395691962,0.025360266495931327,0.34734421320280096,-0.12157845534587192,-0.025407074117231792,-0.103776911491027,0.63817434341728441,-0.1142700883036919
224,2688,667.1520,-0.035481506159020793,-0.11585583958083576,-0.36315600249407065,0.058877744100910748,-0.2317580438771363,0.042971272005517307,-0.15819838940229236,0.3153917952208064,0.038169262134581765,-0.29953520774365405,-0.10347353467425452,0.026148111759768142,0.34781301430379663,-0.12179156703306784,-0.024936645504791369,-0.10386502828879465,0.63785166017367889,-0.11513482347787489
225,2700,667.1520,-0.035480258206428736,-0.11497566110530259,-0.3631890912591188,0.059888229678929518,-0.23139952109968512,0.043036793547932307,-0.15755155262297874,0.315166006220978,0.03735454413777034,-0.29950265855846281,-0.1034497401823021,0.026565509082347626,0.34791798223778175,-0.12320980249503416,-0.023975591256355216,-0.10377632498994777,0.63817969498149651,-0.1144036464566483
226,2712,667.1500,-0.036272889647414666,-0.11420882021657779,-0.36161789813664125,0.059795003106432,-0.23136174269475129,0.041888458499652122,-0.15853796846287793,0.31597938959411875,0.038702898761499446,-0.29973743969772687,-0.10233498282668696,0.026589348081254658,0.3483790169279134,-0.12377612799390049,-0.023067014106916049,-0.10350093748072833,0.638196532295124,-0.11520111725122421
227,2724,667.1500,-0.0374889686487385,-0.11470471169820073,-0.36252409213654663,0.059527979402495317,-0.2309954715134831,0.041571877187964242,-0.15891312638730032,0.31452568964314775,0.040005575452833161,-0.29860657177959993,-0.10157394708369719,0.027780053184192625,0.34894326201065062,-0.12411666442849428,-0.022038674828884643,-0.10401327514435602,0.63839979756330134,-0.1153324106494904
228,2736,667.1500,-0.037903249072964738,-0.11360117332646415,-0.36215702989778459,0.060705950572449284,-0.22997240683694573,0.041393012734100752,-0.15810751765071171,0.3157908797759354,0.042210696966739437,-0.29922619784370164,-0.10026765383317346,0.026478987110752274,0.34945595996449791,-0.12427278121547509,-0.022579064600004802,-0.10315902241143832,0.63836745893893376,-0.11476271510994801
229,2748,667.1500,-0.037235129778688,-0.11199338016678577,-0.36349041511223862,0.062287082628753467,-0.22941848942390503,0.041233691335866,-0.15807370666820827,0.31500510310829205,0.043183756003484862,-0.2989727643483725,-0.0998556627325487,0.028591969429558418,0.34916705997785052,-0.1235950870963598,-0.022799039602552262,-0.10353496382706252,0.63867325218576909,-0.11458749142973844
230,2760,667.1500,-0.037582796151104582,-0.11294266524984406,-0.36349987042302634,0.0625492445815411,-0.22934302314599606,0.04093098462349009,-0.15796093097850566,0.31442866382267182,0.042972456876876342,-0.29840305971335762,-0.10016938323870837,0.028529795101374211,0.34900501803385675,-0.12422132988147017,-0.022630506902665083,-0.10364710047677991,0.638966741261081,-0.11469985970660021
231,2772,667.1500,-0.037273482138991662,-0.11305163818586374,-0.36407483959902259,0.062940802808329047,-0.22940781292871146,0.041448146501342049,-0.15741594771696674,0.31460165261779893,0.045225534995409315,-0.29866736251656767,-0.10006754305624513,0.028767325089394977,0.3482276461308651,-0.12297993512132352,-0.022476105125618928,-0.10423637615873543,0.63892682733463457,-0.11452767584665606
232,2784,667.1500,-0.038275420557171917,-0.11410140120198944,-0.364473722129912,0.063066624433526813,-0.22898017257994069,0.041353516854962462,-0.15705093772340697,0.31475867610139885,0.045817906849163412,-0.29853699775610593,-0.098475333962797937,0.028290913422348987,0.34783897039932632,-0.12347714056973053,-0.021609675432865811,-0.10416610520323973,0.638979011714334,-0.11495828437654415
233,2796,667.1500,-0.0389303240252692,-0.11428367220129766,-0.36405948269959604,0.062208220721793404,-0.22980527417502192,0.040994401641206768,-0.1572283056865639,0.31428230484847636,0.046064386112326668,-0.298236486083141,-0.09832773095357393,0.028275782595739641,0.34763672009773311,-0.12312678406692311,-0.022359830920373667,-0.10491749990603985,0.63937788787135219,-0.114655595055629
234,2808,667.1560,-0.038609984700636125,-0.1147652578538714,-0.36429425850469477,0.061468006906864957,-0.2299201331063212,0.041137385805172622,-0.15709163680255178,0.31466948105862275,0.045913182066195726,-0.29843243710606743,-0.097543323349887454,0.027344172730910197,0.34801215811986691,-0.12298445707681388,-0.022317049808805448,-0.10489737918278051,0.638907972153209,-0.11493413647654409
235,2820,667.1500,-0.038834090094215547,-0.1140185475477562,-0.36397743690397333,0.061092013374911644,-0.22953711577399424,0.041463173631898324,-0.15726755496312897,0.31495794761444146,0.046002829123737411,-0.29842397234162316,-0.098715529667087756,0.027867127863921082,0.348094665903536,-0.1233227446907105,-0.021522624112432175,-0.10563706654524774,0.63878385104772939,-0.11479601418145871
236,2832,667.1520,-0.038431724575883522,-0.11465671119364887,-0.36398514902351925,0.059856301661984447,-0.22994962196828397,0.041704218735295076,-0.15706992642786194,0.31570008684873324,0.046527014661440387,-0.2988959851246985,-0.098937371486485987,0.030120585296226451,0.34685827723776286,-0.12430292720474823,-0.022046243720648343,-0.10532833277766279,0.63852047369001763,-0.11440071333479873
237,2844,667.1500,-0.037702519678780452,-0.11361366314553269,-0.36435006849699497,0.059737510637900358,-0.22970978106857223,0.041238952523464129,-0.15768680879061589,0.31615831460255234,0.045299246083785591,-0.29861517419235967,-0.0991356723444459,0.029884240749714241,0.34750297367863792,-0.12372874386201141,-0.022010106085689062,-0.10494044535884525,0.63831654934212245,-0.11438452130228256
238,2856,667.1500,-0.038442404135174656,-0.11429103751273455,-0.36524535542557512,0.05922563745060714,-0.2291534382872816,0.0416317276435784,-0.15752976223697945,0.31666562754024374,0.04560318153105674,-0.29815781974059852,-0.097921458102710454,0.030550848255568,0.34670205787611852,-0.12324111049133038,-0.022463385899951081,-0.10560821449693426,0.63838495243499571,-0.11453191648953531
239,2868,667.1500,-0.037909346233464994,-0.11380822301686616,-0.364933112424387,0.0587339215630243,-0.22897188350415895,0.040942118947419066,-0.15779060805982348,0.31607515511344841,0.044569874832185379,-0.29823309630824452,-0.098246229852451447,0.031129228819907904,0.34640281729489769,-0.12392557893746359,-0.022573166830307266,-0.1062867382985236,0.63903877812984511,-0.1139735870834038
240,2880,667.1500,-0.037741458655675533,-0.11338220026568523,-0.36491796810847249,0.059124105407109731,-0.22892820933657282,0.04051968734618859,-0.15777704404011053,0.31565565238167759,0.0443202421104858,-0.2992078726333352,-0.097298373326807061,0.031216346397335344,0.34604375301660034,-0.12312835857037673,-0.023296012029075476,-0.10602918718529673,0.63947428477814272,-0.11363188225678104
241,2892,667.1500,-0.037947839233626511,-0.11418891600710517,-0.36516284709886843,0.058782637653049516,-0.22879965541313266,0.040637997741867167,-0.15716815772026682,0.31764003715229261,0.045165640115417578,-0.29848772233548604,-0.097198606033963228,0.031037461559071569,0.34568812029577317,-0.12257765840825009,-0.023014968389889659,-0.10564928216298915,0.63897160225801275,-0.11426838576143086
242,2904,667.1500,-0.03817645610982117,-0.11481468637713031,-0.36538048718979671,0.059076417627646358,-0.22870145890930907,0.040560383746022957,-0.15718423771368251,0.31890703690427419,0.045740449403525521,-0.29856953467475322,-0.0963423059415822,0.029881678979925278,0.34565344264192915,-0.12243344298404514,-0.02371612266563549,-0.10500043779662686,0.63838231878234775,-0.11398439267991953
243,2916,667.1500,-0.038181225531930978,-0.11439318019969713,-0.365198213894049,0.05959879963490386,-0.22891626138462159,0.040583520736973494,-0.15733876733114741,0.32001914431717077,0.046584911507523974,-0.29830168555812914,-0.095488446585772782,0.029715824661280268,0.34638425697150621,-0.12160029400549983,-0.022747270786178917,-0.1041127616243806,0.637917770733152,-0.1143762706521456
244,2928,667.1500,-0.039498889923511304,-0.11641831437174238,-0.36560639602861161,0.058458942242460475,-0.22981999000192424,0.041484450322274311,-0.15788213423275432,0.31986890361447523,0.045939869151739386,-0.29777973815249814,-0.095415413644463445,0.030193367562612292,0.34600667408552727,-0.12146348227442948,-0.022965550137236192,-0.10438275307928103,0.637350006935501,-0.11442027769691433
245,2940,667.1500,-0.039037045494631314,-0.11593396018542383,-0.3651445349895085,0.058634319552846606,-0.22902754670813774,0.041181986678371682,-0.15826795596172324,0.31949711350322246,0.046554756873989321,-0.2970906328373708,-0.096453322459177829,0.029220746637430434,0.3474519216599376,-0.12171872007134815,-0.021574378629604297,-0.10464713273781255,0.637431883588751,-0.11451501238054305
246,2952,667.1500,-0.038373219063197,-0.11602961548044671,-0.36560205226299919,0.058686611961931513,-0.22974152832455402,0.041441744950556768,-0.15822516184102445,0.31831073222097678,0.046395219839225836,-0.29677765810857321,-0.09754288961927679,0.029127351776164781,0.34762061247379078,-0.12181457092280161,-0.021873551621160822,-0.10465275884350569,0.63744188542712366,-0.11423475795995124
247,2964,667.1500,-0.037576165906664134,-0.1160011370713047,-0.36577836866324676,0.058402817296485991,-0.229336015365898,0.04131116152979733,-0.15793691875176824,0.31952764020954172,0.046410521078626442,-0.2971372923962598,-0.0974786798592501,0.029923105909292657,0.34718255199344605,-0.12164568432245723,-0.021700770276122321,-0.10355936596077996,0.63722948499509235,-0.11461278282130558
248,2976,667.1500,-0.03914865652967147,-0.11566137491717093,-0.36490734708782185,0.059588831997625762,-0.22973396835787693,0.041307830671766813,-0.15817962046726045,0.32033423311906656,0.046650320834324119,-0.29687959198392821,-0.0965282735870559,0.029116114741755617,0.34771076058865524,-0.12163986041935866,-0.02191505351909221,-0.10343718854462357,0.63698690643317857,-0.11459892215927328
249,2988,667.1500,-0.03931652629906604,-0.11453931922954122,-0.3648748150410876,0.060936847491910195,-0.229626017522736,0.041074604456705,-0.15841613912001634,0.31974153218412338,0.04688106948949744,-0.29698728286887949,-0.096177989547559684,0.029744381923002727,0.34829104336826905,-0.12183437946821318,-0.022105123650841906,-0.10356879609453175,0.637009936157331,-0.11422775352290354
250,3000,667.1500,-0.038532991919021729,-0.11364569562280381,-0.36451893195653412,0.060067323146350819,-0.22968459626049728,0.041220611706956893,-0.15851752214765458,0.31935354161951945,0.04641589199600446,-0.29806321015749576,-0.096839145206160424,0.030414779575621869,0.34837949588622291,-0.12224068342850054,-0.022059272154421525,-0.10376355030749933,0.63698700287443755,-0.11367389681841276
251,3012,667.1500,-0.039625461023789131,-0.11391326494960959,-0.36353260209891769,0.059670559912024183,-0.23038291687126394,0.041175277784995412,-0.15895386075981682,0.31963840953385109,0.04676752534817738,-0.298130300764936,-0.096232601573360166,0.030292735194646026,0.34926899261643912,-0.12209512089504826,-0.022060081651023696,-0.10377340509227168,0.63661356399154445,-0.11334241948971768
252,3024,667.1500,-0.039539043965017742,-0.11407964795657709,-0.36290154041836359,0.059292779090179451,-0.23090214525809846,0.041211613366556994,-0.15942278332181348,0.31919843926737029,0.047027218960520721,-0.2982393519934366,-0.0963697136002458,0.029816728729789358,0.34970125914681049,-0.12211993007702694,-0.02237282039601814,-0.10382994548577951,0.63665667093312894,-0.11284390074022123
253,3036,667.1500,-0.03982972059825423,-0.11409258206325654,-0.36301169032999686,0.059296679862960291,-0.23056297040883927,0.041445735216457259,-0.15926718198385426,0.31948288527322388,0.047460815726873405,-0.29823116380498765,-0.096375039241111571,0.029986552216476971,0.349894358263025,-0.12167934648978759,-0.021945832209713596,-0.10357921930645758,0.636583829901915,-0.11277318866262616
254,3048,667.1500,-0.039833263395731733,-0.11309203227530308,-0.363235041273532,0.0600491200514325,-0.2307231445350981,0.041317823050397773,-0.15934968545567102,0.31872017583167517,0.046631688964102858,-0.29840091708667738,-0.096074577541377784,0.030831752940699467,0.34993004055305477,-0.121746758022167,-0.022361090848646261,-0.1032388288275192,0.63701579186277757,-0.11194201322601602
