Generation,CountEval,Fitness,phi.proc.1,phi.startTime.1,phi.endTime.1,phi.jobOps.1,phi.arrivalTime.1,phi.totProc.1,phi.wait.1,phi.mac.1,phi.macOps.1,phi.macFree.1,phi.makespan.1,phi.step.1,phi.slotReduced.1,phi.slots.1,phi.slotsTotal.1,phi.wrmMac.1,phi.wrmJob.1,phi.wrmTotal.1
1,12,571.8080,0.27582214885223505,0.066272099998898576,0.30623878752423006,0.16014721917625846,0.34963659024270982,0.29009338768939513,0.10631374871577558,-0.00027312446354740708,0.21646169611979829,-0.0063038761527942086,0.14849877899235925,0.24990807516226635,0.15827252456997931,0.012700296465612503,0.020871407377886217,0.19526240480160928,-0.01503368050360482,0.23976851807469043
2,24,571.2760,0.22980684420696976,-0.08857386347752931,-0.11528415336052458,0.035858020560643813,-0.03337787340669926,0.12775277235604302,0.0959368734709678,0.10926485690430891,0.090108762332356859,-0.19966092755934806,-0.10837172646378021,0.13843625083569158,-0.049935098364447074,0.0928324528538224,-0.12478034449049324,0.095821942468912014,-0.11435895426643483,0.012529957595488705
3,36,571.0980,-0.20204041324096236,-0.020239258397639293,-0.057371465970886507,-0.16888251723441933,-0.032058998258796739,0.12623466119621529,0.00063831269487632774,-0.059651775654212383,0.0315299209337274,-0.26102788036936408,-0.10041787687798107,0.12989925495038149,0.0074706232232193319,0.11738299177093277,-0.061816423697219083,0.0053603319058154611,0.025025903818029684,0.24303402582091607
4,48,571.1740,-0.12944641641007609,0.17519319299674321,-0.2908193380524135,-0.08414625324613903,-0.031457705725922346,0.099989564638256367,-0.059165306161040578,-0.086139106106742039,0.046093717245344126,-0.089744162194655461,-0.1592825630369267,0.064048512466279489,-0.0062323414515183771,-0.08038515511506919,-0.070900515710083628,-0.073854234358211007,0.032748000505975879,0.36782373457300116
5,60,571.0580,-0.21567771016052148,0.13604141121228921,-0.23501985786729318,0.03113563301909953,-0.044376892921863718,-0.0250054971744475,-0.11139088507826748,-0.12221244276778789,-0.15529813113542412,-0.35962608534085183,0.034175361330847712,-0.057625756324634972,0.032740931453899551,-0.14268609512806257,0.13247282267772112,-0.18486293158403103,-0.01046988483406016,0.17042989348978924
6,72,571.4940,-0.093700945779888578,0.15605407198202309,-0.23919290352598888,-0.038605810619517122,0.16028163059246064,0.0041358884951150626,-0.051954382557916221,-0.055392573327866963,-0.0877864713291947,-0.11802004677430925,-0.023448287199461137,-0.08100079360487647,-0.28374044081958927,0.16156733899510151,0.022528735205007609,0.09005214046294116,-0.11287297424544716,0.18279968074149167
7,84,571.5240,-0.238226586483321,0.16801830267190426,-0.27110562357425388,-0.028223862518618303,0.10172988313477865,-0.0836685174866639,-0.16941714103162786,-0.033599931992397289,-0.17488963938752414,-0.14059075983136629,-0.11172308922568412,0.13875264102764462,-0.080013482222485013,0.12375518495543583,0.14476076415475697,-0.0985257237419957,-0.13537487782848795,0.13218725779775153
8,96,569.2560,0.017908786557858238,0.039350644950216493,-0.24680637066007094,-0.11889782419055622,0.068655411418815385,-0.019446501698776025,-0.1735726010675126,0.0072657514994662539,0.0015763832668973985,-0.26880068114335753,-0.16526064149521566,0.16466462209962582,0.05021749526333058,0.35221299919092469,-0.085328768614720732,0.03771716355819859,0.01475751723557764,0.11839817462520393
9,108,571.2240,-0.10159657597704115,-0.067723270699654947,-0.46858072310796339,-0.015472636517708006,0.2056959316920878,0.064215267736842885,0.0044384257444403438,0.091217560796876068,0.031535709657889127,-0.29827251705831093,-0.21721618543930743,0.028550936125922379,-0.0917844576428626,0.18357870082075253,-0.17782349410416062,0.061056228224566293,0.0085899672261884139,0.12308762416168141
10,120,570.5880,-0.11693829713203606,-0.12501872456697039,-0.45226050853414862,0.027635158513013597,0.29660543054755134,0.17043566386271802,0.046662572083523354,0.15769365818953815,0.078528298497141977,-0.29754003715688343,-0.23655820483465756,0.0015523120580527661,-0.21221418814451912,0.20305775526253353,-0.091996855329602556,0.041310608183858281,-0.093899217318567513,-0.12037288187076799
11,132,569.0120,0.021449746336934011,-0.012715572370636655,-0.36354311429540076,-0.060425311837791922,0.21427684385013651,0.22094586347957584,0.059583518902271905,0.16233408668393309,0.13705713040655892,-0.21422675715212414,-0.35246945495991772,0.018433554395160527,0.023286780675379239,0.019209686639524208,-0.14589450558811895,0.0072321932180581805,-0.069636321558143227,0.14082753555493568
12,144,569.8540,-0.18726467641585781,-0.18474419892635191,-0.36212766795269419,-0.12545747729142562,0.20197140131830291,0.25431404995925622,0.081033746405007642,0.131201954340871,0.1773102383935666,-0.20309497778231936,-0.31140227985071078,0.10983873928413192,0.038926110648749554,0.053327966867278268,-0.057734242859437908,0.17326232467043007,-0.086210973032610411,0.036122906009424832
13,156,569.0080,-0.054689717797788029,-0.033239598942534344,-0.48429014229436868,-0.09253542927991433,0.14513098403775102,0.088441258808942907,0.10399378326245062,-0.049665258141688123,-0.1072399892548995,0.011722959299110283,-0.1416538857731556,0.23273158023594798,0.016876141944477223,-0.076158550390002966,0.046164237423062714,0.24349600148202508,0.0090522846753341209,0.092365557473130189
14,168,568.8700,-0.05583955829896517,0.050587850360414396,-0.25075692562469754,0.0048052703632421225,0.11658333892147446,-0.11023250341294863,0.036528056923760405,-0.14755860700423454,-0.19428030939417812,-0.17805163159215509,-0.23780283643437686,0.10369793275861781,-0.0397635293018473,-0.077408561431415057,0.12467226050091669,0.25281369692035155,0.18654460997939795,0.15541485392407273
15,180,571.1740,-0.16170191001554973,0.22886916723024456,-0.31920048100151865,-0.1501444176419324,0.098588860060218775,-0.10213401243090876,-0.021095072660104762,-0.16599823221788157,-0.0809991254606948,-0.17015688908787605,-0.26290638357364315,0.072391925449902778,-0.16282838110215389,-0.022815590170897314,0.057765675199212968,0.1927411094284362,0.076104485083398871,0.11750495961745838
16,192,571.2200,-0.26246695777933521,0.312547241137778,-0.39613328126407688,-0.086938035901345481,-0.050333423158191719,0.012641686177314362,-0.14469203166487507,-0.14268468712125507,-0.082354598182844269,-0.12769308094438253,-0.38252180158691185,0.0039535203184165356,-0.15376353401731974,-0.035061880271772296,-0.022499028512607735,0.081523190421595421,0.10103026926135196,0.13463760262042912
17,204,570.8000,-0.43112629335494518,0.32745128449572708,-0.324000812023885,-0.12045909800045436,-0.0634712170375175,0.044776535352230237,-0.086111234668519332,-0.09625138570910638,-0.035931819633943936,-0.22754378193010688,-0.33838765663080878,-0.078246493543091766,0.018749695272895845,0.054900319173523462,-0.14760970729599332,0.2704836472525825,0.054314691838160664,0.087383533555766793
18,216,568.7540,-0.38342983983760937,0.17687676320166465,-0.41287140263133937,-0.15461335836587684,-0.051262172638206073,0.18426600237970192,-0.062682525294845221,-0.0920975780994875,0.033546569285599924,-0.26110398846639615,-0.3501511664802896,-0.099836220747319238,0.040744391838111085,0.071499236777763112,-0.20873611135029818,0.17728198591959279,0.014747333346262714,-0.0088081638424129423
19,228,568.2900,-0.25039164893969068,0.29766665710314472,-0.39695304740448611,-0.20533685385968867,0.062247931296426286,0.17350522554968034,-0.088811862349669465,0.00888847656234644,0.0544495445809757,-0.23673807379529649,-0.34700841793627468,-0.16371076895571621,0.034771692680792714,0.14355987490844402,-0.071980344582255509,0.28575166288761156,0.032833803578103685,0.0773188558678414
20,240,570.6480,-0.23135074476168743,0.24740979043969044,-0.39014780303625446,-0.14802734848610896,-0.13136685535642278,0.1609693665609884,-0.07082808450963,-0.0070681785374757033,0.013688106472200754,-0.20647305651999423,-0.31256330162054635,-0.10178710682690144,0.11927796763343955,0.17805508663495151,-0.07755925628388971,0.17564603826184041,0.047847726259490006,0.075477773701428524
21,252,568.8780,-0.29008656369159924,0.17832860489356189,-0.25653370346268278,-0.15037635474821637,-0.11883779765588293,0.18648766656352544,-0.20507189697587291,-0.095117925290189045,0.11055856035033894,-0.096966096869159635,-0.34336886307382469,-0.079036285843185075,0.18342374348734447,0.15637301565219469,-0.042353778172316996,0.25588172364376127,-0.0376365872024564,0.043754907855559792
22,264,568.2180,-0.33378631086052052,0.17753305918157214,-0.34861843170146845,-0.061174947045845585,-0.17951712313468507,0.20313284040670571,-0.2130734145285868,-0.0047969722127860839,0.085397900056215822,-0.041334409013850534,-0.42730824269505374,-0.032952719802264684,0.25148499737347968,0.06565261807139175,0.036852958328960295,0.20058750385046756,-0.0024247185028192417,0.040687807906118457
23,276,568.1860,-0.29290660099211019,0.12750882696470964,-0.3495312341039899,-0.0041612645633017347,-0.087322891271915337,0.1584933431930578,-0.05847209770462114,0.037815741283089635,0.045395765279507179,-0.037576453488577168,-0.53294921211420132,-0.13011967332552943,0.30255918840093754,0.16920121276429329,0.018352151443616949,0.24367344988004813,0.064025759883141659,0.064055163896844208
24,288,568.9000,-0.33158938207567823,0.0875588864849217,-0.34038799718240009,0.0525016317195866,-0.029852158380653197,0.19315217271400523,-0.020076377962004194,0.013756398647081926,0.061370690221144823,-0.007071511576461055,-0.58417475561988708,-0.12578538032014203,0.27486258456855289,0.019838406713508307,0.05515056058892364,0.31143514239242032,0.019979493597723108,0.045803717906558392
25,300,568.1920,-0.30854471324240934,0.080440358036100654,-0.20975617663262022,-0.0061795804805752788,-0.066654452435940245,0.22894749818416818,-0.058105844775053331,0.0028821253032866529,0.13245543311936814,-0.037045311908142559,-0.63184113426899013,-0.063963415139252466,0.34466616456574456,0.051936589134577958,0.024373458215945144,0.31042101949127976,-0.0096967841542009419,0.052277933999706615
26,312,568.8520,-0.25386145464917087,0.11588753663232546,-0.2475621311167252,-0.036645991153494352,-0.18064810698914233,0.20105441105996832,-0.061384157690955642,0.016738530803284333,0.092241963755354,-0.040859181655964326,-0.64986745249069544,-0.14254371096261248,0.40788602172493471,0.062088807182708823,0.0094820094140251714,0.1813779106729401,-0.0043952118325000546,-0.0052146875907011234
27,324,568.4560,-0.31485605440245029,0.10911018150390583,-0.22865491138691038,-0.0026894215255143092,-0.15349745152546523,0.21694281492490539,-0.022394302664341316,0.017261621174364465,0.10845425231292845,0.033050597737868108,-0.58275254991038827,-0.21118131821275718,0.37966806261260333,0.17731945824770104,0.033937997142592088,0.13658474702830248,-0.032337587682861609,0.039785344792823744
28,336,569.5700,-0.3073804522637188,0.066164893468624045,-0.24625665108989342,-0.0105951346901332,-0.0842104767981709,0.21928543354358521,-0.088470752270987815,0.056659476100204775,0.10237882992823641,0.045654711797132173,-0.660631660902703,-0.12979024969049163,0.33476553182007884,0.16726078850110454,0.029392574849537674,0.16400412700786121,-0.049126395570392715,0.10113917428052885
29,348,568.1280,-0.37512072536306684,0.084480401243113123,-0.21599214511909809,-0.11639382857358137,0.01967501143921473,0.25454931988511592,-0.09091871900341128,0.06746905407411441,0.02821527089629703,0.027530563544956858,-0.62552146226582639,-0.14862132736765704,0.31638667520400005,0.27106323130309318,-0.036987683546836132,0.020441766370697449,-0.049578877540337359,0.070642188582899973
30,360,568.6080,-0.33430798102153303,0.19231359696932865,-0.17577844112426758,-0.083611600929105981,-0.015010145756351505,0.15975166851711489,-0.13817385484031158,0.12775746744163305,0.046506996313389296,0.049554575632342709,-0.6574279046174516,-0.14131129173588136,0.30706814803733923,0.287126467419714,0.058497621160915864,0.042191937514654651,0.0157626286609735,0.030620665451562227
31,372,569.0120,-0.33774497790036073,0.24308009037288969,-0.2713684386926572,-0.11350292780198004,0.067418595215698041,0.16909592782221458,-0.18082990422388476,0.073182431509699011,0.039799399095501578,0.12841271158838166,-0.6360253116346708,-0.090685918299572135,0.30311884900169611,0.19219913901083252,0.038796359062194266,-0.0015228583613758027,-0.026160309316175152,0.10900663430227209
32,384,568.4380,-0.42097810330137009,0.23160119788259453,-0.23829786046056126,-0.11139881550435131,0.0525815720879162,0.16167159206287177,-0.12694777227183079,0.1350131999013999,0.0735492375106004,0.20043957770870985,-0.600507703062466,-0.11227313152699253,0.26722347957996706,0.19678571693518282,-0.003420559966857225,0.067827558595453225,0.0078362948998741515,0.11483871530330807
33,396,568.4940,-0.32017259848226814,0.25107442539660224,-0.36807632639084625,-0.13293862928497993,0.13825138682961771,0.12277372666849311,-0.15516406923815151,0.16499815490186739,0.0895648488434676,0.18517021573591744,-0.55808656753033037,-0.064320261478567814,0.25536753223105862,0.19396079618005224,-0.010088122083033018,0.048696535389788326,0.0309600896168919,0.16191909456148337
34,408,568.5220,-0.34226042294564374,0.27401422386542074,-0.43704261211532497,-0.09491099888036475,0.20437871648125142,0.14914463935503414,-0.23438528664811598,0.12274660044037639,0.093210526475296124,0.084108933554930043,-0.50600862472275854,-0.096877252430414992,0.18559836656655032,0.19784232268223981,0.046613684905185762,0.091211697954825,0.039062830569907288,0.15842477995191567
35,420,568.4340,-0.35372199256015852,0.241024679050299,-0.42028273576584629,-0.14280152405010554,0.16374493001607421,0.1325481697944714,-0.2443791190889342,0.16519406198153327,0.035270539327873926,0.076142030763166182,-0.50026876566425815,-0.098499045456156578,0.21800500547492432,0.232214158406155,-0.025966546876688024,0.10287341986432252,0.0577202896747271,0.15260893177105744
36,432,568.6440,-0.31981815723970858,0.30683292117516492,-0.37232210921929049,-0.064883133191673437,0.19811526872125554,0.14112717108165576,-0.2281567289924861,0.11960824412911868,-0.0096152103951978266,0.092442352088315083,-0.52083439814650478,-0.07008588673305402,0.18112037569497114,0.21623411017974237,-0.077537488666372667,0.11484212295637147,0.03588699787787316,0.15851220421188233
37,444,568.5140,-0.37879703560181027,0.27325226863483287,-0.35755617518091121,-0.096435825498649083,0.23818778187838593,0.14920310109255222,-0.18388294858766269,0.13789147607303359,-0.054908878655441022,0.10233739021949174,-0.48769191406442924,-0.16284626220719353,0.18293315475373589,0.15895510403540267,-0.13070193942687006,0.11110777262382088,0.031759573105729383,0.21496394754117151
38,456,568.1800,-0.43232015631492421,0.32028952751738865,-0.31713412763511212,-0.10221155583832307,0.27578507713178796,0.12617949997749495,-0.20464514388471933,0.14315828862693764,-0.069859745379078089,0.0984496939898768,-0.44115187029486908,-0.23068206922432521,0.15276657094930643,0.11835137133545064,-0.1267583383283912,0.13629576908845309,0.051438752766435142,0.15838637322889348
39,468,568.7500,-0.42687632568491429,0.36203292488815653,-0.2689148034734466,-0.11134651558723717,0.28239465539004627,0.12813691878793368,-0.22118220526768881,0.12567804702887589,-0.11902811941621716,0.071791934878706887,-0.46041722580036248,-0.17727958094315505,0.15658573005229318,0.1358766635557361,-0.10747671322453541,0.14052112998275976,0.060445436529910676,0.13783393509478964
40,480,568.3220,-0.42648153266448469,0.29977916569664737,-0.272780409173302,-0.0866497411835285,0.24155034040373735,0.12289542751839046,-0.15834016127862655,0.058171386071271938,-0.10436961169542598,0.0927334797912013,-0.50333342975850959,-0.24428102911086375,0.2224150432398346,0.19661462093863019,-0.029432422052796177,0.16392296112789659,0.043222857213219994,0.11557261528693753
41,492,568.6620,-0.41065755262624848,0.31332585137169505,-0.28734588070891309,-0.0992072650627762,0.23206366354535304,0.12700618113641571,-0.15233286419055006,0.033492570439708609,-0.15538588290114266,0.11130318743284782,-0.51496603512028427,-0.21620612450833035,0.13569442158861078,0.14283669563687051,0.0041636903434841945,0.22137371111454404,0.057225743202154039,0.160443348574799
42,504,568.9120,-0.3699577859332131,0.31709966853396643,-0.27470360949351885,-0.14091490701090317,0.22517457947214989,0.14634376008243427,-0.15455980263245286,0.087048998001988037,-0.14403427379189951,0.079336393766989449,-0.54590839935914126,-0.27087893532875312,0.059724003831769276,0.19307464183703588,0.013460091675801211,0.20110382835860635,0.0115749302527811,0.16040875302921068
43,516,568.3240,-0.37787833135420995,0.28752586949507392,-0.31642497126592395,-0.08396315826254265,0.25901776631782869,0.13806585055557652,-0.14942290869147687,0.0781447316722328,-0.13427020242792825,0.072947398356713655,-0.56808746633688678,-0.23989548075551045,0.076786316369234164,0.16516167737867923,-0.052517298098737071,0.15870188237485403,0.048189526696320623,0.14404617303966649
44,528,569.0620,-0.4189615217050357,0.31610434477638977,-0.29341436575991142,-0.077784593298971375,0.25634455308714088,0.18751582418166149,-0.19008650358129717,0.085862960928297982,-0.13242284945047089,0.083250748048771861,-0.5324859776569062,-0.25146339194910394,0.063490157874901657,0.1418527607210974,-0.0078337245077447926,0.14763757390667606,0.0149376492180437,0.12227270193997547
45,540,568.9580,-0.39906621630693956,0.26789706999824142,-0.27794660099191437,-0.04280670425356501,0.27231856494095352,0.2192179033919385,-0.19100524466069743,0.11855925799760605,-0.14558747182117202,0.087594431194180575,-0.56829658697536334,-0.20939004824913349,0.061103823548465434,0.18015019371446978,-0.014742008998146013,0.17673712926678747,-0.019090064510127066,0.10587268004442887
46,552,568.2820,-0.38791460938673777,0.19267182139992756,-0.28460134620189509,-0.04250776770704974,0.23200243280637423,0.21356426723770577,-0.18388327769113097,0.18218467552792267,-0.11481409050142126,0.062915381523089661,-0.61138789729237353,-0.19875242045926944,0.0766619067459687,0.16816322364112746,-0.026214300694636435,0.21015456437669458,-0.016627216680725459,0.11348015870253791
47,564,568.7860,-0.41027889666988832,0.18432764865625834,-0.3356755546201699,-0.070072107102335926,0.25162738072649193,0.24867032467627775,-0.19996940097255733,0.15509351191224319,-0.16073987862755842,0.050538793400500777,-0.563009857639178,-0.19671615392158937,0.076580470298871828,0.17753174197504276,-0.028932875856637574,0.16276071501016606,-0.029357698928127351,0.098554797221235418
48,576,568.2040,-0.43079856326291255,0.19998786513830594,-0.32069944500232511,-0.05960242278152518,0.22489597912181741,0.21740860689323091,-0.23132465012833719,0.17461176300532757,-0.16520594327150068,-0.018629643478654576,-0.57790600154515048,-0.20204765989372839,0.033522044051682749,0.14113753028355108,-0.089242477364473008,0.14316259815846646,0.0038644253965620535,0.10166154373884011
49,588,568.2280,-0.4140527396977674,0.19610210266403263,-0.366984459309079,-0.041886396776362952,0.20803344136670227,0.23969806515072692,-0.21911203360280815,0.18836397070900029,-0.13757741176877622,-0.087595061470125343,-0.558615781050047,-0.19345769448395497,0.038299724398611519,0.1319088063877131,-0.0833480465802949,0.11502117765030376,-0.00057026319807278831,0.13096396960222481
50,600,568.3020,-0.37697064049137041,0.22170575428429456,-0.3760995760607953,-0.052969182716723413,0.19986928295254869,0.24629034558185162,-0.1976869208765529,0.19005368185573368,-0.16469735769376506,-0.048097978188247022,-0.57291318343726827,-0.19253781725494973,0.010983821080881936,0.069024857754796068,-0.10299721336069793,0.10045183491439799,-0.026071707669920761,0.13396989747990271
51,612,568.1420,-0.35033105542575327,0.23383270072436721,-0.37685007798711262,-0.031981458366163285,0.15252466902296491,0.23990243927615387,-0.16895832944703276,0.20670896176939782,-0.15725930084544504,-0.080495477758015077,-0.62137610340238481,-0.16445031333743612,0.056492065267386267,0.09612257358749518,-0.10036745865874519,0.033538082914382206,0.00810176030125414,0.15579167467985444
52,624,568.0280,-0.34517111828440078,0.28796997870548319,-0.37916508882242944,-0.034460455599731793,0.14365041269316636,0.2275137267808526,-0.21377973367302167,0.19406765700597181,-0.12209286666157167,-0.054240178760821885,-0.60312781908738211,-0.15332750930681938,0.0014861437650989934,0.072957302319422379,-0.12781844583198199,0.070916298409244807,0.014060956250202938,0.17688675575460341
53,636,568.0280,-0.3434085420599241,0.30525356619304667,-0.37012784657834841,-0.079820347692553834,0.11016419664647241,0.23495392293038372,-0.21207229812971976,0.20123842064644007,-0.11392835154784657,-0.093988327529956145,-0.570705953148864,-0.17654809511385541,-0.00450170123638793,-0.0091342815960021549,-0.12092282893746209,0.15034350578136857,0.0059476441973675149,0.18246095427116493
54,648,568.0920,-0.38617795947417771,0.32275838342249896,-0.33249826281850214,-0.10145533779328843,0.11187224430939242,0.24519539691267411,-0.23201677738941684,0.17396510428775191,-0.11170903389207287,-0.047980079356503641,-0.57331148750796634,-0.13983761479411591,0.032600794569146239,-0.06502611551384288,-0.12323040877580388,0.13380261744166927,-0.0047013911842853804,0.1820185920055816
55,660,567.9700,-0.40344756165674822,0.3212895177679444,-0.3697814258026953,-0.13033061824434192,0.17678247263570493,0.24764876008581604,-0.23468150104770366,0.14866122704670748,-0.045800507750052254,-0.0911924093887006,-0.52324664282169009,-0.10629679655835692,-0.042692378762818513,-0.0633460663704265,-0.11394122935979355,0.13706544583989239,-0.007628418685194668,0.2150490191069149
56,672,568.0660,-0.40537098380521219,0.285940663185873,-0.37041966879827737,-0.059753692567739804,0.23464068828717247,0.24099028364206534,-0.257067190537922,0.18831146814591812,-0.025470381700160642,-0.11922750569659311,-0.52055562241566855,-0.090940686469874174,-0.049335242055017429,-0.079833457801842853,-0.072620856286896865,0.16667972035756623,0.0065598668139135053,0.16934252303028957
57,684,568.1000,-0.35465107053437456,0.29754096678829994,-0.4075507120537083,-0.047740122180342785,0.24199909210254339,0.2449594395823588,-0.2080456698550327,0.18794476724062029,-0.025874265251114817,-0.12993498229941339,-0.536254156439471,-0.095572302990836785,-0.021085626699763476,-0.066217917994135414,-0.1071541735093581,0.15497371965092524,0.001218907190535236,0.17816718812944607
58,696,567.9880,-0.33158944777400678,0.32170242157347645,-0.43061957897998687,-0.019673718307690404,0.25853968493685042,0.2592841409151142,-0.17806080045047645,0.19712272871643916,-0.026624188875046761,-0.11673921567036716,-0.50866333888718351,-0.10106460907248141,-0.070538169568883882,-0.10664728194801031,-0.0974238983708771,0.15118191222400454,-0.0043166711183936788,0.18236635262922102
59,708,567.9460,-0.2706514602396039,0.38702547312619762,-0.46317845903646149,0.019219547133084939,0.24776443397471232,0.24704534770039058,-0.1669512201455568,0.15630354252648723,-0.095925994048877278,-0.12480878251623992,-0.48951514589887035,-0.0897705555278,-0.050740165686969922,-0.12530258734766853,-0.099211946516270161,0.13524127314909443,-0.0084651877066215554,0.16147177853003683
60,720,568.0920,-0.32942351413723092,0.42047460688538257,-0.38739320264274973,-0.015218285267599175,0.28739585153151231,0.26773894645477991,-0.15207765779224666,0.11242453322783613,-0.054198782693291821,-0.14387243010396822,-0.46302132490539283,-0.090578820982700245,-0.073775283880089138,-0.16327852233506004,-0.089003064097076479,0.18496246981451164,-0.027045445877550509,0.15300463664595562
61,732,568.1620,-0.34124171860683322,0.35282037289089546,-0.40136857466789988,-0.0318104696552413,0.28840449555478392,0.26030401655304042,-0.10245888374068786,0.164852312757289,-0.06791098184466797,-0.14331286268016485,-0.49341070618835325,-0.10052309169666941,-0.081537917935936538,-0.13272555969347383,-0.08052580679698923,0.21814374348684162,-0.019279023813077084,0.091242407888764129
62,744,568.1020,-0.37992926038754038,0.34572143776009479,-0.39437550493345375,-0.056754825812218967,0.29033475970068262,0.25687905175778608,-0.086865561957389037,0.19102295037161721,-0.042105245440610707,-0.12655423515227576,-0.49911718386962262,-0.11448312685523122,-0.053926146147614151,-0.12470334358156193,-0.06699148781138696,0.1970658891086316,-0.018473557038542227,0.071324811811738609
63,756,568.2960,-0.4139283843026545,0.37757265779903448,-0.40863643336266647,-0.021928884739161388,0.31592738078672111,0.23409572425166741,-0.069728982183390312,0.16135185532137192,-0.0648130981886443,-0.10931142792112018,-0.46719416209482256,-0.096839197327150614,-0.068285311490950434,-0.11516150135331153,-0.033074576923032208,0.16820193161693522,-0.0069663584100669515,0.11540727413298336
64,768,567.9520,-0.42094961447559642,0.35387262249796508,-0.43412228772701827,-0.026885828340528124,0.29470860386690428,0.23629032127519495,-0.06529577056578155,0.18266974376336842,0.0083421618195271812,-0.13544060986406095,-0.47950437250184841,-0.095857417243569137,-0.0191402224447117,-0.0788786327730564,-0.044916310446796434,0.17599605242596139,0.016835230338234648,0.092630225772329086
65,780,568.3700,-0.43183452057917321,0.34999586621390838,-0.38900253989080796,-0.011765019552518454,0.32714179989885389,0.23884764704324637,-0.03932272516939532,0.17355973810226058,-0.026292412764004479,-0.147201706923737,-0.47577253550658027,-0.12301695009760538,-0.0090282683300433059,-0.060849412306471062,-0.045670288623324264,0.19354874823056975,0.013161165491197975,0.077395308896344148
66,792,568.0480,-0.45525551412307591,0.32579168177965445,-0.37638362881395421,-0.0070239923530981026,0.31599403374995377,0.22652996180331894,-0.086332477194340743,0.1913473973031713,-0.039314296186533156,-0.15834937616871328,-0.49254840105030451,-0.10977054329014886,-0.00801277671823227,-0.073973753451300209,-0.04345804376467588,0.19818498778406826,0.029084701359136218,0.06132602503586046
67,804,567.9740,-0.42227661774113784,0.32235079727100385,-0.40524921620690535,-0.025743585164221382,0.31349099136199149,0.24220003796080233,-0.10746367421959531,0.18496058134432303,-0.042846964194656487,-0.13959067719489454,-0.52296009954885381,-0.12045824731533711,0.027288697718956905,-0.03975572455275591,-0.0566604410204403,0.14332705066100165,0.018755384982341503,0.011676651953200112
68,816,568.0260,-0.39377395834014173,0.33562517910369438,-0.43108176991542813,-0.032061719345973169,0.3040275711447647,0.233662561370575,-0.087045120318206923,0.17272695069936142,-0.048532731326943544,-0.12070697982979776,-0.53914428865304242,-0.1311661802123312,0.017040134773314938,-0.013611826011120804,-0.037423045083122622,0.12752069883031106,0.0308001415283268,0.0092333762111200951
69,828,567.9560,-0.39330218130979805,0.29020608667040843,-0.44716688897124945,-0.063662399203160983,0.31466040514900095,0.25039297960610368,-0.07319902464386209,0.16465877512798613,-0.059349320834878969,-0.13257251819017626,-0.53216488611381163,-0.10342537277495185,0.0084602247311518636,-0.027628698930732526,-0.031843353132339616,0.1361495036250614,0.017362200225239988,0.048780566157266662
70,840,568.0360,-0.40825584656786318,0.28998060219149341,-0.46389108762072573,-0.074496489379786757,0.30569305749938175,0.25013960300020244,-0.071375343915522943,0.14004314176241495,-0.074163923460037681,-0.15553956046457504,-0.51120091463479944,-0.13344543356647903,-0.00065702719045275981,-0.022673105869398868,-0.01876053798522111,0.13801239755542122,0.013256144140919919,0.050774410769171115
71,852,567.9560,-0.39602638716393085,0.32355587502752403,-0.43533613467060073,-0.0904857566605455,0.29944012598631109,0.26169208875134442,-0.081621924289462577,0.13464423197730035,-0.092524632693044,-0.14202114875106664,-0.51528684789703771,-0.12786793551013648,-0.010072114295212459,-0.043738175561296229,-0.046297611137195438,0.14335914223668203,0.0074286943208582588,0.079264769434400459
72,864,567.9940,-0.42269693580496359,0.339729668174614,-0.4283492808352547,-0.093965521089144577,0.28197940932116944,0.24807262006489109,-0.10363679412739393,0.12432775013941455,-0.092567481852430175,-0.14625273369553968,-0.49168531483111849,-0.13296898634872589,-0.022386758248357171,-0.068775214988733374,-0.038784987758085837,0.18179139368078495,0.022614375000353109,0.0657172456502726
73,876,568.0220,-0.40575876848206788,0.33980881377038974,-0.44923522705002877,-0.10766007256356214,0.29576523808443789,0.21366544892622563,-0.11071588872846765,0.13967629389738009,-0.076137739678580077,-0.14479553998189212,-0.49943797753508878,-0.11207220495808005,-0.037460935489277446,-0.059194810071070192,-0.046190445156055693,0.1642970045121028,0.0544308451510054,0.049687703928920988
74,888,567.9840,-0.39945140657126033,0.36687959303612955,-0.44832091223814419,-0.10170756365053576,0.29164983257564175,0.21248164333008823,-0.11704973229854401,0.11480671005022004,-0.0684772342788814,-0.14656333638509067,-0.49352553977892005,-0.11946157561610329,-0.054288598826649569,-0.075413973295859027,-0.038616197490413881,0.15437602803040978,0.04389769786535562,0.070353875491245652
75,900,567.9740,-0.38789254114846933,0.38494372679138034,-0.46213621754426115,-0.11351965530980726,0.30813592932077061,0.20773595662978764,-0.11114233507757527,0.11022497824325271,-0.055906545439911304,-0.14031361275736465,-0.47381171430510938,-0.12159840405451114,-0.0198788633310458,-0.065337274308517879,-0.035748922136403037,0.14272679262184304,0.054307744278430332,0.070064482788971691
76,912,567.9980,-0.3727574035188278,0.3700112865196904,-0.478899825263099,-0.14129809087971895,0.31545383777988084,0.20268419126389778,-0.11920775805734359,0.12032218633514341,-0.063413789403894347,-0.12808711167042583,-0.46896221175148373,-0.12559861635421873,-0.00990386964400366,-0.071771692937226211,-0.051738061545214417,0.14636040677914031,0.062042629099075132,0.0635445350899551
77,924,567.9740,-0.38613324414124756,0.38609823283687761,-0.47041865152535,-0.15056801160502686,0.30043836985789962,0.19460350830269008,-0.1039152272951252,0.11238473140998351,-0.063024976863430671,-0.12398681227655389,-0.47410614196737594,-0.12626509899846361,-0.016022075897083755,-0.086644050930384089,-0.026344706390470318,0.14387955960548121,0.070015362288805533,0.048463788602644088
78,936,567.9560,-0.39556555886735878,0.38107409063794989,-0.45696541278416597,-0.14441684018845247,0.29591178089174908,0.18801346416458165,-0.097562570248931113,0.1261266330691731,-0.058085045863935474,-0.11157792905128297,-0.4886769013982154,-0.14268486016750165,-0.0014482465436902511,-0.071386273603663522,-0.012363895121606324,0.15227264759923803,0.075286731536527471,0.0368597193704728
79,948,567.9760,-0.40491759120336751,0.37006495769669628,-0.46444010489474991,-0.15596546757236324,0.30823554095227679,0.19829975929909741,-0.10024321335653706,0.1325113897647697,-0.072879768817333213,-0.11166253241032158,-0.47016544698642532,-0.11814216274765625,0.012442073700923711,-0.078632658024014715,-0.0064663366633101035,0.15492920961402853,0.0653870064412838,0.043202295083004993
80,960,567.9720,-0.37650558031575448,0.39083326770326227,-0.46544738940382258,-0.16097125596121378,0.30205031390838188,0.1953736168600376,-0.097146623245798508,0.13681629529218062,-0.065915398912387291,-0.10824377878253366,-0.48393255510004496,-0.13766743214543944,0.020007658494700958,-0.058419056850640923,-0.0016314914838550809,0.13978872714648541,0.0664402476289991,0.044083329582390959
81,972,567.9880,-0.37849984632240241,0.38629556882276306,-0.44893140092401018,-0.15254639879773391,0.29163599997404521,0.19537872189455172,-0.11589923832730689,0.14584752161488576,-0.092451052268631234,-0.13570111162871676,-0.49031404666886069,-0.15569318771711921,0.021829421055406,-0.05862701597682661,-0.014374787884752412,0.12529399703415184,0.063252281917953623,0.01608836554985589
82,984,568.0000,-0.3748694600632157,0.38437783061335767,-0.4408495111547911,-0.15444146021167698,0.283522446824263,0.19633918170968762,-0.1328166919625289,0.1583117981593582,-0.11742408827334086,-0.13561278987090497,-0.48905048004725404,-0.15691650674030083,0.0090646100366189777,-0.056007913635951923,-0.014621819868954467,0.14756716609480755,0.065994592589241,0.0013304562978483534
83,996,568.0580,-0.36368647137954385,0.39933944668979565,-0.44578421184047595,-0.13521621992633714,0.29855925482333795,0.19246667526957675,-0.10183168435124915,0.1573208295007964,-0.11344344137779633,-0.12351550846552102,-0.4890509694658306,-0.14935527831873421,0.0033687053267118568,-0.054634181260377765,0.00253012101052505,0.16619871419971596,0.058300694276598279,-0.01870400038844542
84,1008,567.9880,-0.37479326300521804,0.40116877678629687,-0.44230176350230466,-0.13133927141825189,0.30133896812630262,0.19519973565283233,-0.098610703260739632,0.15679440721863852,-0.098687583678815,-0.12752373785367749,-0.48804668143975666,-0.13609805156383689,-0.011573116596232648,-0.060482438330880961,0.00046687817536421777,0.15808196669407792,0.06625876466989078,-0.010165663449942476
85,1020,567.9560,-0.37618177576225476,0.39992667652554165,-0.43788653463130389,-0.16875738132512494,0.293340086431005,0.18067095205839093,-0.10712814894817548,0.15462975637262796,-0.11198653460029426,-0.12270966044299422,-0.48922128707429197,-0.11788531695107017,-0.027105067408419933,-0.0759033677372068,-0.013624368039005665,0.15601909275694076,0.08175709316021379,-0.00451876161790084
86,1032,567.9740,-0.368905562168431,0.40792513722409141,-0.43599245977873718,-0.15532086037763485,0.2861431176862585,0.171283558126054,-0.11787476533001379,0.15842957965183127,-0.12528625327666437,-0.12676216005481078,-0.49316378561511387,-0.14313019384736497,-0.024313975797709535,-0.065883096738627939,-0.02249492605216381,0.13532908075511321,0.086914627390690932,-0.030473986472703083
87,1044,567.9520,-0.37926745638319892,0.39908377403158196,-0.42988994776714951,-0.16523322396548831,0.29702620027429377,0.17412009114816648,-0.0924220850306948,0.15325673393297579,-0.11789493181415504,-0.12260471486159771,-0.4996971188878504,-0.15048078473494847,-0.0037021980080553041,-0.04585732596960105,-0.018266691485365468,0.12612929815140991,0.08585191206760566,-0.017275302215064733
88,1056,567.9680,-0.37995456417475432,0.40095027229891034,-0.42597006785236435,-0.15329613413192836,0.30161841744821455,0.17348504107645754,-0.095520380705801211,0.15220079645355997,-0.1193486713078291,-0.11514099373273716,-0.49842562609623825,-0.16940867002078794,-0.010953681912861805,-0.058844015646021965,-0.0040289289138280455,0.12384037780219037,0.086293602957697349,-0.015736006814519945
89,1068,567.9700,-0.38166343677334824,0.40431805944835569,-0.43624676038603671,-0.131283101449347,0.30291482580693646,0.1661471036234286,-0.092369289526103543,0.15989187093206708,-0.10528173865172304,-0.11306009231467813,-0.49593299716570888,-0.18393283461548585,-0.017452343222235017,-0.049611785997439928,0.0070979678571491765,0.10461462507171113,0.094755566873004474,-0.011768752667972006
90,1080,568.0460,-0.36800489707444339,0.40676230185251683,-0.4388857123541684,-0.11894661457630393,0.31011165945599767,0.15292600142782584,-0.084410296985654165,0.16664513940321315,-0.1052034383254416,-0.12886081632182295,-0.49593622969177809,-0.18434016072989254,-0.018489190319095402,-0.040132561620355743,0.0089290838763456046,0.1212001617407332,0.097051571488433477,-0.028032486262065278
91,1092,567.9580,-0.375507535800466,0.39934168662017222,-0.44493066836708189,-0.11900929874220276,0.30349556778619297,0.15635009709333592,-0.070643783138039387,0.16045358720206973,-0.11430047880016549,-0.11165046394883761,-0.50282130219995169,-0.16847536935970917,0.01200174176881348,-0.0342035643666277,0.012473625470006572,0.12596414417141716,0.10275939491705212,-0.022335440475289823
92,1104,567.9420,-0.36951737906212467,0.3934949872349584,-0.45164140351262061,-0.12426316951168342,0.29961673242797038,0.15555851205269425,-0.052410421081046675,0.15326607887454438,-0.10187010800311426,-0.11390168629734823,-0.51094607956900329,-0.17190248835864502,0.005749510216444517,-0.025068958033820792,-0.00416244485809544,0.1283060510685117,0.11047679308350342,-0.033268307053497481
93,1116,567.9820,-0.38493403646812785,0.37950139095001179,-0.43767798713564343,-0.12007636392808362,0.30833586114644163,0.16061401639799422,-0.068004664836359141,0.14449466314601273,-0.089909979502782483,-0.12613837114417289,-0.5147884724371925,-0.17781257096557865,0.00035116500974618657,-0.022265475232830043,0.0017768539632384817,0.1228707586347566,0.11071659653072437,-0.041705792817441752
94,1128,567.9720,-0.3865027616710569,0.37803524528042792,-0.44124414091520392,-0.10043570900909289,0.31859374946066704,0.16001828103267712,-0.061125754930735146,0.1400387446583114,-0.093943040803122824,-0.13004215741420072,-0.51030311594393818,-0.18352752119313243,-0.0076036516401638485,-0.026735399300418048,-0.00067606315823546886,0.11717456824590188,0.1072267232994681,-0.0591397470722226
95,1140,567.9580,-0.3876118487785602,0.37391238955016554,-0.430054459050724,-0.092670478346133692,0.31484549080071866,0.16517074290853515,-0.058257350226695453,0.13146319259191647,-0.10234528809943041,-0.11948594801327229,-0.52651301567389208,-0.18775194362158251,0.010676289549492516,-0.00894038274503524,-0.0073105959558424092,0.11507108279472629,0.10169793808151904,-0.063128330749847653
96,1152,567.9600,-0.3908056288263777,0.36814110813290574,-0.42218778553648395,-0.08267170398540942,0.32190862047797597,0.16236640749211417,-0.054666073298243349,0.13386338989613791,-0.097923356665517131,-0.12695406700683726,-0.52756375700306013,-0.19787414135821241,-0.00080944512214007919,-0.00059085395556775287,-0.01143607868735525,0.10579904937524023,0.10381636387079518,-0.080238411109342572
97,1164,567.9700,-0.40918657784409906,0.36311582349552046,-0.419893051860844,-0.067967871298130686,0.30994612276979361,0.17143682882450709,-0.066357773926603261,0.14652291259637587,-0.087909617056697448,-0.12223620315950831,-0.52541480629255333,-0.19882563746079865,-0.001264339005101076,0.0052808196539441228,-0.012357242942544883,0.10709034597734006,0.096238685330530635,-0.0769996864739101
98,1176,567.9960,-0.39873543539296719,0.37026171667117169,-0.42298066168011567,-0.063512181357481975,0.3141467719515566,0.17399187909277919,-0.0576427495289514,0.15148571851432682,-0.095785758641859356,-0.1333678241621539,-0.52625876619206946,-0.18053774787324753,-0.002034323836681679,0.0026095159137114452,-0.024095182231722429,0.11137743000894068,0.08977075413925141,-0.064483460333634862
99,1188,567.9380,-0.41249482857656022,0.366699012481031,-0.42105800584980696,-0.053624303643845753,0.30376547013402144,0.17812849522798033,-0.054727602434139086,0.1500151071050945,-0.088197393523656853,-0.14015493714093483,-0.52707417533648759,-0.17706634224796086,0.007232135245081572,-0.0071015921426171085,-0.031894032290778383,0.10168851712022485,0.097088648935782354,-0.069252081688512934
100,1200,567.9200,-0.40348915792190732,0.379231671644853,-0.42327803004155445,-0.054253424472752158,0.30446576624230559,0.18080506994753229,-0.060108263549733532,0.14355093007527611,-0.074392292249763584,-0.13509144089525252,-0.53014303027336873,-0.17757133725039795,0.011712722714181625,-0.019125978610346955,-0.02877331249346193,0.0996835917964582,0.08912049430282605,-0.050309005943506818
101,1212,567.9620,-0.40482910780453685,0.36820076482326664,-0.42102833550669866,-0.057223395299910093,0.29784344090780934,0.19785898459094939,-0.085577614454731638,0.13731149195940467,-0.0848190415587117,-0.13069088339015911,-0.54087497852473276,-0.15262625716364284,0.027036572849592627,-0.029954258934031655,-0.04090807756285085,0.11185555588921633,0.074988066820498439,-0.034188279691029028
102,1224,567.9320,-0.41031637923584996,0.37246358179124334,-0.42807672717263923,-0.063098545749006085,0.29348302855597336,0.20145708745704008,-0.080195166847615129,0.13482599293332465,-0.090080547233333322,-0.133148487419021,-0.530370817668379,-0.14830679386341114,0.027116796488981919,-0.0429583954167707,-0.040153940536750185,0.099835926290982,0.07096702801928309,-0.029415204568664963
103,1236,567.9520,-0.41966372457533974,0.36833754746885761,-0.43364531295335124,-0.057556998774086654,0.28208434969409119,0.20911088326922808,-0.091282902982767686,0.13407057725951521,-0.079558893819334,-0.11940626166145285,-0.53401040534277244,-0.14533518858155306,0.016094144192707504,-0.036124155980494857,-0.0286457266509701,0.0967435451074764,0.065613729756579364,-0.013197105040946061
104,1248,567.9560,-0.41470644688034036,0.36695180806236083,-0.43404225935070123,-0.0455013525361396,0.28962823151969236,0.21256588882524055,-0.082817502899300274,0.13698528214426139,-0.070767390040444453,-0.13058447501510687,-0.53503058156724292,-0.12783370847069633,0.0211573771908555,-0.055887936752019765,-0.026450472167404749,0.102306548419211,0.0571558455450186,-0.018311519458459297
105,1260,567.9420,-0.41066057639110776,0.37207774389543341,-0.42920356080605593,-0.04244880469371657,0.27924246660591739,0.22004756537049933,-0.086022154569797865,0.13791888815711262,-0.074346240434985569,-0.12152070338024634,-0.544221512897614,-0.12283560842380438,0.027132490804519235,-0.055897206289554184,-0.041015557399342248,0.093539865302961531,0.057048593363405307,-0.01778385583834052
106,1272,567.9580,-0.41527060845626185,0.36449877124263663,-0.4332073700661917,-0.046261579953664228,0.28476105531197204,0.23037089712325848,-0.085644778113812631,0.13904006353218959,-0.073209458821719114,-0.12348523522043728,-0.53512159235286261,-0.12835322986157713,0.021237672297783963,-0.057198936242170234,-0.044206673355548211,0.09280517531131055,0.047478331795933755,-0.031526878603915211
107,1284,567.9380,-0.42012578549811369,0.36264624768356907,-0.42614419037253071,-0.024973554059125842,0.28725830430502891,0.23029712219203291,-0.0701287062769157,0.13222548917359842,-0.082469933220813821,-0.12946732255050758,-0.53598889223492119,-0.13300936834152249,0.029064345355086462,-0.068927619305419685,-0.052286295673824833,0.097695311313784422,0.040786539468636154,-0.023238865081866782
108,1296,567.9460,-0.41908901183545305,0.36187417964856794,-0.42179940483661515,-0.0275373113024271,0.287947893101184,0.23619226518079064,-0.0723834220463008,0.14344561917496043,-0.073808962399842609,-0.12691902425214766,-0.53899328417891068,-0.12256202146698481,0.03396099979697,-0.066646034212758373,-0.048042274648840012,0.10266283033518551,0.039464272875023521,-0.019241551279908852
109,1308,567.9420,-0.43392354972696129,0.35687656987761324,-0.43193996836456477,-0.027298435866754876,0.28991880781237234,0.23644322175036073,-0.075282354072784219,0.14415026606291062,-0.061638610050152934,-0.1171288704079258,-0.5222539267083,-0.13243774569034814,0.037800361327616133,-0.061907468970145138,-0.041951023651452347,0.10078089621894847,0.040365608673194421,-0.036372026896077408
110,1320,567.9500,-0.4250987905432293,0.34822439754426604,-0.4461848741946095,-0.022437564148023767,0.2897553818552373,0.2440219742382384,-0.0637408484801009,0.14578997375899308,-0.062722503105927335,-0.11975357316257081,-0.52017844461431206,-0.12821074837884242,0.0371490779909537,-0.06118034361577554,-0.04681134838834787,0.10567429004571027,0.035419614225751253,-0.0337578309501064
111,1332,567.9160,-0.416788866970197,0.32997284377096781,-0.44998335694900587,-0.0082254487981660417,0.29288848909656623,0.24395751285924042,-0.052289446578643137,0.15718991829822068,-0.078447129166904134,-0.10849753327510683,-0.53052776353253561,-0.1266541887173232,0.049434649072982131,-0.0542471831411632,-0.052484083646134258,0.11196827787256666,0.03345633311588949,-0.047047960860829595
112,1344,567.9260,-0.41191521764096117,0.33418997952945767,-0.45014454794923048,-0.012415472795571585,0.29805263271119292,0.23450308232756176,-0.052167813827864742,0.16019269315582052,-0.068708179660273427,-0.11419047438340264,-0.53012749961848327,-0.13495190372154681,0.048307290166453354,-0.033540788891371173,-0.051801925167558154,0.10666857345457305,0.04393104816154,-0.070422137227508355
113,1356,567.9080,-0.40273349223217259,0.32851576769660279,-0.45165643620976453,-0.016571556922484479,0.29452411614675472,0.23837734448529035,-0.062835651125914535,0.15365710417659234,-0.063850221466792742,-0.13058138853569179,-0.53843184982618486,-0.12317872991817372,0.058888150872883578,-0.042851243442317118,-0.053358707759674065,0.11875368393746397,0.041994943965495538,-0.0429993221286151
114,1368,567.9420,-0.40387895303244031,0.34309531976011592,-0.44081741295946192,-0.020556994179531343,0.29463264773100312,0.22970352962391444,-0.062235723462048413,0.14846188625344495,-0.077519245589104058,-0.12979170890129144,-0.53804313246407331,-0.11988893014454609,0.052166543364600859,-0.055718453383477543,-0.058070920582277273,0.13103009146903558,0.047808472603354663,-0.03561761151003702
115,1380,567.9120,-0.406577647730125,0.33232928571602838,-0.44244486598796351,-0.02168771619204907,0.292273470250196,0.22942934209313057,-0.069461353626805736,0.15461235828256115,-0.082425706596737341,-0.12772329895700044,-0.54008656293588486,-0.12232870255768184,0.052630389923185743,-0.054602773056118971,-0.059772068286387418,0.12375945367943079,0.050960406663027868,-0.048085134317532766
116,1392,567.9380,-0.3998389539659789,0.33836212690690842,-0.44069722894857816,-0.022633635764082567,0.28972378951944122,0.22067426874755264,-0.06689382394011445,0.15961318024334,-0.080045245027575679,-0.12582183374397526,-0.54958257782148345,-0.12587986187574107,0.045896524828172761,-0.036825327762449518,-0.05848557149957264,0.11559541568266377,0.056162494422805326,-0.053405704114243217
117,1404,567.9140,-0.39951234102424021,0.341779316927525,-0.43881662655854853,-0.037326096426437479,0.29614007915821161,0.21821844222077416,-0.062391017022974192,0.1506186254567583,-0.085366089329455788,-0.12472356093235841,-0.548193907822748,-0.12594431336996656,0.0516503075877761,-0.042432360151779223,-0.047333909525183245,0.10867287016486375,0.054308450640543751,-0.067016227104514325
118,1416,567.9120,-0.40807784466245972,0.33089048951107791,-0.4375499890788121,-0.038174288047422407,0.29877792112020468,0.22339989833667687,-0.062130597534395177,0.143989488267371,-0.08316271402244628,-0.12478959339994944,-0.5477942175648739,-0.12907997610567329,0.065429332457155071,-0.04195064104899883,-0.037818721169722153,0.11634587449971556,0.05228788390642547,-0.059502324255829533
119,1428,567.9080,-0.41315301924858372,0.336803492521466,-0.42544453871971138,-0.037873862601488693,0.29851995903604017,0.21974232307305883,-0.0560632462596873,0.14729620825101833,-0.085712497804536839,-0.12319952805936293,-0.55247548188833073,-0.13408832151440933,0.062638541336715051,-0.039554499138655823,-0.0310455531583131,0.10652743842352436,0.054050254563418915,-0.056487881145639574
120,1440,567.9400,-0.41238814004907404,0.33760430929326091,-0.4232501226208189,-0.02928803691784124,0.30002831384995426,0.22279947034972158,-0.063999411711409562,0.14903244602007087,-0.083943415550956607,-0.13066070973505378,-0.5487467158595184,-0.13603450647239093,0.0642577295888656,-0.039848146440974737,-0.034651201542304132,0.10773912337879703,0.05745141787677796,-0.056618029482327449
121,1452,567.9160,-0.42158250087119081,0.32647304707224756,-0.41806626620323345,-0.02493277751529337,0.29694562564692517,0.2257703948484118,-0.065412595114397759,0.13939720479595413,-0.0872473021458289,-0.1263666214580611,-0.555128471179638,-0.1336699760921721,0.0648777652859975,-0.042489917523093522,-0.031574055915682471,0.11227998187715142,0.055182960235433037,-0.062169805264796742
122,1464,567.9220,-0.41572337469391124,0.32651408185422048,-0.42418575901000521,-0.025494371842799436,0.31055235864702335,0.225325778573759,-0.067596491735394032,0.14537796273040665,-0.087051175817224838,-0.13234170344235469,-0.54539709451655527,-0.1309600384542472,0.058820782266626633,-0.04754200096573092,-0.036612070389860286,0.11287045127360057,0.052779501466725255,-0.061165319560522624
123,1476,567.9300,-0.41143565344474997,0.33241449620917479,-0.42542889868618439,-0.026278143778039255,0.30300376270122759,0.22767446462564142,-0.067132448646453152,0.1528217237378752,-0.094641485807579459,-0.13188316122249702,-0.54246467279890376,-0.12758571585874656,0.05403819869976894,-0.056484464656488764,-0.0394852171887359,0.12018116474049526,0.049907526231917895,-0.065050368593405128
124,1488,567.9000,-0.40962058520483891,0.33216657262818688,-0.42713317476538004,-0.014114279443032453,0.30005428482010965,0.22849821978112916,-0.059219806558021004,0.15587291820516341,-0.093726411711764268,-0.14082746072987537,-0.53961440513581094,-0.13263993358702911,0.051416011219849449,-0.065712686466381592,-0.036728561026046422,0.12003945250849871,0.049574580667424595,-0.073317087271002279
125,1500,567.8980,-0.41042032231790565,0.33741229586296023,-0.4240624330213571,-0.023075087690211337,0.29339443940833582,0.23352760979980627,-0.063325951928373259,0.15291562093224539,-0.10268253581168894,-0.14060278119339323,-0.53586360550171686,-0.1315087580182896,0.054005636449909265,-0.077933480377232689,-0.042119442333848095,0.12825447900013104,0.044302101346762934,-0.0659640799716338
126,1512,567.9200,-0.40542917384507882,0.34450559777997242,-0.42233225507377425,-0.020564739636748968,0.29576717311663042,0.228999019070446,-0.062300065488678474,0.150580110371713,-0.10249191500910104,-0.13774493236546109,-0.539424254314929,-0.13723331018867629,0.059270701006130078,-0.0672150141650913,-0.038797347326157111,0.12335459357235648,0.046567589028961451,-0.066862266607184792
127,1524,567.9200,-0.393858230956614,0.34494798458244,-0.42516246486657611,-0.0242181021662382,0.29969437165441681,0.23415614425842565,-0.060251498253868906,0.14890889614783917,-0.10109713220535428,-0.13436777823049414,-0.54152738424593461,-0.12951589328902455,0.059792331368908581,-0.07085831218814069,-0.05143539777501982,0.13561345869495542,0.0397472535801503,-0.055070983561844859
128,1536,567.9160,-0.385707066964353,0.35097232482413121,-0.42443065370878857,-0.02540580063875324,0.29646203650283137,0.23327647754371608,-0.058493579776092354,0.14732748542836488,-0.10942924938894846,-0.13858692005105325,-0.5448338987591973,-0.13260798770665541,0.059718622689039248,-0.062717485218946531,-0.050881959733161404,0.13688963146451558,0.0400563435218707,-0.053077838667487817
129,1548,567.9220,-0.38159784390545487,0.35685799917158129,-0.42095812361249851,-0.030376135229953534,0.29821822399740872,0.22966459403289541,-0.055733303019029949,0.14563719346768625,-0.11508793787760897,-0.13978263440929795,-0.54512478771005679,-0.13692524981726592,0.063044360686365528,-0.064963390804794421,-0.054467999561546895,0.131605413793832,0.040607444368477762,-0.057100450494713267
130,1560,567.9180,-0.3777562427921366,0.34803995076544136,-0.42698990877770654,-0.024433093023688096,0.29758412142917073,0.23193772640034185,-0.044423924060729494,0.15008469961318488,-0.11729559795561476,-0.13418849061992907,-0.551329274854564,-0.13199684744846071,0.0597771235695519,-0.058922830053747474,-0.051523837699508912,0.13540162421576726,0.039677810932595044,-0.053657032108130831
131,1572,567.9360,-0.37540282510124995,0.34874621464905886,-0.42497144172821116,-0.018813229662109351,0.29653374502242891,0.23126660346383157,-0.040616291215901636,0.15190306591805122,-0.11951623947026511,-0.13742410976625061,-0.55261088899520738,-0.13192411371142651,0.062711277996072859,-0.06079771045910224,-0.051278891309130978,0.13441536470354171,0.040156208102927984,-0.056629857182376772
132,1584,567.9340,-0.379014906869093,0.34554258014838718,-0.42567190728840965,-0.018523909897687634,0.29207137208784478,0.23310940855212109,-0.0421599105452281,0.15570756829185,-0.12384592952458691,-0.13391805019093855,-0.55180094495458865,-0.12914413045911322,0.06897236606386753,-0.062269629439402618,-0.053108613022522053,0.13704681922718689,0.035546431354423841,-0.054727755713729495
133,1596,567.9060,-0.38262122056551084,0.34836216205055154,-0.422478468197706,-0.025063152165979867,0.299893717784224,0.23380140901510904,-0.047660616681115854,0.15837778318275406,-0.12505696633490662,-0.13914546134306921,-0.5402303688109501,-0.12637774083244441,0.066398296830581308,-0.076859413547655922,-0.049436039812974113,0.14651738995057945,0.03509992334955947,-0.044221501628286655
134,1608,567.9020,-0.38226046176043277,0.34853347631123976,-0.42616502782648258,-0.018264280494914572,0.29471265877222996,0.23782677699358526,-0.044650987835390912,0.1608101887767765,-0.12649617515323128,-0.13796098287782949,-0.537572861058573,-0.132230019195067,0.065412163547634,-0.0711603803571546,-0.052185322302628588,0.14194222290180122,0.032087627885553131,-0.054527221865943012
135,1620,567.9180,-0.37927547245041215,0.34230197692479719,-0.43204939201787729,-0.00801199688167164,0.2980220311251181,0.24373300973447232,-0.04073303376053,0.16186233069710013,-0.12356463733510156,-0.14252812589465794,-0.533639135928025,-0.1376028192356861,0.066836216555618388,-0.07640532567126028,-0.05437553133704514,0.13923205677253311,0.031872876171862533,-0.04647667569160726
136,1632,567.9260,-0.37116927021663609,0.34415315108000616,-0.43502674997376789,-0.0057512070280849679,0.28896602113646425,0.24906447599912931,-0.038831882275927231,0.16235488931167191,-0.12636759567392086,-0.13828440712567347,-0.54021374249865406,-0.12947643541241413,0.063900332736003651,-0.081389020240411059,-0.053846401887691443,0.14158138306791448,0.026336445530157081,-0.0450852514409099
137,1644,567.9380,-0.36975042331831404,0.33440225384406669,-0.43605305590116178,0.0010554740424961713,0.29108488183128711,0.25156829969359107,-0.037704916829898613,0.16065274350746894,-0.12425304630410761,-0.1377690780781386,-0.54511291706483223,-0.13196933840343272,0.0726031040247609,-0.081261097349165728,-0.0547780434115459,0.13551216220728998,0.022879978042925884,-0.0496496611891553
138,1656,567.9000,-0.36496563909196661,0.33017487863163381,-0.43917035943073723,0.00903689062587437,0.29305773654659273,0.25163497480272584,-0.036940044850930061,0.162736400121997,-0.12884813280443022,-0.13912144110967697,-0.5440393007995995,-0.13367751239070674,0.072217737761639339,-0.073005903738301278,-0.052248756133460181,0.14137867982749988,0.0210203909780321,-0.052963420142421905
139,1668,567.9080,-0.36714892099375457,0.3284379960615198,-0.43780241952519855,0.017070842786993841,0.29544950769079542,0.25128528749838058,-0.041154885530277373,0.15988364164643065,-0.12336573202908986,-0.13668160815012451,-0.54683496024519462,-0.13591870307118237,0.065252847970195663,-0.073276094736940425,-0.051493809101306083,0.1413569970417968,0.020256075868990153,-0.051421716007969645
140,1680,567.9240,-0.3704043710353917,0.3278401295943224,-0.43172284354471319,0.0222753682197208,0.29938591894531147,0.25079995567156016,-0.042361235111820147,0.1632097470328811,-0.11837686809137718,-0.13985902726124091,-0.54712135894062508,-0.13609601328863533,0.05979852297036254,-0.075283875317255236,-0.0570776437572728,0.13863562195018955,0.021525908881667506,-0.055118339717215706
141,1692,567.9140,-0.36510970435463225,0.32249584529996278,-0.43610419239992682,0.03059798737689879,0.29593399837515127,0.25322317078540635,-0.024934576201135508,0.16812585578488334,-0.113670705974031,-0.13719530869981988,-0.55108384710065816,-0.13044710145765762,0.0635034040281453,-0.072256224641626815,-0.06008849310316422,0.14582554809558096,0.020114304110103915,-0.057278544854496911
142,1704,567.9080,-0.37593360600096326,0.33173243779767386,-0.42986728732595497,0.028821333639276536,0.29755173979865573,0.25135139951523783,-0.033427051993337405,0.169555656094287,-0.11735220046959881,-0.13553846282061691,-0.53951731418255089,-0.12687846431597805,0.05890068444015191,-0.083088927209504074,-0.062083462823112452,0.15291944514617911,0.020247099349545529,-0.053621835092500521
143,1716,567.9160,-0.3793795239406742,0.32144239858226653,-0.426867652309258,0.027615612405304857,0.30643447059271978,0.2513453924625999,-0.030024386102747175,0.1752722572830972,-0.11910762357707333,-0.132748687696735,-0.53910381858725465,-0.12949073593441077,0.05360786776177448,-0.084577611935513858,-0.059533312363402945,0.15512239649453985,0.020015679474840384,-0.050958093171547571
144,1728,567.9080,-0.37629583398949884,0.32012728731511564,-0.42789117480601235,0.033694221111682368,0.30628612543042938,0.25460145736123529,-0.022789657121017264,0.17444619742232623,-0.12423476068686493,-0.13677304943397611,-0.53889677766375621,-0.12808044005345109,0.051296270637407729,-0.088462226422320073,-0.058619967344381352,0.1517019172734041,0.020185508430599929,-0.051182752191036136
145,1740,567.9120,-0.37163289376169256,0.32717549261310946,-0.43085060800467123,0.02778975176104417,0.30830900892190438,0.25373001276677154,-0.026179881639485893,0.16966595196184803,-0.1238712939083999,-0.14357820766323257,-0.534532704002128,-0.12800869362028083,0.057223255591607541,-0.090291236554191939,-0.056301990905054278,0.151261140417841,0.017323445213026124,-0.0538397195959187
146,1752,567.9160,-0.37664584215391395,0.31781639116728444,-0.42660942038114541,0.035727668712342786,0.3091520498750695,0.25198910725487694,-0.029520837070057242,0.17108390496735709,-0.11891475470049932,-0.1477054795946012,-0.5371127154779991,-0.13445808140669294,0.054454076200802656,-0.083246320024073436,-0.05522442615554881,0.15789988797407875,0.020904270866311431,-0.055789527806437471
147,1764,567.9180,-0.38447075740515985,0.31533427721579949,-0.41946956453149603,0.027378659664551833,0.3093564972822726,0.25260940179953772,-0.030000704979418685,0.16588787355285137,-0.12016040544411935,-0.14623913478550002,-0.5384116544190789,-0.14054907461186036,0.055662012577266939,-0.076901845762667093,-0.048691834074643073,0.16184628933504328,0.022269970257540531,-0.062587867927520455
148,1776,567.9200,-0.39079424616444514,0.30958310750390777,-0.42046709152462569,0.024806763437399633,0.30413470503246376,0.25592807333823342,-0.032607614257657208,0.16685111532813762,-0.12341252427241291,-0.1391870708106919,-0.54041549109905684,-0.14103357792068677,0.064876552804300561,-0.070488053332701292,-0.040676235603416773,0.15394397660572359,0.019797588652313996,-0.068689495838962167
149,1788,567.8940,-0.39276086898099827,0.31100318945669558,-0.4257827415111628,0.028755641396527688,0.30402263883900588,0.25684302917312,-0.027994698221153014,0.16590922872402356,-0.12459105493822886,-0.14340123479751457,-0.53527151947914309,-0.13536830586181733,0.061472934475299008,-0.073047083677097641,-0.044425258589135014,0.15117709730548565,0.017844452626108905,-0.063973389430034833
150,1800,567.9120,-0.39682678151537104,0.314562142972885,-0.42618536882972613,0.022329048431733594,0.29860180247033552,0.25591790461006336,-0.02865163735385852,0.15978942465018736,-0.12457881241343821,-0.14014678701734443,-0.53451178886984418,-0.13613470089340116,0.06186132501948198,-0.080830441466632291,-0.044375215129619956,0.15386335944594065,0.020584564417018267,-0.062539260080373846
151,1812,567.9060,-0.39545926901193368,0.30572230025268077,-0.42854477878953257,0.03114703944383037,0.29526139803229851,0.25894693624938953,-0.024209834013978974,0.163523311909821,-0.12224470944749677,-0.13690097585711364,-0.53840726474208145,-0.13062100289736739,0.065035153305059212,-0.081358856235309862,-0.04552728861154362,0.15838771798659679,0.018389960784777285,-0.064206508886204369
152,1824,567.9180,-0.39887687737057553,0.30487101609610967,-0.43025127183877426,0.038596180634821529,0.29215391821268166,0.26114104445780711,-0.021001511232652016,0.16097245344149563,-0.12070681061153382,-0.13379937539394643,-0.5389896368702719,-0.12396566505873485,0.071733925421880909,-0.0756327366645066,-0.049702903068949741,0.15800215948508922,0.016409707413274476,-0.059515878796014866
153,1836,567.8920,-0.3992638897787717,0.30086764661842547,-0.42703785259984695,0.042553487907707722,0.29244119720471423,0.25902395536820694,-0.010267503644054415,0.16749813255187415,-0.11902781966043008,-0.13425754222183253,-0.54310291192893512,-0.1195923808882086,0.07611158818854262,-0.07597908718814636,-0.052604459515723269,0.15576881721485444,0.017680889600687363,-0.064476737285533756
154,1848,567.9080,-0.40197819554192776,0.29798035290870156,-0.42707061492015663,0.043029614601949047,0.29369034117491477,0.25891209343900995,-0.010002646401340078,0.17156209930610203,-0.11832445228669206,-0.13983132417015745,-0.53766090637094577,-0.12245693092915357,0.079648081753494887,-0.072851084109389272,-0.052707548946132492,0.15619842521292637,0.018808109897643067,-0.072070328417548554
155,1860,567.9080,-0.39642989877216767,0.29621597541089945,-0.42909143378287173,0.044903422015798035,0.29334436557609384,0.25930684491560879,-0.010478546037670355,0.16949129010761835,-0.12367801185137686,-0.13979094015703908,-0.53866230598059306,-0.12604166455509483,0.079986984180162007,-0.071926407944680193,-0.057524759101651862,0.15614473340096383,0.018646860728565751,-0.072101063525395429
156,1872,567.9060,-0.40055871820036143,0.28510990392996438,-0.42887858477415647,0.048615617839643931,0.29523356186652971,0.26442662324813621,-0.010248679491741306,0.16783071549215914,-0.12417343426397139,-0.13717133924070762,-0.53845436761963539,-0.11650317165320738,0.087468568554539244,-0.074788507322910258,-0.066355407622598422,0.15826812359549694,0.013968881950237357,-0.070255241645242619
157,1884,567.9020,-0.39715384591059444,0.28756975841095933,-0.42982446227929333,0.050610783014183522,0.30018664504418385,0.26417949363318605,-0.0068630356802306886,0.16951576781428918,-0.12783120889927,-0.13543781334414376,-0.53541662761307207,-0.11155952376697037,0.0881943775121623,-0.078126223733809258,-0.0677130400071343,0.16018268217462056,0.014894347306780053,-0.06865346010087027
158,1896,567.9160,-0.40269847957161614,0.29655717396098208,-0.42027562845231159,0.03900629395434789,0.30287960769950639,0.26105185721736029,-0.013465892374043643,0.17404608196219937,-0.13724255017845685,-0.14030957767865546,-0.53044445506005677,-0.10828568216565854,0.076419848044816358,-0.087477142656431681,-0.064814028236775512,0.16543367158090622,0.016104775740074434,-0.061185224972272086
159,1908,567.9320,-0.40445818268854195,0.29654241417936972,-0.42291749999562761,0.040569556785072951,0.29949431003442184,0.26148212964352519,-0.011712910762280081,0.17169759412819541,-0.13458082936379021,-0.1388675964222327,-0.52988674499266908,-0.1093554174628487,0.075450390033788214,-0.087094866005378677,-0.060145863764866664,0.16606220736566413,0.014342698767022034,-0.068362308496176513
160,1920,567.9100,-0.40325581156643808,0.29711111285841052,-0.42526203509538912,0.039812443974045646,0.29983947639739961,0.26327544044971268,-0.0073033569266653222,0.17302626662000323,-0.13327400297975253,-0.14504859582253887,-0.525930960419087,-0.108489544425948,0.077456544681987913,-0.088662803144762437,-0.062261460479957335,0.16569042409813947,0.013632468183016949,-0.064659184816637766
161,1932,567.9020,-0.40248141144223876,0.29352419650125666,-0.42447816059956583,0.0384311053422518,0.29913463593334827,0.26318243670804131,-0.0044688962489971892,0.16994837632968549,-0.13102071324905787,-0.1372022528410799,-0.53285249910963894,-0.10872731058732434,0.087713121614254611,-0.084633488811977617,-0.0632250367908501,0.16329048818123512,0.013015718477088468,-0.063674872344025774
162,1944,567.8500,-0.3962850218778648,0.30924777140898829,-0.42672900012043136,0.028565615065914322,0.30060164605418965,0.25859057296925003,-0.0024090405326532413,0.17376948970130365,-0.13227375291298277,-0.1375618551828782,-0.52879825387334378,-0.1095037432778396,0.085961756301062744,-0.083793122935173991,-0.072913530327080076,0.15621564368528731,0.015397780977464512,-0.062093341231844165
163,1956,567.8740,-0.39557152190494993,0.30271180600617686,-0.42994962731363412,0.036898170664262119,0.29868560967922414,0.26286245855944163,0.0023434608530832255,0.17532575353562524,-0.13229439709724489,-0.1362349632428371,-0.53058867951592581,-0.11115647497544295,0.0864062505519972,-0.084204220243554964,-0.073492479540277919,0.14965259672362938,0.013144279102328732,-0.060765080119191996
164,1968,567.8840,-0.39451964337514611,0.30127248503995713,-0.43143166145132872,0.035617968370320954,0.29936243212897751,0.26379280923689674,0.0038978505610720816,0.17499154916908743,-0.12987752162564173,-0.1400202239800715,-0.52938539355162428,-0.10741320668208733,0.085710596471577541,-0.081316326421002422,-0.077025011326853257,0.15025971115885897,0.011313524230532919,-0.067123277237166531
165,1980,567.8660,-0.39623876630246208,0.30527836157628579,-0.43000726892945973,0.0334282817420204,0.29698356707471468,0.26306408310836255,0.0040147385106510539,0.17564820601647113,-0.13147273872971119,-0.13494403574039723,-0.52816437320579779,-0.10758898497765783,0.08335260141878649,-0.083533727803835861,-0.080060857053576281,0.1526669435459552,0.011000038290950358,-0.06999026450291658
166,1992,567.8580,-0.39796611661171072,0.29871850810817696,-0.4276076017942233,0.034289844711130182,0.30245928456156285,0.26774290369774595,0.0014443851581696348,0.17904780786162308,-0.12855854468157504,-0.13764215407770783,-0.52627586572641627,-0.1066145730839962,0.083254540363756249,-0.087209668444899829,-0.081688699849110522,0.15210870538068669,0.0073618964306723213,-0.067511557621630178
167,2004,567.8500,-0.38882562812539645,0.30536491799538773,-0.43067020791653382,0.03003539797386055,0.30218814211395173,0.26392529493041655,-0.0013677574746602445,0.18194909993915745,-0.12576230236074118,-0.134923362509154,-0.53057306442152474,-0.11198795582884492,0.082970850694393167,-0.0815366932547048,-0.077055522795497655,0.15030659674860034,0.011522532980557471,-0.0659422385155243
168,2016,567.8480,-0.39008477892964272,0.30906634880528633,-0.43024354608862125,0.02282737386613291,0.30232835752975273,0.26103104161764829,-0.0029992615727330758,0.18079213970160715,-0.12532940522095184,-0.13435979960160996,-0.52974723585361094,-0.11350052069882867,0.083923682919533241,-0.085017887876263132,-0.077577479896092441,0.14983774442135497,0.012179949429199807,-0.061190201479684181
169,2028,567.8680,-0.38255765697182709,0.31343956789397082,-0.43391695686303294,0.031236497125046461,0.30003175446848235,0.26495168871917379,0.0020595690970659523,0.18211169051869819,-0.12774328858169109,-0.13516248796114319,-0.52552428471171531,-0.11060221954091319,0.081159184610075444,-0.093691093153742,-0.080423905219506958,0.15422476841983149,0.0073941976738281859,-0.060433319252096954
170,2040,567.8820,-0.38504032594389853,0.31044493718065092,-0.43313085793322026,0.035013880531976564,0.30151333074166831,0.26833376576226387,0.0046373430011826091,0.18210450318118013,-0.12820812132814355,-0.13220406459961975,-0.52452712694420234,-0.11061885923199893,0.087736671220258827,-0.093458893394190987,-0.080745026586358876,0.14697347776242586,0.0023039845449264883,-0.065433781092368776
171,2052,567.8820,-0.38804980218795421,0.30734760490300461,-0.42959606548653045,0.036312828553160474,0.30418777797889768,0.26735378513017977,0.0052948576611992594,0.17861874179170151,-0.12917719037138559,-0.13156488574263067,-0.52449078474105859,-0.10921945655383311,0.090706048031245726,-0.097175614824179427,-0.08423317694158397,0.15253615670415588,0.0014440195683588103,-0.061384683460053047
172,2064,567.8820,-0.37996933506459152,0.30976299992670381,-0.43279015899303541,0.034716487829551008,0.30170946087505113,0.27132543395922426,0.0059470424106055943,0.18344086590881425,-0.13396990684344184,-0.12950520707064145,-0.52364574285529686,-0.10670328847502179,0.086726963861348288,-0.10073645330570524,-0.085784519084966537,0.1537908130124189,-0.0037663930034500903,-0.058250331978579824
173,2076,567.8740,-0.37849985558185462,0.30805948347467471,-0.42823485452395,0.034996145097059374,0.30391967576434625,0.27331667055961761,0.0085522379378506,0.18000261112157082,-0.13733027681071253,-0.1290067183542867,-0.526108799180803,-0.10842263402668918,0.096461933748196949,-0.098707090211575782,-0.086758837338556022,0.1515119341991118,-0.006857782667678964,-0.058826358849260484
174,2088,567.8660,-0.37749096692003031,0.31082510950599745,-0.43006581544181893,0.036074528130035817,0.30249949141082272,0.27189040985590546,0.010969892459276317,0.18117465597090773,-0.13824719669658911,-0.12541442872347494,-0.52600998217962192,-0.10699605411848324,0.094397943520773755,-0.09974334694753878,-0.091423198426757266,0.14902926651504425,-0.0073515266664216771,-0.057662212734323509
175,2100,567.9000,-0.37824707875286295,0.31333024525649034,-0.42889499609014753,0.035979991755835571,0.29930627602531706,0.27195271332500193,0.0099290824297625958,0.18323384822972022,-0.141942683651903,-0.12088760319340454,-0.5251175934058222,-0.10910605148305602,0.09339170111109743,-0.10201068700060102,-0.090815876536958023,0.14961356364310721,-0.0072838208205445593,-0.060124164079354031
176,2112,567.8700,-0.37587650038246834,0.31636132832663771,-0.43006756565891774,0.035346523222009686,0.29847103127162161,0.27001481320751458,0.010006015375005546,0.18934929671705142,-0.13975669888169714,-0.11975410647039329,-0.52668507245269125,-0.10514340400073556,0.09349109385391853,-0.10032546554690656,-0.0911081880192263,0.14549881081960311,-0.0069797249153706166,-0.058518099504357456
177,2124,567.8700,-0.3713666451764126,0.3219568208133376,-0.43168996157837308,0.029165727929927762,0.29650658569704541,0.2703368462887642,0.01062410979667941,0.18772681217393555,-0.13798448174484873,-0.11573957906834116,-0.52869619347352226,-0.10649748647773201,0.091281305218114783,-0.098236070449170459,-0.088306485330530621,0.14795189124937846,-0.0080922903202854824,-0.0568907004709586
178,2136,567.8800,-0.3778854438204905,0.31548855690070976,-0.429245244566358,0.029266057439064488,0.29882357619606409,0.27262627973672493,0.010704740167952261,0.18637997779363927,-0.13485520014124738,-0.11808608721501634,-0.52866487976831844,-0.10276094925650942,0.0930282109586647,-0.093274026109919458,-0.092094378719774023,0.14814969838907421,-0.0079351709109636431,-0.05960368725646608
179,2148,567.8920,-0.37780399269666937,0.31348111369516807,-0.42677999501755071,0.030929781686019689,0.29840960195027211,0.27291303140377077,0.0084454751209663038,0.18499223704119919,-0.133464911661188,-0.12465646611445122,-0.52983626294531982,-0.10206115639142729,0.089238173956198832,-0.0967132059532873,-0.092951798586984977,0.15353701605926887,-0.0084818357998208485,-0.059354090465689811
180,2160,567.8760,-0.37873428524621383,0.31133815748235383,-0.42637470908127056,0.030641254294391927,0.2946681354813252,0.27623410261305553,0.0090494668363394065,0.18437752021039414,-0.13598538432353646,-0.12137088925496073,-0.53273631931431931,-0.10217834005476893,0.090642873986257658,-0.094786580660696854,-0.090574200880966627,0.15271821276135009,-0.010104918282869007,-0.054954908075346941
181,2172,567.8800,-0.37768554737023646,0.31293214445375955,-0.42383600136470212,0.030342166109336419,0.29559104120345137,0.27531307939147875,0.0071891116595561386,0.18421093429530183,-0.13677376342040826,-0.11821542280693616,-0.53356427892150959,-0.10473026633310255,0.097414333676915044,-0.094720437987697761,-0.092360263003779419,0.15231146092919939,-0.011954830697610433,-0.052156374001781851
182,2184,567.8880,-0.37719206842327974,0.315154268584483,-0.42447414487964458,0.0298628286619664,0.29440692921919559,0.27591404098277916,0.0071791111564139809,0.18423135284925479,-0.1329684087830299,-0.1160491427456128,-0.53583650843218578,-0.10774767621313208,0.0955026497267613,-0.090670163180065461,-0.089940239379891471,0.14785118766036209,-0.011982547996626998,-0.0541400116334989
183,2196,567.8780,-0.37675788180678349,0.31470604142595665,-0.42594927386291825,0.032725442066477532,0.28942431838378169,0.27649681480128985,0.0067615116810715529,0.18414471096577847,-0.13685390279728113,-0.11769394124180357,-0.53528308574048611,-0.10599197639195967,0.096069096442407464,-0.0932809750795752,-0.092107878945538152,0.14919387287059024,-0.013486802705718563,-0.052651854859881005
184,2208,567.8760,-0.37644267526985203,0.31499106803186805,-0.42253373585803772,0.029411691834427225,0.29211393243563794,0.27897554620538423,0.0049229659536482876,0.18176294625793121,-0.14182364495942276,-0.11915703615221494,-0.53441624116023845,-0.10296196582168662,0.094697445119282853,-0.098580537552541425,-0.0918884016738925,0.1515693241553136,-0.016552649108679249,-0.048131530231565488
185,2220,567.8840,-0.37769980504213557,0.30974886182485467,-0.41994407046340204,0.033688971111797972,0.29278041357917917,0.28180701459413521,0.00016413901426841067,0.18254477588525936,-0.14344515356140508,-0.11965092406502377,-0.53518023647492863,-0.1021875343419658,0.097022440062551146,-0.099953157463724615,-0.09655466918883511,0.14876096807789524,-0.019074469216427161,-0.047287344099158642
186,2232,567.8720,-0.37743106831017448,0.31407006982189184,-0.4200464807166891,0.032578066419659588,0.29013253973777886,0.28113985311252038,-0.0042841377671160733,0.18032967114042406,-0.14279942706146181,-0.11785759817521053,-0.53779401272009175,-0.10491357935856327,0.0921597299155834,-0.10052902736107337,-0.096099133215675064,0.14368111446728105,-0.018359717363425735,-0.045785270949031759
187,2244,567.8780,-0.37211563751320237,0.31458060464650495,-0.42363174580020418,0.031229323954978017,0.2887520440688599,0.28165306302760684,-0.0037804786434326556,0.17859282743611787,-0.14629785219594502,-0.11687258677177852,-0.53762735527186623,-0.10684025470314319,0.0948011617266234,-0.10065522456223124,-0.095026134307833271,0.14562040700098175,-0.018397401709379896,-0.045688609613800925
188,2256,567.8620,-0.37333544943783853,0.31539598045749351,-0.42168143787288503,0.031523384983145837,0.28923321759795623,0.27998462414682029,-0.0017662344731590007,0.17266128977611431,-0.15007831918281889,-0.11604091049370532,-0.53964204695721363,-0.10855393277004854,0.094731183535394115,-0.099155706267579954,-0.0950224673943815,0.14498743864440819,-0.01609576088137641,-0.046192933759340853
189,2268,567.8580,-0.37663755696974205,0.31596922418370932,-0.42110957307613756,0.027829657201975191,0.28911134026456431,0.27842732508288176,-0.00486639214557146,0.17075646425323118,-0.15003312779190517,-0.11519450684143727,-0.54091578009107888,-0.11041729870913648,0.09392419473485121,-0.097346205379580067,-0.092901207855975942,0.14053093921346727,-0.014080435670696344,-0.046258994175801885
190,2280,567.8760,-0.37409726204796706,0.31450483428183967,-0.42293764806410961,0.031134840707978711,0.2906188251139421,0.27765342493648493,-0.0026432447129376146,0.17204706192871275,-0.15331350500078289,-0.11557452025181628,-0.54000890360429332,-0.11012661246974928,0.094576659032431051,-0.097827117380201264,-0.091501022167782831,0.141509363787462,-0.013650416490562039,-0.046725626932999635
191,2292,567.8840,-0.37505459583958733,0.31299348487479595,-0.42223217954007641,0.028271136358423422,0.29356703047358673,0.27711460202922628,-0.0054446787401631067,0.170488355981668,-0.15024044772604861,-0.11169511449194708,-0.54196054334599553,-0.11329893566758499,0.09827863137762767,-0.099563970653892941,-0.087936579450930058,0.1373420858932391,-0.013762559886590581,-0.0448677192271064
192,2304,567.8720,-0.374216665096262,0.31524698693036085,-0.42340104644048482,0.030930202341285212,0.28995914691335839,0.27494000735230767,-0.00181485165641004,0.17193923156745472,-0.15006592269427993,-0.11161488538962325,-0.54217457908803945,-0.11530123745432044,0.099071420436133512,-0.10007096730369512,-0.0870906631265399,0.13776259662044374,-0.012832238315490629,-0.045637438096037555
193,2316,567.8640,-0.373344056416457,0.32015315899653191,-0.42224600006753837,0.028440429874524348,0.29075145420729287,0.2737262843130861,0.0014563426883721369,0.17017149461129444,-0.15262262574806587,-0.11314664019497669,-0.54140727458491333,-0.11375031585397913,0.09780558682431173,-0.098630817140452756,-0.089299396356092672,0.13688813427112648,-0.012281074834386112,-0.04372985400787352
194,2328,567.8680,-0.37439439396664087,0.32190864488250509,-0.42258168724368761,0.0286943529485769,0.29257898353401851,0.27199825038783809,-0.0015702148426971485,0.17032378438227841,-0.15360890196838575,-0.11095687837484183,-0.53963563451254914,-0.11332542256478856,0.0937918900337342,-0.099760866878023283,-0.089602856648158549,0.13824408114332865,-0.010483658498592684,-0.04341082142057872
195,2340,567.8640,-0.37288452666415678,0.3204702598050112,-0.42295031370299596,0.032141734816094163,0.290799832053332,0.27530607330808726,0.001834747522414434,0.17529423303363348,-0.15464237778369821,-0.10791114614069829,-0.53899103089626776,-0.10893370793442471,0.097785192819334676,-0.10071703109987223,-0.093641233744828592,0.136012572973822,-0.015305373719463788,-0.043687319673159031
196,2352,567.8640,-0.37559920953541182,0.3143783487002812,-0.42415570168857725,0.034406781029388336,0.29287075859102252,0.27674155179199911,0.0024230901810235622,0.17538703628664237,-0.15248116537821979,-0.10647871526193078,-0.53810660298533119,-0.10812499945377509,0.10075264205986774,-0.1006477824735994,-0.093263018688145419,0.13603488111142376,-0.015766333216189584,-0.044602784812179712
197,2364,567.8640,-0.37464570150009963,0.31399398676794338,-0.4261826956284811,0.036601268180743156,0.29243163070326134,0.27737018253920637,-0.00082047873459071543,0.17613853757859466,-0.15110073147928521,-0.10601359292639252,-0.5381055186376511,-0.10984098349611475,0.10100922718575248,-0.10028215225565744,-0.090996872371861437,0.13303067116455614,-0.01614156548248119,-0.045926167955948512
198,2376,567.8600,-0.37827151693901645,0.31764676861545205,-0.42538396003447537,0.031234616431660381,0.2916616503946019,0.27526565776779216,-0.0033974239058846148,0.17338770907819623,-0.14741012492433583,-0.1047424260122819,-0.53866881733616712,-0.11381607995561685,0.10327100865675601,-0.097572428608417819,-0.088446017981743327,0.13037870344328811,-0.012256798669643904,-0.045186903771606786
199,2388,567.8620,-0.38113748990741037,0.31789473160470511,-0.42430096121348493,0.028167273059762889,0.29262594383825963,0.27183063328004747,-0.0065922545937744546,0.17239834904014645,-0.14429207947113024,-0.10680784535978548,-0.53964316472977181,-0.1132792708157825,0.10113101383618049,-0.09678964451908835,-0.088339541676248523,0.13070157603672561,-0.00867129639391698,-0.0500397542405465
200,2400,567.8580,-0.38261870972861356,0.31754071050221461,-0.42207712406356035,0.031115317770725778,0.29404015950282125,0.27212970481305487,-0.0079977605440128864,0.17096915924746772,-0.14399253157802869,-0.10742792474585566,-0.54018584161487671,-0.11575095764752841,0.10280261325799775,-0.0940660144782028,-0.087134058818665247,0.12975577326302998,-0.010045742077475854,-0.047658870153786871
201,2412,567.8640,-0.38106817677026422,0.31683913736819685,-0.42393872989053355,0.03354187151886092,0.29026745940353188,0.27191756373937215,-0.0084047931401446362,0.17068909164832824,-0.1458892273552557,-0.1073687136280128,-0.54080513009449527,-0.11539762931317858,0.10286412197423134,-0.095803687547813224,-0.0873691931405282,0.13346129725766842,-0.0093957005258007639,-0.046214905295275333
202,2424,567.8640,-0.37939218167926997,0.3170131527792876,-0.42326736486448691,0.0344742945995212,0.29116497208094666,0.27324774468393193,-0.0099883016306833335,0.16843336964841812,-0.14502794665428625,-0.10743380986849367,-0.54214262571084759,-0.11718047382487222,0.10272249239172604,-0.09661754069976157,-0.0868982683826474,0.13250835754111917,-0.010086335288898,-0.043012059504166887
203,2436,567.8500,-0.37656151546317351,0.32014871924881155,-0.42247075520377975,0.032936340107852569,0.29218821474436846,0.27292917629464386,-0.0096880222714958858,0.17043904779052738,-0.147910254088033,-0.10572981670375717,-0.539176771918323,-0.116007439452014,0.10597689981583243,-0.10058591932504568,-0.092383095474727242,0.1341631053369878,-0.012230609178992468,-0.041575844169165856
204,2448,567.8520,-0.37715091905707604,0.32090989907845541,-0.4232588863841083,0.030238375098956178,0.29016024402760393,0.27492400509631693,-0.012242259954002584,0.16874379667305497,-0.14801696964886454,-0.10600327861887811,-0.53861389342039834,-0.11609008158882143,0.10505829630853031,-0.10153183124209887,-0.092287850959889769,0.13359096541766927,-0.014012009033835105,-0.039527445512288782
205,2460,567.8600,-0.37865841666702171,0.32192869679197211,-0.42423830967718057,0.029984225295712642,0.29005681264546934,0.27317994723955208,-0.011504247861312305,0.1690940770727043,-0.14648855274190137,-0.10531300011472361,-0.53878667881639219,-0.11851448885509931,0.10497070525083886,-0.099266570088693523,-0.089628861461572659,0.12969855055973478,-0.012173311972604253,-0.041607888705190992
206,2472,567.8540,-0.37857779169175515,0.32044805709404084,-0.42378785313539385,0.031880431485046261,0.290064007450508,0.27605731882993451,-0.010085125261292231,0.16781102756871025,-0.14667410653591723,-0.10563807726722181,-0.53861569647220764,-0.11794121378246455,0.10507336150297795,-0.10027714435029629,-0.089803843975801045,0.1295626365180077,-0.014551802741788489,-0.042487327809868816
207,2484,567.8500,-0.38250855975725045,0.31985425835902886,-0.4222286252412018,0.031205845470999215,0.29018052634821284,0.27649818574460078,-0.0094438631939215666,0.16708983099577013,-0.1485592986499597,-0.10491576852463187,-0.53726672737637471,-0.11734049461609182,0.10288796015827673,-0.10127288032700454,-0.091065174918124631,0.12901594661056376,-0.014550508270443699,-0.042894166220398926
208,2496,567.8540,-0.3819714799103191,0.31736091054330168,-0.42212812435621094,0.031332853537450245,0.28976794775586528,0.27532448281986871,-0.011296552854067965,0.16601721506476855,-0.14731542169469081,-0.10669802217757299,-0.54034670891666248,-0.11938451626450852,0.10367734847028655,-0.10093407896210838,-0.087013220418435164,0.12929508365070297,-0.013101329021948129,-0.044257272434301553
209,2508,567.8540,-0.38164966902217029,0.31762620445197182,-0.42271548889514787,0.031068207628986096,0.29194601093034461,0.27429801427283734,-0.011364804323462704,0.16711102978983552,-0.14790614637123123,-0.10520020486624136,-0.539361393003664,-0.11764814239042257,0.10366576192544284,-0.1016382648911682,-0.089660293998027885,0.1280012335486197,-0.011983633183051491,-0.043241409624609047
210,2520,567.8620,-0.3828553161288073,0.31540911504837732,-0.42328112222926534,0.030452279748070736,0.2918360785478476,0.27453462021844233,-0.012745350702980579,0.16564232371327561,-0.14659666232758797,-0.10634364068050148,-0.54024366367303578,-0.11901330659288359,0.10419289869678129,-0.10065938101431958,-0.087008034892006,0.1275987673202289,-0.011446258367044904,-0.042654546597866577
211,2532,567.8580,-0.38044338154170765,0.31500647887729211,-0.42449285442462042,0.029979905439231791,0.29145379108604741,0.27460559411169161,-0.013796377559622316,0.16646241822056698,-0.14856807145408057,-0.10416001416867518,-0.54082946019644851,-0.11874507613726368,0.10464310671253112,-0.10091113487494828,-0.08796159341044002,0.1274382640487895,-0.01214394095345493,-0.043096745972796814
212,2544,567.8600,-0.37974380315595807,0.31325873069597104,-0.42566563312315159,0.030944541390372445,0.29070627177201191,0.27487537257550315,-0.01129521592057665,0.16639204788790288,-0.14790271936764404,-0.10385197575762237,-0.54142100526146775,-0.11862785683088028,0.10633437725770482,-0.099027145160333882,-0.088775267360944474,0.12898923049662978,-0.012897195145511848,-0.043768471223775134
213,2556,567.8480,-0.38243214654286389,0.31241516582525447,-0.42536849806049104,0.028949866176053041,0.29185141098741957,0.27389278900368297,-0.012210763845678239,0.16528860187921179,-0.14873067533629597,-0.10444256742288352,-0.54032336460709662,-0.11852849011908724,0.10640258611325085,-0.10037959261852272,-0.08726323721650911,0.12841181376898589,-0.012156183754511404,-0.044436267621327886
214,2568,567.8500,-0.38306140948718342,0.31287306032378226,-0.4261236983224449,0.02772114331037636,0.29158813264564531,0.27391981056041509,-0.013031243458504255,0.16301721917644088,-0.14922769927948298,-0.10370670237997152,-0.540057214540679,-0.11919179071563864,0.10603050434021936,-0.0996001196743542,-0.088067670120442462,0.12782274327549614,-0.011834937608057292,-0.0431569076252161
215,2580,567.8520,-0.38233218633340915,0.31248967063488831,-0.42657612430194453,0.02735969893826876,0.29254792327414475,0.27513401366243856,-0.01389933127316615,0.16166160564377063,-0.14819027911697177,-0.10421394873881482,-0.53941168478186774,-0.11778777918666515,0.10559408676241008,-0.10202679791576304,-0.090163006419934369,0.12876272018421087,-0.012650411868293186,-0.041363607468794465
216,2592,567.8560,-0.38256299460395227,0.31286150177760752,-0.42652162951489025,0.028759804962676969,0.29237840922189107,0.27403648944238951,-0.014502182587922036,0.16244055077260278,-0.1481852875269529,-0.10457480437898374,-0.53992504388144857,-0.11791090565460696,0.10557432809950176,-0.10017253573480196,-0.089759626669885753,0.1271987049297581,-0.011770567612858761,-0.04377467997379042
217,2604,567.8440,-0.3813550502136771,0.31314143423815038,-0.42702227390978686,0.029001115863619888,0.29158220013143493,0.2744926479569168,-0.013807186349205617,0.1626484316386124,-0.14957274345410973,-0.10526404340538148,-0.53996242357146784,-0.11778730901334529,0.10633868320427066,-0.099705573140896023,-0.0888312099817827,0.12733155436507865,-0.012111831116447412,-0.042940949081220467
218,2616,567.8500,-0.3812996624126116,0.31316268595403929,-0.42687777394684651,0.026695171802082095,0.29221871749944439,0.27449234188061455,-0.014058181231063031,0.16305003517055119,-0.14858311902771165,-0.10554818671510284,-0.54015550266184831,-0.11883559791176301,0.10726427518532385,-0.098383936475437833,-0.0888786946457016,0.12640682234785294,-0.012123029191596749,-0.04143964158893175
219,2628,567.8600,-0.38145004418793965,0.31281806273574569,-0.42689232067047556,0.027795976226342538,0.29316109657450373,0.27559806600355946,-0.014969212953230516,0.16017829677880321,-0.14730186087019898,-0.10433331550754589,-0.54065422993953394,-0.11915750123631014,0.10778449132294335,-0.098407351759116329,-0.089324294436192275,0.12517646332119542,-0.013199471373100274,-0.039866301305671759
220,2640,567.8500,-0.38117321894848122,0.31132724941621975,-0.4270798454625398,0.026814141346705858,0.29395730249022306,0.27477623823687058,-0.015187475545042909,0.16000562790265477,-0.1484164782149881,-0.10355574065845415,-0.54137056841061137,-0.11910845836789088,0.10830570636415436,-0.098436686112385929,-0.088658342530890041,0.12571120469471489,-0.012242235051106371,-0.040388364704879019
221,2652,567.8500,-0.38183648340826037,0.31098156669066135,-0.42723355924994116,0.026579297569740878,0.29373603852934421,0.2753096926867426,-0.016763638611753423,0.1586314713388462,-0.14751209114304836,-0.10354485670349126,-0.5415109116043455,-0.11957580693813789,0.10771751538237893,-0.099571581887244756,-0.087273714160825563,0.12539686321641996,-0.012346088012211886,-0.040769233502953833
222,2664,567.8600,-0.38259060165252479,0.31150654375909242,-0.42688354939041778,0.027340662973616002,0.29414658595313953,0.27512534504683478,-0.015075512971242367,0.15995705170482322,-0.14703490948337955,-0.10428422925858821,-0.54078744626824748,-0.11913139762234483,0.10548334685431335,-0.10008802313631197,-0.0888181631575223,0.12428661318307534,-0.011843867460860731,-0.042154762665569764
223,2676,567.8580,-0.38409255245593205,0.31184257240475954,-0.42650664970553326,0.026567089670035422,0.293656429292198,0.27484702782081222,-0.015188173879045629,0.15934240924510273,-0.14635405302355112,-0.10335951842791735,-0.54099384007139217,-0.11981076378723435,0.10540887035727717,-0.098536414163555533,-0.088344886124473859,0.12457824618279392,-0.011353372491622124,-0.042259914776256152
224,2688,567.8620,-0.38341204048528782,0.311760481973517,-0.42594460374118315,0.026975631666725824,0.292914439647676,0.27591760965619394,-0.014040558786288411,0.159953375090298,-0.14749432936926238,-0.1031036006465387,-0.54121035517582616,-0.11929906104120695,0.10468686968287463,-0.098478631210801582,-0.089556952245379379,0.12499689715574291,-0.01245058717781012,-0.0437778060490281
225,2700,567.8540,-0.38431224320632534,0.31207306899224435,-0.425350383432375,0.026985698721096154,0.29343594597470246,0.27554900728938,-0.014403253007807471,0.15990757947520345,-0.14646251647982528,-0.10421301218172406,-0.54064358059204309,-0.11892684237605194,0.104598956922244,-0.098869993693153274,-0.089743533994331562,0.1261131658751235,-0.011789858590437512,-0.043225208452340534
226,2712,567.8460,-0.38499333328900154,0.3120602938789403,-0.42561123884954272,0.02627847927669073,0.293137851346762,0.27562702198164213,-0.014625319328720953,0.15933768385754363,-0.14592619731356063,-0.10400429708208112,-0.54035875351309615,-0.11778664185292487,0.10499334427879957,-0.099648865934364853,-0.090291839796395573,0.12644641612869734,-0.012496080506103468,-0.042524347502186539
227,2724,567.8420,-0.38487375138948926,0.31231006015732837,-0.42568237545576482,0.026472835322823362,0.29292357280121489,0.27524015904748961,-0.014421110941368989,0.15942298363833154,-0.14544303533061956,-0.10490467975687895,-0.54079704142008533,-0.11828965440967928,0.10384407558597424,-0.0999629695045206,-0.089399028090677152,0.12626758521182602,-0.012329576707594317,-0.041727396492407386
228,2736,567.8440,-0.38487770570402507,0.31277933492056975,-0.42573942785872054,0.025290333554274378,0.29247370260013122,0.27486243747392186,-0.014542528422499824,0.16005187288864509,-0.14664452012573739,-0.10510634727879729,-0.54063638415111182,-0.11858279736973512,0.10319947079874578,-0.10011797202573185,-0.089933401744951791,0.12492680319727618,-0.01202145030135186,-0.04228113916404283
229,2748,567.8440,-0.38494604240188685,0.31207915459737817,-0.42710348699942141,0.025112353105325298,0.29286032026802411,0.27458745785150063,-0.01449115141421763,0.16040941942720865,-0.14642841656506866,-0.10499569834840958,-0.53975538171916848,-0.11868505433401315,0.1031611634513533,-0.1006472332094317,-0.089998462467709719,0.12472422576043336,-0.0116297518618184,-0.042480456553520868
230,2760,567.8460,-0.38501959967575355,0.31189121529812586,-0.42776623545278508,0.023443519381634571,0.29314975570542229,0.27413597616588453,-0.015126064239967487,0.16012043404088891,-0.14576022197161093,-0.10552616966759745,-0.53952165998413515,-0.11941735391933032,0.10359632280109189,-0.099814157674796386,-0.09037097678390496,0.12455409337488245,-0.011117378190324432,-0.041844004548861148
231,2772,567.8420,-0.38472500366082124,0.31278809527037166,-0.42783646633350148,0.0225705935725409,0.29316081900119623,0.27353850054172246,-0.015897800950926397,0.15943048512175345,-0.14695534378643818,-0.10538770840521867,-0.53936749754931723,-0.11904744159551903,0.10272520438607864,-0.10065361570980068,-0.090155580160265078,0.12529597470455539,-0.010630313860951946,-0.041468348374339326
232,2784,567.8420,-0.38357592773290772,0.3133548220228885,-0.42957459391148273,0.022429538186443936,0.2936454709861972,0.27283111591669634,-0.014520329663196472,0.16048402822171023,-0.14663006729418229,-0.10452087985617052,-0.53904255428556047,-0.11869139167788938,0.10103033977166961,-0.10100086741507108,-0.089996028345944945,0.12466286799835347,-0.01034712246749646,-0.041858212171577189
233,2796,567.8460,-0.38353533649122828,0.31387246730490581,-0.43063272090744781,0.022357590743985176,0.29345500587653922,0.27224307913349366,-0.014928117456643632,0.16007759642453981,-0.14526226356199087,-0.10414391166851414,-0.5393329924320529,-0.11876571974709825,0.10129475998258279,-0.0999869965328317,-0.090570043103704145,0.12313572780166404,-0.0094349766565207435,-0.041165817069787572
234,2808,567.8420,-0.38364668547831571,0.31366265840996127,-0.42990316585002691,0.023192415471613492,0.293446424499295,0.27317790405625619,-0.015745987947425256,0.16038240080776281,-0.14518904142128491,-0.10459833245298851,-0.53929834699165335,-0.11848606527577316,0.10138711096773639,-0.10060951105177074,-0.089432355139961589,0.12345457336682701,-0.01052027396075276,-0.041162254044660646
235,2820,567.8500,-0.38281081681623808,0.31407596037347058,-0.43028734066055413,0.024204022068275918,0.29335260381690043,0.27315532199642123,-0.015823662150030712,0.16113734709223984,-0.14522481569837078,-0.10474300394665424,-0.53909409037166711,-0.1180125967549695,0.1015611141095151,-0.10051480600997595,-0.089838518414546167,0.12363999585519091,-0.010460951804436036,-0.040934589412351133
236,2832,567.8440,-0.38482196680094777,0.31404965819216468,-0.43040013677634625,0.022892706496092048,0.29338490384961269,0.27276394629586076,-0.017108238558540368,0.16037204969262261,-0.14443876689268814,-0.10491057833700033,-0.53862203531755026,-0.11763954356056432,0.099992333563477254,-0.10110484921641763,-0.089208154486671271,0.1233789968657197,-0.0095080856719728917,-0.041160554720556651
237,2844,567.8380,-0.38505943254858183,0.31465239217474794,-0.43052018998774833,0.02237479198808202,0.2930610960030024,0.27299750424500396,-0.016970187441991726,0.15956497164914771,-0.14519530369719119,-0.10455473000866726,-0.538480133667331,-0.11714356238933724,0.10008250887910851,-0.10119882428909475,-0.0891631562719984,0.12254339635997386,-0.0098724424274248164,-0.040991428814746843
238,2856,567.8420,-0.3846528566842079,0.31319490343332951,-0.43040468558731138,0.023359528436622222,0.29276432638727318,0.27314784844459539,-0.016770158133018367,0.15934537445087943,-0.14572139628699729,-0.10423267868874232,-0.53959322293666923,-0.11828559720246198,0.10113564549795716,-0.0996004305185101,-0.088335907039605657,0.12256215529847718,-0.0100842875943814,-0.042486615785408813
239,2868,567.8380,-0.38353180995798009,0.314308210076291,-0.43079676827361407,0.023658676221753071,0.29208281974148365,0.27362404972583376,-0.015605625182859134,0.15988019586828464,-0.14639705366867445,-0.10366016046082795,-0.53915414034212994,-0.11916372720425969,0.1008376124370412,-0.099698399198563242,-0.08778806929606664,0.12290725313006025,-0.010546860225743946,-0.043160066187016427
240,2880,567.8420,-0.38421486859162973,0.31356953215054884,-0.43111902035548255,0.023989072833474,0.2933469945375069,0.27323223887192849,-0.015141622054556268,0.16016783489041375,-0.14513051028152643,-0.10553258426966509,-0.53823461158690533,-0.1185349834173986,0.10029389679613286,-0.10049167676652219,-0.0883254985744077,0.12339429466906064,-0.01010181423398874,-0.042107131890538718
241,2892,567.8420,-0.38422005304667972,0.31387540929546232,-0.43167402688374362,0.023251417767479451,0.29409491852998926,0.27311845328523032,-0.014918849132575213,0.1597082360958125,-0.14509025287727878,-0.10527087462993201,-0.53764930199903,-0.11801894020572735,0.10053332163576412,-0.10049778888258105,-0.088480784965786652,0.12327247210740977,-0.010019515834811435,-0.0410952881493764
242,2904,567.8440,-0.38356716896597615,0.31463784587705562,-0.43136446458947991,0.023493509423534436,0.29338953995340916,0.2733089150936458,-0.015051983810703192,0.16007211535911434,-0.14567610184432955,-0.10436835094268211,-0.53822316336719833,-0.11774412977495625,0.10030650157476995,-0.10113095330615335,-0.088907673027811718,0.12249054254778635,-0.01042181665584354,-0.040560391162763658
243,2916,567.8360,-0.3836834345634596,0.31516051863434824,-0.43091007014747,0.023526352281575052,0.29265040730669784,0.27355603981461279,-0.016056392147302295,0.15993786278025804,-0.14672694717524398,-0.10397633549596132,-0.53820534810689413,-0.11858048872973734,0.10035464465896624,-0.10087310317130616,-0.088739715976332151,0.122306569306255,-0.010927524109203141,-0.040419077517971712
244,2928,567.8420,-0.38359956296373354,0.31563009856245211,-0.43143483840822788,0.022649801688708573,0.29269586423762933,0.2727207712006095,-0.015859022445725179,0.16014379628666411,-0.14757322930140496,-0.10399052882931795,-0.53793327793822432,-0.1190609060891363,0.10082307985937122,-0.10035490597815352,-0.087826511208691088,0.12182479797929119,-0.010131715172692433,-0.039864658163398556
245,2940,567.8420,-0.38412591325359213,0.31490865448290584,-0.43166154841726023,0.022806092929731625,0.29286204582721026,0.27308653643206054,-0.016035560867192312,0.16058812319371121,-0.14671995464909088,-0.10422296098938713,-0.53764897846280624,-0.11902875264701791,0.10110133542739662,-0.10006957347801025,-0.087951322326370387,0.12163278536147233,-0.010256435177275073,-0.039177318077278291
246,2952,567.8400,-0.38424663296961903,0.31421204510769685,-0.43206635104392027,0.023773300243536043,0.29405815496388726,0.2728670750755568,-0.015135046843821838,0.16138198341724772,-0.14560854690726227,-0.10460564553701243,-0.5370963940400707,-0.11937383795248732,0.1013021515163777,-0.099427282876399847,-0.087942562573735589,0.12126650735618882,-0.009902533691472112,-0.04020027768201561
247,2964,567.8400,-0.38411216161076445,0.31402545803529353,-0.43181029453500747,0.02427998742274921,0.29441378427682163,0.27289173702914549,-0.014848751428339914,0.16136054140455863,-0.14550171648088384,-0.10461438113678843,-0.53687686942168822,-0.11936963328600043,0.10118872773899296,-0.10002529454616294,-0.08835441529106712,0.1223950994197894,-0.010086491989159022,-0.040537483576252975
248,2976,567.8400,-0.38436832180927116,0.31443902724866724,-0.43257205026412826,0.024210935753701569,0.29438509588427075,0.27285135693541068,-0.014704189542358503,0.16118879576310777,-0.14558679885492268,-0.10488000297961388,-0.53608344289287646,-0.11899056179662369,0.10107171747113472,-0.099834970092515449,-0.088606835384575963,0.12197490310166685,-0.0099560208248805626,-0.040181036974544677
249,2988,567.8460,-0.38489950597772971,0.31351739719516064,-0.43221833710000607,0.025426406076987634,0.293840079355689,0.27295760185693707,-0.01437551488613909,0.16095409422437712,-0.14606571502016408,-0.10495117259720024,-0.53676498944830542,-0.11968465132383022,0.10093008236079905,-0.098976653267889542,-0.088232027889454751,0.12167661285237302,-0.0098915110030798684,-0.040865343501721316
250,3000,567.8360,-0.38428795857676706,0.31368478433361568,-0.43285827311754022,0.024626560957362622,0.29454205086220181,0.27276514686435727,-0.014711634155515683,0.16099944545449157,-0.14635024824492576,-0.10467273134927732,-0.5362269382313426,-0.11998938907333823,0.10146755990185102,-0.099154632093564829,-0.088628659188452752,0.12116286305400371,-0.0096933514336335885,-0.039768095969286932
251,3012,567.8340,-0.38377728499194108,0.31373210079150282,-0.43285317849566474,0.024731237826886878,0.29461410130115995,0.27285002184627194,-0.014466311301231948,0.16117387928441765,-0.14574612728698036,-0.10509743369098491,-0.536569853704849,-0.12013112885150354,0.10099639219090981,-0.098967320561102939,-0.088372665882514856,0.12139797424623189,-0.0096842815041817687,-0.0401298472088029
252,3024,567.8360,-0.3845796115753225,0.31310237053984979,-0.43262160120800497,0.024211302169665879,0.29452856564452329,0.27287315506730914,-0.014730493333709469,0.16079974218926021,-0.14659985954216018,-0.10414626536497833,-0.53662923106832894,-0.11946614956034501,0.10143861351091277,-0.099200491353495873,-0.088650291597824935,0.1214111468803038,-0.0098418141353807734,-0.040294870229649074
253,3036,567.8400,-0.38513716681756488,0.31313648005480005,-0.432218805733076,0.023883721275501903,0.29406529220881306,0.27278216113744119,-0.015688422511518842,0.15992473375025687,-0.14628486592160655,-0.10457436717217818,-0.53703731751858541,-0.12016860918384577,0.10125164425905467,-0.099368028909009365,-0.088232371459404463,0.12115161080537626,-0.0097133440118405221,-0.040565490853610026
254,3048,567.8400,-0.3851945972730581,0.31286489805329354,-0.43222352467491421,0.023508612237244549,0.29407520349603578,0.27294248681854194,-0.015381981810394027,0.15982230726421898,-0.1460827519320497,-0.10425062446870911,-0.53713877633123075,-0.11980660007600306,0.10137110693535654,-0.09934053749800327,-0.08873102249202014,0.12143449347212437,-0.010119989864923457,-0.040749355739127732
255,3060,567.8400,-0.38494371639865366,0.31269711589915372,-0.4323794562775371,0.023141301395357364,0.29386910836508628,0.272816843153352,-0.015628691364391236,0.15993292412260188,-0.14641896600314067,-0.1044042036449109,-0.5373863623012195,-0.12033243341572829,0.10110808069364041,-0.0991305079860512,-0.088601231640948616,0.1211584550978857,-0.010051896268940453,-0.04064276656780539
