Generation,CountEval,Fitness,phi.proc.1,phi.startTime.1,phi.endTime.1,phi.jobOps.1,phi.arrival.1,phi.procTotal.1,phi.wait.1,phi.mac.1,phi.macOps.1,phi.macFree.1,phi.makespan.1,phi.step.1,phi.slotReduced.1,phi.slots.1,phi.slotsTotal.1,phi.wrmMac.1,phi.wrmJob.1,phi.wrmTotal.1
1,12,23.7203,0.214161375023736,-0.0148104010249474,-0.17687048936071,0.345168945522576,0.0209007143782353,0.289566406095648,0.1831138481926,0.242447960196657,0.1882599259029,0.0799987634302064,0.264575374307358,0.132999255563945,0.0525951384579306,0.264956618151421,0.158715983662992,0.047763510820991,0.301812838839558,-0.0340373185463804
2,24,22.2309,0.090188991417585,0.0401182909966409,0.011171095705109,0.361045964972478,-0.0238464131018341,0.206900559078205,0.114587950055392,0.0541980477903383,-0.0502641676965104,-0.0991634784084453,-0.00756105859564551,0.0211193077264123,-0.0892238239311555,0.114382657023985,-0.0742074926705597,-0.0306385716903494,0.107054881949169,-0.183189216971156
3,36,13.4199,-0.0225241154794332,-0.113330547395939,-0.0170914531344198,0.136408529328031,-0.183472536328144,0.137135665490258,0.0417349338548601,-0.0411243403658133,-0.0532069688885464,0.0202782636472851,-0.202769748015516,-0.193659325416559,0.0972213780523868,-0.0870521190056371,-0.209731343496752,0.220209683656592,0.106529691929889,-0.261003848014565
4,48,9.6513,-0.064375756256593,-0.0882299101327096,-0.339593429234004,0.185023850236244,-0.134054230365997,0.0388006379674443,0.0753833242853492,-0.0281931472701897,0.040661324542184,0.120583057139977,-0.12327686299874,-0.0960022436862548,0.0566917272932098,0.0378135633772132,-0.0501020094309564,0.155180202851601,0.163356293494915,-0.315048386486483
5,60,12.3771,-0.127298455548763,-0.0579948382806313,-0.283086210952863,-0.0403321703217641,-0.217955872033736,-0.271384044068272,0.0608328382942282,0.0506035007704617,0.0186154293665647,-0.0106272324110835,-0.0637631487895387,0.0406109613398931,0.24634659866048,0.178178406319295,-0.139642860782354,0.00240513996839702,0.334679152646747,-0.137591352565981
6,72,7.9183,0.0622679147675773,-0.0440058554107009,-0.339093556579207,0.0178439312487038,0.04677385160812,-0.00539597861315468,0.157657950247754,0.14552829254746,0.196059289064249,-0.152328621496824,-0.077038706116174,0.127574967275554,0.176115013763109,0.0559913192205361,-0.164074300559129,-0.0368072787949726,0.283593968353924,-0.106411263111047
7,84,7.9019,-0.114055293187136,-0.0969141777587264,-0.387148660510504,0.0682484557189879,-0.199553472463402,-0.0471321967964808,0.00636789442989408,-0.0385380573742129,0.0861949780275716,-0.120117622653064,-0.0795221445787944,0.0668663473543008,0.217773115002554,-0.0586104372614731,0.0139128082067296,0.088258610000401,0.412351671521849,-0.293525663750629
8,96,8.7307,-0.231020837471788,-0.135141096134767,-0.2608680184739,-0.077437770032113,-0.273422201884237,-0.0901576322978401,0.0975019512167349,0.0501483384086265,-0.0336789488451427,-0.0327950052136457,-0.0833900107766551,-0.17220633358856,0.0705640353561157,-0.186707593582996,0.0763237087534877,0.0686536613243965,0.334899871769841,-0.176950557737652
9,108,8.1651,-0.179338323655015,-0.234584741224914,-0.132509633753877,0.00360023987001111,-0.275573238571845,0.0428369865359789,0.0500316837884972,0.0668906007026672,-0.0306781187963871,-0.157734558430713,-0.102306518244881,-0.00999319478895978,0.0614175280181575,-0.00367608658556578,-0.00819011619497055,0.0337583464009188,0.421354865377131,-0.0268263658368605
10,120,9.3004,-0.338488478054902,-0.175281953577602,-0.111719598359617,-0.103741000871023,-0.294565386842082,0.0413746164609412,-0.0195863191280492,-0.0414884650794125,-0.135825283718019,-0.116147410405262,0.0287825860318134,-0.07913664675662,0.0731908369669339,-0.12331206946833,0.00203028343264303,0.0958431767475615,0.339180527366692,0.124838541546985
11,132,7.9112,-0.240879211554314,-0.250881741029441,-0.171563877818445,-0.128644229045046,-0.349961634542814,0.0692286514246404,-0.0801956350748593,-0.0532009274728171,-0.0669357864690521,-0.162020022119433,-0.142090140927434,-0.110752753666646,-0.113237270759009,-0.08018611757082,-0.0417637201550993,0.0499441284691229,0.254085186391546,0.239720414789531
12,144,7.9561,-0.23473342779655,-0.347570035419661,-0.174484353813064,-0.167475776916079,-0.243725327426966,0.114528985958833,-0.0350165588182575,0.0422617044260315,-0.169781818393547,-0.16079416299926,-0.232171218906173,-0.118714844600711,-0.00844417422430205,-0.219823368883616,-0.0836076290914904,0.0723433075223721,0.275071015906214,0.186534179420553
13,156,8.774,-0.189990558920947,-0.32096068659765,-0.174478593865359,-0.260884277217177,-0.269326364623045,-0.038219836942447,0.10942719133731,-0.023851882510059,-0.179910431939747,-0.0426142475624348,-0.245667287502989,-0.0518110117003277,0.0417159556265902,-0.148985250170469,-0.147311847765953,0.126328837453478,0.298902699761372,0.131523369599087
14,168,7.4547,-0.222349353115901,-0.203567108406335,-0.246418642664135,-0.25819232615117,-0.366927276381317,0.0598807113050205,-0.129077626122385,0.0341333927071299,-0.0473850243869642,-0.121958939371625,-0.331807271783109,-0.0242754398068439,0.211268471214515,-0.0669906181854345,-0.139571691166416,0.028310229453601,0.338555442187261,-0.0340747371994295
15,180,8.2102,-0.222275247600509,-0.242552275422711,-0.110482891123136,-0.295839261078964,-0.447050406241404,0.0429631455356609,-0.0609879484144094,0.0596227735596253,0.0265645968952318,-0.153379720507205,-0.283949920145797,-0.0219004599471075,0.159764330215336,0.0376946119296163,-0.0915517433603026,0.0344151809645468,0.248118025625933,-0.149828860098996
16,192,7.6928,-0.227605628501481,-0.251067575105499,-0.0915746101365758,-0.383289778343255,-0.351108518179212,0.0278309251611887,-0.0386511960973894,0.00222112871270138,0.044689942790092,-0.136667618414514,-0.379021829677915,-0.0469736003945312,0.217247726717113,0.169237260615304,-0.0882370404622933,0.0274497347425212,0.275177138485896,-0.080798625148773
17,204,8.1112,-0.105067972514211,-0.211357424254973,-0.16563860088534,-0.306395100202986,-0.41163760356488,0.0488846168535344,-0.0547474331804824,0.0749550837663416,0.0894521148373915,-0.20556583003459,-0.444463121229268,-0.0268761046541165,0.219077136409583,0.0977081115244436,-0.127997095481532,-0.0226271235021141,0.217360466398208,-0.131365228552643
18,216,8.1173,0.00902205814775927,-0.197782218048221,-0.247032079992007,-0.293066456964671,-0.288343412056002,0.0291953888584187,0.00229327248379008,0.178261983412088,0.292668276256925,-0.128388568929946,-0.475333931365196,0.049635338565197,0.226871290176981,-0.0506561176667219,-0.138650597445337,-0.0514797735904932,0.240147017637002,-0.150120749595372
19,228,7.1382,-0.126406114948118,-0.159726127834534,-0.262899463499733,-0.289410004919488,-0.235674879366813,0.0674304271679615,-0.0615821866459607,-0.0142809265114225,0.171329855203327,-0.112310636910897,-0.461398018841248,0.0388011941881736,0.235122298149911,-0.0665195449901246,-0.162926866698429,-0.145937715090122,0.303137552202334,-0.244423896095302
20,240,7.4677,-0.0119133482234491,-0.202102400629868,-0.384422430703106,-0.340411562569371,-0.254945154559527,0.0248222036725989,-0.0932886496952263,-0.0118490337560833,0.112630028821307,-0.106288545093811,-0.38389118009569,0.111033322248395,0.170518867747222,-0.161073926000639,-0.137856506334877,-0.154223443049138,0.314418319115064,-0.186299981689398
21,252,7.2463,-0.0401988018077802,-0.193356080304093,-0.290732500723186,-0.371434257953824,-0.204788147310508,0.0165577749267711,-0.0462174891293934,0.0344403981338396,0.0614678129630502,-0.045758074769226,-0.47225796266967,0.16381199285501,0.200827713557671,-0.149284761032941,-0.176753854521238,-0.216997824936733,0.327061004463015,-0.101676033609523
22,264,7.3364,-0.0515328528295051,-0.150275745871453,-0.247329904068401,-0.221452465160587,-0.162506321498653,-0.00985837235995833,-0.0538013432324385,0.0108019776784923,0.0701191894803424,-0.0483452884518997,-0.399817517584413,0.222559651577791,0.24928550328087,-0.208885275991307,-0.224399656161527,-0.31555952403364,0.425350748943462,-0.134727194021409
23,276,7.5017,-0.0301979795373795,-0.162536439972931,-0.240111801721347,-0.304901091362325,-0.0868740423367649,-0.0375587272632743,-0.0112286538043593,0.0483219920921272,0.0599797035612064,-0.0495537864398966,-0.36136198796255,0.261425546991296,0.29686066708135,-0.188446850808527,-0.189083391915721,-0.345918155598215,0.398656389000637,-0.0969332818045432
24,288,7.2101,0.00445331767557786,-0.110362546581248,-0.239578696877874,-0.320872731485003,-0.0537413814799262,-0.0440615147058314,-0.0327876185404969,0.12265653262274,0.106972550342202,-0.101206576050209,-0.428183429716765,0.264089538607402,0.184810264870503,-0.145122538920853,-0.159771050111942,-0.330697219625705,0.426404148086901,-0.00732917633262775
25,300,7.1037,-0.139972439503275,-0.0957597482197972,-0.36451521149798,-0.38802974056829,-0.0402689533136258,-0.0402473967535748,0.0421200283189875,0.130010340729989,0.112330600094797,-0.0673341123433453,-0.349284919483282,0.210585236664187,0.164507370946002,-0.179552265957481,-0.161642358476786,-0.231477780903993,0.481087328639495,-0.110859276278233
26,312,7.3434,-0.0519164799742742,-0.104540384445743,-0.355064706568933,-0.42343608853438,-0.0717466340194159,-0.017207079992604,0.0224068251340267,0.151062317110315,0.15970200765348,-0.0459533607600886,-0.309667865671465,0.302982893939663,0.211254906960652,-0.222301151664116,-0.124158923178588,-0.184884499353479,0.378360606189004,-0.0478927040621509
27,324,7.3217,0.00235487032046167,-0.188537925414564,-0.323678807453655,-0.364595535547115,-0.0867715584362066,-0.0309382561501141,-0.0709778614901539,0.1850448270029,0.166494781968051,-0.0829397588877532,-0.303980269320753,0.297982583790376,0.206637353070363,-0.20466775902493,-0.125058301550907,-0.233278555097187,0.4171279412062,0.0605447624360665
28,336,7.3688,0.0313816374027144,-0.132787336250401,-0.352696992385161,-0.377870312748842,-0.0464772182438749,0.0223995704507268,-0.0228787570870292,0.147652554439461,0.135973703839774,-0.078294563728325,-0.296639373464056,0.343517069777166,0.204078332598048,-0.20030955640605,-0.206048514704233,-0.207124485681407,0.408234716556309,0.0911070352553302
29,348,7.0547,0.0122601121942973,-0.0519649994873751,-0.415452536493363,-0.367175865949479,-0.0578146878376316,0.0374979171298255,-0.0508277274114804,0.0637103803863803,0.0571706325946162,-0.0878067214453094,-0.282984693172434,0.387557077108806,0.10511444163406,-0.237662364472724,-0.175071672469364,-0.287615603202351,0.373781779536024,0.0884163385642542
30,360,6.9669,0.0341735068915785,-0.0393312045309796,-0.416122639992787,-0.445392291941965,-0.0402840406688287,-0.00606056503028825,-0.00145293575332705,0.0473962150138675,-0.0365927078364549,-0.0828422251363429,-0.330431795274827,0.351145287040931,0.110425846947615,-0.184074854582123,-0.111748671753328,-0.273217702077296,0.403665236116051,0.0987634338485384
31,372,7.13,0.0518020644862709,-0.0386161347943525,-0.395206020571297,-0.455809775950254,-0.0873234252326346,-0.0406314819179482,0.00311010666636904,0.000850134113581749,-0.041384708131502,-0.117505254852318,-0.321764838007684,0.359251814643905,0.0855249670141425,-0.166876953865663,-0.0364447563630461,-0.257695077408105,0.432659187133106,0.156123739920256
32,384,7.2064,0.084064317550937,0.00294808473803574,-0.381558216720981,-0.565486549742896,-0.0679540389351114,-0.0383608493557974,-0.0648418603496045,0.0533676676047975,-0.0333045029269362,-0.0881286403040426,-0.313055796187853,0.304656420607807,0.078949821521536,-0.131528452434911,-0.0730422930042002,-0.261159665345219,0.346691020741865,0.122985736714081
33,396,6.8161,0.116235527546256,-0.00236922640979426,-0.396211807286967,-0.584859308933605,-0.106490028452069,-0.0143121010898515,-0.0845048185624358,0.0373598777242671,0.0797809695444873,-0.0809893530289219,-0.308032778251239,0.295555447596505,0.120959040358466,-0.0968998822177486,-0.146149177017497,-0.207963793627075,0.323750685612633,0.092009781552988
34,408,7.2893,0.0747163619366957,0.0101343419910345,-0.414859806782224,-0.556391226433365,-0.0999006104885929,-0.0421724239964681,-0.0512665028950524,0.032598375945356,0.107077086191129,-0.13298123593309,-0.286488845916161,0.237538406869966,0.0925476981912701,-0.0808848684824427,-0.14231819428269,-0.276043025684721,0.346968248096354,0.0461727525577658
35,420,7.0594,0.0830154888441333,-0.00779136834102957,-0.3694154222191,-0.535278058601416,-0.0526864065755049,-0.0175327027145927,-0.0499310423494642,0.0293465652882204,0.111541112227225,-0.157088912583972,-0.322529424091594,0.215311791150018,0.121297577109577,-0.117936015068105,-0.199755506435937,-0.329075074738033,0.382749102579332,0.0513489096287898
36,432,7.0552,0.115550736864253,-0.0464503914624219,-0.365021212152895,-0.485871279104867,-0.106861157286153,-0.000589436940918896,-0.0586737612335468,0.0544431725356299,0.133753044985848,-0.187797436348691,-0.289725560785739,0.215086660443783,0.0935446085961537,-0.154882925516185,-0.175301938032402,-0.348593185548213,0.372663827548035,0.140045155234161
37,444,6.9483,0.165238101370826,0.00812299958746467,-0.375907443665096,-0.476816579196561,-0.0503446166046387,-0.014272748412818,-0.0320950272615078,0.0172737450489682,0.121962881031905,-0.226778194317488,-0.307982529548191,0.221755414036412,0.0935235698057078,-0.168065521127704,-0.0895528815546606,-0.386298279045055,0.362372386439984,0.12176494789151
38,456,6.9052,0.16284323499909,0.025647449483958,-0.386579086155531,-0.450821459072249,-0.0889654891613073,-0.0129389470533234,-0.0543313335705471,-0.0230649878112825,0.0340512732718071,-0.224987347387071,-0.36439968914229,0.193541953973821,0.078479356038425,-0.173562829422043,-0.147354235298065,-0.332643085668479,0.35787254806394,0.162238956796905
39,468,6.8218,0.153887907060163,0.0564600368902133,-0.431973721013204,-0.402132386693351,-0.0680976854725898,0.00514236733798183,-0.042881295795666,-0.0180852254337347,-0.0296655423997323,-0.247842806988314,-0.405603886931673,0.218816920627434,0.0399078641861868,-0.161603010177843,-0.128914591435236,-0.290177112807222,0.39721327055074,0.116139649926881
40,480,7.0146,0.160603207472552,0.0484891325158136,-0.44550052354112,-0.361219816046059,-0.0522128886264832,0.0129397828047424,-0.0602416187120217,-0.0348213218628942,-0.0521368417225372,-0.256247816684419,-0.381513347961845,0.232795465136875,-0.0221247587424114,-0.202624255441185,-0.13549260042755,-0.28677104375203,0.399306861890156,0.124206172610606
41,492,6.8147,0.193812826990335,0.0493421927930231,-0.488733087641223,-0.372461499625754,-0.014109119995398,-0.000171538785229071,-0.0214787284192581,-0.0477231147282668,-0.0100433740320475,-0.271445975530874,-0.340050325597073,0.235163712977948,-0.059766162439926,-0.208551711391465,-0.127800432570325,-0.279157444494739,0.389544107036851,0.117584588837284
42,504,6.8753,0.153819608224927,-0.0148683163514693,-0.436920528494692,-0.363770941617766,-0.0541673755209839,-0.00594178745471781,-0.0248246743561106,-0.0213917858219936,-0.00482544108025158,-0.269863672117651,-0.300695659918638,0.271656154246411,-0.0599679642073852,-0.24548531155971,-0.159982957657736,-0.304531888563437,0.413868031195129,0.0960060253050252
43,516,6.87,0.193917665073616,-0.0552118551509843,-0.438271482517704,-0.324182364049942,-0.0567192659646401,0.00328229972059506,0.00711706707895838,-0.0442803147354966,-0.0197413385799297,-0.292652644888326,-0.307036611854179,0.266500580579213,-0.0561148321202515,-0.294566677783082,-0.136409733579327,-0.297492557577576,0.40951722176248,0.0212799262229024
44,528,6.8946,0.159465379985276,-0.0591186668169773,-0.436772061580152,-0.309638569045386,-0.0511854106611556,0.0124005629253833,-0.0167446841136496,-0.103609522940406,0.0239548856931219,-0.259080671902653,-0.341645861344975,0.289383156000129,0.0159049061528715,-0.307488975550234,-0.1865173819234,-0.277376576382555,0.406480530895824,0.0313777861513342
45,540,6.8857,0.185032430192877,-0.0421716223621865,-0.453353458084627,-0.354995314843885,-0.0429611221805965,0.022109192247046,-0.0054541500269438,-0.092191803542541,0.0233857106101478,-0.243637154607652,-0.347124526633826,0.304845512792847,-0.0242221523654535,-0.222330346170271,-0.174735978042412,-0.273422019698832,0.391874883554468,0.0579129725613599
46,552,6.9136,0.217157039684799,-0.0378928421219086,-0.437995336681728,-0.335136996289898,-0.00800372543442356,0.00596570964214904,0.0165636804204604,-0.11016418528541,-0.015603599780926,-0.230303817253691,-0.356906896038511,0.316444820866102,-0.0314105262733407,-0.296978476841414,-0.143138974050725,-0.266011410142508,0.368214007818321,0.0532191869379622
47,564,6.9665,0.210886541111746,-0.0740943157050386,-0.436445949672384,-0.325649988783004,0.0244634575674833,-0.00756452079135186,0.0444391429928781,-0.0505743230571595,-0.0188697195710826,-0.184330012109197,-0.396941933890882,0.309269887045468,-0.0466882880768683,-0.266004304233686,-0.101339410240383,-0.273623554059937,0.405845095888215,0.0103505856317121
48,576,6.7792,0.202230590299948,-0.0925114258412195,-0.447799207107586,-0.300382271492201,-0.00570953515404216,0.00360398232463803,-0.0030648719664176,-0.0316411488258895,-0.0651941417498505,-0.172623306511945,-0.41617856147279,0.344084053436494,-0.0630013931263754,-0.268069393814293,-0.109159825684347,-0.245844784807683,0.391403104864847,0.0398345338280115
49,588,6.9086,0.140296976549829,-0.0629502224394174,-0.463950370023339,-0.314474826726365,-0.038986325653812,0.0238516529079237,-0.0151345955818158,-0.0955998014814964,-0.0883859661364417,-0.200602064505302,-0.427093596065963,0.311666681874873,-0.060310900532927,-0.290687181144315,-0.116838085667864,-0.231636660863205,0.375243743549755,0.0595405191786813
50,600,6.9249,0.168904097447635,-0.0367716067330701,-0.469871053722228,-0.315211400491857,-0.0551902061870414,0.0266836208751925,-0.0457815329446044,-0.0410478603174526,-0.0713684321591353,-0.19594055995717,-0.384524797707535,0.299260712193562,-0.0397533093085954,-0.305011052001189,-0.121591753317326,-0.24962847595662,0.404353479867199,0.0402169154645378
51,612,6.7146,0.131977467086943,-0.0338635641513934,-0.451526316858567,-0.315321528790308,-0.0478101166614353,-0.010754688044916,-0.0612049190083453,-0.0322732892030501,-0.0929019238266184,-0.220243958643411,-0.383852529571367,0.269827867225983,-0.0279856404927717,-0.276487061026863,-0.103474360105593,-0.283895944254876,0.436085106149791,0.0404164377497271
52,624,6.765,0.142858213884741,-0.0814134659796571,-0.455056053625127,-0.326374641183189,-0.0387082553223989,0.000824657436438536,-0.0253498525585318,-0.0587788946538949,-0.0978601548697947,-0.208731646568818,-0.378971946406779,0.284853705870733,-0.0449748433737731,-0.262167428722101,-0.125684497211628,-0.289722292099326,0.428564494394035,0.0456038639104566
53,636,6.7661,0.159768179809328,-0.0723999679352236,-0.438066787424513,-0.297520584627315,-0.0386101840490578,-0.00100900542847797,-0.0240961195381396,-0.0575047134981322,-0.123900397885966,-0.246672740104954,-0.370438268622255,0.298152809967986,-0.0587280662416092,-0.285190514295478,-0.13587337410222,-0.258028500861797,0.442451678841794,0.0361987085363349
54,648,6.7884,0.147097037648278,-0.0781963664966483,-0.452069979063693,-0.279220960370138,-0.0506116394257064,-0.00393600776119628,-0.0211022913584908,-0.0694065848813096,-0.112395636832694,-0.250683573196104,-0.34966290557529,0.302589114458738,-0.0704916221304538,-0.280227596861212,-0.129634412307867,-0.259086522458512,0.455686081071533,0.0258818220012373
55,660,6.7034,0.187011419655457,-0.0643689342599397,-0.468606128304498,-0.278740700019027,-0.0402411512386785,-0.0141293844874549,-0.0157699438679368,-0.103932654306453,-0.116122696051357,-0.246348273074449,-0.365515022694385,0.309827969582772,-0.0408904718096779,-0.245875277447378,-0.10532481337754,-0.237715423291888,0.450779085936517,0.0100971684923168
56,672,6.7923,0.17900103180443,-0.0809681573893691,-0.469120112796653,-0.261380348192483,-0.0490417198465904,0.0057075340352179,-0.0297761604399641,-0.10961612291797,-0.10356480840429,-0.266247337580493,-0.371950251788665,0.319130341726951,-0.026278161622047,-0.246848208400083,-0.0849468396710121,-0.249799133248575,0.437312334486495,-0.00205457487872593
57,684,6.7823,0.182906280264814,-0.096425946290209,-0.454167051085837,-0.269521535011568,-0.0589057894620131,0.00866302866252616,-0.0442301470413395,-0.108005915615274,-0.0994773552070864,-0.254170350205335,-0.336173327721228,0.356307067710382,-0.0390032928971659,-0.239183580383897,-0.103255234692362,-0.243429723671608,0.453661749948304,-0.00432428847615954
58,696,6.7799,0.201889905598602,-0.115212761395299,-0.464902168540077,-0.249909213511987,-0.0392589570579668,-0.00181606029302646,-0.0529349526517502,-0.094073363578307,-0.0813238789738219,-0.251280104452239,-0.363875561328647,0.366220070455232,-0.000759864101353919,-0.219395071599854,-0.115884227067513,-0.258998883858528,0.424440340186446,0.00368085767924548
59,708,6.6431,0.205445007079737,-0.15125975029656,-0.480494678620448,-0.278011505980447,-0.0666867574690106,-0.00386809574187201,-0.0714952638535333,-0.0704593397463967,-0.0955105434199815,-0.255412496042419,-0.331135978015809,0.352392174914315,-0.0143379770220845,-0.207524175539677,-0.0826830306557668,-0.257940576694339,0.424002476604098,-0.00725185775075114
60,720,6.7416,0.18879570855738,-0.148693099720233,-0.449018594381898,-0.264766344948253,-0.0656780309117659,-0.00623981986345028,-0.0553226217844314,-0.0818768972965321,-0.0862755230132687,-0.296261839465124,-0.299897478048125,0.351041030493118,0.00282712529794756,-0.21090921549683,-0.0839676010069218,-0.262566816111545,0.463837084094765,-0.012131870310186
61,732,6.7002,0.181999677839916,-0.157654280720085,-0.46299810963609,-0.230134218528875,-0.0658492978501461,-0.0122098217552525,-0.0639908885967439,-0.0941831885733425,-0.0862991412986814,-0.315271596073354,-0.288094399471262,0.322245037708951,-0.00620830095105977,-0.182543705628913,-0.0427613493588559,-0.270826874209983,0.494187275460598,0.0160710788217451
62,744,6.6598,0.189012409101321,-0.178809574732991,-0.447416722054226,-0.185592714090814,-0.0949151454417048,-0.0171850909367302,-0.0767812053290226,-0.118702122168471,-0.0979643928003515,-0.340501383054548,-0.275459047145601,0.296266737820226,-0.037367869814347,-0.212795838310595,-0.0182290719738572,-0.265852101618026,0.497771986046679,0.0334184761360685
63,756,6.6646,0.201887293034039,-0.156088314042387,-0.439391130689436,-0.194622332742902,-0.129417936941899,-0.000886896727168078,-0.0766219964480421,-0.10377554630356,-0.0887913162716171,-0.37940238380548,-0.239604070410599,0.288234133952884,-0.0500263394183779,-0.2086807151406,0.0210496526521851,-0.283713642900415,0.488000583765671,0.0418277815464395
64,768,6.6989,0.23597765005528,-0.156100631581877,-0.465097395570695,-0.159762306017867,-0.107126166121137,0.0145679728375547,-0.0770081857756734,-0.13350614994332,-0.139010016248722,-0.409220634965031,-0.226290655326191,0.313907434524043,-0.0501916366168759,-0.181938104547245,0.0455553660382372,-0.229033412838318,0.443317214317894,0.0445702106673909
65,780,6.7243,0.220814884443512,-0.154734003854424,-0.435414055881308,-0.143405962529852,-0.137272278162637,0.013876145676196,-0.0820688580662748,-0.1402543528545,-0.11903907488496,-0.442761628503477,-0.210204707353534,0.287097699201451,-0.0533176925867219,-0.191939716455303,0.0763428191429589,-0.250511263475053,0.447315320706538,0.0192361543373633
66,792,6.8,0.253327200117819,-0.207721314967786,-0.438118961896376,-0.15802602325863,-0.137928033455217,0.00503330860919331,-0.0865200762982511,-0.136517385946258,-0.0909561937808346,-0.419702009635235,-0.199136158577637,0.273377148482901,-0.036557703141012,-0.186579600998964,0.0731862066398493,-0.257124484529159,0.423894447896934,0.0530076835201607
67,804,6.6956,0.267496459544267,-0.180523967343541,-0.428902074199843,-0.142336827708697,-0.13374588456074,-0.00334699033994035,-0.0867240366772382,-0.19689662605561,-0.101416550059759,-0.441640386510245,-0.179305640211493,0.256590190484277,-0.0516854497137283,-0.178529918350639,0.0822926002860829,-0.241739978269819,0.438371671638281,0.0759720359738678
68,816,6.8131,0.283871606120138,-0.185022505108978,-0.429169920867569,-0.182446182672155,-0.13803175903822,-0.0117744277324176,-0.124280104891704,-0.186073865970216,-0.0717426275184676,-0.459096113411599,-0.156027018842026,0.226856078151258,-0.0850416835129159,-0.14115041702197,0.0669016831820093,-0.22928801582642,0.426190767510477,0.0953752126903261
69,828,6.6822,0.21876769907695,-0.185999330996743,-0.41367010354119,-0.171582340512116,-0.139888889293998,-0.0110204362191248,-0.128625772350939,-0.16507483095579,-0.0945500006109635,-0.475732429109728,-0.167476974512091,0.202954430470747,-0.0313863073032614,-0.12782213934164,0.037325523397028,-0.257366548726136,0.471494281045724,0.111226427161374
70,840,6.7378,0.189059992122982,-0.220891442723713,-0.415132507433733,-0.170635793306377,-0.171546013780411,-0.00775349920608676,-0.124546076710052,-0.17744463881455,-0.0819699590984545,-0.469844267472122,-0.124906892834295,0.204224616712761,-0.0175081083199866,-0.102458138403711,0.101036853454845,-0.279737857924381,0.457928133163138,0.140435473965256
71,852,6.7956,0.151967602905063,-0.212351783410848,-0.381898330588755,-0.170635144597132,-0.180343243868518,-0.0242105753968135,-0.146599898622197,-0.14137475202211,-0.0113311766649182,-0.469765953709308,-0.0740404791727489,0.230113946135211,0.0498768947003878,-0.140360514885721,0.0678390733477777,-0.312658977619668,0.468197174979566,0.156284202614093
72,864,6.7708,0.192430836941957,-0.187434446861765,-0.380811776500407,-0.162633666223043,-0.187569918247121,-0.0358415678488371,-0.14057211773907,-0.139009199006215,0.0319601600389181,-0.443032856289669,-0.163109944963168,0.227142437192924,0.0778564559210154,-0.0999912598281198,0.0963119237046186,-0.308425189698688,0.480066839929785,0.12344801456807
73,876,6.7741,0.196312803489556,-0.207025495282861,-0.377293875560478,-0.118811834752419,-0.20249217168582,-0.0145969682038741,-0.13909076144141,-0.145613612808162,0.0410196969073922,-0.431710595564054,-0.175452854635722,0.231538428880181,0.0927557820216198,-0.179749273876613,0.0770310624035341,-0.308185950364202,0.468703521111171,0.129167098682119
74,888,6.765,0.209038528312873,-0.193815419726312,-0.388177104581817,-0.119772178001015,-0.160877433053324,-0.0137893076398961,-0.137972111983749,-0.165760859892105,0.0475722069635303,-0.42585050644358,-0.195894698428309,0.221240062326247,0.129892830793826,-0.112183132025867,0.0643776135560866,-0.317550786981305,0.473650054314953,0.107982464082748
75,900,6.7014,0.202255952937237,-0.190024194420586,-0.411433732590767,-0.153821407940319,-0.133624651105235,-0.0218817239104921,-0.146728986242849,-0.130983962686352,0.0371648792246336,-0.403344568458148,-0.204441423770791,0.264792211070459,0.145130498619759,-0.098775458603177,0.0277699327607281,-0.321071293849484,0.470778523233962,0.105644741793794
76,912,6.7053,0.224462294401066,-0.193328955779981,-0.420213748512944,-0.196147859293316,-0.150651175593459,-0.036189817015085,-0.131475180420628,-0.132486760151112,0.00496455567202183,-0.394532716818543,-0.194107817188545,0.241875400742462,0.173569844557588,-0.106945755583778,0.0235349927600845,-0.297712020063237,0.467291013523622,0.106623665577126
77,924,6.6964,0.22639044443345,-0.207544586393128,-0.429715886986316,-0.20219994900301,-0.140009994824149,-0.0249071069368209,-0.129001303596183,-0.110779762349187,0.0115191493092915,-0.405437900808322,-0.191687108818511,0.240015561163499,0.188437482876479,-0.0880589215495874,-0.00503175081358452,-0.320312946102828,0.447643014647559,0.0962694196387327
78,936,6.7443,0.221223583134271,-0.19712963775206,-0.435875547254864,-0.204925353794807,-0.159127163837306,-0.0399166070058183,-0.144843189271965,-0.0581024501539237,0.0560345506114268,-0.360892317492364,-0.185965390115541,0.270852840334625,0.207692602022099,-0.128937349992413,-0.00582307907541313,-0.334770897714316,0.428575615489072,0.0972398760593872
79,948,6.7468,0.22982887915808,-0.233547359247443,-0.409379599611541,-0.191845839440635,-0.158601750964487,-0.0292766654107752,-0.140641891880542,-0.0562208857501791,0.0638690858580417,-0.367256574079345,-0.164576202262089,0.28053229051271,0.20456218149987,-0.171691790225232,0.00195908729675088,-0.355219383174193,0.404119884012908,0.112402343885825
80,960,6.7405,0.208518688954969,-0.207203931112219,-0.417059294357221,-0.220294153443843,-0.160848601873389,-0.0104440625453248,-0.166115368175059,-0.0587864141054729,0.0340389092412251,-0.385244454119252,-0.171836175243841,0.261404112730097,0.148696737143243,-0.14747311958539,0.0122128719375202,-0.338489432919534,0.429752146735175,0.13144819465496
81,972,6.7436,0.206483177267111,-0.224190146028194,-0.405969931439374,-0.222284999035397,-0.142289583374488,-0.00712272962513055,-0.130245491815705,-0.0806775472411441,0.0413414931841857,-0.400350685997441,-0.159434455984132,0.278690814285863,0.148029077114039,-0.148330695869849,0.0196021004996716,-0.34514770814401,0.434203082185604,0.11929333171549
82,984,6.6806,0.236239924252826,-0.218257971403563,-0.399645682815062,-0.241273391223879,-0.149076072516557,-0.00376646520102661,-0.140035320303086,-0.0755608435786128,0.0307826786043917,-0.380836948375709,-0.189802296277919,0.270786631106558,0.146873191054061,-0.11691690142448,0.0278072290576482,-0.347654646433175,0.433354332232971,0.109260510701427
83,996,6.6528,0.212878697013306,-0.241500983371463,-0.369741502897529,-0.265564334460708,-0.150804194694899,-0.0148450357140093,-0.156711436263461,-0.0557793034791184,0.0258416702064761,-0.388772078757834,-0.186972844766105,0.25232383872749,0.140740565363171,-0.106893730203988,0.0181039258036726,-0.357098572177124,0.440521333160501,0.143831104304125
84,1008,6.617,0.202221194606414,-0.251512832780148,-0.396399875046799,-0.273073032964082,-0.15652688324101,-0.0219143385300928,-0.158404104221309,-0.0708956770495299,0.0148256352194364,-0.37282784547692,-0.192345628232266,0.23988659702859,0.13751705326135,-0.133524779938381,0.0012389248762806,-0.34174025811387,0.435006935218756,0.152841797992312
85,1020,6.6731,0.192363423322293,-0.253531230197752,-0.391063893807345,-0.262904318950715,-0.168248235707336,-0.0296521797450498,-0.180945521830501,-0.0863860170602857,-0.0185189807640721,-0.365659600694932,-0.214620934743735,0.22192891623293,0.147360415875276,-0.121027426974651,0.014621838793647,-0.328982369298268,0.449030761380158,0.132265774267062
86,1032,6.6571,0.1967350657294,-0.244668698898286,-0.405565121334322,-0.260005450727686,-0.168072956431349,-0.0344411335948166,-0.172425331854277,-0.0884149981178792,-0.0198349965172465,-0.375918937888065,-0.204835639127622,0.207668753581009,0.14721533034574,-0.121257744390067,-0.00199708815387238,-0.330220667737832,0.448365970538767,0.135216536107364
87,1044,6.595,0.196872299833412,-0.250308191957766,-0.4029590628938,-0.246287872243609,-0.167670792330035,-0.0305065706236587,-0.162459140738487,-0.0991099997996452,-0.0103513813290921,-0.374132379814536,-0.217999359246838,0.204097583083943,0.139329667013418,-0.130918581771806,-0.0162863510827494,-0.328364666129218,0.454725180389873,0.153433771850891
88,1056,6.6287,0.20558499134002,-0.244065707585861,-0.399162792127144,-0.238163046442918,-0.160186688236938,-0.0371042122525534,-0.150380642077228,-0.0917775885354235,0.00253076802329677,-0.373882765243751,-0.217951263343739,0.21868342332041,0.142658860198544,-0.124924416964077,-0.020887237733511,-0.328366790062349,0.466110531076492,0.142361051615153
89,1068,6.5689,0.192203040472916,-0.233897892538629,-0.40933598509779,-0.260861354071464,-0.175852625025372,-0.0177106731034524,-0.160535470250914,-0.0887889946317304,0.0168722054631214,-0.362732646732164,-0.230723952047691,0.23701442827705,0.156773905190101,-0.0977796428171427,-0.0185928950917773,-0.3239073563021,0.453611373996859,0.127159135174053
90,1080,6.6317,0.190132394011604,-0.250093189350422,-0.407015226065861,-0.233957352144798,-0.169621658387546,-0.0161382221641251,-0.160302134544533,-0.0752640795112555,0.00509163883403329,-0.362480704175527,-0.233327921628834,0.228828575800844,0.16601412788752,-0.0944015546608659,-0.0209197170550627,-0.32708109552362,0.465688862551557,0.125193297270906
91,1092,6.5792,0.182364159032484,-0.272138796861049,-0.39378659426991,-0.221210899652177,-0.171337607159508,-0.00599995635823954,-0.170326790704204,-0.0712359833209254,-0.00424573960362184,-0.360104202213212,-0.237108969686105,0.22923189116779,0.179428736475065,-0.0962225714235734,-0.00893401350447509,-0.332113202119663,0.463517791346972,0.124787807426672
92,1104,6.5984,0.169909669918515,-0.268350845931616,-0.397697719177522,-0.213520361939285,-0.172257715407944,-0.00655865946193534,-0.174519908637449,-0.0800746922566893,-0.00599286920093003,-0.368660485787248,-0.232785228710007,0.216478154800403,0.169733478219136,-0.104556193854434,-0.0199288075894094,-0.331927213700227,0.470286512407997,0.129013474593365
93,1116,6.6124,0.162789468335109,-0.27326621167031,-0.402957211062356,-0.201602203457945,-0.174884479267297,-0.0051315675480881,-0.169205453475181,-0.072129188898007,-0.0219237274582345,-0.366646614970405,-0.23153372973563,0.229801460340119,0.157665468990267,-0.106044184814263,-0.0174647357100352,-0.321112010144526,0.479150743541739,0.129251585674331
94,1128,6.615,0.141131565649435,-0.283657811346154,-0.392255217865297,-0.218053250858057,-0.179634503183184,-0.00166509571330342,-0.165763032292879,-0.0766791249258588,-0.0513503022099618,-0.36629958225602,-0.242160137237536,0.227159899088247,0.137710000537124,-0.102331317989601,-0.0227731614376094,-0.323679146148041,0.480486286738027,0.122352288141011
95,1140,6.6305,0.13434939121521,-0.291793540009148,-0.37724718903265,-0.233081619015517,-0.188948748103728,-0.0205954887525607,-0.165270433013207,-0.0693769733498456,-0.0465420127509108,-0.357613789720176,-0.259826494741888,0.217054272363013,0.132476774872488,-0.0976673159000539,-0.0281624786558607,-0.326867036113707,0.47716339423509,0.14109146545119
96,1152,6.5935,0.136218043496437,-0.290944191951249,-0.372577757677344,-0.218837753747026,-0.198336093087261,-0.0170525303619734,-0.165212826489451,-0.0608192891727281,-0.0408973415669128,-0.360532666518207,-0.266493345410821,0.215785112486574,0.138350387089561,-0.0970037592417666,-0.0241240388896771,-0.333399688176044,0.475742032646497,0.134058794906748
97,1164,6.5946,0.11155894164887,-0.295940075181314,-0.37449488814409,-0.216890394074754,-0.196281126420955,-0.0137729150641821,-0.161344196903288,-0.041740494243066,-0.0593287003685417,-0.343157585822989,-0.271861950654063,0.227775252024119,0.166593901605963,-0.0870890138396611,-0.0533474380163721,-0.329189105422175,0.481265801497885,0.127115537372745
98,1176,6.6395,0.0974552315608336,-0.305534103837423,-0.369152385777596,-0.230856851950547,-0.198358120317074,-0.0130992605800299,-0.173922102650522,-0.0412202079361918,-0.0692004757934917,-0.334447888156009,-0.285248513793165,0.230401552348012,0.162224582755329,-0.0793942206177704,-0.0646658969349868,-0.317982466309146,0.47607486840602,0.123571324341634
99,1188,6.5795,0.107058509940944,-0.304435354630767,-0.364180034782316,-0.230200037085104,-0.19247245373039,-0.017958619966078,-0.174313045769003,-0.0341185802503354,-0.0780539203950355,-0.344838729327657,-0.290776615799138,0.243405151885622,0.157695055238001,-0.0882050156252,-0.0429417423693114,-0.306995874598527,0.475895331214651,0.112397523333187
100,1200,6.599,0.115076338071605,-0.301258387465192,-0.374623188309846,-0.222082691614966,-0.18497250999371,-0.0178579084229164,-0.171309266770218,-0.0149359376456779,-0.0750733247221061,-0.327151829990018,-0.290973516192287,0.265714796213142,0.159797238262354,-0.0875902682162039,-0.0554361379612427,-0.300665124606842,0.479761470668836,0.113899998576231
101,1212,6.6365,0.124844517906749,-0.292782856569962,-0.382351956906093,-0.24703994972496,-0.176585545633061,-0.0116182428244877,-0.169619277619282,-0.0434024270369583,-0.0717184525857682,-0.333278503472154,-0.268969500775102,0.277316281638279,0.161356366121417,-0.10114103230264,-0.0526568966191507,-0.291836029929668,0.471364280734766,0.112978985682304
102,1224,6.5619,0.116207475958857,-0.302384909179466,-0.383954113881306,-0.233673241952092,-0.185568145937291,-0.011487845276965,-0.172543076942816,-0.0521803013049996,-0.0771412736739952,-0.340812763440235,-0.26935625987318,0.259422467678319,0.16626461469923,-0.0917606493482044,-0.0635133032545678,-0.289473699340839,0.472786252126623,0.106635614956603
103,1236,6.6091,0.137135419437479,-0.305059337976257,-0.385211357497181,-0.209672928484715,-0.188233026096513,-0.0184497393415905,-0.158387096178459,-0.0706161059258529,-0.076864881677593,-0.340431811306108,-0.277740990429183,0.258200237722063,0.178564702932452,-0.0957727759191418,-0.0589958947488899,-0.288531827838467,0.470343256795274,0.108461208749362
104,1248,6.6053,0.159287260622229,-0.302348990117317,-0.381888811422862,-0.201754387948305,-0.187885201727515,-0.0177718380229266,-0.147315752941493,-0.0729627153406636,-0.0772449180784622,-0.364788958185174,-0.25743344663467,0.245096483153645,0.180380831339481,-0.106377000375507,-0.0530241601796782,-0.301426294205808,0.460239605898426,0.122342857626699
105,1260,6.612,0.157427778813593,-0.296122290111987,-0.383405326709113,-0.215468187209575,-0.173975427031813,-0.0272666560052942,-0.153115797626486,-0.0523607418705912,-0.0796289508398059,-0.345737055482432,-0.272342672964836,0.237382312797145,0.183480450759467,-0.120205063647871,-0.0607433860162122,-0.305531440071701,0.467919762709679,0.107510405164513
106,1272,6.5866,0.144726468517812,-0.30779388883858,-0.377551865754803,-0.208607920833461,-0.175516353332802,-0.0192597432973233,-0.154802225210746,-0.049321568028755,-0.0848386368170627,-0.358829094712347,-0.269430829156286,0.225046611193341,0.184437713495145,-0.11347458749026,-0.0709697091950966,-0.306527816023006,0.468793100111639,0.106940466724712
107,1284,6.6294,0.135330531520727,-0.308418689029513,-0.36951257251181,-0.216913479833712,-0.17769970144695,-0.0224994751048724,-0.157988280666278,-0.0384326976024746,-0.0844851139450004,-0.3555487278803,-0.268534836070279,0.225999097777097,0.185146295655665,-0.12392215706211,-0.0573341510481874,-0.313838775561851,0.471528649933329,0.107091313361238
108,1296,6.5881,0.126768563604726,-0.31718961626883,-0.358997731473698,-0.223876547863962,-0.174736810070011,-0.0236549374474025,-0.153846308334981,-0.0397242266907975,-0.0909025807228991,-0.366624036748957,-0.268850610060036,0.210306799336937,0.175903646403457,-0.117842205714427,-0.0627936762660526,-0.315671887061533,0.473255171724569,0.11910628985452
109,1308,6.5982,0.127944182636932,-0.308622723768257,-0.364432676136748,-0.230348895981301,-0.17878698997742,-0.0182916496593154,-0.155018349787698,-0.0360490544440158,-0.0891718332039905,-0.366181097960541,-0.275317091737387,0.200489946859562,0.170881545681461,-0.115000420922828,-0.0651075884161909,-0.318796630488112,0.470625895963141,0.11795790471095
110,1320,6.5573,0.122900396707353,-0.309179978614275,-0.363269453094234,-0.219337510140487,-0.17612507191125,-0.0162301925234247,-0.15941901335732,-0.0440895214589143,-0.0965095365131697,-0.377857278247921,-0.258538931616319,0.197126351444116,0.17145792361316,-0.120233093631123,-0.0526415757394055,-0.331058141854989,0.468957855114911,0.117251075807611
111,1332,6.5687,0.112300047374458,-0.319626227600232,-0.36128282977578,-0.209065691595374,-0.172097596469441,-0.0170916190833972,-0.153446525008463,-0.0454571721032878,-0.099751772475733,-0.368996967998833,-0.267795559910289,0.210257859001202,0.169686622466514,-0.11289805698521,-0.0563319567379548,-0.335197043249378,0.469524451944123,0.110646852916314
112,1344,6.5636,0.122529979897144,-0.315347520530948,-0.368420051477583,-0.204597853530914,-0.18110855381964,-0.0160957874695918,-0.157697443906691,-0.0525099483636277,-0.0954193025939443,-0.377166068300032,-0.24996342082864,0.211222414411483,0.179071024661577,-0.117355583129396,-0.0504015004568941,-0.329585116914759,0.46544517656196,0.113810813900433
113,1356,6.6001,0.125996183896293,-0.319038480312258,-0.357971625992222,-0.205591967910356,-0.174888632656082,-0.0177927648199832,-0.153657501126502,-0.0610345705466681,-0.101509793521051,-0.383671449361677,-0.250385375112415,0.206799174818228,0.177723105811684,-0.111509055099227,-0.0465015205759866,-0.324211646510314,0.472529942691193,0.119520311015322
114,1368,6.5402,0.12986558548223,-0.320494331159556,-0.362331518289536,-0.210034421622251,-0.171088343491728,-0.0248887219456782,-0.150296614487772,-0.0618297965731587,-0.107133865640811,-0.380580957079948,-0.249751914920417,0.206999283153791,0.168391129735897,-0.117087746110819,-0.0501719699405626,-0.318465613600867,0.472284415654017,0.126781811380324
115,1380,6.5685,0.145635172158775,-0.318941141279051,-0.366652525114553,-0.207779492598894,-0.169408980008417,-0.0270277388530168,-0.144458929912314,-0.0680675827546635,-0.106573383810667,-0.380196588231768,-0.249687548500384,0.208810719467459,0.1574317111813,-0.11760310576923,-0.0389599323216256,-0.329542591207705,0.467345436530804,0.118245955805312
116,1392,6.5446,0.13793815752291,-0.318884570263859,-0.362314711430433,-0.221090928208836,-0.162008537107761,-0.0252765083459981,-0.141269027139283,-0.0628498322624648,-0.104296244578015,-0.381516588991498,-0.25187198644391,0.204495768611146,0.145780437991405,-0.120241678154721,-0.04263746322589,-0.331338435444321,0.471056685517521,0.12505416654701
117,1404,6.5775,0.145032588781556,-0.308270355834396,-0.373164383201856,-0.21920113339039,-0.160520620996004,-0.0184593816302821,-0.140722313987585,-0.0720343311376026,-0.103160216361256,-0.381136019323908,-0.252078986676305,0.2029913231503,0.141279823697251,-0.124721193389646,-0.0398838850435475,-0.330463886704006,0.47109371980551,0.122212907584524
118,1416,6.5997,0.144089852395213,-0.301491804808142,-0.377198639068914,-0.218492920865041,-0.160240748212453,-0.0175648209474947,-0.139149418937203,-0.0809175005603147,-0.101427632867896,-0.3777251242742,-0.25763483758786,0.197269273036919,0.14631694833718,-0.122877786625082,-0.0508886620045186,-0.331073286443942,0.472288217119495,0.12287995714331
119,1428,6.5531,0.138015764350949,-0.301659747432144,-0.377643773593227,-0.213938620907489,-0.166685954093583,-0.0228518350077596,-0.144664177156056,-0.0832117685482595,-0.104009820691791,-0.377518353002584,-0.263107403433403,0.190186895807933,0.151177422688327,-0.131346444627331,-0.0469469360357789,-0.326977534773571,0.469900416331687,0.122000367744834
120,1440,6.5197,0.137328945709501,-0.29182627342021,-0.385109791397399,-0.223897465047156,-0.16729806628254,-0.0253263000127446,-0.144763716619112,-0.0858383999641442,-0.109178803289347,-0.379478164380601,-0.261417183006807,0.178336272586552,0.142157045214073,-0.134135360131968,-0.0464957765420091,-0.321530492116454,0.474429341054897,0.120623097938905
121,1452,6.5485,0.13968211512551,-0.287229575707071,-0.389878967898593,-0.243876991702169,-0.164584520301627,-0.0191841315446491,-0.14573774902503,-0.0820171179370699,-0.106089447147019,-0.369690271491626,-0.262035315278795,0.185891290768894,0.139257626386131,-0.139585619929216,-0.0447999896502521,-0.320675511613094,0.470607258104105,0.114366278079326
122,1464,6.5705,0.147305356793512,-0.298378381908887,-0.383278083199765,-0.240918879295685,-0.165194367462482,-0.0245293232220056,-0.142643254786515,-0.0885075753390408,-0.104425262994446,-0.377797497133672,-0.253629090345446,0.189345848896576,0.148745000427092,-0.144634347239575,-0.0405901280308745,-0.317073834725541,0.464257865902424,0.110068364384237
123,1476,6.5231,0.153996906078838,-0.293532547427934,-0.392268488138465,-0.238179040180209,-0.16614758853418,-0.020384377389712,-0.140092882649216,-0.0866276340917846,-0.0960357349195766,-0.377428110192322,-0.252964238743943,0.195932615888838,0.143442015017017,-0.139440803393843,-0.0370243635731529,-0.316877824399092,0.463026069536081,0.111418525322408
124,1488,6.5499,0.164378185482065,-0.289081159954873,-0.397092854187376,-0.24378452927347,-0.165353711323538,-0.0136375238746008,-0.135284517507868,-0.0990219930302678,-0.101200421647547,-0.383012530308435,-0.244074057514815,0.193149771220245,0.145770723581139,-0.137834691782342,-0.0307371147571054,-0.314662198563614,0.457942659682921,0.108598367383274
125,1500,6.5691,0.153876413397173,-0.283660160069664,-0.397483106627247,-0.238234797531311,-0.173071890117589,-0.01013570216009,-0.137139038939519,-0.1029588963437,-0.100207940073542,-0.384589616870204,-0.248364457828678,0.197316125119252,0.146155319181245,-0.137517185079097,-0.03419939263373,-0.30913665872111,0.459427058362852,0.116784658086259
126,1512,6.557,0.153352770085934,-0.289546944471984,-0.397179651694682,-0.241678783967545,-0.176340288248198,-0.0087904072598687,-0.142022489524729,-0.0989058174924802,-0.102881391980136,-0.379125663404561,-0.244141800916441,0.199274024371094,0.144732358284342,-0.140610681274827,-0.0208213182361806,-0.308621537527448,0.457278300990774,0.123496823916747
127,1524,6.5499,0.152192424470434,-0.292579678136914,-0.396032571404349,-0.240768739030956,-0.171094723086195,-0.0107235271018703,-0.141154431116723,-0.104575601078944,-0.1057155428815,-0.385344982266777,-0.242051891697494,0.192276317509054,0.13916890936287,-0.151839288861479,-0.0275193443392414,-0.300380178121935,0.459985394395344,0.122145543877067
128,1536,6.5528,0.148410624850302,-0.29124013728315,-0.3900965541069,-0.247180739118423,-0.173550963874754,-0.00766495949991793,-0.145348314629778,-0.0965028820575422,-0.0998233665216167,-0.387474462215482,-0.238370660067762,0.199063652974681,0.134257015579615,-0.150054810895284,-0.0316622700707192,-0.304371355697879,0.45896241299889,0.129326414263474
129,1548,6.5517,0.155484179348449,-0.289011885020329,-0.389496766699559,-0.246781700046823,-0.17229707584476,-0.00801634211904813,-0.143642849526411,-0.103825044575688,-0.104949547078878,-0.394622917996214,-0.236960217930009,0.202831954786906,0.126204665028958,-0.155231159990884,-0.0305383693547584,-0.304309924038128,0.453939470686081,0.117417914850108
130,1560,6.5446,0.148893717049307,-0.284978689033224,-0.386324114148282,-0.252154025707868,-0.173932939165336,-0.00622834376764904,-0.142796839598456,-0.0951833516766852,-0.110733758004338,-0.39172481683197,-0.241412007963821,0.198610155771889,0.126609928577598,-0.150453738598624,-0.0386744273700639,-0.307299552382911,0.460415596746826,0.112802861030432
131,1572,6.5048,0.148766459288185,-0.290875255616216,-0.391324240336672,-0.251599929785644,-0.172170470602672,-0.0041826524046295,-0.139147308701395,-0.101802803819057,-0.106299144575401,-0.390479582612933,-0.239585181757183,0.202175660483534,0.129246214055817,-0.154644736517528,-0.0272976493169675,-0.300562839809507,0.457413887378542,0.115642889684158
132,1584,6.5183,0.141299674490632,-0.293836132493096,-0.388080435179606,-0.24656568250951,-0.176145353690854,-0.00578082631716187,-0.141194514489586,-0.0995172072074793,-0.110947048987939,-0.391711967901536,-0.241729776057993,0.198845906584593,0.124050984262161,-0.150894686367528,-0.0304876674002182,-0.298720948589776,0.464457160870407,0.11070350744345
133,1596,6.5035,0.150618312414533,-0.295600206383513,-0.390980973773252,-0.248339086675059,-0.175767902030251,-0.00748255004400748,-0.140349170093037,-0.106552119113724,-0.106320098787952,-0.39122690054178,-0.23435251222477,0.206961637827903,0.124461969532561,-0.156498357717189,-0.0304861699849997,-0.290882699939788,0.46038332288442,0.114609516804685
134,1608,6.5088,0.152131815776726,-0.296378691292558,-0.393722642876968,-0.250380946386229,-0.174464961781247,-0.00574639647016101,-0.144753896520772,-0.107546324177618,-0.104058146141757,-0.386133946141796,-0.238251793492334,0.210538937303164,0.125650683340006,-0.157981622446521,-0.0363481003944169,-0.288723792180401,0.457124337951746,0.110525738756636
135,1620,6.5314,0.146743140125998,-0.293654113960649,-0.391971152971118,-0.24936557381129,-0.178575652087805,-0.00387815619882234,-0.144329733560072,-0.0996203316318428,-0.102648460394603,-0.390350637449286,-0.238288818369632,0.211315845740379,0.122609873494792,-0.161017036272107,-0.0431535007110758,-0.288416202956795,0.458822024208202,0.111550276463532
136,1632,6.5522,0.146104207886131,-0.288967882474397,-0.390912290578169,-0.254931262116848,-0.180835761517244,-0.00218800553867943,-0.144465399293844,-0.0974892096937611,-0.103516344174346,-0.391517103057444,-0.245835461206174,0.20470813235346,0.122538717648088,-0.160322562117465,-0.0443828410667348,-0.285611439198067,0.457969804896454,0.114994060880962
137,1644,6.5295,0.146628654740316,-0.289175880684904,-0.394101301911243,-0.257436755990576,-0.176984766428737,-0.00659225127880002,-0.141043258431433,-0.0996501100738465,-0.105965393310117,-0.39018132383926,-0.244631303908256,0.199697839964462,0.119042076772336,-0.161847838805473,-0.0468615690694042,-0.282018135749342,0.4613623339166,0.115737846832428
138,1656,6.5128,0.141664809897741,-0.290951239011909,-0.391062963482584,-0.25391469252388,-0.177916083759883,-0.00569008321022945,-0.138029159093555,-0.100329649812998,-0.109759807493637,-0.392592793538207,-0.238495905596368,0.20033474696905,0.118591755462368,-0.172660968346688,-0.0401459321781925,-0.283483110312076,0.462189771355641,0.118206806081835
139,1668,6.4894,0.140428829180559,-0.286437735020729,-0.392672057786431,-0.256148538593557,-0.174106049086959,-0.00377143727101602,-0.138527434426089,-0.0971140639066066,-0.111700960700546,-0.390679140568671,-0.240167913891903,0.20275320523636,0.116566348914879,-0.176969658928309,-0.045547486655928,-0.282944516635945,0.46248753945064,0.118843415690595
140,1680,6.514,0.140294035766805,-0.283254516336007,-0.389724969806221,-0.25902348469838,-0.172540674138767,-0.00668172412938476,-0.139681009194953,-0.0957446766596441,-0.107712788768556,-0.389704703886934,-0.238625713934813,0.203346249885826,0.118394827196976,-0.1776431774709,-0.0474188241251481,-0.284485360780114,0.465878386520498,0.12024413025833
141,1692,6.5097,0.143740679952861,-0.281457209128485,-0.386874085193771,-0.261174029539071,-0.168419480611876,-0.00941535066974047,-0.13967605554949,-0.0975850850522555,-0.103735762443237,-0.394392438541684,-0.235410739412383,0.206651042387793,0.116294547511006,-0.183118050990146,-0.0491481858909064,-0.281327761077595,0.46607222499432,0.11815050715105
142,1704,6.5192,0.148759083785658,-0.280489184874135,-0.386213144869485,-0.268312812931613,-0.162589758698182,-0.0129125451102726,-0.139524419080706,-0.0885137473338674,-0.100767387521733,-0.392659711758254,-0.236510602255584,0.207141618285475,0.113609908327492,-0.182382522753553,-0.0527596060804475,-0.279020981592023,0.467304205037846,0.123205905078207
143,1716,6.4872,0.143615201215713,-0.287324131484663,-0.387399318457924,-0.267966518199905,-0.160989490120761,-0.0145571606983368,-0.138901740323159,-0.0876411740460547,-0.10317857203216,-0.389702166921475,-0.235850222587292,0.208985686151569,0.117514054754246,-0.183970478237454,-0.0511254738973013,-0.275908245863449,0.467830004697697,0.117705737380989
144,1728,6.5071,0.145073773028019,-0.291049425373838,-0.386099381927199,-0.267188583850055,-0.15866901384536,-0.0127785122466962,-0.141513409376744,-0.0859182474892052,-0.101138919565606,-0.388348306791128,-0.242992096869052,0.206310385008465,0.120586410022048,-0.184826886148892,-0.0506019903541092,-0.274948418968219,0.466308833691697,0.115683153180946
145,1740,6.5324,0.151875192688197,-0.287012580147028,-0.394228360051177,-0.263616202414521,-0.160574681748278,-0.0107035523603363,-0.144573666445485,-0.0894519828551709,-0.106082635766058,-0.389838799907432,-0.234592330098603,0.202472809716797,0.117710590863533,-0.183886765416192,-0.0479947711953632,-0.27661620209687,0.46412544559129,0.114934488581315
146,1752,6.4846,0.150536870876161,-0.28814849354373,-0.39638605243241,-0.263405051980325,-0.161490289710516,-0.00815605287447986,-0.13875770072083,-0.092778544913365,-0.109263459821172,-0.39308380915869,-0.233512196445307,0.197357987276125,0.113130303803927,-0.18400178105257,-0.0468392870088771,-0.278807475702555,0.463119484733673,0.11108109376921
147,1764,6.5013,0.152508446267126,-0.288712745159007,-0.390360194096114,-0.271742609050522,-0.159529318528332,-0.0107497867886142,-0.136267997154643,-0.0920533985498433,-0.108965508324501,-0.392675162983346,-0.237386992690655,0.199146878714407,0.112989011441306,-0.180338767593285,-0.0489021912748347,-0.278156744854639,0.462812623355071,0.112351373320726
148,1776,6.4814,0.153188611411404,-0.285194697222899,-0.392767350379964,-0.268566727654236,-0.160334619643048,-0.00848584116807342,-0.135236618431687,-0.0969995569060531,-0.108790690574701,-0.394075396835306,-0.235413794596316,0.200700820867874,0.114036524010493,-0.177987575062176,-0.0521309507069113,-0.280563548979496,0.462077374299118,0.111069735755526
149,1788,6.5188,0.148466810107997,-0.28843736142396,-0.392457485521192,-0.266033713291513,-0.157399122829146,-0.00919260087297516,-0.135559860668276,-0.0906082166247874,-0.109858651318554,-0.391144749954242,-0.238649667343296,0.201398798496725,0.113645363586523,-0.179291793540387,-0.0517478347016318,-0.282445715867969,0.464563619236917,0.110517298447862
150,1800,6.4898,0.152685284626724,-0.290265064613642,-0.392083575423224,-0.270743108063082,-0.155379981449366,-0.00930943002004458,-0.131350009683542,-0.0930417336887886,-0.109963240279828,-0.391204234180335,-0.237687173257124,0.200933367708177,0.108614690652441,-0.180661171722222,-0.0489590580813235,-0.279589159779429,0.463147627331628,0.115861737806245
151,1812,6.4918,0.148124575409135,-0.293890714184639,-0.393343984848614,-0.272312348061749,-0.156719664623517,-0.0107344437904011,-0.130943929599551,-0.087915161500392,-0.111589652773471,-0.384625739266264,-0.239705797140556,0.201660426347297,0.110508449998291,-0.180218490508445,-0.0509635846095874,-0.277823316261995,0.464600477321873,0.118476086982258
152,1824,6.4903,0.145711136437675,-0.293902479011322,-0.392298621080969,-0.267144589647896,-0.158000994073842,-0.0089454545119384,-0.130060364026713,-0.0902202551605197,-0.112834681095185,-0.389279467421148,-0.237508799968659,0.199796552645529,0.109381621450075,-0.179557151726232,-0.0486674929410749,-0.280956040234989,0.464591439601519,0.121801531403034
153,1836,6.4697,0.14699411678223,-0.292452775326278,-0.393235721465426,-0.269722814622,-0.159848068772594,-0.00751100263314053,-0.131287665419342,-0.0926065737755266,-0.113377830460522,-0.389346184245457,-0.237227214351205,0.197804263399544,0.110294507011088,-0.17794611359578,-0.0454905965479074,-0.27906521510306,0.463255517100915,0.124638055080887
154,1848,6.4929,0.146477820831248,-0.295009269211,-0.394996262939505,-0.270448877188663,-0.15960509560808,-0.00691341915060694,-0.132843262031495,-0.0914722856034243,-0.111755677083959,-0.387130323631045,-0.233354347487309,0.200634134218626,0.111057722357076,-0.179787628049973,-0.0464096906243104,-0.278729541573618,0.462196121160993,0.123967284155765
155,1860,6.4761,0.148949040240625,-0.294662238008441,-0.396464711179596,-0.274659008639486,-0.157251530671458,-0.00676930930015118,-0.131147739292112,-0.0881564842680071,-0.11267074739329,-0.385826924840959,-0.235610233398095,0.201749232140454,0.110220694038462,-0.180756804985176,-0.050130502734482,-0.279548064356565,0.459187436577371,0.119470383990003
156,1872,6.4761,0.148769106932744,-0.296614321509844,-0.396280960962529,-0.270298232114456,-0.157425991100632,-0.00482539902358546,-0.13038630844045,-0.08870767194853,-0.114002246075852,-0.386077229054606,-0.239188105412747,0.201594190778344,0.112511882075955,-0.179218236174944,-0.0504020699580741,-0.280027042540164,0.458760681618964,0.11754970265766
157,1884,6.4819,0.147464916070228,-0.295497017846464,-0.396289302096866,-0.2727478365991,-0.154538137230336,-0.00565353979443816,-0.129454918371565,-0.0885307260129978,-0.114022084432597,-0.386118308398894,-0.239285538487892,0.201020439193088,0.108845182132461,-0.183256193039489,-0.0561792681885443,-0.276817823004342,0.460281649047712,0.118082987101574
158,1896,6.4958,0.148855081146529,-0.294760647356165,-0.395665699704334,-0.276640852519244,-0.15234542766536,-0.00552641598277523,-0.129472689109429,-0.0872060349967865,-0.113219119058955,-0.384469450438527,-0.240029371497751,0.203759626027849,0.108921780471463,-0.180801129559944,-0.0570455915549055,-0.277834321626226,0.460053540821067,0.116967597761629
159,1908,6.4841,0.149297256572337,-0.296038709658623,-0.394550132227275,-0.274149827415885,-0.151558895804366,-0.00703170380589107,-0.12690627713167,-0.0869489373652296,-0.113631996279376,-0.387478395147526,-0.238574963075585,0.201039998865322,0.107409847289926,-0.17927670861132,-0.0574424821980992,-0.280501171702958,0.46123509016691,0.11681956712457
160,1920,6.4909,0.146354427353569,-0.30042303509132,-0.392673856204151,-0.274843641928823,-0.150568905402474,-0.00693188151034132,-0.126487506470201,-0.0859333216770398,-0.116329009265629,-0.384261358264433,-0.242878797279966,0.204444992273943,0.110682814760692,-0.177833424638929,-0.059895508010702,-0.276679472462736,0.460559000562507,0.119233297723018
161,1932,6.4846,0.150302483139841,-0.299722882214848,-0.393272441809088,-0.274493446841574,-0.150386213283937,-0.00574004819822393,-0.127498178560921,-0.0855169217266757,-0.113826054953562,-0.386426261685326,-0.241804717315018,0.202654379331998,0.112180695921734,-0.177760598389377,-0.0571846303851384,-0.275277689151585,0.460066884225598,0.120367473900698
162,1944,6.4738,0.15038745777052,-0.296741841927871,-0.395041038557834,-0.277381540712682,-0.149678004605289,-0.00691280831394979,-0.1261210540723,-0.0877896458979467,-0.112516599586353,-0.387302326242484,-0.238415603926723,0.201571000000488,0.111303595285472,-0.182108080926747,-0.0570354882364544,-0.274095115020085,0.4597234045234,0.121371046444681
163,1956,6.4738,0.149085472486658,-0.295999223818564,-0.393496257541005,-0.279217835087028,-0.150584994884443,-0.00662938145931341,-0.127753508549051,-0.0851859339541399,-0.112389789867281,-0.386316083916239,-0.23932625766231,0.2032230778644,0.111326666107809,-0.181047736495005,-0.0558740762990218,-0.275110886665472,0.459790310067899,0.12286555859578
164,1968,6.4817,0.150613462868718,-0.292429754781996,-0.392178024157134,-0.279048210772362,-0.150947100449019,-0.00732453542101509,-0.128532703321054,-0.0841995647738362,-0.114059042670673,-0.387584308862206,-0.241156627973445,0.200778077361576,0.109906321793995,-0.182494776145306,-0.0561646559119794,-0.275658448577303,0.460263601786638,0.124540375354633
165,1980,6.4704,0.150469571742443,-0.292162855160424,-0.393101408746651,-0.280853209565484,-0.151317850312324,-0.0068006311989285,-0.130057434384386,-0.0824161515030422,-0.115081137294082,-0.386262886261667,-0.241566123099967,0.198866502020321,0.109510739695314,-0.181263963616732,-0.0560488277692618,-0.275828806751276,0.460255780588272,0.124522500626346
166,1992,6.4863,0.148294412548745,-0.291932602383766,-0.392940416102449,-0.282516046837943,-0.151704147967914,-0.00691470444815206,-0.131788096242623,-0.0837261531308303,-0.116040269081548,-0.38476244090425,-0.240950724744038,0.199537045029819,0.110864879106623,-0.181927170307045,-0.0550803396569184,-0.275631747970871,0.460017680553954,0.124904707009027
167,2004,6.4734,0.145729449328871,-0.294930589065016,-0.390764867415932,-0.279994649886578,-0.153229122624374,-0.00773198556785408,-0.132356005111117,-0.0819967854206892,-0.117407198150326,-0.384107233840893,-0.24206193657046,0.197342525131817,0.111203968272,-0.182792423034579,-0.0556963392056353,-0.275977482078133,0.462122180679497,0.1238410253907
168,2016,6.4817,0.14444947876041,-0.296272343973359,-0.390787042458565,-0.282187245200046,-0.154536079403249,-0.00881217307035028,-0.133170853291216,-0.0814363810153994,-0.118651238369756,-0.383959931691157,-0.242024021728008,0.194150581373778,0.10953170271997,-0.180256142440413,-0.0569059277512088,-0.275452245664006,0.462733000736378,0.122909407006676
169,2028,6.4829,0.144627980122057,-0.295127810648984,-0.389019797443488,-0.280020572523559,-0.155555526738541,-0.00841846136169353,-0.134304999774793,-0.0786274071737345,-0.118411543751972,-0.386018369029022,-0.240730987196026,0.196801946041793,0.110778669403764,-0.179939928876422,-0.0569878924417705,-0.277076834818043,0.463046021569402,0.12194090555392
170,2040,6.4734,0.141452922369497,-0.294964118115835,-0.387834489620422,-0.280492968932521,-0.157413633890942,-0.00696680678671311,-0.135738241481785,-0.0781643450014024,-0.117821012573735,-0.387305956379607,-0.239391994178403,0.196221250289244,0.111476339362928,-0.179397625813142,-0.0566728860763046,-0.278393444143096,0.462429495879093,0.124898930134492
171,2052,6.4734,0.141740574220247,-0.296936083690679,-0.388306610998144,-0.277544843200192,-0.158330881342696,-0.00766344786316278,-0.135922190787079,-0.0782788845316285,-0.118153401899062,-0.387705645691711,-0.238011817763485,0.197530138734252,0.111694228390069,-0.178548949577797,-0.0568816427156302,-0.278960263721897,0.462146537551385,0.123284592469546
172,2064,6.4817,0.140085040094842,-0.298741607379606,-0.38795968991343,-0.278163508919406,-0.158008327119588,-0.00789889907616629,-0.134464197233303,-0.0791882155205257,-0.11883046579695,-0.387250387303245,-0.237235252082557,0.197808843013711,0.112339170908949,-0.176986886969338,-0.0562826849055558,-0.279016401976039,0.462819380156106,0.122807109204283
173,2076,6.4817,0.138874964379492,-0.298975149523214,-0.386358318869561,-0.277483647703339,-0.159822572472023,-0.00858639432459222,-0.135849402349447,-0.0772047950443112,-0.119809530505141,-0.387308381108196,-0.237773480902806,0.197332106064575,0.11086887626348,-0.177476856036797,-0.0564226934714558,-0.279111295517914,0.464188221039452,0.121581993327639
174,2088,6.4704,0.139470310942111,-0.298525016537763,-0.385025649473726,-0.277096839288971,-0.158655737384924,-0.0075831072169781,-0.134047029053528,-0.0761712020668982,-0.119331165610124,-0.390175430121695,-0.236616713034572,0.19830978634878,0.111813693527231,-0.180599152938831,-0.0586549810231831,-0.278471650909943,0.463581942479718,0.120359383152368
175,2100,6.4789,0.140697755890857,-0.297821898556598,-0.386088334730106,-0.276772197971212,-0.157303610299042,-0.00774831637406373,-0.134162954884869,-0.0773976034779303,-0.119356579117236,-0.389993599518676,-0.239390560567252,0.197468041600221,0.109788031003997,-0.180722232506128,-0.0581875889202164,-0.276283107622179,0.46379139855555,0.121668063689949
176,2112,6.4734,0.139895079818794,-0.300433556891013,-0.386599480265446,-0.27560050601432,-0.155579596619604,-0.00636241478878857,-0.132997572789698,-0.0769993100505626,-0.119101120798318,-0.389260909475629,-0.238988053703829,0.198039054920523,0.111181567535342,-0.180688595092996,-0.059727760400753,-0.275884316502986,0.464177466503022,0.120784175618661
177,2124,6.4688,0.139056044842821,-0.299495834715196,-0.387237278392985,-0.275196641957764,-0.156576852943977,-0.00610882326249906,-0.133460622120125,-0.0764447835920101,-0.120402954843406,-0.389217814578921,-0.240062915369308,0.198193066540102,0.111388623105384,-0.179752660962604,-0.0600341434116176,-0.275030014350744,0.464262856735783,0.120772816083823
178,2136,6.4738,0.139048785493485,-0.298397443039785,-0.388533639224204,-0.278016608078285,-0.154518860134402,-0.00690279499524321,-0.13281081317149,-0.0770983521127419,-0.118886404960043,-0.387610031736351,-0.23888968765473,0.19890508845918,0.112088716887893,-0.181196531949287,-0.0625685853415732,-0.273848717287902,0.46443900345886,0.121586183580871
179,2148,6.4881,0.13634816443437,-0.29853934184525,-0.388104214500398,-0.278581875914364,-0.153838249523138,-0.0067448754559001,-0.131960430010817,-0.0741516810570736,-0.119961311040471,-0.386748309820997,-0.241013602837265,0.198605616339678,0.11147229309356,-0.182098680070166,-0.0647511703484966,-0.273575113967112,0.46522927304046,0.121702220189833
180,2160,6.4688,0.136837540411404,-0.300456520626556,-0.387358296796484,-0.276609236422859,-0.153607401034266,-0.00634897656073919,-0.132194823811241,-0.0734552174749301,-0.119797425639371,-0.388469724210884,-0.238900181805586,0.198084801328279,0.111892522664058,-0.181687782873569,-0.0632922940786327,-0.274006574995263,0.46545169840423,0.122697281555687
181,2172,6.4829,0.135732531009401,-0.302684961107623,-0.38712678244139,-0.276202854576884,-0.153175339867722,-0.00651325629302832,-0.132058054488435,-0.0725313381729182,-0.119645262798385,-0.38715093599269,-0.239919819243415,0.198626429326531,0.112521322860271,-0.181784706457176,-0.0662110587389044,-0.274650366473392,0.464579178078309,0.122292602788076
182,2184,6.4829,0.135666006380336,-0.303101501013071,-0.38637106071763,-0.275382988795366,-0.153524899825338,-0.00642101246181138,-0.131882776346155,-0.0712702245555661,-0.121443911979333,-0.38666956033199,-0.240684461355896,0.199403275455096,0.111839040476573,-0.181713564988807,-0.0660081043823599,-0.274759089529333,0.464980369953047,0.122249809664445
183,2196,6.4686,0.137339060885701,-0.301644140376262,-0.385825052554171,-0.275951240581079,-0.152591424002381,-0.00710889896787058,-0.132275041599878,-0.0703215745680076,-0.121867727138437,-0.38627041026598,-0.242207507223825,0.199882265436116,0.111746672539931,-0.181793814954174,-0.0649954085691429,-0.275316776906932,0.465126471215697,0.121382075513646
184,2208,6.4738,0.136156439128195,-0.302466410208722,-0.385412774903512,-0.277862600520229,-0.152352432626061,-0.00732811208587841,-0.131675908061305,-0.0701244925191484,-0.121038640337058,-0.385814529078115,-0.24137936019708,0.199024222271881,0.112323660039404,-0.182355567415127,-0.0660994934351237,-0.274663193634518,0.465606286130313,0.121793690443842
185,2220,6.4738,0.135954793815422,-0.302244851420829,-0.385910944779977,-0.277532440743158,-0.151961179007269,-0.00788759790004338,-0.132606660371084,-0.0700530127097143,-0.123616084124342,-0.384375579933584,-0.242010223383056,0.198724052703357,0.11296611771063,-0.182223183965806,-0.066231926408416,-0.274494260738432,0.465998648910629,0.120822305643499
186,2232,6.4652,0.136706725257571,-0.302341696283241,-0.386847110306551,-0.277059204146293,-0.151932647069785,-0.0081978324274219,-0.133083616445429,-0.0704058569062816,-0.122603291213275,-0.384300764450505,-0.241073247850407,0.198744497448924,0.113317232059449,-0.182560647575452,-0.0644514151823561,-0.274188675227247,0.466320036946506,0.119756858174474
187,2244,6.4734,0.135907580110889,-0.302148024610813,-0.3874008322089,-0.277466101953098,-0.151496873820705,-0.00707290728297061,-0.131668254243006,-0.0708422677878594,-0.123774041346464,-0.385046166780581,-0.241705118515884,0.198110096731111,0.112318916443129,-0.181348337029683,-0.0658208615303067,-0.273768895543489,0.465903240090451,0.121078634163947
188,2256,6.4652,0.136197030842257,-0.302642201693242,-0.386389247660273,-0.276394475308276,-0.150875170880863,-0.00798877220727223,-0.131917633057856,-0.0705667436752783,-0.123639305530552,-0.385239988567692,-0.241283916726279,0.198731704220397,0.113061263654228,-0.181785607230151,-0.0660386972665422,-0.273881443456685,0.466491130158717,0.121287960433267
189,2268,6.4686,0.136122458666366,-0.301519696597162,-0.386334630929126,-0.277593941110567,-0.151893531687667,-0.00813608017731368,-0.132758759460773,-0.0707485976566391,-0.122678160230268,-0.384386551613113,-0.241561470977297,0.197822559235706,0.113111968724418,-0.182131425503281,-0.0650543658935015,-0.274448362854626,0.46651327561167,0.122496374273715
190,2280,6.4652,0.135157458707521,-0.302165354357401,-0.385910247365089,-0.277534610969769,-0.150944268967379,-0.00897418199567783,-0.132826816695545,-0.0703358750678624,-0.123937427191608,-0.382743235662206,-0.243808985547674,0.198421720452791,0.114376823743789,-0.181811678723654,-0.0657575256336666,-0.273704581804785,0.46701715423574,0.121789045640195
191,2292,6.4652,0.134524048774543,-0.303250984717363,-0.385759567831267,-0.277494114470364,-0.15142372634762,-0.00910071446980418,-0.134151988501734,-0.0700740029128382,-0.12210402585831,-0.382790412790848,-0.243290637441119,0.198602906247619,0.114433118881952,-0.180087226089456,-0.0661143912551119,-0.273930188886656,0.467386149991915,0.121394693622249
192,2304,6.4596,0.134868134753471,-0.303400223912176,-0.385412708055502,-0.277887995871904,-0.151176098539662,-0.00880140206879781,-0.133703475574754,-0.0708959882984425,-0.123361497600778,-0.383132808015547,-0.243574548451117,0.197703984189807,0.113038890764766,-0.179936434893938,-0.066119467804441,-0.273468248938535,0.467504709598875,0.121835905961012
193,2316,6.4596,0.132506362086558,-0.304525281970746,-0.384264656423106,-0.27805171543581,-0.152182356639072,-0.00858048408078311,-0.13436422000042,-0.0692220134009555,-0.123465489383008,-0.381910702560956,-0.24542793524754,0.197851875861235,0.114054044087758,-0.179530852119198,-0.0672984352513196,-0.272969084021259,0.467925787757411,0.122110400620392
194,2328,6.4596,0.131536348245191,-0.304012084857831,-0.384027863025599,-0.276501029586093,-0.153063034618918,-0.00893101274605877,-0.136045938996013,-0.0687700008155883,-0.12264308134285,-0.382068524244332,-0.245057119372393,0.197434894643685,0.114065080808643,-0.179589382890774,-0.0672880628835569,-0.27322122778802,0.469062520263716,0.122758823062272
195,2340,6.4596,0.131520524739994,-0.303656253846258,-0.38424320057882,-0.276843216446372,-0.152591270636006,-0.00967372734078942,-0.135475192690897,-0.0684879403469271,-0.123064090521714,-0.382452028014879,-0.245055193495815,0.196333269797528,0.113814397577068,-0.178729074855644,-0.0674376943601138,-0.273901535349117,0.469821678797885,0.120661015262542
196,2352,6.4596,0.132189622336552,-0.30341644145238,-0.384182391667616,-0.276416156604952,-0.152121659178999,-0.00897918341448645,-0.135037252146917,-0.0685917869896723,-0.123880877854408,-0.383308202629083,-0.244687836040994,0.196127508871169,0.112711594781598,-0.179295684182824,-0.0660782431356584,-0.274786371307641,0.469398127549068,0.120911526205314
197,2364,6.4596,0.132117557982459,-0.303229462137103,-0.384494562035874,-0.276214138938445,-0.15171852535674,-0.00893007416090857,-0.134339099716837,-0.0691355450379656,-0.124336569877817,-0.383612377072151,-0.245120284638754,0.195686980968089,0.11250577292996,-0.179157539588979,-0.0669484531444953,-0.274996561262658,0.469166326212542,0.120627616546362
198,2376,6.4596,0.132845843336366,-0.302651485050042,-0.384448643828823,-0.277514058425121,-0.15111884099314,-0.00928347657219369,-0.133765909611557,-0.069681573256488,-0.125022520228445,-0.382828156418718,-0.245857581324741,0.195795637081941,0.11173722425414,-0.178634388285777,-0.0678293556129287,-0.274476308406835,0.469304939743634,0.121259739861937
199,2388,6.4652,0.132340801518459,-0.302777364601537,-0.383857825396279,-0.27785190599197,-0.151827255810316,-0.00895600555962523,-0.133877996969027,-0.0695493386441713,-0.125085986553026,-0.383289706632286,-0.245408578672225,0.195669232767029,0.111877369945003,-0.17829903705086,-0.0674482627585549,-0.274563815626547,0.469087403172323,0.122450498035749
200,2400,6.4652,0.132096327773968,-0.30335391339418,-0.384023969175304,-0.277527680951565,-0.151556408297216,-0.00905783303042999,-0.133534543661915,-0.0687879488268343,-0.124625770949479,-0.382868720201272,-0.245736344936117,0.196114499707076,0.112336997976433,-0.17807489210259,-0.0683211006943083,-0.274440806989918,0.469214495902811,0.122299317082951
201,2412,6.4596,0.131674379207229,-0.303396259202189,-0.383974282161804,-0.277092609323068,-0.15145450111741,-0.00926167232327416,-0.13324638813206,-0.0685400772496709,-0.124426540246136,-0.382899866454408,-0.246697548017655,0.196369756183579,0.111456728546515,-0.177638274214382,-0.0693226898619174,-0.273454757909228,0.470135760923883,0.121647042680396
202,2424,6.4652,0.131888524425939,-0.303159201139796,-0.384905954698745,-0.277530520673583,-0.151680468479517,-0.00888036166943206,-0.133450483184974,-0.0681648149173873,-0.123893424225971,-0.382382687378383,-0.246354125536617,0.196908373885271,0.111693992930015,-0.177988129818585,-0.0698688541775859,-0.272494790806127,0.469908109495515,0.121801411046947
203,2436,6.4596,0.131755302315977,-0.30329878184499,-0.384390183565454,-0.277250656306953,-0.151191104063369,-0.00903750741968424,-0.132969911204605,-0.0681353747514906,-0.124146801287925,-0.382552957569113,-0.246715913709708,0.196983172922387,0.111138250003099,-0.177689643869299,-0.0692408298119981,-0.273039808616012,0.470269663031782,0.122060848555936
204,2448,6.4596,0.130875900095158,-0.303911476586713,-0.383998263617303,-0.277413803121493,-0.151009830610662,-0.00930769875735558,-0.133410688390387,-0.0676331753952123,-0.124986198850067,-0.382410146971503,-0.247327081405235,0.196447459893913,0.110580699480101,-0.17732287275136,-0.0704637645359174,-0.27298219986738,0.470355671840956,0.121701184086942
205,2460,6.4596,0.131521156509295,-0.303104492384563,-0.384491170597453,-0.278937636921544,-0.151080120227179,-0.00942380101100699,-0.13350272549789,-0.0674232772734153,-0.12509664704699,-0.38208159123914,-0.24751390862911,0.196264409926496,0.110082810405681,-0.177725150353741,-0.0708350288891611,-0.272228358328232,0.470176648956525,0.120760401899489
206,2472,6.4596,0.132118316931712,-0.302977032584698,-0.38504276443983,-0.278831057220939,-0.15140136373219,-0.00923848830778935,-0.133848337748843,-0.0679267786637603,-0.124614656210988,-0.381792426277382,-0.247906493096041,0.195808056066288,0.110410343351731,-0.17733832556174,-0.0705929973857716,-0.272741843173325,0.469838849435862,0.119772856171114
207,2484,6.4652,0.13271357056238,-0.302340881645447,-0.385302433300786,-0.280434646115079,-0.151774358720999,-0.00950902845109251,-0.134072312278611,-0.0678726816424859,-0.123792680233699,-0.381227896901555,-0.247892340499867,0.195783467080173,0.110716470504823,-0.177215101639963,-0.0708197972531537,-0.273280616583858,0.469157199161142,0.119350080568167
208,2496,6.4652,0.133040804077568,-0.302465671515683,-0.384755169061766,-0.279574049467167,-0.151901262772697,-0.00997692435072277,-0.134313972243427,-0.0674422720241308,-0.123478215104768,-0.381505957577661,-0.247537638445723,0.195859790449256,0.111127747003173,-0.177519352403026,-0.0710254397636724,-0.273805037660302,0.469500945375972,0.118742176045399
209,2508,6.4596,0.133034405847513,-0.301426362510974,-0.384863208567611,-0.280485963448445,-0.152453115976056,-0.00927736648242632,-0.135008275788194,-0.0670983588144338,-0.123610251270202,-0.381706753148142,-0.247802070148863,0.195141804560446,0.110519550373595,-0.177930719264665,-0.0714060277476446,-0.274135506732401,0.469020318294122,0.118396093666702
210,2520,6.4596,0.132999013578054,-0.301498536681828,-0.384787935887604,-0.279077435823974,-0.15199264003109,-0.00937180722497789,-0.134800033277271,-0.0670476158107561,-0.122985171012869,-0.382106705073745,-0.248116894078297,0.194886020151383,0.109959241448212,-0.178875484410236,-0.0720730217797064,-0.274302318917492,0.469511703048802,0.118127320581407
211,2532,6.4596,0.133814747726261,-0.301053337808278,-0.385235004880615,-0.27836074694957,-0.151319123562642,-0.00959416856845976,-0.134212824376369,-0.0680326022834001,-0.12274294697754,-0.382368067556036,-0.247449255286113,0.195043193383763,0.109071179504433,-0.179622010760435,-0.0709638095133969,-0.275194090180905,0.469341192558933,0.118975523570067
212,2544,6.4596,0.134337471902736,-0.301410607321908,-0.385133604271246,-0.27882816384557,-0.151565561404657,-0.00938004261087836,-0.134124834788248,-0.0678361822644505,-0.12230664869457,-0.382235492154962,-0.247158110224598,0.195197663519569,0.109071497733628,-0.178922468397429,-0.0711990281788512,-0.275179726599916,0.469053750375793,0.1199939257306
213,2556,6.4596,0.133731903382199,-0.302169239032056,-0.385095737117409,-0.278609112494178,-0.15171853935973,-0.00915778422270766,-0.134326841771873,-0.0682146704808224,-0.12143044869245,-0.382272783388895,-0.246520555747834,0.196007862619946,0.109815951758137,-0.178815866148591,-0.0708058163813752,-0.275321884321741,0.468941653101066,0.11937173922366
214,2568,6.4652,0.13452445965876,-0.301991510993939,-0.386185656400666,-0.279230024426848,-0.1515904615102,-0.00938962896041543,-0.133713143425144,-0.0684272102977271,-0.120244974441024,-0.381682786047798,-0.246553939857177,0.195129611119494,0.109606946777744,-0.178282735644085,-0.0712878023485806,-0.275377993461816,0.468987549185342,0.119532300739158
215,2580,6.4596,0.135184620824091,-0.30156483280136,-0.386915431627637,-0.27927235081381,-0.151829075079571,-0.00959599695503414,-0.134416670886977,-0.0683765868416589,-0.120019522262117,-0.381238423162671,-0.246228197338919,0.194916435950046,0.109880065439948,-0.177883855273381,-0.0705084633866482,-0.27548085750306,0.468959633183507,0.119648837424186
216,2592,6.4652,0.137057513544724,-0.300819965430812,-0.387302727152747,-0.279203430846487,-0.150925196889909,-0.0102612277653428,-0.133842487767587,-0.0685417700497619,-0.120066043284197,-0.38177143426109,-0.245759094119436,0.195377281202795,0.109069534987372,-0.179090875250949,-0.0704965922355903,-0.275398511292344,0.468306315735007,0.120084071611259
217,2604,6.4652,0.138324033396284,-0.300889596011264,-0.387726900277238,-0.279866266947362,-0.150238994427405,-0.0102331485041209,-0.133028241060868,-0.0691432494833339,-0.120276123746454,-0.382013485974364,-0.245706564999132,0.195367076509222,0.108227866332748,-0.179630752525913,-0.0707748265284049,-0.27409633696807,0.467793038579755,0.120895012442784
218,2616,6.4596,0.13883552289938,-0.301172895876872,-0.38779736539551,-0.27933593967662,-0.149549727968496,-0.0100857589105819,-0.132808301078207,-0.069251598220812,-0.119304295417071,-0.382230741646656,-0.245753184354717,0.195581074727593,0.108797327219761,-0.179582152730691,-0.0709486543752792,-0.273867977488785,0.468054503445282,0.120434895923638
219,2628,6.4652,0.140943791069315,-0.300440782166718,-0.388976753683131,-0.279044019835342,-0.149125313383618,-0.00992183637537781,-0.131977436247472,-0.0699472783363562,-0.118171633451782,-0.382833450105871,-0.244409738416835,0.196000290377742,0.108085685877429,-0.181113314239601,-0.0700460417874265,-0.273763923780256,0.467521316214145,0.120184159431343
220,2640,6.4596,0.14125780053748,-0.300387881068728,-0.389358760646782,-0.279799663380115,-0.148970646839326,-0.00988244874216644,-0.132332490788728,-0.0708522795156015,-0.118060178796144,-0.382255259560082,-0.244412756113415,0.19611845550252,0.107581060396027,-0.180446931128351,-0.0697311367840316,-0.27417370879326,0.467244125897016,0.119781303154527
221,2652,6.4596,0.141436938317724,-0.300874126126591,-0.3893795335443,-0.279342909948058,-0.148693797668879,-0.010343815113561,-0.132509540025805,-0.0705087033275853,-0.118450640571984,-0.381960987527101,-0.244450895528563,0.196255675764947,0.107073168216368,-0.181189181031859,-0.0701027224531678,-0.274695386727335,0.467184325993617,0.118033452586042
222,2664,6.4652,0.140322062447155,-0.301409492466344,-0.389214517843582,-0.279687267573509,-0.149519447910403,-0.0101485576679679,-0.132747108284189,-0.0704529553380833,-0.118723717344644,-0.38182623872801,-0.244441168902711,0.196308265096903,0.108641171682565,-0.181446874335511,-0.0698047561711865,-0.273898329724313,0.467054035721946,0.117276033406616
223,2676,6.4652,0.139981650528643,-0.301665383596365,-0.388847838360556,-0.280826068725994,-0.150147036441137,-0.00977059387581502,-0.133108264028906,-0.0703687614719049,-0.118995049616155,-0.38177548807985,-0.243951348844163,0.195103899236642,0.108019495596585,-0.181621496079147,-0.0706237339200935,-0.274711091778189,0.466638802798396,0.116879014353955
224,2688,6.4652,0.138300503725792,-0.301452813313796,-0.388529533317851,-0.281050751038229,-0.149525712866199,-0.00975045417554699,-0.132809572562907,-0.0693697858854794,-0.118927147169594,-0.381174848989858,-0.244428107373208,0.194977169193138,0.107946950516384,-0.182468641490284,-0.0711140029060399,-0.275517298360655,0.467409893181423,0.116381358348445
225,2700,6.4596,0.138776412368971,-0.301074147949222,-0.388783132690919,-0.282905309271962,-0.150217538699074,-0.00984741538062334,-0.133264553499255,-0.0692507574167836,-0.11937237730039,-0.38119207751516,-0.243433831566336,0.194025297986974,0.106804431134985,-0.182411254909829,-0.0710071586109033,-0.275492116799253,0.467154929231707,0.115537741527066
226,2712,6.4596,0.138589655095046,-0.301501582226756,-0.389033469540878,-0.283246196418636,-0.149839812328431,-0.00925170752735375,-0.133050490881342,-0.0678904295624924,-0.119157159052923,-0.380922593994433,-0.243750011432586,0.194615108367967,0.107168725825551,-0.182388929117895,-0.0708067131946453,-0.274990794128222,0.46709494202747,0.115307723577273
227,2724,6.4596,0.138777786247319,-0.300934274365033,-0.389112439165314,-0.283635527072571,-0.149463229566501,-0.00919411415157192,-0.132414708595304,-0.067988313686235,-0.118568327929394,-0.380810660696924,-0.24458845370472,0.194693757398052,0.106552545748058,-0.182188480150841,-0.0717912925883416,-0.275366227330118,0.467178671210983,0.114635570249232
228,2736,6.4596,0.139916965608006,-0.301012507919165,-0.3898933937428,-0.283012825504604,-0.149324026058327,-0.00904997597512424,-0.132531854602381,-0.069004536284237,-0.117617479940174,-0.381558323118955,-0.24335095853283,0.19419375096829,0.106307590223776,-0.181646782213814,-0.0711034724780793,-0.275908346597591,0.466752205066712,0.115257338581707
229,2748,6.4596,0.139968948371166,-0.300921291048528,-0.390391913879743,-0.283107896176483,-0.149331362123005,-0.00936686004358732,-0.132869769636157,-0.0690792595639976,-0.117771846074193,-0.380371059218502,-0.243311615974479,0.194802625231547,0.106728725741207,-0.181132207868111,-0.0723096777228574,-0.276324140815682,0.466760627068224,0.114521255450867
230,2760,6.4652,0.141760215489021,-0.299588064213343,-0.391033626102418,-0.284306750040934,-0.148056559040216,-0.00979505445144889,-0.131382180554585,-0.0704679389703493,-0.1174539746154,-0.380346375082545,-0.243047606826371,0.194956565543137,0.105725140860119,-0.18182005645562,-0.0721956447738978,-0.276855998175754,0.46629778620631,0.114323176455059
231,2772,6.4596,0.141734676724391,-0.30007488863288,-0.390818085678895,-0.283459166986106,-0.148070711100075,-0.009943643836216,-0.131625515910972,-0.0713508482875013,-0.117363530997507,-0.381098736049751,-0.241914502779341,0.194918304667959,0.10602636934115,-0.181214384337594,-0.0721215756332978,-0.276502641228243,0.46655505834052,0.11570351884042
232,2784,6.4652,0.141774686411657,-0.299892192864004,-0.390547858029623,-0.282250390426064,-0.148210483310198,-0.0106991390890492,-0.131688979956764,-0.0723528140251445,-0.117731161307927,-0.381240058003401,-0.242042353948364,0.195061859609553,0.105496251824255,-0.181575253038834,-0.0717197571255142,-0.275617044313515,0.467205538485758,0.11731317720217
233,2796,6.4596,0.142995184841471,-0.300670797399425,-0.391184628465739,-0.281308312399408,-0.147727353751796,-0.0099742358696615,-0.131417159537572,-0.0739414656957189,-0.118379140414327,-0.3812991859551,-0.24257168510689,0.195379856141552,0.104501780714592,-0.181358533830223,-0.0712342004901455,-0.275551896004971,0.466143184372748,0.117424248499601
234,2808,6.4652,0.141635181988392,-0.301191549436952,-0.390601594128993,-0.28184624354541,-0.148690780870023,-0.00993070219220133,-0.131661300773983,-0.0739271633088109,-0.118085089361575,-0.380664046838753,-0.243034637209042,0.194761887442575,0.104847485634482,-0.181948868898228,-0.0714375371088551,-0.275820421538411,0.466083059807155,0.11761465009665
235,2820,6.4652,0.141981207455665,-0.301016913176727,-0.390943366356874,-0.281052721272473,-0.148477841396477,-0.0100020062750281,-0.131454248243789,-0.0745165509727892,-0.118168041149699,-0.379915568979936,-0.244044444676557,0.195210612050225,0.104624722738315,-0.181196558199466,-0.0713254210766251,-0.276135243587359,0.466127249174039,0.118532103747475
236,2832,6.4596,0.140910984276987,-0.301627220361234,-0.390481258817447,-0.281024674077498,-0.148710554756909,-0.00947436251308348,-0.131729302421441,-0.0746711528650107,-0.11868337403182,-0.379812206881549,-0.244660385986002,0.195317632449804,0.103648719382791,-0.180270364725524,-0.0720657458103101,-0.276301277199065,0.466166072767101,0.11880923837714
237,2844,6.4596,0.142199869830347,-0.301754355772685,-0.390406481797466,-0.280032044347302,-0.14866561694556,-0.0100148821523515,-0.132144300538871,-0.0757232928313729,-0.1176195819313,-0.380341416092009,-0.243684821051898,0.195599917807843,0.103708237894119,-0.181274062288658,-0.0720347094328593,-0.27664802122889,0.465783606197046,0.118458044417439
238,2856,6.4652,0.143270397053943,-0.300382312483066,-0.391173357053394,-0.280311827647147,-0.147831918458899,-0.00989528086655277,-0.131206130891297,-0.0760936714997725,-0.117172990174386,-0.380772137223636,-0.243772387988157,0.196438345161282,0.103696470237273,-0.182393411094058,-0.0722489121077265,-0.2758748569531,0.465167752230518,0.119256245169039
239,2868,6.4596,0.142958600630784,-0.301078408437041,-0.390332993062245,-0.280744571479027,-0.147673439108215,-0.0102307994136679,-0.131688705452457,-0.0763879503051645,-0.117845114567637,-0.380578157486248,-0.243208204674286,0.196480439347572,0.103341525885584,-0.18179593499873,-0.0720922919497957,-0.275801706709975,0.465602179143548,0.11985484537306
240,2880,6.4596,0.143589465547585,-0.300735386102925,-0.390240314699993,-0.279892468779643,-0.14733289874562,-0.0101083893505161,-0.131263239649352,-0.0753976424732715,-0.11709227426699,-0.381837466481749,-0.242251935507738,0.197147159938283,0.103960031687085,-0.181708918372802,-0.0716658004436065,-0.27595706494301,0.46568289148899,0.120517302777019
241,2892,6.4596,0.1427592034827,-0.300669512653581,-0.389816423109836,-0.279793561089619,-0.147271157626347,-0.0100731801529377,-0.131086209141296,-0.07514135148012,-0.117775808097786,-0.382237063508489,-0.242629623162467,0.197052324664881,0.103936648173549,-0.18107777137732,-0.0724309258288459,-0.27579405133556,0.465996448470474,0.120840200874574
242,2904,6.4596,0.14407088738965,-0.299838116868311,-0.390731276329983,-0.279712001032706,-0.147555299326429,-0.00999927698581047,-0.131406451426043,-0.07609159536874,-0.116590838266507,-0.381540884628429,-0.242267887860081,0.196924682815252,0.104505752329529,-0.181881860165197,-0.0718794455792689,-0.275646651355328,0.465658334293919,0.12190773074281
243,2916,6.4652,0.144536869041664,-0.299101458609133,-0.391332252617557,-0.278654621001299,-0.148697787815782,-0.0101411411677655,-0.132179122100231,-0.0761444843276648,-0.116085404332189,-0.38124390802461,-0.242476730909474,0.197461370770982,0.10514911285133,-0.181913606849148,-0.0712793447366838,-0.275894943630001,0.46542037740236,0.121584314555185
244,2928,6.4652,0.14466784087059,-0.298875440596425,-0.391374169043725,-0.278845266255876,-0.148853163277101,-0.00979157426370597,-0.132107774619754,-0.0765255818614504,-0.116568237162867,-0.381648787289066,-0.242412065438528,0.197685655316946,0.104653711735801,-0.18178159436108,-0.0714299721816383,-0.275409834477627,0.465097416280414,0.122027565250228
245,2940,6.4596,0.144508296460905,-0.299121005587111,-0.391809879671404,-0.279091746356262,-0.149012038938506,-0.00981602864407843,-0.132462947899506,-0.077376021980837,-0.116801166951246,-0.381090747458798,-0.242004452826627,0.198449134963354,0.104758931538867,-0.18143141893432,-0.0707900606116347,-0.27517221309133,0.464837939531464,0.121936702901896
246,2952,6.4596,0.143516270818812,-0.299112250407555,-0.391773824666274,-0.278532823747195,-0.149174872439256,-0.00964952556751796,-0.132699178227958,-0.0768083485761509,-0.117660560934432,-0.38077107267117,-0.243117899598741,0.198116927759694,0.105066450260215,-0.180654473899568,-0.0715753002224905,-0.274735009278613,0.465705137177618,0.121027570414878
247,2964,6.4596,0.143451308679461,-0.298865344516188,-0.391729339770207,-0.27846787802434,-0.148544088991979,-0.00960461608013423,-0.132132102395305,-0.0776878348559552,-0.118191125213794,-0.380991568221272,-0.243208994143911,0.19857805875673,0.1049775149208,-0.181147332508898,-0.0717815640871528,-0.273898703614533,0.465827570572662,0.121368311762781
248,2976,6.4596,0.142226551697376,-0.299252793660074,-0.392190420964974,-0.279103785660552,-0.14934054604724,-0.00900868203529503,-0.13273794006676,-0.0777342627876975,-0.118450505011661,-0.37963140178617,-0.244154255445168,0.198205504998248,0.10500771975196,-0.180972788720551,-0.0720169499316075,-0.273759628168956,0.465710719915557,0.120832825376129
249,2988,6.4596,0.142692250389214,-0.298594987506797,-0.392797905511248,-0.278595884888446,-0.149636019113211,-0.00845255289192651,-0.132943244836686,-0.0782171017673913,-0.119045944905932,-0.379846485400517,-0.244264334808045,0.198194511629284,0.104182032467458,-0.181398437232454,-0.0714437185614235,-0.273483965061335,0.465451532785289,0.120858502821543
250,3000,6.4596,0.142412031732755,-0.298960974301152,-0.392580852971153,-0.278680654957681,-0.149664083433582,-0.00875691294725465,-0.132856803777211,-0.0782172017277468,-0.11985319661732,-0.379452083625408,-0.245120117601699,0.197784554946215,0.10374582369115,-0.18097921956186,-0.0719755773334639,-0.273138256099613,0.465804826542329,0.120282363489705
251,3012,6.4596,0.142772752317975,-0.298665131487635,-0.392612108776425,-0.279184670983273,-0.149844903603045,-0.0089905949733,-0.13270884661473,-0.079209531535582,-0.120626642834492,-0.379345809933254,-0.244421207388982,0.197433535739347,0.103462415811901,-0.181081608581686,-0.072505396051358,-0.273682748897069,0.465484332218018,0.119948509694237
252,3024,6.4596,0.142333450745299,-0.299061177519004,-0.391991144512709,-0.278731870764646,-0.149525154613565,-0.00943747508349713,-0.132710018763274,-0.0783450671518523,-0.120086284658101,-0.379560248060504,-0.244289839502509,0.197611439097087,0.104581676429655,-0.18144796667714,-0.0722022784355645,-0.273907776383835,0.465962010208085,0.119611429863436
253,3036,6.4596,0.142075179915507,-0.298940166923581,-0.391635062360924,-0.279483588657883,-0.14939848602561,-0.00935363691491996,-0.132668451247632,-0.0776741694569825,-0.120140796876241,-0.379760945112402,-0.24427258524612,0.197292090720333,0.104817278953898,-0.182373372176746,-0.0719571330197041,-0.274192092399083,0.465972671448604,0.118006096254879
254,3048,6.4596,0.141600185850148,-0.298494691319688,-0.392398560866949,-0.280485472091825,-0.149110274463338,-0.00882693790534256,-0.132099462510286,-0.0778312413470689,-0.120561847786019,-0.379472020901537,-0.24484142918803,0.197038700521793,0.104228922167099,-0.182048640586727,-0.0720078441681809,-0.274108627622618,0.465955226262326,0.116721486011612
255,3060,6.4596,0.142229641721833,-0.298295300077538,-0.392618610027302,-0.280825068949835,-0.148698132532484,-0.00874143021457044,-0.131713329003476,-0.0769206858864689,-0.121183284103007,-0.379567863231162,-0.244786580587771,0.197148671832258,0.103195762771407,-0.181793756946666,-0.0726069752934012,-0.274630769057446,0.465638122127792,0.116427511255711
256,3072,6.4596,0.141387436968358,-0.298664785010765,-0.392095220817607,-0.280914200451014,-0.149199177350987,-0.00909321917652796,-0.132205339418985,-0.0761490725467757,-0.12246395565239,-0.378904585021264,-0.24607920110754,0.195832778157731,0.102381911761534,-0.180639904624465,-0.0731476609019151,-0.274984606820609,0.466229454980206,0.116628128406837
257,3084,6.4596,0.142874683644155,-0.29833680908553,-0.392313069409913,-0.281624674984852,-0.148973004931293,-0.00921957397232193,-0.131836358587752,-0.0759887140710968,-0.12235851895789,-0.379152205236401,-0.244888670450299,0.196017787044136,0.10244710570987,-0.18011262306512,-0.072094232095615,-0.276665934010014,0.465458689284438,0.116036941895318
258,3096,6.4596,0.143500424734335,-0.298449357160928,-0.391883328220054,-0.2817054468806,-0.148722857297394,-0.00868508421148361,-0.13172839265129,-0.0764461661474111,-0.121528592145069,-0.379764117236197,-0.245234604827136,0.195695868507453,0.10078442480527,-0.180951424184785,-0.0717318111767035,-0.276954462412006,0.464960362868051,0.11673501549208
259,3108,6.4596,0.144042786244747,-0.298417849943798,-0.392005184128924,-0.283156179401886,-0.148305933006094,-0.00873072919658054,-0.131494773988501,-0.0763962039423623,-0.12117630380931,-0.380251772811289,-0.244089421663926,0.195111241966417,0.101056038590041,-0.181817993281183,-0.0713454193227506,-0.276540998681328,0.46454939693256,0.116514752842738
260,3120,6.4596,0.144109191922945,-0.298738506499436,-0.391942951057992,-0.282323805166812,-0.147843563215976,-0.00889726403745394,-0.130823235142626,-0.0762423104780544,-0.121589741196217,-0.38071338129823,-0.24347775617748,0.195020985643366,0.100137188112718,-0.182376398864652,-0.0704603450210672,-0.277249039900398,0.464758107381924,0.116708341050873
261,3132,6.4596,0.144014314676315,-0.298242938977102,-0.39277124282272,-0.283082583807765,-0.147329152079283,-0.00844015923153667,-0.130130128678839,-0.0748703714870989,-0.121566705390449,-0.380190625165603,-0.244421416257297,0.194257784122159,0.0998514349655437,-0.182417182427324,-0.0710962308159695,-0.277073160797331,0.465016061515873,0.115999188418647
262,3144,6.4596,0.14348466134664,-0.29900660856678,-0.392540260572995,-0.281474963046495,-0.147053783502729,-0.00849268525019222,-0.129800430402287,-0.0751385502733629,-0.121662925401691,-0.3805889212311,-0.244579500592654,0.19434916141001,0.100499527298567,-0.181770896248335,-0.0714276708087093,-0.277399767575854,0.465261762177066,0.11653643679143
263,3156,6.4596,0.143374096266013,-0.299886123282322,-0.391873121212576,-0.28051260437028,-0.147540687494785,-0.00895129645940233,-0.130349767916194,-0.0744023297264198,-0.120691012148365,-0.380823652713867,-0.244216200003084,0.195079562302587,0.102096236695987,-0.181452248648765,-0.0709120228837916,-0.277118486726677,0.465649010705173,0.116540155783312
264,3168,6.4596,0.143173921556454,-0.29919844403454,-0.392013200539417,-0.281397481286911,-0.14693861348992,-0.00933234925202849,-0.130040134174551,-0.0745472193846179,-0.120739134764025,-0.380426774975638,-0.245165074628171,0.196327108538393,0.102141290221364,-0.180384345864153,-0.0718703525974171,-0.276772535707983,0.465673065664128,0.11584055012835
265,3180,6.4596,0.142997303171286,-0.299035075302016,-0.391722515823826,-0.282002787173554,-0.146701142830834,-0.00973243529233704,-0.12989741420562,-0.073041049362631,-0.120467705634111,-0.380040680921966,-0.245898881740843,0.195850284109062,0.102143306782163,-0.180169558330113,-0.072203581756252,-0.277368877236221,0.46621715732666,0.114690462127369
266,3192,6.4596,0.141992674606719,-0.29962330826258,-0.391367594590787,-0.281527927506005,-0.146780322771936,-0.0097805868441369,-0.13023336055126,-0.0723471784194406,-0.12169698775909,-0.380015767358885,-0.245769682755641,0.195760665556931,0.101870349255499,-0.180565934044742,-0.0719982722308138,-0.277562017323949,0.466488477054982,0.114124251287211
267,3204,6.4596,0.142660025561206,-0.300137508622529,-0.391848827634652,-0.281678132166509,-0.146090995503303,-0.0094382487495444,-0.129272834347382,-0.0731927648939595,-0.121596347255039,-0.380155639927992,-0.245087323272948,0.196131628409051,0.101473316053089,-0.181079767510958,-0.071801529429466,-0.276902085504165,0.466057004241103,0.114861546111226
268,3216,6.4596,0.140515595505525,-0.30055026266486,-0.391177908587474,-0.28260446117881,-0.14660868242308,-0.00904742076788288,-0.129660605568909,-0.0720087916696011,-0.122791329157701,-0.379215450735867,-0.246939257772667,0.195655409807731,0.10148117378004,-0.180206239872845,-0.0729660361947255,-0.276362155510309,0.466698066155142,0.114134296099002
269,3228,6.4596,0.140638662435597,-0.300655286082889,-0.391558921839612,-0.282937027909779,-0.146504332629799,-0.00901234932564483,-0.129410891674991,-0.0719723589945658,-0.122402540492607,-0.379076024922599,-0.24731293666726,0.195437633528746,0.101268534099071,-0.179755148743739,-0.0732485281379546,-0.276219788629551,0.466431041923336,0.11465143533675
270,3240,6.4596,0.140575949880997,-0.300682794634948,-0.391418934622159,-0.283276509005726,-0.146165306107386,-0.00913196812475486,-0.128906979776636,-0.0704637751710766,-0.122859310486564,-0.378650843073802,-0.248368430408306,0.195353415653078,0.101123184750548,-0.179349613590256,-0.0746883042271959,-0.275632251471761,0.466707198458676,0.115084887039157
271,3252,6.4596,0.140339744245043,-0.300854561877475,-0.391420126167762,-0.283578328428727,-0.145993079586084,-0.0092199526050888,-0.128754632294637,-0.0706698046433935,-0.123476566272391,-0.37857921729697,-0.249224509498302,0.195005118239486,0.100908116486016,-0.178345527364877,-0.0751773354310173,-0.274618674000887,0.466888995854798,0.115888036124139
272,3264,6.4596,0.140691832616977,-0.301044793502689,-0.391558829178177,-0.281585855731913,-0.146316765587169,-0.00937537938980324,-0.129458126440913,-0.0718066260141902,-0.12299663239418,-0.379032730770036,-0.248429316641317,0.195704656207498,0.100798055569582,-0.178509747730474,-0.0744969413401587,-0.27518266464504,0.466772351489779,0.116415000361893
273,3276,6.4596,0.141108194293509,-0.30083316956234,-0.391572861761342,-0.281945767801525,-0.145929254401597,-0.00915166886583308,-0.128774844823327,-0.0713299184779429,-0.121882937224003,-0.379246078340571,-0.248176344051409,0.195755485776071,0.100153376699633,-0.179752373822887,-0.075016978148254,-0.275440869803431,0.466561149081325,0.116573031081588
274,3288,6.4596,0.140108932675794,-0.300603830988595,-0.391054853179577,-0.28189581687201,-0.14562926791268,-0.00929802794712355,-0.128368030771928,-0.0710439995475923,-0.122108009120471,-0.379333607534238,-0.248378562287114,0.196268665889319,0.100775667678701,-0.180049879681149,-0.0750875397015922,-0.275270873667522,0.467207227416497,0.116189299532688
275,3300,6.4596,0.14014541269074,-0.300536923944823,-0.390769848065226,-0.281857828834197,-0.14551346089659,-0.00932310891657989,-0.128385771435234,-0.0705328021512184,-0.122473461255412,-0.379067860899305,-0.248930722184597,0.196115124961647,0.100320755934467,-0.179794294268237,-0.0758899999981829,-0.275814201933553,0.467184543383205,0.116451700277197
276,3312,6.4596,0.139854395507161,-0.300308553708013,-0.390933692390353,-0.281479987567189,-0.145692383247483,-0.00910850750631,-0.128200407259746,-0.0706200108766178,-0.122231362679179,-0.379472467918443,-0.248159706422846,0.195984104949804,0.101481276002386,-0.179895504509499,-0.0763048005087322,-0.276115087766438,0.467134023659393,0.116543873700924
277,3324,6.4596,0.140445843838449,-0.300195444180836,-0.391519891874016,-0.281871460584859,-0.14467837471141,-0.00896044821498067,-0.127553326090897,-0.0711208060654451,-0.121794589525188,-0.379635509441926,-0.247260621667663,0.196244283148634,0.101407314711544,-0.180097657197584,-0.0761691450990904,-0.276230331737507,0.466909169510333,0.116732460837633
278,3336,6.4596,0.140022280396902,-0.299414524416616,-0.391613688596928,-0.282676809937581,-0.144873216158585,-0.00867223767268861,-0.127387157482414,-0.0714605705690588,-0.122005664141727,-0.379953502384784,-0.246799022240713,0.195812763628227,0.10134775237773,-0.180288211810382,-0.0764495992090201,-0.275860212458854,0.467129070884626,0.116796861972139
279,3348,6.4596,0.139477815364958,-0.299575189436824,-0.391024885388559,-0.282222198953333,-0.145517289427526,-0.00833741361206343,-0.128224186062035,-0.0715315248607576,-0.121793729649236,-0.380107512343708,-0.246714743785556,0.195723603347836,0.101705734370151,-0.180523271902683,-0.0759812224884801,-0.27653465177663,0.467004864083753,0.116940357951237
280,3360,6.4596,0.139431188011052,-0.299733264515367,-0.390982398781827,-0.281967243997899,-0.145072704630824,-0.00852340123748562,-0.12783811442025,-0.0716709322228802,-0.123055081453966,-0.380351058303548,-0.246476959760598,0.196556872076822,0.101492195613923,-0.180630174322653,-0.0760968863508788,-0.275912028350002,0.467072862275857,0.11636341240882
281,3372,6.4596,0.140715060461416,-0.299589149626644,-0.391657748146209,-0.281607131681174,-0.144408533914595,-0.00869995675849037,-0.127156762089355,-0.072181779170156,-0.122476124682058,-0.381029981619208,-0.245726924463849,0.196264340090144,0.10101976631502,-0.180530791425134,-0.0751049517743207,-0.275712394109442,0.467158860712444,0.116830264839138
