Generation,CountEval,Fitness,phi.proc.1,phi.startTime.1,phi.endTime.1,phi.jobOps.1,phi.arrivalTime.1,phi.totProc.1,phi.wait.1,phi.mac.1,phi.macOps.1,phi.macFree.1,phi.makespan.1,phi.step.1,phi.slotReduced.1,phi.slots.1,phi.slotsTotal.1,phi.wrmMac.1,phi.wrmJob.1,phi.wrmTotal.1
1,12,1.1218,0.31977148592162635,-0.0080285189019528875,0.025098879144227797,0.065899037425177678,0.21305522869203289,0.18403738319450749,0.15090829574773851,0.1318248687564314,0.068745302777430628,0.15315051320249481,0.24408245044804078,0.10711158909506618,0.071353206115626247,0.076283856107491055,0.23623887361080292,0.273639876152069,0.38432223796903936,-0.048269636494802967
2,24,1.0821,0.065788696681541789,0.083558960660021664,0.026107194590560639,-0.050988308263234319,0.15389129449108455,0.067245344296118156,0.1557098587490138,0.11734223978579132,-0.067549382447074091,0.13533041841261093,-0.037412515054262595,0.0043362536416556522,0.16094525108322841,-0.016388099659135708,0.2513747616227951,0.056068423266514282,0.012629421416735813,-0.0040128740740918867
3,36,1.0801,-0.21177903738740791,-0.22639915318769938,-0.21711446674609539,-0.12795462718642242,-0.11463511984697963,0.049242605050323393,0.085870379664648264,0.018988009213054078,0.14616957202288267,0.039209094161393516,-0.038500545704325109,-0.018686569989559566,0.22140262648037612,0.038807090311203933,0.0062885143976791286,-0.066939852673610412,-0.12721695052324139,0.14068849531565511
4,48,0.4334,-0.11668463492094312,-0.13744944891279109,-0.205778260023298,0.056871058266607162,-0.024543284526815971,0.024554425715153486,-0.11454325580956243,0.0093260549800549333,0.093495357711907118,-0.019422139147650692,-0.19408298273085339,0.19733030302591126,0.15458789695504241,-0.075376437333914387,-0.12474637608260414,-0.036259008125091155,0.023151015694914512,-0.32570408307649384
5,60,0.4363,-0.19257568141664211,-0.17950968493243558,-0.18020109869489187,0.028638003359381027,-0.1157821964294137,0.097425515069628224,-0.21857912858277692,0.052190387187862085,-0.16721988234088736,-0.14152586217738761,-0.20174194759327291,0.17198934001827984,0.27701810379671449,-0.0052379625248387025,0.022462498465021505,-0.10672181544910452,-0.055142365962026846,-0.17363765992221836
6,72,1.0435,-0.18552249102360197,-0.15150684199170031,-0.17735769592716294,-0.17546273013315297,-0.13077459142230194,0.10558903032462086,-0.15697252132809239,-0.067087812994596138,0.023741149667807108,-0.060420508502969691,-0.20981407682066661,0.20303201805229226,0.23084965984566524,0.054644896398095104,0.037876286716127611,-0.047686521394792993,-0.0656031599205521,-0.25408032232330924
7,84,0.7580,-0.3011827559635043,-0.35211605778392446,-0.23733918911820362,-0.26149722911198831,-0.15659957539560787,0.13270943136405364,-0.0084065722163839569,0.027541712534585414,-0.11539266397196216,-0.1045007136770095,-0.035626408330649756,-0.044748718151990982,-0.018125911782256931,0.030637039302271553,0.077507945924230173,-0.018608369850456791,-0.012708005844561374,-0.27959918586089882
8,96,0.5623,-0.28930402673552497,-0.34728592174918382,-0.200817770839417,-0.017422140667337924,-0.0417582100974563,0.16845804900835415,0.13408668331798002,0.10014793917703788,-0.065668741660718691,0.019443831709472108,-0.029602651309258647,-0.0088113867301784221,0.17614834876852203,-0.004852832525573357,0.02229383085926788,-0.04081404519183824,-0.0511448004910274,-0.4006460634754303
9,108,0.6103,-0.1962520192368763,-0.37314790510378132,0.012185172342193679,-0.10998728520549104,-0.056874489230505969,0.15238062547752149,0.22516577285820313,0.024651446305358114,-0.14393559447525509,-0.19207274714580719,-0.12665068724102152,-0.21909341503093913,0.17717766114049488,0.068238473014604034,-0.029127441818141364,-0.012812560173421314,-0.077736949657648,-0.2729994525567479
10,120,1.0229,-0.26126778163077019,-0.33962349158440258,0.041338784463131932,-0.16046679038671849,-0.10188729350805142,0.1771541958971885,0.12616839316037753,-0.14377014685359535,-0.30373157035428794,-0.092132855232536559,-0.17621865847118118,-0.14212354034428787,0.25851441274782955,0.16420340586176252,-0.21038072048302645,-0.1839729220200382,-0.076318151034652282,-0.22600905447110592
11,132,0.9422,-0.2524344398054495,0.048951826128674804,0.01026312548134327,0.047776473647150881,-0.18371808388214261,0.1310324463138279,0.077179221094378664,-0.27461412561256515,-0.3287713674547309,-0.1265641141803997,-0.18033625558191468,-0.053574751177200869,0.21526440272361885,0.10432089777520032,-0.18473721061051226,-0.25598577403604883,-0.057846545344031684,-0.2267578359865132
12,144,0.9859,-0.1387024731026916,-0.036660518697577985,-0.12369599613300583,0.057112197239991558,-0.21725187119691358,0.20461535593887387,0.15951129689800375,-0.20613485348454438,-0.41023523114581922,-0.24179979123496942,-0.12405424513785235,-0.030616748336077915,0.10432539883421366,0.05896709128820915,-0.14835251112875397,-0.22710398121685491,-0.05307873885540626,0.0873218064480624
13,156,0.8930,-0.21698970934640802,-0.10866205309714012,-0.1169022171928248,0.070969913281328262,-0.18571587629976191,0.17083829739299652,0.2202813838827839,-0.33017384457931681,-0.27968662014264944,-0.31855635502690016,-0.24176142913047766,0.11640267386412415,0.081494751567713269,0.21800761694095869,-0.16346087494458034,-0.14479108836832816,0.033132841072433153,0.1617777362626299
14,168,0.5429,-0.1095284593828272,-0.016921237972742462,-0.18408583802597947,0.039126222682920257,-0.10965706970297504,0.22881362230893776,0.10250652853947056,-0.32576326711714881,-0.1542484333004249,-0.31635289276936096,-0.36111398981325765,-0.095263554853374621,0.16267889560202151,0.14193448763750235,-0.25461131869414322,-0.025864448670108831,-0.0060160683214829465,0.23842923756984841
15,180,0.8168,-0.023214802617600443,-0.10971302564938752,-0.20552484085638167,0.029606600873151204,-0.15751847827271853,0.18808051415992832,0.02740225385954291,-0.33192654787269915,-0.15773334070002371,-0.18829896802291174,-0.3613221053385503,-0.11516297511007201,0.16305095619243559,0.053602625118252638,-0.30169185076086,-0.018283590786798663,-0.04056228896908131,0.34967168258588427
16,192,0.6899,-0.066375309102702215,0.092516388127780042,-0.30949715225586477,0.099056506991121965,-0.17866570398080894,0.24917157294188125,-0.064931266220138187,-0.26610121117971453,-0.087268521229099338,-0.32474817922133548,-0.39034689171789122,-0.11486981095509381,0.07331224640705164,0.077447542960269608,-0.388326997883798,0.025623873378481411,0.0097129727470284481,0.13051329314856674
17,204,0.8098,-0.083366207539773862,0.22165289636886787,-0.38484173008667588,0.22838397424865772,-0.1016124715932006,0.16243999342014143,-0.00097403556527751907,-0.12954141726121657,-0.1372010367137583,-0.24660603162789266,-0.4314873015445434,-0.097073962778929657,0.025990644178773135,-0.023224772055376413,-0.18956750204634037,0.0024886742841229706,0.014227447916350021,0.21340890468028589
18,216,0.6836,-0.00078225528730887887,0.14071395485675703,-0.27245549866793778,0.37004308653911416,-0.1330762844347535,0.13068671403528531,-0.050127298232155226,0.031207003944072251,0.017089372919976129,-0.10313666392958644,-0.44428793802996636,-0.18292873350339828,0.021149834013356905,-0.037659966755191177,-0.29775118845092707,-0.084670268954719172,0.0051139918164229137,0.10017081106493878
19,228,0.6639,-0.023430805942650255,0.092851890135387485,-0.24465611513415653,0.369136558436104,-0.1230589105404606,0.20180642100787941,-0.032673566899179947,0.13721030705506398,0.052894395324668761,-0.10703748811124306,-0.52279659175303339,-0.1447901292994182,0.0723215819664312,-0.034773676840977673,-0.3794016075758565,-0.078874673663874184,-0.062556315565131762,0.11701832950107088
20,240,0.6528,-0.047243139852428104,0.13381049719738453,-0.22062400528130566,0.29924408528233332,-0.080945810113508362,0.149949617295092,-0.15771597237218266,0.041303649388064786,0.00084018709385286347,-0.13121296913341704,-0.56681140446867606,0.020274789824439147,0.14040896917808168,-0.085293920351934935,-0.35120744001946641,-0.046513983885152314,0.024894666962737459,0.19615543849725336
21,252,0.8073,-0.10030728426538366,0.14562725318677228,-0.19276157006355382,0.30265588090728629,-0.21163516560071721,0.095829292700143273,-0.12287053293418175,0.046621126481521225,0.015252849735422449,-0.36746366659393476,-0.57088747587455946,-0.079036987299814926,0.10882759427274102,0.0094114143211770987,-0.1618707307894551,-0.12019063207361474,0.039991962292526294,0.21224547590018433
22,264,0.5416,-0.065682707682861829,-0.020881751081225378,-0.11265383952172028,0.28540353846540434,-0.25697188348243727,0.12231010301296699,-0.17097197763331112,0.12882378154417209,0.04382584900487542,-0.4177273805039281,-0.49185290767780471,-0.069615731382092066,0.19179472464435091,0.00072620658977788632,-0.25169964579339155,-0.13579893724111117,0.091011484486655858,0.19464810895949955
23,276,0.5742,-0.1588694297794995,-0.052944167534165386,-0.13621989316908317,0.35655114935669668,-0.21155884585815973,0.16285158094073038,-0.17036760787563626,0.13306094055945658,-0.0031323510969609872,-0.44978632473448021,-0.34664893537793345,-0.11109807324482826,0.1301088333845439,0.16585463555773233,-0.17824453538580856,-0.24980744387955689,0.025778899482851683,0.15720374053516434
24,288,0.7636,-0.072861022017394958,-0.02950221761980858,-0.11676691783150055,0.27678391522237472,-0.1402102650594737,0.16890704277559052,-0.26236377982988324,0.098846391936792427,0.0034966979012876469,-0.42532903988122917,-0.42380717193648543,-0.057919420176180188,0.042771576881771127,0.081834316328011858,-0.18190824780927084,-0.41396585319694862,0.029921589334803926,-0.0031733453376415772
25,300,0.7092,-0.10592215095011329,-0.12020261185275787,-0.15486000403032579,0.1466525703285933,-0.22636445551298243,0.198922413691173,-0.29557956096241667,0.15375976339230377,-0.037528639282815753,-0.40997527246026366,-0.37165922952339392,-0.039113981589281088,0.074006657171666143,0.012255856313080873,-0.2501530383817927,-0.42035808930976015,-0.020658458420454603,0.089995137293313182
26,312,0.6171,-0.11601239263385489,-0.13071297363250045,-0.17051416224788032,0.085590033600702331,-0.26149621834964876,0.23342085702224064,-0.27755527808471014,0.13988072064673668,-0.012194020826446907,-0.40710039183508406,-0.31845593660477589,-0.016929661163642338,0.082915891172287967,0.095773746552912167,-0.26010044778360547,-0.3943576346475669,-0.066358566897843779,0.082406216455680373
27,324,0.4429,-0.01266337006776086,-0.091818545496236886,-0.15947220095846776,-0.018730833786792453,-0.27371253819131991,0.25817635370212372,-0.43236869744421891,0.15454901160689236,-0.072508422850402307,-0.38623588662258135,-0.22680540540348618,-0.045624801309117918,0.12677698973441986,0.16686553562500736,-0.34639289171994109,-0.3187849728195965,-0.12811775583869317,0.033180690448166995
28,336,0.5380,0.11731247877715546,-0.038296268788950129,-0.18437816473288868,-0.0038531312247378061,-0.24521655302852377,0.23998662341835794,-0.44088447795485991,0.042191682021866059,-0.0097857872641875718,-0.39109930631932627,-0.31892197801210842,-0.13568232433202762,0.059784013491622351,0.0346096298245497,-0.20024779977401511,-0.34588058540833411,-0.11123147382042044,0.0807105764317529
29,348,0.5830,0.1958841088927403,0.039320235851165959,-0.18489882537615127,0.0087201876041456232,-0.1819975836377957,0.18916349269287963,-0.48094772389972834,0.038250907458675876,0.074905359189510454,-0.43550001654817472,-0.29055348382894858,-0.055208991202277749,0.09754430421604493,0.15133937004350193,-0.25305689241123586,-0.29041263345616808,-0.082771760631988031,0.11130246944540398
30,360,0.5508,0.1951078273137121,0.065041999404279446,-0.22666236146893751,0.015080338492811181,-0.12442667338308533,0.22079738802230803,-0.50491187198188325,0.085819378653753026,0.093027450600180639,-0.41285571292318263,-0.27344832587675622,0.0030727934902870166,0.20307646731933976,0.0666889679493775,-0.2463623181748473,-0.30297791127705459,-0.11033465362137085,0.08365899797944025
31,372,0.9524,0.12201114930027,0.046656097754223545,-0.24726833553624034,-0.048291958303886065,-0.24070266886141192,0.29013281060628926,-0.46331033455328691,0.049385642116017064,0.10288454656006647,-0.31535042004585806,-0.268094502709556,-0.054666451405626676,0.16158211003685091,-0.0522016910732042,-0.23088267896445061,-0.28786033119343529,-0.19971781123643095,0.10707841577968653
32,384,0.6812,0.087458588821930319,-0.037714228390912562,-0.24995556431613014,0.013105469349177437,-0.20070820810766127,0.31587706064519483,-0.43949950227421669,0.058529717963964396,0.044510917377046759,-0.31435506332633739,-0.30241536537691693,-0.17943310751364028,0.22211487905230864,-0.043657889138536091,-0.09147999954372861,-0.29141461140039909,-0.19440816987857557,0.18614776091061383
33,396,0.7889,0.11562626872039129,-0.038554316826772052,-0.29075227063733139,0.11485835185865456,-0.16609674724446774,0.31415616928976253,-0.33525747667316258,0.060599838594807949,0.097376057472121177,-0.26224763545754082,-0.40249080040021562,-0.22670360109974053,0.1953390139806736,-0.081499239315044145,-0.19177099908525985,-0.30650294567913494,-0.19336643790721966,0.23220571097123585
34,408,0.6096,0.096766726419079754,-0.056512819927266325,-0.325538464198407,0.033431692084056663,-0.18400072954021979,0.28809239188844293,-0.3652087416454019,0.096611321642873768,0.048906242701941244,-0.21037892776819447,-0.45061339448525373,-0.23329363209684809,0.19959973639613063,0.01845575244287884,-0.19947266544624068,-0.2951519598439038,-0.12519562555094602,0.11359617634821031
35,420,0.5823,0.047174998374550046,-0.054832589183075257,-0.296091165453577,-0.0096189555960251253,-0.24897762078289157,0.20232407189736817,-0.392004494185359,0.063794605236778421,0.0078572614381783312,-0.13089911014541949,-0.49183422636943847,-0.23254915333167209,0.19928970465990758,0.079290971051762929,-0.14373127205882091,-0.3262130678588756,-0.048531452570070382,0.17416014312981354
36,432,0.9006,0.02074469119156069,0.031048964503545606,-0.33350813116357692,-0.014687525447326764,-0.25120454184923424,0.20636136567800728,-0.41321453580002881,-0.019057290223033381,0.0038641596858066227,-0.17902447203396732,-0.51388840562363314,-0.21227729687683167,0.07201568792723792,0.030842304448858996,-0.11500909639975458,-0.30459111110192033,-0.0735512483870174,0.1315698793716687
37,444,0.5038,-0.095436067959903073,0.055663183925665084,-0.34458487252587811,0.075113703227374484,-0.2938560813600945,0.22750259534077347,-0.38807315565468359,0.0049750619475732805,-0.0031124634432847008,-0.12451165584166338,-0.54475344798783554,-0.18768609124710067,0.094055512179994055,-0.055082515105672844,-0.16017852594192139,-0.17986641572502562,-0.037004426041061404,0.21370536897845707
38,456,0.5788,-0.062297048245284543,0.039079018834384707,-0.29785509561307882,0.09302647458748782,-0.26655166795952051,0.23410945101194686,-0.37989478668037141,0.033718422739532468,-0.043413179307860733,-0.24310197416044393,-0.60095865580021623,-0.12371496212988976,0.090313969047077572,-0.037439710611681144,-0.031542425591339532,-0.22135838216685874,-0.015604798599660239,0.18813751428552772
39,468,0.5697,-0.10925460551667752,-0.0055295300079353307,-0.32211353332115455,0.098564673948318859,-0.24301830784807521,0.25690837319927728,-0.34115713635581585,0.030563732091805167,-0.035130373044940558,-0.39589456937428691,-0.5395559478956562,-0.13485997472167516,0.052803169851351285,0.029555873251221037,0.076695135750824525,-0.156697023435828,0.012690189852311002,0.18990722065930507
40,480,0.4321,-0.0696768330533628,-0.04598305173365759,-0.33206264981917377,0.053683040145166,-0.27798436047531083,0.25240545762617489,-0.37653064375184481,-0.095767380085636469,-0.030791945027349877,-0.34201143957887431,-0.5741103343164029,-0.12927431454958072,-0.0067697449193024348,0.01576826086403673,0.04549955381414475,-0.086255571968412673,-0.019835797145886222,0.15518366861951507
41,492,0.5218,0.051546883179645925,-0.047689510782892207,-0.32251781487032521,0.050031480826174486,-0.25060153933482859,0.27237413790010634,-0.43413088542865241,-0.055964154628294925,0.02305732472085097,-0.39861173826859736,-0.5279356601020011,-0.0711377752616539,-0.018800352217417108,0.012430809065337415,-0.040380554458913705,-0.094559028084204536,-0.064116492605871975,0.050249744553447176
42,504,0.4886,0.013879260496631416,-0.054676705234037781,-0.35130714294623222,0.079159603992996722,-0.24891541500378195,0.23355103067919872,-0.44536294445263119,-0.028313647247001719,0.030110674027241335,-0.38372274223557251,-0.52918538826727091,-0.068213378326425558,-0.013752837929457664,0.045821702951275113,-0.049901560318950322,-0.076921060746269226,-0.004516250486505018,0.023882951957847204
43,516,0.5400,-0.078816833964877361,-0.12987613001042592,-0.3134801047042664,0.11372034953588929,-0.22777511585137522,0.23804738857629232,-0.47437413935601014,0.0012559964802007358,0.036469899572457311,-0.34212067514701489,-0.57526105691441831,-0.038474795985916251,-0.038020471145703554,0.00036890166652828443,-0.046492079694152734,-0.0995749280576,-0.0065869916398430288,0.054349282129204632
44,528,0.4710,-0.025133502316823198,-0.13644446529369622,-0.33877251852644874,0.091464605886180633,-0.22914120050125544,0.2378147583816061,-0.43251975743772708,-0.0060001951602986769,0.0579132086707157,-0.35877901347361729,-0.55709654236986172,-0.10040932072000394,-0.041699699022951134,0.0079143737817786684,-0.060477332747226886,-0.10285418590407758,0.0041767755929545966,0.11603060558376629
45,540,0.5547,-0.039243536562441957,-0.18910696628092261,-0.35340302127916268,0.10044594336451797,-0.21594793622276007,0.23319881817916485,-0.43943036265547009,0.026483039714861933,0.074165831699395862,-0.35821944295047875,-0.5584225502848017,-0.057953443352957532,-0.022667037621287439,0.031167140804613,0.020229812852202451,-0.13076300978770142,0.010178238706357434,0.12133486553569758
46,552,0.4767,-0.07157292479587854,-0.20803109947226,-0.31197435402424545,0.011684651187756689,-0.19516604866012471,0.26749237667990455,-0.50289961146954931,0.0853405630055992,0.064225446246826384,-0.30566353290986176,-0.51497628113658156,-0.012612926906605062,-0.0067436211384961182,0.0436643600574246,0.096007699302892907,-0.16652202481622427,-0.071242944013933,0.10846959183323983
47,564,0.4848,-0.060542382838829595,-0.23804183469183721,-0.30840896939620555,-0.06630827100900441,-0.1604957811587942,0.29347726377499639,-0.47598649702992429,0.0610545522369435,0.035661418834761885,-0.28317856429858973,-0.549674270949769,-0.026704906282761991,0.02387869790476237,0.03733964664792306,0.12546004380711914,-0.17221867521015632,-0.087507206202855417,0.085404801731710084
48,576,0.4788,-0.0054092089034816345,-0.23402870171638096,-0.31593295035140334,-0.0965623585100682,-0.14402379561475931,0.24136015653548754,-0.504494217554058,0.038848423840837872,0.0788567408502285,-0.30475048179281156,-0.54850640393778927,-0.068522865385885562,0.045428762077254624,0.019687205631971644,0.055092823612749357,-0.17484110734979025,-0.051289656836245617,0.092272778710745754
49,588,0.6939,-0.055372098506872913,-0.20874859356542558,-0.27100201379505912,-0.13788958001980881,-0.20277059185980353,0.22921920634903231,-0.5011283405444924,0.085475790764304671,0.047543569238497223,-0.30135605441714469,-0.51203411127582366,-0.10951580244635076,0.15377809875895229,0.031157845736105763,0.0609089819203809,-0.23467088053199597,-0.066754102376780977,0.05687419030440629
50,600,0.5783,0.01839233560343749,-0.12877583206115947,-0.28761942656120809,-0.12509786322813146,-0.1643318834488714,0.2215404291632696,-0.56076512842889126,0.12708274310117904,0.0885774195923022,-0.26359859571604072,-0.51382074638846631,-0.11380152769837043,0.13843569387622087,0.026186083764763689,-0.012502712575671985,-0.21617562649351976,-0.05043889060350578,0.009812548528990871
51,612,0.4827,0.0388520232623451,-0.19165223820499691,-0.33057725021129314,-0.11756403224627919,-0.16613966372634562,0.2422036522131788,-0.51331694972064335,0.10960769830183228,0.059808252189921376,-0.24162286847240774,-0.55671305323266129,-0.096024369047716357,0.074070600542317816,0.063126423603960063,-0.0089745579240926021,-0.17775192084377042,-0.061565553636624783,0.010537011369563073
52,624,0.5335,0.091835747108296714,-0.2022393287496079,-0.3139987901039058,-0.065060827935810667,-0.1802749532804574,0.22182297535934067,-0.523281936893698,0.050314486252491228,0.065363416019591322,-0.21797331154630553,-0.5884858597633128,-0.087730077862479272,0.094019439492285431,-0.031047040512388744,-0.065947636257923339,-0.135283406816359,-0.041942214621386635,0.018744715242538828
53,636,0.5731,0.0936856213805451,-0.15778342109944862,-0.273766235760422,-0.077427842867315591,-0.11720945373370793,0.20419260098449571,-0.56267210560626679,0.051852195656787954,0.15494446867621808,-0.159913197237782,-0.59703311883200316,-0.11316221522251385,0.099510988852336071,-0.038219712527709053,-0.010750276670301635,-0.1681770831111723,-0.052974956450137771,0.044609113631046686
54,648,0.5293,0.12421441355999074,-0.12254921231591416,-0.25568349278442143,-0.088279778408620113,-0.12911292678984512,0.2002035675785053,-0.60843549762668236,0.052267479219875672,0.12002037259096755,-0.14777927480494263,-0.555658128760527,-0.11184565712004005,0.17932083347003513,-0.068798456031357508,-0.02229468105592855,-0.14046964962963543,-0.056832243274801138,0.072455625149360561
55,660,0.5287,0.10319710623219573,-0.11494230601278639,-0.25116277136408288,-0.12340066256363649,-0.12689024419516004,0.19898670093747259,-0.60080897666146671,0.023131874772245344,0.10409482398532435,-0.11212235695537633,-0.5321270745759058,-0.17277606917929977,0.22020162811522406,-0.069745958461041563,-0.0228686890197437,-0.14254524485568223,-0.068310734253255,0.11378733329895666
56,672,0.5232,0.14839073915584719,-0.12500600400527037,-0.24134222999265498,-0.10775026086728644,-0.1487519638788872,0.20710258818172936,-0.64124599934654558,0.0012700949916714338,0.069977954878041509,-0.18075907950262138,-0.49651007125889685,-0.14861041795754526,0.19141187675654,-0.033039206913869253,-0.05773439446266556,-0.046218491413238513,-0.074592847460763084,0.11901489892518625
57,684,0.5285,0.12342726249299744,-0.1015361993301401,-0.25393869644857869,-0.11326545589739366,-0.12033554740378634,0.22563681631314411,-0.65351843194303894,0.0020405648350846793,0.069906855753237088,-0.15272539472183408,-0.46737075036633063,-0.1494718332015805,0.25436427113681148,-0.019623684821658653,-0.04486763254997183,-0.056231467833843495,-0.098171304424208419,0.16578380258747802
58,696,0.5363,0.071065190686304514,-0.12660643699627391,-0.2452559974266077,-0.12508517451510962,-0.11940667235668792,0.2388916125632459,-0.59736682921829243,0.0017456190188818086,0.038351289348098089,-0.16210965156112098,-0.47844389378323515,-0.19388117089812379,0.25148861773923736,-0.062439264557878335,-0.043334630853284768,-0.095865834008765222,-0.10559408589071531,0.18514194385006086
59,708,0.5135,0.036215803253942941,-0.10735706804339276,-0.25729660493181228,-0.099090981581809651,-0.1669878957815342,0.27106769749652626,-0.5759567974721469,0.011208747829944268,0.031625916336807267,-0.19835386916377862,-0.47267248880186064,-0.20351792781124045,0.26252713815585954,-0.00059080489058227926,0.033698205112452105,-0.0938782385237493,-0.11348354351655987,0.17836382064603151
60,720,0.5167,0.015513870648818744,-0.057310446223630532,-0.2366017325544254,-0.10475703170126406,-0.14829424577302336,0.28569000806100103,-0.6154274983910506,0.058125995789709346,0.016281939647497058,-0.17742094340812609,-0.45837019825663683,-0.21304554715342044,0.22246792007258223,-0.047161472062770937,0.034326817223408315,-0.092446366492279067,-0.14171225830115514,0.19817746087729435
61,732,0.4596,-0.037686526768464929,-0.068522568721712016,-0.20542738037263672,-0.10318992269988124,-0.13593060586972117,0.29301239803183615,-0.64063690738190671,0.031806752787106346,0.017829249404270203,-0.18063426232170757,-0.4439984277331967,-0.23487984301777581,0.16957090485398629,-0.015614454014254389,0.066830968301207674,-0.066049143942124869,-0.13565047700602731,0.19738065501285793
62,744,0.4960,-0.050709677607916663,-0.10292142505009028,-0.15527749781340325,-0.066483227169081352,-0.16600901076449739,0.30855726145169682,-0.59749176204300691,0.051092734668798719,0.05149651009303801,-0.25383340912348323,-0.45662116603053204,-0.19400379092551456,0.17058673589886805,-0.011640115099559265,0.037536856541589149,-0.13260128420128242,-0.14627557111746547,0.23359107880296193
63,756,0.4503,-0.097096098526969335,-0.10721270714471016,-0.18329606702952725,-0.0093605770032732585,-0.17834704330149082,0.32957081278616357,-0.54984849799223356,0.033499618926343788,0.012776426985869359,-0.34981115001931629,-0.43593308773629669,-0.13405326153670913,0.14570302805793808,0.057431933002084677,0.015192503328040664,-0.13806046421573856,-0.14938570175391996,0.19778375200448622
64,768,0.4709,-0.094006189849647467,-0.13553050651880211,-0.2199123788341282,0.035192909147549759,-0.18166439234434648,0.34503452033178356,-0.57249555154129217,0.059724990027654079,0.036031651937815906,-0.3199957843114396,-0.43372462292741565,-0.10395480107209863,0.15587228344233878,0.029773028919601166,-0.039284671404541414,-0.088783432982989172,-0.17144010026288184,0.21314378801549377
65,780,0.4828,-0.028930252630171998,-0.11850500809807837,-0.22522011918014209,0.019303590168971665,-0.15073608227704249,0.34034341896711029,-0.5695839245355695,0.080924775723670767,0.080124000981649554,-0.29903052561250104,-0.45207498105938171,-0.082213944297268221,0.15914995372451823,0.083868300648305458,-0.080456526161199582,-0.10748358428995021,-0.17604224171600638,0.1860603330069531
66,792,0.4648,-0.033705520552553776,-0.10974070137615739,-0.24115690597724779,-0.024372457312608693,-0.19563108604908069,0.37005557099535114,-0.55072442138481126,0.080604728237546719,0.086425474623023663,-0.29376751229480841,-0.42978413762489381,-0.076835802197547182,0.15073669523715602,0.086514016587154019,-0.093474144387519276,-0.094174318122801012,-0.19820528899816123,0.159009779573529
67,804,0.4351,-0.044933451568226146,-0.11827416954850306,-0.26248979252593668,0.007855001764403062,-0.2221372254966458,0.38676798798170486,-0.49841134915699359,0.068224158866766207,0.05041078261005464,-0.24644840698029641,-0.48182035937109324,-0.069953537455930345,0.14612904448459851,0.054666351947118295,-0.061672871971690031,-0.11376075076929151,-0.20123003275317258,0.1890885064050794
68,816,0.4407,-0.044217318217600769,-0.13786989366326244,-0.22304771035610554,0.036639335346907012,-0.23903613686669317,0.391411517415963,-0.50410805724726537,0.062846669329324784,0.069942989949340353,-0.2755084047559358,-0.48541731550636796,-0.025147149440599266,0.11213143939668439,0.095132975863187863,-0.046533566613264972,-0.1371188671669534,-0.21514707104208014,0.15980556029326293
69,828,0.4554,-0.0093240379343174622,-0.12761231271300202,-0.28062386118387994,-0.0078333664664249313,-0.22181578781654754,0.38129685700983212,-0.52854657124217719,0.041480640143755888,0.12278045991087926,-0.20918271643184608,-0.46586352036711454,-0.058110267314715025,0.13548500583878093,0.0475465052573258,-0.0789979339231594,-0.16365331475184722,-0.22043311359340056,0.12291101992806154
70,840,0.4685,-0.050225552119913031,-0.15070119538798787,-0.298338199768504,-0.026032681178885977,-0.22101740214647089,0.37638680940680014,-0.51381634784105912,0.047072999724271605,0.10903129006042617,-0.17144363912785629,-0.47199412129135848,-0.0014313693622963512,0.14288312634909092,0.062934539037327056,-0.10665949936540776,-0.21862425160171065,-0.19971324748935546,0.098501483142712787
71,852,0.4398,-0.022224206055210721,-0.14271250844153591,-0.29146401321655829,-0.044094274621060171,-0.24488048441418453,0.37525383186097772,-0.52840392913512924,0.039097764296307555,0.13103660375992776,-0.20574106440248496,-0.43032587642191733,-0.053217675492569977,0.16230555751544512,0.072210592176077976,-0.058932046372589947,-0.19363812192142457,-0.20281682150318991,0.12256881069605234
72,864,0.4486,0.0075891990328344127,-0.11570016914197097,-0.25945636945487949,-0.013631499904306841,-0.25189495344382734,0.36814475778830019,-0.54076024214798568,0.013600709111610605,0.15198287716818931,-0.19869755356561106,-0.41280749185449706,-0.037867686655332494,0.21598155227397078,0.06966345949756686,-0.106804445911462,-0.17119836665496982,-0.21614432021955771,0.15395337581941812
73,876,0.4046,-0.0085634595562735609,-0.10624518165562062,-0.23596696612595935,-0.01041960856545107,-0.27334664468439446,0.38365149782978508,-0.56235341619329826,-0.0067004910798296275,0.14258867074776521,-0.18845645525775759,-0.386016064287582,-0.079738931303116073,0.19808296654879648,0.073776849991361873,-0.117917143432444,-0.15095400981833734,-0.24257377341997247,0.12684902220128477
74,888,0.4150,-0.043052846492824745,-0.12636846680601022,-0.24386048742127878,-0.018656879340146065,-0.27072840465579534,0.38928525842048067,-0.5766968300701526,-0.0075464157361531019,0.12260421489751092,-0.18296868477595613,-0.36835562729565219,-0.069010481762743076,0.2093103717787542,0.073788596336836335,-0.129960944690775,-0.12345661338098796,-0.24474491061921641,0.089234970896685487
75,900,0.4332,-0.037152258265311135,-0.11784390793785235,-0.23551248908489147,-0.048252907786180223,-0.31389093493046916,0.36626152375690041,-0.55710141642374456,-0.00645830300399227,0.092813965327455686,-0.17863381275188425,-0.40047796806804781,-0.0869012408109263,0.24565043886780738,0.071855992808871241,-0.10933389588187375,-0.11578244928790896,-0.2099358561975862,0.089866110316752235
76,912,0.4157,-0.034892330883270289,-0.10839675838293446,-0.26571738389346439,-0.039430328702929653,-0.3148476499561077,0.37382845011564886,-0.555385725380471,0.01290247744119606,0.081684466116937984,-0.17474516035415863,-0.388528905607687,-0.11499459706263318,0.24294805534345157,0.064354039857868486,-0.12586114868949527,-0.093524737659856264,-0.22098740036506914,0.098809886340849765
77,924,0.4336,-0.050485337807668978,-0.06773796570551513,-0.29089469829569325,-0.029382785356525297,-0.28755255062680046,0.36301457674553128,-0.56858394157812919,-0.00938449803015434,0.0999951306594475,-0.19958187054496462,-0.351119607496146,-0.14696121470204854,0.2498043860976199,0.07322609624712266,-0.14403252018977594,-0.090458314947121116,-0.21391869224587329,0.11393307933314559
78,936,0.4501,-0.042767969692804976,-0.099402571435676934,-0.25615645977634555,-0.030734510168423334,-0.28701039336166717,0.35927883863769666,-0.58924511186440987,0.00566022259995507,0.12368712577301613,-0.22289290794779776,-0.34186887070962407,-0.12365391748250217,0.230984976807132,0.05256228772561547,-0.15103879293960451,-0.11265015742364659,-0.19809297056910133,0.13077712272528988
79,948,0.4000,-0.019458177525071452,-0.13293206368912186,-0.26481892788765565,-0.02996458575974319,-0.29065336429946292,0.36385245244014858,-0.5568438178089119,0.0071887028836677535,0.13463166950882363,-0.24661626130408082,-0.32724194767722747,-0.10438169453379798,0.2317650334875184,0.096738728049940256,-0.16460464232480052,-0.14424903629223707,-0.20449243843636844,0.14169182280799558
80,960,0.4087,-0.02195107934881823,-0.14766462766864655,-0.25826223448518715,-0.050903488763267876,-0.30128499410154447,0.35354926916258783,-0.56501600597773716,0.031056023124921481,0.11813548079490245,-0.21256552216942975,-0.33215380941687689,-0.087224139876022178,0.23535729645711062,0.10555553610142528,-0.18043409389001752,-0.13967854783313793,-0.2089877283728854,0.13702753046537225
81,972,0.4135,-0.024239563227254266,-0.15588431615156517,-0.25035753893994633,-0.0336543067276034,-0.30109107909173938,0.37467186657299989,-0.55545821275300233,0.049322746731791593,0.11852761543496364,-0.22457171152777761,-0.32446375341989891,-0.064911019767788625,0.24750474889289875,0.10606112537149266,-0.15810105812855949,-0.13692833268514876,-0.22758768694796686,0.08885994834575936
82,984,0.4230,-0.040013544640742471,-0.15609076002116115,-0.24699612787512029,-0.044915038778129711,-0.27626352451928571,0.39090460122162263,-0.56080987920564707,0.058525774503513407,0.0817905025324488,-0.2033041559281813,-0.34833534521906495,-0.05739239616109066,0.27223343124971183,0.066257206645466624,-0.15376906787871877,-0.12119621050544419,-0.23983859349271736,0.090684023377013742
83,996,0.4177,-0.021070564247092739,-0.16565837876600251,-0.25244136997210709,-0.043574630831338182,-0.26887455328829818,0.39461581596816087,-0.56513215194085231,0.063953656014356167,0.10197550687213261,-0.18219479732399188,-0.34366386804152838,-0.051351596627530818,0.26268120131759781,0.081136325713411964,-0.15758256733827644,-0.1141251780387422,-0.25386107690493859,0.059419760826111695
84,1008,0.4203,-0.016646131111535411,-0.13795616489747553,-0.2559043510589597,-0.034378806041359664,-0.29440521742626008,0.41687091880849309,-0.547070369752636,0.034571890797336219,0.093970847937778115,-0.22597334214519615,-0.30842643062610492,-0.065817496365265,0.25282291964155273,0.083173413881598088,-0.16013571061668852,-0.084054179149906538,-0.26991065757440164,0.074582759350831945
85,1020,0.4037,-0.021986675540287336,-0.1509552893833381,-0.25382674258570564,-0.013246019293195025,-0.30642304635799006,0.412526382586159,-0.51933767997530877,0.029517761509575951,0.066320985576927366,-0.23330403113369474,-0.33172779888889931,-0.059966494381541766,0.25353232413300042,0.10645050398186878,-0.1782615311573946,-0.096758015963329766,-0.26023797377522512,0.087166547946993786
86,1032,0.4540,-0.024549267711867741,-0.14011268343993202,-0.26348520178713297,-0.00828797093675804,-0.33282811660735,0.41749356925925474,-0.506415490118127,0.049611480542586815,0.063225839703581754,-0.21149471432411998,-0.32103371285806426,-0.083213757709201724,0.24347623434008178,0.12803366189944521,-0.14241475739024892,-0.10500160476093529,-0.2755438378648678,0.094184941458264837
87,1044,0.4096,-0.0094996990559557456,-0.12840341926033555,-0.28008325099554,-0.019870850812950695,-0.3210667075781799,0.412841331305779,-0.51730438380635757,0.038498043229958687,0.074685016423715681,-0.19403685777076179,-0.31413851993971942,-0.10665059499348602,0.27021519872783828,0.1202891094202479,-0.13397145241235095,-0.080703910529676057,-0.27235896732098924,0.11553771371062664
88,1056,0.4075,-0.01676422877931474,-0.12724820558185104,-0.26051136355942028,-0.051331321666057778,-0.34270072157545994,0.40260818771016355,-0.51452553087894193,0.0507819362712961,0.092650711260515509,-0.21054437892010061,-0.31628074998287753,-0.11482890533601027,0.26351408251119934,0.1372067876076013,-0.13474388712960872,-0.10724034351645505,-0.25688053685256473,0.090794743392613758
89,1068,0.4082,-0.0093398883510211767,-0.123080596770274,-0.25911300665822334,-0.033062405614015966,-0.33676468627035905,0.39264590716725,-0.54307311211438447,0.033305381394222795,0.087580860595119561,-0.201852683202541,-0.31287850740706835,-0.12853455005581715,0.25853100502064635,0.12702036924655671,-0.13895457436789765,-0.085251665949410541,-0.24973734959692373,0.098313417801738731
90,1080,0.4246,-0.0015961107132949908,-0.1056341343774818,-0.26515353554135729,-0.026556619553295604,-0.31439671456391671,0.40560916010252068,-0.54770418281371958,0.027298513652887543,0.10419010746086714,-0.19789883905070527,-0.30528057696372018,-0.12370763892114622,0.25752374342545531,0.11399469765974095,-0.14359370633475058,-0.084921670759012025,-0.26836450019331576,0.085066560122577711
91,1092,0.4152,-0.029528177560214534,-0.11754915252263996,-0.26748132815498,-0.014510981373474582,-0.32195969607018243,0.41107704507534437,-0.53911979271656585,0.0415038638414751,0.11379853804691197,-0.22356505349495373,-0.29087796646312608,-0.11258913120948426,0.26676511824357507,0.12659816864873766,-0.1294046220298227,-0.063488193356600081,-0.26224980554675825,0.065214281866932
92,1104,0.4102,-0.041638246074085151,-0.13026012004619925,-0.27849350527748984,-0.0030118695612297588,-0.308437229744602,0.40633889842911874,-0.541880021888254,0.052148078365106369,0.12195463821521475,-0.21745996780962121,-0.2948823490996873,-0.10526338033313802,0.25738502656495288,0.11748114904236349,-0.12856885114156807,-0.068928716137275539,-0.26036065596987107,0.10248247392452749
93,1116,0.4099,-0.064992891167224537,-0.12858255293312951,-0.30279218781783412,0.01145637099541863,-0.30356681152600212,0.41522670855579424,-0.53984641082147711,0.028211712067539942,0.1290708832274336,-0.19559032699069723,-0.29526993816054131,-0.099806610537109666,0.24251780890957278,0.11069892125774974,-0.14268083366515943,-0.057769441296294119,-0.25676807497290782,0.11471255038949113
94,1128,0.3986,-0.080580373093051133,-0.14684803320822129,-0.29941607583624424,-0.00077244337271649519,-0.30215562188406492,0.41186551541510308,-0.52542153258967939,0.036337754161792989,0.13928399201959357,-0.18083426615366205,-0.32256811064443169,-0.11130845184634995,0.23588205094906062,0.1074450948955602,-0.12761875425648636,-0.070801920287904829,-0.25011546111886668,0.12950819030963778
95,1140,0.3988,-0.11499810604175899,-0.15393952868506128,-0.29639634829498029,0.0149943441750761,-0.28927895444070217,0.42784146045125448,-0.49628539337289468,0.031634558608535757,0.14636984803310732,-0.18340559155436592,-0.32199536870905526,-0.1016948152246455,0.24146271611823236,0.10070422382671468,-0.13585741593205278,-0.08802069284685507,-0.26492724559703545,0.14068618311404349
96,1152,0.3879,-0.11476077650955509,-0.14883647595062879,-0.30613828698792517,0.018742883129654497,-0.29762990842113196,0.42638159307659756,-0.4791214443360361,0.0376854933182975,0.15101361826997037,-0.17589003693391017,-0.32574038424076129,-0.096780189523881885,0.24753740551074704,0.12506522102424525,-0.13437244405709659,-0.080421019061956769,-0.25940542186140425,0.16132369954552486
97,1164,0.3983,-0.11188104819295376,-0.15308612792522144,-0.28095361744572173,0.0010196960103727596,-0.30661431961424873,0.43272872942917967,-0.48502790125950873,0.03611218778440077,0.1538438479594238,-0.16785217210388573,-0.32006727340692281,-0.093562094573159185,0.26302559000696163,0.12761419659932363,-0.11768042593375021,-0.074060077476979971,-0.27371248908673856,0.13461551430545107
98,1176,0.3930,-0.09124527688156743,-0.15525897924550014,-0.27654746606648584,0.0055312739686705307,-0.30482766748537465,0.440343593780828,-0.48805875433438961,0.046839961408761725,0.12170907528291956,-0.15176852626445078,-0.30407707207974743,-0.0984209217851556,0.27357159834399153,0.14625437143925457,-0.11358154458041284,-0.0637019819180975,-0.29145973011860987,0.13514673604704935
99,1188,0.3931,-0.0922303675047088,-0.17594375885726327,-0.28732767786276847,0.014160152303351589,-0.28461203944630159,0.45241261692844709,-0.477171205877197,0.041831058033960325,0.11612095968013469,-0.14773086934860064,-0.29167903876160245,-0.09603560117591986,0.28092366987424261,0.15480694136157055,-0.10881941376928123,-0.059853608154420125,-0.30275331573143921,0.12587319831696239
100,1200,0.3852,-0.094568309414908264,-0.17223149450478609,-0.31552980391207774,0.0073040998368815212,-0.29395493399209455,0.43945464228957021,-0.48834392496934304,0.037329152993636087,0.11689754318695741,-0.13358966027621891,-0.27354684582194977,-0.11092614064576582,0.28424445906325968,0.12203675980030698,-0.12151030843611771,-0.022610779445921565,-0.29198518853632732,0.14603544793187959
101,1212,0.4009,-0.084122348262032173,-0.18341156962851046,-0.30720698493615534,-0.020600174140544963,-0.298791862375482,0.43589904856404815,-0.4847522304699915,0.018734117171147629,0.10725583629369645,-0.13145278370647487,-0.26448596506409927,-0.11657026974956809,0.3051130056970861,0.12946831820849741,-0.12106075751945697,-0.020600163621632684,-0.2918385311050935,0.13978159513785712
102,1224,0.4069,-0.091726375730215151,-0.17923200997853792,-0.31631952233715505,-0.037240428488704645,-0.30038973545591041,0.42599351682869968,-0.47639888896453186,0.018363623872539484,0.11178663924772227,-0.14233142497166396,-0.25823116472326124,-0.11811470731105099,0.34142958352156222,0.12543224662456121,-0.10445220554972762,-0.0078172430558129478,-0.27751780668950821,0.13009201257055492
103,1236,0.3805,-0.0941206169931761,-0.17358016025704892,-0.324566969643829,-0.028102874222399796,-0.30909200580329216,0.42522803176844914,-0.46916973584003552,0.025513583000358685,0.12152258174163126,-0.16739419918391277,-0.26527114490832687,-0.10612538757876938,0.32315808480641783,0.14034031677565045,-0.096400591622279846,-0.025090504475474971,-0.27308207565135151,0.12281795806737671
104,1248,0.3960,-0.080950138708456,-0.15967834672545653,-0.33798729594645233,-0.040692780952683076,-0.30310432046357444,0.4234524371916279,-0.4631823282728576,0.051999570438624083,0.13473051577122372,-0.17878165297335072,-0.27103878262687581,-0.12277832632031925,0.316524637318619,0.15332957050034271,-0.10625439658441629,-0.022406199426200042,-0.26026972051773206,0.12275009291930485
105,1260,0.3880,-0.083323903064014063,-0.15379473728002332,-0.33415622746193779,-0.015834871712341707,-0.30637366083709527,0.41856517463956544,-0.45306978941777459,0.044331808510911355,0.12966721581339535,-0.1812970680687877,-0.2925406555271482,-0.1285756260151549,0.32563427486294722,0.1388891375247234,-0.11094990221639803,-0.0391176531771058,-0.25533138996217725,0.12374679604668269
106,1272,0.4137,-0.077182812785477964,-0.14602811930621173,-0.33746387077211809,-0.023721849416651546,-0.31071866007825194,0.43034127920538479,-0.45638857907121627,0.038514599743152425,0.12707568379371006,-0.17846337667673187,-0.307291252324076,-0.10864831555532695,0.30397992206257446,0.13139947189499446,-0.10968982897425608,-0.026810904195241562,-0.26205244949356216,0.12507121330474519
107,1284,0.3989,-0.058384687246817356,-0.13387817828048543,-0.32477949255185479,-0.036879125544869953,-0.30467032872558947,0.42653132622967782,-0.462129365888102,0.030164206337736314,0.12890038810678878,-0.18154298272215116,-0.316494942330639,-0.11082943139775601,0.2989980335846848,0.1555606682836585,-0.10753484540889494,-0.026901487436814527,-0.26784023379767991,0.11445992045674624
108,1296,0.3936,-0.09011133226544131,-0.15056180628901142,-0.32550093641664057,-0.018006756679339275,-0.30593270571070963,0.43176115061841047,-0.44826530233396195,0.028439170073929283,0.14377770448178687,-0.1766968092529371,-0.32640537261768715,-0.12615370016746844,0.29576078853486976,0.13868538902247626,-0.088947774421893486,-0.044068901906584905,-0.2646512437270111,0.12184623691043524
109,1308,0.4101,-0.079846937519434155,-0.14362902257764451,-0.33565362125504067,-0.019282173086362864,-0.2977963172079573,0.42135625274556809,-0.45288075914571468,0.023999716037704236,0.1493067163649274,-0.16317912054976527,-0.33389590088740018,-0.11030172069518066,0.28745961219644328,0.15610017748398877,-0.1267387085708325,-0.0375179540527383,-0.25580329156031784,0.14499860311365714
110,1320,0.3949,-0.061455592659981031,-0.13477163751764967,-0.32767216958458645,-0.019017213922299159,-0.30024552708477137,0.42561739460502857,-0.4430879437634887,0.021085977615121512,0.14710249754419533,-0.18581558553434854,-0.32914747125308697,-0.11704997870570878,0.28656458723878608,0.15986295844589277,-0.14127199756436426,-0.028834530013748721,-0.26567993856314459,0.14466922447889261
111,1332,0.3895,-0.094161816104644025,-0.14530089640891702,-0.31736084559563982,-0.016369106457496802,-0.29872954196004131,0.42863841393505975,-0.43736618964774077,0.02734240858089642,0.14834294980812007,-0.1876168765517664,-0.32652789402785837,-0.11569159127319321,0.28903016675203846,0.16278560442050535,-0.1393866016853465,-0.0159167076669669,-0.26000242281234331,0.1551410079493139
112,1344,0.3776,-0.10259814465168239,-0.13866381666228109,-0.30412067106693624,-0.027085965974549622,-0.30170645250460343,0.43667953012540495,-0.43351727638109683,0.014651667743292107,0.14886690426759291,-0.16927859899791373,-0.32526611354858176,-0.11882452069822813,0.29874472363536836,0.1606484616542081,-0.14058377656454527,-0.025894203504329881,-0.2716373153149621,0.1511814047218841
113,1356,0.3768,-0.10595245785707401,-0.14504866613408737,-0.30259237524116639,-0.033780324491290634,-0.29672072518682291,0.42742592003651042,-0.434241183983039,0.016302056294203476,0.17420217931932794,-0.1605563840390391,-0.32302880702924552,-0.13943914020012771,0.30138474654920688,0.15639618706607938,-0.1386842263308016,-0.027960511105764939,-0.264167637962728,0.16632831266755155
114,1368,0.3812,-0.12020556608260817,-0.14676333839191563,-0.30698824671822716,-0.030488768434975673,-0.28765534280926547,0.42656966604668711,-0.42435898745658418,0.013528166104120056,0.19327210215522006,-0.14897523936893861,-0.32953124112093862,-0.13206179141756835,0.293203220391912,0.16091961522962062,-0.13446106092453339,-0.033769569996175759,-0.26479224787635885,0.17684275389152393
115,1380,0.3835,-0.135434944326825,-0.15072057412270162,-0.3026735464345473,-0.039872642443131337,-0.28800820973938118,0.42195379250987591,-0.43325917907232769,0.017208563885256292,0.19661033493975086,-0.16528764342084654,-0.30881097711891159,-0.13329528912273692,0.29419214101653635,0.15981689170729038,-0.14008633453943306,-0.022239875119556173,-0.25778246405786065,0.186353589407801
116,1392,0.3819,-0.14846386707505657,-0.12560374293318149,-0.28995907312117253,-0.033259113505234611,-0.29048655668426621,0.42701106080222079,-0.4261912343127508,0.016438970267495464,0.20783698622158917,-0.16893633586251255,-0.31105203438544654,-0.13142944274435767,0.29924365451604629,0.1518244290583895,-0.1385277459560571,-0.018284270287531594,-0.26084870012062311,0.19520111625835204
117,1404,0.3835,-0.15374531800558267,-0.1296975680846354,-0.29890369597729011,-0.0366799945462475,-0.26971150372255182,0.43157057738704674,-0.428809037491639,0.024485627992816821,0.20623351900128253,-0.14522457146778217,-0.31402680225188295,-0.127563904883161,0.28866757989049258,0.14250326920690787,-0.14583498763086897,-0.023537429322093781,-0.26693323692312754,0.21498954273986182
118,1416,0.3974,-0.15782286255467134,-0.14293471395556265,-0.29694570589414843,-0.02584218496192088,-0.26316705333801893,0.42957114471641966,-0.4294064912316643,0.0279082735687807,0.20569829110752147,-0.1504821371919749,-0.32581085411383887,-0.12152047241404329,0.28065298232920022,0.14301214611554319,-0.14148112627555023,-0.033721482001500616,-0.26327490042040069,0.2111538247510073
119,1428,0.3846,-0.15576337622378397,-0.13322029667180746,-0.29748275385481576,-0.029938098675458449,-0.24483988894962741,0.430980399768651,-0.42577813757740074,0.023200585575592726,0.216150150137361,-0.15623957802840602,-0.33169541580850803,-0.1229457793832163,0.27799709553915775,0.13006793138711381,-0.13703111650091163,-0.046475707426080343,-0.26081578369037428,0.24021596365963024
120,1440,0.3916,-0.15794605121809244,-0.12600568451865549,-0.31448307417000443,-0.04500338747202455,-0.23903909185468752,0.4348358901608359,-0.42964059196728349,0.033392023345674371,0.20863532851128461,-0.14846284026189174,-0.31720528341146126,-0.13718071477865054,0.27350061805240938,0.12867643081518518,-0.13318854925980153,-0.046191993067068227,-0.26234137757099329,0.23717150343989488
121,1452,0.3962,-0.1491436152196047,-0.12383478187854639,-0.314896020055909,-0.040745193267945429,-0.24284563316698998,0.43122553050784324,-0.43080749135753238,0.03129680208766214,0.20033398685313469,-0.16074003676303927,-0.32569350229609589,-0.12298030130696837,0.26878287867493533,0.13197924443224479,-0.1337189991744282,-0.040810130455958687,-0.26078103001209146,0.24486704399466563
122,1464,0.3998,-0.15030529214280736,-0.12416434111038659,-0.30738551456346724,-0.048623289879255217,-0.24568726993652032,0.44474606104020625,-0.42843527018752653,0.017962532712960954,0.19901431971618488,-0.16396359754230519,-0.335256945170616,-0.10796617915057756,0.25811281096299121,0.12270783875044988,-0.11181698528087641,-0.02270586897061384,-0.26907474950919763,0.24665053473019607
123,1476,0.4002,-0.15632299254172805,-0.14905507040688243,-0.303920773646282,-0.055161421511637151,-0.2575186797858639,0.44070548560810124,-0.43109009182412922,0.015740020550743011,0.18358771383448158,-0.17467810896548031,-0.32971728519705384,-0.095035217740443476,0.26765569993560973,0.14300917070458111,-0.11051329246659131,-0.02744679545404112,-0.26543070314169015,0.22281036640621174
124,1488,0.3946,-0.16894893022891375,-0.15507454139435117,-0.30536848708238673,-0.050348822810141206,-0.25689700030253371,0.4408939807423719,-0.43078927421514357,0.010467502724959853,0.1721015318747732,-0.181448954065551,-0.32457693500537133,-0.096823181625677268,0.26669938519583863,0.14908953162417743,-0.098085959962958588,-0.03595956121242886,-0.26321561908387653,0.22527161510011989
125,1500,0.3916,-0.16579941123681252,-0.16013570702804542,-0.29894758006534455,-0.034962547021629278,-0.27229658006110929,0.44243713314468858,-0.4157775025511451,0.0017574294788968642,0.17919536371577155,-0.18282919105279744,-0.34287112431341482,-0.1087254213175407,0.26237553516822693,0.15832880738254312,-0.098618889250734046,-0.033420986215637383,-0.2584086319548114,0.20733283289200918
126,1512,0.3983,-0.17327802803955278,-0.16184028315251339,-0.30798898636550487,-0.033675472711927029,-0.26893752085940875,0.4467573702611764,-0.40762156681009637,0.0016310197775364428,0.16368904885570212,-0.19324218110316413,-0.34676130695323221,-0.094292540246983886,0.25395621688545833,0.16995379747233741,-0.094134470370124387,-0.055468875118700078,-0.2577047345184677,0.20383541669454427
127,1524,0.3962,-0.18081816632467376,-0.1574174304745678,-0.29570382358058966,-0.025403401359207232,-0.27125302863447276,0.4371281988611545,-0.41103596881313953,-0.0029265469842397569,0.16847226621807668,-0.19604840260664172,-0.35726539874459295,-0.085994077081374035,0.24979715948551057,0.17059653012808765,-0.11351677251379202,-0.052565210677757351,-0.25131599796640836,0.21009597338832903
128,1536,0.3892,-0.17662927632901423,-0.16153469469120829,-0.28899115796099134,-0.010462023329802415,-0.27590378739022936,0.43757792254593952,-0.4062493118571186,-0.0019404886902131655,0.17198921927091859,-0.1982574432690348,-0.35819501977113194,-0.07707961207777192,0.25326183176448031,0.18584715818341768,-0.11315563424529368,-0.060320431960195459,-0.2524930462872958,0.20514077633531577
129,1548,0.3930,-0.16646732914896609,-0.16559425557922658,-0.29459787664641451,-0.014394523908513731,-0.27148361442820435,0.43765523272015744,-0.40513065434168383,-0.0054583527951494147,0.1667595445911817,-0.20267225100477571,-0.34719172898741169,-0.082686769911234428,0.25315078574564726,0.18291592850760119,-0.12877499461580966,-0.052041194972700731,-0.2550955668023942,0.21327528698654891
130,1560,0.3826,-0.16358824554206106,-0.17142646561873937,-0.28552064357942009,-0.004834861745881539,-0.27711969968018396,0.43650147898464942,-0.39197949330306414,-0.00012154385689738895,0.16407922157681654,-0.20650006475192992,-0.35517736664362781,-0.083217176415367133,0.25732878827453542,0.19551792152496739,-0.12569876088153181,-0.067014957400593989,-0.25371361349818045,0.21455703520108949
131,1572,0.3840,-0.18663766534085002,-0.16667973767260136,-0.28658788703797389,0.0088867784771218625,-0.28453785558410133,0.43299053359016482,-0.37733090646675543,-0.001722228084766248,0.16915293828902511,-0.20799026069579094,-0.3619417165013798,-0.076145207870631573,0.24151755030614278,0.20901640497075555,-0.12983844630934338,-0.08052895178407575,-0.24116349029548736,0.21907539111512542
132,1584,0.3711,-0.18419942622867752,-0.16122981208372517,-0.29480032770779652,0.0057255920985213307,-0.289015254981923,0.42432103855188474,-0.38980599415349648,-0.0050709146897188109,0.17472797634095055,-0.2096980804442862,-0.36217421776040909,-0.072309548360858469,0.24361624535682824,0.21234165524331747,-0.13167871862871594,-0.081500703539710173,-0.22892626848100023,0.20569662960335577
133,1596,0.3844,-0.17982176314320392,-0.15274489222630291,-0.30807733396356679,0.0058113691882919006,-0.28830391671696942,0.42574761398526084,-0.39056726291591654,-0.010668456511538017,0.16757921204499757,-0.20647061943004788,-0.36575864288458959,-0.060032801040021545,0.23674171070001546,0.22596365785377351,-0.13295095734353712,-0.078955277493305748,-0.22555587756162906,0.19765706883138642
134,1608,0.3713,-0.17476303103993496,-0.14852858583428555,-0.29791895657535217,0.0019792272500088696,-0.28738748152061439,0.42066600013352429,-0.38816719877691863,-0.01088053186645703,0.16451724837668857,-0.19785035267219198,-0.36261463512819081,-0.070675288785284118,0.25107303042819684,0.23381248318200065,-0.14168033965830598,-0.089720476418123,-0.22947342788616176,0.20898389924295457
135,1620,0.3693,-0.16085812638249575,-0.13764519553942298,-0.28929429252331906,0.01254854181511556,-0.28476723174062596,0.4181275234016249,-0.39635957190359944,-0.0095227551077224637,0.18254046266819812,-0.20729848541750845,-0.35478766548566143,-0.081104225232162486,0.24424448084978942,0.23255299546578737,-0.15261162325751268,-0.0934392701876448,-0.23239930082985805,0.21415098956304063
136,1632,0.3690,-0.15281555509912459,-0.11689554598797149,-0.28891647594567005,0.017889946677166663,-0.28897204211335631,0.42941108096480846,-0.39637534894405024,-0.0083943930933890985,0.17415101840763239,-0.20778599132948494,-0.34039466510976618,-0.086819737939220362,0.24888518693257483,0.227825302150943,-0.15833486419666051,-0.094180785411618534,-0.24715804407081449,0.21478617009887052
137,1644,0.3705,-0.14431801965649521,-0.11713669775254112,-0.28366283005497045,0.027566379218449687,-0.28494348180468915,0.42843379068043363,-0.38335122001117655,-0.019431783320569197,0.1698687534202068,-0.22748031661381635,-0.35588277683139868,-0.078334152599196363,0.24620340952769759,0.24810242370463739,-0.16186689141264696,-0.087750328143514328,-0.24240482460103202,0.20143779936937575
138,1656,0.3727,-0.14815883801978774,-0.12217344485075203,-0.29134741154082761,0.035460038400008019,-0.2816862405766295,0.42607657533337689,-0.37797792899846372,-0.015462613534843126,0.16008930797718965,-0.23332011606648942,-0.36390789574427912,-0.0846003882017792,0.24640288863081086,0.24358732365396926,-0.17100437218078945,-0.079100457757753581,-0.23686080435778428,0.19683335035837454
139,1668,0.3746,-0.14269537704074675,-0.11125401314389551,-0.29897763167142927,0.044838917668107638,-0.27731120910382395,0.4292518598792972,-0.36041392244538967,-0.021715397260295932,0.17175303039305681,-0.24239788654527278,-0.36997737409952891,-0.0870626887813756,0.2450233410476067,0.24138859848182034,-0.17986703670088502,-0.066158981890491256,-0.23526016505414463,0.19348333443883184
140,1680,0.3642,-0.13808268506600679,-0.12833427430828059,-0.29196724130671947,0.048405820042763552,-0.28323188148834105,0.43001498228252649,-0.36798191872517955,-0.0059729587760743406,0.16392943792369621,-0.23359848676158537,-0.36006752156735283,-0.084870726211111067,0.24958281629811624,0.22618670468469274,-0.17441433241454232,-0.069413151592572941,-0.24605378628927854,0.2128907341658953
141,1692,0.3642,-0.14564697182305972,-0.10340882058314287,-0.29731369749634318,0.05001606936582511,-0.26762980913478507,0.42632749314823504,-0.37389443551036927,-0.0077961336580225438,0.16816659614329418,-0.22707674730795444,-0.37037276648253048,-0.0832860865027156,0.2508502090984292,0.21873109753793482,-0.18232508446554027,-0.075092345256924556,-0.23447209028094898,0.22816807967665523
142,1704,0.3840,-0.15466511969573585,-0.09611796751281107,-0.28901452212716644,0.041490158964714072,-0.26228722665416893,0.4363277138669589,-0.37701488322071824,-0.0098586307662151141,0.17110628983578466,-0.22305928434684158,-0.37016172028613809,-0.063978241404820127,0.25122223675670391,0.21042606396121843,-0.17249020078035121,-0.080333564749383787,-0.24234257818986135,0.23263582933615676
143,1716,0.3655,-0.17187271042161612,-0.095652690546548014,-0.28704051332458541,0.042283053950522294,-0.26066580050645644,0.44086822579116375,-0.37633747011022417,-0.0066896931563221219,0.17834918328862073,-0.21275402716466157,-0.36013934066685516,-0.064896594622671042,0.25654964221235321,0.19786328180026744,-0.16869460689898166,-0.074064577044722177,-0.25134515550657172,0.23734821925381228
144,1728,0.3808,-0.15632271362766478,-0.10323076301541367,-0.28119514973398835,0.042371079359256422,-0.26572602229914022,0.43384327457746746,-0.39365163691757693,-0.0058317918179153338,0.16659026431883692,-0.21146096747230209,-0.35500517373232837,-0.076666051450289374,0.26710928134014672,0.18896360935307785,-0.16469159078012238,-0.07605921725700325,-0.24925557375526744,0.2467267018519585
145,1740,0.3860,-0.1499649420446767,-0.10067026314799044,-0.27281139004417,0.062152014910149385,-0.27933628274666422,0.43868603288952635,-0.38908142204263851,0.0067368098368731323,0.15776805228357335,-0.21576999293869956,-0.35751690410999404,-0.075116141494772359,0.26092140032953365,0.18075132257955726,-0.1584855699361904,-0.071323154966149618,-0.25173454896029873,0.25252425249094856
146,1752,0.3763,-0.16185876497180998,-0.11121103434522547,-0.26626090088753607,0.051474466974146371,-0.27810637909494268,0.44276354736002604,-0.38568853213499193,0.00451659495500512,0.15084594330015216,-0.21060886946881732,-0.34559222670771839,-0.078384176737829714,0.27652544205027046,0.17852214005898143,-0.14718002693996332,-0.075980559240064985,-0.26094522764292949,0.25644326602535911
147,1764,0.3744,-0.15959271427499966,-0.11468526626412545,-0.25997530158087,0.043474121221098151,-0.26893879133062976,0.44466840567281485,-0.38145076651770865,0.0094445176897445474,0.134991238146731,-0.21583486617607384,-0.34811815912851796,-0.081763973259223563,0.2757824586852029,0.18521525067024841,-0.14922097960645236,-0.0873710205180678,-0.26246887215857523,0.26772147222452453
148,1776,0.3696,-0.15564223195709162,-0.11635929760179764,-0.26058421238487356,0.045012758410920263,-0.2719785433768111,0.44359326354489104,-0.3666245625729565,0.010554100679256063,0.13367143415067365,-0.22141625152508465,-0.35707117657393539,-0.06770762412625296,0.272039035466945,0.20876170507399677,-0.13690245822666222,-0.1028633102949138,-0.26253685276775718,0.26252286292265875
149,1788,0.3695,-0.1536822712576664,-0.11382885293248014,-0.26782020999615452,0.041040439380835868,-0.26494900723351916,0.44604183086164023,-0.35712586924176082,0.013716743196939975,0.13407613286255207,-0.2069168432528378,-0.36087320742659257,-0.069448955873272225,0.27187219379450034,0.201661737188384,-0.13998391535499644,-0.097396864760301169,-0.26187716544802642,0.28687481708800555
150,1800,0.3725,-0.14276435876296437,-0.10676971402047741,-0.27621292410851217,0.037306600159744858,-0.27333980293251775,0.43418638864404918,-0.36432303631921004,0.017605348913145909,0.13061043956389543,-0.21706868322535003,-0.36486868540813056,-0.065525505953181171,0.27063939352890493,0.20555817469690021,-0.13209520714267506,-0.099062044114476638,-0.25144453252097182,0.28848014811230405
151,1812,0.3625,-0.13436261409520608,-0.10825068036472518,-0.27071601644960658,0.040697374325848135,-0.2805202531180398,0.43291707436213944,-0.36084854446102665,0.030714627144406044,0.12498604220431583,-0.23313053651724511,-0.36927414460050478,-0.062960763638017156,0.27307058277052271,0.22750097588429308,-0.12378929417615225,-0.095047317487182634,-0.24669132755366349,0.27215336749433378
152,1824,0.3727,-0.12412047584047257,-0.10149131794736917,-0.27142729668299004,0.032474156980857517,-0.27540271315826487,0.43237430834748736,-0.361336526415742,0.026250122266689092,0.14667032630487742,-0.23918660772734371,-0.36063017294165306,-0.058949218227925468,0.26909590006637107,0.23586572830412872,-0.12530044566736154,-0.093849943363839949,-0.24974779601490091,0.27387923850122964
153,1836,0.3706,-0.11588239607452809,-0.0994032016633859,-0.28883854505339673,0.018201372511365502,-0.26923752112917132,0.43688983873413118,-0.36157020712159788,0.031147637589878291,0.14683388701987959,-0.22611402054527513,-0.35985782570298619,-0.062412289790552009,0.26631509433088324,0.23007890164669056,-0.12714982779691003,-0.091084322035713691,-0.25451856185203386,0.27589907925101387
154,1848,0.3640,-0.11471420963453129,-0.1106634658104131,-0.28590818211237878,0.023131108332115995,-0.27807994868850272,0.42969485941614277,-0.36991343392688342,0.038862278782421336,0.1369018918371869,-0.23252657313526898,-0.36233689455241475,-0.054761652432460582,0.26422372594195059,0.22827503785703623,-0.13499534103088767,-0.10565845710595094,-0.24687432267257325,0.263757657742678
155,1860,0.3664,-0.11001910595476221,-0.13382459500587604,-0.27503109829316968,0.0330375004934396,-0.28707364462520607,0.42506669270517783,-0.37295810513871136,0.02672862266677558,0.14291254184382629,-0.22102110358101104,-0.348033955226895,-0.060677190927495607,0.27112264130171215,0.23436044100850836,-0.14869677204488835,-0.11547805646705624,-0.24927299649249787,0.26011143353440408
156,1872,0.3756,-0.10661476415997194,-0.13201760145675831,-0.28100343591072369,0.025454337510629376,-0.30184338691377416,0.42109983614370772,-0.36632246228976773,0.013914233705515635,0.13665731976558146,-0.22005518709269048,-0.35753689212244033,-0.064691816968039217,0.26795978731383319,0.24288445893978608,-0.13644794761398438,-0.11112267417351988,-0.24308825119158858,0.25442503866282984
157,1884,0.3720,-0.10916963977805856,-0.12551203314154957,-0.27856901481638752,0.021154416582512939,-0.29967350590560821,0.413579084314613,-0.38594594251703829,0.0077213838456808006,0.14956555980172773,-0.21964646460916662,-0.37545258436030177,-0.0579195314062794,0.25210970867927157,0.22384304013929576,-0.14432517955858609,-0.10224020229504345,-0.23019573012747693,0.26124881113455989
158,1896,0.3754,-0.10948758792107539,-0.13640964463226754,-0.26673406452054732,0.02276233942294284,-0.29993960163210021,0.41871698517623279,-0.37977983022323941,0.010341713432155977,0.14341212178363621,-0.22683083469611434,-0.37140597428765509,-0.061867505865938081,0.25350151572195362,0.22762663783416906,-0.14055640745092621,-0.099410882678944726,-0.24070975385685914,0.2591059155681435
159,1908,0.3815,-0.11273228766660057,-0.13864032079472319,-0.25650058102762119,0.013792978107745504,-0.2973029874988703,0.421165224503945,-0.38256467774308228,0.00015295231249370589,0.1518739320179546,-0.22624813303241315,-0.36844745265856094,-0.0634879513065931,0.24696292194518676,0.23242035614065826,-0.14476989763201492,-0.092012354664997381,-0.24610874397754007,0.26291779309256974
160,1920,0.3737,-0.12016783970245702,-0.12591911861170607,-0.2666503725777456,-0.0034764437900455811,-0.29756124443101656,0.42154843544321197,-0.37027652917866771,-0.0020050790060801918,0.15658102146461128,-0.21913221943059388,-0.37421034124597807,-0.060370324759709444,0.24838302122006603,0.23418550097458463,-0.14412742218854191,-0.074586928221199181,-0.24224179224117892,0.27353696472861722
161,1932,0.3726,-0.1263023573769198,-0.12341150054348411,-0.27308990554405443,-0.004627469904985383,-0.29090487509657126,0.42191977485191851,-0.37214704334628407,0.0014449321105011019,0.16030508489246648,-0.21472809416018571,-0.38078614943408268,-0.057366279630568631,0.25820892423399827,0.21892817122907754,-0.13784480288043111,-0.066353332111963328,-0.24034991358204985,0.27343210412773528
162,1944,0.3766,-0.10893358968027014,-0.12048733571430706,-0.27926551720197834,0.0030118207135571436,-0.2933326347780616,0.4210824914296632,-0.3707584255751939,0.013114774485689179,0.16086856751431422,-0.21875762885041367,-0.37752953147415719,-0.065507017350245333,0.25537394104034838,0.21957510191198068,-0.13722419853392026,-0.0771754791246522,-0.24409970670476797,0.27036486421145856
163,1956,0.3766,-0.09921122355829444,-0.11410511966087013,-0.2751114469501062,0.0040395929968863858,-0.29280002004659034,0.41635392618492922,-0.38421899520333652,0.0096063027897645842,0.15919623211141065,-0.22695595434399474,-0.37417191663381505,-0.0646101356054314,0.25744664958757651,0.22328480497764222,-0.14332468259645148,-0.079469473056971482,-0.23892812072820163,0.265706223942438
164,1968,0.3656,-0.089516300531019014,-0.099940265680022608,-0.27587612829304742,0.0043617329801703955,-0.29567572797548797,0.41350766423648289,-0.38345273328569252,0.016283147898459159,0.16589784848400627,-0.22768328272056909,-0.37510365082809038,-0.072747454179145021,0.25859738603341126,0.22581923766507736,-0.15208901316007889,-0.072467771199627468,-0.23373217388164905,0.26910843677730784
165,1980,0.3658,-0.085259937816033873,-0.099966492700263962,-0.26908411669789406,0.0096198615140029187,-0.29679558380227,0.41501193684190568,-0.38391303083929607,0.015726257316451945,0.15531655260902344,-0.23805572396703656,-0.37744271254319139,-0.072808628945358611,0.25597347148785271,0.22593217128518045,-0.15057411311825272,-0.080293059934814975,-0.23521001532159252,0.26739989792199337
166,1992,0.3678,-0.095880564487832623,-0.094611069178602486,-0.27469582485956051,0.016487684816660044,-0.29784773699721084,0.41656537397474214,-0.38552665118948254,0.016096752550800363,0.16143366653108165,-0.23615189184222982,-0.3756861416289286,-0.074383605848839685,0.25402173610602108,0.21669588054037531,-0.15040961668234742,-0.078732947214063986,-0.23279372671795487,0.26495464075282754
167,2004,0.3629,-0.09696166903360208,-0.09614806952668177,-0.26699646689261514,0.015483391779510271,-0.30223778030643084,0.41911280189610645,-0.37874567788001851,0.017650044152752592,0.1613527687051716,-0.23485668197941145,-0.37231526114559244,-0.0673874039722725,0.25570881635808368,0.21973026617829158,-0.15588728560111109,-0.07987801464186027,-0.23770926137022749,0.26970722707445288
168,2016,0.3634,-0.09955362901264872,-0.10572812037549735,-0.26137685474144895,0.020243925844259689,-0.30520857673082386,0.42453506054166584,-0.37755551811254634,0.013382217483895342,0.14830572242047443,-0.24391986025534471,-0.36571072281665429,-0.067463127057369149,0.2618465118749489,0.21579627086757786,-0.15355207032403542,-0.080265317256924887,-0.24165827958231653,0.263660777636684
169,2028,0.3726,-0.098596530404476565,-0.10224667154299154,-0.26069272556070539,0.013573626070144697,-0.30748370492339772,0.42293883400490728,-0.37673046687321965,0.015715289138203616,0.15411803028346824,-0.24062455797846741,-0.35896169107004772,-0.08015991563651309,0.26000810538738917,0.22163799125073946,-0.15099578226265825,-0.085420454745154945,-0.2438948486098137,0.26692846586854463
170,2040,0.3674,-0.10148413115634701,-0.093802783635963921,-0.26058172407999891,0.022548397498985226,-0.30203101179464709,0.42548033542160835,-0.37357767253215218,0.011076393774204966,0.15834729343140255,-0.23956962161592463,-0.3606120314012895,-0.085322491366198849,0.253183563639599,0.2256458011018676,-0.15737570113973048,-0.0820144519984732,-0.24731776909793135,0.26918339102115107
171,2052,0.3690,-0.10024323802436221,-0.097083645969462312,-0.26397674181679787,0.033402992697872842,-0.30526213803239649,0.42846024032242319,-0.37655759062419436,0.014578492905447391,0.1565746032864001,-0.24476593260899418,-0.35295954197306773,-0.085148925033642034,0.24715595082282732,0.22466713267889016,-0.15150684411637716,-0.0816610805923815,-0.25108472712901253,0.26360303063921459
172,2064,0.3659,-0.10098333763587329,-0.094491677082952946,-0.2647504726223604,0.0285707176093058,-0.30651856228118463,0.42875825796994721,-0.37482359042153812,0.018201520820040267,0.15984536201667354,-0.23969937260094279,-0.35616098004169511,-0.081700382377959818,0.24025609986938959,0.22406178258844978,-0.15158570688509473,-0.090089928608374364,-0.25177050848471627,0.26734338066648144
173,2076,0.3679,-0.1077605134482033,-0.096114100450754109,-0.26759169743736777,0.025446413038901994,-0.30257744312175622,0.42897250305456197,-0.37032185969013126,0.018239159809200947,0.16256760661345823,-0.24216632079270847,-0.35818716414676804,-0.0767968098585717,0.239072776189167,0.22822554199783912,-0.15216728610775559,-0.091326710266197847,-0.24912127269244125,0.2661870667490196
174,2088,0.3722,-0.11521912206948999,-0.09272648016930643,-0.27132055669917526,0.016257476295327034,-0.29940615232210621,0.42766872764685981,-0.36739043649421088,0.014172599308438736,0.16523750549589891,-0.24447166232799006,-0.36032563031486131,-0.072204858100466521,0.23910797464184969,0.23212503800130571,-0.1531800018542257,-0.094259665135820139,-0.24423356917040465,0.26549163632026046
175,2100,0.3669,-0.11445546193272013,-0.099606503714716313,-0.263710513304574,0.021360707335745337,-0.29649096793942392,0.42886019378066081,-0.37125455976161192,0.021586489348699247,0.16357308354401398,-0.24926340301488165,-0.35797712474664245,-0.068809160561301166,0.23991409576916717,0.23415098705312881,-0.15076172198553955,-0.098077186902262331,-0.24522956053346798,0.26335565692980684
176,2112,0.3665,-0.11370049490445934,-0.10230755270156687,-0.25874860075095168,0.025410394351138916,-0.29630848732784809,0.42560698523584967,-0.37615152665818935,0.021556992654291739,0.16170098168273825,-0.25540333884005262,-0.36012804947647892,-0.075540983164652339,0.2398260682617134,0.2280762092245314,-0.1519383517242672,-0.10192174564149603,-0.24461835684370484,0.260299623496186
177,2124,0.3714,-0.11778008385459021,-0.10413120404461801,-0.26368484327043279,0.028296139022962293,-0.29189105605139948,0.43025751983084609,-0.37541651193382619,0.01851533544178156,0.16403843125691248,-0.24918036418951203,-0.35645655841026408,-0.076467208308541867,0.23886869258179189,0.22556561847691742,-0.15124336299368232,-0.099065990115900851,-0.24614592144813041,0.26385234744579383
178,2136,0.3606,-0.117840350656098,-0.10469204995306081,-0.26604726450875493,0.0217823720075866,-0.29080143741235692,0.42805061393249527,-0.381587454808878,0.019478760971862453,0.16019448030095082,-0.25292246886404784,-0.35360364828800084,-0.081393880874140831,0.243180224291927,0.2170660768487607,-0.14985568348276024,-0.097959294657736118,-0.24426915599471669,0.26449284148452062
179,2148,0.3700,-0.12017847382872518,-0.10643152486230882,-0.26565033166462421,0.019406653664924622,-0.286243184617356,0.42792669041911247,-0.38441520552353303,0.015001631438996132,0.15650100988622737,-0.25696382890130592,-0.3508375267470929,-0.077162128812432451,0.24834702163597105,0.21636851779324284,-0.15192451501001059,-0.10029496807525587,-0.24328589899720757,0.26346790727624747
180,2160,0.3671,-0.12487210377485575,-0.10721516115958846,-0.26670535628279185,0.019107562455964316,-0.28106596223478292,0.43031463619848942,-0.38092004156563952,0.007803260122116653,0.16007449790958753,-0.25274571607335244,-0.3556145480401029,-0.078179028881231072,0.2411240877768078,0.21611399311364862,-0.15414396884233186,-0.10247802498226997,-0.2460779783543797,0.26400870154106848
181,2172,0.3571,-0.12296653459025375,-0.10958552180019902,-0.26652603116784,0.020246937598915112,-0.28391637217498605,0.42778467768715112,-0.37809789314979164,0.0065836385856843337,0.16075256337629848,-0.25746803270597768,-0.361757253137587,-0.0782095207461463,0.24481330235101975,0.21383112464220244,-0.15083355074962917,-0.098013090099849487,-0.23948250043878444,0.26349140872215104
182,2184,0.3627,-0.12590145000863151,-0.10897808444307586,-0.26437194009676185,0.016039640521450228,-0.28156067175428084,0.42964978829062839,-0.37277200071474065,0.0015510749784083959,0.16368417166155758,-0.25240846534079481,-0.35697216945558841,-0.083330588674339109,0.24738401873949403,0.21867530776371949,-0.15153867255625844,-0.10072951292483275,-0.24244180897198694,0.27027463608436203
183,2196,0.3616,-0.12424489482543109,-0.11084643283268643,-0.26257324989399439,0.018604569106334252,-0.27545250518147624,0.43284661653527734,-0.36477669113665789,0.0014935621046832668,0.16585493688685832,-0.25731027583200494,-0.36044571098097639,-0.082792859824510651,0.24494631340042666,0.21842320815696764,-0.15576065892602353,-0.096868597359259415,-0.24396764324177456,0.27319953633241634
184,2208,0.3592,-0.11553335941406877,-0.11052078315418724,-0.26254578720304184,0.013105919252984079,-0.28355925246896879,0.43100496973259717,-0.36161916401957556,0.0070581625193288861,0.16434773089954843,-0.25961711851493552,-0.36057205650846536,-0.083857747182531542,0.24497012447573982,0.2254860990829281,-0.14853586040209024,-0.099184104339313767,-0.24524058253658804,0.27066523260896508
185,2220,0.3600,-0.12319005338683894,-0.10993240077681202,-0.261678808535431,0.013667476119741477,-0.28434168628970924,0.43237668496538206,-0.35876251218968164,0.0052114510772918567,0.16561853102436247,-0.25534810750849557,-0.35611343319794075,-0.088532343786928452,0.24823263316299465,0.22617819860871358,-0.14769564838363466,-0.09404656951154966,-0.24706405150908259,0.27394685151331494
186,2232,0.3627,-0.11959865447785976,-0.10478087829396789,-0.25849031695571778,0.0062054614117349922,-0.28213269456936091,0.43239717087376695,-0.3614693833320462,0.0051247110243544123,0.16485535929485989,-0.25365145714112497,-0.35062981073407368,-0.093693120228796375,0.2547189419300277,0.22390262235749123,-0.14518156253646042,-0.08671499995557129,-0.25090674161451038,0.28298843863168777
187,2244,0.3666,-0.11861672314987458,-0.10939376977273696,-0.25906022812972263,0.0051547485387780445,-0.28692272910534417,0.42773806678242665,-0.36224429319238965,0.0044774711016311629,0.16507730896767844,-0.25293965646258154,-0.34986510512146829,-0.10195769799750218,0.25827969612496671,0.2299156077440507,-0.14517845715877123,-0.082007042254839388,-0.24551421847971933,0.27944686704791
188,2256,0.3625,-0.12033998275524026,-0.11165528843581864,-0.25996616959017982,0.0019777763787232369,-0.28305428497381546,0.426931705948957,-0.36542132839170849,0.0039025208934140893,0.170576518018693,-0.25486921659266787,-0.35126361669318523,-0.097181177519546316,0.25397964591823524,0.22610984869619949,-0.15216193065740036,-0.082249705379486129,-0.24400641846993656,0.277558425709152
189,2268,0.3646,-0.12214191621626232,-0.11145991903738398,-0.26090494204750253,0.0044054736539571124,-0.28254733111089614,0.42712751991332393,-0.36640673270340796,0.0053862283378558916,0.17073747113571183,-0.24815210384612998,-0.35226202228066478,-0.10241929196219283,0.25450231974890691,0.22461537428653494,-0.15417811903886991,-0.084789860722784119,-0.24498963728109538,0.27556344717443765
190,2280,0.3589,-0.11665829747002367,-0.10951329649695399,-0.259930607806869,0.0064054690608282231,-0.28674414713890761,0.42781801055598528,-0.36442547985903612,0.0099689439051288461,0.16974782842616,-0.24653716174284787,-0.35323650027535608,-0.10877496421413618,0.25592106627516326,0.22343237281115777,-0.15659333165820133,-0.079326816602285813,-0.24456270884849374,0.27567141683606544
191,2292,0.3631,-0.11506243683533217,-0.10907809323112483,-0.25675723650559351,0.003999480078983611,-0.29228812127330445,0.42956442471063255,-0.35936321259577741,0.010804903944439607,0.16732877248590827,-0.2484639203243893,-0.35296438170120803,-0.1122431374719851,0.25821363876885389,0.22909622703887295,-0.14977310680564015,-0.071603553212285578,-0.24760748718964026,0.27258332804764679
192,2304,0.3633,-0.12202257758137192,-0.1063750475235249,-0.25410628863482931,0.0013693811697476103,-0.29143351606326051,0.42956492771373295,-0.35745793087977978,0.0091030403840259948,0.1710918861481816,-0.24524072514744935,-0.353835449111534,-0.11463106486348558,0.2611045130515785,0.2249269810479162,-0.14913446249473056,-0.071729136644884325,-0.24589370629534194,0.27711729866731494
193,2316,0.3621,-0.12403907133416366,-0.10377177858865047,-0.24858434923314943,0.0053900774154941374,-0.29286054771440606,0.43043554512382687,-0.35540992410954125,0.012994095562187811,0.17382457264607773,-0.24653310600034062,-0.35183202955831133,-0.11659050976549447,0.25846188171191692,0.22368919714067334,-0.15536989491323075,-0.075827874391888719,-0.24750937236302417,0.27880971313584518
194,2328,0.3625,-0.12220415659099311,-0.10760904617181974,-0.24935517934307205,0.0065137053143841687,-0.28966655634329014,0.43120000757434568,-0.35658678430639879,0.014113167248148421,0.17171114749575822,-0.24066163596815779,-0.34797726376278676,-0.11573508613673081,0.26514402909384011,0.22323993210984089,-0.15616014938806852,-0.073386368344408814,-0.25076984864089746,0.28087681720326563
195,2340,0.3651,-0.12513914062751733,-0.10814488152968144,-0.24799757320161228,0.0038324162824789273,-0.29101079227741855,0.43094988400086043,-0.35603327700895837,0.014988928881106688,0.17198260012913211,-0.23803604433115647,-0.34959705721566647,-0.11877699757064168,0.26170746052685967,0.2207817434800074,-0.15321997722976083,-0.072559748655064718,-0.25179437226680684,0.28514848735762044
196,2352,0.3649,-0.12580636120934571,-0.10730309992578571,-0.25004802863584108,0.0048751115919546933,-0.29298028095093431,0.42834581436212937,-0.35546640897139331,0.014457252998901226,0.17595609059885745,-0.23769926239999584,-0.34651316847285046,-0.12131887662059854,0.25962171107253507,0.22758001871972677,-0.15617925268784663,-0.075451306191327144,-0.24964784266568379,0.28253388757031161
197,2364,0.3588,-0.12901255932558958,-0.11702746894969937,-0.25171953941860792,0.002549205558197942,-0.28870102449703816,0.42918188629454024,-0.35743189522080093,0.012906749169447361,0.17604224818530614,-0.24379535138003119,-0.34802133816833386,-0.1174848001063416,0.25470706953152938,0.22064652560400902,-0.15584982203686237,-0.074806467639155674,-0.24906883687088777,0.28154967927304453
198,2376,0.3679,-0.13452610773203136,-0.11249312524771925,-0.25241022106169619,0.0079934061376198875,-0.28783286105005723,0.43229077104742325,-0.35353436028906476,0.01351138739517556,0.18254520527975315,-0.23759302617188569,-0.34917493821951884,-0.11436338909196808,0.24985595544817185,0.22586531954556938,-0.15699601451204415,-0.072410351727073038,-0.25090243911821297,0.28101499495352922
199,2388,0.3653,-0.13747589416368902,-0.11457835438280085,-0.24880986569881888,0.00471001461688815,-0.28395449444377269,0.43398602166295125,-0.34546239981670279,0.020373550029519766,0.17931348297636204,-0.23984387008175467,-0.3496491308218192,-0.11197313178081669,0.25352350059812062,0.22943871521183573,-0.15538459984493985,-0.07365992740817115,-0.25198128554066679,0.28706983511036616
200,2400,0.3667,-0.14064132928718612,-0.11325572837678799,-0.25174732736926186,0.0080531726469080956,-0.2838885312516265,0.43449944708423727,-0.34057495427597745,0.013834379763335404,0.17678031982525166,-0.23908558145998909,-0.35360758299078882,-0.10959142106104733,0.24502721252125434,0.23291286518933149,-0.1553038602394993,-0.069765940031263768,-0.2522771326301555,0.292563277738387
201,2412,0.3663,-0.13612112551944722,-0.10733674993921211,-0.25224882006130045,0.010272353338615583,-0.28586740222372053,0.434822109496993,-0.34166048036923286,0.011728863997224271,0.17430225843990899,-0.23857099308530044,-0.3537244922820858,-0.10880459538166252,0.24673582324376264,0.23052467414532057,-0.16018918346188951,-0.069777747209577662,-0.25351589350350556,0.29174647864065612
202,2424,0.3633,-0.13823826114345356,-0.10891107657279948,-0.25063117244556166,0.0093589496450567477,-0.28300169556380056,0.43500102125001511,-0.33961216701202335,0.0074342853633080092,0.17709989560914183,-0.23854209127581424,-0.35633304437971214,-0.10426590047065423,0.24421811366086971,0.23106137227455378,-0.15954052575188363,-0.074216170121874536,-0.25223565364589956,0.29516711499693993
203,2436,0.3653,-0.14230582239595055,-0.11032254573059139,-0.24810535962650931,0.01139405386967648,-0.28491393027204831,0.4362081661335947,-0.33898725098608573,0.0055285381845431121,0.17635562107520678,-0.24046654229328135,-0.35448965979666863,-0.10520865433536691,0.24377418912083967,0.23042343399686166,-0.16170166601395888,-0.07420048913207819,-0.25150356199311114,0.29338609415862626
204,2448,0.3630,-0.14129536270696919,-0.11072211431499726,-0.24420407020015122,0.0073500733294675751,-0.2866475666643441,0.43657359495757592,-0.33669584284837994,0.0052599937656357225,0.1758967031539867,-0.23865933351342963,-0.35598509308765014,-0.10252522172794173,0.244548212709985,0.2340885511477574,-0.16697329227719832,-0.067623790738329512,-0.25224688863872841,0.29278312311368782
205,2460,0.3617,-0.14013312952298829,-0.1090775669248437,-0.24289800085240945,0.0072624025431638059,-0.28825736372542016,0.4338412949593769,-0.33725216782225725,0.0041520569565667983,0.17663620873571209,-0.24127489020930776,-0.3586937318193244,-0.10414870533416026,0.24617350511852124,0.23320167320010518,-0.17324871046502913,-0.0683870847650368,-0.24868661963761712,0.2890116574433505
206,2472,0.3611,-0.13374558372905609,-0.1083355644775349,-0.2494656935761137,0.0093418693030269864,-0.28536407659603696,0.43350432536695516,-0.33688446465514937,0.0017733477005171202,0.17780313660856453,-0.23718246453893868,-0.36351778798291629,-0.10329494528543892,0.2430765423990815,0.23003685983204622,-0.17745170413576622,-0.06563581661545885,-0.24832844723200398,0.2910284025364212
207,2484,0.3621,-0.13377183588313526,-0.10716332485709418,-0.25335272450588636,0.0056167074839133914,-0.2802259862246142,0.43439921833454076,-0.33838805943098821,0.0023313648407713929,0.18120835624141132,-0.23523647474659432,-0.361031442492949,-0.10504425444151917,0.24825301315225143,0.22803801823983702,-0.175375163192418,-0.063484484763453447,-0.24976971180045757,0.28970228883782384
208,2496,0.3620,-0.14394673612992578,-0.10755208450231181,-0.25248093117241877,0.0012541515305892117,-0.28035244137113957,0.43657017050631969,-0.33376493692116688,0.00025269637475303991,0.18427693055270722,-0.23063665911113884,-0.3624394090788407,-0.1026510006830047,0.24792864542889878,0.22726136297336458,-0.17552965527208036,-0.060765490716473858,-0.24961313887409389,0.28982344314252617
209,2508,0.3550,-0.14221851105475924,-0.10517957430743448,-0.2519172202572697,-0.00046828063358169824,-0.27889629404353916,0.4359671793145139,-0.33510204638770891,0.0026079847881946509,0.18143242188092137,-0.23307663234932896,-0.36506895814153256,-0.099449102639651024,0.2504785414915906,0.23172729131775424,-0.17365675088459875,-0.062414860643255167,-0.24896018139296108,0.28624235565468759
210,2520,0.3581,-0.14022148876963891,-0.10493349088750881,-0.24947149912467448,0.00050276798471888,-0.28002092989128008,0.43643918457072467,-0.33404113462350887,0.0017142854219948916,0.18634184882829102,-0.23692138069546026,-0.36399563837141163,-0.10188913241775505,0.25002497433759441,0.22830883473815589,-0.17328400085218185,-0.063931060158933323,-0.24954678678459002,0.2853745162795715
211,2532,0.3556,-0.1475898506192847,-0.10321256980449091,-0.24868700085011275,0.00085962904335558669,-0.27556833726463742,0.43577674032550889,-0.33070684084443297,-0.003491189746356206,0.18487624951850523,-0.23860799380742459,-0.36320661715281044,-0.10505248567341413,0.24916962973424445,0.23027442612279464,-0.17662851937426052,-0.062438525936695292,-0.24762993138700437,0.29062393131994835
212,2544,0.3553,-0.14942404468198459,-0.10376901542642179,-0.24468993517628318,0.0021382793345261861,-0.27631931610822075,0.4370818127589286,-0.32891593839548755,9.2482598461142838E-05,0.18839169524893198,-0.23924700975710744,-0.35859542382198017,-0.10940766354869529,0.25346538760686071,0.23216140326283186,-0.17324727168441617,-0.062791857221164246,-0.25048439433761166,0.28811007284347423
213,2556,0.3618,-0.15325656356609837,-0.10473188251076633,-0.24204171428550286,0.0003317022147425476,-0.27693494868773055,0.43907086052263788,-0.3255600110453013,-0.003275487167861526,0.18876975648543329,-0.23436950991110392,-0.36319610985016132,-0.10978786834187343,0.24900773211695398,0.23080157899157239,-0.171385705135287,-0.062095558673015951,-0.25252648716436626,0.29044727179556418
214,2568,0.3527,-0.15824242239118091,-0.10452098676271077,-0.23913188561953463,-3.3548187769737216E-05,-0.27584054346028591,0.43767942517894093,-0.32487879613334114,-0.0054136808226855635,0.19324779938038011,-0.23036141642294442,-0.36526475366476346,-0.10676217576928618,0.24935225040224906,0.23184132160707493,-0.17325462658572105,-0.065096606132205914,-0.25065751995084162,0.29171884584481095
215,2580,0.3606,-0.15886102992024007,-0.10565539822100777,-0.23582671930447632,-0.0021264647001617153,-0.27724891909182031,0.4369305355999879,-0.32397638946897361,-0.0080237841077496746,0.19349262909882667,-0.23001223692709546,-0.37068639413778104,-0.10730622350065563,0.24883012330855733,0.22859053848181377,-0.171758121177392,-0.062510199088818372,-0.24897592583621364,0.29312368308911879
216,2592,0.3575,-0.16326234553943023,-0.10604896459432751,-0.2338011408184365,-0.001705890943049684,-0.27898425781873842,0.43688733152269521,-0.32620743856396095,-0.012576214680536088,0.19284277094396424,-0.23425112437679887,-0.37201981409492674,-0.10878392246361916,0.24705479147828541,0.22766750336271191,-0.17140636687659241,-0.060978476767802929,-0.24743254505847562,0.28669180414223372
217,2604,0.3568,-0.16160401173086458,-0.1079310039982202,-0.23552726304923191,4.5845058329542645E-05,-0.27764754784376194,0.43769077041224108,-0.32931571248151587,-0.012357291508857031,0.19580546852266045,-0.23259420490054841,-0.37154878195650992,-0.10631160952967046,0.24223374405829343,0.22628893983566806,-0.17089285209330862,-0.066607706411945591,-0.24920170508105344,0.28575518662915012
218,2616,0.3643,-0.16360159241778524,-0.10852203237374115,-0.23649267673750227,-0.0029696546515098061,-0.27836156066912021,0.43797760471805874,-0.33067767602984616,-0.0077785465401333832,0.1976739412170046,-0.22998744803801807,-0.36922781096391355,-0.10893397757065769,0.24331996734184974,0.22468203716413065,-0.17365575713509571,-0.062243670099550376,-0.25004254566013795,0.28294868048797323
219,2628,0.3617,-0.16802127361337799,-0.1071788500262526,-0.23431888010672192,-0.011495055813908781,-0.276926442058378,0.43791304301533196,-0.32939218666043979,-0.010882346241908059,0.20001309035951334,-0.23292512029665202,-0.37244479066230896,-0.10544056603845206,0.24251921343749047,0.2252825805260327,-0.17083416396630927,-0.055890947433257974,-0.24812945792093907,0.2831527837331464
220,2640,0.3588,-0.16367963412362879,-0.10950295768974908,-0.23381406773282998,-0.010342526621168998,-0.27721543900214596,0.43513611450476314,-0.32969227618809149,-0.0063960368741627447,0.19935016665700128,-0.23197736580593173,-0.3738147914514362,-0.1063216349216866,0.24388323206452558,0.22949556461642104,-0.17178411975536198,-0.059416123481875242,-0.246675426742492,0.28343339001257462
221,2652,0.3588,-0.16198594845627884,-0.10962049038195626,-0.23190651483151395,-0.0087637447400262559,-0.28065280525221875,0.43597450777572727,-0.32708731070480263,-0.0063272382545344107,0.19794669762998648,-0.23035904923551487,-0.37478430571866811,-0.10694298596414741,0.24381000054786714,0.23077497436100022,-0.16955111263009853,-0.058553285958224149,-0.2472746393252247,0.28541098328829972
222,2664,0.3611,-0.15935700777114306,-0.110162627568946,-0.23626858351929406,-0.0072085580122216433,-0.28187915292569249,0.43756294008095514,-0.32226810073082046,-0.0023232134757780027,0.19703192707467218,-0.22634880660411894,-0.37294341130229619,-0.10726833956616522,0.24450663092881003,0.23138693847401878,-0.17173687439601681,-0.056574137119560663,-0.2498553826245441,0.28698623841487431
223,2676,0.3581,-0.15726390507349247,-0.11153831830306125,-0.23666897201224663,-0.0085174979092966438,-0.28177977993432957,0.43764620365890172,-0.32246148044257306,-0.0029185248566747624,0.20008452696017992,-0.22482068959016188,-0.37422660255075424,-0.11071719689535975,0.24465037313050236,0.22759324188314431,-0.17053725024085042,-0.059044664059910726,-0.24991896578889156,0.28653788985898182
224,2688,0.3550,-0.15898132942884305,-0.11070373097854277,-0.23437166282429556,-0.0055479252606539849,-0.28081985835549506,0.43837085725182429,-0.32231516106565816,-0.00016713536447660155,0.20222503776393683,-0.2260812566702787,-0.37304798537927486,-0.10899141225702873,0.24315455080568615,0.2292705186669601,-0.17166436382465228,-0.060859997115948146,-0.25105095814483946,0.28532867364282982
225,2700,0.3594,-0.15797747793073047,-0.11073564569802638,-0.23266811306058677,-0.0073782261373956512,-0.28127720176352244,0.43796961831115211,-0.31843436319291318,0.0014618318034426417,0.20478517330290977,-0.22574578464541245,-0.37313807410978994,-0.10621760290407464,0.24648757132341853,0.23211590591206049,-0.1692201136945907,-0.061347128455603472,-0.25100518248190457,0.28737414208612166
226,2712,0.3591,-0.15866296162272378,-0.1136307349020521,-0.23584411780182982,-0.00926278728714116,-0.28024879233336131,0.43719990238197964,-0.31699460878012908,-0.0021668037832421735,0.20545325859209121,-0.2275906172196252,-0.3741526588290397,-0.10575562583542651,0.24564890363284878,0.23310688363906146,-0.16886762459924559,-0.059788109904091079,-0.24863811437899624,0.28640792380560615
227,2724,0.3581,-0.16397863219019884,-0.11478818402566592,-0.23502362218003572,-0.00870765829897231,-0.28181363624166339,0.43890120503560004,-0.318474442598853,-0.0018242207912221851,0.2046220981928534,-0.2271180557665575,-0.37193644806003173,-0.10533679954041421,0.24504650860534735,0.22933397799179306,-0.16624454595169591,-0.061976523694138905,-0.25030744615022649,0.28511676657118373
228,2736,0.3557,-0.16474207328920551,-0.11530956977141046,-0.232938672262663,-0.0082160191122908552,-0.2809705473145751,0.43969115118008717,-0.31583848353270833,0.0015831774915596398,0.20391718291947242,-0.22767264980030891,-0.37279396404342607,-0.10706166292990754,0.242570657687714,0.23144351255463907,-0.16671385372710762,-0.0654080954695548,-0.25075116834140465,0.28602280089743148
229,2748,0.3555,-0.16234770041871927,-0.11309646790741755,-0.23734697284728676,-0.0061287162673264554,-0.28090229695247121,0.43693297697219458,-0.3218298596945478,0.00082417185682716223,0.20308295066057636,-0.22554902294990378,-0.37086579713370521,-0.10840720142599877,0.23976467686041694,0.23276713241494099,-0.16959850005982077,-0.066198989606772632,-0.24945657416182121,0.28707371692200156
230,2760,0.3581,-0.16010889589955346,-0.11465261271210593,-0.23662423966157264,-0.0066337210597139295,-0.2816136731728438,0.43621364198768792,-0.32137539150560623,0.0024940377044696924,0.20278654581598243,-0.22407834803194523,-0.3697417004456604,-0.10674409649185367,0.24118770311199686,0.23534813325923432,-0.17006891437615651,-0.066495716989235051,-0.248902244740216,0.28954937622770471
231,2772,0.3541,-0.16032414553121882,-0.11326968900505599,-0.2393883216438451,-0.00639273270896367,-0.28116740497824727,0.4349236755020548,-0.32194573852715153,0.003227974836129919,0.20351648166572503,-0.22409028033891298,-0.37004556792738585,-0.10472825582941858,0.2408969417487544,0.23751139896759813,-0.1705759903199015,-0.0664265780055125,-0.24748563065312748,0.28877084477288506
232,2784,0.3587,-0.15978100933013262,-0.11215816682133764,-0.23964001630982512,-0.0041432925531617731,-0.28059095160956732,0.43526546626092261,-0.31919105544686449,0.0051131700818560074,0.20324582899562155,-0.22562876937478296,-0.37103631841252704,-0.10664751849835212,0.24161336650628654,0.23535136343804758,-0.16880353435577866,-0.067131903349948063,-0.247063616197676,0.29168040992371719
233,2796,0.3579,-0.16032803796906828,-0.1124522219505974,-0.23797659644914032,-0.0015077468778738397,-0.27850925358386069,0.43647392843549943,-0.31958723334541445,0.0055762156712065459,0.20434656845503305,-0.22558296897864058,-0.3696029553998863,-0.10877370625476084,0.24275200870426075,0.23461082209038209,-0.16967604191352298,-0.068896159532356713,-0.24895347431871775,0.2900100690772251
234,2808,0.3572,-0.15664957975491675,-0.11331274553337978,-0.23681522016649259,-0.0046574204942954967,-0.27878812831416633,0.43485539128648243,-0.322175262190103,0.0075693996951454838,0.20336529384400873,-0.22760189543372086,-0.36889296912266467,-0.10827432273537679,0.24625046838176706,0.23732639365896385,-0.16898593698058006,-0.067284617517807746,-0.24761665964472523,0.28882572722070465
235,2820,0.3550,-0.15527797791809239,-0.11567006599749574,-0.2377136796483296,-0.0053126984650056514,-0.27678808607167282,0.43464242848631268,-0.32260122332810015,0.0081922273623026929,0.20297692616910379,-0.22461762836526822,-0.36772534793462497,-0.11119613355573071,0.24724819663536909,0.23676748713909063,-0.17161986679130095,-0.065905836804363321,-0.24836440546070271,0.29028089405947122
236,2832,0.3560,-0.15145182440231883,-0.11362507257103689,-0.24004450080386774,-0.00563883787895398,-0.27595112745043149,0.43488219589469168,-0.32220207760304082,0.0093270912189432412,0.20278752847052492,-0.22427588729196687,-0.36909193403799412,-0.10843262230192557,0.24689385296907002,0.23713670113677413,-0.17159258179462961,-0.0656995033526451,-0.24896158074639657,0.29127151469774348
237,2844,0.3551,-0.15203567382502006,-0.11530862748280561,-0.24078825671583404,-0.0061104619020512516,-0.27636323760200671,0.43481200409299992,-0.32129897688829395,0.0081061633523321977,0.20362075787054462,-0.22299345347815025,-0.36946776408577414,-0.10977061914895551,0.247193339670282,0.23622369672801782,-0.17054217113378128,-0.067437930605479479,-0.24858854791028578,0.2909328108185274
238,2856,0.3532,-0.15140456671377506,-0.11562499491823207,-0.24173230960091988,-0.0059613088769470794,-0.27606407858943732,0.43425023808926244,-0.32000944475097087,0.0069958623874736454,0.20364553919791648,-0.22464872879901729,-0.36776691941268036,-0.1110175908218151,0.24807943089945098,0.23888859939755291,-0.17070550916057758,-0.0677142958981498,-0.24817367001349164,0.29059250540107046
239,2868,0.3545,-0.15076285470557629,-0.11511670398988819,-0.24011216616959019,-0.0032097438228943335,-0.27702538426830325,0.43428748792775407,-0.31906614883803791,0.0083708194468783189,0.20221849420206225,-0.22456926921032089,-0.36740394514389735,-0.11327375701210249,0.24947826103392434,0.24104155673729183,-0.16970825381727236,-0.067480597921598523,-0.24868326816942182,0.29038628438328673
240,2880,0.3542,-0.15096886292637246,-0.11430955439995349,-0.23825659271128824,-0.00018501386237752105,-0.27772127648677331,0.4345106131214776,-0.31651222742220081,0.0079944256055228414,0.20286581889881203,-0.22698774299972085,-0.36545912121669744,-0.11399258525775782,0.24976165685243995,0.24267478751144655,-0.1711838772142967,-0.067770745936838531,-0.24911164591856369,0.29092282203702147
241,2892,0.3532,-0.15189287176312738,-0.11657436130278376,-0.23868749551355037,-0.0014129081234042823,-0.27298088877760662,0.43475904829698631,-0.31427161750939375,0.0098189934831828356,0.20570187721870165,-0.22356182871795857,-0.36495496206775341,-0.11338467947591799,0.25228253110851517,0.24324866102544893,-0.17127673824443157,-0.06990721575047007,-0.2498070166171365,0.29344918331786096
242,2904,0.3542,-0.15179460243555012,-0.1153544334245729,-0.23905634625504693,-0.00088724542045384236,-0.27448361630612939,0.43497207994243242,-0.31530935770206459,0.0093713346806442062,0.20468706353632823,-0.22365103569107198,-0.36593642258413761,-0.11298419403827331,0.252902271665212,0.24390130753400455,-0.17055783060302021,-0.067909142247767409,-0.24993305967804866,0.29009052924222711
243,2916,0.3536,-0.14667348461531812,-0.11399010715346811,-0.23827139870305189,-0.00045196932517535386,-0.275422270750622,0.435355159151101,-0.31421870034494509,0.01163016480442413,0.20370094616951462,-0.224390531227951,-0.365022375062901,-0.1137380199297776,0.25512067937709942,0.24603123032886767,-0.17157832907070494,-0.067705943616714837,-0.25140370050752031,0.28894025304517712
244,2928,0.3526,-0.15028442576172,-0.11316688441740158,-0.24262548560538749,-5.945361278413849E-05,-0.27542541969438256,0.43511053519688259,-0.3154870730130056,0.0081537394687075243,0.20466093715879083,-0.22267138867592462,-0.36320283805637843,-0.11268151903093294,0.25201393730221278,0.24623093284403516,-0.17399069226372088,-0.067036125650937445,-0.250007885696829,0.2887499770558194
245,2940,0.3521,-0.14847374465666471,-0.11237214956744007,-0.24343043288915592,-0.0021775512541554027,-0.27638845600601131,0.43403804865175766,-0.31436290432478436,0.0060277941701835838,0.2058809832894144,-0.22389250265886543,-0.36556005723416923,-0.11186818182555565,0.2497777298212118,0.24805565970437193,-0.17657357155665937,-0.0670271219539952,-0.24837548809831472,0.28699102427265477
246,2952,0.3556,-0.14738139802555367,-0.11043546516645827,-0.24292980911497949,-0.0025618421046982288,-0.27634513509375491,0.4340585949162814,-0.3137413268234473,0.0055178228196924436,0.20535559743105952,-0.22529656896650441,-0.3643957276432262,-0.11221794341560437,0.250963794325928,0.24980981125857693,-0.17468590649317836,-0.064939118046382513,-0.24887267511290759,0.28858764304085371
247,2964,0.3501,-0.14861759225344351,-0.10894793902689967,-0.24172923708138794,-0.002396153561026737,-0.27982957031174072,0.433370524078785,-0.31685359301405136,0.0059168447316324127,0.20467167948633977,-0.22531273351122252,-0.36614428080428346,-0.11103107832233919,0.24897748113289472,0.24759481822499749,-0.17503772601698417,-0.064794810463220248,-0.24770055205759181,0.28710954168319347
248,2976,0.3541,-0.14404613647765865,-0.10880488001187902,-0.2436805392769113,-0.0034293053991331615,-0.28014487367772423,0.43163365522535352,-0.31964590091028988,0.0091749866202741944,0.20631019777242229,-0.22378602628009089,-0.36499148915838941,-0.11320660258338469,0.25139446739128685,0.2465586368481644,-0.17485859543337468,-0.064433979065193173,-0.24684825942549687,0.28732257173597686
249,2988,0.3528,-0.14368530704767762,-0.10812035248489356,-0.2425361418539965,-0.0055749165030629213,-0.28017977908605646,0.43142498854763811,-0.31943889423124688,0.0086899546693889121,0.20832897130757491,-0.22237202722861446,-0.36592204728742744,-0.11182720743963769,0.25285197579539287,0.24551808027644703,-0.17589797827278914,-0.061052453938527505,-0.24757340975938458,0.28727751076735342
250,3000,0.3543,-0.14244604995721682,-0.10721555367210865,-0.24451299033668292,-0.0045600568034469269,-0.28193162559088208,0.43256003152562567,-0.31856783393010363,0.0079341768102184577,0.2090134605117327,-0.22237080908959772,-0.36557433188853095,-0.10967577806533474,0.25186212356669,0.24602238075991831,-0.17597579147736336,-0.060038922927804605,-0.24807295776519475,0.28516358762748384
251,3012,0.3548,-0.14242186482182312,-0.10946538660299182,-0.24472468793886529,-0.0063291853891239095,-0.28255840912334634,0.43393232076034327,-0.32000866711496262,0.0095749596118771315,0.20684279670357275,-0.22100422338222953,-0.36525046614876922,-0.10945471346937255,0.25384773112072739,0.24313403632154335,-0.17327380846733872,-0.057120256638932373,-0.24973607707675424,0.28433614776159133
252,3024,0.3546,-0.14387544197334254,-0.11063852191175534,-0.24354410382774835,-0.00799908095542787,-0.28267492978207215,0.43437257282867248,-0.31816407141645631,0.01312776830625605,0.20684576351779987,-0.22273655105965709,-0.36504342314133487,-0.10841330387398218,0.252862042136904,0.24558483367148265,-0.17283206787980213,-0.06029102930538284,-0.25009977049579596,0.28267537853874025
253,3036,0.3553,-0.14199949395026346,-0.11189781270859399,-0.24355222929285855,-0.0078253787520830929,-0.28229203041220091,0.43541491916421715,-0.31770312243617194,0.012201614671683963,0.2087646303946874,-0.22170764973454846,-0.36244834250050334,-0.1092711413061998,0.25565698861636516,0.24620669194054653,-0.17201905976363768,-0.05893418233580687,-0.25223878993505461,0.280691381931639
254,3048,0.3551,-0.14149973688851564,-0.11268539465707197,-0.24392221132371392,-0.0087822170876507739,-0.28320326673396645,0.434123992373084,-0.3169554668341576,0.010459603241074344,0.2096609047220061,-0.22093787278718546,-0.36219175790209823,-0.11141766931775927,0.25466797096441957,0.24638878455101848,-0.17285756998247892,-0.059409755933104748,-0.25131217675491507,0.2826513137570078
255,3060,0.3524,-0.13848613857536693,-0.11164632674501339,-0.24420155274755506,-0.0087705284387601615,-0.28399253958621878,0.43350662451997773,-0.31814285903595968,0.010480180040911504,0.21016071251752588,-0.22048731551733794,-0.36092585725470711,-0.11416192322892166,0.2564632327766696,0.24622043445187575,-0.17299348312374566,-0.0599608681283887,-0.25184083504694665,0.28144294442474149
256,3072,0.3552,-0.13921256700001336,-0.11116878868593216,-0.24256743921538487,-0.0095608305612865842,-0.28396550060962822,0.43440000596028588,-0.31606411771626747,0.0075251760896398795,0.20859569060482439,-0.22298421984361905,-0.36119868024300417,-0.11441238322599245,0.2581543480763232,0.24772653146532078,-0.17064298973260808,-0.057967169041870638,-0.25214076441303712,0.28110344449578567
