Generation,CountEval,Fitness,phi.proc.1,phi.startTime.1,phi.endTime.1,phi.jobOps.1,phi.arrivalTime.1,phi.totProc.1,phi.wait.1,phi.mac.1,phi.macOps.1,phi.macFree.1,phi.makespan.1,phi.step.1,phi.slotReduced.1,phi.slots.1,phi.slotsTotal.1,phi.wrmMac.1,phi.wrmJob.1,phi.wrmTotal.1
1,12,583.6140,0.097761027499162836,0.17441835174210055,0.10235413661687212,0.23144653126837,0.18592819151645876,0.11479279851779706,0.23600080164165851,0.066175845534304945,-0.020777669158285026,-0.11468677414222463,0.20345943926808385,0.080978594514802285,0.25687617536790552,-0.13195564321162404,0.050718274849010404,0.18868471263231462,0.41423813032645074,0.18972218929030418
2,24,583.3200,0.13233758796795195,0.11860405060234464,-0.021108471977614871,0.0024995474995330312,0.19255307201151414,0.11633338359322133,0.34487758153322406,0.03484591095651942,-0.089416664599800744,-0.11186103007002696,0.029684456421230902,-0.11816593743666531,0.20938106726865685,-0.0746589697997124,0.039446580560382506,0.042072094683150416,0.0333832605996001,-0.076785539934491734
3,36,582.6640,0.012195073481424089,-0.22825365905379566,0.01237282256231173,-0.078377397588854883,0.17020281303701443,-0.055157773887398953,0.13549414635687618,0.056181784156029257,-0.16598075314537017,-0.21338729568711806,-0.13677874860737363,-0.17451682861835169,0.18414525538639478,0.00604659420061609,0.015359732273934727,0.02582121814677801,0.13259871492250974,-0.050693848285780517
4,48,581.0440,0.076189473090844909,-0.12704519880781803,-0.068175769293925492,-0.067348500918884571,0.11056020486901336,-0.21254850494628816,0.084752674813123374,0.088582588874816084,-0.23428350527893343,-0.065916961343835567,-0.12960923423107584,-0.03344570618956702,-0.032029731932733022,-0.10396046032665769,0.20085616812194138,0.20763133673914738,-0.00934089503835464,-0.192746794568044
5,60,581.4580,-0.13979065192975296,-0.19129132763117504,-0.15142718137851469,0.24324412002559995,-0.08012519087991174,-0.14634284371079009,0.0065727557352151765,0.043770762975733818,-0.2986179724593801,-0.043647131258456193,-0.17592792337442342,-0.10671565769797538,-0.13364047616321525,-0.19966526341196097,0.16373277783196274,0.12354841705609025,0.13108452072676968,-0.17914647136173939
6,72,583.4240,-0.27395988423797946,-0.090561931440317989,-0.14349961486049445,0.1933868834938853,-0.10316623892341421,-0.07062455397419061,-0.013605449270554846,0.13046928537537988,-0.068775180554286927,-0.082465996348314627,-0.14705890958663145,-0.13561676523938343,-0.052494761723726462,-0.19312512589230388,0.095557081484177075,-0.067098709357569369,0.086029362070153534,-0.17640146443319082
7,84,582.3140,-0.21491232264886498,-0.24546991113831931,-0.2463179571616454,0.087294282905551954,0.11075625637752833,-0.070425069385808323,0.073162070196971407,-0.10344455782677761,-0.025035716638797761,-0.39357943791651007,0.17200936697434005,0.07501164042854358,0.069894443853766586,-0.25549103744164309,-0.13888415307514995,-0.086904208518732,-0.03650319266856418,-0.099945984358913512
8,96,582.6120,-0.28383071228451773,-0.17582296863890903,-0.25658618458160104,-0.052250984531176374,0.0089662205099672321,-0.068258675449740888,-0.044134554316254071,-0.027598671252144078,-0.18305239767022671,-0.16848155670432954,0.061221568368423351,0.1545852774570497,0.11511301564239251,-0.15220863911850205,-0.17697379061932378,0.056150823655000237,-0.014581443250350433,-0.17059480105544575
9,108,582.8660,-0.31777746935549622,-0.20160254836951158,-0.30563198927522583,0.060675450655325085,-0.014380604363971265,-0.031944508943759,0.14840135402664376,-0.053104206871791182,-0.01987233340028173,-0.043391540355588593,0.3072336537900619,0.21521945052235444,0.081726555778698987,-0.057392348619970023,-0.18112214379989344,0.046159622457109889,-0.024846782108343984,0.058733465473780111
10,120,582.3160,-0.19228186895250773,-0.14569918017307137,-0.20219726662451348,0.083002529439113959,-0.18478977521668244,-0.017044323373147194,-0.18570189687564945,-0.040257463016555924,-0.15148197095559465,-0.1834135353234542,0.18495431223086811,0.17572571821610261,0.16338184048267651,-0.18552654031347332,-0.038128685297703815,0.029984911042312108,-0.15195212092418373,-0.036041524801550796
11,132,582.5340,0.0092286620205739769,0.024783070219526315,-0.35484546245861948,0.066897470590998986,-0.024387067538352711,0.0531913762701031,-0.038278931020775071,-0.28100986473442241,-0.0460185281888621,-0.2593837381257173,-0.13672026400719581,0.20953256846145191,0.066953024718753223,-0.31481484493529222,-0.11777047289915751,0.1009889981303492,-0.20387183962434943,-0.11874110146951065
12,144,582.5420,0.031947329876850179,-0.013852979586848118,-0.34664427783556157,-0.1928497855463448,-0.10224388906090852,-0.060483283560254356,-0.186142624775363,-0.14695164820419124,0.1638284747418578,-0.15262829171175168,0.041593625947670833,-0.056945722526167933,0.17336097016518753,0.021857522112317469,-0.014488405719960115,0.066921100280761162,-0.044691463281434946,-0.090464348414536128
13,156,582.2100,0.0633461793738418,-0.0535318631897976,-0.42152071362265781,-0.18459007957562598,-0.10785244889789854,0.00532202367184559,-0.12731061145406539,-0.38067374284704686,0.18507899508268397,-0.26527399771373777,0.045135846731585168,-0.079490066381984956,0.0201019206202796,-0.015857472558809677,-0.093943392015744531,0.051363420191821191,-0.042105112881457574,-0.016049166157863178
14,168,582.3920,0.07296537518458375,-0.025233564680141859,-0.33387705407782986,-0.14646266277433173,0.0011609537866698076,-0.062318252745058769,-0.20681789491377578,-0.46928387488752321,0.087994687518424666,-0.41615653109000794,0.0741533419678469,0.0024046803831903121,0.12913030685458321,-0.055213352255618742,-0.13113077290884895,0.15793030284328552,-0.11839164565339598,-0.17069853266157922
15,180,582.0540,0.027995292230617627,0.10841527006021459,-0.28810290435900138,-0.14021191347418657,0.027321345111082068,0.10689990937936998,-0.35214414554309481,-0.3445016062823778,-0.059810905857786784,-0.29044302040235809,0.0042605267855194522,0.071920094115486666,0.17298776287271875,-0.17322550909433834,-0.24235904917762821,0.051270190537839821,-0.17889199488577698,-0.15961837293363909
16,192,582.3540,0.0043981465694626744,0.12883013378960315,-0.34715191910562426,-0.078790716179110959,0.0168182476863102,-0.024003202872955019,-0.41171299420224794,-0.12091482967109395,0.048166233207660267,-0.27051977408389594,0.086454134850716319,0.15968962480904325,0.040963761583106342,-0.15626286746549231,-0.32671994664832432,0.10703475849452908,-0.29656368035048636,-0.032304594892845623
17,204,582.3920,0.066070001968006081,-0.091274974696074138,-0.34440763604743335,-0.0072486494918112205,-0.070652690894420389,0.017923795934323843,-0.26098427774055222,-0.18939068470844597,0.15425693308704538,-0.25632071168050974,0.0059779260359100767,0.26333548130990353,0.01566514834866644,-0.18335186202112963,-0.3132847660974904,-0.05467569615223513,-0.26242838590236012,-0.067770706180407411
18,216,582.3220,0.055280813002570324,-0.103110836679618,-0.4375423859776178,-0.064878542595944819,-0.093191942691267016,0.0636473625708662,-0.25313474499483291,-0.22720452664474258,0.070883423533795814,-0.28767452434764268,0.0020054242998054687,0.20387510088895219,0.20993482087578938,-0.18510909472695536,-0.14245014316478116,-0.27531141266109993,-0.12542348687896962,0.070496550411701941
19,228,582.4460,0.15240876551571128,-0.11705266022565845,-0.40265611129592155,-0.069564082403497457,-0.037192526441710609,0.02006595692495668,-0.20392406936440852,-0.07754850561774973,0.090425719937977891,-0.23405476934938427,-0.010405000612673037,0.38123188124544377,0.2014055073576452,-0.099134556663223891,-0.11753339595866101,-0.31080074325825024,-0.22855750725565169,0.24324932173575464
20,240,582.2660,0.11296459784833361,-0.11420746430135151,-0.57422796938659182,-0.080576365009657772,0.026408912720327238,-0.0645844132136836,-0.064646985878321045,0.0077490379121727473,0.13343528113095787,-0.11008355220753566,0.027610979428285089,0.37701390173772253,0.2862864153106332,0.0083755714354086467,-0.16605673177814673,-0.25694132054317487,-0.1201829627148271,0.17527536957533615
21,252,582.8340,0.067733035511906445,-0.26259454978406216,-0.36037138875698976,-0.020719576617893715,-0.060134482272454437,-0.038524775760788728,-0.18324326376383912,0.16272864216050642,0.17870039164758808,-0.072780851599096183,0.13732511525920968,0.39696186918985255,0.2838062642828294,0.045919242812002645,-0.18415244200448228,-0.24187400860291525,-0.15957518603040088,0.10860321133009727
22,264,582.2480,0.11793775394339261,-0.33271936670031349,-0.29200900207332581,0.022564585236295977,-0.017983330396801753,0.030064055102019923,-0.16548029793692304,0.034829998284462718,0.17211221362556928,-0.21222537158081614,0.03754650309325816,0.26142504719634446,0.31879450554194327,-0.056228617210688121,-0.169102238259495,-0.228058741400477,-0.18842078843781163,0.12370335768452767
23,276,582.2060,0.13941180339441755,-0.26891324404218286,-0.26928863650959561,0.022747007669557694,-0.038674029559890764,0.044866622283545696,-0.16885995012661253,0.06965337294388535,0.23459386854318381,-0.22402237000630204,0.23835032172960749,0.32323957626850225,0.30709357021875716,0.015217208881804691,-0.31938816837500511,-0.12531208482744691,-0.22196985933017638,0.12760437237563421
24,288,582.2920,0.27923847267679247,-0.32110066304617907,-0.255767631463745,0.12617681595064145,-0.061413169400888312,0.053460543512629584,-0.19102281656806569,-0.039970228171981217,0.2385171393585504,-0.3137731842124411,0.24865716460916351,0.22884481789364647,0.1867346824296621,0.0094225016725123355,-0.31764567224672358,-0.11630373691703992,-0.23148196003011715,-0.0092035724704614547
25,300,582.2920,0.20951129268949181,-0.24977604521063324,-0.20366980078807026,0.06133827814655754,-0.058758581938231164,0.047485910632776851,-0.21063309981177736,-0.0327434948094077,0.26826319261493364,-0.34574528474896227,0.32290846262486178,0.21271690134203991,0.29880086793819838,0.08581737398185528,-0.25019785408814388,-0.19909471699745612,-0.250974399703494,0.059033713326866043
26,312,582.3180,0.21064828886008716,-0.1890131031353047,-0.22466312183752737,0.046447515555770362,-0.13778467205188094,0.042605759015419728,-0.25826310578284511,0.03938080719899191,0.17250324292581004,-0.42936323806336363,0.3226662616485772,0.17926319043162833,0.33359790657224048,0.077903491315900977,-0.24677747884863707,-0.22072751726817189,-0.24933176931187753,-0.023548811347684561
27,324,582.2660,0.2635682366514317,-0.29367870227336712,-0.17657884663903828,0.033780474395637194,-0.11271303035800963,0.084051998096131175,-0.23449935099141878,0.123489391268877,0.1286426509963568,-0.39617732586604421,0.28555341122590039,0.1633839238644853,0.31628515455829159,0.080798377022782544,-0.27247663208166378,-0.26432961564429697,-0.26774582501209476,-0.023591680878161863
28,336,582.2480,0.21873557086934,-0.33531792777791203,-0.14720181600993473,0.075835499729412864,-0.13211076019441076,0.050589937726520443,-0.26817679843671222,-0.014400622536994964,0.11782148825222552,-0.39761554807064808,0.2211215439469722,0.13235159165807608,0.3526089480933049,0.072415680495483345,-0.27486004921902019,-0.31535577953300953,-0.27630669336282304,-0.045388544134652757
29,348,582.0860,0.21114420874896181,-0.39301297898704479,-0.16718825654558081,0.0033469678141952314,-0.11148994539389735,0.14185665113989071,-0.18451656294684202,0.04274616776702625,-0.030992564081655023,-0.35854998655002557,0.16195435856194507,0.13041368125757521,0.39826610304042659,0.076270887247811309,-0.27046533761397462,-0.35167024803463076,-0.188739170414312,-0.055474683124283108
30,360,582.2300,0.24594469411780587,-0.29559142334186422,-0.14138241108918492,0.014304429075370918,-0.11770608855219611,0.12487827779854929,-0.21274932892570714,0.11489724206873962,-0.00583306516213604,-0.39978479462368394,0.24001804043558714,0.17148251644995696,0.39345897556708692,0.048301872238487267,-0.28083302644299452,-0.30272651537246476,-0.21015849339405607,-0.085476012542348268
31,372,582.2160,0.19346840118695996,-0.2957373251431536,-0.14300994849156781,-0.034682190494638887,-0.088432128981867308,0.16947269228666742,-0.175651155675358,0.1044755995611643,0.0027462330462372261,-0.46072691102486563,0.23040999536441492,0.1178573432684392,0.44239872991399293,0.085084550804756867,-0.25353406820758917,-0.19529186998014855,-0.20154827687449856,-0.089033214539112185
32,384,582.1920,0.226708680753126,-0.3003369997413291,-0.15159881063979685,-0.087331301987048221,-0.11674906436285529,0.16649676540028446,-0.23156966349467994,-0.027700968380050081,-0.048860935209715836,-0.47395429857492516,0.1773812790945844,0.11595126638238774,0.44315761108924739,0.13358859989623004,-0.18571467813517623,-0.12262980732787404,-0.24801205054588282,-0.14020502978262828
33,396,582.1060,0.1767759367712354,-0.26191529331457464,-0.18998209506022862,-0.035855739289042336,-0.09888956260178379,0.18620903808229236,-0.18546750882632165,-0.002475930575022438,-0.091061093007323665,-0.4684788978240223,0.18107996547893718,0.16622167906892479,0.45017430647072765,0.18690688348414661,-0.20598753311196316,-0.065581514020736809,-0.23945186547888231,-0.21312124101118277
34,408,582.1700,0.24039567639924697,-0.32701342301091679,-0.21068308986916184,-0.015749302374740565,-0.11322567148014152,0.23881357612382606,-0.14811202869070245,0.036273860864375673,-0.0070728570870463971,-0.418911694931073,0.17027230544220603,0.18082883059647098,0.46490739934364339,0.1756984933578386,-0.13991471219031679,-0.090096654196099621,-0.27334505559465083,-0.17922796857860432
35,420,582.2520,0.271981715254031,-0.31617742664387272,-0.2961786724509875,0.032900765326214963,-0.043126101462542463,0.22541396364056041,-0.11841390938294534,-0.0043428814442309418,0.034688310328206455,-0.35761597666751649,0.12492307601359239,0.20150270010494709,0.43653703105857172,0.17747015872971769,-0.11370226035714522,-0.071269766570457985,-0.32261448578639473,-0.1930883767421824
36,432,582.1940,0.278910439490784,-0.32351595015251955,-0.24911949544250594,0.022362046139267698,-0.043161166522728514,0.24276161290150872,-0.10579583905992009,0.016296081532332418,0.069120396321131081,-0.29289337162420648,0.19866580044883109,0.19907905121620767,0.47572067224159448,0.21632776945590776,-0.10043383894441189,-0.088870406828481047,-0.32624833082761734,-0.1706257306427113
37,444,582.2480,0.30862520388430992,-0.26400736234478567,-0.24604493746317965,-0.014569483313969405,-0.061147752790029493,0.19786507664908984,-0.10756023230165158,-0.034211737501958051,0.0083146691495699226,-0.28572321049710991,0.18637895329991022,0.24927870067716892,0.56329038815572,0.18849936617988589,-0.096215296276972812,-0.0010570101620726311,-0.29794787234981157,-0.16588276391952272
38,456,582.2460,0.27713324214197715,-0.24916099951117662,-0.23051226173139283,-0.0012190667595950214,-0.068042885126898531,0.20933427079755315,-0.10194327784162205,-0.064129968938376761,-0.023573600797210444,-0.31448813683838728,0.15834166762308621,0.21006634518999792,0.55472473073432016,0.21622307020431558,-0.090451992688907079,0.010700057967463487,-0.311497126477964,-0.19704303101233814
39,468,582.1600,0.28297402063017368,-0.22360056197577602,-0.21776628053565769,0.009002321174272087,-0.033813950298926622,0.21790472686953402,-0.098783894795703972,-0.072616077434764253,-0.000847710850571423,-0.35892395988264064,0.185659084448844,0.19875492316239782,0.54322744034706594,0.16408901051184646,-0.097773805595584684,0.02928177950958688,-0.30706339895159473,-0.19600024780003916
40,480,582.3060,0.23655684058318041,-0.28085449783490224,-0.26128849366575385,-0.03281368726861688,0.0075469928528239865,0.17781720943428087,-0.11519458415660032,-0.11822758016834448,0.024090853950149912,-0.35328961804579734,0.15715638929793838,0.23083357080894373,0.56479623223037823,0.1765879745213158,-0.13025606862899136,0.012289890031917274,-0.2946036265448968,-0.18045783967293
41,492,582.2480,0.235990772332723,-0.28215553675797034,-0.21650492073369215,-0.089975244099771146,-0.012860883725353068,0.14036527935281082,-0.12761253030073375,-0.13202447593956643,0.00812156415032999,-0.38132367395080247,0.08135211583567406,0.21008493496093247,0.56069053299925353,0.20826802829200233,-0.12018034341689045,0.028892847701893608,-0.34006791450426066,-0.15691464736386837
42,504,582.2080,0.24179578448599329,-0.23439116576387931,-0.2268391507242265,0.020557504065766993,-0.065606293272139113,0.21594841139457241,-0.12276415448211098,-0.15092854209719878,0.0047846818956363436,-0.42834977959807935,0.14053039741921558,0.13972418913512694,0.553262085406036,0.23544854150133188,-0.14252271434372349,0.065212338215361168,-0.27671927463862211,-0.14132118063111204
43,516,582.1940,0.24899718882401436,-0.2381765187262927,-0.1795801333305436,0.030846773836343933,-0.057156795049973695,0.26878780819366488,-0.11384127741942472,-0.18774644997908607,-0.036259834051678791,-0.40073087076099284,0.15158158586745218,0.14277231471532931,0.567519576943131,0.20874246844229261,-0.11300009393696903,0.066844088472493873,-0.29569384438243529,-0.10042694809668018
44,528,582.1200,0.19969875911832655,-0.24414834748498579,-0.19548839574347959,-0.013429286788926801,-0.091075721723769917,0.2836761091757693,-0.1329225355125398,-0.2008485995459669,-0.0091827323695663678,-0.39931808191984641,0.089901352360258036,0.17655212182841612,0.524713449313705,0.19659747482273934,-0.11859008741517106,-0.027484940843875993,-0.320539288811953,-0.17445334213829797
45,540,582.2300,0.1625099294045097,-0.27607180577704588,-0.18409273921143471,0.015682146757787098,-0.10520110406656139,0.21986364099686542,-0.18691554036006477,-0.20052454507455625,-0.06260254178500653,-0.3484279382776494,0.096294022499781945,0.12053955285498176,0.56656859296274731,0.22053410210559943,-0.13975689950379508,0.0041089116067676247,-0.318680813504612,-0.19941715835591475
46,552,582.2220,0.1500889365590998,-0.29333914450986137,-0.15022431647475046,0.027559115859727628,-0.13055039500498003,0.16255105051652763,-0.21791057774713168,-0.20909301016282322,-0.062357344819021075,-0.39254637603354292,0.10408515479653151,0.15571166576676143,0.51831624723937209,0.2430518864692037,-0.15523560048554555,0.026728731817349978,-0.33211094625737669,-0.22892505079553604
47,564,582.2300,0.15174323928586322,-0.31516516525047444,-0.15201273430565515,0.02305574419853532,-0.14623197319650194,0.20645732555316634,-0.23347864208760477,-0.17231584680803352,-0.067505479491174178,-0.40027329574914167,0.0576381014608634,0.11335452052412331,0.50597815957792147,0.21373104793664971,-0.11881347636463918,0.0715095927351123,-0.32296154268566035,-0.23170319868054992
48,576,582.2320,0.1496344585228058,-0.30451994910861063,-0.16061366617269676,-0.025570349218497473,-0.15426069638177684,0.20465378710110857,-0.24834496668483386,-0.19623340098785735,-0.032484397212576073,-0.35114285570832526,0.083175031521471363,0.11572729379146966,0.54315390921427353,0.22233510917581306,-0.11337173395913339,0.04539159004001312,-0.34088938148075959,-0.19928377519079191
49,588,582.1860,0.12829872822853827,-0.32438472166447396,-0.1542087415410808,-0.047256882428354137,-0.16905834580624296,0.1998395450203892,-0.24812379327898659,-0.22659244636771747,-0.011034201695125066,-0.40501626696284848,0.047776836340991259,0.11168941780741749,0.50303820121273124,0.2367752643964888,-0.12385129336973971,0.086042547673478062,-0.26445790046855877,-0.237429306177664
50,600,582.2180,0.11101387292321001,-0.33774948894197804,-0.10736506194763608,-0.06018408271275761,-0.18930060172994462,0.18513870334759477,-0.26701164849923975,-0.21230056301695718,-0.054934938517964917,-0.38724742300515075,0.040347595445493392,0.15249085501303092,0.52298185226508676,0.234914447540974,-0.10136037185479782,0.096148361805353147,-0.27626307257676458,-0.19062125792210532
51,612,582.1020,0.085585848428380393,-0.34789796172591414,-0.11849941161356935,0.0018762719694562701,-0.20723707009973172,0.2325743412136152,-0.26257228375668284,-0.23046575501108471,-0.024032559569575427,-0.403429148799769,0.080933249579051084,0.17930046130746577,0.49172598359949615,0.21408661132577908,-0.11924999837800422,0.12608206583114004,-0.25001134227895877,-0.1648318569873258
52,624,582.0440,0.0769314538119312,-0.32305878837190088,-0.087527671702536544,-0.0088027543896419033,-0.21637135666539128,0.2372634503687891,-0.2935599790148572,-0.2057830724379186,-0.069589411753145355,-0.426054838788292,0.036332384197437166,0.2423325057225679,0.5054752219362868,0.14613218674895975,-0.10510876605151903,0.075690015196327343,-0.23965966597462318,-0.14270822918488912
53,636,582.1560,0.077594990941907388,-0.30884188859111106,-0.10217609142089396,0.050946488657417438,-0.19220965344057184,0.24660219590900848,-0.27109737313074089,-0.27660997061423437,-0.080926043256644847,-0.40722710331865175,0.02480011456524038,0.23621864184654176,0.47856370131906545,0.11393302875814744,-0.10875116901650597,0.1108558678886159,-0.25528429086025561,-0.18874009940599926
54,648,581.8220,0.11477792047363414,-0.32635144062913263,-0.12545428528713667,0.054829062535858987,-0.2092986452492433,0.28682513399161863,-0.28292013197732357,-0.29263803092096474,-0.12162119116711972,-0.40701655503913614,-0.00070826688560583057,0.21994151561384834,0.40982003521149091,0.089196163560584713,-0.11733164063344691,0.0808904004131102,-0.25399631958556007,-0.23476515741404849
55,660,581.9380,0.097020249976352377,-0.30505300263894564,-0.1101917362841035,0.0414810836160679,-0.20439987911043611,0.28150388937032517,-0.28979404387286983,-0.31516829780329886,-0.098590341699185818,-0.39903480699282773,-0.0055196377979637229,0.27623037754977886,0.40226564663004644,0.10285997008911228,-0.11849273687033596,0.087903608718849183,-0.24559432505879589,-0.19484576024492473
56,672,582.1660,0.12064104358488731,-0.3158342460626799,-0.14662491575812373,0.052748345242497441,-0.18747281514852809,0.22886989911239528,-0.26575484262949833,-0.34375000345059914,-0.043412573233375641,-0.39843741574144492,0.015613183383742886,0.28486531492028194,0.38349602830384183,0.14073937134342421,-0.151164272216266,0.0684589785257795,-0.25072144574800231,-0.20007736905214232
57,684,582.1880,0.1552003757899996,-0.34340735664820277,-0.1413313927352709,0.070546906499738063,-0.20360015337171058,0.21563633335085214,-0.28083574217590745,-0.34128419988297864,-0.016786282725630892,-0.354054282463885,0.0328872861426205,0.27515884262289897,0.38550118424988816,0.13889793262597686,-0.127963403657015,0.051538412164832431,-0.24669511065950148,-0.26473929575023664
58,696,582.1780,0.13057281999259851,-0.36473331552363375,-0.18425001325070414,0.044768216059015507,-0.23871655096450239,0.19942018661304914,-0.30389491811797464,-0.36168720149492334,-0.041889396767516428,-0.34545683284033291,-0.0469026584192509,0.25242839643612497,0.34468253357591039,0.11647002040478467,-0.088384196308032681,0.044018841426945315,-0.23761182975601861,-0.2805203309356642
59,708,581.8180,0.11823343218847295,-0.30055524373771675,-0.17752838166214416,0.062728577980964886,-0.23833296096030473,0.24646675452242486,-0.31445741763975871,-0.34443240913552997,-0.046415039314818642,-0.38219229242191322,-0.063195484122835918,0.20195700776424352,0.38886136596718135,0.11270819921698014,-0.083419856360413921,0.061606029051774362,-0.21793348591607742,-0.27092724765227705
60,720,581.7120,0.072215422735576421,-0.35509092395270664,-0.13282445911701682,0.074544800909833467,-0.212532144202057,0.224402252839457,-0.28853273027273824,-0.36896873355819859,-0.039758540499266311,-0.41083360223362847,-0.10255778322379006,0.18444458107610948,0.36639668103724515,0.086147375117443276,-0.14348591819391121,0.080504482398486191,-0.18402050728463382,-0.28811088436397064
61,732,581.5780,0.035413854345718719,-0.33559250457383782,-0.14394867325509567,0.061218459202692893,-0.2196348874027006,0.2639973157628005,-0.2740250094958453,-0.36014071605320458,-0.0688119060790003,-0.4197168048635555,-0.11713369810854285,0.16073581613123325,0.39827241071818892,0.098127878994097376,-0.12732459812721428,0.077591589300417263,-0.19262357830356297,-0.2443098044909498
62,744,581.6240,0.030315116337368091,-0.35049775351399587,-0.10503827168844142,0.048578598108453275,-0.189976267364113,0.2873656998508099,-0.2781174037114319,-0.4022200509872243,-0.057659392096870092,-0.39655704284517973,-0.14483579370576402,0.14980725779862678,0.39173795901278741,0.11022897060161436,-0.13392677997242958,0.073823851793130488,-0.18751864887187383,-0.21676873539771194
63,756,581.5980,0.024794007649993174,-0.31931678008299857,-0.12147810592062383,0.049051746970804042,-0.1855173111922617,0.29072951419161014,-0.2666813291720746,-0.40021876681165564,-0.058039235856714055,-0.36146122917449314,-0.17264769720058792,0.1199560112153977,0.4074142946981068,0.1411864453230785,-0.15062542231085857,0.10313579833800014,-0.21274884569787764,-0.24429708095169284
64,768,580.9580,0.038651477810035716,-0.34339025459963934,-0.1283172116406385,0.025087822286495986,-0.17278743162178542,0.31818110085305024,-0.22553383659769791,-0.43615094708842972,-0.090992712804071021,-0.34359486732648742,-0.20728775537395711,0.096305262249853724,0.36797788437020656,0.11051993965167879,-0.14266416243590588,0.090205951478939714,-0.21167538485898854,-0.25474339267333668
65,780,581.4540,0.023124137159331291,-0.36484805659566222,-0.13794730552838882,0.10796491198047641,-0.20455612791049535,0.32260030066436918,-0.21762717142583493,-0.43001879542888272,-0.12793992039017171,-0.32941269626507536,-0.16164896831662781,0.099693493077267228,0.36674145917472151,0.11892800228315852,-0.15089127340413552,0.0776826637512757,-0.21408205875989081,-0.22168282793173463
66,792,580.8240,0.0023421564090353258,-0.33700199405672138,-0.16975942403276337,0.11508382028154714,-0.18890679005482863,0.31614763662623768,-0.18876963361216606,-0.44063752608641271,-0.13356125649985817,-0.33387874857624528,-0.16792456159174238,0.12900510117436045,0.33943783917774961,0.17347406016049852,-0.13695083017368326,0.098875915028695568,-0.19629561339265661,-0.24211152447730186
67,804,580.9280,0.032791425962771646,-0.34283693574045127,-0.16793052149111287,0.14543912945682663,-0.17224014397836546,0.30090817821904464,-0.18784603712286141,-0.46918044134740866,-0.13433326170949764,-0.32664245940904313,-0.2015072528580219,0.095571359407372422,0.3372543239869587,0.18544598307525162,-0.095567232830469834,0.04439735361429227,-0.2029343713009483,-0.24236980738774394
68,816,580.6120,0.049782115816405674,-0.36661177368305065,-0.16411822766468626,0.15963217178411532,-0.18325311895480537,0.30693590242397922,-0.16613102204874741,-0.43997387750757594,-0.18238061911957709,-0.28981540742952444,-0.26580869570810861,0.096614300998883032,0.28616258106632741,0.18835112158468592,-0.09091879134210698,0.0404456002633888,-0.2077461007637505,-0.23436367120918072
69,828,579.9520,0.0643965047713586,-0.32493344230926807,-0.14961400537202554,0.13447704838067981,-0.17337267826086775,0.29393657861473,-0.19110327776467856,-0.47294892404633809,-0.23975955684160408,-0.24057613096442212,-0.31468148296577875,0.12504374044021932,0.24884003416472983,0.17347775152355419,-0.086790317501262149,0.0895965193959684,-0.2097057427233017,-0.24809080505517964
70,840,580.4640,0.020185869557424314,-0.36062666848482816,-0.10478796340358724,0.094028311337273726,-0.20215790082744947,0.29500973189220414,-0.1947548277793498,-0.50901547294194249,-0.20991207087410205,-0.22129508068409967,-0.32364904399888816,0.079468730118647524,0.21858286679911335,0.15700477927538875,-0.13472317637474424,0.089204577266956589,-0.20342752487559462,-0.2117807133694519
71,852,580.8920,0.019712271439814709,-0.35619507462405603,-0.067626702072628136,0.079777073681539759,-0.15074292570735848,0.30484372698630491,-0.17868421606881404,-0.51919388208591521,-0.17163937813319588,-0.28589557630370083,-0.32191425764316045,0.076634872089478126,0.24669931423781882,0.17700222549386965,-0.16811649313258858,0.082578027832703654,-0.19518816206351139,-0.17076903745447256
72,864,580.4980,0.034678557505621529,-0.31412508404518552,-0.042568469994225408,0.095204963994831276,-0.15114678323911573,0.30756516855263033,-0.18970934734892902,-0.50722143749092263,-0.20676336205203236,-0.28434461469564115,-0.29767367832431429,0.12001677828449216,0.28484163442372712,0.18653076995678483,-0.13938702210101217,0.070297848391829246,-0.2086324909569319,-0.13133018312355177
73,876,580.0060,0.032206158079280942,-0.2935412304627027,-0.056248712321501367,0.092068942710721455,-0.15596260052637026,0.29644350592541235,-0.18386134425855552,-0.513570444163069,-0.220222894580313,-0.26074018106157149,-0.33600702629035961,0.11226894891716679,0.26477847050932707,0.22799129062244469,-0.13030608500750179,0.066963282131039956,-0.2211223440907992,-0.14161257288234513
74,888,579.2280,0.052853656501811265,-0.22434004031732804,-0.085854623673266128,0.10445214529738055,-0.14690574460933192,0.31311055350273231,-0.15965603286237443,-0.47715810195079589,-0.25487727939837423,-0.24739783120035808,-0.38745321060427912,0.13561306024972056,0.27156003871350287,0.23635860909946979,-0.090311640771259666,0.072651276449520727,-0.22248402739471357,-0.1812489479198299
75,900,579.7220,0.088969045275974115,-0.20760006301664485,-0.12381511024205218,0.089786290588838108,-0.17154646225837314,0.30932374413619063,-0.16233330635598661,-0.46820511944534737,-0.25472543614653748,-0.23695600424812802,-0.32001578981295642,0.15769975782569251,0.3040269412295582,0.26664245812834458,-0.079054822616417025,0.051183349123552963,-0.21733951239847762,-0.19827557713026064
76,912,579.3000,0.11737034061728945,-0.22684599155942356,-0.073149935818835929,0.069313363695772665,-0.2087403935299397,0.30689305714380716,-0.183705834425298,-0.43147803123341855,-0.26081305208074396,-0.21887496029298986,-0.28926142731090787,0.19546384883950546,0.32253146224844209,0.25407920601646616,-0.10517996603835095,0.078650773289419024,-0.24418316110409102,-0.20346278041211138
77,924,579.0920,0.13475730205030773,-0.24080241377361425,-0.068272663678427548,0.085172657434727073,-0.19125860656283367,0.29079762972498552,-0.17176944471398725,-0.40961366495106966,-0.26193354086618137,-0.1840402724852207,-0.33450402541961749,0.19364750912202497,0.29529321137040443,0.27950924106242314,-0.108753485369811,0.054724433944218505,-0.22105516148127333,-0.24653062430586248
78,936,578.9060,0.16686913516772961,-0.18984323452659041,-0.046779198626709248,0.11116342769259736,-0.19704402410395869,0.27878220839506168,-0.15352297250516603,-0.37554383214582582,-0.29334882789725797,-0.15047665713125774,-0.38249852339451051,0.16781792122695632,0.30938183360176325,0.31498827510298355,-0.083181750791285577,0.097281448856439634,-0.23272054579950507,-0.25276126663478365
79,948,578.8800,0.15119347398178629,-0.21586432642062223,0.065509622973037918,0.12289899321857727,-0.19087859231837478,0.273870632132371,-0.17747463106133016,-0.39408322157018638,-0.30438878917308676,-0.18997203334254878,-0.399902018457835,0.15194620747960597,0.29022608060569016,0.27873695045186458,-0.10753656305763683,0.082621829405519223,-0.24302927607180802,-0.19840478892669969
80,960,578.7740,0.10521481032845467,-0.20741664800981802,0.10748482872958227,0.12656051001344037,-0.19897368913388555,0.28282001275116514,-0.14385157211888072,-0.39719405128345026,-0.32449558410157009,-0.1630837260667643,-0.41474575686333731,0.12488644719813635,0.28159470456412922,0.27008282976874193,-0.095251290447502232,0.104093714370302,-0.24390106595208372,-0.19853364010504324
81,972,578.8800,0.10014313490760891,-0.18647354066359817,0.16341188260815007,0.10633529090402624,-0.21032771350664325,0.27193864810758994,-0.17074489588355909,-0.34760145381111834,-0.36469944153076056,-0.15691211371154254,-0.40803688125916093,0.13152205076263909,0.34282702324814313,0.24846074010888711,-0.074823512938354417,0.10166138237235312,-0.24896755791386785,-0.14458036114992717
82,984,578.9640,0.052996321714683291,-0.17489442832728228,0.17263547595441162,0.11252125116429253,-0.23255017007670653,0.29437767477816335,-0.18154735903010491,-0.34031709490974282,-0.36386589147618781,-0.19981194153659351,-0.3799340840545522,0.14369220002319685,0.296131509788078,0.21061897206096472,-0.1103981105000249,0.15849267199154141,-0.25599517079375955,-0.16836722255966771
83,996,578.9120,0.058903226783698075,-0.14924736660406079,0.15639058576618781,0.10986138081635494,-0.2705369254827017,0.29342861103248424,-0.212670252153505,-0.36288168011098126,-0.37581469022800279,-0.17004529104910476,-0.3720237025384448,0.12888164459764162,0.27650360444355354,0.185342034156742,-0.097259441999371116,0.14726651421503295,-0.26245465466330553,-0.16686768227404983
84,1008,579.2420,0.01212619256742003,-0.13257391323223411,0.13419097956613912,0.083917829532301119,-0.29105360181661694,0.2917555637053097,-0.2261544616177773,-0.31664637313052513,-0.35060897895025794,-0.17637218119862064,-0.41859258406226485,0.15396937768409355,0.24873724968549107,0.20401353764504215,-0.089360203891624079,0.16476533561082776,-0.263253328985894,-0.14971754966851528
85,1020,578.8040,0.0412741742036203,-0.12792297789415097,0.090719631424645619,0.087431415920295338,-0.30716446455142055,0.29935218871574865,-0.2488951878297106,-0.36707066511646136,-0.2680442162342716,-0.17973175390556531,-0.39110856209248751,0.16528975425411183,0.26059773016817406,0.23975512271756436,-0.12917115709265689,0.16924622139641179,-0.26420110835810506,-0.17509576436932478
86,1032,578.9580,0.041996549114077429,-0.092299352910257787,0.072129272163909769,0.073778625313444937,-0.30385339957626623,0.26926711999440983,-0.2472655917369451,-0.3612281065630642,-0.27192664976513148,-0.17565417503245523,-0.41853732479702521,0.18006625812437782,0.27515476558411833,0.25925957729494975,-0.12100263131423017,0.16485853549014456,-0.22460334198309997,-0.18504927151379161
87,1044,578.7980,0.048320968659014349,-0.045543200977160588,0.03913156466191757,0.11715669038140826,-0.28993223761158649,0.26304038198427049,-0.20438860433865147,-0.35436098900639196,-0.32472503002888964,-0.1214653169325704,-0.36897246421665542,0.23290071698241796,0.26865479318391527,0.31405985868491676,-0.10913504735940927,0.16666012192203816,-0.22314453392710792,-0.19999279817865881
88,1056,578.9360,0.057865385261709035,-0.077925802668625976,0.013149823039617146,0.094673464247261738,-0.26525345190921462,0.26342483872368272,-0.21994615026633724,-0.34538870974356572,-0.26591912842697757,-0.13868194797965386,-0.36169157527305351,0.28548780948680635,0.24059187929001766,0.31940015599384086,-0.16684680478345265,0.21397609322989344,-0.20170944516509931,-0.23483759881955346
89,1068,579.0180,0.0700856420159392,-0.079201288701108791,0.057861757358931128,0.095000316070276092,-0.2440176434848173,0.24901577838821798,-0.22899040099800624,-0.34636748714445392,-0.31936868863774692,-0.12112852790691389,-0.41056687284658222,0.26245150941613138,0.22880793780305028,0.31832158073312794,-0.16281587962532024,0.17910929931367514,-0.1963087640541635,-0.22518525385409355
90,1080,578.8660,0.059289917866942751,-0.082741931734636315,0.078212920129166558,0.099094669155452716,-0.25486061750111877,0.21140747124604237,-0.23075969591943254,-0.350549295530891,-0.32406908295348941,-0.11653611656853356,-0.38379931449096005,0.26041903076210288,0.2348080734880485,0.33178624649074667,-0.14062440541933668,0.21816383108884252,-0.17898031525289068,-0.250590914027432
91,1092,578.8360,0.060099569212772937,-0.11220481592842542,0.050611082183917244,0.11275092779750405,-0.24099281060384756,0.21988826718456855,-0.20317985689823809,-0.36873178947646779,-0.31129321767431112,-0.13471274430859717,-0.36953666817276648,0.26025762998611218,0.23168028320753681,0.34883932607591617,-0.1575035513625174,0.23818553781741414,-0.17878971052261028,-0.21286545072041474
92,1104,578.6620,0.10607451677955941,-0.1057063796940203,0.031309563450711245,0.11848056589190041,-0.22434492520407173,0.24936237050838628,-0.23611666823624988,-0.37497846796962164,-0.2994951238806422,-0.1013201440001695,-0.36589086290906248,0.24317551322733033,0.18810088842539843,0.33767752284544789,-0.16289698383072299,0.24713479351173165,-0.20772898622051472,-0.22699045237839502
93,1116,578.7660,0.072009365989984239,-0.074307622418325212,0.046867071886781395,0.10493763345975855,-0.24624971466937548,0.24699420991060009,-0.24979247663702861,-0.35346990621234664,-0.31263101141089239,-0.080682440714664017,-0.39333087710958281,0.22266510886718377,0.18241444592649383,0.32779584923810279,-0.16322802869931308,0.22859728379481112,-0.22242784390797254,-0.25629388833361472
94,1128,578.6640,0.075956108240731748,-0.10405012695627884,0.048394955559990051,0.10411202383505562,-0.28831787604536441,0.24767869556112365,-0.24655546864978034,-0.34312292491193092,-0.28408607718850742,-0.069580781602350261,-0.384755062062501,0.22755209171257484,0.18197329814838722,0.3560310002388829,-0.16696113457357262,0.20274971561239791,-0.22459815002145175,-0.25407944195213511
95,1140,578.7260,0.096027320837314439,-0.10697963510287409,0.05661394401908211,0.085826037564043958,-0.29152840873463176,0.23901188101379522,-0.23510977988190915,-0.34057649563805015,-0.29313720364813411,-0.071791560793337025,-0.35581438908473,0.23158506585032956,0.18656044624833862,0.35528017192573064,-0.18646821397544303,0.21128687385127995,-0.2243222928466021,-0.28020424645004349
96,1152,578.6600,0.11151117178692363,-0.10336731834130868,0.0002884819116339421,0.10352168554881619,-0.29709643784732709,0.23905385820092151,-0.25348523356783165,-0.33846477627689447,-0.29814423090090814,-0.057671708290083029,-0.37038441229945807,0.22727353271231038,0.13559356601089348,0.32837725741275559,-0.20260426277948484,0.18999745162146939,-0.22405623277674988,-0.29607111765605382
97,1164,578.6100,0.10917556710881511,-0.10243219359346714,-0.012242087407205404,0.095731533890032319,-0.28140210283891837,0.26348947846480925,-0.25065746477286527,-0.3477824161270992,-0.2758755509294758,-0.033117167939978223,-0.37716415062517844,0.22670460416139354,0.15124002887162807,0.35108200518647614,-0.20913045090037644,0.17692365225650014,-0.23977071059783678,-0.26835318395596308
98,1176,578.7180,0.080969918988103282,-0.044458747276969392,-0.021441902194848372,0.12524320879886872,-0.27002408613381051,0.26657753635407339,-0.25217655320713789,-0.32617925034369,-0.295489857093732,-0.060528764003889318,-0.35106091199188161,0.2499437203226331,0.12279231090619928,0.35145539365363204,-0.20783687544359872,0.21586079572114175,-0.24510770432257822,-0.27811118975658972
99,1188,578.6100,0.092498280325185062,-0.032069600931067033,-0.032319993852776445,0.13381064653011818,-0.29192506320710104,0.24818536858934709,-0.24179345536748753,-0.29389129172503869,-0.298956048457278,-0.031512651220555778,-0.35418087102146556,0.23140892743301156,0.13265084953544012,0.37429481692169952,-0.20467715379837575,0.18550925392441031,-0.24023972766447335,-0.31539838149476046
100,1200,578.6440,0.11012947217457662,-0.0274089531500212,-0.048191928945745727,0.15495950796732141,-0.27486864313713189,0.26519560053387248,-0.224548185986614,-0.28473228188463551,-0.31421303175308396,-0.03360753672645847,-0.32610441271499596,0.23841603933073885,0.17631953530112363,0.37037100170087828,-0.22732594231682329,0.17357387066947724,-0.24352097596796302,-0.30676280332095784
101,1212,578.6760,0.12414728394441991,-0.040673192891918418,-0.0363686510289425,0.17048759010078757,-0.28781837152496104,0.26533593327493882,-0.21511002744090604,-0.29760086930187957,-0.32107347219249277,-0.057278370996520771,-0.31339447212744909,0.22555152110036014,0.16077676101434893,0.37839217969971012,-0.20023103265369002,0.17567088112380169,-0.24980796705038466,-0.29843876555226617
102,1224,578.5540,0.11464117030868382,-0.035792937679314546,-0.046692693638944835,0.19468136052760227,-0.27893903277611171,0.28295024139235547,-0.2099987803814799,-0.27907966057975608,-0.31621827100811944,-0.062901353218424341,-0.31036400426635785,0.22058040074122651,0.14592476390698558,0.3759049188577025,-0.1813588702259393,0.17542347441219633,-0.26480125530146759,-0.32754079284144028
103,1236,578.6580,0.11760435189124112,-0.04267814791832341,-0.060867872057323635,0.15377424620495969,-0.263083323543665,0.28690932486907683,-0.18492078259007044,-0.28073646256338258,-0.31939777529945662,-0.045167964853877834,-0.33830647709897976,0.21143489777808935,0.1673977753718747,0.38700044051564175,-0.17051931071189444,0.185266981753041,-0.26963520276401709,-0.32597560129243836
104,1248,578.5940,0.096159077084793335,-0.023727270811154288,-0.06102993291345396,0.15050232175257161,-0.26445050035406531,0.27773833601983539,-0.20987449390571367,-0.26175036253147405,-0.32766310542943994,-0.019505723241578128,-0.35986574405176092,0.25121352533857111,0.15812943854254854,0.38211623439893583,-0.1819552659489253,0.16870484328049976,-0.26196289749360874,-0.30615065038911393
105,1260,578.5880,0.0984811925433331,-0.046458738854311184,-0.085043956349492508,0.15651600097510668,-0.26751829720716913,0.27068359151058674,-0.20810730551104595,-0.26743139524784304,-0.323912560092195,-0.008589160420546858,-0.37362409585180528,0.25813703870635235,0.16873883436197273,0.3693059793712975,-0.18113042674581215,0.15987967616069459,-0.24426310132353382,-0.29892698605332235
106,1272,578.6440,0.092177633225071012,-0.051079813930199815,-0.11010566373004094,0.18310036037620378,-0.26209638138174446,0.27884484185013608,-0.1999642917156213,-0.29911701633864957,-0.31727099693119143,-0.0092201482886216535,-0.38128670016430821,0.24142159132285415,0.13578817646264293,0.36172800242046471,-0.18459840897515903,0.15366188591646218,-0.24111115931121457,-0.29409801731526275
107,1284,578.5740,0.10476356902835558,-0.07024545138441,-0.10888097684135023,0.1579047154276314,-0.26893280301300532,0.269200287190811,-0.19589556136026087,-0.29444867244802991,-0.30860095233593171,-0.0027223948119055076,-0.38625697950044457,0.24767687052768805,0.10767284206359039,0.37633875576299036,-0.18142005695546054,0.15150337566808975,-0.2440482792946152,-0.30961415026363
108,1296,578.5680,0.10928650760930832,-0.068978492900669069,-0.10647214633337389,0.15664813922517848,-0.26577746283424009,0.2754731497987456,-0.20775141477597581,-0.28928725263128308,-0.29334503031547565,0.03301072524404542,-0.4077440350316715,0.24664977439386637,0.0991145505757105,0.37777864499435682,-0.18361793143256167,0.11415903203524529,-0.25309694330874172,-0.29813408962095678
109,1308,578.5660,0.12225860500261601,-0.060942081900646157,-0.12303730218247524,0.16996485954118859,-0.26956707964535581,0.28494354975921288,-0.2132730133240151,-0.27454092670990915,-0.2648939413623137,0.018328089262598879,-0.38008624556116721,0.2374208078929082,0.11965708485618105,0.39591540208543291,-0.1921878350746247,0.14335198709196392,-0.26511614392678867,-0.2921155992403584
110,1320,578.4420,0.11020255098007488,-0.047624059819751347,-0.1085535201440983,0.16328869925924569,-0.25234895758891424,0.27684047332970474,-0.21736224371920695,-0.26853491295147641,-0.27359821181806082,0.020747648542773854,-0.38281686982469182,0.25000205698500638,0.10361377011269929,0.4136472997299962,-0.17887454690435689,0.14129730320060907,-0.26156077424940921,-0.29823777021909437
111,1332,578.4820,0.11908407600506087,-0.050567432638489042,-0.10988339410960153,0.18562116371073115,-0.24914325921371905,0.27868467053631724,-0.22289167436988422,-0.27521092098189148,-0.26914073540450323,0.017320193609431454,-0.39349408193758106,0.25873519780737864,0.078933857011487737,0.41206235620043857,-0.16133314484684855,0.11022395320228889,-0.25350619192131474,-0.29960021021788807
112,1344,578.3900,0.12537794962873006,-0.049556269911548753,-0.12253990039709266,0.165091761165273,-0.24687110769388829,0.27567731639876469,-0.2271424086300185,-0.29951338020570267,-0.2452646183136738,0.035555520558007994,-0.39782561835109465,0.26601435232016507,0.078104222731651574,0.42265683140458371,-0.15151925861867316,0.062238860664318364,-0.25998968511531245,-0.2883597031208997
113,1356,578.4740,0.11754164226456831,-0.041456666504691854,-0.11557473069241372,0.16843569317676035,-0.23557351217925526,0.28890965110660144,-0.20471434127600466,-0.29211082347737843,-0.25517454312990678,0.0045049697671234361,-0.41653114940992542,0.25563336083140131,0.090533663246168378,0.414869523357017,-0.16790032990725004,0.054003570039888475,-0.25976932357762761,-0.29439335161197244
114,1368,578.3900,0.12043106400692669,-0.039967836256673696,-0.084780607554719084,0.15039417777471531,-0.24991342451759216,0.27746198096577346,-0.20565816956342728,-0.29901860746729658,-0.2711839454708258,-0.009574501539573595,-0.42676004742617052,0.23045550461347353,0.088825785638388055,0.41798159404594787,-0.16323756219961916,0.066757304845742937,-0.25506646681191719,-0.296016832147374
115,1380,578.3640,0.11877747764535625,-0.037492672534417834,-0.080294244220438085,0.13415013931964923,-0.25629548233740712,0.27881783099002805,-0.19598507766519174,-0.32316902974904338,-0.26690552344165547,0.0021766237593028055,-0.423937452487149,0.21706599745250682,0.09006010266193519,0.42632275504384587,-0.16788433177820675,0.074418404225435039,-0.26184432086706444,-0.27751935938369482
116,1392,578.3980,0.11547850552824547,-0.021504747706302386,-0.07014308236172602,0.14395592422133185,-0.23771058357289307,0.26232040388057087,-0.20536162928718782,-0.3327897677948376,-0.28991051241904153,0.0087361934091073814,-0.43859381220717125,0.22411731132544926,0.076835618689864355,0.4056708945886725,-0.16999593635980223,0.0800017192069273,-0.24973458561472808,-0.27848624221862633
117,1404,578.3720,0.11059234531155075,-0.01703726591377178,-0.054468663863638467,0.17510895328115211,-0.23030688914578035,0.25941624565756016,-0.18473665944245032,-0.35383662217296635,-0.28811575410781648,0.0059515689016183052,-0.43393304304621155,0.21788291780031668,0.057165459979073928,0.40688975577442543,-0.18044069354770906,0.0742355863261703,-0.24635233975942614,-0.28411396686530893
118,1416,578.3740,0.10499965249896547,-0.024596588696089123,-0.027799239766082,0.16763284683253268,-0.2612298044367562,0.25685566776547691,-0.20162304987760088,-0.36119230709694405,-0.285683036523576,-0.012171195071871798,-0.43145850942198927,0.22084886347462077,0.056325054394316378,0.40820819932528479,-0.17515259665602548,0.06852483048405654,-0.24853091552042098,-0.24807249213357147
119,1428,578.3740,0.0957081476575325,-0.011250472390606388,-0.05696909314944533,0.19358116325972363,-0.24575611525691005,0.26437242064942329,-0.20053045869874855,-0.35864247215970507,-0.30489001780572933,-0.020576949372018809,-0.40654492634667622,0.22485652463231,0.040143188990146655,0.39921185048140678,-0.19192460943771142,0.083780761406195281,-0.24813274757735881,-0.263254990511056
120,1440,578.3740,0.11284857361074689,-0.001176438289497506,-0.04145162236901119,0.19230223294887691,-0.24353904818650066,0.26108481146809831,-0.20311670213673,-0.35407931572932538,-0.31770954562730014,-0.014559760760146277,-0.4159424908575684,0.21163632415647507,0.054929302126152407,0.39163565427147007,-0.19185761063174106,0.079643438689806709,-0.24755865171808225,-0.25633048081523352
121,1452,578.3720,0.10220883348833344,-0.00998026380634835,-0.027139354411644528,0.17616205617741271,-0.24342371724953665,0.25872398565295246,-0.20951030930831741,-0.38389885638813748,-0.30731216454831362,-0.035466776400908749,-0.42001045441248619,0.18950470976062858,0.053007757993796242,0.3955644240981333,-0.18624198586469159,0.0768031806629812,-0.24138586980819637,-0.25517066575934727
122,1464,578.3740,0.09618815469202599,-0.0047592857970534174,-0.036203005808381844,0.16232351671831105,-0.23540977114597617,0.26714849608264135,-0.19880490357200606,-0.40121156449777656,-0.29620064029685678,-0.027070242874976141,-0.42223560387387754,0.19039196944325834,0.043683003853192251,0.39546065283763515,-0.18309500202339571,0.083029761233330307,-0.25243419745115336,-0.25300307851746945
123,1476,578.3740,0.11133257443966568,0.0086517690666357179,-0.042219374406374313,0.15912961583656191,-0.21966919275205588,0.27362410974574308,-0.17671622845570259,-0.391452488676859,-0.30725961054654838,-0.013690649008056268,-0.43632790853971515,0.19248546865814198,0.042451871930760048,0.39311366271485171,-0.18746106493231141,0.072696424910228721,-0.25588867147649252,-0.25093014411091619
124,1488,578.3700,0.098282152375500378,0.0075093346494838628,-0.041732974810020938,0.15823772577153555,-0.2323885111622033,0.2722723876417073,-0.17878628532083457,-0.39029792187703882,-0.30647650072627663,-0.0042935038818470639,-0.44692361552648546,0.18873620154502332,0.024071161336200887,0.37069051334424008,-0.17570082550029073,0.072312538082726974,-0.26105885958421371,-0.27231168194070632
125,1500,578.3640,0.10323042444658304,0.010479216002210861,-0.029724362898730716,0.17875642505880535,-0.22558915527629927,0.26774620834560486,-0.17664491122753165,-0.39699832472462815,-0.32746512895071456,0.00221703442385751,-0.44319233354668958,0.19470371802031836,0.028648894054950719,0.36328663356440932,-0.17139583297521438,0.068376965444777948,-0.25685821227977845,-0.25450666847370546
126,1512,578.3700,0.11664486362339567,0.019906509754130164,-0.034841489640180023,0.16635296499443455,-0.20877518901281594,0.26646622245309265,-0.1638952602327472,-0.41467648543026148,-0.33595390267738967,0.005154850858860951,-0.43587699746780234,0.19937560152629777,0.02580395850743741,0.35709065950897018,-0.178690134278935,0.064022281173953241,-0.2577343955612123,-0.258156344712637
127,1524,578.3740,0.12216126518715881,0.024459431310964307,-0.04826545779925763,0.16366239064604232,-0.19391737236605613,0.27688012849980725,-0.15886542861705388,-0.41312467129017105,-0.33619900115327694,0.011670911653741126,-0.4249265146323043,0.19204935303822304,0.057871110844284777,0.36698978742000354,-0.17344377737457806,0.0580042559254321,-0.26523364511394332,-0.26091422868179648
128,1536,578.3740,0.099656666412063291,0.014994653678919447,-0.039727876406741872,0.16747922241152957,-0.18799598815441829,0.27559231477642038,-0.14970349662315521,-0.42919409540722242,-0.339329113501298,-0.004259487499765212,-0.42295932515796858,0.18461073341766895,0.060128162317440843,0.35214461514201106,-0.16462748324174,0.083416468853788964,-0.26032386770563781,-0.28029640833959918
129,1548,578.3640,0.0840323630917344,0.0079952940404678739,-0.032619379312645407,0.18858355544041563,-0.184528964490592,0.26986867311252016,-0.139479617193119,-0.43340981801517231,-0.35050232340289533,0.015628660203680075,-0.41460019847824259,0.19041123850927891,0.04391241659389368,0.34406780590487762,-0.17205211135855525,0.0658752919055992,-0.25630934318710979,-0.29329537988792104
130,1560,578.3740,0.096897359311726036,0.0097905419858441648,-0.011070232139102526,0.17470506587295823,-0.16437144064272394,0.28122035368926618,-0.1138084450226509,-0.45764358905781793,-0.36349429732386324,0.0075887871572851368,-0.42072144135338818,0.1761128105907793,0.047463202512240982,0.32665145329803336,-0.15987703934312628,0.06409869681246369,-0.26605506010173952,-0.27547884578241633
131,1572,578.3680,0.11284235982493228,0.018547260833798058,-0.0089177132878904986,0.17297816637093633,-0.17887180596077487,0.28416077703060105,-0.12753618182584794,-0.430037099138385,-0.37482587282280916,0.012629464220419148,-0.42653185538832117,0.17444517444110388,0.033351091057778143,0.32665695977431458,-0.15042113877596244,0.046766654739180888,-0.27231649808334923,-0.27409727883555546
132,1584,578.3780,0.11364685569114179,0.04667481146829458,-0.015665838918309128,0.1631108224281603,-0.18030104382342424,0.28020352198666149,-0.14589586115042458,-0.43649671150013292,-0.37782665410287231,0.027185947130075303,-0.41604390788048862,0.16622057332009771,0.033963596147036687,0.348889847261594,-0.13658432830714318,0.038372670158423522,-0.26695285636891308,-0.264771772950178
133,1596,578.3560,0.12658539316811512,0.061850419161372253,0.0022837589759389979,0.1770916346188032,-0.16623359782892327,0.27999371526586614,-0.12805473322697231,-0.43853406811774531,-0.38864805087377896,0.036002332456286534,-0.4162691154319777,0.16737844316459805,0.037315269431429675,0.33286046938224556,-0.14018843248090027,0.022759750235778389,-0.26849545612795928,-0.26332964455323965
134,1608,578.3740,0.13009749396083461,0.072800086888736432,0.006361741363747014,0.17931020581166349,-0.17158657885196754,0.25598308401253173,-0.12577440387663205,-0.43659174134717826,-0.41255493395495696,0.044933942452383496,-0.40040588994315529,0.1853197863024271,0.036184396862136856,0.32226403921311009,-0.14722736831022526,0.0402027066085059,-0.244937456419854,-0.28658277145018723
135,1620,578.3880,0.1289419238532197,0.056352866722903162,0.0040040026702036075,0.20310364460404198,-0.17056053901645621,0.25491723071705297,-0.13791270482372694,-0.44751127888712183,-0.39401314042174912,0.042394977037532131,-0.39568242961074374,0.17339625906999231,0.04947330225142163,0.33995247065659578,-0.15254005588122477,0.038017037700201206,-0.24134803892814277,-0.27376092206658509
136,1632,578.3720,0.11987175940567442,0.068869441381813487,0.01775800756911021,0.18866504245458238,-0.176215564181443,0.2628487653092102,-0.144556817056906,-0.43531995574698257,-0.40198795146041033,0.028642487901352584,-0.39989284550173909,0.17507809736823227,0.052895887468430658,0.34420467557413914,-0.13789822851962533,0.041069206378858032,-0.24838193795447558,-0.26567818143400646
137,1644,578.3740,0.12030627909851876,0.077749603892176389,0.024903182807009244,0.18930642785324051,-0.16154987453800349,0.24646516187679329,-0.13415175645799232,-0.4355932681658875,-0.41234744653254296,0.0070178209963629307,-0.4190106226023208,0.17258995200045962,0.040109505508939873,0.34032694699981225,-0.14394441776356595,0.055675795778544084,-0.2388441538494237,-0.26039643277266239
138,1656,578.3740,0.11934409674617079,0.062741329880934879,0.024661416311222567,0.18384442800501588,-0.15754665308785912,0.24499641371561642,-0.13834829544859678,-0.45492721769702754,-0.39750351842637832,-0.0034742767389456231,-0.4171996317304108,0.18022682494423903,0.045179239867807343,0.33205858718469888,-0.14594705274975836,0.053137562169970995,-0.23381012501794285,-0.274801177291716
139,1668,578.3740,0.12347957735003472,0.055061659502190906,0.020108294988628105,0.16916020223949627,-0.15136531092621211,0.25473047456695,-0.14450857577621709,-0.44999916051552197,-0.4000909668036875,-0.0082942485588480778,-0.41794274580063523,0.18241846218244964,0.056425171726167747,0.32516282864040569,-0.14744368973332789,0.059096492683359252,-0.24040000816149898,-0.27677406690893486
140,1680,578.3740,0.13138399879932211,0.060349335901240433,0.016855583026038953,0.16721100280615411,-0.1658565549599261,0.25366255119643932,-0.1441369478695059,-0.44340919550512997,-0.40186545135362217,-0.01679125083579271,-0.41505556521944231,0.18775139363096049,0.076827253692260164,0.32914720585661938,-0.14163490313483224,0.059803334494696735,-0.2370888679097371,-0.27069791976334812
141,1692,578.3640,0.1260337357550303,0.066195626998073853,0.0089424001784677212,0.15761765677031234,-0.16701206993305398,0.24488999437766876,-0.13296404074904664,-0.42623415922831348,-0.406231670209038,0.0061992268028323158,-0.43629311651095759,0.19836808734442576,0.066200723820523347,0.33681180514154785,-0.13675296705701029,0.066099631799432748,-0.23705552502889521,-0.26735688222368775
142,1704,578.3740,0.12763334135382823,0.073938900513571243,0.020777136536373277,0.15718235702190647,-0.16211953149793185,0.25032307694493072,-0.12825949108947177,-0.43353269476645023,-0.39943847321266041,-0.01187413225988561,-0.44369558090680578,0.18812041572171084,0.073896092468363733,0.34110387491831545,-0.12320923670925976,0.074501570551215479,-0.24144696819965103,-0.25273816826215229
143,1716,578.3640,0.13286071751097453,0.068332760183212479,0.029604250111357876,0.16755626381094735,-0.15497058437241631,0.25386778637033386,-0.13017832952349342,-0.44226481317816563,-0.3847432791667133,-0.013712618233040076,-0.44519666820939513,0.20756801798720317,0.0744782185091808,0.3349216711961881,-0.13306580839052112,0.051962841456276283,-0.2447384485890087,-0.23669014622609219
144,1728,578.3660,0.13673309406825995,0.058190448006547504,0.023001347016527215,0.15619200078682793,-0.17249748449198518,0.24606211039038328,-0.13105417063956193,-0.42717811683104334,-0.39016918759775066,-0.014091489639909078,-0.44685180872217267,0.21364581841045929,0.071139197844505314,0.34314783507215807,-0.12990755881576149,0.049750568874451062,-0.24308541677818588,-0.2442537980969598
145,1740,578.3580,0.13544848814644428,0.042950348473974262,0.022151225570275164,0.14909919902313551,-0.17723014558279571,0.25936797163013681,-0.14022325328852744,-0.41403750392461197,-0.37556698292801433,-0.023861226075214098,-0.44349584735930409,0.21957758499239105,0.084622367277999669,0.34540903950478635,-0.14588672497189364,0.056203110994299137,-0.24904541730422439,-0.25366694112268057
146,1752,578.3620,0.1240992412018317,0.04468472498090393,0.0094903774486898157,0.14047418368568143,-0.17827148498876536,0.26326617448829931,-0.14342561249348054,-0.41514010267863927,-0.37311076411017152,-0.02271166497752471,-0.44608080394883676,0.222017757924672,0.09225962729868277,0.33681373808728221,-0.12965055975393322,0.0576271561557688,-0.2544853333891483,-0.26697685505556384
147,1764,578.3700,0.128134096764825,0.037617553405819695,0.0085405101870243329,0.132820538917626,-0.1777346292166522,0.26265630992410388,-0.13264409305807118,-0.41532329494152831,-0.36738307169717954,-0.021277149492635969,-0.43921266051451419,0.22833403254310838,0.09990096294118031,0.34047583667512843,-0.1288723276262351,0.063000400888886768,-0.25110377024404779,-0.28605446679560464
148,1776,578.3700,0.13897678467604435,0.0316268134221239,-0.0025796830077998304,0.1276655392339959,-0.18527992551991962,0.25800897274272128,-0.13624134516819666,-0.40617853845369073,-0.35590912440982719,-0.016338756620470549,-0.45210743640690526,0.23093048492618878,0.092093928195637692,0.34073602572798928,-0.12448031225340148,0.053742256146977474,-0.24799581462056045,-0.29593022199534791
149,1788,578.3700,0.1504004842903566,0.050487027517496584,0.015991256009024457,0.14077630405461375,-0.17855380357223316,0.24609551156821488,-0.13282901974832123,-0.40377676405443735,-0.37162338134397738,-0.014420801782631691,-0.45210110683675553,0.232939314425973,0.084550410891074512,0.33934106426286387,-0.13202032990499152,0.052719453302879221,-0.23749612594929959,-0.28591101227655108
150,1800,578.3640,0.16253839405783929,0.059712382538602074,0.031377064610109362,0.14210451869384622,-0.17473323270557273,0.25250755922183815,-0.13842152618986306,-0.42204291664249977,-0.360290694676032,-0.019273783261817314,-0.45374410104944268,0.21852162179245282,0.070702547511286837,0.32788773479046018,-0.13575106430714462,0.046228435192494567,-0.24226315207489929,-0.28045821313618052
151,1812,578.3640,0.16044533864305469,0.067704913660210031,0.036530719470952926,0.13882138439584432,-0.18131016949565787,0.23983862525350649,-0.14305628572628129,-0.40878116098173473,-0.357801107726184,-0.016790916991892262,-0.452766728270322,0.22658698764749066,0.069715145688730148,0.35461283225950407,-0.15161490958396168,0.042428196215648965,-0.23157128246276357,-0.27403128400467447
152,1824,578.3640,0.16152447373927767,0.0694071718809211,0.03291673520902666,0.13821920525087214,-0.17769654026207482,0.24150437070782185,-0.1430047398568354,-0.40751084362931317,-0.35604476509788391,-0.0090349534153916118,-0.45342834935840504,0.22219465667227278,0.078139939516008186,0.36021056182454381,-0.15132454926510405,0.039434167232660945,-0.23206127200070212,-0.27153172371778378
153,1836,578.4000,0.16838087346699981,0.074037183887720862,0.032548314041404521,0.13669385788936883,-0.17035865565926353,0.23880202051891608,-0.13576653871058089,-0.42221006492304514,-0.34788445781092736,-0.018886807739307246,-0.4475564001504177,0.22661098040063979,0.071826209652299189,0.36012432915572484,-0.14746063908139556,0.035834326968113908,-0.22578005655243924,-0.2813393732024746
154,1848,578.3740,0.16520428608240051,0.074056214416249558,0.026652250114291114,0.13801538876061004,-0.17903993053392131,0.23708149296864836,-0.139931654304728,-0.4166182251911178,-0.3472243091476977,-0.019104953175137839,-0.43481700113193311,0.23613869668196921,0.067951640122649037,0.36495876042174769,-0.16099484296117669,0.05394415106608854,-0.2278439302975159,-0.28148438370331685
155,1860,578.3640,0.17103750258909461,0.0540308436409912,0.030398415714735491,0.13699150758910977,-0.17844216659200976,0.2294065004031208,-0.14692621739448838,-0.42567973680718052,-0.33457599169025343,-0.031447821191821088,-0.43438623949973304,0.24416842590404711,0.0653806756510102,0.36378179443059405,-0.1705016053143317,0.049683108543147232,-0.22135132224013454,-0.28243640834015393
156,1872,578.3740,0.173891286873676,0.062936171253513834,0.023573643156165777,0.1374580238464371,-0.18174984347412332,0.2269273448069668,-0.14948349520158694,-0.40845432886910693,-0.33845384716225418,-0.027857813766040143,-0.43139456743200416,0.2485728022560964,0.060231542988145689,0.37493112373331067,-0.17047611084023945,0.054602019115339143,-0.21233814211570032,-0.29150057698230664
157,1884,578.3700,0.16221932290980651,0.055172106061481846,0.016811505240897674,0.13929681903677715,-0.17944929705996687,0.22514360579664214,-0.14474371524455032,-0.42086388047396806,-0.32897570440323071,-0.035098229592742676,-0.43967584070737575,0.25342581676293446,0.061508378921401576,0.37672074306217368,-0.16465626015052517,0.063539771701392925,-0.21231285865015831,-0.27881989273701663
158,1896,578.3700,0.15291374203891869,0.042555512352385062,0.021220805153505641,0.13506661658379962,-0.16812535864856243,0.22682669716765128,-0.14417238430509435,-0.42010459273075046,-0.33824241278278849,-0.0372450928132558,-0.44405309805680609,0.24733676270374721,0.073092811848132669,0.38594087642928193,-0.16727120601859302,0.050138578654611278,-0.21643215961064516,-0.2670608151942987
159,1908,578.3620,0.155653007298667,0.049313524870092107,0.016824358682994794,0.13903396723094702,-0.16599060324530765,0.22507400457301122,-0.14810601152585917,-0.40550356701797419,-0.34401214805953184,-0.037863582103656576,-0.44743492995763295,0.25388859307460743,0.087438033574009949,0.38888808572371947,-0.17258662709946149,0.048248723565552556,-0.21439308088931788,-0.2544507810937221
160,1920,578.3700,0.15693573790940737,0.045845783835085516,0.017767656515223978,0.13641738299320369,-0.16479944029272467,0.22950598226334007,-0.15006203217871164,-0.41596851489960829,-0.32727354405147707,-0.038297327074710071,-0.45369528857306712,0.24823661088857868,0.081842329734070685,0.38958819546644524,-0.17366255439253755,0.051418249687029606,-0.21517101106917197,-0.25139030743695756
161,1932,578.3640,0.15501475631259076,0.05760300932271082,0.024135224952908395,0.14201292360560278,-0.16009316650619113,0.2281859296110815,-0.14113048044163087,-0.41094767793523729,-0.34439013863977552,-0.033842525390213263,-0.44894011336290662,0.25739740148101475,0.081636766906266714,0.37987692265366929,-0.17324984293602466,0.048809296047884317,-0.22322829693085369,-0.25049362436486755
162,1944,578.3560,0.15184692306481024,0.061426748306220386,0.027422950378693953,0.13383978982212316,-0.15991608032610502,0.2241748676425252,-0.14055177823704806,-0.401057333703655,-0.35388503958927808,-0.02056925261291891,-0.45679041785459007,0.24426360365965966,0.073893168274191331,0.3962098387805818,-0.16794064153555746,0.042067298618970982,-0.21909604885806414,-0.24865011872051188
163,1956,578.3560,0.15398398704765984,0.0757151362482214,0.033540543091776176,0.13336771932868213,-0.15820356012822218,0.22414391993573693,-0.14347157236169944,-0.41433521565849296,-0.35437804518842325,-0.0264225886252165,-0.45694757548923293,0.2315794144094713,0.068748677546104128,0.38550128466142547,-0.17342215733082647,0.044430404982537933,-0.21642064137961312,-0.2474395290171589
164,1968,578.3560,0.15373815076605743,0.07806831634511803,0.037947084933301942,0.14132214979986563,-0.14894974031389902,0.21896797612753521,-0.14510266465213212,-0.42464769535798791,-0.35842624609960361,-0.0396231475061264,-0.4521602651514936,0.229415396310934,0.071050179008017036,0.38461582736801558,-0.16593392083058078,0.045529579543564638,-0.21007061784724143,-0.24824069853494113
165,1980,578.3740,0.14916618521007702,0.080378264125684384,0.038339498128047239,0.13506092634150316,-0.14437799880667118,0.22129253406135554,-0.1419748947272379,-0.42328188829229,-0.3636997550799641,-0.046803426611641066,-0.45347201741957349,0.2219943272745093,0.073727057315171415,0.38290071960901628,-0.17083915201412278,0.042932060720168259,-0.21224986744924951,-0.25202477675653273
166,1992,578.3660,0.1582089493436698,0.071499969111010919,0.043382096017073692,0.13638040708807808,-0.1536002318642499,0.22580765316132728,-0.14862240711483204,-0.41944957516267545,-0.35835652388840605,-0.053383787362488236,-0.45095636970669217,0.23235883197197527,0.072833164228280636,0.37985744387019621,-0.17424995685486833,0.037017770437127687,-0.2143254257068806,-0.24384267797571402
167,2004,578.3640,0.15987487434853345,0.080524753160618218,0.038424141696247013,0.13928341664091359,-0.15004252251145228,0.2222811896080355,-0.14380135280092296,-0.421923677678389,-0.35732174272127154,-0.043866653104741346,-0.45323355103698065,0.22679681913425359,0.06498954186542466,0.37929402782418475,-0.17987093843479385,0.04121607544673811,-0.21252945217787353,-0.2479498272841128
168,2016,578.3660,0.15844072756033162,0.078557685597942836,0.038663971118520463,0.14154176014625747,-0.15150422238566003,0.21923669786996478,-0.14728279037951003,-0.42484793165465218,-0.35114200172557114,-0.044790308400451721,-0.44850131306400892,0.22446340337628645,0.060989603109269271,0.38551214450598825,-0.19099603490403741,0.044790896540321444,-0.21385409882855266,-0.24380926165713457
169,2028,578.3620,0.15804096882423233,0.078958000489944918,0.03260318938618282,0.14731968380329322,-0.15707902481604968,0.21912457378574265,-0.15162592670536232,-0.417936783957705,-0.34646648847591138,-0.053981928732985587,-0.44872378051467743,0.23104184187227816,0.05737730371393026,0.38608211049289565,-0.20017962493848865,0.045703711323703461,-0.211113130727953,-0.24041092297979058
170,2040,578.3620,0.15769430407059851,0.070839949350268328,0.0344327732678602,0.15001157188008965,-0.16336617764744582,0.21975847193040854,-0.15049117462685282,-0.42050419167232989,-0.34371699543125722,-0.059932843917811542,-0.44545643592931777,0.23255814875636477,0.053391233026771255,0.38191598968496854,-0.20065025654271371,0.044256789300970205,-0.2114216123779149,-0.2461914517724022
171,2052,578.3700,0.1548567736643289,0.069403575234789155,0.026798534080248498,0.15851232618932221,-0.15456477157589468,0.22010149542790491,-0.14583540950677967,-0.41816420136992138,-0.3382964418524394,-0.069317827668642723,-0.44513490540272793,0.23426004743564791,0.044037328648007162,0.3884272456311319,-0.20369331587914075,0.051713291800417747,-0.20915358147295202,-0.25005795582712859
172,2064,578.3700,0.165757775552309,0.06131260025501041,0.028158632887134667,0.1585366885296719,-0.15862595059823914,0.22214504005739602,-0.14481379241173198,-0.42098610331765646,-0.33470575971860889,-0.069905725761717344,-0.43877840330993295,0.23238144034322211,0.0453830163724561,0.38727866217286988,-0.20267665779328053,0.054171853879014166,-0.21175062699844396,-0.25384400089538256
173,2076,578.3640,0.16369787307898015,0.060895815206205753,0.029463575740212359,0.15393852656296811,-0.15857286862984382,0.22528536201960639,-0.14726296003575742,-0.42643440526952719,-0.33166184676820409,-0.0711278195754676,-0.43782316793670795,0.22741277022290396,0.047630209530043127,0.38450315234113774,-0.20073868988967022,0.051499177349405421,-0.21819351625823458,-0.25508181697660109
174,2088,578.3640,0.16489557560013607,0.062291459681428775,0.029906540425011431,0.15784240657785931,-0.15400920880350757,0.22856936890697394,-0.15284423809207964,-0.43430276484339536,-0.33411765859984172,-0.06691803465922759,-0.43151773046736625,0.21904313281510818,0.04589056459775117,0.37961884022636327,-0.2086236323983616,0.043967342791661188,-0.22020494809937652,-0.25217970626060188
175,2100,578.3640,0.16483722837504541,0.069473814933916578,0.0256059459424992,0.15511642366105366,-0.15521280617237931,0.21918871090904163,-0.1487743071696245,-0.43343916000736016,-0.33068303809122562,-0.0739971863278618,-0.4311288198957548,0.22733545314831574,0.0554530775799291,0.38750573045601816,-0.20566079281980906,0.051405632746403689,-0.21471860092065934,-0.25181969318491043
176,2112,578.3640,0.17029535662514736,0.069553977953455068,0.021292807823500143,0.14989956311455724,-0.15958296971624411,0.21641599181267615,-0.14647300157697649,-0.43710522463237927,-0.33257739156601329,-0.077368730062783719,-0.42889773334546349,0.22932559180463041,0.065326360631492969,0.39292628256977591,-0.19682367233895465,0.047972249849927429,-0.20985339222321109,-0.24605714612171731
177,2124,578.3620,0.16719236269666735,0.064393915035269242,0.024407709316101894,0.15319915039479029,-0.15648540911934072,0.21798367074830047,-0.14423282905827084,-0.444981689369903,-0.33498077133092452,-0.082038912523884927,-0.42809947817408955,0.22824852041794261,0.071537225288101,0.38498440348297081,-0.20191173314358529,0.049354245715565764,-0.21082161100508212,-0.23843436596207779
178,2136,578.3620,0.17365918006297917,0.0628137379086296,0.028349842309489452,0.1512580834176302,-0.15081383477551791,0.22304844715578145,-0.14010974634270196,-0.44292612552614546,-0.34325518576904296,-0.085103529229110214,-0.431110728231809,0.21985548713609621,0.074168309940131932,0.38176631416540047,-0.19860700899748387,0.048513791721297966,-0.21309586864453908,-0.23557516726413175
179,2148,578.3640,0.16971379428015765,0.0642367076560978,0.034374353989584,0.15087847982166308,-0.14763260338523843,0.22168545464166603,-0.13570952060452993,-0.45014848681144204,-0.34253790105447157,-0.076393079393288682,-0.43725116793340385,0.20195225008611656,0.070528582835793011,0.3850921655727591,-0.19029906709537703,0.046144328105666689,-0.21368894437159913,-0.24061257194099417
180,2160,578.3620,0.17138923880081866,0.066144367498132725,0.040150309401727008,0.15713836120739391,-0.1501132875265217,0.22131879220164632,-0.13394064896144164,-0.44958352839471616,-0.35202072473879403,-0.072949790212617521,-0.43367674467062456,0.20668298186577938,0.0676984735666145,0.37607087825134083,-0.18877539951407293,0.045606613385003145,-0.21438389436913774,-0.24028311321767967
181,2172,578.3640,0.17171041787177047,0.073013210800104186,0.03664233384472889,0.15842209923396972,-0.14826796304158071,0.22065548409561003,-0.13168426796236324,-0.45530394865925794,-0.35934853390300087,-0.074489917942647838,-0.42582872657197712,0.20599233603878331,0.064931995016258612,0.37783242690489544,-0.19134149302527712,0.043593255413964555,-0.20977648471980492,-0.23326052541885339
182,2184,578.3620,0.17275513674117732,0.080171243258752009,0.037178112991219057,0.15883859971147074,-0.14929313225378929,0.22064003054550041,-0.13609894625245192,-0.45307005949186346,-0.36903117524348972,-0.0716135392710385,-0.42028542019585435,0.20361594012466433,0.060231963846241229,0.37285765941545324,-0.1923609312029286,0.042546510755516451,-0.21305438863429407,-0.23529313864805168
183,2196,578.3640,0.17148400104031611,0.077259159606827651,0.031774885867854923,0.16571160388173295,-0.14639388013489102,0.22390322250407443,-0.13095963071809721,-0.45331871250565881,-0.36707568327413204,-0.082761479218406223,-0.41254460149093208,0.20168571535367122,0.067236517982832172,0.37836729776601852,-0.19411834754180537,0.043262324800291817,-0.21385065604320169,-0.23499930554708329
184,2208,578.3640,0.16639224078494352,0.070856644797146318,0.033151537000560755,0.17266505770296539,-0.14718224893757759,0.22225513442082306,-0.12783547417312055,-0.446022754915067,-0.36772561249892094,-0.07916447253382887,-0.41698989740556397,0.20155989335027327,0.070511190478721036,0.38272141112506158,-0.19083871940177194,0.044085786682657932,-0.21365133752408297,-0.24003139040173138
185,2220,578.3620,0.15793981306592322,0.087701031683781058,0.03546219775743565,0.17836000423711104,-0.145635260824489,0.22140875535822829,-0.12690203043829806,-0.45162024992173982,-0.37784241251681755,-0.076429402646167155,-0.41446812520463278,0.19984952645051787,0.062919097824125358,0.36988405567873756,-0.19020705509073105,0.042603150290381107,-0.21573784284733605,-0.23881306710786504
186,2232,578.3620,0.15671567393803262,0.091758289453597139,0.038045608311947143,0.17572863710042214,-0.14590406832308297,0.22058080398608582,-0.12787612883751556,-0.45011131969759882,-0.37374266441573506,-0.079541547398165463,-0.4164877591868747,0.19951987842906141,0.060878664448564657,0.37107940572368986,-0.19392238843427637,0.045329047216036505,-0.21294313247173258,-0.24389866293515167
187,2244,578.3640,0.15516552089397936,0.099278247013074528,0.042161676294079922,0.17970124920471059,-0.14710971990895066,0.21982953390700125,-0.12639669415160176,-0.45476881772598055,-0.378173834788683,-0.078802436109016466,-0.41551173661155455,0.20134071313209467,0.057008218375445563,0.36479257235946472,-0.18242623485677073,0.042775053014064708,-0.21270645943593139,-0.2431349849872583
188,2256,578.3640,0.15573110997133852,0.0958877668733695,0.043576623417042618,0.18166614896228259,-0.14762058623867963,0.217058825915519,-0.13712121006982436,-0.45420792704070578,-0.37450004108814011,-0.074757464570767762,-0.41883124643648911,0.20093502058165727,0.059207811979868838,0.364882469331907,-0.17943535532667479,0.042994094765880633,-0.20994853022328588,-0.24528788895704384
189,2268,578.3660,0.1503072591268767,0.10040401897444685,0.049239628927731593,0.18688992143634708,-0.14552452365674534,0.21607508204836653,-0.13412827570058769,-0.46249839996659281,-0.38221239500974868,-0.083658549372301591,-0.41796102055767709,0.19088691312692574,0.059688043638802993,0.357377670010726,-0.17601700850077787,0.045805922565526055,-0.20979557353184486,-0.2378028646168108
190,2280,578.3640,0.13972549565830583,0.10610323841824125,0.048722452107851769,0.19343016005317029,-0.14112144659161555,0.21381566912353023,-0.13076040582521209,-0.46494866857423872,-0.38938231011117874,-0.08391961864335834,-0.42019790593409745,0.18804951101248754,0.055961261887783789,0.35948228122106951,-0.17573591027137464,0.048237850278310769,-0.2028190314228559,-0.22878738345033905
191,2292,578.3560,0.14408917515601605,0.10787525809997571,0.053175078054956727,0.18997624836061131,-0.13830069958303182,0.21702567644822632,-0.13310999316775873,-0.45991729072214615,-0.39181056091055971,-0.075109837685612038,-0.42928103704090848,0.19621628868503443,0.055027939521182512,0.35243681115208525,-0.1682210672118345,0.041376895750283617,-0.20504703231123947,-0.22484959685465361
192,2304,578.3580,0.1464904742485211,0.11147441462836656,0.055369466414021663,0.19208396529658972,-0.13191820695687828,0.21569950309060237,-0.13422337756864078,-0.46494840123350623,-0.39641690929263595,-0.070731237329808447,-0.42683478453190071,0.19031143269570891,0.0520034827899297,0.34955510182505828,-0.17193252595220782,0.038692810461743117,-0.2012459035192192,-0.22377712733070684
193,2316,578.3640,0.15392678413490885,0.10997170045261882,0.055912391235888863,0.18715567748921452,-0.13572871607933534,0.20891383397321028,-0.13714647065974869,-0.46474414054423835,-0.38790261470554421,-0.072485000209237344,-0.4255951692348614,0.19654813558763948,0.053722858826468767,0.35783621643832392,-0.17477441934075783,0.042195142652687923,-0.20248569726345469,-0.22088029826380151
194,2328,578.3660,0.15817153608118656,0.10732050352965029,0.055356230412063522,0.18412121787226318,-0.1374090835356114,0.21171307696764624,-0.13604592535695303,-0.46953155304880151,-0.38421341933426534,-0.062166917639304674,-0.42014726694974625,0.1963099729566698,0.065501215133044341,0.36232214521494183,-0.16765424077348764,0.039444333330888523,-0.20347275068517262,-0.2224910026406289
195,2340,578.3640,0.16213754113108717,0.1138703040993413,0.062471730441166523,0.19019816052965929,-0.14315828108446524,0.21278534174477967,-0.13743961712304725,-0.47579588742101614,-0.38303844806776366,-0.065681782900449528,-0.40992310007538169,0.18804162049956094,0.063611163716033578,0.35606618624497011,-0.17324743859315733,0.034056671003470096,-0.20622032434010154,-0.222752446500845
196,2352,578.3640,0.15526433362733849,0.1072176024200437,0.064787167205895849,0.193663857971718,-0.14381363896954297,0.21646872881656617,-0.13517354659922737,-0.47210529715627719,-0.38962204163671371,-0.064583504554226456,-0.40995622781202568,0.18959728845035598,0.061548697310647084,0.35896285727989857,-0.17387441959293085,0.029476967417709391,-0.20574239687163962,-0.21617550417464626
197,2364,578.3560,0.15374403351998897,0.10716513100682494,0.059482338159930634,0.20192903162704889,-0.14502487567140618,0.21848160011366566,-0.1393034224532447,-0.46866102113089381,-0.37979185772388985,-0.06363848338998751,-0.40206790270955334,0.19676079659998663,0.056553175564951125,0.367275915672863,-0.18130298482550913,0.032851518145527385,-0.20850421279242989,-0.21710471617576813
198,2376,578.3560,0.15314409016447089,0.10339739807274941,0.060612694676061105,0.20712991587323223,-0.1526266037271691,0.2120182953573356,-0.13929801279116372,-0.46831401824781166,-0.38122343907492046,-0.06118648261165921,-0.39734597365708357,0.19579223456882006,0.0641201806999725,0.37455826222993815,-0.17357144675758338,0.029551885293742731,-0.20457270101613728,-0.2208920814861508
199,2388,578.3560,0.15511886181754864,0.11414447692893993,0.057745743366419917,0.20762927159785488,-0.15296507548551039,0.20429242007540047,-0.1495461645931363,-0.46559675794681676,-0.37931177937021132,-0.064689675279176434,-0.39685941571175032,0.19745447077403538,0.0595351966658903,0.37414935459563042,-0.1847790293110084,0.031560776801412241,-0.20058301171177911,-0.21878440584330769
200,2400,578.3560,0.15090885268364651,0.12543674117500137,0.041981448375338862,0.21125594475917925,-0.15561291666979088,0.20494835889035412,-0.15110015821023712,-0.45555783764865021,-0.38103516945704524,-0.049703111097215757,-0.40058426322411494,0.20097509789331897,0.053815876305517936,0.37727562441688312,-0.17926528389326929,0.0323931078749742,-0.19959804057901159,-0.2253417736045468
201,2412,578.3640,0.15032533363963266,0.12018512861972903,0.056082515850741185,0.21436303909614779,-0.15838611011277631,0.20330246923936474,-0.15490460283354174,-0.4615056603305373,-0.37286209864834918,-0.042101285517325393,-0.40889801985159441,0.20224708455635584,0.05009490308421221,0.3733327990835994,-0.17931014470500664,0.034785687224151207,-0.196000680878727,-0.21667839656269455
202,2424,578.3560,0.15050275168979713,0.12247253663109842,0.055977592401505127,0.2150995461701696,-0.157471947377757,0.19592822003188087,-0.15481764078451915,-0.47060788430760664,-0.36984966205754477,-0.040006386773078093,-0.40701191833860739,0.20693320735691811,0.045289784515839926,0.37077251509155185,-0.18393761305359949,0.02920073000403622,-0.18830419671070031,-0.21531238648317516
203,2436,578.3560,0.14981732533078596,0.12051694949925372,0.046686264520729652,0.21963381084949041,-0.15496642662998167,0.19840483186703892,-0.15138577632842865,-0.47091861154347869,-0.37089317597740346,-0.0443018597562945,-0.40773070200713296,0.20225157225681667,0.044449010670388013,0.36775271205725946,-0.1862181651860961,0.034292169545046824,-0.18998949472882898,-0.21776260109399131
204,2448,578.3560,0.1618715824356379,0.12915632327092524,0.042362866423091491,0.22654188056769795,-0.15949687191957382,0.19605888607246075,-0.15393008858992777,-0.47252539152526007,-0.3641650887113,-0.037737332263630054,-0.39965011655528165,0.20613757678432287,0.040132234946286233,0.36695528128353788,-0.19346884246245202,0.031001469556084602,-0.18820561499471872,-0.21313083206162989
205,2460,578.3560,0.15459594772437207,0.13419448169599554,0.058701332778165749,0.23278807961704298,-0.14880376392302694,0.19510352714635476,-0.15012767787906453,-0.4758234053284755,-0.36988210563794111,-0.0490442987966656,-0.39993657597033921,0.20008016120873784,0.041922660238685482,0.36097857501951297,-0.19678101342679122,0.029217410632294851,-0.18895304002049562,-0.20828725353049313
206,2472,578.3620,0.15208973898543271,0.13984845579264341,0.068792469129472414,0.23103390694646497,-0.14210421702740803,0.1939231532592188,-0.15138392208782536,-0.47631649747559313,-0.37443967697804403,-0.057673714851622274,-0.39708125355320795,0.18814227450650906,0.044926441680186391,0.36169662465942781,-0.20503571186220676,0.026773034502830056,-0.187583595233009,-0.20626182230383774
207,2484,578.3560,0.14897837434300151,0.13571247396213582,0.064892220516488963,0.22271708437337404,-0.13419585408353182,0.2018450718516033,-0.1440338441490791,-0.47031400343438257,-0.38698532694837662,-0.050888094012620538,-0.40399989350510046,0.17997464359879314,0.050759819898838481,0.3600369377008521,-0.19762344331122206,0.029254973916041906,-0.19730245618380879,-0.21052954196380944
208,2496,578.3560,0.14818469557611677,0.13235243246267603,0.071223000540577591,0.22415460550947727,-0.14100743551151063,0.20378130295341015,-0.14867744376570596,-0.47083946607860849,-0.39342346463528166,-0.059681035026143761,-0.40175211743103706,0.16874626556823075,0.04580030489673298,0.35504297897369813,-0.20162171491519182,0.031638202662039566,-0.19334768422736756,-0.20856538272670153
209,2508,578.3560,0.15349368770258093,0.131513620005953,0.06815908915057077,0.22945685606820462,-0.13916487643725384,0.2028636639027222,-0.14765651091677159,-0.47301050569331032,-0.3936740708882227,-0.054349833544965906,-0.40278418948663153,0.17214195306210731,0.047025640197128932,0.34717119538309804,-0.20105722575113677,0.028717139133733582,-0.1959547625330216,-0.20552611173029312
210,2520,578.3680,0.15131889377214688,0.13558425611872355,0.076605087887098827,0.233022064379797,-0.13761286851142143,0.20274949910367202,-0.14873894843147636,-0.48115897290860138,-0.3947749988660087,-0.047714486976397012,-0.39645364713587916,0.16737016076246988,0.039428279230814121,0.34199616755399359,-0.19958200871664467,0.035091555576424314,-0.19734562348605547,-0.20461590637064234
211,2532,578.3660,0.15643857682179016,0.13290849456971679,0.075020367271817254,0.23034238322163028,-0.13987063213281814,0.20402152733081463,-0.1460837027217339,-0.48210909675998309,-0.39025471373381121,-0.057966650065675543,-0.39152398539518468,0.16587005954231002,0.043087649648996931,0.34875169249309756,-0.20203542113807796,0.030521338633749995,-0.19805473522616482,-0.20383403838853556
212,2544,578.3680,0.16446860310656955,0.13428064324563779,0.067590252693054909,0.22580589016954172,-0.13643312116095957,0.20292721969299332,-0.1383205877982642,-0.4799775582584484,-0.37893387618732094,-0.053598445179020376,-0.38848518030628043,0.17616631719448383,0.044836725377006031,0.35923690836221894,-0.21361228672018934,0.030188643136418072,-0.19697447661034351,-0.20983871048132369
213,2556,578.3560,0.16705735062812804,0.13969344808779405,0.072173931000776737,0.23163843921342339,-0.13246666646962274,0.19970015001696995,-0.13519645024338434,-0.48248431771713113,-0.37814908592404306,-0.047289322623531513,-0.38246334595112025,0.17370198622222702,0.0469358435937153,0.36568812587935051,-0.21311415075865037,0.02582521999368503,-0.19583764041395557,-0.20584542052863414
214,2568,578.3560,0.16984095606814398,0.14274473598187995,0.08055369212621763,0.23574372919573314,-0.12571127423276515,0.20095060147554342,-0.12854049323823566,-0.48996899739916505,-0.3790169970014764,-0.047341723343123712,-0.373917252615363,0.17091681897754327,0.0440855892374957,0.36269087754311308,-0.21610228775753973,0.021545247795306335,-0.19718714625019101,-0.20095318358754102
215,2580,578.3560,0.16684415655103624,0.13669952888768638,0.085783676690204591,0.23684808624330919,-0.12606969564327955,0.20298001077940378,-0.12792956035483252,-0.49152114784475642,-0.38589229116448337,-0.0536954669371541,-0.36963636717041071,0.17136187027535521,0.041438244975882679,0.35897818748664623,-0.20840667457003881,0.023430590891446088,-0.19831011396509207,-0.20553939334423182
216,2592,578.3560,0.16138365799794294,0.14195763155272395,0.08859894670838786,0.23944915291972529,-0.1290614782950264,0.19940763453995836,-0.12925729033170361,-0.48446762416394445,-0.38814112370796328,-0.05547795953201775,-0.37026298077729813,0.17947806587681656,0.046633510282861106,0.36248378870931525,-0.20867847920019067,0.021227068990656992,-0.19530180776747794,-0.20176708740595409
217,2604,578.3560,0.16720724231886266,0.13942472872404565,0.0885065753580239,0.23292327920167608,-0.12814458167621451,0.1996842355032997,-0.13319307802937072,-0.48212048317555117,-0.38015453663781545,-0.058456799694182812,-0.37126478191674722,0.19108550935292168,0.049097241423300547,0.36519630470417697,-0.21203942993441866,0.019883303713154953,-0.19430623300903063,-0.20524006363199201
218,2616,578.3560,0.16546918834787044,0.13662711172201256,0.088272445685653178,0.23507730441959979,-0.13244302679999745,0.19904725702176956,-0.13603160923799371,-0.47193980751201314,-0.39573467387261307,-0.0531702562355953,-0.36780096191082828,0.19066266229094181,0.048308505263959231,0.36745495268637124,-0.21057525887254905,0.01854713517553749,-0.19380110149944893,-0.20084804613173809
219,2628,578.3680,0.15861482452474926,0.13749611657476732,0.078254994622493912,0.2314697476276171,-0.13329216122118664,0.19587414101965739,-0.13603581970675319,-0.47331166304523314,-0.39590896354422311,-0.058593814114374761,-0.36836128184349753,0.19828747856955781,0.04793867963672057,0.36343348869247161,-0.21683795815140505,0.024112591271239322,-0.19044110970783976,-0.20629921727156317
220,2640,578.3620,0.16635540793253337,0.13603555346435572,0.074426898570405867,0.226610514400426,-0.13403652566686541,0.19439106023078792,-0.13540811751550419,-0.47855332173735948,-0.38656215500506153,-0.064236506986819666,-0.36315081670762428,0.20130230058293677,0.050411417675346092,0.37093783628709548,-0.21996764831571924,0.0224852835238652,-0.18792484511192792,-0.20625949862182397
221,2652,578.3560,0.174783252628589,0.14970794082696193,0.081400446431250592,0.22692511279546868,-0.13530428080359533,0.19342471424009067,-0.13353347834500234,-0.48363070506495942,-0.38265042534659238,-0.06166212353609226,-0.35938381536720593,0.20504590546233761,0.053864105318820632,0.36588773879332226,-0.21876401275876547,0.019069055316252633,-0.18787401196723777,-0.19752586795666902
222,2664,578.3560,0.17802972160190841,0.15147608421653694,0.072077999035236082,0.22765324659689981,-0.1338512636340872,0.19713292977091498,-0.13736879772847457,-0.47976891696550278,-0.38168575716257169,-0.057609672109956683,-0.36203972490377823,0.20783917323945511,0.0512688248181992,0.36004264624202964,-0.21999460014877498,0.018398310710532544,-0.19149810188425048,-0.20218650250497855
223,2676,578.3560,0.17748630913236318,0.15345273726984515,0.0757820851809733,0.23292426927926843,-0.1380404590651359,0.19510093892200372,-0.14159662262243691,-0.4690719817272978,-0.382639862908791,-0.054882510979584936,-0.35916437699016668,0.2135253709634731,0.049862121760065943,0.36363169140477719,-0.22832204043748855,0.017251291866532775,-0.18993984836275879,-0.19990827552787876
224,2688,578.3660,0.17795501001199804,0.15265225852589109,0.069209443355180811,0.2266457699556664,-0.1412623889682528,0.19648818707234858,-0.14043096939073896,-0.46125127856636311,-0.38820179503867908,-0.065246733645025548,-0.36249915605278732,0.216172353844437,0.054875782151030138,0.36319324259457825,-0.22492957622870716,0.02338040564299227,-0.18968230501390368,-0.20448292334194543
225,2700,578.3660,0.16890024728195346,0.14493441066296134,0.060333014465688853,0.23329371599770671,-0.13869250643299361,0.19763359397539279,-0.14489846901606912,-0.45999847532473215,-0.38664698345579585,-0.064318111263345315,-0.36238195419682528,0.21380590267922028,0.04639465505295555,0.36677840473314721,-0.23230314227158183,0.026395699059962405,-0.18979453391491594,-0.20619293584613158
226,2712,578.3560,0.16952986849713669,0.13964546724447302,0.053005068938131769,0.23126663401596254,-0.13880751115995665,0.19937973406725421,-0.14670087615468921,-0.46548646841697328,-0.37905382654848652,-0.071071660138046416,-0.36567435531359149,0.21296056714457859,0.049459097603724154,0.36951079835082734,-0.227643774959121,0.026421663875032326,-0.19236034050075751,-0.20246476127159618
227,2724,578.3560,0.16956374946436267,0.13851062100536668,0.053892492503953747,0.23417150154524552,-0.14769168579887773,0.19617654307290489,-0.15238086089560207,-0.457288362459613,-0.37851516791925871,-0.075057288266117239,-0.37164065470075441,0.22258822748322593,0.046425676836883346,0.36749556450731474,-0.22797948481871236,0.028273617249458483,-0.18919032155258891,-0.19667924123901634
228,2736,578.3560,0.16715935028576931,0.13702058653641006,0.054470238463917818,0.23448088549441887,-0.142462970677317,0.19446108685179828,-0.15318388931237373,-0.45785075888291216,-0.38249128240051045,-0.082719586495214062,-0.371234998958903,0.22378193654010919,0.042111101341139712,0.36501027863236918,-0.22968519445964428,0.031493707040754493,-0.18810614280086763,-0.19554237244615053
229,2748,578.3640,0.16711707892247646,0.13455478139962226,0.052461301742847577,0.23398776490895462,-0.13815436157474548,0.19992443139464089,-0.15127842100921768,-0.45872676858742162,-0.37976869530206969,-0.084321525054847024,-0.37601403832656366,0.22311906712650423,0.041750928734653643,0.35908687194539518,-0.2280418065057149,0.034119410996939568,-0.19235891762756696,-0.20044569587220123
230,2760,578.3540,0.16178815446285372,0.14065621184377328,0.046209182568314931,0.23719907967300352,-0.14269447239777633,0.19824756107096869,-0.15407738532344575,-0.456992935368051,-0.38221428959648751,-0.085619077545673133,-0.38038785935323483,0.21901017968810113,0.036568225988221105,0.35632252566078904,-0.22342321940477533,0.035705994513401569,-0.19108544033897987,-0.20127001302300579
231,2772,578.3560,0.16018222602972343,0.14385170782350826,0.0582356206676507,0.24305017954306049,-0.13789682023036084,0.19925633817421023,-0.15011141291339739,-0.45904300198577169,-0.39187754956287252,-0.081756160041420514,-0.37517361474184691,0.20487505346702753,0.037158087269484212,0.35530507281085788,-0.22199661099301599,0.029671141572450103,-0.18997912701987577,-0.20396691035655196
232,2784,578.3560,0.15687942478703332,0.14074032454809232,0.0564913618747228,0.24741907645689357,-0.13562903333277415,0.20140411868737543,-0.14955409009856926,-0.46211670612219174,-0.38858954740194074,-0.08216687144797602,-0.36989717417098339,0.20665401458376104,0.039061242986240939,0.35627769116699309,-0.22408829108182707,0.028919329072288526,-0.19262468492035742,-0.20441642061168783
233,2796,578.3560,0.16885709533432167,0.14160639643593292,0.053238642968986255,0.24409763240323365,-0.13544679284123862,0.2003712514270625,-0.14664139046640523,-0.45463984529820806,-0.38453005552366348,-0.079370911604393787,-0.37067414878777666,0.21560438693778108,0.040630402500077316,0.35787826281373664,-0.22744994153395637,0.027088704087304259,-0.19415785560975501,-0.20815476875767713
234,2808,578.3560,0.16813439046003725,0.13443323358844816,0.057370026928824293,0.24121183015091527,-0.13894828662212569,0.20197528253614994,-0.14863133498110004,-0.454057892534317,-0.388863614223133,-0.084590103466702149,-0.36498769095133476,0.21512946964278834,0.051320953346445652,0.35508589449396161,-0.22921292195234644,0.030151965929309327,-0.19561121383522703,-0.21201158479494134
235,2820,578.3560,0.16912048221739842,0.13310266906473373,0.059096644303479905,0.23915815723235462,-0.13720501312066052,0.20217208180014573,-0.1476510198031675,-0.45938351077022938,-0.38775484281537054,-0.08958331866913008,-0.36528074447007886,0.2121725170399478,0.046209802859858859,0.35187083763469734,-0.23128789935943797,0.03032960294639199,-0.19322722213631732,-0.21298238730096936
236,2832,578.3560,0.16870317064448545,0.13350992995999869,0.05733009066962063,0.24278963199429784,-0.13499294909586959,0.20531562773652662,-0.14313993072125614,-0.45598991208485268,-0.39224140959182308,-0.0903842608536849,-0.36227605797074147,0.21457256672996589,0.046615610134878208,0.34731018819836906,-0.23142792371861617,0.03025840211713032,-0.19530649027179853,-0.21701642143915112
237,2844,578.3640,0.16692961860006347,0.12859950403972684,0.051644117019253026,0.24088311828572939,-0.13480480951013632,0.20632494101339197,-0.13843876930325993,-0.45199436142138449,-0.38622208288993143,-0.093198969749061555,-0.36702614211425189,0.21686313319999917,0.049552157987604074,0.35425210840988491,-0.23218243162475735,0.035276026774694096,-0.19627467295832957,-0.22146755563553386
238,2856,578.3540,0.16540486203277185,0.13552062201319826,0.048212967663865534,0.24667605046282645,-0.13035833545804115,0.2047804201706093,-0.13716353071109838,-0.44933951664149785,-0.387402080579006,-0.090495011994639343,-0.36315039252064318,0.21481102019113205,0.044411253338579364,0.35719630314127265,-0.24173821355839431,0.032255801386792814,-0.19478646345400458,-0.21858669861832242
239,2868,578.3640,0.16545302846315507,0.13779596544414066,0.050782678733190686,0.24726815552366485,-0.1305942571074537,0.20567381518767747,-0.13810190569546421,-0.44762535191375241,-0.39222851052655089,-0.088593803033879384,-0.36326616652554145,0.2139717004663933,0.042543653445891443,0.35366489276374347,-0.23949486973765105,0.0332292637920772,-0.19572708469795833,-0.21823135705716518
240,2880,578.3560,0.16431041138024347,0.13485451684342839,0.046734383375250162,0.25116378278421408,-0.12827352673482276,0.20838207645907664,-0.13546095474503786,-0.44479819817473926,-0.394669201056881,-0.0829071419495247,-0.36537838341806828,0.21550889178829633,0.036439530119813247,0.35138717626436111,-0.23780974276973632,0.030909995355563123,-0.1985812053443973,-0.22069367712579982
241,2892,578.3560,0.16743094542478287,0.13890947842074916,0.048451928941141448,0.25439379739380363,-0.119093149394935,0.21015422799282668,-0.12807940166188875,-0.45099474060302824,-0.39483105539251373,-0.073200559848364821,-0.36600689735337866,0.20854363800141335,0.038639403781465652,0.34876909490081376,-0.23378662514834364,0.027623439569913449,-0.20241534472679504,-0.2211475572986473
242,2904,578.3560,0.16497773932753948,0.13961058964134723,0.052396480149259628,0.25210746775949167,-0.11885821980511604,0.21122776136083263,-0.12916765522634463,-0.451953023393537,-0.39799686974774795,-0.0738369215240775,-0.36677418191679712,0.20536612451493175,0.034893253970177979,0.34689759563455957,-0.23288682632971222,0.025789384570341734,-0.20174965434428038,-0.22179145381147766
243,2916,578.3560,0.16637631810554318,0.13846784696347714,0.047400130609327386,0.25341671926722614,-0.12148878463824936,0.20746128198236793,-0.13214091391105745,-0.44862162088196295,-0.39277349287538166,-0.071135144227821467,-0.37145162157029515,0.20678534273860111,0.037012030093627024,0.35259454297098236,-0.23241504739232072,0.026208522322158933,-0.2009674860582206,-0.22071014539899317
244,2928,578.3560,0.16221039300043386,0.13482270731937893,0.046812731378407482,0.25148726474149019,-0.12516494909775497,0.20758829783680105,-0.13823896183794088,-0.44633398997625817,-0.38972626239156544,-0.0701795541322318,-0.37348449275351175,0.21275906113108203,0.036721626888295118,0.35351814391329633,-0.23375084746202088,0.027536952888138049,-0.19931740551397764,-0.22256968275977521
245,2940,578.3560,0.16284848214282513,0.1320108566785051,0.050661481653238541,0.25406379195960987,-0.12536744815663173,0.203297621171635,-0.14202212533683523,-0.44512285399315427,-0.39255314072621911,-0.065587048723189725,-0.38073052469239616,0.206042416883693,0.03319080262091019,0.35522609339180328,-0.22936981132390338,0.026026437309346419,-0.19585619603930332,-0.21979348480382233
246,2952,578.3560,0.16455963995962342,0.13559396364234483,0.049041821599576582,0.25181224527280283,-0.12603924809175193,0.20309920088453148,-0.14191948388318074,-0.44572908351124829,-0.39209250632368514,-0.063407187202762255,-0.37840115555221626,0.20534529919151265,0.035183060776131168,0.35600853346462324,-0.23030197242196659,0.027355161145433647,-0.19590473259921787,-0.22159520979792682
247,2964,578.3560,0.16465254858207723,0.13873112476718391,0.045989269204845931,0.24719100956606507,-0.1246433222338385,0.20337653466271929,-0.13951279990200388,-0.44204807084511705,-0.398425735081306,-0.058130319058604718,-0.3836347977350924,0.21134599773413268,0.03621890526053765,0.35135080801665342,-0.22506862128423116,0.027494951333724805,-0.1955055356415355,-0.22308622954701182
248,2976,578.3560,0.16421270539089702,0.14767616398936478,0.043743959124483638,0.25303458808566059,-0.1251210956325054,0.19851298665009237,-0.14007006775775235,-0.4431974289792231,-0.40389676838446181,-0.054176073180625332,-0.3798130521064757,0.21067862614029814,0.032905795768783525,0.34727718386799955,-0.22846748357783395,0.025806922572189132,-0.19158943688281801,-0.21852414745937696
249,2988,578.3560,0.16496723788620518,0.149902832365598,0.043876472793409012,0.25218369866467816,-0.12489452175697702,0.19617208490603863,-0.14137971214055498,-0.44164015370717041,-0.39969766239238813,-0.06025413386568762,-0.3778994752957891,0.21591514823421404,0.033326815781951277,0.35139756227951352,-0.23376264219542026,0.027996558624099738,-0.1861808000689146,-0.21843377305354358
250,3000,578.3560,0.16423639275260848,0.15178491267496477,0.042953570869528321,0.25044133253718653,-0.12529459195474105,0.19721477568531792,-0.14204333085137005,-0.44503832758491207,-0.39742272090445752,-0.058996030792440764,-0.37739271039357347,0.21446306366317539,0.032103154940265263,0.35032503431695888,-0.23212468262957167,0.0272414516774603,-0.18928229945737779,-0.21912921491045811
251,3012,578.3560,0.15910549965142873,0.15814041312731195,0.0507134554424038,0.25284744528178543,-0.12572380850695553,0.20029058577919565,-0.14081223158198858,-0.44889026428759271,-0.40346425247054668,-0.056241741449981023,-0.37433041033472558,0.20649155778256298,0.036928312634106418,0.34256717988004554,-0.22947883051357665,0.026767510247144653,-0.19218862005458703,-0.21788659257077234
252,3024,578.3560,0.15803113592618714,0.15979520878464709,0.053363852414827571,0.25082970964359769,-0.12711804677404615,0.20121378077781688,-0.14164455054264743,-0.44654195066667612,-0.40471658741415717,-0.058893278460168327,-0.373188086852644,0.20945553685495708,0.03779432313077366,0.34350795053590816,-0.22565867251701302,0.025533972949746433,-0.19340913556196895,-0.22023708110264173
253,3036,578.3560,0.15700623278454315,0.16081712248533406,0.057339464862379334,0.25028642899191561,-0.12366703073582898,0.20070795803533195,-0.14001762001346871,-0.44843656856757591,-0.409479034867516,-0.055785534812460943,-0.36813570823250685,0.20375738847885136,0.040368529446253056,0.34612402108091561,-0.22626994908767262,0.02448816390326148,-0.19378855409000795,-0.21982343498204945
254,3048,578.3560,0.15331107245053996,0.1675283013897306,0.056262861832178851,0.25373062994638923,-0.1254997084103967,0.2036165960568731,-0.1433076993001034,-0.44373862960363586,-0.41022665609127734,-0.056674277806649992,-0.368791641788897,0.20661971290383277,0.036572556503588684,0.33872956793086689,-0.22701854522576825,0.026150023169264645,-0.19708036342972002,-0.22012678481125175
255,3060,578.3560,0.1574586341086992,0.16640146181124685,0.053863638746152631,0.25299251874213963,-0.1236340395652777,0.20649112218817572,-0.14179392962633716,-0.44539718713507004,-0.40508707567871766,-0.057477106280216704,-0.3662969930322002,0.21148187914332647,0.038195654763987286,0.34169583276740917,-0.22886368423568426,0.024302075689738425,-0.19985943333335127,-0.21545943875670737
256,3072,578.3560,0.15712989030797919,0.16313265221247933,0.055184329373743846,0.25428713280424353,-0.12042785741098867,0.20580750958325456,-0.14171801448471313,-0.44613520404276835,-0.40188539238881854,-0.056932357967413263,-0.36798861601455218,0.20840343002516371,0.036915586643622968,0.34257078191250923,-0.23353378955199439,0.024404407168115826,-0.201218920892638,-0.21578568533476727
