Generation,CountEval,Fitness,phi.proc.1,phi.startTime.1,phi.endTime.1,phi.jobOps.1,phi.arrival.1,phi.procTotal.1,phi.wait.1,phi.mac.1,phi.macOps.1,phi.macFree.1,phi.makespan.1,phi.step.1,phi.slotReduced.1,phi.slots.1,phi.slotsTotal.1,phi.wrmMac.1,phi.wrmJob.1,phi.wrmTotal.1
1,12,20.4201,0.020945136061085737,0.074076785663562086,0.24011380665481757,0.19979280191702062,0.11420111966145205,0.26715281273391656,-0.057698829031785769,0.062077245293596067,0.22414260513140155,0.19654869564208252,0.23668051454134206,0.33177111352125294,0.1873680172887891,-0.045304489713872645,0.34876818054533931,0.2036383779382733,0.28770118858295812,0.040038929721135888
2,24,15.9469,0.12458300412334908,-0.0078355125409602863,0.19048190649831456,0.22715855224093057,-0.0743919737699029,0.1761223895748911,0.054521326249251781,-0.1262356689034895,-0.016165298431069924,0.070678504677376991,0.12878674013439673,0.10572731431648585,0.28403412830514507,0.010723437411332724,0.23402530168735358,0.011423129584735436,0.21828224544406227,0.30005274012056887
3,36,8.9286,-0.096406530455386635,-0.074141925744993731,-0.020065992226155151,0.029534280300023825,-0.1390006325019775,0.0037332969213865852,-0.094213263524887486,-0.038605304459197347,-0.0098658517152816483,-0.1907638714999062,0.25054141539644231,0.2646484130868092,-0.071860630177183915,-0.15113283508501915,0.01577006364448821,-0.170836422769768,0.27584754919013493,0.20672316451521469
4,48,9.2092,-0.083146493951135811,-0.061115498874665226,-0.076606941697863987,-0.18527708595408179,-0.23377990664900311,0.016794623644256438,-0.0697419707516676,-0.030408551748625237,0.068176298681452766,-0.083437441376211174,0.12528458323718966,0.091412259292996512,0.14511147469346489,-0.21150265532485663,0.15659848648526972,-0.24059468098874826,0.13030035527390893,0.27053377318904687
5,60,14.9872,-0.20201872783788463,-0.067996281033289974,0.037126857531950566,-0.12843325126992197,-0.073489606048993947,0.31122184882066956,0.10345902432097905,-0.094177288202301632,0.18330929733462925,0.1810850250695423,0.082520005664429588,0.089741522247867064,0.0682904584574022,-0.11168409698521496,0.0097932257437332616,-0.037611247631081757,0.23229204877286758,0.22492696595777364
6,72,15.0420,-0.1196593195260582,-0.0011032090512989208,0.055439089601887141,0.014808269954431031,-0.050563101291919731,0.311667310683373,0.19238389696375374,-0.12507945455585179,0.27861689638476861,0.23651344757206708,-0.012882689244591381,0.038991632862160362,0.053483344137726437,-0.075421102041022564,-0.071910409938294229,-0.19289141274523519,0.24216248947881669,0.31461612907961062
7,84,9.1811,0.03279425436528452,0.034211171134088593,-0.044127434869591545,-0.12810995843181811,-0.25372173718160851,0.04431182012376092,0.22648095834732351,0.2089871366750346,0.1219706759180936,-0.076336461319882989,-0.0524789596628433,-0.0055330332150256194,0.13302531592808647,-0.03557360090814142,-0.14371322921960791,-0.13612254052149261,0.278281951673332,0.0061336080971704137
8,96,11.0878,-0.12519368062835212,0.093689468488578412,0.013849340378643384,-0.24976569657968328,-0.27026365173289918,-0.017911125213815968,0.14389312950398203,0.19489731218929332,-0.031898637418119775,-0.10985263023646583,0.066227091108128924,-0.18844539637219043,0.074453726020983352,-0.017920561643184466,-0.33665736033211263,-0.20910529127587019,0.29585501744580678,-0.11821993429061194
9,108,8.5724,-0.052089432784640191,0.0051232096641947878,-0.032551925587641993,-0.25285413641611,-0.25473803375989712,0.13872888320438506,0.10613728902643041,0.097007624525270009,0.3152975777042879,-0.057355812157112405,0.04867641451672039,-0.10877054838437084,0.0049188818154141268,-0.2168820077954233,-0.291522046613738,-0.073018804495306316,0.14966651082942858,-0.18301293111400621
10,120,7.4245,-0.30104417829233365,-0.20846243259157657,-0.13138204565760653,-0.13048723445120836,-0.29867351623667254,0.094261368689751837,0.14716901614017064,-0.02841132279605408,0.10076246187644405,-0.03138895308012319,0.20588348166698,-0.071698416483530661,0.013677129053032817,-0.10903477748867774,-0.34248864767611253,-0.10895302143045528,0.14215789867091336,-0.2534619705945037
11,132,6.3066,-0.15949573379703672,-0.37648604128370472,-0.17688924470638567,-0.19572215980639998,-0.16801718838874072,0.076728223737149173,0.15594146292691774,-0.083457570346029381,0.1949380751633196,-0.12889982699100275,0.13782442531122735,-0.038874655100683241,0.046675947490554912,-0.12401039080144746,-0.0948286719621554,-0.10509728354993077,0.25314988452559939,0.069752842588250541
12,144,8.3337,-0.19846593511843721,-0.29800091930191086,-0.20197702086925276,0.10346849818529386,-0.0864967017338819,0.0726859260738515,0.19978697457082745,-0.15458921910049933,0.20628052656024254,-0.15472669807968614,-0.075775139440719,-0.027123679139115245,-0.0183701188327606,-0.12908906371279283,-0.027151635392526387,-0.14815065716550913,0.36492552374825332,-0.1039232380292973
13,156,6.5627,-0.24867946685033665,-0.35825793877735074,-0.13518396392822291,0.042465025115168031,-0.24351803517683576,0.10350160973026339,0.2164512123997071,-0.014452131834076613,0.21555286891338013,-0.14999420228828519,-0.0825703013430267,-0.0096853112200256872,-0.1269682816884273,-0.0938030654620635,-0.28228675868176611,-0.019671986043473189,0.32155222476791234,0.042235867652640126
14,168,6.2071,-0.18496964668580898,-0.3396838848027352,-0.16499370875212024,0.10378396834057446,-0.086004409601993764,0.033696776654212293,0.041009919435398147,-0.062290000574477915,0.11935716933191057,-0.17155934102631315,-0.13628445854955235,-0.15532873929154717,-0.12796369805053071,0.00018640013613056708,-0.35115860190544607,-0.14712676539646258,0.40694337169523809,-0.11175702963882743
15,180,7.1569,-0.006417336216095618,-0.29667673438384512,-0.17245885410025158,0.013006783158805348,-0.19604776780954436,0.024724638419416706,0.11967309922463713,-0.078395413623002952,-0.019234285410495711,-0.15267468972693568,-0.093532859235638,-0.21740939792277661,-0.23892871260525186,-0.15059141174681662,-0.29645465895767942,-0.18094857321392541,0.31256001045338938,-0.312665983787472
16,192,6.3854,-0.0065578215823778943,-0.33344569406899294,-0.24523372462000775,0.11711185922006054,-0.034454375991970633,0.030953849260720773,0.0969339648642604,-0.10795856005810031,-0.10922810955917463,-0.13519429391760721,-0.10073001841777539,0.072002659741319225,-0.17776881397434438,-0.15136210593815644,-0.28207816590271906,0.032083681712113184,0.44347896753639177,-0.3389503397327206
17,204,6.1823,-0.015020240901577116,-0.20949423698461547,-0.2701268946034498,-0.025617805554619854,-0.15468479414494821,0.065010756364228761,-0.015999372257698131,-0.037451681915668174,-0.078974407213615275,-0.34235113721920224,-0.092877346248929848,0.046362024639211789,-0.15842194741344121,-0.15491663811879178,-0.35198346330948943,-0.019198221413399875,0.37189266912514779,-0.40512275818846311
18,216,6.3689,-0.057705553868639077,-0.15400260874631289,-0.24000284826148915,-0.1141950392652747,-0.23260563627248354,-0.0037537698456750644,-0.059041253809098429,-0.040817215298718325,-0.26207541024922271,-0.31650217533286834,-0.11182024343696022,0.0080476575778333642,-0.033733622688402055,-0.16661045304816549,-0.21924708774354087,0.070180168332073273,0.48113096041791903,-0.27657663866781595
19,228,6.3860,0.0448352203525482,-0.18667726263199819,-0.23642602733997892,-0.1400578419793263,-0.25182136720541409,-0.010257170297187866,-0.089575466847369334,-0.081503697748233433,-0.37809030210672212,-0.30780589694287785,-0.19611709858056647,-0.017765923178348103,-0.010489439992019681,-0.022868423313877357,-0.24852806615167217,0.10318969129295402,0.44416304454732836,-0.31482900253327045
20,240,7.1393,-0.031960219437751972,-0.22479907616594175,-0.26721710312470975,-0.18135163868136317,-0.24387430874522303,0.043932172893023196,-0.036934737276850441,-0.086856155305245375,-0.29317085217243977,-0.26964695308457459,-0.14767327032508576,-0.0332789079491635,-0.0722945061522274,-0.13808833051334654,-0.2735666284128544,0.053387065362044329,0.31294956397324541,-0.35130185048858348
21,252,6.1964,-0.069685369789066171,-0.1921143791731596,-0.20974072710123037,-0.26732625286781314,-0.21907892178692162,0.049132521282836829,-0.068725477477625765,-0.072304550600560277,-0.22815837717518828,-0.27027602815353363,-0.15560102342454243,0.059311506356960711,-0.13973502731393073,-0.15583738541372752,-0.24575702428921173,0.18020572378485802,0.37479579927070655,-0.30071873390596776
22,264,6.0439,-0.084628812509777024,-0.081230179523649124,-0.19909617133626692,-0.16666176989322418,-0.22947415408677782,0.085400500736009757,-0.017344043017484993,-0.18792516182845673,-0.28861306442027573,-0.3230355131573403,-0.16912834678531219,0.20883601602626023,-0.056678699840421738,-0.19045464072240897,-0.29861282380800852,0.18366594824123683,0.38308363962810044,-0.24800370923426285
23,276,6.4143,-0.030974418496066282,0.00888855435857975,-0.15284902736622291,-0.20972996653173187,-0.14167686827754727,0.0866302025213936,0.0065920578549642055,-0.20140687485803202,-0.23962839587393198,-0.395408931596052,-0.18168366518036738,0.24400685167252759,-0.07333152784253201,-0.34942157043812494,-0.19317176525288082,0.20672498409593326,0.39776268983286633,-0.11426567074003979
24,288,6.0829,0.032417737453443722,0.077674336453699547,-0.28253433843739062,-0.1361130372768487,-0.10133960974552433,0.042042922758148041,-0.042761186482414185,-0.20026899630295358,-0.15137603726165885,-0.34293020838168903,-0.161554735783253,0.16730378691464282,-0.019659750317765925,-0.45001564454200021,-0.079980488776528663,0.19786570600585277,0.40850817162752406,-0.0921939112648819
25,300,5.9356,-0.034306307288683217,-0.05758318926747516,-0.3599320256796642,-0.0783747215649061,-0.074887627056194381,0.03302851879730237,-0.054246696404878045,-0.16145158642715665,-0.2309972014450096,-0.19029920235561332,-0.14447442724904638,0.23403945161162648,0.022823125892235764,-0.4911931986307701,-0.12140387517705324,0.21483721628650729,0.44669429665017091,-0.026605433088696402
26,312,6.1845,-0.056638352876211946,-0.0748331632016885,-0.30776021515028296,-0.026446346436910694,-0.057120294553504584,0.061857173025929323,-0.030099447867061677,-0.23592524480365579,-0.16248227662114512,-0.22186780429771219,-0.25727875967935732,0.12437337522773192,-0.0160623972840925,-0.54530486000136058,-0.15028572299033582,0.19318552220051929,0.41249922148264989,0.0653916972274417
27,324,6.3229,-0.13217850588099134,-0.17921224162017313,-0.30996296090750985,-0.12952602820584941,-0.094384544318468072,0.12911367998759329,-0.049721159122585769,-0.12482912800463937,-0.014620026190567017,-0.24433112862733164,-0.26151097086276059,0.08244606451135443,0.080322619177487509,-0.45652643055022968,-0.12459392618244008,0.16006969730869836,0.46431509757025058,0.040853153077030524
28,336,6.3513,-0.14470279870518518,-0.25881087728651747,-0.39419695436114444,-0.238864613692466,-0.0655949126583441,0.072275573689827413,-0.069271699176669088,-0.058869059762802663,0.10325113734917424,-0.254792011414771,-0.1600041806264238,0.15724040631627784,0.14426492145179429,-0.39446024251364309,-0.17536242885034325,0.065254651271901082,0.41240989442526582,0.018504747124441667
29,348,6.2112,-0.19652432853390833,-0.30913678875232586,-0.33330042997753934,-0.18821713307494373,-0.13201710905900416,0.045305428118923068,0.027452549620864387,0.0064251894883323125,0.038879377634161633,-0.19454670927461865,-0.11066993264781785,0.13042968075388248,0.1643932249790421,-0.37999553192675145,-0.28654142373204189,-0.007535794043773799,0.40390588600140304,0.011673242484157969
30,360,6.1256,-0.19472838992664046,-0.38265580483398548,-0.37596979655905294,-0.20445467564541592,-0.1664299448629927,0.048733889141590776,0.026742865201092675,0.029886297513936413,-0.0057843096540076029,-0.13537759038536135,-0.08946152278064895,0.19421009013514573,0.145560296399972,-0.33006232983813366,-0.18799931424786487,0.011023044165236688,0.4435015516837359,0.038764001640505009
31,372,6.1497,-0.27189220868010427,-0.46664370180416415,-0.24525299492808975,-0.15626506446281435,-0.13158150859907522,0.08771309819209909,0.0628379611476768,0.053179235560178541,0.044653350288683231,-0.14490989502225737,-0.076950811008858533,0.10814300877453906,0.12151255473245769,-0.34507776062164675,-0.23311132253569408,-0.0037527995210723674,0.42396867020240997,0.1570740958094253
32,384,5.9500,-0.22464030095784082,-0.512464337385641,-0.24624751103460027,-0.14772379011032283,-0.098914390516414014,0.045817255811463661,0.0078649178856380689,0.064388286324026434,-0.042676779123213944,-0.20846882019794744,-0.12808234373548727,-0.0012054996771977749,0.17487520387745317,-0.2578728639264849,-0.21178557937797274,0.058313556869404044,0.45877583644434261,0.0029378363532173019
33,396,6.1702,-0.22002434241675184,-0.542147430192,-0.18304233230030248,-0.14162620203913204,-0.12080659462618083,-0.0017151320873351485,0.0054605181743905351,0.0059350247001233574,-0.082741507832442218,-0.27453585222870591,-0.16724731454610373,0.049412189467502754,0.17838842248579034,-0.27498053164833069,-0.14408752176947048,0.00515871198048822,0.478167210796766,-0.054216424966511426
34,408,5.8647,-0.17708915248610282,-0.55835987105174056,-0.20605396139027213,-0.1263279576509139,-0.061930529473746762,0.025549656309157977,0.034843591745918272,-0.076048609616651774,-0.21411842651195548,-0.29015687903144144,-0.15007069562528519,0.022446806537950729,0.16888205635756356,-0.22669717390575064,-0.071190477783584977,0.12100967553606254,0.47861875736934822,0.013282256209014083
35,420,6.0284,-0.13463923988626694,-0.52287221378210458,-0.18988130687961824,-0.20760965797838871,-0.029942847078717624,-0.01493479689279794,0.017633305465781426,-0.11262302436516874,-0.226341982038411,-0.27517314554929051,-0.17878457977292658,-0.078372977884371336,0.097075692383230466,-0.16961026001792937,-0.10409150822434773,0.16669997292331792,0.51285514864679,0.0482385664136348
36,432,5.9939,-0.10754291826136063,-0.43112726799797046,-0.18284422931527794,-0.22940696373106786,-0.032184674032568063,-0.035637701451281069,-0.0089785845528131715,-0.11965215065353936,-0.2208826430567575,-0.32684854220452747,-0.1577635050689255,-0.078050863574539248,0.071035238626098521,-0.21754853636586011,0.065443728490884631,0.22650789808117269,0.54704044124291651,0.0016535713744100914
37,444,6.3202,-0.084898745025901667,-0.42163510511324531,-0.1981814501633157,-0.262207903882823,-0.0848162648624626,-0.0598452260605043,-0.036793609410167,-0.027966711829895307,-0.23761437910195857,-0.25127717803432043,-0.14973764801547124,-0.014272716618349328,0.080001915301949916,-0.20545477575680854,-0.027056607217365081,0.1250289677227642,0.57148413347139138,0.054402023821548989
38,456,6.4506,-0.014718473407831412,-0.38969423625087413,-0.22050845336198807,-0.26854117615828849,-0.044486144738477326,-0.081570735144188,0.023825697969558194,-0.042302851280776266,-0.24114525525669697,-0.28929987504438659,-0.085444787924091062,-0.064247983641356948,0.10805924726428812,-0.29509435086906755,-0.038242817000214209,0.16713017886981107,0.52437627240396623,0.051504809630234474
39,468,6.1780,-0.039611933318279995,-0.422405744609627,-0.1961165952855867,-0.21387254465818303,-0.040039644467911743,-0.090285058272652832,-0.028336239436237507,-0.078431371936527536,-0.2715528729224434,-0.28411129983779837,-0.14378685975785988,-0.10894090743461629,0.061679044249385993,-0.31119126362470523,-0.085544922529810691,0.19397857716063083,0.52684095931052288,0.076280332550288724
40,480,5.9793,0.030541002805605271,-0.40122067444952275,-0.27442071989078071,-0.24343006727015473,0.018973055053207375,-0.03499460719011728,-0.011336159561451687,-0.0660953239674173,-0.30801545095342203,-0.28192087253862697,-0.13080128988774076,-0.14257948106345908,0.11371683388269019,-0.31523451899761767,-0.029894566553896641,0.21844293674883883,0.452567945921124,0.024134304350474266
41,492,5.9444,-0.018308969514576924,-0.408956817808326,-0.25726005645163935,-0.22922987406891371,0.047126964153072375,0.018208906972070834,0.069225959646637317,-0.029578616272445062,-0.35383016011860008,-0.2767046844719136,-0.16214774478334679,-0.18549979524668989,0.082473827528174629,-0.34562523547321966,0.000886426481309372,0.22964113801033756,0.44733762463503796,0.086415293121461539
42,504,6.0583,-0.079632279136956058,-0.35964117024249409,-0.2527848483516611,-0.19912725062844827,-0.001770616983134631,0.031288578082247442,0.053378003704791635,-0.033746256646686165,-0.37497085723998125,-0.18476663044909872,-0.19717411015692027,-0.14213979256393847,0.075624846052237751,-0.3902614563621174,0.023750395560805503,0.27481149011281303,0.43529973320933607,0.0844208612839307
43,516,6.0487,-0.020442215794920726,-0.36804894855892151,-0.24611004259924088,-0.20253147099954547,0.034826198279158824,-0.00997201974429661,0.055771253482615052,-0.061620178260519666,-0.43121289095177751,-0.15118497163769651,-0.18057483136091229,-0.23317224201150172,0.034618913131885573,-0.39198728796146548,-0.0084382353209278387,0.17596214075368513,0.41927530849378475,0.075810479568895778
44,528,6.0496,-0.010017522665395899,-0.39465764070504461,-0.27851028838032726,-0.16408446471616106,0.052162872297968857,-0.0194841618972005,0.023360854686768896,-0.075305543050450216,-0.35618054539452976,-0.12477848932265656,-0.21480973989922705,-0.19840006246508629,0.039336843088810171,-0.42552493366175514,-0.064756197330399751,0.18406279492689373,0.42868085924607352,0.15453207363699409
45,540,6.3056,0.029498088723940524,-0.41487644115592059,-0.27859313520375162,-0.1359359234769911,0.058732978554772955,-0.054388458600919468,0.070561612755436723,-0.075940724884230482,-0.27324994177714712,-0.12529102416075458,-0.22869911375130167,-0.20755546718831955,0.075203613261476523,-0.50926307918174329,-0.0938051458955856,0.13426594475935269,0.36060724673974009,0.20733141389724219
46,552,6.0855,0.0026976401361970687,-0.36963260899156336,-0.26217875357053694,-0.019622321615236717,0.08074968142535674,-0.026001997345214391,0.043322630220750308,-0.097852425404536883,-0.26141869245984034,-0.12916234211625857,-0.24150672345686805,-0.10253755977631961,0.15553363744618312,-0.54217877278500315,-0.11215469261747926,0.16046673190621472,0.41256636388631096,0.19717300755723161
47,564,5.9530,-0.08507061028955544,-0.37166029866366224,-0.25635660078963757,0.037353683097417087,0.035577807004174289,-0.0086529471864544589,0.036191648514923853,-0.10831324137805194,-0.27939765720587662,-0.10705547412694084,-0.19400748175183039,-0.047375024781273554,0.13715380141408612,-0.565196682908996,-0.15740606459339834,0.18007966540157958,0.39448734225361859,0.18567429922244302
48,576,6.0414,-0.15533835215484998,-0.34146251983534304,-0.23073842810292722,0.0059872212066342332,0.053003847072678585,-0.012639716802610043,0.12049317084296306,-0.06448889650188451,-0.33088790867915507,-0.08767929930612639,-0.15944831731502351,-0.065976062843077,0.17854858479619606,-0.57119598931372428,-0.12684375449373381,0.16956085433292881,0.37146673483209519,0.19831317566476708
49,588,6.1170,-0.10227813664671863,-0.39574734869611772,-0.24624440433892542,-0.010643490284306814,0.068485745221080752,-0.025506225827817804,0.080274642997492762,-0.026479249992916294,-0.30214982469540252,-0.12816933537904251,-0.14949891847375277,-0.055402605907967473,0.1987255330311028,-0.5019742120335523,-0.14837575287732319,0.13402541413708094,0.40010464277311814,0.21052685403588325
50,600,5.8119,-0.1090623418715124,-0.37462409447718581,-0.25067085668597577,0.022646483213705281,0.054504414208770974,0.014153645366767715,0.13609531823340817,-0.051004461443491578,-0.30479414078097478,-0.10617183826675695,-0.16585323755117282,-0.12406798888794354,0.15474762480928581,-0.57914684473408673,-0.1241949697805345,0.12796436196086464,0.36040651997318351,0.19357010238494271
51,612,6.0650,-0.10362383246412882,-0.433514833198677,-0.24141526448740952,-0.0064263676040689222,0.011037608518152981,0.010128923799964697,0.12467252556587578,-0.036584555812972978,-0.29060912787740228,-0.13199001141844466,-0.10787758869418328,-0.14944313978702228,0.13543456768076054,-0.59487601374568122,-0.034465500645440732,0.14819373893853066,0.35576062401946684,0.12675739607368328
52,624,5.9319,-0.06907279509617377,-0.42710980839578461,-0.30288040357940826,-0.043365454712104304,0.024334556672692558,0.0093366762746040638,0.12227225014238526,-0.069165135375898565,-0.26023154179547503,-0.13809777857491518,-0.1506016720230946,-0.13831876874187665,0.13161193968828927,-0.56970105815748828,-0.034260342412762206,0.11788658423552695,0.37272941641148488,0.13635317449938397
53,636,5.9311,-0.00665278789128311,-0.42441939030317055,-0.3595816452740811,-0.074578871618524112,0.057009155487637471,-0.0049249507468302513,0.10128695990471982,-0.087934404896149274,-0.26789980122474383,-0.12776867798973993,-0.142121673310356,-0.202016291835641,0.12544122591782753,-0.5258404715864804,-0.010467951281723413,0.15049400201477919,0.37972812111314019,0.15016833059473828
54,648,5.7908,-0.014557511469364806,-0.43211941094994072,-0.32573210401836722,-0.03576502596215736,0.040312017895056562,0.035362582916201923,0.11050981903911332,-0.097171491240545471,-0.27486320990264179,-0.146041014553075,-0.15108857653005781,-0.17735346051803733,0.10016302913602748,-0.57147531769370086,0.011020779134555167,0.15081049729669393,0.34176213662718763,0.16362168789893616
55,660,5.9869,0.0093989601703239247,-0.43521835047587371,-0.31899977473413715,-0.056372130880060295,0.018785834457270768,0.060817283568080728,0.12667752645117408,-0.12029133821220442,-0.30559051348728389,-0.18366622417524159,-0.17726462252122716,-0.12739776078696377,0.054278339320534913,-0.57261720618098355,0.0412099246339456,0.11122858505158005,0.30575059595307114,0.17191284218599195
56,672,5.9368,0.044719653751812846,-0.44256371093520758,-0.36773979821059988,-0.048330251987573472,0.0147858515796509,0.053624651939679108,0.08232516271916801,-0.08304004675922684,-0.30093038206928929,-0.21224389151792383,-0.18093458186425243,-0.19111517471149556,0.02717858680424419,-0.49850129359513684,0.023290446918826691,0.11243442584892906,0.34977507078638587,0.16877481305313125
57,684,5.8674,0.03336977077560592,-0.43702366344112742,-0.36214575622031486,-0.080735828201395007,-0.012279881690975183,0.049044458880739585,0.054262318495494358,-0.095132488452397232,-0.25949530129659587,-0.23079409406932549,-0.15223096994698321,-0.17330352264676452,-0.0041620687278391575,-0.53855806970701525,0.026011690130603126,0.12262446917688961,0.32966629859953805,0.1932859204539574
58,696,5.8977,0.07960131060923821,-0.44715503708081877,-0.37928276890023732,-0.1119689804178548,0.030452666830975892,0.039384856037501262,0.037773576066334504,-0.08322056677975781,-0.24091509890560475,-0.23490952281081065,-0.14546189336691875,-0.21313267872726677,-0.048512968126799186,-0.52351362053391171,0.032398826857381109,0.11702851813002758,0.312815152713078,0.17258376782836779
59,708,5.9377,0.0706021270058974,-0.44251024824068791,-0.32693007611704039,-0.091879232550220444,0.011548695553354608,0.056221219007259307,0.022746923203279892,-0.11848188321532195,-0.25892555159554964,-0.28784202124597241,-0.1194213644005671,-0.21589368776372722,-0.10110989257732213,-0.49743730826438343,0.033363410584330726,0.11198088006343764,0.34119877280437633,0.19922257400741955
60,720,6.0334,0.057724909580627461,-0.40264924819698905,-0.3947004484166024,-0.059097420923310932,-0.017198523056363962,0.041177319085278719,0.016662622946700505,-0.11076138504282894,-0.21797710345202739,-0.24362920188861059,-0.13875664554427578,-0.14831466540405003,-0.12496012409368069,-0.50967660122605574,0.077009957515103741,0.15021527408948332,0.36615972376296357,0.19096519086917538
61,732,5.9541,0.041990365535467,-0.43546116833839182,-0.37205933922409384,-0.10619330430091073,-0.0370744713996869,0.0060755454212873938,0.046819362450952674,-0.089654403398112967,-0.156296313765303,-0.22534837920586659,-0.12317723258340443,-0.085699275067225411,-0.13157263867777211,-0.55383203937573255,0.055672033761482324,0.12937059533311371,0.36555202956466193,0.20783681355979114
62,744,5.8684,0.062548202133967556,-0.44806513905118306,-0.38580435945044228,-0.14209957626950948,-0.037274590226275731,0.019069053737976505,0.0033657614353326385,-0.0958901369532488,-0.17370904846877361,-0.21824058290033735,-0.15579625828431121,-0.046606013573078531,-0.14990148038532677,-0.51567785076839057,0.015244271271073029,0.11690899445060038,0.38601492938118942,0.1988277437761195
63,756,5.8812,0.040976090966519885,-0.45138068917069923,-0.39612878290890535,-0.085233242823902169,0.011859973141043855,-0.008716104157724211,0.0021129726826470108,-0.087723491506779647,-0.14383005257649134,-0.21225184286990539,-0.14953004540977119,-0.025521696241554686,-0.11116110303605928,-0.536353089929946,0.019586079552947517,0.097817883213025161,0.42021173007984619,0.15162999306738353
64,768,5.9034,0.00091336131380554959,-0.41575355662846858,-0.35130667495693779,-0.068684645019880725,0.0036931297809233211,-0.00498083270582492,0.018206048072074505,-0.060902293983901332,-0.12059547463270927,-0.253639562274142,-0.13360037768904737,-0.0366186770255798,-0.13366984771625443,-0.53624428930854073,0.016189423058488556,0.11096648247254899,0.46766694968205846,0.14710189132926996
65,780,5.8210,-0.012532140839744332,-0.43018254790060079,-0.36137352790373034,-0.046586402108746615,0.0097267745304764688,0.0041128718723439572,0.048504634480995672,-0.10025204612902952,-0.10528043333201373,-0.2651593527851353,-0.14512922383689372,-0.075541927643052967,-0.10883686763951742,-0.50684071260939578,-0.022267400024542743,0.0880934906937361,0.46088281755955318,0.15068929138729667
66,792,5.8745,-0.013892693891860713,-0.4035459940140354,-0.35239914224443031,-0.033716994931541712,0.013042071677116972,-0.022637584094690629,0.077068073201639956,-0.09872515664600337,-0.11400725156616019,-0.24187518644293673,-0.16940115787474638,-0.081231795468943366,-0.1065380293579497,-0.5252299838119403,-0.00671909072634768,0.1138028216305209,0.48789001659362941,0.14419227408728871
67,804,5.8576,-0.031856779970834914,-0.39755710803557359,-0.34124083275071704,-0.0083422000402462691,0.05299103772750513,0.026287979627734864,0.0806859082271451,-0.097349078512669315,-0.061963235256077873,-0.24244250294345554,-0.18064145126524742,-0.039919171848948165,-0.047644704997147722,-0.57796808540193467,-0.018483614878321692,0.102516858448854,0.46769213393736364,0.1495944673160505
68,816,5.8100,-0.035310555180693141,-0.39759339453594406,-0.32018848346133377,-0.027762382075427017,0.050225611976149359,0.020131195246509973,0.0961210842465789,-0.11367971988745373,-0.032979272960453512,-0.24740403315431178,-0.1990933594884923,-0.046150517386231771,-0.076102672844988672,-0.5545296275628101,-0.021238027015013133,0.12602465157507503,0.47131712462321795,0.14442265072009156
69,828,5.8272,-0.050327041914434455,-0.36359245992745393,-0.36539927180694959,-0.034894629370305755,0.024308205368441256,0.018268080315614561,0.081456394039332636,-0.1362433734888977,-0.054379417801164259,-0.20609372563440051,-0.15804927081431572,-0.0676203137405959,-0.067114716140561748,-0.60949399048723307,-0.0076875943515209893,0.084220530829655013,0.4479936878516011,0.14685092783893919
70,840,5.8446,-0.029702363086386928,-0.35737884423837496,-0.36374672747885356,-0.033184454967595006,-0.0018534667974035863,0.0075133076586089437,0.050861250793519816,-0.11061556125339446,-0.08319089242478872,-0.20395785852967768,-0.18293486032487571,-0.066696706888817653,-0.067766406577255273,-0.5878365581552325,0.022463622683229292,0.068331343355600135,0.470886688352557,0.15755425665503781
71,852,5.8745,-0.058404169321501984,-0.33516856980602278,-0.38136512562873132,-0.0073413571495890605,0.0050783326056764036,0.010577273193804896,0.051421953731659475,-0.0925137316101581,-0.089297367754917492,-0.17743606907141465,-0.18461988477671121,-0.0618055467192356,-0.063343735141411964,-0.6250619265817,-0.039042418886397777,0.064899215058246654,0.46305979406232289,0.1321616773750473
72,864,5.8457,-0.083765947208586086,-0.32080466807483177,-0.3804272846535941,-0.023682848277946068,0.0072519943710871674,0.019717588409062542,0.04231468441064714,-0.1030402965200747,-0.059364281257349868,-0.13694531886166361,-0.17131643941807578,-0.023009220442169041,-0.082688971581358864,-0.6639875306363443,-0.037807343749392826,0.048409886663056782,0.44458524204275529,0.11902158466863795
73,876,5.7967,-0.065114026709663889,-0.32525559686696481,-0.37659856801386715,-0.014644983630895945,0.013365023972460593,0.01652442167838053,0.038554998267878796,-0.092933516925543747,-0.089639015424122462,-0.15219444203287855,-0.18271201696835784,-0.033402266759498069,-0.043701075411209288,-0.6377418671078493,-0.044244603090046748,0.073004583207956414,0.450442492054015,0.15670211325396274
74,888,5.8654,-0.042027654264614474,-0.33561734953255429,-0.39575667668069131,-0.022964533288704753,0.018979326585581137,0.019943206036631772,-0.021776468137659006,-0.075917567474965739,-0.13920054712297125,-0.14589571384318578,-0.17764308034206966,0.0025006553317615415,-0.0047909431052044569,-0.6292952602452424,-0.050841096578514731,0.14219925551238849,0.43789786234853989,0.12216543537940883
75,900,5.8692,-0.031098825170189092,-0.36701982020627433,-0.39063437935930673,-0.00307918163864764,0.025677903046557097,-0.011430157532683527,-0.01750068057317903,-0.049972836522700008,-0.14042031138432662,-0.15236632172431819,-0.15721112071351859,0.0074003097483078973,0.0049155013289480243,-0.62772692273485609,-0.059019250568580907,0.13832458097768208,0.44245183390411991,0.11882452659890906
76,912,5.9338,-0.027110427186827584,-0.33010662843561656,-0.39170981864410787,-0.012559197697409982,0.024989868539095114,-0.0039143857446844385,0.013446536855979225,-0.053380822590565855,-0.1262812301502344,-0.160913905950489,-0.19495426208835137,0.014395188438075848,-0.00148075763372556,-0.62098228108351261,-0.050395326186349225,0.15129517601340123,0.46323034259061657,0.09697307626790326
77,924,5.7477,-0.016175103520664154,-0.297632070150828,-0.37766383846933083,-0.031708331830343155,-0.00200052767413849,0.011384784884311886,0.021420982834777363,-0.056811810659291181,-0.14560006146502741,-0.18598352706846108,-0.22677704352686903,-0.010696065739478011,-0.017730917511636583,-0.62236048805249089,-0.035695185603716262,0.15058963781414389,0.46484463420384126,0.11865752948341572
78,936,5.7512,-0.028866916059107243,-0.29810505388031733,-0.38103461257512905,-0.026022608764570274,-0.0013095563571062022,0.017156854695653485,0.029420080789444487,-0.063951588086361158,-0.16343243032751223,-0.16084156119956494,-0.22475038064825489,-0.041743795531604524,-0.0038930101737389474,-0.62847308208610153,-0.04018104291939046,0.16657134280268279,0.45695910197404654,0.0959619311489757
79,948,5.7611,0.0047093124027917828,-0.28891082592582845,-0.36453751156640213,-0.013162779528002792,0.00352436197829278,0.00066608430949897067,0.028230032588852611,-0.078356366613099138,-0.16759919600845913,-0.17853354645190106,-0.24372631029730374,-0.044093259008579848,-0.013724292567763585,-0.64277215906379759,-0.031113591079756708,0.15054158772860435,0.44595664321188849,0.086479293579874938
80,960,5.8126,0.01187666496113705,-0.2762006901905153,-0.36478278616075238,-0.047657194016344613,-0.0010731507461614273,0.0019634797681113646,0.047840905137816067,-0.074838193882503665,-0.17154779535449224,-0.15989802910811529,-0.24611699860745312,-0.020669692470548954,-0.033755679420091972,-0.65604410735856888,-0.039361247862134394,0.13927255455030624,0.44463616509842679,0.0740136904479036
81,972,5.6748,0.01251237227843008,-0.28219826946752069,-0.37645808324365776,-0.018259958382623055,-0.0019465695671207974,-0.001029959588041451,0.04410598074232621,-0.085647037018763569,-0.16148735840287179,-0.14199743512141755,-0.23816541279396949,0.013395929553940131,-0.0269163338455353,-0.66792132208616639,-0.059621083054483985,0.12634693606257572,0.42642023193120626,0.082972055558154512
82,984,5.8400,0.014971988154376658,-0.28206625557812431,-0.36730766409123172,-0.027313828145853328,0.00827303246964845,0.011331970142153723,0.051028303961351579,-0.075196197623349656,-0.16275573792724918,-0.15348641077592831,-0.25316692894812626,2.6534884896317558E-05,-0.017119281344934061,-0.67538067864192852,-0.0655056120352657,0.12288178946365619,0.41256745849318793,0.065768271048979574
83,996,5.8490,0.027976368531762212,-0.27301938901580691,-0.34590567461518534,-0.018926696965718349,0.023698701638140363,0.003183426220589443,0.065104339368597053,-0.068821255264061923,-0.19430903131000871,-0.18202547594714569,-0.25179289729269727,-0.0040044781807510241,-0.0256440969118739,-0.68052400707227156,-0.057245433181129984,0.13531728305204957,0.40788691629775964,0.046922899285941143
84,1008,5.7963,0.041461123276555455,-0.26424854376554197,-0.34260875902741939,-0.0062105324936347463,-0.0024428886485480515,0.010099260744561727,0.057094346009864044,-0.063653780166468221,-0.18764524950195152,-0.21905461778570498,-0.25290503164862993,-0.008955862748192359,-0.02473627490068022,-0.67782245768512239,-0.048383295181666834,0.135150738136519,0.40758196059847457,0.03945803054880509
85,1020,5.8264,0.046238561344048634,-0.26860162527627018,-0.34921016915781777,0.003845531441252679,0.0053856672992620667,0.0054209427807829554,0.045867842970358723,-0.048398413240394331,-0.18045488004103566,-0.20710899156677595,-0.26669565162356779,-0.0068653795762621348,-0.016545816396006233,-0.66713119313362179,-0.050653868503003567,0.12814676282684684,0.41867913712736943,0.054319437307675043
86,1032,5.7224,0.047480052810813855,-0.3083927805581454,-0.35861911444570116,-0.0032457901128547973,0.0027632772196331595,0.0029029351435109567,0.043903878578457928,-0.041160008574057765,-0.17708279388002562,-0.21234442511407461,-0.24336290093747032,-0.016159261797442287,-0.016659953055878182,-0.63923542472730455,-0.047097066313835589,0.13616574655887562,0.43677270733449713,0.070353397519749852
87,1044,5.7764,0.059960974813104868,-0.31325273172273721,-0.35366248673018091,-0.012925737471336967,0.012014812392424339,-0.0013752906533419118,0.044650664265009764,-0.031410976359885531,-0.1841164680140126,-0.21765412444222568,-0.25857106254286955,-0.024354996144374527,-0.020702277163471932,-0.61817212977004277,-0.052916125176426534,0.14055276816733725,0.4553334457179245,0.058667911976191617
88,1056,5.7983,0.079755344042951509,-0.30540717170578768,-0.37526137397263387,0.00059942783144558255,0.0086503032486488548,-0.0086555141900302914,0.02840741843471685,-0.012975699338513697,-0.15583831625588684,-0.20726610618289087,-0.26309383499715605,-0.022712375533276236,-0.017706002729415561,-0.617239749292438,-0.04310366520770887,0.14296817511673657,0.45399814052241633,0.055669090254497448
89,1068,5.7789,0.0934551965071124,-0.31615257955723552,-0.36401400104428588,-0.014527884413556728,0.020684854821414682,-0.011613480435908206,0.040315413367471034,0.0075504415094347632,-0.15161980211188816,-0.21374674250259415,-0.26865288791537956,-0.036234720169186739,-0.0048695207038574884,-0.61270690749444057,-0.044026193880992159,0.16192150521186141,0.44749904781939415,0.060876979404528068
90,1080,5.7169,0.069477662832876722,-0.310197707661575,-0.37546438494055512,-0.01584261627301577,0.024794665668930613,-0.017488189058662416,0.038158455165123492,0.0015529462317956074,-0.14261811501383212,-0.192158518464764,-0.2580742624609571,-0.029971299588658719,-0.0035741876034276008,-0.62047220135698744,-0.039978350456650734,0.15120104567052389,0.46059948330334438,0.058009883746684379
91,1092,5.7685,0.08801797936612421,-0.31957629731134951,-0.3911267533501917,-0.0048865163460175476,0.034080880064012456,-0.020162059535011642,0.043629830203264809,0.00396353194629471,-0.15313719649663232,-0.1851114539056723,-0.26268440993312464,-0.026865737276763745,-0.011155379072567197,-0.60630949537758139,-0.066718020996065081,0.15144172182130239,0.44863043527620949,0.04029737449987681
92,1104,5.7012,0.087846245666336809,-0.31657890015112977,-0.3823203929780184,0.0059711843902915673,0.016828643065414147,-0.014774200503450092,0.039965476451086626,0.017605016281611176,-0.1526913164481703,-0.205207346338761,-0.25377589866916878,-0.043113185754015307,-0.016614309077868473,-0.61601840949516307,-0.043914328601676059,0.13786053069548668,0.450757986073704,0.015515563978223358
93,1116,5.7520,0.068511201017118814,-0.34214506054110783,-0.38691565897173591,0.01232302161238101,-0.00058640335006524729,-0.0080834608941771063,0.034565305952440881,0.0015555716931893839,-0.13122130060853451,-0.20785947892202422,-0.25880701402296585,-0.056636967396475855,-0.0038416858160857169,-0.59708967846207794,-0.031548511576065759,0.13433004689103456,0.45852220416587525,0.030978501451163591
94,1128,5.7500,0.091315059053052136,-0.35379156548578561,-0.389241346111221,0.012841014625776571,-0.0043336061276455194,-0.0089264844517311249,0.032645430484324,0.011906910325356351,-0.15862113665469138,-0.22499584823304597,-0.24773819899699639,-0.081016525550919788,-0.012146611399559614,-0.57908206347825919,-0.020472424677717743,0.13331679159053689,0.45652970513544217,0.031751408163125674
95,1140,5.7302,0.0849759039364097,-0.32724545888948919,-0.38408884865605564,0.029500669344022269,0.0014001471128099591,0.001539149489686779,0.037799011963927168,0.014418188355044043,-0.164502574553704,-0.24184695234999887,-0.25184468505409718,-0.096579425780209657,-0.00642323591382077,-0.59183299717764037,-0.039882133956395324,0.12138245139661163,0.4501763923909,0.035180267387802562
96,1152,5.7752,0.090132350418963225,-0.30836635782466226,-0.38336005812688051,0.038089061302036167,0.0048622167541870452,0.0016655592819068716,0.044450356701245308,0.016621217989137411,-0.1756662366877848,-0.23861514411357682,-0.25671759115591369,-0.073644990133023627,0.0020293856842013161,-0.6008734495236967,-0.036119021567684345,0.13002082977385063,0.44883246251745323,0.030615076411934242
97,1164,5.7374,0.089909737772521037,-0.29406563499846017,-0.39183880337240734,0.033773120432873831,0.02431911063274754,0.0062219007668031573,0.039482380234030119,-0.00028391731210816,-0.156889538236127,-0.23600806453656611,-0.25364289781657157,-0.080185459141294685,-0.0075845498250354821,-0.61014867743956014,-0.042982894180145274,0.14161883955800991,0.44403534726593946,0.039823868957366365
98,1176,5.7340,0.088194608662033158,-0.290806611171824,-0.39689421142139325,0.023105093063005545,0.036046024955636378,0.0060384784630629351,0.050186730132052965,-0.0043243718553976542,-0.16142154505744113,-0.22708003942849858,-0.24082758105824911,-0.082580306215343166,-0.012967146183582953,-0.61847846846760268,-0.044138286904677249,0.13914701840373164,0.44091276833659193,0.040245246665039446
99,1188,5.7251,0.087979678361893923,-0.29488217390251764,-0.38522692764530575,0.019283453224072246,0.025919388916848404,-0.0085520295345775273,0.04665725966215914,-0.015281925658837278,-0.16815513794994144,-0.21648612281707358,-0.24558508673386339,-0.0887570982181206,-0.028789877776273932,-0.6234886934829672,-0.063672919073753748,0.13450984693498189,0.43862783231915004,0.036499404373979139
100,1200,5.6909,0.11539425264611942,-0.30595883385558337,-0.37683703721320394,0.025818075548896164,0.026252073880747167,-0.0047651096236308371,0.0408484653462983,-0.012888309189445994,-0.16647204239042759,-0.23374447903216977,-0.24268793012856793,-0.10218980254325485,-0.016992944250650888,-0.61472672360739511,-0.061808077453439247,0.14827119576704359,0.43341466890245584,0.02779875982600135
101,1212,5.6782,0.11292626343962432,-0.30559524679559358,-0.38831117576564311,0.026813376718630509,0.039974329290191124,-0.0051649456503178488,0.04818701397982305,-0.02712735888112908,-0.14940331363207821,-0.21283849251956868,-0.23644226642098184,-0.09113158531462319,-0.0093276241326669465,-0.63284963902387215,-0.052756889395492425,0.14683275794545886,0.41923833315583076,0.045315620726902907
102,1224,5.7311,0.11396889559748372,-0.30848380793822749,-0.38006879723819731,0.021027261451895075,0.021539902663483435,-0.0028279314088748069,0.048494300302289087,-0.031172679148823608,-0.15312935540921999,-0.22639975029468057,-0.2286207842857173,-0.066517661574406611,-0.026960882679507671,-0.64338073259818818,-0.049357055368054931,0.14655275273329094,0.4082541284899468,0.039622571507979404
103,1236,5.6408,0.11618716969204007,-0.30241636337512512,-0.38026241654782139,0.017952554810433494,0.031921721955095746,0.0034904484685586708,0.048303053265399361,-0.036740074159466986,-0.13246984983995613,-0.23736464682888289,-0.22870654764340731,-0.059768970622248244,-0.032978932426544073,-0.64261261884805077,-0.047998234854425448,0.14172223145882787,0.41808199380799016,0.032964025148090943
104,1248,5.6049,0.1223522742095038,-0.30624353613819127,-0.38137382134949577,0.010079428899878957,0.025402459736563892,0.0029510290386452896,0.042720965500615306,-0.0462008315962461,-0.11721218681669426,-0.25129399811127034,-0.22863289158141514,-0.057539823005697932,-0.054172384918952064,-0.63099395729659824,-0.04640622015663675,0.13866404303333504,0.42672403775797363,0.040349099467323041
105,1260,5.6948,0.12146564666195361,-0.32316696564190062,-0.39172302879951126,0.020977899556934975,0.03987272574292363,0.0079514168678890516,0.052425079850541338,-0.031112334888771635,-0.12638116029775487,-0.24156245109525198,-0.22685689443399693,-0.0665109890347826,-0.043936260286339984,-0.62016588322755939,-0.048511877947900794,0.1402713769166167,0.42165559678242692,0.042646383094793079
106,1272,5.7210,0.12286035941143983,-0.3178883334908667,-0.40138734319264974,0.0081161221557154231,0.037120063043512737,0.0045260976764764562,0.063192404117564771,-0.024536096991045944,-0.13556212303532517,-0.23937858706849,-0.21676263955597427,-0.055390419216051832,-0.046620523496583244,-0.61695367867025974,-0.038114925246030731,0.14478371721808916,0.42556699396747361,0.03950446484199488
107,1284,5.6540,0.11135343750519161,-0.31993772555556088,-0.40439915287075257,-0.0054438507293386165,0.035044852261900225,0.0054135012412155851,0.060027610749573961,-0.022261429634133936,-0.1492446753326685,-0.22297101172505313,-0.2168979964806631,-0.062387496987251989,-0.042460351507228974,-0.62060766902034792,-0.028613168758218351,0.15353656809532232,0.42063087800387022,0.030161843267056055
108,1296,5.6962,0.11510781654348615,-0.33137569547532003,-0.39248430856009586,-0.0050015779344344848,0.043583387910934808,0.00398126057769511,0.0602428836619866,-0.022252524018612857,-0.16570471200770098,-0.22237024169657849,-0.21973592335136849,-0.055713265347568972,-0.0378014706874403,-0.62228126249892968,-0.024646677051697173,0.150197733710495,0.41564380385394428,0.030318232006651825
109,1308,5.6865,0.12683400469158385,-0.32205005917378932,-0.39232600312963295,-0.0058796267282354049,0.043535226374002194,0.00074966829121064522,0.05184000259717883,-0.018331600082546032,-0.15863235030644521,-0.23159946056944081,-0.21478206565527544,-0.057454704059482983,-0.038379819331855428,-0.62296316960501263,-0.034312760944513535,0.14877436489104715,0.42041965424127342,0.034268806766667825
110,1320,5.6777,0.12546970840836458,-0.31697933935144745,-0.38661809738864017,-0.00033425911758933069,0.0468842568573907,-0.0054639471538981809,0.051600735232320352,-0.014119470142791688,-0.15576029044612563,-0.2305983930894184,-0.21900983872310789,-0.052913322000686824,-0.030714222845219744,-0.62796144222271455,-0.038193411672106957,0.14233167852725268,0.42481606115089154,0.025436315522374065
111,1332,5.6602,0.12088268225409292,-0.31330302988572922,-0.38826478575480261,-0.0041653347668216909,0.0325101868764021,-0.0059955330739876155,0.048707645376511871,-0.00782403220878187,-0.15562595677329205,-0.22051636413837258,-0.22747334392611041,-0.052587291307914931,-0.037103556837892182,-0.63137710068365094,-0.039299345622743363,0.15143548239660592,0.42168684348836133,0.020731881277548225
112,1344,5.6169,0.12392125404289671,-0.31608144523829695,-0.39770336406589646,0.0015630683661247676,0.033205965117984786,0.0017698445569321872,0.052506187857539452,-0.009040358863422724,-0.14043114768392206,-0.22145452641621655,-0.22559600810083108,-0.048850027008945578,-0.028765324549776677,-0.63530058691114355,-0.037743182283722476,0.15132666497449926,0.41149623351315268,0.033493154879602215
113,1356,5.6443,0.13010434516990615,-0.31620964152377862,-0.39381074826845619,-0.0029868950704267381,0.022679532569410941,-0.0021114361389554539,0.040328508327222547,-0.0029454193103031351,-0.15125780209422166,-0.21461614011686492,-0.22021534357475955,-0.048507026886694789,-0.043051793379229396,-0.63687375318261674,-0.032720369376039268,0.16230723504192465,0.41026094448838607,0.035033924417923308
114,1368,5.6168,0.13211602524368682,-0.31728226290450945,-0.38742339661098657,0.00099354377244601335,0.02311684295286965,0.001366881299853438,0.046707825703305464,-0.00544356957975505,-0.16328251559169477,-0.22486248464716846,-0.21882642996455204,-0.04213823550764096,-0.039862881934454232,-0.64081918700556262,-0.028829260978691991,0.16716490844798965,0.39860830054218505,0.025934075262159757
115,1380,5.6254,0.13948112511204461,-0.30935602304473975,-0.38800403178525794,0.011524799444967442,0.018366641850501658,0.0034935251842886884,0.04470085539881722,-0.00031305224507408074,-0.16632324834757903,-0.22327422933053004,-0.22529714777883872,-0.032570961834239735,-0.043166214883078945,-0.64065325336589984,-0.03207362437575393,0.16663135537975476,0.3996633577731919,0.02162093170709721
116,1392,5.6396,0.1395808768698984,-0.31197986458547483,-0.38592820622713914,0.019241469750073438,0.022486535116762345,0.000374364709484272,0.041007825177521648,-0.0010718629171799767,-0.14791577645726403,-0.22474617039871841,-0.22419961738436636,-0.022056953966139603,-0.03655181201074504,-0.64018386708775854,-0.038189143707119851,0.17759874566630626,0.40334733846884052,0.013260089503724568
117,1404,5.5831,0.14778453895953572,-0.31871778778806509,-0.38094434116475678,0.016647010245542767,0.026679505994634551,0.0011218193670224593,0.050283932355220329,-0.0033217426199720797,-0.16116582049497619,-0.24085045393650154,-0.22119427808778416,-0.03463848841410052,-0.033261198257625559,-0.63290883089605188,-0.03237532283365354,0.16968983387541181,0.40103901098849826,0.016312842001379509
118,1416,5.6070,0.15886860270318795,-0.32096722226651314,-0.38754935187912753,0.023241959962825996,0.031869336634812596,-0.0014612518744424904,0.046423223612468617,0.0010463849417357213,-0.15439577196873525,-0.24185533826665984,-0.22310310811569153,-0.041663783091274248,-0.034581498183493674,-0.62762866799004224,-0.031927797369051117,0.16002599781073085,0.39964047229390059,0.017055712361889335
119,1428,5.6700,0.15633480646811454,-0.32482605703668604,-0.3801798988895761,0.029238422055416061,0.028166560684801226,0.00097273843661467162,0.054726911861338,0.0039435417577404729,-0.14509542336533496,-0.25411856596838706,-0.21574900584085016,-0.040689316394397733,-0.037894531955325557,-0.628019468889592,-0.035268954215022463,0.15809279321509997,0.40401878808111846,0.022812886473732651
120,1440,5.5654,0.15342473768686976,-0.31522167511532589,-0.37994317597133531,0.034436617267167922,0.028323085753250151,0.00185919355184999,0.050040639775145439,0.011323209018599458,-0.13904156496478007,-0.257232742728242,-0.22009086998596089,-0.037294387423879929,-0.04632512094270335,-0.63323288343489614,-0.038762195582880771,0.15515172401521943,0.403210318995872,0.024386622888436238
121,1452,5.6448,0.15417219872430038,-0.301950427758533,-0.37539619369641947,0.040377651432591859,0.034831466357828689,0.0011510568996809347,0.049016352651068691,0.0088308966233851139,-0.13356590775227992,-0.25802268218213531,-0.22272539418840637,-0.0391148826157961,-0.039038828029619166,-0.64014948417455553,-0.037688253512858885,0.16146886336968153,0.40376545034082423,0.019358310134462653
122,1464,5.6098,0.15490519672085876,-0.31009682703240526,-0.3658890567990512,0.037373544901764262,0.031977123409143625,-0.00078174961510517674,0.046567075255174818,0.015184814529143768,-0.13523194022623855,-0.26289846979829878,-0.21494679717607962,-0.029240472783825178,-0.039095632946457758,-0.64637893330950591,-0.026371751590906437,0.1601207385374192,0.39886771442961283,0.021445209100367027
123,1476,5.6643,0.14742841220846686,-0.31257575992221182,-0.35586809846583051,0.051333133630793511,0.02565784508758252,-0.0027483595536379624,0.053173876249695134,0.011821134983364069,-0.139991017590091,-0.26488330212404304,-0.21935506428071594,-0.02930593310614241,-0.042930010098592521,-0.64658665516514291,-0.023141493988108195,0.16292774373865071,0.40015173061877524,0.023169902473164725
124,1488,5.6060,0.14982632502360252,-0.31674074387446222,-0.35060506490434146,0.053693721156164463,0.019974061100658802,0.0043481913909261868,0.041058223875404531,0.012833083988057617,-0.1450938951099299,-0.26789559970937871,-0.22839802208980636,-0.036638244171096457,-0.046817012353146004,-0.64562355276241223,-0.028194648764944878,0.15351342186515493,0.39704922178611457,0.024066333723519327
125,1500,5.5988,0.14256381724167622,-0.31477977426863885,-0.34676125214566311,0.055659138581930334,0.015702433935226658,0.0012266324713388233,0.034659954257487781,0.010361387113450816,-0.14425305417021739,-0.26757609002414046,-0.21872393620334979,-0.035827679991350239,-0.049632694174562536,-0.65469845750002453,-0.029610923750752915,0.16008218163673113,0.393414729119488,0.024324575720427226
126,1512,5.6005,0.14511854179327327,-0.32147842832945533,-0.3341882113771999,0.051856998800805666,0.012211347774172482,0.0016853403385423604,0.032533767627422841,0.022107113853759953,-0.14425648956280315,-0.28085553172019112,-0.21902796117723955,-0.037710633104530114,-0.045874637778694188,-0.65235304405828365,-0.032568441248665918,0.15424092900269637,0.39506642433156497,0.023874188013828228
127,1524,5.6114,0.15268316042955446,-0.31824585528059018,-0.33559366617440195,0.042994710032531046,0.0032743098406220333,0.0027125237844202719,0.023284822733323562,0.023994993177416619,-0.16136601755368635,-0.27803157382317994,-0.22463789565962294,-0.033197816102629951,-0.042487561886789212,-0.648416359398651,-0.029124621322521149,0.15855343903408323,0.392751920865349,0.009886084221310246
128,1536,5.6770,0.14497942551939833,-0.31780363719449556,-0.33605435405312517,0.040827004296657615,-0.0014634697668124584,0.0054418198318275223,0.02260133465644883,0.0211916541089773,-0.16392948791066039,-0.27742779532767226,-0.22952784470683812,-0.03841061821423708,-0.044950220614962219,-0.6486562760478044,-0.030678382647794978,0.15713628944216174,0.39225273351535295,0.016834576777133188
129,1548,5.6388,0.14508964838764848,-0.3158171218693549,-0.33534645366126486,0.045774641077055533,-0.0054059155439169148,0.0045343436093043255,0.021100992101965723,0.014572776846134996,-0.16112384410156283,-0.28376319237719655,-0.23055155698649926,-0.033125126758386,-0.041661217574546779,-0.6411141348814664,-0.036849286353561404,0.16350842761485343,0.40097901265958019,0.0074483009845837727
130,1560,5.6341,0.15219879862826763,-0.3189693672372253,-0.33628252096313249,0.0495226475004611,-0.0016820766470801924,0.0088798437443434654,0.018368591563542484,0.013951490067517005,-0.1571949224998607,-0.29113153855736768,-0.23516432390709505,-0.035525118753375266,-0.043078845042930317,-0.632950868944521,-0.033673997819876407,0.15753029831441087,0.40300921115527788,0.0014481229443713221
131,1572,5.6285,0.16235680010344852,-0.31228753802403747,-0.34589193531092155,0.034452418503297028,-0.001387465181742644,0.0095326451617990943,0.013710077340106763,0.018824801303706808,-0.15577002163847811,-0.29033332919373711,-0.23828431380794246,-0.048644482495701781,-0.051743856758538327,-0.63185738372009326,-0.032982805621665764,0.15818593477853982,0.39701639586917509,-0.0062009343250205625
132,1584,5.5817,0.17079975561249525,-0.30721326528271942,-0.34940969137957772,0.027424126852025246,0.001115265196593444,0.0069050738604899808,0.019272649293349268,0.017441207440397975,-0.16629628516506484,-0.29269154904455991,-0.23539327572354707,-0.051505323177898292,-0.052351924631739051,-0.6295810994790626,-0.021869844345817888,0.14925891612152342,0.39646512261499678,-0.019586930287892379
133,1596,5.6364,0.17044266109308626,-0.30109761478074143,-0.34459546603152236,0.0255649127843963,0.00492954512195988,0.002298382807348389,0.021059187882935544,0.016876273853242574,-0.17563026398157863,-0.30464996406815614,-0.22624003816365734,-0.05960389861646305,-0.04916621486950077,-0.62531680393851341,-0.031391987997894479,0.14904483280035027,0.40385222769755796,-0.021559285219973343
134,1608,5.6258,0.16778233223411018,-0.287495254693659,-0.34745250032108232,0.031573914734397218,0.0049191702567648096,-0.0012506841010342161,0.015019004820987629,0.015929893829161074,-0.17101498423692571,-0.30260485058351994,-0.22929094396349967,-0.065151244217804216,-0.061960361621900654,-0.628257789653037,-0.044433785652449709,0.14347789480595166,0.40793131278504208,-0.017669556951387194
135,1620,5.6107,0.1617212892422818,-0.28459752269239996,-0.337301244831522,0.024356601537603616,0.003210635507312559,0.0038592327573409033,0.016599941141587107,0.016604696810093716,-0.17643104410712454,-0.30714755900906032,-0.22759844991013989,-0.051501781129833522,-0.05346440412553654,-0.63525468883342717,-0.041167982881628595,0.14724418265437428,0.40780836124956588,-0.018000805244186312
136,1632,5.6146,0.16740078888297,-0.2873306908993748,-0.33232458190997288,0.030336561176324259,-0.0049751368288459474,0.0057535067598125135,0.01710908247212194,0.019931084291618596,-0.1697013943998088,-0.32235004637808745,-0.23077297735450653,-0.044128358656495247,-0.058233531116155944,-0.63408848028049847,-0.047286052980382839,0.13967562444852885,0.40129720017709408,-0.0033451098337917416
137,1644,5.6320,0.16989925525951896,-0.29739315762404961,-0.33279931118055439,0.024739224809072171,-0.0080760819929924458,0.010624987416531721,0.018281751301167472,0.013419544084973154,-0.177101013191316,-0.31759391152624539,-0.23446944279867057,-0.053920987235507881,-0.055714824780006611,-0.62838881350626352,-0.046413483493329577,0.13846875816019588,0.39885909007198755,-0.00027148731253282617
138,1656,5.5891,0.17253052409258732,-0.28822265649196793,-0.33632725553756593,0.020665740009821763,-0.0047029053837433594,0.011039541657187879,0.022047876322456684,0.0048255386770194785,-0.17797346553202997,-0.31632015613340531,-0.23560684016858652,-0.066243981607836164,-0.049173665109919586,-0.63026790857209447,-0.038881494389490671,0.14991455007411295,0.39452635676982428,-0.0055668298610770826
139,1668,5.6676,0.16910236012761609,-0.28741434336859761,-0.32814961488149114,0.017216326034047231,-0.00075671365936632608,0.0055741510568375445,0.031425856452138114,-3.8447936782329679E-05,-0.18631268600245196,-0.31871373082626209,-0.23504018435769816,-0.057293821720333149,-0.04320615503985855,-0.63527058411137294,-0.034199687244708676,0.14802870964346945,0.3932709443959771,-0.00759713128172723
140,1680,5.6357,0.16872744208396226,-0.28622393903962312,-0.33367323027500356,0.010838946532898068,0.0067979730692795,0.0086968960989761909,0.033882267896359328,-0.0064849940717569858,-0.17842818851536035,-0.31430851106204705,-0.23358810877890421,-0.049625778025258915,-0.047329827902678354,-0.6381235519377958,-0.028591307302260321,0.15539002870154203,0.39131345777569337,0.011347845518407841
141,1692,5.6591,0.17158162152806156,-0.2829470876859464,-0.3340254521988823,0.0033154256983725684,0.0057132148083247711,0.0098134857077263691,0.030453170501926717,-0.0027379772031528287,-0.17700296983650277,-0.31618708010912572,-0.22959580034766064,-0.042514205740077492,-0.043714949055821274,-0.64328334675478449,-0.03870700734176416,0.14621273912701502,0.3902747568930397,0.01082395001778132
142,1704,5.6145,0.18702975579336589,-0.288049925437668,-0.33631137335739264,0.0047799048752953767,0.0057342873500753379,0.0066473227845296,0.028734695691008543,-0.0009098117355892802,-0.17090590593128366,-0.31924344701875151,-0.2300161735099496,-0.041617775482405535,-0.038956533328567508,-0.6315177224527867,-0.045323245605963784,0.15082184942929672,0.39481011188753784,0.0053903952365909544
143,1716,5.6130,0.18590795923289855,-0.29122472690770951,-0.33688731815660916,0.00075026872131688806,0.0050414461127153082,0.0062265907207511339,0.020237370265897978,-6.3283332205695878E-05,-0.17133059913196078,-0.31941278102254056,-0.23353414129355315,-0.040645811886037449,-0.046193719947540589,-0.626130613797747,-0.040063391070142812,0.14746199336896665,0.39995710675683138,0.0085153547175040867
144,1728,5.5828,0.18527659526487605,-0.29853356650309987,-0.33654002761451363,-0.0021718899427295613,0.010915219596527794,0.00504876000612664,0.025115276296257618,0.0071966657796195691,-0.1716682659439259,-0.315947571002176,-0.23663167595095733,-0.0460733808671036,-0.041938262403387112,-0.62541503117173258,-0.031522347839737404,0.14827170635077308,0.39758466278751353,0.013420224213202308
145,1740,5.6078,0.18697204634560785,-0.29902824311127935,-0.34133038090429729,-0.0051753501034061417,0.0096966471170493382,0.002246232205443312,0.019663046361974485,0.0084746391010086363,-0.16445638363221865,-0.30364217677875766,-0.23300643877278177,-0.049695417849231725,-0.046157758536698131,-0.63248726317279269,-0.037439408123649279,0.14949013050811102,0.39350482479597026,0.0057297502499241513
146,1752,5.5777,0.17972337501159094,-0.30108119529281036,-0.33920559449429472,-0.0020793112347069786,0.0075150118610358731,0.003458707704250039,0.022941116588729188,0.008259312898136981,-0.17203171633465916,-0.301759834062588,-0.23168788286603434,-0.046821286168257717,-0.044638550076425462,-0.63362622617481335,-0.041219634630364467,0.15523854549337074,0.39289364672341676,0.0023217791570918434
147,1764,5.5594,0.17607628839733147,-0.304654586101649,-0.33891677881553511,-0.000572660613380138,0.00750534415911853,0.0053228468228522577,0.02298894730917295,0.0093160462036428124,-0.17886346664740763,-0.29694272093041868,-0.23311962029750516,-0.044492505442134768,-0.045762780451692991,-0.63619489235413906,-0.047139453819881209,0.14568916717627217,0.39109438963488463,0.0052065601644633308
148,1776,5.6169,0.17536248932152879,-0.30414422308541911,-0.34249864089951448,-0.00039647673414192162,0.003759125312675078,0.008337372275056841,0.017715004231300017,0.0086873276990197049,-0.18023889194936021,-0.30048900906557691,-0.22839997264504183,-0.04178734053739129,-0.051059330914948721,-0.6329880002244479,-0.043866219884223026,0.15110295046063343,0.39206315853078644,-0.00023968495248321881
149,1788,5.5450,0.17527133149434085,-0.30040426819502419,-0.3414660584168438,-0.005594749472317341,0.0015595752856379975,0.0059857963121308887,0.019885841281244685,0.0018481053389308789,-0.17812823225442367,-0.30541571014461577,-0.22770140177564821,-0.040194002704505127,-0.058083496398369315,-0.63367818188316183,-0.045972313220033749,0.14862975085773564,0.39198875826139146,-0.0074460957681128951
150,1800,5.5924,0.17575668236998646,-0.29939065511934065,-0.34426673766365434,-0.0096345787846662482,-0.00041126369982808251,0.0060949897590201335,0.020114231685866846,0.00042908987748204353,-0.17652775816561433,-0.30101404924726982,-0.22912542197594091,-0.042040839330863736,-0.056866592933410468,-0.63519057104349863,-0.043949020186294971,0.15015175924829874,0.39083004215053679,-0.005077961222382142
151,1812,5.5862,0.17132294218558272,-0.30149966163008557,-0.33737501721334467,-0.010192594067272619,-7.13098107182725E-05,0.0066137685125470481,0.022752374650984529,0.0028232560181075854,-0.1754831088852612,-0.30533471883216073,-0.22562847834022839,-0.047521919052126604,-0.054110846416132272,-0.63701612304710431,-0.039506664328002677,0.1525085991134002,0.39217740395581074,-0.0021769402891307333
152,1824,5.5729,0.17418545157135157,-0.29635527020495828,-0.33419307487744027,-0.013865644597186226,-0.0048743333643564,0.0042961824219518111,0.018868424516685044,0.0042335731914251214,-0.17618933165230943,-0.30860570277549837,-0.22700225515042019,-0.045047373952053313,-0.056712716612263188,-0.63733864833546616,-0.042116557838673081,0.15059097300031829,0.39424857431903493,-0.001530070393536537
153,1836,5.5598,0.17590471674020416,-0.29259173886896789,-0.33078934509030794,-0.011780650953025041,-0.0032882610042820658,0.0027102921039673924,0.016010229926653616,0.0028001690821650945,-0.16512417102306348,-0.31928698357188279,-0.22970012761102865,-0.044584845218399193,-0.056016375053825958,-0.63489922614363514,-0.045065073315141715,0.15029913124519426,0.397694163590256,-0.0022971189102970616
154,1848,5.5672,0.174258682165024,-0.29302400975230625,-0.33151894765888462,-0.014698802660485821,-0.0016081591059947419,0.0034692821219385567,0.016254222566158511,0.0010961541326594733,-0.16253221218467104,-0.31879991825555748,-0.23149503086962006,-0.046157701404344692,-0.062838578881609986,-0.63367995641054942,-0.043107973233446145,0.14587557723608038,0.40074834335254567,-0.0028195946526321791
155,1860,5.5493,0.17469695365241419,-0.29249847808284335,-0.32823100160559243,-0.0091871560555185829,4.0044969362913139E-05,0.0021552568088521002,0.016171033222374724,-0.0012362921545787681,-0.16600716286926087,-0.31951266878192547,-0.23082155296995902,-0.052562475222241965,-0.061067952228909664,-0.63460428923946843,-0.045162794165791581,0.14491905157322318,0.4002620758158546,-0.0051403294109568553
156,1872,5.5556,0.1764836055422826,-0.29501460173764205,-0.32768881367429853,-0.012109582578345579,-0.0039111406369420247,0.0055228704306459686,0.013654017127484501,-0.0021991370358387364,-0.17192257878762829,-0.32439513765948647,-0.22826448244612191,-0.049267711542053963,-0.062143828381932151,-0.63276837564754929,-0.042981716359440265,0.14361434006816637,0.39694781591066414,-0.0042042151863030293
157,1884,5.5887,0.175104190990729,-0.29481603692678909,-0.32731189125243904,-0.0094118131685512352,-0.0018348263256734911,0.0047972921561275318,0.014984919506835432,-0.00069650291277821282,-0.1691941821153112,-0.32540342218962892,-0.22851908074987226,-0.04748549346436854,-0.065361557794228933,-0.63162173223746287,-0.044801525683931288,0.14604549845143308,0.39859949433118763,-0.00772601471349891
158,1896,5.5601,0.16763076988550102,-0.29297052722936456,-0.32188763921215813,-0.0079383522411105318,-0.0014047092778106027,0.0031819586814429697,0.013136912262392247,-0.0067039806363186818,-0.17091959856196295,-0.32401197567666573,-0.22855686664442165,-0.04894282850810807,-0.067005389940771973,-0.63592108159354754,-0.046749994690914093,0.14824889254401752,0.39974732304075783,-0.011058425147926874
159,1908,5.5657,0.16155269583257781,-0.29074201296406105,-0.3250825388296803,-0.00870544854921994,-0.0039744316859705326,0.0043051867664181554,0.010157654817418794,-0.0072221103344549736,-0.16898060929131548,-0.316145071421543,-0.22742564603865709,-0.047491017171569928,-0.063667256541617132,-0.641873703026521,-0.049916165319531046,0.148582712339327,0.3998704438216652,-0.010576260808935221
160,1920,5.5741,0.16327955052728529,-0.29688838214388918,-0.3243907351215915,-0.0083503025644989029,-0.0026938223922650432,0.006045677097633183,0.00971794425039333,-0.005175488456547429,-0.17084657411784851,-0.31327904388922867,-0.2276367798934294,-0.046218096786445721,-0.06641898270464644,-0.64223196328408716,-0.048205295404022887,0.1494318812725989,0.39558057625536314,-0.0087021196941443769
161,1932,5.5265,0.16290399823547611,-0.29905937083201833,-0.32715283165300857,-0.009680685411845644,-0.0052691531028242833,0.0044121653860416795,0.011714855249703254,0.00019217643381061217,-0.17253704445272008,-0.30776289260355194,-0.22542182232559144,-0.047411802209413149,-0.067044991911247229,-0.64470722058316376,-0.048057200125233221,0.14734221456464686,0.39334461360463663,-0.0019999203833331227
162,1944,5.5424,0.164345387192665,-0.29508635680391848,-0.329078353240583,-0.0092055707673023811,-0.0053836975504006372,0.004202828258908037,0.0095923259235375126,-0.0011595922189062552,-0.17183523916479757,-0.307930821302901,-0.22587680068522881,-0.0534171280400149,-0.068354526774632385,-0.64411905755065257,-0.046276230394529237,0.14518594465685633,0.39509747859177785,-0.0037809107245544787
163,1956,5.5643,0.16201407077293575,-0.29063771117437254,-0.32283924174904366,-0.0050077673349014553,-0.008227837198133,0.0041719387333879615,0.0081708031329046152,0.00029654748418335761,-0.16759898766682985,-0.31660405545932507,-0.22227364655486376,-0.052810411884460923,-0.07212825129840808,-0.64716152879265609,-0.046793823662764057,0.14485565056919231,0.3958758815353613,-0.010610148515279111
164,1968,5.5601,0.16243480394143642,-0.29196952776329715,-0.32644000316783428,-0.00913438820785115,-0.0092755826397441319,0.0025425676759270703,0.0065588457371460211,0.0044323144797272169,-0.16810261298450785,-0.31255811362966263,-0.22665736898695735,-0.053736938862064078,-0.0750496663455516,-0.643095870495896,-0.044825256448011927,0.14312098975876275,0.39913749198778004,-0.0044764769501351208
165,1980,5.5597,0.16271812934693583,-0.294393723645312,-0.3229614353486272,-0.011683104517943958,-0.0065762830245505166,0.00083515030849325481,0.00699954838897261,0.0027726708900461831,-0.16976065191344097,-0.31171856651019819,-0.22717005335511442,-0.0537562134381264,-0.07689305011102987,-0.64372103226670829,-0.04423084022102812,0.14358782217013058,0.3982993579208895,-0.0070682980927506724
166,1992,5.5679,0.16370356395682817,-0.29268414418003919,-0.32270447762704374,-0.011934594786730984,-0.0083920907673733051,0.00069327784164052351,0.00469941138934614,0.0017191858104157248,-0.17231453527439519,-0.31091746656963115,-0.22571639263424154,-0.052378933909664457,-0.073077105402152176,-0.64497325891703949,-0.044852457406075429,0.14401399778981788,0.39841959660084952,-0.0083381844371400466
167,2004,5.5322,0.16706403701176323,-0.2959725560082398,-0.32565734552259473,-0.015119007322208881,-0.0046422476652521584,0.00071657173857627961,0.0066966220268694339,-0.00079245533213631722,-0.17089639311617694,-0.30799461172790887,-0.22291567620065308,-0.054592273474419473,-0.070245973016101193,-0.64559980761348856,-0.042505143109819836,0.14363992261472247,0.39620823355292556,-0.0072535744298719571
168,2016,5.5663,0.16650722200478932,-0.2947069254511957,-0.32607792062029539,-0.013619613581169972,-0.0068544821738952327,0.0018067117074099426,0.00500946075073467,-0.0027833155382719133,-0.17004886431634397,-0.30740213488433482,-0.22484282853785459,-0.057543177180618979,-0.069652946696930881,-0.6477397992597389,-0.041778523816938355,0.14190411264980982,0.39356223655700673,-0.0058305675471226615
169,2028,5.5421,0.16862267691291827,-0.29472316712204472,-0.32533956011942683,-0.011504375578581251,-0.010309925414558337,0.0023357961760691326,0.0048076509779860855,-0.00368343379630171,-0.16908833459032338,-0.31019966774146834,-0.22703479597497647,-0.062385075184618936,-0.0700109788310986,-0.64498439755685744,-0.0407723697346806,0.14071957941131949,0.39462104265439024,-0.00767515323047711
170,2040,5.5386,0.1674825908359546,-0.29366314292396128,-0.32371036875601233,-0.0094402258526435443,-0.010610413783073149,0.0023136692568371054,0.0064507125719193781,-0.00087632558361037591,-0.17164447540210961,-0.31226157407732691,-0.22531810056282925,-0.063196583886856048,-0.067361835189727229,-0.64607852763775475,-0.040617506234243664,0.14166071475979092,0.39361197888748939,-0.011765674874227331
171,2052,5.5293,0.16639663241590566,-0.2924284409047806,-0.32412035902798514,-0.010151764570916419,-0.00978334059617103,0.0017988055645632797,0.007920839071330817,0.0032331953492030561,-0.17009875606453762,-0.31388143459667439,-0.22585885418076868,-0.062649986724628265,-0.06657044152020529,-0.64362954466449707,-0.042759328285922986,0.14420710318897781,0.39684227327527333,-0.010560995913971106
172,2064,5.5585,0.16956061548941248,-0.2912728633136602,-0.32530011740094328,-0.012380921473049132,-0.010470174901484918,0.0022570823431033041,0.0059579498686224567,0.002250116032058048,-0.16818503554805173,-0.31311854319907451,-0.22523477327946312,-0.065941191769162563,-0.0670731579503605,-0.64443041044975291,-0.042505368621732834,0.14668719925525231,0.39432493572477822,-0.010691464038611922
173,2076,5.5587,0.16912863197531613,-0.29016745858651116,-0.32422762193958737,-0.0091959123956404046,-0.011147283987173308,0.0013093628733131702,0.00368701437749308,0.0029968592907533629,-0.16774677841738858,-0.31186080145591116,-0.22409560580528498,-0.065597034572028354,-0.067769231549340142,-0.646282431590227,-0.043722078638932287,0.14784439249781745,0.39449262767303028,-0.0077946815934659122
174,2088,5.5327,0.16968550797853649,-0.28901594169463618,-0.32494004475834748,-0.0091215923165416067,-0.0087771785472642409,0.0019109157056885391,0.0061288747491353,0.0014479683587048174,-0.16658799312513489,-0.31088646162550077,-0.22471373798534894,-0.068553726582383637,-0.066896524555004291,-0.64642654605814787,-0.044653174323826851,0.15017702532460034,0.393871363221221,-0.008260765642036743
175,2100,5.5220,0.17111506731605336,-0.29000484338272359,-0.32439408959723015,-0.0094461929228420675,-0.0098745459488823011,0.00073114709813514522,0.0059146737823657872,0.0032187512902278905,-0.16678334956185359,-0.31226453062852927,-0.22378093771926896,-0.066844381046707813,-0.066360158389561441,-0.64619855194833875,-0.044903728878720947,0.15166097487847821,0.39248087570623486,-0.0091825530047909328
176,2112,5.5368,0.17238963874856406,-0.29145076791842733,-0.32482185681375125,-0.0099206211212085078,-0.0056071322667838406,0.0026480962997553321,0.00891929404160808,0.00035140017919976449,-0.16645739179833757,-0.31092677490418452,-0.22516455892643208,-0.069940440035939425,-0.06698462460754534,-0.6459859137961762,-0.041409225859427731,0.15136307840274507,0.39123386827557188,-0.00641011167441018
177,2124,5.5283,0.17585548835746923,-0.29146741751406047,-0.32598671409078228,-0.013384313565513917,-0.0075777301775440883,0.0021497498737861982,0.0085250850974532624,0.000987433534127066,-0.16690360524670189,-0.31075823216048548,-0.22727741784924532,-0.0686640332077836,-0.069723454280411309,-0.6443295506416673,-0.040157495700394952,0.15311125472414774,0.38914245133064562,-0.0045837115226919191
178,2136,5.5111,0.17559123665753609,-0.28984296484543437,-0.32598235929978375,-0.012335516474250871,-0.0065210408001016018,0.0021628715232031737,0.00791780308994018,-0.00025000155938883725,-0.16449000397115629,-0.31002648468816352,-0.22671882859897516,-0.067576495261326752,-0.067880304399345476,-0.64674649545870844,-0.038775713481118072,0.15441312019821915,0.38865193222338945,-0.0037153079498886393
179,2148,5.5244,0.17532931370775548,-0.29063663270894341,-0.32492946873502232,-0.01183453322719607,-0.0036222688895192049,0.00274234036510072,0.01093095861931997,-0.00075389374637500515,-0.16423353769972948,-0.30984599974271815,-0.22543134021163383,-0.065518236310135827,-0.065978641275550615,-0.64858991547276368,-0.038525571242666923,0.15436470346009934,0.38776418269265939,-0.0049848516536318737
180,2160,5.5193,0.17308198465424385,-0.29044938100991624,-0.32651237977351383,-0.01402091377741241,-0.0048862905976777594,0.0035905414683931468,0.010993001448699068,-0.00039887162181656875,-0.16237594255516366,-0.30690915501140226,-0.22577723821629225,-0.063023645529890052,-0.066875582452945712,-0.65079365893127572,-0.037230787404062611,0.1533647988901356,0.38751865324136231,-0.0054452772185370271
181,2172,5.5011,0.17647141221416879,-0.29152409544291075,-0.32776846413929822,-0.015805863506751554,-0.00069027555038137856,0.0035533973998068792,0.012842297951293047,-0.0011624071263735298,-0.16535812277320971,-0.30515014966637649,-0.2255493072197943,-0.059936772804972477,-0.0626465345585276,-0.65050557741703674,-0.037219718845829919,0.15635266693434535,0.38471285482600659,-0.0054821473182878212
182,2184,5.5341,0.1783241189309468,-0.29203607128646542,-0.33122846684509993,-0.016009533670905594,-0.0017757196522892647,0.0032532935931239544,0.01209476051881161,-0.00095381820848795015,-0.1664847176426395,-0.30154838053720412,-0.22577998905913335,-0.062056296752748194,-0.059409397784136349,-0.64882052579897875,-0.037159171805024836,0.15662452172099173,0.3855871469641331,-0.007056086495593329
183,2196,5.5060,0.17574305472935917,-0.29424683382287242,-0.33321556098408367,-0.017644430788095435,-0.0014878736931552121,0.00543974644628076,0.015029163032923631,-0.0024299128478123579,-0.16739167616739872,-0.30199474310617941,-0.22411107464765612,-0.056281597026581524,-0.058860338314563471,-0.64905870175985669,-0.035954111521290431,0.15582760934222784,0.3845047001258014,-0.0060679366953258138
184,2208,5.5160,0.17239932640880656,-0.29388322801244871,-0.3323970040980877,-0.018323461979916727,-0.0034010546840860488,0.0057881253514385621,0.014031905512987762,-0.002739411714671488,-0.16833772439089259,-0.302081177860755,-0.22469301228362668,-0.057306884045062866,-0.059913513541862605,-0.64943221088891934,-0.03839801046909451,0.15483971956168385,0.3853562307174096,-0.0056160605522846676
185,2220,5.5127,0.1746166606727094,-0.29239012782379004,-0.32998598905804805,-0.0194830880436336,-0.00447189135020196,0.005691674278970083,0.015281131217365971,-0.0023494733740557138,-0.16804495123486676,-0.30643664823001077,-0.22627340935993406,-0.058464252075755938,-0.062277975152340868,-0.648311771302671,-0.03721585516174894,0.15376396762294245,0.38505739169699948,-0.0078736687889613983
186,2232,5.5250,0.17113852852159439,-0.29137277212548707,-0.32969576417774643,-0.018572597647865906,-0.0037015827458353264,0.005255667540236166,0.015560732685522513,-0.0011748470294520922,-0.16652407158949975,-0.30463468728945281,-0.22759819519757282,-0.06003479729874879,-0.062203766018829196,-0.64917639320134446,-0.036266324592507893,0.15444109389232069,0.38719506186130781,-0.0068774690669869513
187,2244,5.5018,0.17233412474149004,-0.29223168286767504,-0.33028931278140022,-0.018404420572241696,-0.00382646579332596,0.0054406711442957908,0.014978345343767204,-0.002220392608171366,-0.1681776161787531,-0.30623834826889762,-0.22710326702830957,-0.0617468549636838,-0.0597288005636342,-0.64624882756861635,-0.039089342617356089,0.1565813781108723,0.38772863787635664,-0.0084219386927589842
188,2256,5.5172,0.17183213061860106,-0.29519940127216437,-0.32832761266617289,-0.017463818249322142,-0.0030201482776196758,0.0039842146459735453,0.01378724997763919,-0.0042714696110767282,-0.17072526594548323,-0.30606244393797272,-0.22717680613352503,-0.064804916655814421,-0.058454382287782727,-0.645225781072696,-0.041049629829409025,0.15554457444642109,0.38800042800603435,-0.011080068719867296
189,2268,5.5262,0.17292617701389662,-0.29445981456848047,-0.32965083993798672,-0.017026988906889692,-0.0028881091796536221,0.00392150707806376,0.014080082832619469,-0.0030935190281034712,-0.16939060356667796,-0.30516836639417239,-0.22619939457675864,-0.063324449918205974,-0.059621175404510285,-0.6468815451416966,-0.042762650003271695,0.15484552766060175,0.38622253810374391,-0.010982241331729047
190,2280,5.5052,0.17165208928458986,-0.29542321700284008,-0.3274959718337272,-0.018055167420804295,-0.0034812954104611643,0.0044303293154046245,0.014992988808957788,-0.00357366269899618,-0.16836394597034748,-0.30792226396887845,-0.22520784836730751,-0.063668309866395448,-0.060280865724888111,-0.64661291069618643,-0.041480995469275181,0.15543221659059489,0.38679547079331766,-0.012380058583811583
191,2292,5.5112,0.170145278691765,-0.2939884423285295,-0.32653349282486943,-0.018457880426635775,-0.0048251309026520134,0.0049038253152398409,0.01288947122447129,-0.0021172154178195021,-0.16661045884756459,-0.30745265445503323,-0.22560006261326385,-0.064897003883067531,-0.060594462676976879,-0.64902292322622257,-0.042170348391609803,0.15301027839753295,0.38690001206406049,-0.013334591282391653
192,2304,5.5315,0.16968337932011776,-0.29547237431655027,-0.3275831252918957,-0.017996332118848893,-0.0039542617005699056,0.0045496338612575149,0.012847680318818111,-0.0022494597215039756,-0.16599527614957932,-0.3048676408533717,-0.22539371162369731,-0.064693351870173277,-0.057975814719817921,-0.64971718186203864,-0.044669322699030525,0.15199905628653843,0.38693579662737709,-0.013914101284668133
193,2316,5.5262,0.1698348320466887,-0.29577262922606767,-0.32866507810630285,-0.018832803525274951,-0.002755958413492742,0.0046469984084615088,0.014221718738735458,-0.0013778516006560438,-0.16644588641190136,-0.30453178269871689,-0.22503513592673213,-0.065616119553484731,-0.055837090654461942,-0.64867181035488519,-0.045461195042334084,0.15513479720600784,0.38650276530744948,-0.013735491838741209
194,2328,5.5203,0.17072388469647642,-0.29772017326549871,-0.32945756897870343,-0.020907729354988715,-0.0027241996101610207,0.0039750504152616635,0.014610383527201311,-0.00087957078646199555,-0.16604929603253549,-0.3055323142446692,-0.22595129004287667,-0.06723885640847134,-0.052466643099017246,-0.64541258289396775,-0.047213188301561668,0.15462175297215838,0.3883177765650479,-0.014551741548644404
195,2340,5.5099,0.169385267911073,-0.2985960171544792,-0.33151602864641577,-0.022660134691192893,-0.0038840139274820967,0.0048277410476518685,0.012517642653849108,-0.00013177037850878055,-0.16468757376770554,-0.30529752925252257,-0.22577168711967996,-0.06704683847586311,-0.053195540984579827,-0.64380660377557863,-0.0476584740047931,0.15545543694184036,0.3894489204896831,-0.015422479052750359
196,2352,5.5167,0.16877604399772478,-0.30096773061516263,-0.33337398457998885,-0.02371738767962189,-0.003833560821354619,0.0059662642586253336,0.015900647559915874,-0.00088859357726752113,-0.1649157352918684,-0.30407908832836383,-0.22585621987544849,-0.066103402036256267,-0.0533253369327864,-0.64270808550297631,-0.048455428461217691,0.15537713200399661,0.38886802287240657,-0.013959170470632208
197,2364,5.5050,0.16841787398535851,-0.29904048096997821,-0.33448346353915981,-0.022098703520107683,-0.00269586964637551,0.0054991760881037523,0.016262129024316171,-0.00334375228955248,-0.1658155355072479,-0.30250014486467497,-0.2270133750797525,-0.069330170325521717,-0.053889208162758946,-0.6416267939287853,-0.049086355188831025,0.15460908969086254,0.39105859364980589,-0.015120002612317574
198,2376,5.5056,0.16966734297441641,-0.30002506853818539,-0.33488891579564722,-0.021725180832670762,-0.0027139909561992486,0.0047609868809944068,0.014190688408134308,-0.003226207735864186,-0.16670595441789168,-0.29981276281650315,-0.22994367509159794,-0.067372536031443123,-0.053017046820092381,-0.64123574410235951,-0.048847945453047395,0.15639733882348586,0.39001805602745987,-0.013269509726894469
199,2388,5.5159,0.16890258060464156,-0.30064258231545482,-0.33508331520513862,-0.021392921389743396,-0.0028570730945414518,0.0055654509372689859,0.01501877465155297,-0.003950407952441482,-0.167963557007035,-0.29755229501433889,-0.23044934816535803,-0.06471961511693787,-0.055030592133655937,-0.64327130786880549,-0.04781498392637825,0.1551442165093373,0.3879875178279284,-0.013975067135026557
200,2400,5.5179,0.16958530444231668,-0.29958497687276842,-0.33434713331236221,-0.020130683873553216,-0.0044955132387243584,0.005008148916133,0.013855819375505654,-0.0022811609843596688,-0.16816320049292249,-0.29683386528810912,-0.22912593388358121,-0.06124490910563446,-0.055549077441339988,-0.64642405740674747,-0.047838931377905639,0.15230522049252204,0.38692371138691722,-0.011854719949724878
201,2412,5.5262,0.17394756606886069,-0.29886187210606652,-0.33418097334216978,-0.022216125129503935,-0.0026275279704932441,0.0048863825831116387,0.015092403922603047,-0.0042921180556768522,-0.16703257770327021,-0.29939059395460127,-0.22901030848056347,-0.060128793441011852,-0.056709339006490576,-0.6455831796016045,-0.0458545375013821,0.15450622506459724,0.38496749401608421,-0.010873631219822391
202,2424,5.5012,0.17566029844469633,-0.29701210236989856,-0.33572897974003146,-0.022127804754246003,-0.00194622298865042,0.0047224384627662349,0.014130755000349403,-0.005964571667059171,-0.166172699365583,-0.29749517635277734,-0.23003967880667886,-0.06119977734061309,-0.056573501227023981,-0.64593869238802482,-0.045915674931714216,0.15298062724237271,0.3854142497741076,-0.011006398726621848
203,2436,5.5067,0.17753648789071869,-0.297022780725024,-0.33673668054885847,-0.020784742438328126,-0.0033045651063527935,0.0046045511085457229,0.012553074411776917,-0.00326833206928124,-0.16592986397353207,-0.29872426437611577,-0.23072582754066179,-0.06172304435692897,-0.058370611029599229,-0.64385451340155642,-0.044757435746776895,0.15342921400344611,0.38567200696438242,-0.0098516656685462556
204,2448,5.4987,0.17856449719795106,-0.29438062658729608,-0.33584536714082863,-0.019545533826348261,-0.0033196581342097289,0.0038195502717307,0.012788952921755551,-0.00029507783674747131,-0.16669121512966731,-0.30189320805408276,-0.23052722766035316,-0.061566507242131252,-0.059665552273967928,-0.64276791134981071,-0.046054503277254091,0.15308356592428737,0.3870286796744829,-0.010340604281746314
205,2460,5.4974,0.17839563420204022,-0.29483404625001713,-0.33677594770480579,-0.02231895488167714,-0.0040780799556368874,0.0047177320986138051,0.012515334839587396,-0.00270822067475501,-0.16701312486269104,-0.30233711682720865,-0.23051959523716586,-0.060080268925460305,-0.061004660691830748,-0.641908973092305,-0.047254770145267348,0.15164499690090369,0.38719638309623167,-0.010092687555994514
206,2472,5.5015,0.18017547803444459,-0.29310831059766607,-0.33555475118539441,-0.02233403149586299,-0.0029184220321782487,0.0052918624515674237,0.0124664510440414,-0.0049726951453702324,-0.16763629648662737,-0.30483201384353664,-0.23017200487893802,-0.05956987303408965,-0.061860416012342344,-0.64195820227385691,-0.046585040768648889,0.15243851141645462,0.38634256671210754,-0.010353589663167764
207,2484,5.4969,0.18002225539762173,-0.29347632217332159,-0.33720931863082571,-0.021811823069835472,-0.0043138457812234281,0.0048072264348614727,0.011581113417093234,-0.0040679591099620016,-0.16818984766923309,-0.30239358153772145,-0.23184234152398858,-0.057632063466838,-0.059931751443144277,-0.64099081644887379,-0.047654720922341257,0.15348602366412986,0.38703091086822206,-0.010882594707781376
208,2496,5.4970,0.17806922490529742,-0.2924545940399127,-0.33883517543158281,-0.024083314391387549,-0.0044205907623386751,0.0057511338565103421,0.012717656502895086,-0.003333478473672579,-0.16795112004979246,-0.29956341758827326,-0.23205314311087863,-0.05827908166065951,-0.058832285561181988,-0.64241670674486462,-0.047877024956035893,0.15377460522396552,0.38687762486668015,-0.011560002008721086
209,2508,5.4993,0.17881226153725988,-0.29496850820999565,-0.33990599658964427,-0.022473216035672039,-0.0025106209618768606,0.0057025221133082862,0.014469063094637047,-0.0039470028849244556,-0.16637601559136714,-0.29759265548757147,-0.2325775330185838,-0.05817599859635348,-0.057311169254717728,-0.64238318955886486,-0.049473936439774671,0.15415253889257133,0.38548840265786327,-0.013207393737785332
210,2520,5.5161,0.17649058190823982,-0.29384335752028595,-0.33957026610113245,-0.022199327196056013,-0.0035302832189227332,0.0063825252732007389,0.01347238039406108,-0.0037589994694521033,-0.166279051728509,-0.29677034250336437,-0.23348306103265912,-0.057865051041734943,-0.058713684864512922,-0.643199057533638,-0.052263998956547639,0.15274157640023275,0.38655650645604273,-0.013288984340913225
211,2532,5.5036,0.17639306428358659,-0.29299258528770389,-0.34090173421778563,-0.024303242318477785,-0.0024771415314268066,0.006227393824805182,0.015117879164730634,-0.00466772118455854,-0.16401788756381064,-0.29575744497411333,-0.23350511512895586,-0.057165421564634583,-0.05897402434140802,-0.64357042561322553,-0.051519657426839005,0.15424745088386088,0.3865699831350114,-0.012497839904382581
212,2544,5.4979,0.17643822544709159,-0.29441630362803212,-0.34158292292316494,-0.023318138773670304,-0.0044203111420496721,0.0062293774277398075,0.012952309438562638,-0.0045893517235839083,-0.16171861206622276,-0.29594417956529706,-0.23392452723962856,-0.058475907289800837,-0.060219044036603,-0.64219864777011293,-0.050325244108746725,0.15469071311020166,0.38738316423290148,-0.01456114194202455
213,2556,5.4970,0.17593689097850129,-0.29382074635825178,-0.34229535422150537,-0.023765597338978713,-0.0063168113660843446,0.0052115846509070219,0.010604719434872279,-0.0029789307558528546,-0.16060722542144315,-0.29582047217460611,-0.23381813394146009,-0.057773980724984866,-0.063029505874541522,-0.64201233651878775,-0.052731902487392533,0.15229759953455005,0.38870424590670327,-0.014606255762948522
214,2568,5.5036,0.17685413600973432,-0.29396047749389909,-0.34272370289551563,-0.024936024268802613,-0.00717379446574847,0.0047317081973120532,0.0098442178203293415,-0.0031104609324648655,-0.16139900578698854,-0.29481333698903317,-0.23230566548492917,-0.059447443401316177,-0.064111120534347962,-0.64186784418303888,-0.052164988324505043,0.15371348005037927,0.38837980987614018,-0.015263792951876637
215,2580,5.5001,0.17380553837842669,-0.29450740091488409,-0.34221263057684981,-0.024243753141778939,-0.00891794986718892,0.0046268202778766759,0.00807731111423218,-0.0036982733663415571,-0.16057593460505623,-0.2949067996576496,-0.23136867011158943,-0.061090226285528938,-0.063126095240845212,-0.64297939225592138,-0.053534543173814737,0.15133298262713968,0.3894556119500267,-0.015132888276306797
216,2592,5.5343,0.17381855192731885,-0.29521960499870042,-0.34351186323906852,-0.025537206387355973,-0.01013217325503772,0.0050627994898457757,0.010001094888146532,-0.0041044386167024965,-0.15949274679482142,-0.29330639633570682,-0.229252885895898,-0.057960025311476392,-0.064989320540883841,-0.6443788833997468,-0.052456216914729452,0.15196938151038936,0.38833239276940346,-0.014241913835712687
217,2604,5.4895,0.17542991185444312,-0.29478910996415092,-0.34514568860116634,-0.024097302193027175,-0.00980793634510021,0.0050202338923945348,0.0086474538619006058,-0.0026303512202246961,-0.16117218176786416,-0.29348416578152114,-0.22919763875934804,-0.057900526354891194,-0.063701853361542118,-0.64301415739417145,-0.05054973601282859,0.15306541064328949,0.38813838475895523,-0.01314787796137506
218,2616,5.5119,0.17598047514113849,-0.29514196941914128,-0.34651246596922958,-0.025956356928368115,-0.0080343927337415046,0.00429732425471007,0.00940075865549628,-0.0014877311984224256,-0.161608363654291,-0.29349831106452234,-0.22903888705256611,-0.060248429907781557,-0.063554878499021264,-0.64067491874638349,-0.0496761677011972,0.15325952827759504,0.38978687544270896,-0.014139626838172853
219,2628,5.5142,0.17724454170669934,-0.29500782582304874,-0.34802676114559972,-0.027317161039890941,-0.0074450441306310351,0.00447854452931667,0.0094326374268013154,-0.0016623599086761684,-0.16030306371020958,-0.29288633575541184,-0.22889236307430921,-0.059236318477099988,-0.063094167204435586,-0.6403475191434258,-0.049117156112365751,0.15395535061478291,0.3895714471750038,-0.013316628198385956
220,2640,5.5061,0.17885076104393613,-0.29620834582345018,-0.34998316055399076,-0.030388326702779345,-0.00668708506568766,0.00346166899475239,0.010295361594330902,-0.00097976253985063177,-0.15997965257469682,-0.29265927217049925,-0.22829715965864583,-0.060182785770249943,-0.061957104212547895,-0.63796806874508338,-0.051133144487198932,0.155047596610377,0.38968165415042449,-0.016202919496523319
221,2652,5.5062,0.18159525363402951,-0.29615041510085688,-0.35072086029272453,-0.029496995155744419,-0.0058716002295716658,0.0036174700824682334,0.0094304765413680356,-4.7782326730691904E-05,-0.15952952517070537,-0.29162977165620707,-0.22970935090998573,-0.060240869067576752,-0.063290430982642046,-0.63734707232127707,-0.051607617517627477,0.15621800531977051,0.38825220499699309,-0.017699897463345021
222,2664,5.5028,0.18456306855230406,-0.29281521212722861,-0.34953217923652125,-0.029261871655508018,-0.0075412907138809968,0.0044725309949049117,0.0071814502501186938,-0.0012538815788889985,-0.161599606191718,-0.29329468015435045,-0.22972244010435239,-0.060714491468928745,-0.06555949716070078,-0.63834147263131824,-0.051412567296775312,0.15659805364913013,0.38613732540396,-0.018218152023272267
223,2676,5.5011,0.18401368263742729,-0.29360796293855024,-0.35226862835604816,-0.030434435037606167,-0.0094035416057328819,0.0049172067239681228,0.0066824365192375964,-0.0017575897756694364,-0.15923613069534023,-0.291008226045162,-0.23035235231250681,-0.06278793099227499,-0.065966093569278919,-0.63705754993923958,-0.054398495285557617,0.15713509399486375,0.38658021417341848,-0.018484051069444854
224,2688,5.5098,0.18429237588706204,-0.2974853588630032,-0.35380114189856371,-0.031236784203413758,-0.0063276969280611521,0.0050025377229009193,0.0092626130884146674,-0.00077955385765248646,-0.15753658754787953,-0.29108861700852445,-0.229242421148473,-0.064560594535763349,-0.063689753762349019,-0.63475604536358521,-0.054907153780777415,0.15708415454507957,0.38704195402326141,-0.020099490069847813
225,2700,5.5137,0.18578092788014569,-0.29776268968481817,-0.35520213253911387,-0.032133503621618507,-0.0050030048726194482,0.0044455797535934089,0.010598452880232296,-0.00077748479071201653,-0.15813558682044887,-0.29104200719342943,-0.22981135812133255,-0.0630804760547503,-0.062870354492597327,-0.63277655546388167,-0.056163870464074415,0.156580871908885,0.38776598050640154,-0.020622901011900226
226,2712,5.5213,0.18199843470827587,-0.297188338487307,-0.35397667336930144,-0.033691719783670804,-0.0065390862267606991,0.0046015493380273959,0.009448106602743981,-9.6835431930508887E-05,-0.15660309210268245,-0.29015028634573903,-0.22902009689890734,-0.06490204213328131,-0.062976756451712426,-0.63506624878371887,-0.0574514116610583,0.15482584711443326,0.38910735749894332,-0.023883460002691786
227,2724,5.5279,0.18332911061594825,-0.29512672480857266,-0.35778438140355973,-0.034789209062494594,-0.008175787426727402,0.0053876277141056044,0.0085804111032006559,0.00095741420800367642,-0.1549340520060169,-0.28948515207747522,-0.23044303650112238,-0.065799067353868534,-0.0641569464165906,-0.63327930702108459,-0.0593511555593226,0.15502930551100805,0.38897161129720836,-0.024118081512567918
228,2736,5.5076,0.18348145945203781,-0.29358931636067914,-0.35760857498186249,-0.03403853811151792,-0.0082040605676962711,0.0056255553808021849,0.0083707232469270049,0.0013884551188964439,-0.15458791907543187,-0.28809834856388478,-0.23130836027981946,-0.063395088109418338,-0.066868563544617468,-0.63543438395885676,-0.0586107203000086,0.15347682822843206,0.38819560694916949,-0.021876536689506752
229,2748,5.5115,0.18437884925770021,-0.29450996807364693,-0.35848837173801024,-0.036813375445531878,-0.0082951591489907051,0.0050835004401298418,0.00900379147932654,0.0013185191192952922,-0.15222339937869694,-0.290683302193175,-0.22996187418015179,-0.062744072501180359,-0.067957045087285992,-0.63344186872781549,-0.059052538740404205,0.153656712462667,0.38881112320456562,-0.022161933643909407
230,2760,5.5215,0.18076566694068452,-0.29459591105993282,-0.35921440683493372,-0.038896245152857334,-0.009584208993708208,0.0064759652928519044,0.0092260975560656891,0.00048504712587689989,-0.15147782456827463,-0.29034424846370982,-0.22916167789311681,-0.062049714706955431,-0.067179339237954452,-0.63432059409948338,-0.057468421799061517,0.152004642918383,0.39041807547873408,-0.019133100731217718
231,2772,5.4989,0.18310170391841535,-0.29146497676204663,-0.36000306489207079,-0.040116978215761816,-0.00766103925406506,0.0054873534348061168,0.010384130770109933,-0.00045336560185116819,-0.15006233747514316,-0.29187296441273192,-0.22950437468371029,-0.060375289388896573,-0.065305699723056582,-0.63386066472222413,-0.057064823439090855,0.15259726092719705,0.39107083704851026,-0.021303712822842082
232,2784,5.5244,0.18247032197836427,-0.2912595101028696,-0.35966254907070822,-0.0412167511262633,-0.0073393425028553715,0.0059058933108654893,0.0097354081959431689,-0.0023944655397280415,-0.14787360013511139,-0.29156020009685291,-0.22994945865028715,-0.060396142275238207,-0.06267961546704956,-0.63498461253700411,-0.058948135518284768,0.15357836008816492,0.39052700580656158,-0.020889726583718318
233,2796,5.4956,0.18364585275791467,-0.29104966725472631,-0.36071941431952209,-0.04278912254158667,-0.0098251632544200575,0.0053767713802776607,0.0073844146324251719,-0.0021050430819755791,-0.1456222768340821,-0.29112060450190175,-0.22816565927349555,-0.060407837539797032,-0.06798342620477818,-0.63467452791418288,-0.059719367864411912,0.15479607582084828,0.38998678419380745,-0.024725912750860619
234,2808,5.5062,0.18079933661340875,-0.29193769363030747,-0.36028205162848426,-0.040518823471606125,-0.0093138804624110644,0.0051711437244448119,0.0084211826680146151,-0.0035305068977211315,-0.14522941123955135,-0.29016200733081665,-0.22692089715088196,-0.061111557397148054,-0.068368269248119423,-0.63600860212276134,-0.059760697003770652,0.15414555477794128,0.39083691391195774,-0.022789621647514548
235,2820,5.5258,0.18075495168513117,-0.29358904103200811,-0.36271486099483524,-0.041256442796313179,-0.0081671106222147155,0.0046697388294400606,0.009794169319596327,-0.0021632938162213858,-0.14444188071082573,-0.28909640894622141,-0.22581060378476286,-0.060049861271948619,-0.066530916815223384,-0.63535638504634551,-0.060936042883582,0.15227802318705813,0.39122429163482192,-0.022606776435369739
236,2832,5.5082,0.17829480518458213,-0.29459551167745657,-0.36131525450222285,-0.0405504141605538,-0.010019059115799971,0.0055788795940789606,0.0093777569623897123,-0.0043193104620472137,-0.1431165991969755,-0.2901858420783896,-0.2256009143624837,-0.061056684733219485,-0.067767656815765687,-0.63507746452872393,-0.0629827169318178,0.15235946887707813,0.39250832357534854,-0.021600557515458196
237,2844,5.5071,0.17641530488863585,-0.2949628521769897,-0.36193980692874711,-0.0410221490928936,-0.010223895221527977,0.00572974631473563,0.0099493123062271965,-0.0047059925227888339,-0.1443826425451549,-0.2912209758715657,-0.2233471960101249,-0.06104614241874437,-0.066144327848144807,-0.63394051184257139,-0.064342463136411551,0.15314639386887391,0.39381329128956477,-0.025194256908456163
238,2856,5.5211,0.17387568136709491,-0.29726892053909754,-0.36337511943669143,-0.039892114991536172,-0.010058607414201457,0.0055179477297827746,0.011885683342144031,-0.0049755460315898063,-0.14482305888489333,-0.28709618709323276,-0.22439999604752239,-0.058718459752540024,-0.062246001980601574,-0.63449623034771641,-0.062517713610984113,0.15433126409020154,0.39401023148682979,-0.027320281883439258
239,2868,5.5284,0.17342212508235857,-0.29753533620140582,-0.36348720828385844,-0.03939105400875402,-0.010441819091145877,0.00411954805474763,0.010297692271935967,-0.002913218527137322,-0.14477916794631812,-0.28522565675387118,-0.22545127182018843,-0.059224992594877728,-0.06197333941794101,-0.63496774704310288,-0.063356353219742131,0.15325355140515545,0.39419867087640015,-0.027752439261674151
240,2880,5.5079,0.17330979928853948,-0.29987670704907332,-0.3647917551083405,-0.039554871534304904,-0.0084845219718263261,0.0046682875726464738,0.010950341868017516,-0.0013336678158528835,-0.14501651434686949,-0.28317065038730133,-0.2276698853430012,-0.058547657552854467,-0.060124645207986625,-0.63222428168872957,-0.064249758595705975,0.15519111343052552,0.39530289762848692,-0.029033365813797375
241,2892,5.5079,0.17428433032169788,-0.30075860236922652,-0.36690854889080637,-0.040563203413938813,-0.010089636259727043,0.005999122115580402,0.0094498187166888771,-0.0031396444104122147,-0.14299333977018244,-0.28226641574808969,-0.22830551774106322,-0.062531216959711144,-0.061695395029135951,-0.63067607848903984,-0.06633134188340685,0.15336863662549813,0.39477969229026216,-0.032592406802139408
242,2904,5.5082,0.17553923126704327,-0.29966073449736669,-0.36996306455737826,-0.040562800205910236,-0.009896026534802765,0.0056350969576203893,0.0096048169509282376,-6.8829797719176632E-05,-0.14001161047199742,-0.27935881808433938,-0.23011016060622416,-0.063884354477515018,-0.063720977676819557,-0.6296959022648746,-0.06930603048913174,0.15212995040317129,0.395321779549198,-0.032001857355970359
243,2916,5.5258,0.17449293534914323,-0.30182836203193769,-0.36951298855066661,-0.042812214932904567,-0.011448395238013706,0.0048855099917917656,0.00818057940730641,-0.0006715008200825494,-0.1380434824712013,-0.27817548325569985,-0.22814018447404161,-0.065442381735429433,-0.064415462889955949,-0.6305174081003373,-0.070140430902338832,0.15191939979477179,0.39513208413498985,-0.033806108914822969
244,2928,5.5298,0.17320619890493372,-0.305305994276585,-0.36956430365820853,-0.043268781371783312,-0.010756828116890778,0.00481223063819997,0.010500820762161151,0.00082905276281606611,-0.13540855290152087,-0.27856146227718237,-0.22649495342966552,-0.068045910632013318,-0.062162381838076534,-0.63008736858612435,-0.072115144816435273,0.15083382775898871,0.39522895648734335,-0.032967175685494662
245,2940,5.5335,0.17251877548203379,-0.30661339401865417,-0.3693306325229278,-0.042048903775150671,-0.0096707844441100161,0.0047730504130366986,0.011360709884872158,-0.00024056387822386441,-0.13630765139546483,-0.27951066452825585,-0.22579431150686691,-0.07047548774504285,-0.05867207330588399,-0.628402397709501,-0.072689274218729241,0.15109863262788156,0.39638681469926262,-0.038358789275704283
246,2952,5.5234,0.17360891563000308,-0.30222044972544487,-0.365152322211148,-0.038386298655267527,-0.010461566375957508,0.0046322172731782562,0.011169275132240033,0.000689490738325031,-0.13841198927183457,-0.28428613113977635,-0.22735223199080962,-0.066860181269973229,-0.055914306754637204,-0.63048137995646736,-0.0700484930216896,0.15173853912186142,0.39664933116522033,-0.035748712040563332
247,2964,5.5324,0.17158512628529274,-0.30236322693638928,-0.36620624976192467,-0.0385210824131678,-0.010791884901085258,0.00402490670238267,0.009739409739090106,0.0021199001687951156,-0.1399391311067017,-0.282368192730809,-0.22725246653460329,-0.068400334704121143,-0.057655901010994021,-0.62894917961700048,-0.0739068171858979,0.15152603630089145,0.3986149936195782,-0.03663120567994204
248,2976,5.5228,0.16934191825621311,-0.30225927194630925,-0.36677681467106027,-0.038326122515928124,-0.011257019743670257,0.0040964924230438553,0.0086155383202906315,0.0013032681388197031,-0.13753032903881821,-0.28416344442934816,-0.22646822421554003,-0.065944932518912147,-0.060178537944371363,-0.628519184329412,-0.071981281206986575,0.15092957564036638,0.40030055640629997,-0.038016534154267416
249,2988,5.4998,0.16687020794819163,-0.30342347206667442,-0.36641164814144062,-0.038974821267877949,-0.012154827764100238,0.0045151278383486239,0.00823052526696718,0.0018004131232565257,-0.13612635117085223,-0.28352166754166519,-0.22473147298755283,-0.064423000645386683,-0.061972681165293267,-0.6300000080441206,-0.072927083131417644,0.15128951857692038,0.40000856636820037,-0.03841416639107692
250,3000,5.5232,0.16701255863563413,-0.303845659917121,-0.36795419079499608,-0.041537489333974657,-0.011315811217280777,0.0048930167754694508,0.008740533134793331,0.00084509390420445924,-0.13600120174891656,-0.2817131899298872,-0.22572064737661748,-0.062709080429092678,-0.062211805999240671,-0.62895935508401568,-0.074210637562502013,0.1527481200559837,0.3998003340226749,-0.037856394068693143
251,3012,5.5042,0.16818846920224226,-0.30242409761720168,-0.36641790193365348,-0.0410452147829602,-0.012034627739067256,0.0053688620672470129,0.0088952924148029411,0.0001129221121484009,-0.13555741741393751,-0.28361275071781272,-0.22367784248301184,-0.063596763830782929,-0.0632741802360815,-0.63142390323611319,-0.072989186064438147,0.15355788645936755,0.39779370101550987,-0.0347797476995626
252,3024,5.5071,0.16616167304947252,-0.30355702302218657,-0.36670988328960669,-0.041377946916601481,-0.013129493937986072,0.0045295293378821832,0.0087070292315123213,0.000993312740434326,-0.13566866874936667,-0.28327445915427341,-0.22392118278144557,-0.0635604788619459,-0.062831160712630327,-0.63012923757837969,-0.074068145772786989,0.15240732703579046,0.39981772623431105,-0.035681068417456815
