Generation,CountEval,Fitness,phi.proc.1,phi.startTime.1,phi.endTime.1,phi.jobOps.1,phi.arrival.1,phi.procTotal.1,phi.wait.1,phi.mac.1,phi.macOps.1,phi.macFree.1,phi.makespan.1,phi.step.1,phi.slotReduced.1,phi.slots.1,phi.slotsTotal.1,phi.wrmMac.1,phi.wrmJob.1,phi.wrmTotal.1
1,12,583.614,0.0977610274991629,0.174418351742101,0.102354136616872,0.23144653126837,0.185928191516459,0.114792798517797,0.236000801641658,0.066175845534305,-0.020777669158285,-0.114686774142225,0.203459439268084,0.0809785945148023,0.256876175367906,-0.131955643211624,0.0507182748490104,0.188684712632315,0.414238130326451,0.189722189290304
2,24,583.32,0.132337587967952,0.118604050602345,-0.0211084719776149,0.00249954749953303,0.192553072011514,0.116333383593221,0.344877581533224,0.0348459109565194,-0.0894166645998007,-0.111861030070027,0.0296844564212309,-0.118165937436665,0.209381067268657,-0.0746589697997124,0.0394465805603825,0.0420720946831504,0.0333832605996001,-0.0767855399344917
3,36,582.664,0.0121950734814241,-0.228253659053796,0.0123728225623117,-0.0783773975888549,0.170202813037014,-0.055157773887399,0.135494146356876,0.0561817841560293,-0.16598075314537,-0.213387295687118,-0.136778748607374,-0.174516828618352,0.184145255386395,0.00604659420061609,0.0153597322739347,0.025821218146778,0.13259871492251,-0.0506938482857805
4,48,581.044,0.0761894730908449,-0.127045198807818,-0.0681757692939255,-0.0673485009188846,0.110560204869013,-0.212548504946288,0.0847526748131234,0.0885825888748161,-0.234283505278933,-0.0659169613438356,-0.129609234231076,-0.033445706189567,-0.032029731932733,-0.103960460326658,0.200856168121941,0.207631336739147,-0.00934089503835464,-0.192746794568044
5,60,581.458,-0.139790651929753,-0.191291327631175,-0.151427181378515,0.2432441200256,-0.0801251908799117,-0.14634284371079,0.00657275573521518,0.0437707629757338,-0.29861797245938,-0.0436471312584562,-0.175927923374423,-0.106715657697975,-0.133640476163215,-0.199665263411961,0.163732777831963,0.12354841705609,0.13108452072677,-0.179146471361739
6,72,583.424,-0.273959884237979,-0.090561931440318,-0.143499614860494,0.193386883493885,-0.103166238923414,-0.0706245539741906,-0.0136054492705548,0.13046928537538,-0.0687751805542869,-0.0824659963483146,-0.147058909586631,-0.135616765239383,-0.0524947617237265,-0.193125125892304,0.0955570814841771,-0.0670987093575694,0.0860293620701535,-0.176401464433191
7,84,582.314,-0.214912322648865,-0.245469911138319,-0.246317957161645,0.087294282905552,0.110756256377528,-0.0704250693858083,0.0731620701969714,-0.103444557826778,-0.0250357166387978,-0.39357943791651,0.17200936697434,0.0750116404285436,0.0698944438537666,-0.255491037441643,-0.13888415307515,-0.086904208518732,-0.0365031926685642,-0.0999459843589135
8,96,582.612,-0.283830712284518,-0.175822968638909,-0.256586184581601,-0.0522509845311764,0.00896622050996723,-0.0682586754497409,-0.0441345543162541,-0.0275986712521441,-0.183052397670227,-0.16848155670433,0.0612215683684234,0.15458527745705,0.115113015642393,-0.152208639118502,-0.176973790619324,0.0561508236550002,-0.0145814432503504,-0.170594801055446
9,108,582.866,-0.317777469355496,-0.201602548369512,-0.305631989275226,0.0606754506553251,-0.0143806043639713,-0.031944508943759,0.148401354026644,-0.0531042068717912,-0.0198723334002817,-0.0433915403555886,0.307233653790062,0.215219450522354,0.081726555778699,-0.05739234861997,-0.181122143799893,0.0461596224571099,-0.024846782108344,0.0587334654737801
10,120,582.316,-0.192281868952508,-0.145699180173071,-0.202197266624513,0.083002529439114,-0.184789775216682,-0.0170443233731472,-0.185701896875649,-0.0402574630165559,-0.151481970955595,-0.183413535323454,0.184954312230868,0.175725718216103,0.163381840482677,-0.185526540313473,-0.0381286852977038,0.0299849110423121,-0.151952120924184,-0.0360415248015508
11,132,582.534,0.00922866202057398,0.0247830702195263,-0.354845462458619,0.066897470590999,-0.0243870675383527,0.0531913762701031,-0.0382789310207751,-0.281009864734422,-0.0460185281888621,-0.259383738125717,-0.136720264007196,0.209532568461452,0.0669530247187532,-0.314814844935292,-0.117770472899158,0.100988998130349,-0.203871839624349,-0.118741101469511
12,144,582.542,0.0319473298768502,-0.0138529795868481,-0.346644277835562,-0.192849785546345,-0.102243889060909,-0.0604832835602544,-0.186142624775363,-0.146951648204191,0.163828474741858,-0.152628291711752,0.0415936259476708,-0.0569457225261679,0.173360970165188,0.0218575221123175,-0.0144884057199601,0.0669211002807612,-0.044691463281435,-0.0904643484145361
13,156,582.21,0.0633461793738418,-0.0535318631897976,-0.421520713622658,-0.184590079575626,-0.107852448897899,0.00532202367184559,-0.127310611454065,-0.380673742847047,0.185078995082684,-0.265273997713738,0.0451358467315852,-0.0794900663819849,0.0201019206202796,-0.0158574725588097,-0.0939433920157445,0.0513634201918212,-0.0421051128814576,-0.0160491661578632
14,168,582.392,0.0729653751845838,-0.0252335646801419,-0.33387705407783,-0.146462662774332,0.00116095378666981,-0.0623182527450588,-0.206817894913776,-0.469283874887523,0.0879946875184247,-0.416156531090008,0.0741533419678469,0.00240468038319031,0.129130306854583,-0.0552133522556187,-0.131130772908849,0.157930302843286,-0.118391645653396,-0.170698532661579
15,180,582.054,0.0279952922306176,0.108415270060215,-0.288102904359001,-0.140211913474187,0.0273213451110821,0.10689990937937,-0.352144145543095,-0.344501606282378,-0.0598109058577868,-0.290443020402358,0.00426052678551945,0.0719200941154867,0.172987762872719,-0.173225509094338,-0.242359049177628,0.0512701905378398,-0.178891994885777,-0.159618372933639
16,192,582.354,0.00439814656946267,0.128830133789603,-0.347151919105624,-0.078790716179111,0.0168182476863102,-0.024003202872955,-0.411712994202248,-0.120914829671094,0.0481662332076603,-0.270519774083896,0.0864541348507163,0.159689624809043,0.0409637615831063,-0.156262867465492,-0.326719946648324,0.107034758494529,-0.296563680350486,-0.0323045948928456
17,204,582.392,0.0660700019680061,-0.0912749746960741,-0.344407636047433,-0.00724864949181122,-0.0706526908944204,0.0179237959343238,-0.260984277740552,-0.189390684708446,0.154256933087045,-0.25632071168051,0.00597792603591008,0.263335481309904,0.0156651483486664,-0.18335186202113,-0.31328476609749,-0.0546756961522351,-0.26242838590236,-0.0677707061804074
18,216,582.322,0.0552808130025703,-0.103110836679618,-0.437542385977618,-0.0648785425959448,-0.093191942691267,0.0636473625708662,-0.253134744994833,-0.227204526644743,0.0708834235337958,-0.287674524347643,0.00200542429980547,0.203875100888952,0.209934820875789,-0.185109094726955,-0.142450143164781,-0.2753114126611,-0.12542348687897,0.0704965504117019
19,228,582.446,0.152408765515711,-0.117052660225658,-0.402656111295922,-0.0695640824034975,-0.0371925264417106,0.0200659569249567,-0.203924069364408,-0.0775485056177497,0.0904257199379779,-0.234054769349384,-0.010405000612673,0.381231881245444,0.201405507357645,-0.0991345566632239,-0.117533395958661,-0.31080074325825,-0.228557507255652,0.243249321735755
20,240,582.266,0.112964597848334,-0.114207464301352,-0.574227969386592,-0.0805763650096578,0.0264089127203272,-0.0645844132136836,-0.064646985878321,0.00774903791217275,0.133435281130958,-0.110083552207536,0.0276109794282851,0.377013901737722,0.286286415310633,0.00837557143540865,-0.166056731778147,-0.256941320543175,-0.120182962714827,0.175275369575336
21,252,582.834,0.0677330355119064,-0.262594549784062,-0.36037138875699,-0.0207195766178937,-0.0601344822724544,-0.0385247757607887,-0.183243263763839,0.162728642160506,0.178700391647588,-0.0727808515990962,0.13732511525921,0.396961869189853,0.283806264282829,0.0459192428120026,-0.184152442004482,-0.241874008602915,-0.159575186030401,0.108603211330097
22,264,582.248,0.117937753943393,-0.332719366700313,-0.292009002073326,0.022564585236296,-0.0179833303968018,0.0300640551020199,-0.165480297936923,0.0348299982844627,0.172112213625569,-0.212225371580816,0.0375465030932582,0.261425047196344,0.318794505541943,-0.0562286172106881,-0.169102238259495,-0.228058741400477,-0.188420788437812,0.123703357684528
23,276,582.206,0.139411803394418,-0.268913244042183,-0.269288636509596,0.0227470076695577,-0.0386740295598908,0.0448666222835457,-0.168859950126613,0.0696533729438853,0.234593868543184,-0.224022370006302,0.238350321729607,0.323239576268502,0.307093570218757,0.0152172088818047,-0.319388168375005,-0.125312084827447,-0.221969859330176,0.127604372375634
24,288,582.292,0.279238472676792,-0.321100663046179,-0.255767631463745,0.126176815950641,-0.0614131694008883,0.0534605435126296,-0.191022816568066,-0.0399702281719812,0.23851713935855,-0.313773184212441,0.248657164609164,0.228844817893646,0.186734682429662,0.00942250167251234,-0.317645672246724,-0.11630373691704,-0.231481960030117,-0.00920357247046145
25,300,582.292,0.209511292689492,-0.249776045210633,-0.20366980078807,0.0613382781465575,-0.0587585819382312,0.0474859106327769,-0.210633099811777,-0.0327434948094077,0.268263192614934,-0.345745284748962,0.322908462624862,0.21271690134204,0.298800867938198,0.0858173739818553,-0.250197854088144,-0.199094716997456,-0.250974399703494,0.059033713326866
26,312,582.318,0.210648288860087,-0.189013103135305,-0.224663121837527,0.0464475155557704,-0.137784672051881,0.0426057590154197,-0.258263105782845,0.0393808071989919,0.17250324292581,-0.429363238063364,0.322666261648577,0.179263190431628,0.33359790657224,0.077903491315901,-0.246777478848637,-0.220727517268172,-0.249331769311878,-0.0235488113476846
27,324,582.266,0.263568236651432,-0.293678702273367,-0.176578846639038,0.0337804743956372,-0.11271303035801,0.0840519980961312,-0.234499350991419,0.123489391268877,0.128642650996357,-0.396177325866044,0.2855534112259,0.163383923864485,0.316285154558292,0.0807983770227825,-0.272476632081664,-0.264329615644297,-0.267745825012095,-0.0235916808781619
28,336,582.248,0.21873557086934,-0.335317927777912,-0.147201816009935,0.0758354997294129,-0.132110760194411,0.0505899377265204,-0.268176798436712,-0.014400622536995,0.117821488252226,-0.397615548070648,0.221121543946972,0.132351591658076,0.352608948093305,0.0724156804954833,-0.27486004921902,-0.31535577953301,-0.276306693362823,-0.0453885441346528
29,348,582.086,0.211144208748962,-0.393012978987045,-0.167188256545581,0.00334696781419523,-0.111489945393897,0.141856651139891,-0.184516562946842,0.0427461677670262,-0.030992564081655,-0.358549986550026,0.161954358561945,0.130413681257575,0.398266103040427,0.0762708872478113,-0.270465337613975,-0.351670248034631,-0.188739170414312,-0.0554746831242831
30,360,582.23,0.245944694117806,-0.295591423341864,-0.141382411089185,0.0143044290753709,-0.117706088552196,0.124878277798549,-0.212749328925707,0.11489724206874,-0.00583306516213604,-0.399784794623684,0.240018040435587,0.171482516449957,0.393458975567087,0.0483018722384873,-0.280833026442994,-0.302726515372465,-0.210158493394056,-0.0854760125423483
31,372,582.216,0.19346840118696,-0.295737325143154,-0.143009948491568,-0.0346821904946389,-0.0884321289818673,0.169472692286667,-0.175651155675358,0.104475599561164,0.00274623304623723,-0.460726911024866,0.230409995364415,0.117857343268439,0.442398729913993,0.0850845508047569,-0.253534068207589,-0.195291869980149,-0.201548276874499,-0.0890332145391122
32,384,582.192,0.226708680753126,-0.300336999741329,-0.151598810639797,-0.0873313019870482,-0.116749064362855,0.166496765400284,-0.23156966349468,-0.0277009683800501,-0.0488609352097158,-0.473954298574925,0.177381279094584,0.115951266382388,0.443157611089247,0.13358859989623,-0.185714678135176,-0.122629807327874,-0.248012050545883,-0.140205029782628
33,396,582.106,0.176775936771235,-0.261915293314575,-0.189982095060229,-0.0358557392890423,-0.0988895626017838,0.186209038082292,-0.185467508826322,-0.00247593057502244,-0.0910610930073237,-0.468478897824022,0.181079965478937,0.166221679068925,0.450174306470728,0.186906883484147,-0.205987533111963,-0.0655815140207368,-0.239451865478882,-0.213121241011183
34,408,582.17,0.240395676399247,-0.327013423010917,-0.210683089869162,-0.0157493023747406,-0.113225671480142,0.238813576123826,-0.148112028690702,0.0362738608643757,-0.0070728570870464,-0.418911694931073,0.170272305442206,0.180828830596471,0.464907399343643,0.175698493357839,-0.139914712190317,-0.0900966541960996,-0.273345055594651,-0.179227968578604
35,420,582.252,0.271981715254031,-0.316177426643873,-0.296178672450988,0.032900765326215,-0.0431261014625425,0.22541396364056,-0.118413909382945,-0.00434288144423094,0.0346883103282065,-0.357615976667516,0.124923076013592,0.201502700104947,0.436537031058572,0.177470158729718,-0.113702260357145,-0.071269766570458,-0.322614485786395,-0.193088376742182
36,432,582.194,0.278910439490784,-0.32351595015252,-0.249119495442506,0.0223620461392677,-0.0431611665227285,0.242761612901509,-0.10579583905992,0.0162960815323324,0.0691203963211311,-0.292893371624206,0.198665800448831,0.199079051216208,0.475720672241594,0.216327769455908,-0.100433838944412,-0.088870406828481,-0.326248330827617,-0.170625730642711
37,444,582.248,0.30862520388431,-0.264007362344786,-0.24604493746318,-0.0145694833139694,-0.0611477527900295,0.19786507664909,-0.107560232301652,-0.0342117375019581,0.00831466914956992,-0.28572321049711,0.18637895329991,0.249278700677169,0.56329038815572,0.188499366179886,-0.0962152962769728,-0.00105701016207263,-0.297947872349812,-0.165882763919523
38,456,582.246,0.277133242141977,-0.249160999511177,-0.230512261731393,-0.00121906675959502,-0.0680428851268985,0.209334270797553,-0.101943277841622,-0.0641299689383768,-0.0235736007972104,-0.314488136838387,0.158341667623086,0.210066345189998,0.55472473073432,0.216223070204316,-0.0904519926889071,0.0107000579674635,-0.311497126477964,-0.197043031012338
39,468,582.16,0.282974020630174,-0.223600561975776,-0.217766280535658,0.00900232117427209,-0.0338139502989266,0.217904726869534,-0.098783894795704,-0.0726160774347643,-0.000847710850571423,-0.358923959882641,0.185659084448844,0.198754923162398,0.543227440347066,0.164089010511846,-0.0977738055955847,0.0292817795095869,-0.307063398951595,-0.196000247800039
40,480,582.306,0.23655684058318,-0.280854497834902,-0.261288493665754,-0.0328136872686169,0.00754699285282399,0.177817209434281,-0.1151945841566,-0.118227580168344,0.0240908539501499,-0.353289618045797,0.157156389297938,0.230833570808944,0.564796232230378,0.176587974521316,-0.130256068628991,0.0122898900319173,-0.294603626544897,-0.18045783967293
41,492,582.248,0.235990772332723,-0.28215553675797,-0.216504920733692,-0.0899752440997711,-0.0128608837253531,0.140365279352811,-0.127612530300734,-0.132024475939566,0.00812156415032999,-0.381323673950802,0.0813521158356741,0.210084934960932,0.560690532999254,0.208268028292002,-0.12018034341689,0.0288928477018936,-0.340067914504261,-0.156914647363868
42,504,582.208,0.241795784485993,-0.234391165763879,-0.226839150724227,0.020557504065767,-0.0656062932721391,0.215948411394572,-0.122764154482111,-0.150928542097199,0.00478468189563634,-0.428349779598079,0.140530397419216,0.139724189135127,0.553262085406036,0.235448541501332,-0.142522714343723,0.0652123382153612,-0.276719274638622,-0.141321180631112
43,516,582.194,0.248997188824014,-0.238176518726293,-0.179580133330544,0.0308467738363439,-0.0571567950499737,0.268787808193665,-0.113841277419425,-0.187746449979086,-0.0362598340516788,-0.400730870760993,0.151581585867452,0.142772314715329,0.567519576943131,0.208742468442293,-0.113000093936969,0.0668440884724939,-0.295693844382435,-0.10042694809668
44,528,582.12,0.199698759118327,-0.244148347484986,-0.19548839574348,-0.0134292867889268,-0.0910757217237699,0.283676109175769,-0.13292253551254,-0.200848599545967,-0.00918273236956637,-0.399318081919846,0.089901352360258,0.176552121828416,0.524713449313705,0.196597474822739,-0.118590087415171,-0.027484940843876,-0.320539288811953,-0.174453342138298
45,540,582.23,0.16250992940451,-0.276071805777046,-0.184092739211435,0.0156821467577871,-0.105201104066561,0.219863640996865,-0.186915540360065,-0.200524545074556,-0.0626025417850065,-0.348427938277649,0.0962940224997819,0.120539552854982,0.566568592962747,0.220534102105599,-0.139756899503795,0.00410891160676762,-0.318680813504612,-0.199417158355915
46,552,582.222,0.1500889365591,-0.293339144509861,-0.15022431647475,0.0275591158597276,-0.13055039500498,0.162551050516528,-0.217910577747132,-0.209093010162823,-0.0623573448190211,-0.392546376033543,0.104085154796532,0.155711665766761,0.518316247239372,0.243051886469204,-0.155235600485546,0.02672873181735,-0.332110946257377,-0.228925050795536
47,564,582.23,0.151743239285863,-0.315165165250474,-0.152012734305655,0.0230557441985353,-0.146231973196502,0.206457325553166,-0.233478642087605,-0.172315846808034,-0.0675054794911742,-0.400273295749142,0.0576381014608634,0.113354520524123,0.505978159577921,0.21373104793665,-0.118813476364639,0.0715095927351123,-0.32296154268566,-0.23170319868055
48,576,582.232,0.149634458522806,-0.304519949108611,-0.160613666172697,-0.0255703492184975,-0.154260696381777,0.204653787101109,-0.248344966684834,-0.196233400987857,-0.0324843972125761,-0.351142855708325,0.0831750315214714,0.11572729379147,0.543153909214274,0.222335109175813,-0.113371733959133,0.0453915900400131,-0.34088938148076,-0.199283775190792
49,588,582.186,0.128298728228538,-0.324384721664474,-0.154208741541081,-0.0472568824283541,-0.169058345806243,0.199839545020389,-0.248123793278987,-0.226592446367717,-0.0110342016951251,-0.405016266962848,0.0477768363409913,0.111689417807417,0.503038201212731,0.236775264396489,-0.12385129336974,0.0860425476734781,-0.264457900468559,-0.237429306177664
50,600,582.218,0.11101387292321,-0.337749488941978,-0.107365061947636,-0.0601840827127576,-0.189300601729945,0.185138703347595,-0.26701164849924,-0.212300563016957,-0.0549349385179649,-0.387247423005151,0.0403475954454934,0.152490855013031,0.522981852265087,0.234914447540974,-0.101360371854798,0.0961483618053531,-0.276263072576765,-0.190621257922105
51,612,582.102,0.0855858484283804,-0.347897961725914,-0.118499411613569,0.00187627196945627,-0.207237070099732,0.232574341213615,-0.262572283756683,-0.230465755011085,-0.0240325595695754,-0.403429148799769,0.0809332495790511,0.179300461307466,0.491725983599496,0.214086611325779,-0.119249998378004,0.12608206583114,-0.250011342278959,-0.164831856987326
52,624,582.044,0.0769314538119312,-0.323058788371901,-0.0875276717025365,-0.0088027543896419,-0.216371356665391,0.237263450368789,-0.293559979014857,-0.205783072437919,-0.0695894117531454,-0.426054838788292,0.0363323841974372,0.242332505722568,0.505475221936287,0.14613218674896,-0.105108766051519,0.0756900151963273,-0.239659665974623,-0.142708229184889
53,636,582.156,0.0775949909419074,-0.308841888591111,-0.102176091420894,0.0509464886574174,-0.192209653440572,0.246602195909008,-0.271097373130741,-0.276609970614234,-0.0809260432566448,-0.407227103318652,0.0248001145652404,0.236218641846542,0.478563701319066,0.113933028758147,-0.108751169016506,0.110855867888616,-0.255284290860256,-0.188740099405999
54,648,581.822,0.114777920473634,-0.326351440629133,-0.125454285287137,0.054829062535859,-0.209298645249243,0.286825133991619,-0.282920131977324,-0.292638030920965,-0.12162119116712,-0.407016555039136,-0.000708266885605831,0.219941515613848,0.409820035211491,0.0891961635605847,-0.117331640633447,0.0808904004131102,-0.25399631958556,-0.234765157414048
55,660,581.938,0.0970202499763523,-0.305053002638946,-0.110191736284104,0.0414810836160679,-0.204399879110436,0.281503889370325,-0.28979404387287,-0.315168297803299,-0.0985903416991858,-0.399034806992828,-0.00551963779796372,0.276230377549779,0.402265646630046,0.102859970089112,-0.118492736870336,0.0879036087188492,-0.245594325058796,-0.194845760244925
56,672,582.166,0.120641043584887,-0.31583424606268,-0.146624915758124,0.0527483452424974,-0.187472815148528,0.228869899112395,-0.265754842629498,-0.343750003450599,-0.0434125732333756,-0.398437415741445,0.0156131833837429,0.284865314920282,0.383496028303842,0.140739371343424,-0.151164272216266,0.0684589785257795,-0.250721445748002,-0.200077369052142
57,684,582.188,0.15520037579,-0.343407356648203,-0.141331392735271,0.0705469064997381,-0.203600153371711,0.215636333350852,-0.280835742175907,-0.341284199882979,-0.0167862827256309,-0.354054282463885,0.0328872861426205,0.275158842622899,0.385501184249888,0.138897932625977,-0.127963403657015,0.0515384121648324,-0.246695110659501,-0.264739295750237
58,696,582.178,0.130572819992599,-0.364733315523634,-0.184250013250704,0.0447682160590155,-0.238716550964502,0.199420186613049,-0.303894918117975,-0.361687201494923,-0.0418893967675164,-0.345456832840333,-0.0469026584192509,0.252428396436125,0.34468253357591,0.116470020404785,-0.0883841963080327,0.0440188414269453,-0.237611829756019,-0.280520330935664
59,708,581.818,0.118233432188473,-0.300555243737717,-0.177528381662144,0.0627285779809649,-0.238332960960305,0.246466754522425,-0.314457417639759,-0.34443240913553,-0.0464150393148186,-0.382192292421913,-0.0631954841228359,0.201957007764244,0.388861365967181,0.11270819921698,-0.0834198563604139,0.0616060290517744,-0.217933485916077,-0.270927247652277
60,720,581.712,0.0722154227355764,-0.355090923952707,-0.132824459117017,0.0745448009098335,-0.212532144202057,0.224402252839457,-0.288532730272738,-0.368968733558199,-0.0397585404992663,-0.410833602233628,-0.10255778322379,0.184444581076109,0.366396681037245,0.0861473751174433,-0.143485918193911,0.0805044823984862,-0.184020507284634,-0.288110884363971
61,732,581.578,0.0354138543457187,-0.335592504573838,-0.143948673255096,0.0612184592026929,-0.219634887402701,0.2639973157628,-0.274025009495845,-0.360140716053205,-0.0688119060790003,-0.419716804863556,-0.117133698108543,0.160735816131233,0.398272410718189,0.0981278789940974,-0.127324598127214,0.0775915893004173,-0.192623578303563,-0.24430980449095
62,744,581.624,0.0303151163373681,-0.350497753513996,-0.105038271688441,0.0485785981084533,-0.189976267364113,0.28736569985081,-0.278117403711432,-0.402220050987224,-0.0576593920968701,-0.39655704284518,-0.144835793705764,0.149807257798627,0.391737959012787,0.110228970601614,-0.13392677997243,0.0738238517931305,-0.187518648871874,-0.216768735397712
63,756,581.598,0.0247940076499932,-0.319316780082999,-0.121478105920624,0.049051746970804,-0.185517311192262,0.29072951419161,-0.266681329172075,-0.400218766811656,-0.0580392358567141,-0.361461229174493,-0.172647697200588,0.119956011215398,0.407414294698107,0.141186445323079,-0.150625422310859,0.103135798338,-0.212748845697878,-0.244297080951693
64,768,580.958,0.0386514778100357,-0.343390254599639,-0.128317211640639,0.025087822286496,-0.172787431621785,0.31818110085305,-0.225533836597698,-0.43615094708843,-0.090992712804071,-0.343594867326487,-0.207287755373957,0.0963052622498537,0.367977884370207,0.110519939651679,-0.142664162435906,0.0902059514789397,-0.211675384858989,-0.254743392673337
65,780,581.454,0.0231241371593313,-0.364848056595662,-0.137947305528389,0.107964911980476,-0.204556127910495,0.322600300664369,-0.217627171425835,-0.430018795428883,-0.127939920390172,-0.329412696265075,-0.161648968316628,0.0996934930772672,0.366741459174722,0.118928002283159,-0.150891273404136,0.0776826637512757,-0.214082058759891,-0.221682827931735
66,792,580.824,0.00234215640903533,-0.337001994056721,-0.169759424032763,0.115083820281547,-0.188906790054829,0.316147636626238,-0.188769633612166,-0.440637526086413,-0.133561256499858,-0.333878748576245,-0.167924561591742,0.12900510117436,0.33943783917775,0.173474060160499,-0.136950830173683,0.0988759150286956,-0.196295613392657,-0.242111524477302
67,804,580.928,0.0327914259627716,-0.342836935740451,-0.167930521491113,0.145439129456827,-0.172240143978365,0.300908178219045,-0.187846037122861,-0.469180441347409,-0.134333261709498,-0.326642459409043,-0.201507252858022,0.0955713594073724,0.337254323986959,0.185445983075252,-0.0955672328304698,0.0443973536142923,-0.202934371300948,-0.242369807387744
68,816,580.612,0.0497821158164057,-0.366611773683051,-0.164118227664686,0.159632171784115,-0.183253118954805,0.306935902423979,-0.166131022048747,-0.439973877507576,-0.182380619119577,-0.289815407429524,-0.265808695708109,0.096614300998883,0.286162581066327,0.188351121584686,-0.090918791342107,0.0404456002633888,-0.20774610076375,-0.234363671209181
69,828,579.952,0.0643965047713586,-0.324933442309268,-0.149614005372026,0.13447704838068,-0.173372678260868,0.29393657861473,-0.191103277764679,-0.472948924046338,-0.239759556841604,-0.240576130964422,-0.314681482965779,0.125043740440219,0.24884003416473,0.173477751523554,-0.0867903175012622,0.0895965193959684,-0.209705742723302,-0.24809080505518
70,840,580.464,0.0201858695574243,-0.360626668484828,-0.104787963403587,0.0940283113372737,-0.202157900827449,0.295009731892204,-0.19475482777935,-0.509015472941942,-0.209912070874102,-0.2212950806841,-0.323649043998888,0.0794687301186475,0.218582866799113,0.157004779275389,-0.134723176374744,0.0892045772669566,-0.203427524875595,-0.211780713369452
71,852,580.892,0.0197122714398147,-0.356195074624056,-0.0676267020726281,0.0797770736815398,-0.150742925707358,0.304843726986305,-0.178684216068814,-0.519193882085915,-0.171639378133196,-0.285895576303701,-0.32191425764316,0.0766348720894781,0.246699314237819,0.17700222549387,-0.168116493132589,0.0825780278327037,-0.195188162063511,-0.170769037454473
72,864,580.498,0.0346785575056215,-0.314125084045186,-0.0425684699942254,0.0952049639948313,-0.151146783239116,0.30756516855263,-0.189709347348929,-0.507221437490923,-0.206763362052032,-0.284344614695641,-0.297673678324314,0.120016778284492,0.284841634423727,0.186530769956785,-0.139387022101012,0.0702978483918292,-0.208632490956932,-0.131330183123552
73,876,580.006,0.0322061580792809,-0.293541230462703,-0.0562487123215014,0.0920689427107214,-0.15596260052637,0.296443505925412,-0.183861344258556,-0.513570444163069,-0.220222894580313,-0.260740181061571,-0.33600702629036,0.112268948917167,0.264778470509327,0.227991290622445,-0.130306085007502,0.06696328213104,-0.221122344090799,-0.141612572882345
74,888,579.228,0.0528536565018113,-0.224340040317328,-0.0858546236732661,0.104452145297381,-0.146905744609332,0.313110553502732,-0.159656032862374,-0.477158101950796,-0.254877279398374,-0.247397831200358,-0.387453210604279,0.135613060249721,0.271560038713503,0.23635860909947,-0.0903116407712597,0.0726512764495207,-0.222484027394714,-0.18124894791983
75,900,579.722,0.0889690452759741,-0.207600063016645,-0.123815110242052,0.0897862905888381,-0.171546462258373,0.309323744136191,-0.162333306355987,-0.468205119445347,-0.254725436146537,-0.236956004248128,-0.320015789812956,0.157699757825693,0.304026941229558,0.266642458128345,-0.079054822616417,0.051183349123553,-0.217339512398478,-0.198275577130261
76,912,579.3,0.117370340617289,-0.226845991559424,-0.0731499358188359,0.0693133636957727,-0.20874039352994,0.306893057143807,-0.183705834425298,-0.431478031233419,-0.260813052080744,-0.21887496029299,-0.289261427310908,0.195463848839505,0.322531462248442,0.254079206016466,-0.105179966038351,0.078650773289419,-0.244183161104091,-0.203462780412111
77,924,579.092,0.134757302050308,-0.240802413773614,-0.0682726636784275,0.0851726574347271,-0.191258606562834,0.290797629724986,-0.171769444713987,-0.40961366495107,-0.261933540866181,-0.184040272485221,-0.334504025419617,0.193647509122025,0.295293211370404,0.279509241062423,-0.108753485369811,0.0547244339442185,-0.221055161481273,-0.246530624305862
78,936,578.906,0.16686913516773,-0.18984323452659,-0.0467791986267092,0.111163427692597,-0.197044024103959,0.278782208395062,-0.153522972505166,-0.375543832145826,-0.293348827897258,-0.150476657131258,-0.38249852339451,0.167817921226956,0.309381833601763,0.314988275102984,-0.0831817507912856,0.0972814488564396,-0.232720545799505,-0.252761266634784
79,948,578.88,0.151193473981786,-0.215864326420622,0.0655096229730379,0.122898993218577,-0.190878592318375,0.273870632132371,-0.17747463106133,-0.394083221570186,-0.304388789173087,-0.189972033342549,-0.399902018457835,0.151946207479606,0.29022608060569,0.278736950451865,-0.107536563057637,0.0826218294055192,-0.243029276071808,-0.1984047889267
80,960,578.774,0.105214810328455,-0.207416648009818,0.107484828729582,0.12656051001344,-0.198973689133886,0.282820012751165,-0.143851572118881,-0.39719405128345,-0.32449558410157,-0.163083726066764,-0.414745756863337,0.124886447198136,0.281594704564129,0.270082829768742,-0.0952512904475022,0.104093714370302,-0.243901065952084,-0.198533640105043
81,972,578.88,0.100143134907609,-0.186473540663598,0.16341188260815,0.106335290904026,-0.210327713506643,0.27193864810759,-0.170744895883559,-0.347601453811118,-0.364699441530761,-0.156912113711543,-0.408036881259161,0.131522050762639,0.342827023248143,0.248460740108887,-0.0748235129383544,0.101661382372353,-0.248967557913868,-0.144580361149927
82,984,578.964,0.0529963217146833,-0.174894428327282,0.172635475954412,0.112521251164293,-0.232550170076707,0.294377674778163,-0.181547359030105,-0.340317094909743,-0.363865891476188,-0.199811941536594,-0.379934084054552,0.143692200023197,0.296131509788078,0.210618972060965,-0.110398110500025,0.158492671991541,-0.25599517079376,-0.168367222559668
83,996,578.912,0.0589032267836981,-0.149247366604061,0.156390585766188,0.109861380816355,-0.270536925482702,0.293428611032484,-0.212670252153505,-0.362881680110981,-0.375814690228003,-0.170045291049105,-0.372023702538445,0.128881644597642,0.276503604443554,0.185342034156742,-0.0972594419993711,0.147266514215033,-0.262454654663306,-0.16686768227405
84,1008,579.242,0.01212619256742,-0.132573913232234,0.134190979566139,0.0839178295323011,-0.291053601816617,0.29175556370531,-0.226154461617777,-0.316646373130525,-0.350608978950258,-0.176372181198621,-0.418592584062265,0.153969377684094,0.248737249685491,0.204013537645042,-0.0893602038916241,0.164765335610828,-0.263253328985894,-0.149717549668515
85,1020,578.804,0.0412741742036203,-0.127922977894151,0.0907196314246456,0.0874314159202953,-0.307164464551421,0.299352188715749,-0.248895187829711,-0.367070665116461,-0.268044216234272,-0.179731753905565,-0.391108562092488,0.165289754254112,0.260597730168174,0.239755122717564,-0.129171157092657,0.169246221396412,-0.264201108358105,-0.175095764369325
86,1032,578.958,0.0419965491140774,-0.0922993529102578,0.0721292721639098,0.0737786253134449,-0.303853399576266,0.26926711999441,-0.247265591736945,-0.361228106563064,-0.271926649765131,-0.175654175032455,-0.418537324797025,0.180066258124378,0.275154765584118,0.25925957729495,-0.12100263131423,0.164858535490145,-0.2246033419831,-0.185049271513792
87,1044,578.798,0.0483209686590143,-0.0455432009771606,0.0391315646619176,0.117156690381408,-0.289932237611586,0.26304038198427,-0.204388604338651,-0.354360989006392,-0.32472503002889,-0.12146531693257,-0.368972464216655,0.232900716982418,0.268654793183915,0.314059858684917,-0.109135047359409,0.166660121922038,-0.223144533927108,-0.199992798178659
88,1056,578.936,0.057865385261709,-0.077925802668626,0.0131498230396171,0.0946734642472617,-0.265253451909215,0.263424838723683,-0.219946150266337,-0.345388709743566,-0.265919128426978,-0.138681947979654,-0.361691575273054,0.285487809486806,0.240591879290018,0.319400155993841,-0.166846804783453,0.213976093229893,-0.201709445165099,-0.234837598819553
89,1068,579.018,0.0700856420159392,-0.0792012887011088,0.0578617573589311,0.0950003160702761,-0.244017643484817,0.249015778388218,-0.228990400998006,-0.346367487144454,-0.319368688637747,-0.121128527906914,-0.410566872846582,0.262451509416131,0.22880793780305,0.318321580733128,-0.16281587962532,0.179109299313675,-0.196308764054164,-0.225185253854094
90,1080,578.866,0.0592899178669428,-0.0827419317346363,0.0782129201291666,0.0990946691554527,-0.254860617501119,0.211407471246042,-0.230759695919433,-0.350549295530891,-0.324069082953489,-0.116536116568534,-0.38379931449096,0.260419030762103,0.234808073488048,0.331786246490747,-0.140624405419337,0.218163831088842,-0.178980315252891,-0.250590914027432
91,1092,578.836,0.0600995692127729,-0.112204815928425,0.0506110821839173,0.112750927797504,-0.240992810603848,0.219888267184569,-0.203179856898238,-0.368731789476468,-0.311293217674311,-0.134712744308597,-0.369536668172766,0.260257629986112,0.231680283207537,0.348839326075916,-0.157503551362517,0.238185537817414,-0.17878971052261,-0.212865450720415
92,1104,578.662,0.106074516779559,-0.10570637969402,0.0313095634507112,0.1184805658919,-0.224344925204072,0.249362370508386,-0.23611666823625,-0.374978467969622,-0.299495123880642,-0.10132014400017,-0.365890862909062,0.24317551322733,0.188100888425398,0.337677522845448,-0.162896983830723,0.247134793511732,-0.207728986220515,-0.226990452378395
93,1116,578.766,0.0720093659899842,-0.0743076224183252,0.0468670718867814,0.104937633459759,-0.246249714669375,0.2469942099106,-0.249792476637029,-0.353469906212347,-0.312631011410892,-0.080682440714664,-0.393330877109583,0.222665108867184,0.182414445926494,0.327795849238103,-0.163228028699313,0.228597283794811,-0.222427843907973,-0.256293888333615
94,1128,578.664,0.0759561082407317,-0.104050126956279,0.0483949555599901,0.104112023835056,-0.288317876045364,0.247678695561124,-0.24655546864978,-0.343122924911931,-0.284086077188507,-0.0695807816023503,-0.384755062062501,0.227552091712575,0.181973298148387,0.356031000238883,-0.166961134573573,0.202749715612398,-0.224598150021452,-0.254079441952135
95,1140,578.726,0.0960273208373145,-0.106979635102874,0.0566139440190821,0.085826037564044,-0.291528408734632,0.239011881013795,-0.235109779881909,-0.34057649563805,-0.293137203648134,-0.071791560793337,-0.35581438908473,0.23158506585033,0.186560446248339,0.355280171925731,-0.186468213975443,0.21128687385128,-0.224322292846602,-0.280204246450043
96,1152,578.66,0.111511171786924,-0.103367318341309,0.000288481911633942,0.103521685548816,-0.297096437847327,0.239053858200922,-0.253485233567832,-0.338464776276894,-0.298144230900908,-0.057671708290083,-0.370384412299458,0.22727353271231,0.135593566010893,0.328377257412756,-0.202604262779485,0.189997451621469,-0.22405623277675,-0.296071117656054
97,1164,578.61,0.109175567108815,-0.102432193593467,-0.0122420874072054,0.0957315338900323,-0.281402102838918,0.263489478464809,-0.250657464772865,-0.347782416127099,-0.275875550929476,-0.0331171679399782,-0.377164150625178,0.226704604161394,0.151240028871628,0.351082005186476,-0.209130450900376,0.1769236522565,-0.239770710597837,-0.268353183955963
98,1176,578.718,0.0809699189881033,-0.0444587472769694,-0.0214419021948484,0.125243208798869,-0.27002408613381,0.266577536354073,-0.252176553207138,-0.32617925034369,-0.295489857093732,-0.0605287640038893,-0.351060911991882,0.249943720322633,0.122792310906199,0.351455393653632,-0.207836875443599,0.215860795721142,-0.245107704322578,-0.27811118975659
99,1188,578.61,0.0924982803251851,-0.032069600931067,-0.0323199938527764,0.133810646530118,-0.291925063207101,0.248185368589347,-0.241793455367488,-0.293891291725039,-0.298956048457278,-0.0315126512205558,-0.354180871021466,0.231408927433012,0.13265084953544,0.3742948169217,-0.204677153798376,0.18550925392441,-0.240239727664473,-0.31539838149476
100,1200,578.644,0.110129472174577,-0.0274089531500212,-0.0481919289457457,0.154959507967321,-0.274868643137132,0.265195600533872,-0.224548185986614,-0.284732281884636,-0.314213031753084,-0.0336075367264585,-0.326104412714996,0.238416039330739,0.176319535301124,0.370371001700878,-0.227325942316823,0.173573870669477,-0.243520975967963,-0.306762803320958
101,1212,578.676,0.12414728394442,-0.0406731928919184,-0.0363686510289425,0.170487590100788,-0.287818371524961,0.265335933274939,-0.215110027440906,-0.29760086930188,-0.321073472192493,-0.0572783709965208,-0.313394472127449,0.22555152110036,0.160776761014349,0.37839217969971,-0.20023103265369,0.175670881123802,-0.249807967050385,-0.298438765552266
102,1224,578.554,0.114641170308684,-0.0357929376793145,-0.0466926936389448,0.194681360527602,-0.278939032776112,0.282950241392355,-0.20999878038148,-0.279079660579756,-0.316218271008119,-0.0629013532184243,-0.310364004266358,0.220580400741226,0.145924763906986,0.375904918857702,-0.181358870225939,0.175423474412196,-0.264801255301468,-0.32754079284144
103,1236,578.658,0.117604351891241,-0.0426781479183234,-0.0608678720573236,0.15377424620496,-0.263083323543665,0.286909324869077,-0.18492078259007,-0.280736462563383,-0.319397775299457,-0.0451679648538778,-0.33830647709898,0.211434897778089,0.167397775371875,0.387000440515642,-0.170519310711894,0.185266981753041,-0.269635202764017,-0.325975601292438
104,1248,578.594,0.0961590770847933,-0.0237272708111543,-0.061029932913454,0.150502321752572,-0.264450500354065,0.277738336019835,-0.209874493905714,-0.261750362531474,-0.32766310542944,-0.0195057232415781,-0.359865744051761,0.251213525338571,0.158129438542549,0.382116234398936,-0.181955265948925,0.1687048432805,-0.261962897493609,-0.306150650389114
105,1260,578.588,0.0984811925433331,-0.0464587388543112,-0.0850439563494925,0.156516000975107,-0.267518297207169,0.270683591510587,-0.208107305511046,-0.267431395247843,-0.323912560092195,-0.00858916042054686,-0.373624095851805,0.258137038706352,0.168738834361973,0.369305979371297,-0.181130426745812,0.159879676160695,-0.244263101323534,-0.298926986053322
106,1272,578.644,0.092177633225071,-0.0510798139301998,-0.110105663730041,0.183100360376204,-0.262096381381744,0.278844841850136,-0.199964291715621,-0.29911701633865,-0.317270996931191,-0.00922014828862165,-0.381286700164308,0.241421591322854,0.135788176462643,0.361728002420465,-0.184598408975159,0.153661885916462,-0.241111159311215,-0.294098017315263
107,1284,578.574,0.104763569028356,-0.07024545138441,-0.10888097684135,0.157904715427631,-0.268932803013005,0.269200287190811,-0.195895561360261,-0.29444867244803,-0.308600952335932,-0.00272239481190551,-0.386256979500445,0.247676870527688,0.10767284206359,0.37633875576299,-0.181420056955461,0.15150337566809,-0.244048279294615,-0.30961415026363
108,1296,578.568,0.109286507609308,-0.0689784929006691,-0.106472146333374,0.156648139225178,-0.26577746283424,0.275473149798746,-0.207751414775976,-0.289287252631283,-0.293345030315476,0.0330107252440454,-0.407744035031672,0.246649774393866,0.0991145505757105,0.377778644994357,-0.183617931432562,0.114159032035245,-0.253096943308742,-0.298134089620957
109,1308,578.566,0.122258605002616,-0.0609420819006462,-0.123037302182475,0.169964859541189,-0.269567079645356,0.284943549759213,-0.213273013324015,-0.274540926709909,-0.264893941362314,0.0183280892625989,-0.380086245561167,0.237420807892908,0.119657084856181,0.395915402085433,-0.192187835074625,0.143351987091964,-0.265116143926789,-0.292115599240358
110,1320,578.442,0.110202550980075,-0.0476240598197514,-0.108553520144098,0.163288699259246,-0.252348957588914,0.276840473329705,-0.217362243719207,-0.268534912951476,-0.273598211818061,0.0207476485427739,-0.382816869824692,0.250002056985006,0.103613770112699,0.413647299729996,-0.178874546904357,0.141297303200609,-0.261560774249409,-0.298237770219094
111,1332,578.482,0.119084076005061,-0.050567432638489,-0.109883394109602,0.185621163710731,-0.249143259213719,0.278684670536317,-0.222891674369884,-0.275210920981891,-0.269140735404503,0.0173201936094315,-0.393494081937581,0.258735197807379,0.0789338570114877,0.412062356200439,-0.161333144846849,0.110223953202289,-0.253506191921315,-0.299600210217888
112,1344,578.39,0.12537794962873,-0.0495562699115488,-0.122539900397093,0.165091761165273,-0.246871107693888,0.275677316398765,-0.227142408630018,-0.299513380205703,-0.245264618313674,0.035555520558008,-0.397825618351095,0.266014352320165,0.0781042227316516,0.422656831404584,-0.151519258618673,0.0622388606643184,-0.259989685115312,-0.2883597031209
113,1356,578.474,0.117541642264568,-0.0414566665046919,-0.115574730692414,0.16843569317676,-0.235573512179255,0.288909651106601,-0.204714341276005,-0.292110823477378,-0.255174543129907,0.00450496976712344,-0.416531149409925,0.255633360831401,0.0905336632461683,0.414869523357017,-0.16790032990725,0.0540035700398885,-0.259769323577628,-0.294393351611972
114,1368,578.39,0.120431064006927,-0.0399678362566737,-0.0847806075547191,0.150394177774715,-0.249913424517592,0.277461980965773,-0.205658169563427,-0.299018607467297,-0.271183945470826,-0.0095745015395736,-0.42676004742617,0.230455504613474,0.088825785638388,0.417981594045948,-0.163237562199619,0.0667573048457429,-0.255066466811917,-0.296016832147374
115,1380,578.364,0.118777477645356,-0.0374926725344178,-0.0802942442204381,0.134150139319649,-0.256295482337407,0.278817830990028,-0.195985077665192,-0.323169029749043,-0.266905523441655,0.00217662375930281,-0.423937452487149,0.217065997452507,0.0900601026619352,0.426322755043846,-0.167884331778207,0.074418404225435,-0.261844320867064,-0.277519359383695
116,1392,578.398,0.115478505528245,-0.0215047477063024,-0.070143082361726,0.143955924221332,-0.237710583572893,0.262320403880571,-0.205361629287188,-0.332789767794838,-0.289910512419042,0.00873619340910738,-0.438593812207171,0.224117311325449,0.0768356186898644,0.405670894588673,-0.169995936359802,0.0800017192069273,-0.249734585614728,-0.278486242218626
117,1404,578.372,0.110592345311551,-0.0170372659137718,-0.0544686638636385,0.175108953281152,-0.23030688914578,0.25941624565756,-0.18473665944245,-0.353836622172966,-0.288115754107816,0.00595156890161831,-0.433933043046212,0.217882917800317,0.0571654599790739,0.406889755774425,-0.180440693547709,0.0742355863261703,-0.246352339759426,-0.284113966865309
118,1416,578.374,0.104999652498965,-0.0245965886960891,-0.027799239766082,0.167632846832533,-0.261229804436756,0.256855667765477,-0.201623049877601,-0.361192307096944,-0.285683036523576,-0.0121711950718718,-0.431458509421989,0.220848863474621,0.0563250543943164,0.408208199325285,-0.175152596656025,0.0685248304840565,-0.248530915520421,-0.248072492133571
119,1428,578.374,0.0957081476575325,-0.0112504723906064,-0.0569690931494453,0.193581163259724,-0.24575611525691,0.264372420649423,-0.200530458698749,-0.358642472159705,-0.304890017805729,-0.0205769493720188,-0.406544926346676,0.22485652463231,0.0401431889901467,0.399211850481407,-0.191924609437711,0.0837807614061953,-0.248132747577359,-0.263254990511056
120,1440,578.374,0.112848573610747,-0.00117643828949751,-0.0414516223690112,0.192302232948877,-0.243539048186501,0.261084811468098,-0.20311670213673,-0.354079315729325,-0.3177095456273,-0.0145597607601463,-0.415942490857568,0.211636324156475,0.0549293021261524,0.39163565427147,-0.191857610631741,0.0796434386898067,-0.247558651718082,-0.256330480815234
121,1452,578.372,0.102208833488333,-0.00998026380634835,-0.0271393544116445,0.176162056177413,-0.243423717249537,0.258723985652952,-0.209510309308317,-0.383898856388138,-0.307312164548314,-0.0354667764009087,-0.420010454412486,0.189504709760629,0.0530077579937962,0.395564424098133,-0.186241985864692,0.0768031806629812,-0.241385869808196,-0.255170665759347
122,1464,578.374,0.096188154692026,-0.00475928579705342,-0.0362030058083818,0.162323516718311,-0.235409771145976,0.267148496082641,-0.198804903572006,-0.401211564497777,-0.296200640296857,-0.0270702428749761,-0.422235603873878,0.190391969443258,0.0436830038531923,0.395460652837635,-0.183095002023396,0.0830297612333303,-0.252434197451153,-0.253003078517469
123,1476,578.374,0.111332574439666,0.00865176906663572,-0.0422193744063743,0.159129615836562,-0.219669192752056,0.273624109745743,-0.176716228455703,-0.391452488676859,-0.307259610546548,-0.0136906490080563,-0.436327908539715,0.192485468658142,0.04245187193076,0.393113662714852,-0.187461064932311,0.0726964249102287,-0.255888671476492,-0.250930144110916
124,1488,578.37,0.0982821523755004,0.00750933464948386,-0.0417329748100209,0.158237725771536,-0.232388511162203,0.272272387641707,-0.178786285320835,-0.390297921877039,-0.306476500726277,-0.00429350388184706,-0.446923615526486,0.188736201545023,0.0240711613362009,0.37069051334424,-0.175700825500291,0.072312538082727,-0.261058859584214,-0.272311681940706
125,1500,578.364,0.103230424446583,0.0104792160022109,-0.0297243628987307,0.178756425058805,-0.225589155276299,0.267746208345605,-0.176644911227532,-0.396998324724628,-0.327465128950715,0.00221703442385751,-0.44319233354669,0.194703718020318,0.0286488940549507,0.363286633564409,-0.171395832975214,0.0683769654447779,-0.256858212279778,-0.254506668473705
126,1512,578.37,0.116644863623396,0.0199065097541302,-0.03484148964018,0.166352964994435,-0.208775189012816,0.266466222453093,-0.163895260232747,-0.414676485430262,-0.33595390267739,0.00515485085886095,-0.435876997467802,0.199375601526298,0.0258039585074374,0.35709065950897,-0.178690134278935,0.0640222811739532,-0.257734395561212,-0.258156344712637
127,1524,578.374,0.122161265187159,0.0244594313109643,-0.0482654577992576,0.163662390646042,-0.193917372366056,0.276880128499807,-0.158865428617054,-0.413124671290171,-0.336199001153277,0.0116709116537411,-0.424926514632304,0.192049353038223,0.0578711108442848,0.366989787420004,-0.173443777374578,0.0580042559254321,-0.265233645113943,-0.260914228681796
128,1536,578.374,0.0996566664120633,0.0149946536789194,-0.0397278764067419,0.16747922241153,-0.187995988154418,0.27559231477642,-0.149703496623155,-0.429194095407222,-0.339329113501298,-0.00425948749976521,-0.422959325157969,0.184610733417669,0.0601281623174408,0.352144615142011,-0.16462748324174,0.083416468853789,-0.260323867705638,-0.280296408339599
129,1548,578.364,0.0840323630917344,0.00799529404046788,-0.0326193793126454,0.188583555440416,-0.184528964490592,0.26986867311252,-0.139479617193119,-0.433409818015172,-0.350502323402895,0.0156286602036801,-0.414600198478243,0.190411238509279,0.0439124165938937,0.344067805904878,-0.172052111358555,0.0658752919055992,-0.25630934318711,-0.293295379887921
130,1560,578.374,0.0968973593117261,0.00979054198584416,-0.0110702321391025,0.174705065872958,-0.164371440642724,0.281220353689266,-0.113808445022651,-0.457643589057818,-0.363494297323863,0.00758878715728514,-0.420721441353388,0.176112810590779,0.047463202512241,0.326651453298033,-0.159877039343126,0.0640986968124637,-0.26605506010174,-0.275478845782416
131,1572,578.368,0.112842359824932,0.0185472608337981,-0.0089177132878905,0.172978166370936,-0.178871805960775,0.284160777030601,-0.127536181825848,-0.430037099138385,-0.374825872822809,0.0126294642204191,-0.426531855388321,0.174445174441104,0.0333510910577781,0.326656959774315,-0.150421138775962,0.0467666547391809,-0.272316498083349,-0.274097278835555
132,1584,578.378,0.113646855691142,0.0466748114682946,-0.0156658389183091,0.16311082242816,-0.180301043823424,0.280203521986661,-0.145895861150425,-0.436496711500133,-0.377826654102872,0.0271859471300753,-0.416043907880489,0.166220573320098,0.0339635961470367,0.348889847261594,-0.136584328307143,0.0383726701584235,-0.266952856368913,-0.264771772950178
133,1596,578.356,0.126585393168115,0.0618504191613722,0.002283758975939,0.177091634618803,-0.166233597828923,0.279993715265866,-0.128054733226972,-0.438534068117745,-0.388648050873779,0.0360023324562865,-0.416269115431978,0.167378443164598,0.0373152694314297,0.332860469382246,-0.1401884324809,0.0227597502357784,-0.268495456127959,-0.26332964455324
134,1608,578.374,0.130097493960835,0.0728000868887364,0.00636174136374701,0.179310205811663,-0.171586578851968,0.255983084012532,-0.125774403876632,-0.436591741347178,-0.412554933954957,0.0449339424523835,-0.400405889943155,0.185319786302427,0.0361843968621369,0.32226403921311,-0.147227368310225,0.0402027066085059,-0.244937456419854,-0.286582771450187
135,1620,578.388,0.12894192385322,0.0563528667229032,0.00400400267020361,0.203103644604042,-0.170560539016456,0.254917230717053,-0.137912704823727,-0.447511278887122,-0.394013140421749,0.0423949770375321,-0.395682429610744,0.173396259069992,0.0494733022514216,0.339952470656596,-0.152540055881225,0.0380170377002012,-0.241348038928143,-0.273760922066585
136,1632,578.372,0.119871759405674,0.0688694413818135,0.0177580075691102,0.188665042454582,-0.176215564181443,0.26284876530921,-0.144556817056906,-0.435319955746983,-0.40198795146041,0.0286424879013526,-0.399892845501739,0.175078097368232,0.0528958874684307,0.344204675574139,-0.137898228519625,0.041069206378858,-0.248381937954476,-0.265678181434006
137,1644,578.374,0.120306279098519,0.0777496038921764,0.0249031828070092,0.18930642785324,-0.161549874538003,0.246465161876793,-0.134151756457992,-0.435593268165888,-0.412347446532543,0.00701782099636293,-0.419010622602321,0.17258995200046,0.0401095055089399,0.340326946999812,-0.143944417763566,0.0556757957785441,-0.238844153849424,-0.260396432772662
138,1656,578.374,0.119344096746171,0.0627413298809349,0.0246614163112226,0.183844428005016,-0.157546653087859,0.244996413715616,-0.138348295448597,-0.454927217697028,-0.397503518426378,-0.00347427673894562,-0.417199631730411,0.180226824944239,0.0451792398678073,0.332058587184699,-0.145947052749758,0.053137562169971,-0.233810125017943,-0.274801177291716
139,1668,578.374,0.123479577350035,0.0550616595021909,0.0201082949886281,0.169160202239496,-0.151365310926212,0.25473047456695,-0.144508575776217,-0.449999160515522,-0.400090966803687,-0.00829424855884808,-0.417942745800635,0.18241846218245,0.0564251717261678,0.325162828640406,-0.147443689733328,0.0590964926833592,-0.240400008161499,-0.276774066908935
140,1680,578.374,0.131383998799322,0.0603493359012404,0.016855583026039,0.167211002806154,-0.165856554959926,0.253662551196439,-0.144136947869506,-0.44340919550513,-0.401865451353622,-0.0167912508357927,-0.415055565219442,0.18775139363096,0.0768272536922602,0.329147205856619,-0.141634903134832,0.0598033344946967,-0.237088867909737,-0.270697919763348
141,1692,578.364,0.12603373575503,0.0661956269980739,0.00894240017846772,0.157617656770312,-0.167012069933054,0.244889994377669,-0.132964040749047,-0.426234159228314,-0.406231670209038,0.00619922680283232,-0.436293116510958,0.198368087344426,0.0662007238205233,0.336811805141548,-0.13675296705701,0.0660996317994327,-0.237055525028895,-0.267356882223688
142,1704,578.374,0.127633341353828,0.0739389005135712,0.0207771365363733,0.157182357021906,-0.162119531497932,0.250323076944931,-0.128259491089472,-0.43353269476645,-0.39943847321266,-0.0118741322598856,-0.443695580906806,0.188120415721711,0.0738960924683637,0.341103874918315,-0.12320923670926,0.0745015705512155,-0.241446968199651,-0.252738168262152
143,1716,578.364,0.132860717510975,0.0683327601832125,0.0296042501113579,0.167556263810947,-0.154970584372416,0.253867786370334,-0.130178329523493,-0.442264813178166,-0.384743279166713,-0.0137126182330401,-0.445196668209395,0.207568017987203,0.0744782185091808,0.334921671196188,-0.133065808390521,0.0519628414562763,-0.244738448589009,-0.236690146226092
144,1728,578.366,0.13673309406826,0.0581904480065475,0.0230013470165272,0.156192000786828,-0.172497484491985,0.246062110390383,-0.131054170639562,-0.427178116831043,-0.390169187597751,-0.0140914896399091,-0.446851808722173,0.213645818410459,0.0711391978445053,0.343147835072158,-0.129907558815761,0.0497505688744511,-0.243085416778186,-0.24425379809696
145,1740,578.358,0.135448488146444,0.0429503484739743,0.0221512255702752,0.149099199023136,-0.177230145582796,0.259367971630137,-0.140223253288527,-0.414037503924612,-0.375566982928014,-0.0238612260752141,-0.443495847359304,0.219577584992391,0.0846223672779997,0.345409039504786,-0.145886724971894,0.0562031109942991,-0.249045417304224,-0.253666941122681
146,1752,578.362,0.124099241201832,0.0446847249809039,0.00949037744868982,0.140474183685681,-0.178271484988765,0.263266174488299,-0.143425612493481,-0.415140102678639,-0.373110764110172,-0.0227116649775247,-0.446080803948837,0.222017757924672,0.0922596272986828,0.336813738087282,-0.129650559753933,0.0576271561557688,-0.254485333389148,-0.266976855055564
147,1764,578.37,0.128134096764825,0.0376175534058197,0.00854051018702433,0.132820538917626,-0.177734629216652,0.262656309924104,-0.132644093058071,-0.415323294941528,-0.36738307169718,-0.021277149492636,-0.439212660514514,0.228334032543108,0.0999009629411803,0.340475836675128,-0.128872327626235,0.0630004008888868,-0.251103770244048,-0.286054466795605
148,1776,578.37,0.138976784676044,0.0316268134221239,-0.00257968300779983,0.127665539233996,-0.18527992551992,0.258008972742721,-0.136241345168197,-0.406178538453691,-0.355909124409827,-0.0163387566204705,-0.452107436406905,0.230930484926189,0.0920939281956377,0.340736025727989,-0.124480312253401,0.0537422561469775,-0.24799581462056,-0.295930221995348
149,1788,578.37,0.150400484290357,0.0504870275174966,0.0159912560090245,0.140776304054614,-0.178553803572233,0.246095511568215,-0.132829019748321,-0.403776764054437,-0.371623381343977,-0.0144208017826317,-0.452101106836756,0.232939314425973,0.0845504108910745,0.339341064262864,-0.132020329904992,0.0527194533028792,-0.2374961259493,-0.285911012276551
150,1800,578.364,0.162538394057839,0.0597123825386021,0.0313770646101094,0.142104518693846,-0.174733232705573,0.252507559221838,-0.138421526189863,-0.4220429166425,-0.360290694676032,-0.0192737832618173,-0.453744101049443,0.218521621792453,0.0707025475112868,0.32788773479046,-0.135751064307145,0.0462284351924946,-0.242263152074899,-0.28045821313618
151,1812,578.364,0.160445338643055,0.06770491366021,0.0365307194709529,0.138821384395844,-0.181310169495658,0.239838625253506,-0.143056285726281,-0.408781160981735,-0.357801107726184,-0.0167909169918923,-0.452766728270322,0.226586987647491,0.0697151456887301,0.354612832259504,-0.151614909583962,0.042428196215649,-0.231571282462764,-0.274031284004674
152,1824,578.364,0.161524473739278,0.0694071718809211,0.0329167352090267,0.138219205250872,-0.177696540262075,0.241504370707822,-0.143004739856835,-0.407510843629313,-0.356044765097884,-0.00903495341539161,-0.453428349358405,0.222194656672273,0.0781399395160082,0.360210561824544,-0.151324549265104,0.039434167232661,-0.232061272000702,-0.271531723717784
153,1836,578.4,0.168380873467,0.0740371838877209,0.0325483140414045,0.136693857889369,-0.170358655659264,0.238802020518916,-0.135766538710581,-0.422210064923045,-0.347884457810927,-0.0188868077393072,-0.447556400150418,0.22661098040064,0.0718262096522992,0.360124329155725,-0.147460639081396,0.0358343269681139,-0.225780056552439,-0.281339373202475
154,1848,578.374,0.165204286082401,0.0740562144162496,0.0266522501142911,0.13801538876061,-0.179039930533921,0.237081492968648,-0.139931654304728,-0.416618225191118,-0.347224309147698,-0.0191049531751378,-0.434817001131933,0.236138696681969,0.067951640122649,0.364958760421748,-0.160994842961177,0.0539441510660885,-0.227843930297516,-0.281484383703317
155,1860,578.364,0.171037502589095,0.0540308436409912,0.0303984157147355,0.13699150758911,-0.17844216659201,0.229406500403121,-0.146926217394488,-0.42567973680718,-0.334575991690253,-0.0314478211918211,-0.434386239499733,0.244168425904047,0.0653806756510102,0.363781794430594,-0.170501605314332,0.0496831085431472,-0.221351322240135,-0.282436408340154
156,1872,578.374,0.173891286873676,0.0629361712535138,0.0235736431561658,0.137458023846437,-0.181749843474123,0.226927344806967,-0.149483495201587,-0.408454328869107,-0.338453847162254,-0.0278578137660401,-0.431394567432004,0.248572802256096,0.0602315429881457,0.374931123733311,-0.170476110840239,0.0546020191153391,-0.2123381421157,-0.291500576982307
157,1884,578.37,0.162219322909807,0.0551721060614818,0.0168115052408977,0.139296819036777,-0.179449297059967,0.225143605796642,-0.14474371524455,-0.420863880473968,-0.328975704403231,-0.0350982295927427,-0.439675840707376,0.253425816762934,0.0615083789214016,0.376720743062174,-0.164656260150525,0.0635397717013929,-0.212312858650158,-0.278819892737017
158,1896,578.37,0.152913742038919,0.0425555123523851,0.0212208051535056,0.1350666165838,-0.168125358648562,0.226826697167651,-0.144172384305094,-0.42010459273075,-0.338242412782788,-0.0372450928132558,-0.444053098056806,0.247336762703747,0.0730928118481327,0.385940876429282,-0.167271206018593,0.0501385786546113,-0.216432159610645,-0.267060815194299
159,1908,578.362,0.155653007298667,0.0493135248700921,0.0168243586829948,0.139033967230947,-0.165990603245308,0.225074004573011,-0.148106011525859,-0.405503567017974,-0.344012148059532,-0.0378635821036566,-0.447434929957633,0.253888593074607,0.0874380335740099,0.388888085723719,-0.172586627099461,0.0482487235655526,-0.214393080889318,-0.254450781093722
160,1920,578.37,0.156935737909407,0.0458457838350855,0.017767656515224,0.136417382993204,-0.164799440292725,0.22950598226334,-0.150062032178712,-0.415968514899608,-0.327273544051477,-0.0382973270747101,-0.453695288573067,0.248236610888579,0.0818423297340707,0.389588195466445,-0.173662554392538,0.0514182496870296,-0.215171011069172,-0.251390307436958
161,1932,578.364,0.155014756312591,0.0576030093227108,0.0241352249529084,0.142012923605603,-0.160093166506191,0.228185929611082,-0.141130480441631,-0.410947677935237,-0.344390138639776,-0.0338425253902133,-0.448940113362907,0.257397401481015,0.0816367669062667,0.379876922653669,-0.173249842936025,0.0488092960478843,-0.223228296930854,-0.250493624364868
162,1944,578.356,0.15184692306481,0.0614267483062204,0.027422950378694,0.133839789822123,-0.159916080326105,0.224174867642525,-0.140551778237048,-0.401057333703655,-0.353885039589278,-0.0205692526129189,-0.45679041785459,0.24426360365966,0.0738931682741913,0.396209838780582,-0.167940641535557,0.042067298618971,-0.219096048858064,-0.248650118720512
163,1956,578.356,0.15398398704766,0.0757151362482214,0.0335405430917762,0.133367719328682,-0.158203560128222,0.224143919935737,-0.143471572361699,-0.414335215658493,-0.354378045188423,-0.0264225886252165,-0.456947575489233,0.231579414409471,0.0687486775461041,0.385501284661426,-0.173422157330826,0.0444304049825379,-0.216420641379613,-0.247439529017159
164,1968,578.356,0.153738150766057,0.078068316345118,0.0379470849333019,0.141322149799866,-0.148949740313899,0.218967976127535,-0.145102664652132,-0.424647695357988,-0.358426246099604,-0.0396231475061264,-0.452160265151494,0.229415396310934,0.071050179008017,0.384615827368016,-0.165933920830581,0.0455295795435646,-0.210070617847241,-0.248240698534941
165,1980,578.374,0.149166185210077,0.0803782641256844,0.0383394981280472,0.135060926341503,-0.144377998806671,0.221292534061356,-0.141974894727238,-0.42328188829229,-0.363699755079964,-0.0468034266116411,-0.453472017419574,0.221994327274509,0.0737270573151714,0.382900719609016,-0.170839152014123,0.0429320607201683,-0.21224986744925,-0.252024776756533
166,1992,578.366,0.15820894934367,0.0714999691110109,0.0433820960170737,0.136380407088078,-0.15360023186425,0.225807653161327,-0.148622407114832,-0.419449575162675,-0.358356523888406,-0.0533837873624882,-0.450956369706692,0.232358831971975,0.0728331642282806,0.379857443870196,-0.174249956854868,0.0370177704371277,-0.214325425706881,-0.243842677975714
167,2004,578.364,0.159874874348533,0.0805247531606182,0.038424141696247,0.139283416640914,-0.150042522511452,0.222281189608036,-0.143801352800923,-0.421923677678389,-0.357321742721272,-0.0438666531047414,-0.453233551036981,0.226796819134254,0.0649895418654247,0.379294027824185,-0.179870938434794,0.0412160754467381,-0.212529452177874,-0.247949827284113
168,2016,578.366,0.158440727560332,0.0785576855979428,0.0386639711185205,0.141541760146257,-0.15150422238566,0.219236697869965,-0.14728279037951,-0.424847931654652,-0.351142001725571,-0.0447903084004517,-0.448501313064009,0.224463403376286,0.0609896031092693,0.385512144505988,-0.190996034904037,0.0447908965403214,-0.213854098828553,-0.243809261657135
169,2028,578.362,0.158040968824232,0.0789580004899449,0.0326031893861828,0.147319683803293,-0.15707902481605,0.219124573785743,-0.151625926705362,-0.417936783957705,-0.346466488475911,-0.0539819287329856,-0.448723780514677,0.231041841872278,0.0573773037139303,0.386082110492896,-0.200179624938489,0.0457037113237035,-0.211113130727953,-0.240410922979791
170,2040,578.362,0.157694304070599,0.0708399493502683,0.0344327732678602,0.15001157188009,-0.163366177647446,0.219758471930409,-0.150491174626853,-0.42050419167233,-0.343716995431257,-0.0599328439178115,-0.445456435929318,0.232558148756365,0.0533912330267713,0.381915989684968,-0.200650256542714,0.0442567893009702,-0.211421612377915,-0.246191451772402
171,2052,578.37,0.154856773664329,0.0694035752347892,0.0267985340802485,0.158512326189322,-0.154564771575895,0.220101495427905,-0.14583540950678,-0.418164201369921,-0.338296441852439,-0.0693178276686427,-0.445134905402728,0.234260047435648,0.0440373286480072,0.388427245631132,-0.203693315879141,0.0517132918004178,-0.209153581472952,-0.250057955827129
172,2064,578.37,0.165757775552309,0.0613126002550104,0.0281586328871347,0.158536688529672,-0.158625950598239,0.222145040057396,-0.144813792411732,-0.420986103317656,-0.334705759718609,-0.0699057257617173,-0.438778403309933,0.232381440343222,0.0453830163724561,0.38727866217287,-0.202676657793281,0.0541718538790142,-0.211750626998444,-0.253844000895383
173,2076,578.364,0.16369787307898,0.0608958152062058,0.0294635757402124,0.153938526562968,-0.158572868629844,0.225285362019606,-0.147262960035757,-0.426434405269527,-0.331661846768204,-0.0711278195754676,-0.437823167936708,0.227412770222904,0.0476302095300431,0.384503152341138,-0.20073868988967,0.0514991773494054,-0.218193516258235,-0.255081816976601
174,2088,578.364,0.164895575600136,0.0622914596814288,0.0299065404250114,0.157842406577859,-0.154009208803508,0.228569368906974,-0.15284423809208,-0.434302764843395,-0.334117658599842,-0.0669180346592276,-0.431517730467366,0.219043132815108,0.0458905645977512,0.379618840226363,-0.208623632398362,0.0439673427916612,-0.220204948099376,-0.252179706260602
175,2100,578.364,0.164837228375045,0.0694738149339166,0.0256059459424992,0.155116423661054,-0.155212806172379,0.219188710909042,-0.148774307169625,-0.43343916000736,-0.330683038091226,-0.0739971863278618,-0.431128819895755,0.227335453148316,0.0554530775799291,0.387505730456018,-0.205660792819809,0.0514056327464037,-0.214718600920659,-0.25181969318491
176,2112,578.364,0.170295356625147,0.0695539779534551,0.0212928078235001,0.149899563114557,-0.159582969716244,0.216415991812676,-0.146473001576976,-0.437105224632379,-0.332577391566013,-0.0773687300627837,-0.428897733345463,0.22932559180463,0.065326360631493,0.392926282569776,-0.196823672338955,0.0479722498499274,-0.209853392223211,-0.246057146121717
177,2124,578.362,0.167192362696667,0.0643939150352692,0.0244077093161019,0.15319915039479,-0.156485409119341,0.2179836707483,-0.144232829058271,-0.444981689369903,-0.334980771330924,-0.0820389125238849,-0.42809947817409,0.228248520417943,0.071537225288101,0.384984403482971,-0.201911733143585,0.0493542457155658,-0.210821611005082,-0.238434365962078
178,2136,578.362,0.173659180062979,0.0628137379086296,0.0283498423094894,0.15125808341763,-0.150813834775518,0.223048447155781,-0.140109746342702,-0.442926125526146,-0.343255185769043,-0.0851035292291102,-0.431110728231809,0.219855487136096,0.0741683099401319,0.3817663141654,-0.198607008997484,0.048513791721298,-0.213095868644539,-0.235575167264132
179,2148,578.364,0.169713794280158,0.0642367076560978,0.034374353989584,0.150878479821663,-0.147632603385238,0.221685454641666,-0.13570952060453,-0.450148486811442,-0.342537901054472,-0.0763930793932887,-0.437251167933404,0.201952250086117,0.070528582835793,0.385092165572759,-0.190299067095377,0.0461443281056667,-0.213688944371599,-0.240612571940994
180,2160,578.362,0.171389238800819,0.0661443674981327,0.040150309401727,0.157138361207394,-0.150113287526522,0.221318792201646,-0.133940648961442,-0.449583528394716,-0.352020724738794,-0.0729497902126175,-0.433676744670625,0.206682981865779,0.0676984735666145,0.376070878251341,-0.188775399514073,0.0456066133850031,-0.214383894369138,-0.24028311321768
181,2172,578.364,0.17171041787177,0.0730132108001042,0.0366423338447289,0.15842209923397,-0.148267963041581,0.22065548409561,-0.131684267962363,-0.455303948659258,-0.359348533903001,-0.0744899179426478,-0.425828726571977,0.205992336038783,0.0649319950162586,0.377832426904895,-0.191341493025277,0.0435932554139646,-0.209776484719805,-0.233260525418853
182,2184,578.362,0.172755136741177,0.080171243258752,0.0371781129912191,0.158838599711471,-0.149293132253789,0.2206400305455,-0.136098946252452,-0.453070059491863,-0.36903117524349,-0.0716135392710385,-0.420285420195854,0.203615940124664,0.0602319638462412,0.372857659415453,-0.192360931202929,0.0425465107555165,-0.213054388634294,-0.235293138648052
183,2196,578.364,0.171484001040316,0.0772591596068277,0.0317748858678549,0.165711603881733,-0.146393880134891,0.223903222504074,-0.130959630718097,-0.453318712505659,-0.367075683274132,-0.0827614792184062,-0.412544601490932,0.201685715353671,0.0672365179828322,0.378367297766018,-0.194118347541805,0.0432623248002918,-0.213850656043202,-0.234999305547083
184,2208,578.364,0.166392240784944,0.0708566447971463,0.0331515370005608,0.172665057702965,-0.147182248937578,0.222255134420823,-0.127835474173121,-0.446022754915067,-0.367725612498921,-0.0791644725338289,-0.416989897405564,0.201559893350273,0.070511190478721,0.382721411125062,-0.190838719401772,0.0440857866826579,-0.213651337524083,-0.240031390401731
185,2220,578.362,0.157939813065923,0.0877010316837811,0.0354621977574356,0.178360004237111,-0.145635260824489,0.221408755358228,-0.126902030438298,-0.45162024992174,-0.377842412516818,-0.0764294026461672,-0.414468125204633,0.199849526450518,0.0629190978241254,0.369884055678738,-0.190207055090731,0.0426031502903811,-0.215737842847336,-0.238813067107865
186,2232,578.362,0.156715673938033,0.0917582894535971,0.0380456083119471,0.175728637100422,-0.145904068323083,0.220580803986086,-0.127876128837516,-0.450111319697599,-0.373742664415735,-0.0795415473981654,-0.416487759186875,0.199519878429061,0.0608786644485647,0.37107940572369,-0.193922388434276,0.0453290472160365,-0.212943132471733,-0.243898662935152
187,2244,578.364,0.155165520893979,0.0992782470130745,0.0421616762940799,0.179701249204711,-0.147109719908951,0.219829533907001,-0.126396694151602,-0.454768817725981,-0.378173834788683,-0.0788024361090165,-0.415511736611555,0.201340713132095,0.0570082183754456,0.364792572359465,-0.182426234856771,0.0427750530140647,-0.212706459435931,-0.243134984987258
188,2256,578.364,0.155731109971339,0.0958877668733695,0.0435766234170426,0.181666148962283,-0.14762058623868,0.217058825915519,-0.137121210069824,-0.454207927040706,-0.37450004108814,-0.0747574645707678,-0.418831246436489,0.200935020581657,0.0592078119798688,0.364882469331907,-0.179435355326675,0.0429940947658806,-0.209948530223286,-0.245287888957044
189,2268,578.366,0.150307259126877,0.100404018974447,0.0492396289277316,0.186889921436347,-0.145524523656745,0.216075082048367,-0.134128275700588,-0.462498399966593,-0.382212395009749,-0.0836585493723016,-0.417961020557677,0.190886913126926,0.059688043638803,0.357377670010726,-0.176017008500778,0.0458059225655261,-0.209795573531845,-0.237802864616811
190,2280,578.364,0.139725495658306,0.106103238418241,0.0487224521078518,0.19343016005317,-0.141121446591616,0.21381566912353,-0.130760405825212,-0.464948668574239,-0.389382310111179,-0.0839196186433583,-0.420197905934098,0.188049511012488,0.0559612618877838,0.35948228122107,-0.175735910271375,0.0482378502783108,-0.202819031422856,-0.228787383450339
191,2292,578.356,0.144089175156016,0.107875258099976,0.0531750780549567,0.189976248360611,-0.138300699583032,0.217025676448226,-0.133109993167759,-0.459917290722146,-0.39181056091056,-0.075109837685612,-0.429281037040908,0.196216288685034,0.0550279395211825,0.352436811152085,-0.168221067211834,0.0413768957502836,-0.205047032311239,-0.224849596854654
192,2304,578.358,0.146490474248521,0.111474414628367,0.0553694664140217,0.19208396529659,-0.131918206956878,0.215699503090602,-0.134223377568641,-0.464948401233506,-0.396416909292636,-0.0707312373298084,-0.426834784531901,0.190311432695709,0.0520034827899297,0.349555101825058,-0.171932525952208,0.0386928104617431,-0.201245903519219,-0.223777127330707
193,2316,578.364,0.153926784134909,0.109971700452619,0.0559123912358889,0.187155677489214,-0.135728716079335,0.20891383397321,-0.137146470659749,-0.464744140544238,-0.387902614705544,-0.0724850002092373,-0.425595169234861,0.196548135587639,0.0537228588264688,0.357836216438324,-0.174774419340758,0.0421951426526879,-0.202485697263455,-0.220880298263802
194,2328,578.366,0.158171536081187,0.10732050352965,0.0553562304120635,0.184121217872263,-0.137409083535611,0.211713076967646,-0.136045925356953,-0.469531553048802,-0.384213419334265,-0.0621669176393047,-0.420147266949746,0.19630997295667,0.0655012151330443,0.362322145214942,-0.167654240773488,0.0394443333308885,-0.203472750685173,-0.222491002640629
195,2340,578.364,0.162137541131087,0.113870304099341,0.0624717304411665,0.190198160529659,-0.143158281084465,0.21278534174478,-0.137439617123047,-0.475795887421016,-0.383038448067764,-0.0656817829004495,-0.409923100075382,0.188041620499561,0.0636111637160336,0.35606618624497,-0.173247438593157,0.0340566710034701,-0.206220324340102,-0.222752446500845
196,2352,578.364,0.155264333627338,0.107217602420044,0.0647871672058958,0.193663857971718,-0.143813638969543,0.216468728816566,-0.135173546599227,-0.472105297156277,-0.389622041636714,-0.0645835045542265,-0.409956227812026,0.189597288450356,0.0615486973106471,0.358962857279899,-0.173874419592931,0.0294769674177094,-0.20574239687164,-0.216175504174646
197,2364,578.356,0.153744033519989,0.107165131006825,0.0594823381599306,0.201929031627049,-0.145024875671406,0.218481600113666,-0.139303422453245,-0.468661021130894,-0.37979185772389,-0.0636384833899875,-0.402067902709553,0.196760796599987,0.0565531755649511,0.367275915672863,-0.181302984825509,0.0328515181455274,-0.20850421279243,-0.217104716175768
198,2376,578.356,0.153144090164471,0.103397398072749,0.0606126946760611,0.207129915873232,-0.152626603727169,0.212018295357336,-0.139298012791164,-0.468314018247812,-0.38122343907492,-0.0611864826116592,-0.397345973657084,0.19579223456882,0.0641201806999725,0.374558262229938,-0.173571446757583,0.0295518852937427,-0.204572701016137,-0.220892081486151
199,2388,578.356,0.155118861817549,0.11414447692894,0.0577457433664199,0.207629271597855,-0.15296507548551,0.2042924200754,-0.149546164593136,-0.465596757946817,-0.379311779370211,-0.0646896752791764,-0.39685941571175,0.197454470774035,0.0595351966658903,0.37414935459563,-0.184779029311008,0.0315607768014122,-0.200583011711779,-0.218784405843308
200,2400,578.356,0.150908852683647,0.125436741175001,0.0419814483753389,0.211255944759179,-0.155612916669791,0.204948358890354,-0.151100158210237,-0.45555783764865,-0.381035169457045,-0.0497031110972158,-0.400584263224115,0.200975097893319,0.0538158763055179,0.377275624416883,-0.179265283893269,0.0323931078749742,-0.199598040579012,-0.225341773604547
201,2412,578.364,0.150325333639633,0.120185128619729,0.0560825158507412,0.214363039096148,-0.158386110112776,0.203302469239365,-0.154904602833542,-0.461505660330537,-0.372862098648349,-0.0421012855173254,-0.408898019851594,0.202247084556356,0.0500949030842122,0.373332799083599,-0.179310144705007,0.0347856872241512,-0.196000680878727,-0.216678396562695
202,2424,578.356,0.150502751689797,0.122472536631098,0.0559775924015051,0.21509954617017,-0.157471947377757,0.195928220031881,-0.154817640784519,-0.470607884307607,-0.369849662057545,-0.0400063867730781,-0.407011918338607,0.206933207356918,0.0452897845158399,0.370772515091552,-0.183937613053599,0.0292007300040362,-0.1883041967107,-0.215312386483175
203,2436,578.356,0.149817325330786,0.120516949499254,0.0466862645207296,0.21963381084949,-0.154966426629982,0.198404831867039,-0.151385776328429,-0.470918611543479,-0.370893175977403,-0.0443018597562945,-0.407730702007133,0.202251572256817,0.044449010670388,0.367752712057259,-0.186218165186096,0.0342921695450468,-0.189989494728829,-0.217762601093991
204,2448,578.356,0.161871582435638,0.129156323270925,0.0423628664230915,0.226541880567698,-0.159496871919574,0.196058886072461,-0.153930088589928,-0.47252539152526,-0.3641650887113,-0.03773733226363,-0.399650116555282,0.206137576784323,0.0401322349462862,0.366955281283538,-0.193468842462452,0.0310014695560846,-0.188205614994719,-0.21313083206163
205,2460,578.356,0.154595947724372,0.134194481695996,0.0587013327781657,0.232788079617043,-0.148803763923027,0.195103527146355,-0.150127677879065,-0.475823405328476,-0.369882105637941,-0.0490442987966656,-0.399936575970339,0.200080161208738,0.0419226602386855,0.360978575019513,-0.196781013426791,0.0292174106322948,-0.188953040020496,-0.208287253530493
206,2472,578.362,0.152089738985433,0.139848455792643,0.0687924691294724,0.231033906946465,-0.142104217027408,0.193923153259219,-0.151383922087825,-0.476316497475593,-0.374439676978044,-0.0576737148516223,-0.397081253553208,0.188142274506509,0.0449264416801864,0.361696624659428,-0.205035711862207,0.0267730345028301,-0.187583595233009,-0.206261822303838
207,2484,578.356,0.148978374343002,0.135712473962136,0.064892220516489,0.222717084373374,-0.134195854083532,0.201845071851603,-0.144033844149079,-0.470314003434383,-0.386985326948377,-0.0508880940126205,-0.4039998935051,0.179974643598793,0.0507598198988385,0.360036937700852,-0.197623443311222,0.0292549739160419,-0.197302456183809,-0.210529541963809
208,2496,578.356,0.148184695576117,0.132352432462676,0.0712230005405776,0.224154605509477,-0.141007435511511,0.20378130295341,-0.148677443765706,-0.470839466078608,-0.393423464635282,-0.0596810350261438,-0.401752117431037,0.168746265568231,0.045800304896733,0.355042978973698,-0.201621714915192,0.0316382026620396,-0.193347684227368,-0.208565382726702
209,2508,578.356,0.153493687702581,0.131513620005953,0.0681590891505708,0.229456856068205,-0.139164876437254,0.202863663902722,-0.147656510916772,-0.47301050569331,-0.393674070888223,-0.0543498335449659,-0.402784189486632,0.172141953062107,0.0470256401971289,0.347171195383098,-0.201057225751137,0.0287171391337336,-0.195954762533022,-0.205526111730293
210,2520,578.368,0.151318893772147,0.135584256118724,0.0766050878870988,0.233022064379797,-0.137612868511421,0.202749499103672,-0.148738948431476,-0.481158972908601,-0.394774998866009,-0.047714486976397,-0.396453647135879,0.16737016076247,0.0394282792308141,0.341996167553994,-0.199582008716645,0.0350915555764243,-0.197345623486055,-0.204615906370642
211,2532,578.366,0.15643857682179,0.132908494569717,0.0750203672718173,0.23034238322163,-0.139870632132818,0.204021527330815,-0.146083702721734,-0.482109096759983,-0.390254713733811,-0.0579666500656755,-0.391523985395185,0.16587005954231,0.0430876496489969,0.348751692493098,-0.202035421138078,0.03052133863375,-0.198054735226165,-0.203834038388536
212,2544,578.368,0.16446860310657,0.134280643245638,0.0675902526930549,0.225805890169542,-0.13643312116096,0.202927219692993,-0.138320587798264,-0.479977558258448,-0.378933876187321,-0.0535984451790204,-0.38848518030628,0.176166317194484,0.044836725377006,0.359236908362219,-0.213612286720189,0.0301886431364181,-0.196974476610344,-0.209838710481324
213,2556,578.356,0.167057350628128,0.139693448087794,0.0721739310007767,0.231638439213423,-0.132466666469623,0.19970015001697,-0.135196450243384,-0.482484317717131,-0.378149085924043,-0.0472893226235315,-0.38246334595112,0.173701986222227,0.0469358435937153,0.36568812587935,-0.21311415075865,0.025825219993685,-0.195837640413956,-0.205845420528634
214,2568,578.356,0.169840956068144,0.14274473598188,0.0805536921262176,0.235743729195733,-0.125711274232765,0.200950601475543,-0.128540493238236,-0.489968997399165,-0.379016997001476,-0.0473417233431237,-0.373917252615363,0.170916818977543,0.0440855892374957,0.362690877543113,-0.21610228775754,0.0215452477953063,-0.197187146250191,-0.200953183587541
215,2580,578.356,0.166844156551036,0.136699528887686,0.0857836766902046,0.236848086243309,-0.12606969564328,0.202980010779404,-0.127929560354833,-0.491521147844756,-0.385892291164483,-0.0536954669371541,-0.369636367170411,0.171361870275355,0.0414382449758827,0.358978187486646,-0.208406674570039,0.0234305908914461,-0.198310113965092,-0.205539393344232
216,2592,578.356,0.161383657997943,0.141957631552724,0.0885989467083879,0.239449152919725,-0.129061478295026,0.199407634539958,-0.129257290331704,-0.484467624163944,-0.388141123707963,-0.0554779595320177,-0.370262980777298,0.179478065876817,0.0466335102828611,0.362483788709315,-0.208678479200191,0.021227068990657,-0.195301807767478,-0.201767087405954
217,2604,578.356,0.167207242318863,0.139424728724046,0.0885065753580239,0.232923279201676,-0.128144581676215,0.1996842355033,-0.133193078029371,-0.482120483175551,-0.380154536637815,-0.0584567996941828,-0.371264781916747,0.191085509352922,0.0490972414233006,0.365196304704177,-0.212039429934419,0.019883303713155,-0.194306233009031,-0.205240063631992
218,2616,578.356,0.16546918834787,0.136627111722013,0.0882724456856532,0.2350773044196,-0.132443026799997,0.19904725702177,-0.136031609237994,-0.471939807512013,-0.395734673872613,-0.0531702562355953,-0.367800961910828,0.190662662290942,0.0483085052639592,0.367454952686371,-0.210575258872549,0.0185471351755375,-0.193801101499449,-0.200848046131738
219,2628,578.368,0.158614824524749,0.137496116574767,0.0782549946224939,0.231469747627617,-0.133292161221187,0.195874141019657,-0.136035819706753,-0.473311663045233,-0.395908963544223,-0.0585938141143748,-0.368361281843498,0.198287478569558,0.0479386796367206,0.363433488692472,-0.216837958151405,0.0241125912712393,-0.19044110970784,-0.206299217271563
220,2640,578.362,0.166355407932533,0.136035553464356,0.0744268985704059,0.226610514400426,-0.134036525666865,0.194391060230788,-0.135408117515504,-0.478553321737359,-0.386562155005062,-0.0642365069868197,-0.363150816707624,0.201302300582937,0.0504114176753461,0.370937836287095,-0.219967648315719,0.0224852835238652,-0.187924845111928,-0.206259498621824
221,2652,578.356,0.174783252628589,0.149707940826962,0.0814004464312506,0.226925112795469,-0.135304280803595,0.193424714240091,-0.133533478345002,-0.483630705064959,-0.382650425346592,-0.0616621235360923,-0.359383815367206,0.205045905462338,0.0538641053188206,0.365887738793322,-0.218764012758765,0.0190690553162526,-0.187874011967238,-0.197525867956669
222,2664,578.356,0.178029721601908,0.151476084216537,0.0720779990352361,0.2276532465969,-0.133851263634087,0.197132929770915,-0.137368797728475,-0.479768916965503,-0.381685757162572,-0.0576096721099567,-0.362039724903778,0.207839173239455,0.0512688248181992,0.36004264624203,-0.219994600148775,0.0183983107105325,-0.19149810188425,-0.202186502504979
223,2676,578.356,0.177486309132363,0.153452737269845,0.0757820851809733,0.232924269279268,-0.138040459065136,0.195100938922004,-0.141596622622437,-0.469071981727298,-0.382639862908791,-0.0548825109795849,-0.359164376990167,0.213525370963473,0.0498621217600659,0.363631691404777,-0.228322040437489,0.0172512918665328,-0.189939848362759,-0.199908275527879
224,2688,578.366,0.177955010011998,0.152652258525891,0.0692094433551808,0.226645769955666,-0.141262388968253,0.196488187072349,-0.140430969390739,-0.461251278566363,-0.388201795038679,-0.0652467336450255,-0.362499156052787,0.216172353844437,0.0548757821510301,0.363193242594578,-0.224929576228707,0.0233804056429923,-0.189682305013904,-0.204482923341945
225,2700,578.366,0.168900247281953,0.144934410662961,0.0603330144656888,0.233293715997707,-0.138692506432994,0.197633593975393,-0.144898469016069,-0.459998475324732,-0.386646983455796,-0.0643181112633453,-0.362381954196825,0.21380590267922,0.0463946550529555,0.366778404733147,-0.232303142271582,0.0263956990599624,-0.189794533914916,-0.206192935846132
226,2712,578.356,0.169529868497137,0.139645467244473,0.0530050689381318,0.231266634015963,-0.138807511159957,0.199379734067254,-0.146700876154689,-0.465486468416973,-0.379053826548486,-0.0710716601380464,-0.365674355313591,0.212960567144579,0.0494590976037242,0.369510798350827,-0.227643774959121,0.0264216638750323,-0.192360340500758,-0.202464761271596
227,2724,578.356,0.169563749464363,0.138510621005367,0.0538924925039538,0.234171501545246,-0.147691685798878,0.196176543072905,-0.152380860895602,-0.457288362459613,-0.378515167919259,-0.0750572882661173,-0.371640654700754,0.222588227483226,0.0464256768368834,0.367495564507315,-0.227979484818712,0.0282736172494585,-0.189190321552589,-0.196679241239016
228,2736,578.356,0.167159350285769,0.13702058653641,0.0544702384639178,0.234480885494419,-0.142462970677317,0.194461086851798,-0.153183889312374,-0.457850758882912,-0.382491282400511,-0.0827195864952141,-0.371234998958903,0.223781936540109,0.0421111013411397,0.365010278632369,-0.229685194459644,0.0314937070407545,-0.188106142800868,-0.195542372446151
229,2748,578.364,0.167117078922476,0.134554781399622,0.0524613017428476,0.233987764908955,-0.138154361574745,0.199924431394641,-0.151278421009218,-0.458726768587422,-0.37976869530207,-0.084321525054847,-0.376014038326564,0.223119067126504,0.0417509287346536,0.359086871945395,-0.228041806505715,0.0341194109969396,-0.192358917627567,-0.200445695872201
230,2760,578.354,0.161788154462854,0.140656211843773,0.0462091825683149,0.237199079673004,-0.142694472397776,0.198247561070969,-0.154077385323446,-0.456992935368051,-0.382214289596488,-0.0856190775456731,-0.380387859353235,0.219010179688101,0.0365682259882211,0.356322525660789,-0.223423219404775,0.0357059945134016,-0.19108544033898,-0.201270013023006
231,2772,578.356,0.160182226029723,0.143851707823508,0.0582356206676507,0.24305017954306,-0.137896820230361,0.19925633817421,-0.150111412913397,-0.459043001985772,-0.391877549562872,-0.0817561600414205,-0.375173614741847,0.204875053467028,0.0371580872694842,0.355305072810858,-0.221996610993016,0.0296711415724501,-0.189979127019876,-0.203966910356552
232,2784,578.356,0.156879424787033,0.140740324548092,0.0564913618747228,0.247419076456894,-0.135629033332774,0.201404118687375,-0.149554090098569,-0.462116706122192,-0.388589547401941,-0.082166871447976,-0.369897174170983,0.206654014583761,0.0390612429862409,0.356277691166993,-0.224088291081827,0.0289193290722885,-0.192624684920357,-0.204416420611688
233,2796,578.356,0.168857095334322,0.141606396435933,0.0532386429689863,0.244097632403234,-0.135446792841239,0.200371251427062,-0.146641390466405,-0.454639845298208,-0.384530055523663,-0.0793709116043938,-0.370674148787777,0.215604386937781,0.0406304025000773,0.357878262813737,-0.227449941533956,0.0270887040873043,-0.194157855609755,-0.208154768757677
234,2808,578.356,0.168134390460037,0.134433233588448,0.0573700269288243,0.241211830150915,-0.138948286622126,0.20197528253615,-0.1486313349811,-0.454057892534317,-0.388863614223133,-0.0845901034667022,-0.364987690951335,0.215129469642788,0.0513209533464456,0.355085894493962,-0.229212921952346,0.0301519659293093,-0.195611213835227,-0.212011584794941
235,2820,578.356,0.169120482217398,0.133102669064734,0.0590966443034799,0.239158157232355,-0.137205013120661,0.202172081800146,-0.147651019803167,-0.459383510770229,-0.387754842815371,-0.0895833186691301,-0.365280744470079,0.212172517039948,0.0462098028598589,0.351870837634697,-0.231287899359438,0.030329602946392,-0.193227222136317,-0.212982387300969
236,2832,578.356,0.168703170644485,0.133509929959999,0.0573300906696206,0.242789631994298,-0.13499294909587,0.205315627736527,-0.143139930721256,-0.455989912084853,-0.392241409591823,-0.0903842608536849,-0.362276057970742,0.214572566729966,0.0466156101348782,0.347310188198369,-0.231427923718616,0.0302584021171303,-0.195306490271799,-0.217016421439151
237,2844,578.364,0.166929618600063,0.128599504039727,0.051644117019253,0.240883118285729,-0.134804809510136,0.206324941013392,-0.13843876930326,-0.451994361421384,-0.386222082889931,-0.0931989697490616,-0.367026142114252,0.216863133199999,0.0495521579876041,0.354252108409885,-0.232182431624757,0.0352760267746941,-0.19627467295833,-0.221467555635534
238,2856,578.354,0.165404862032772,0.135520622013198,0.0482129676638655,0.246676050462826,-0.130358335458041,0.204780420170609,-0.137163530711098,-0.449339516641498,-0.387402080579006,-0.0904950119946393,-0.363150392520643,0.214811020191132,0.0444112533385794,0.357196303141273,-0.241738213558394,0.0322558013867928,-0.194786463454005,-0.218586698618322
239,2868,578.364,0.165453028463155,0.137795965444141,0.0507826787331907,0.247268155523665,-0.130594257107454,0.205673815187677,-0.138101905695464,-0.447625351913752,-0.392228510526551,-0.0885938030338794,-0.363266166525542,0.213971700466393,0.0425436534458914,0.353664892763743,-0.239494869737651,0.0332292637920772,-0.195727084697958,-0.218231357057165
240,2880,578.356,0.164310411380243,0.134854516843428,0.0467343833752502,0.251163782784214,-0.128273526734823,0.208382076459077,-0.135460954745038,-0.444798198174739,-0.394669201056881,-0.0829071419495247,-0.365378383418068,0.215508891788296,0.0364395301198132,0.351387176264361,-0.237809742769736,0.0309099953555631,-0.198581205344397,-0.2206936771258
241,2892,578.356,0.167430945424783,0.138909478420749,0.0484519289411414,0.254393797393804,-0.119093149394935,0.210154227992827,-0.128079401661889,-0.450994740603028,-0.394831055392514,-0.0732005598483648,-0.366006897353379,0.208543638001413,0.0386394037814656,0.348769094900814,-0.233786625148344,0.0276234395699134,-0.202415344726795,-0.221147557298647
242,2904,578.356,0.164977739327539,0.139610589641347,0.0523964801492596,0.252107467759492,-0.118858219805116,0.211227761360833,-0.129167655226345,-0.451953023393537,-0.397996869747748,-0.0738369215240775,-0.366774181916797,0.205366124514932,0.034893253970178,0.34689759563456,-0.232886826329712,0.0257893845703417,-0.20174965434428,-0.221791453811478
243,2916,578.356,0.166376318105543,0.138467846963477,0.0474001306093274,0.253416719267226,-0.121488784638249,0.207461281982368,-0.132140913911057,-0.448621620881963,-0.392773492875382,-0.0711351442278215,-0.371451621570295,0.206785342738601,0.037012030093627,0.352594542970982,-0.232415047392321,0.0262085223221589,-0.200967486058221,-0.220710145398993
244,2928,578.356,0.162210393000434,0.134822707319379,0.0468127313784075,0.25148726474149,-0.125164949097755,0.207588297836801,-0.138238961837941,-0.446333989976258,-0.389726262391565,-0.0701795541322318,-0.373484492753512,0.212759061131082,0.0367216268882951,0.353518143913296,-0.233750847462021,0.027536952888138,-0.199317405513978,-0.222569682759775
245,2940,578.356,0.162848482142825,0.132010856678505,0.0506614816532385,0.25406379195961,-0.125367448156632,0.203297621171635,-0.142022125336835,-0.445122853993154,-0.392553140726219,-0.0655870487231897,-0.380730524692396,0.206042416883693,0.0331908026209102,0.355226093391803,-0.229369811323903,0.0260264373093464,-0.195856196039303,-0.219793484803822
246,2952,578.356,0.164559639959623,0.135593963642345,0.0490418215995766,0.251812245272803,-0.126039248091752,0.203099200884531,-0.141919483883181,-0.445729083511248,-0.392092506323685,-0.0634071872027623,-0.378401155552216,0.205345299191513,0.0351830607761312,0.356008533464623,-0.230301972421967,0.0273551611454336,-0.195904732599218,-0.221595209797927
247,2964,578.356,0.164652548582077,0.138731124767184,0.0459892692048459,0.247191009566065,-0.124643322233839,0.203376534662719,-0.139512799902004,-0.442048070845117,-0.398425735081306,-0.0581303190586047,-0.383634797735092,0.211345997734133,0.0362189052605376,0.351350808016653,-0.225068621284231,0.0274949513337248,-0.195505535641535,-0.223086229547012
248,2976,578.356,0.164212705390897,0.147676163989365,0.0437439591244836,0.253034588085661,-0.125121095632505,0.198512986650092,-0.140070067757752,-0.443197428979223,-0.403896768384462,-0.0541760731806253,-0.379813052106476,0.210678626140298,0.0329057957687835,0.347277183868,-0.228467483577834,0.0258069225721891,-0.191589436882818,-0.218524147459377
249,2988,578.356,0.164967237886205,0.149902832365598,0.043876472793409,0.252183698664678,-0.124894521756977,0.196172084906039,-0.141379712140555,-0.44164015370717,-0.399697662392388,-0.0602541338656876,-0.377899475295789,0.215915148234214,0.0333268157819513,0.351397562279514,-0.23376264219542,0.0279965586240997,-0.186180800068915,-0.218433773053544
250,3000,578.356,0.164236392752608,0.151784912674965,0.0429535708695283,0.250441332537187,-0.125294591954741,0.197214775685318,-0.14204333085137,-0.445038327584912,-0.397422720904458,-0.0589960307924408,-0.377392710393574,0.214463063663175,0.0321031549402653,0.350325034316959,-0.232124682629572,0.0272414516774603,-0.189282299457378,-0.219129214910458
251,3012,578.356,0.159105499651429,0.158140413127312,0.0507134554424038,0.252847445281785,-0.125723808506956,0.200290585779196,-0.140812231581989,-0.448890264287593,-0.403464252470547,-0.056241741449981,-0.374330410334726,0.206491557782563,0.0369283126341064,0.342567179880046,-0.229478830513577,0.0267675102471447,-0.192188620054587,-0.217886592570772
252,3024,578.356,0.158031135926187,0.159795208784647,0.0533638524148276,0.250829709643598,-0.127118046774046,0.201213780777817,-0.141644550542647,-0.446541950666676,-0.404716587414157,-0.0588932784601683,-0.373188086852644,0.209455536854957,0.0377943231307737,0.343507950535908,-0.225658672517013,0.0255339729497464,-0.193409135561969,-0.220237081102642
253,3036,578.356,0.157006232784543,0.160817122485334,0.0573394648623793,0.250286428991916,-0.123667030735829,0.200707958035332,-0.140017620013469,-0.448436568567576,-0.409479034867516,-0.0557855348124609,-0.368135708232507,0.203757388478851,0.0403685294462531,0.346124021080916,-0.226269949087673,0.0244881639032615,-0.193788554090008,-0.219823434982049
254,3048,578.356,0.15331107245054,0.167528301389731,0.0562628618321789,0.253730629946389,-0.125499708410397,0.203616596056873,-0.143307699300103,-0.443738629603636,-0.410226656091277,-0.05667427780665,-0.368791641788897,0.206619712903833,0.0365725565035887,0.338729567930867,-0.227018545225768,0.0261500231692646,-0.19708036342972,-0.220126784811252
255,3060,578.356,0.157458634108699,0.166401461811247,0.0538636387461526,0.25299251874214,-0.123634039565278,0.206491122188176,-0.141793929626337,-0.44539718713507,-0.405087075678718,-0.0574771062802167,-0.3662969930322,0.211481879143326,0.0381956547639873,0.341695832767409,-0.228863684235684,0.0243020756897384,-0.199859433333351,-0.215459438756707
256,3072,578.356,0.157129890307979,0.163132652212479,0.0551843293737438,0.254287132804244,-0.120427857410989,0.205807509583255,-0.141718014484713,-0.446135204042768,-0.401885392388819,-0.0569323579674133,-0.367988616014552,0.208403430025164,0.036915586643623,0.342570781912509,-0.233533789551994,0.0244044071681158,-0.201218920892638,-0.215785685334767
257,3084,578.356,0.156510395657483,0.160436206854546,0.0515203443902936,0.246953942255661,-0.119391294284246,0.205711445120476,-0.142171884574681,-0.443951456864754,-0.400001627032642,-0.0603803511319225,-0.373285912160984,0.21134001975075,0.0382315657802965,0.348391868100555,-0.232937345411613,0.0254877079762096,-0.198446940193622,-0.216872761686973
258,3096,578.356,0.158764240333281,0.153710813942308,0.0518169730448048,0.245813476007507,-0.121794555225215,0.206319854106236,-0.144209893951081,-0.446030692866368,-0.392275134671205,-0.0655800944531875,-0.371911138888667,0.212331492325046,0.0377862823571082,0.35553080609487,-0.232873351239509,0.024588402173911,-0.200065822222989,-0.214880205642648
259,3108,578.356,0.159819363480849,0.154837859360356,0.0519729828259451,0.243814700507387,-0.122300800820729,0.20804404162845,-0.142112134715194,-0.444894053411346,-0.392080879178329,-0.0638744733197952,-0.368367282010014,0.214181507774494,0.0388331571998076,0.358780842510069,-0.231999457231245,0.0251357092670309,-0.199793245791085,-0.218382723087824
260,3120,578.356,0.159905374819393,0.154567491172531,0.0536307872277211,0.242319853986051,-0.120193709519451,0.206202012647533,-0.13959518275507,-0.442481403583496,-0.394153250993245,-0.0680402741808276,-0.371516137196775,0.211434481566987,0.0394451374060304,0.360100271665293,-0.233600564991687,0.0255192292360565,-0.197425466742576,-0.219303063237492
261,3132,578.356,0.160344881445106,0.152795164693046,0.0518264717487994,0.244932330785991,-0.120546616756539,0.205891097548358,-0.139681276994232,-0.4448413955945,-0.391136246000559,-0.0682182711531174,-0.376822003726116,0.212631960818627,0.0346204317376158,0.35618425319074,-0.230811541244152,0.0265021638138661,-0.197305874934719,-0.218629506081704
262,3144,578.356,0.159221763176092,0.145515138051325,0.0525233661192607,0.241244531241291,-0.121222388558007,0.205882552343336,-0.139498953329468,-0.445652377784319,-0.390665714840224,-0.0742843985839973,-0.3811501263728,0.211728437893159,0.034588508280919,0.356269107384833,-0.231210168481083,0.028791600743587,-0.197977948812279,-0.217517755819501
263,3156,578.356,0.157700605800699,0.14351876265519,0.0525141305900493,0.238363115545524,-0.122369312599501,0.206328233269764,-0.140686108101696,-0.444906854525954,-0.390571233293139,-0.0788206890253254,-0.379619429441315,0.209339378028927,0.0364888010787395,0.357060673529948,-0.234501658490419,0.0301118979837345,-0.197892405786522,-0.220857351306023
264,3168,578.356,0.155255245129965,0.141495645063721,0.0502212039299593,0.238479434418601,-0.124766037162542,0.208060359059794,-0.142386758545528,-0.443478641358365,-0.389798932872718,-0.0813518975884978,-0.380512785396228,0.21121674373776,0.0387227045506644,0.355734033178169,-0.234458843016131,0.0317556320821257,-0.199168113492625,-0.221091045854582
265,3180,578.356,0.155223186925096,0.144386703063853,0.0514296910549028,0.241499825197889,-0.123312214670572,0.208345753757073,-0.138294390340387,-0.444641741362278,-0.391494755026095,-0.0757780689105587,-0.381546387812626,0.208281291653857,0.0364064066695253,0.3545456473405,-0.231446171871681,0.0299963508498199,-0.198714737465922,-0.222462824190051
266,3192,578.356,0.154326374958869,0.140275155070514,0.0503217540126779,0.240901906442412,-0.123589678628801,0.208654775399751,-0.139408324149973,-0.440171581874032,-0.389952166952365,-0.0794245747751018,-0.383836569608974,0.210107864455879,0.0361819312900514,0.356973498659778,-0.23303634674655,0.0313242120738406,-0.198955887958034,-0.224287181474366
267,3204,578.356,0.155986280074979,0.14296148842225,0.0499918320112908,0.242049654434105,-0.123499987764518,0.207559861352614,-0.13809927123893,-0.437823066858786,-0.389063159839262,-0.0756383333543806,-0.381067863052734,0.213490597793451,0.0362645241014319,0.358348309002598,-0.234230639102406,0.0300334803592083,-0.199444300385159,-0.227371909124402
268,3216,578.356,0.156238083832546,0.143993848357053,0.0502734207534468,0.242227185116444,-0.121769045980397,0.206468930795056,-0.136901626694688,-0.438511909408242,-0.386511029295199,-0.0777662267630862,-0.383387164578711,0.212704768622882,0.0354564223034344,0.358505501504478,-0.234651270543311,0.0313368355233057,-0.198525520254506,-0.228364236348736
269,3228,578.356,0.159070178364832,0.140116407846869,0.0480815645117006,0.243002462027705,-0.122204782600916,0.205324515802321,-0.138440793475595,-0.439386148650534,-0.383515143662816,-0.0786414097229461,-0.385159535814334,0.212939582441663,0.033579294559318,0.359891341763334,-0.234926799212358,0.0313169218115727,-0.197565995589731,-0.226754611723942
270,3240,578.356,0.15891939539851,0.142186529242029,0.0499652185636387,0.240543463014485,-0.123206209619389,0.205837951438555,-0.138956171879059,-0.440648920548394,-0.383085470361172,-0.0796470780201995,-0.380825330858326,0.21367338282962,0.0368002149510426,0.361191622847337,-0.236252486044588,0.0303840935180738,-0.198116373802027,-0.226572198270805
271,3252,578.356,0.157748920449012,0.142392582315094,0.0490000973686967,0.242162879739011,-0.123144808584814,0.206456546066851,-0.139360901980651,-0.439288604810254,-0.381535004612346,-0.0832848131197895,-0.380894396116587,0.211924859497915,0.0359068144115945,0.360992032876797,-0.238067619656274,0.0318960092900013,-0.199109538038742,-0.228204887528007
272,3264,578.356,0.156042923244496,0.139810007415314,0.0458838784658895,0.242000329209008,-0.120925556117642,0.209716201295301,-0.138137756291929,-0.438590070444454,-0.38197395226133,-0.0857875486655678,-0.381508448615779,0.209348872944038,0.0366504337961526,0.361970692642868,-0.237578785142414,0.0323981115701189,-0.20118143857304,-0.228687663838456
273,3276,578.356,0.154304244872542,0.140147554580407,0.0438269409149289,0.242965598337851,-0.120821102681749,0.211215929028162,-0.138080708065992,-0.43698388160899,-0.384173143089056,-0.0858602761916757,-0.382243730840003,0.209688536963877,0.036112799880837,0.360220485801885,-0.235900012042673,0.0330713412426279,-0.202500269581235,-0.22880062305507
274,3288,578.356,0.153800170704889,0.138714848501531,0.0410894946711995,0.239512444521246,-0.121055952698656,0.212113807330675,-0.13887523591066,-0.436074317595222,-0.382147421462367,-0.0879475010078141,-0.383378760203487,0.212251574073552,0.037382591652731,0.360665187886546,-0.237119148768659,0.0343819843252063,-0.203022791355175,-0.230062506215705
275,3300,578.356,0.15316768281509,0.140918445355485,0.0423592888303774,0.241500315331982,-0.120313628192969,0.212608407395984,-0.138105126917968,-0.435912716204019,-0.384442082348842,-0.0861894051736669,-0.383034358602776,0.21264243503389,0.0374922415147144,0.357452890750041,-0.235794119174151,0.0336527409099147,-0.203114874777044,-0.230918929927436
276,3312,578.356,0.154121147120132,0.141564830813797,0.0454750831651096,0.24192504260088,-0.11965765062214,0.21187727243858,-0.137755135783955,-0.434646031803834,-0.387477039509067,-0.0857282095933846,-0.381392453527286,0.213313723380831,0.0371323564508517,0.358074996633346,-0.237010762243099,0.0317633597015565,-0.202994629202323,-0.227991220319357
277,3324,578.356,0.152885401984159,0.144027286773944,0.0422043210991584,0.244045532341025,-0.119519961573371,0.211128314763744,-0.138848988575212,-0.43569848699389,-0.386002142213499,-0.0854269825239238,-0.381908319094707,0.214001956871206,0.032875794512005,0.356510473988586,-0.239973411369541,0.0328759485379111,-0.202412175329854,-0.225201501126242
278,3336,578.356,0.152908792974799,0.143209887442715,0.039783066786413,0.24521364816964,-0.120449112565112,0.210798569156086,-0.137920685917837,-0.432410916215701,-0.384875615081086,-0.0827967017160185,-0.381219043609679,0.217552920152287,0.0324713182539352,0.357735570421708,-0.243685902789822,0.0331498202788022,-0.201909416885998,-0.226842632998826
279,3348,578.356,0.151787112356347,0.141612156079435,0.040116075864481,0.244759945122489,-0.120573657948579,0.211686143499233,-0.13685446005276,-0.431678553061319,-0.386299164173353,-0.0843475172214919,-0.381597000723848,0.218277099665078,0.0324991293812792,0.356567667881888,-0.243577627756703,0.03377676921081,-0.20255963264394,-0.226914277253723
280,3360,578.356,0.153076028712078,0.143624298356365,0.0412345328123316,0.245164875484399,-0.119875468452582,0.211707632748224,-0.13680953891917,-0.43268468344731,-0.387400310537668,-0.078678383171749,-0.37754219541871,0.219244903152174,0.0331916354552738,0.358787463737209,-0.243094305963822,0.03147296022507,-0.20338155768324,-0.225322795595898
281,3372,578.356,0.153286042113236,0.142887891210975,0.0410332803088936,0.244847721011719,-0.120022713473871,0.212686572662244,-0.137108806192203,-0.432433567135396,-0.384514167830195,-0.0791885557208533,-0.377731687946635,0.218792191455771,0.0337395681848212,0.359996339367008,-0.244248384763389,0.0321648091379854,-0.203963442652732,-0.226282955875021
282,3384,578.356,0.153931698419413,0.142873801817131,0.0427033770301793,0.245191265394779,-0.119063284719121,0.212658929089928,-0.135628495776628,-0.434423355408936,-0.38684510653672,-0.0730311439530529,-0.379504053961646,0.21713893582856,0.0320980637768727,0.358013777185429,-0.241545866966467,0.0311867813864734,-0.203603977539945,-0.226268612842372
