Generation,CountEval,Fitness,phi.proc.1,phi.startTime.1,phi.endTime.1,phi.arrival.1,phi.wait.1,phi.macFree.1,phi.makespan.1,phi.reducedSlack.1,phi.macSlack.1,phi.allSlack.1,phi.jobOps.1,phi.macOps.1,phi.jobWrm.1,phi.macWrm.1,phi.jobTotProcTime.1,phi.macTotProcTime.1
1,12,582.6920,-0.060418906472761311,0.2658531769675207,0.14459619377745667,-0.032789841681469867,0.013743269947645902,0.20487936948010887,-0.10324409252104952,0.21918980199212773,-0.11117127931868649,0.18486066449957375,0.25706422677389429,0.25561130291564582,0.1616066239877513,0.15419211016857959,0.42108733301110496,-0.031928944912249027
2,24,581.0280,0.012943679622154694,0.10878818663070608,-0.071813258109384673,-0.16811678195570484,-0.012393152678914176,-0.28515087550455992,-0.24454429616434309,0.316287245898408,0.01275974346018304,0.21222762258950237,0.11985118637977864,0.15668156415536361,-0.17125979614386488,0.075917921263432275,0.21129829474169068,0.0038354276564690516
3,36,581.3160,-0.073957612237054271,-0.027727134635187747,-0.13917163886326123,-0.17958272242620948,0.30426362809208923,-0.1609568064697067,-0.2963657751860857,0.38767868450430365,0.1529599231772181,-0.090029025515239058,0.055250455536764748,0.072217776641250869,0.042189909832287577,0.0011010280087296312,0.30734407670471076,-0.017177127827182153
4,48,580.9920,0.0023703485473428321,0.059870983108535065,-0.14759849862167004,-0.2112274607913481,0.1251191388226687,-0.063324695166386155,-0.19846898603735921,0.22532516679792797,0.2632906081296163,-0.14132668073964036,-0.087996487678707089,0.05975268051717058,0.010588230088851569,-0.16703784102426864,0.12899828945098976,0.13731816061101307
5,60,581.0360,-0.14824027391098368,-0.10592399334805808,-0.069754230189819369,-0.025654876559016396,0.33666909507645104,-0.30195739096831109,-0.22802466459908255,0.12522724359213658,0.23043824633425491,-0.16533037433130338,-0.0048588395206599147,0.032430366977035795,0.039895590773487213,-0.12619264096474853,0.034050593205622162,0.030384386909535849
6,72,580.9720,-0.23173612342712868,-0.0028273620669596626,-0.16825130603491886,-0.30835009717653306,0.13715375600335256,-0.20301031076943948,-0.063332309594407526,-0.00077006334205679747,0.19597250777197464,-0.17199758652031721,-0.12272411976369654,-0.1614134506317674,0.075743689928734731,0.023244572818376618,-0.021523657611350468,0.01998905931713044
7,84,581.2520,-0.33080219562421381,-0.10379182493640646,-0.0601276971737761,-0.25685646967223619,0.11272838190721224,-0.20268453867778177,-0.1990410912012564,0.040079928153484726,0.022267098870667489,-0.41235682437478488,-0.035911144312164557,-0.066583150162810675,-0.014869125905372146,0.0015830766092841337,0.098210009694972178,-0.021441049880031034
8,96,581.1580,-0.44783163915977853,-0.092926694026485554,0.053866756917251443,-0.19563489297567804,0.1389681565690408,-0.20757778818977105,-0.299929472087531,-0.060223260971874887,0.027494503411120773,-0.32931828692582482,-0.041381347807910446,0.010322618358392177,0.025863403895651425,-0.027128672087983603,0.071639265199041055,-0.098529118536172383
9,108,581.0920,-0.33917340237675092,-0.081310432232933549,0.012676654388324909,-0.082537486147495343,0.15507288823714693,-0.3733035334308995,-0.21248623083288967,0.041049232541179655,0.066301007347617222,-0.29432144723927822,-0.098276467640236342,0.06312947692007119,0.022654961346045756,-0.019088523095556403,0.017543155977158772,0.00051619625692873265
10,120,581.0140,-0.2743192274606559,-0.16544391440211226,-0.14326355361367249,-0.14952315265342114,0.28668357400133621,-0.25581954936612139,-0.16325514351026965,0.085001580265224336,-0.0030942688286986295,-0.23060940633125485,-0.019631201366064107,0.14404416636803405,0.0019104316916838376,-0.04431759023393219,0.12950717276782125,0.0813632861745464
11,132,581.0220,-0.38385173242078513,-0.084883410635601758,-0.20198092956726263,-0.0342136134687909,0.4864095742464446,-0.1894395266476592,-0.0657925097102796,0.12800996707679321,-0.0664390415319388,-0.10955424593179332,0.025194679125767096,0.0642994567682975,-0.042088058961935584,-0.084559679493131021,0.22877021629947727,-0.068556071245412839
12,144,580.9740,-0.46378203523802453,-0.091183513689660933,-0.28669012882553235,0.0060903212881793191,0.40854988551790095,-0.21287051404151763,-0.075409079299083928,0.26393547237220905,0.058488421328633834,-0.055932744335997361,-0.021954911741724103,0.13302258347335064,-0.023242528786153967,-0.14945948183992105,0.25890817376014708,-0.0023762723985154268
13,156,580.9700,-0.4188950469904178,-0.18998140044596878,-0.19577839496941735,-0.037516381708353461,0.35456167933215788,-0.18236649011130943,-0.073146541971073079,0.338848843297512,0.0786258712711757,-0.12077123071219489,-0.091739373496233692,0.26718137970003569,-0.075231904029595689,-0.10914454642761316,0.279330531995281,-0.0027858728159172912
14,168,580.9800,-0.40175241976579273,-0.197476439551728,-0.37074399865923724,-0.0046671944596354065,0.37135960319829819,-0.29613932974131368,-0.15953232019846053,0.22547617372120352,0.0724061284810468,-0.051035983031543081,-0.026535194500341829,0.30790549914874216,-0.03230655546817085,-0.032713993383750223,0.18402080995213504,0.066324908689031875
15,180,580.9220,-0.43626563272916835,-0.1898730533555496,-0.34024478616391413,0.017865055121391086,0.23366771137934747,-0.29703174136889315,-0.12519498043919774,0.21473695874011295,0.015712929588302824,-0.0371307534921792,-0.018645607989235282,0.37528766238876526,0.0081865666749998955,0.093974976293255338,0.28155371493996789,0.0639472376113145
16,192,580.8140,-0.25224807734075116,-0.21127829621009506,-0.29457308855423037,0.0089478195483377911,0.19205784246899846,-0.28330698720105008,-0.27620027022655991,0.0824997336109291,0.067349624642352071,-0.050521210691517812,-0.054664463997297491,0.34233473868631292,-0.03566638956556932,0.059975872860656886,0.36435223515467524,0.04556055869348042
17,204,580.8800,-0.20069944583384722,-0.19011368873806278,-0.2670253129401734,0.032392615325185226,0.21905170709556213,-0.34534111297410564,-0.36466292983374243,0.059520010429351164,-0.068036416109766032,-0.026173232789577328,-0.0028107852090655892,0.41165900429268915,-0.035032919502583235,0.232348645906659,0.24524615625320836,0.037439179276066929
18,216,580.7300,-0.17818985865956505,-0.1096430351187189,-0.24082459974115542,0.044182154011065011,0.18969140669072385,-0.37980258342948248,-0.3918679024853205,0.090991643137710493,-0.053645863886611127,-0.12258662661414513,-0.10723131921631505,0.39942650814069069,-0.057062690702825658,0.35168731865801295,0.2767797507332741,0.05523546352291947
19,228,580.6940,-0.15025937519875604,0.024614460192210728,-0.2725815158338436,-0.063649226912663434,0.15076568456653458,-0.29939273646970638,-0.40364666624577478,0.14473986988718923,-0.013130629261757457,-0.14074836731839205,-0.063086426497472869,0.42754137247625806,-0.081674757186169233,0.38372507581635323,0.26446826990694378,0.0978698206095913
20,240,580.5860,-0.11191563610293838,0.067498834513178313,-0.2872918322989374,-0.0081667589458523111,0.088928596256457063,-0.37287951325032659,-0.4271693540249778,0.049191363796815345,0.024843701948568674,-0.028062825316450955,0.0210436054298833,0.46270382694753787,-0.017356548578800354,0.31847758504528773,0.33384400642175749,0.15022307946256086
21,252,580.5840,-0.11381150116671875,0.013920356117624263,-0.32876957068876428,-0.0098388518829087643,0.0761555602225251,-0.2982717190795604,-0.40915443703674076,0.1478761648505226,-0.011639044363672729,-0.10043178109606135,-0.033174758869734727,0.41690088188997293,-0.05862576066343702,0.38351521168437436,0.29319165138585906,0.092609703623818679
22,264,580.5660,-0.14756174655368745,0.0418531752517062,-0.40703639517859741,-0.074541512887200165,0.0052105726071088286,-0.30578894052498878,-0.37114952365381337,0.25367344136293646,0.027742574600593109,-0.15559091239307649,-0.064457302519761367,0.33973636068223806,-0.13052420645694135,0.29800460690531672,0.37088927449069747,0.074153157002568151
23,276,580.5720,-0.14278326160061924,0.020158650196910582,-0.29865127466642338,-0.1490797735840963,-0.030843657938859945,-0.3639387899054371,-0.40751911875564711,0.27809538789879906,0.19387693930143826,-0.056137073027973855,-0.036712742599884711,0.25432771403466309,-0.059072803784638361,0.34223337815253024,0.39190042424960625,-0.05382735575093861
24,288,580.4280,-0.21186017630316509,0.036655700398557409,-0.28061083684958366,-0.17888739280947424,-0.068540417459809072,-0.3520358945202402,-0.416072497456226,0.25893961580136393,0.24954396933024248,-0.10274240482957624,-0.035235619798918427,0.16669612853701135,-0.13431437809975194,0.261156256136912,0.37097742081766683,-0.017739482578529073
25,300,580.4020,-0.13290180423176204,-0.015745022803647892,-0.19424220876231924,-0.18476590392053777,0.0044847522310840077,-0.29320106894919529,-0.41821068827476426,0.305799865595825,0.1788666962888851,-0.038155701110213575,-0.092302815231782964,0.27085835732854158,-0.15582627184020906,0.32837604319488078,0.3511739520744897,-0.13528659314782915
26,312,580.1060,-0.086662582194374116,-0.037073708394162158,-0.30173923241003653,-0.12657937841292977,-0.052654646358574066,-0.2849827308588766,-0.40605249225068718,0.28303630860011481,0.11687889400977809,-0.054699918291859134,-0.083758071013067467,0.21176866153373225,-0.2267212945437164,0.33961012872816854,0.38079905780200951,-0.13686288031493365
27,324,580.2920,-0.1145272273103807,-0.011919675581402629,-0.28639734886919227,-0.15002301804460472,-0.053644980543578594,-0.2287075136851133,-0.47411293999590248,0.270194274564721,0.16711750729725183,0.0406836483240237,-0.064303169099193272,0.079063916914716592,-0.21017960673765773,0.38423758216262338,0.36254350176295247,-0.082235380703840372
28,336,579.9340,0.032030749421122412,0.035013417068638676,-0.16111732357668609,-0.097592380172677365,-0.096760856891898547,-0.22039192915918096,-0.549494074332565,0.33609067469445136,0.20786492127562944,-0.023289033118928579,0.0076150559148748416,0.10674016219386155,-0.24094319643669482,0.35173277364001709,0.36460352065634616,-0.078686214511655292
29,348,580.1600,0.037951706096194325,0.015374165811856895,-0.13167069451536334,-0.24781311525128877,-0.17352143244968252,-0.21208820194380851,-0.55947167259545538,0.29458159358626346,0.17948341423873776,-0.048895386250162126,-0.016553103729280438,0.08806584129258295,-0.21853924709195122,0.32749636258444426,0.36029816961497696,-0.1325495676723106
30,360,580.4520,0.075454250739590029,-0.013807068459795858,-0.17624964590118897,-0.16325801963825612,-0.11805230344779989,-0.084694550253374079,-0.56054125983268732,0.18100556516098526,0.1417132637811411,-0.038948066826101718,-0.022985578640911084,0.10523641113354366,-0.23147727038221333,0.39752727980674746,0.44597898342105752,-0.034395575176338719
31,372,580.2000,0.029266715529226869,0.022395227640565927,-0.20925306695353624,-0.13817357452865311,-0.15461038912165881,-0.0623925314744032,-0.57882774135239179,0.16280853712379847,0.14490140612600874,-0.0440894452671626,0.011218450808148473,0.2112969610567613,-0.25337236679942116,0.39026166997306028,0.40365126747870433,-0.075383960598198657
32,384,580.0320,0.011550984680784178,0.06896831752214834,-0.21842755090912649,-0.0085502757703118572,-0.16128660868531719,-0.036496313418232985,-0.59476325388819606,0.11163864560011784,0.22017547281162048,0.060304776213132689,0.028613066215025434,0.17727712676281637,-0.2826632248924616,0.36658668647289522,0.3995818467397837,-0.040961666426213621
33,396,580.1760,0.032221434855104869,0.055571700808200244,-0.21825769066802575,0.068924116527770418,-0.13992829996378678,-0.0137113288988111,-0.61359898034547722,0.068749030662375227,0.1951862452073915,0.053564806104862916,-0.043072509916781535,0.18050434347403616,-0.22921557688213559,0.37598106914350304,0.40807231869702026,-0.031573424711897807
34,408,580.2040,0.010235160862332185,0.058267296576178025,-0.20486140798924549,-0.019233181118572612,-0.15857008931845562,-0.093106350087493725,-0.6407547448549602,0.15953821252888656,0.17563749524849426,0.011213787184954893,-0.048028610314958239,0.13060829493371665,-0.24885295371657248,0.31150214347710248,0.40065715705095806,-0.066873995862808955
35,420,580.2240,-0.014572936102862009,0.045451941244701533,-0.22988979029652498,-0.014440700104520834,-0.19360661213233896,-0.040411489344256611,-0.679688673767515,0.16921189820078719,0.2124113499648409,0.10423590299259416,-0.0090129563681014564,0.10460867307041738,-0.17974152073264377,0.29848615058608441,0.39904102343211306,-0.042603048348874059
36,432,579.8140,-0.034090668365188738,0.067402675667961889,-0.26436374935893642,-0.00089284680616635956,-0.22983826652452391,0.029622114478535383,-0.677010492955722,0.1321530059485059,0.19458601248955576,0.072925329623255472,-0.051822795218940641,0.17814159421923043,-0.23294679598025098,0.25075719156897536,0.35896474746346835,-0.0462351567545528
37,444,580.0140,-0.015044910404637927,0.035295779577989767,-0.19731932598006896,0.010389947121410521,-0.26686148619043848,0.010097237367383424,-0.66919323723164348,0.1467704601445485,0.21464324387943792,0.050945552737096673,-0.011618915925886021,0.1043314411864303,-0.27430234054962244,0.22607663871519965,0.40627937038525613,-0.096460963506201286
38,456,579.7500,-0.055023868134933721,0.072404788448635765,-0.17219736424177121,0.064758165993913,-0.24848465911964251,0.091491522434293052,-0.6595692096523148,0.10167542557703707,0.23338455697420812,0.12168454618827157,-0.016575890587677892,0.13551081564046843,-0.27402744677956187,0.26704336161778619,0.36314903917108948,-0.085835355796920768
39,468,579.6960,-0.10153027950942708,0.11948850727771163,-0.1208236032021765,0.024708957093805002,-0.22836599016022308,0.094804721105974127,-0.70023133822869288,0.096785308096647149,0.25597892768794961,0.10795285581500848,0.03728883603057899,0.1232401537019317,-0.22624152069289954,0.26228996679761252,0.34575492635942706,-0.083112737014424523
40,480,579.7480,-0.0696321343262656,0.080689997102975961,-0.13421136881952223,0.0038272334072265938,-0.281509312230872,0.11721917123855338,-0.72650602587512336,0.080480769235873259,0.1749528744948024,0.093355486122915166,0.018144075193240187,0.10522984363805513,-0.23825683108291543,0.27617983826755266,0.34374444076019178,-0.042263962440626864
41,492,579.6040,-0.0683177240503022,0.14069041491899492,-0.15182743015014474,-0.014262933380007775,-0.28080249611383185,0.10005938916272623,-0.7288190718292008,0.079998943200531511,0.23192619181400403,0.097694958963693151,0.0097261249627234279,0.08331942804780948,-0.24462055244676395,0.22750157714764663,0.32501389949295362,-0.037338139323371336
42,504,579.5040,-0.085523361053371091,0.16181949212196989,-0.12898970024489295,-0.056343862450763581,-0.30090426310391483,0.071341305863798776,-0.71967524947884565,0.082721107103891939,0.25701131732021781,0.10999371596766146,0.0617191850589801,0.085226781449982247,-0.23345090916646904,0.22963797354304891,0.31623849777615171,-0.021732004195433148
43,516,579.8240,-0.07078953040124035,0.12909471291036523,-0.13027052665116245,-0.064035374422613534,-0.33527561886459645,0.031788066266653495,-0.67596641520261236,0.081096360377705484,0.30546186235206041,0.077877724438895346,-0.017706047177119658,0.045031228493023309,-0.2474785251270557,0.22438193240026133,0.3448989048362866,0.0030190086743558065
44,528,579.5280,-0.097056570994451807,0.080512612255812938,-0.11458917032467431,-0.11339017579281921,-0.38848368964526875,0.0995560042529553,-0.65492320636442114,0.089404262973851692,0.33392806755914645,0.096565632825705516,-0.0064266190679324727,0.036641733937130418,-0.24596743990949693,0.20034027981125327,0.30935213370836467,0.056153368071166457
45,540,579.5740,-0.10734693742500769,0.086390070054024423,-0.063510993992365317,-0.11767307106246855,-0.37842464043613738,0.10205395635197781,-0.64459360268980925,0.12822949197848846,0.36025114243479855,0.0823000706202485,-0.0430954218986747,0.031000245822305567,-0.22940002560802308,0.21957925097347444,0.29149364306402925,0.028766938803255655
46,552,579.6060,-0.16503651158504351,0.091754009292342523,-0.0047904604554918108,-0.08249208363712629,-0.3846680114077351,0.11977698520030758,-0.6476100354870391,0.14179094820720081,0.34376145933124086,0.05437961982847387,-0.045958257629910723,0.055666868031044384,-0.24059602560605245,0.20568676163553481,0.30682061108735259,0.026390951692803834
47,564,579.7120,-0.1628818079110661,0.096739571252638559,-0.011700687718326273,-0.10617161696111975,-0.34328703894408508,0.12691913238272926,-0.6407312602775197,0.15218590759613412,0.35174660366010008,0.021332815195444849,-0.043406569370865865,0.081954791478708128,-0.25690517409694874,0.19633043386489918,0.33971738618661129,0.023093969682344909
48,576,579.5220,-0.18034017460661028,0.07630694967401308,-0.031967563839607027,-0.016473742605396718,-0.35303896431287818,0.13211055426361015,-0.67414842102986694,0.14837853080099644,0.30634649085119542,0.0462411414175457,-0.063521675705009661,0.065032492133846723,-0.23751782720240283,0.20494810982219624,0.30576721955345904,0.028628775206327412
49,588,579.7940,-0.20465975198653436,0.10423541877964795,0.0097085970317184189,-0.017309340220981271,-0.31187206388677036,0.10227255781809216,-0.68563103499201827,0.16475279730885373,0.3090840886086374,0.1099256873562305,-0.075173061819611364,0.034910609899803782,-0.23245027563714166,0.1744963440404142,0.30781063172890677,-0.022193748597992689
50,600,579.5640,-0.1895841111943091,0.11435063934882587,-0.010738252153685251,-0.05783843691752364,-0.28870676019937425,0.127371369463681,-0.67882445510353173,0.21977321177083767,0.33286249668417256,0.11129275740863141,-0.052490730633706538,0.0021940422563779252,-0.24668038332889841,0.15831415233636439,0.315950139039443,-0.042936411947806771
51,612,579.5700,-0.23391964722318512,0.10643221127433915,-0.015341214930398145,-0.035657170142639832,-0.24970349532439803,0.132784143724069,-0.70988370902191322,0.1682083941328143,0.3183811718932385,0.11949993545520739,-0.0061315239586256613,-0.066693348604949937,-0.22268856410985902,0.13969754289094402,0.32016796400967051,-0.03534163617508905
52,624,579.4620,-0.213650217135532,0.12590886640849794,-0.0027745902479177622,-0.067630201576301979,-0.29360157791064267,0.16207253349075665,-0.67564510530865529,0.15849489119494381,0.31780224279848895,0.15037676286782234,0.013996973076251156,-0.048940191589822886,-0.2491787435929973,0.1663904264361119,0.32292045769572114,-0.0430678317004545
53,636,579.6640,-0.20693239323258311,0.10403186061810944,0.035481483951454035,-0.0888230182176445,-0.2751535967824128,0.17299541301339155,-0.65430025736180364,0.16458224291881332,0.33310364934459247,0.16801636768743847,0.0215587719332457,-0.095165767314298932,-0.2545913702267964,0.16415828316122996,0.32460064326464572,-0.033889298177101831
54,648,579.5080,-0.22456759742100757,0.12250954955344143,0.0011528352472022262,-0.15608291555763654,-0.28809844425025094,0.13712276692164166,-0.671149740726095,0.19134918664449344,0.30696462439295213,0.16740176831443723,0.035158897977386215,-0.058902100751561784,-0.22827194158881076,0.15564050253632702,0.30102177439090688,-0.06596216605386869
55,660,579.4540,-0.19261208149539674,0.12408614547487336,-0.030379104818274723,-0.13177281668082003,-0.24982930160560568,0.157103956435916,-0.68949982991788616,0.17955758014517495,0.3081553542551323,0.21634779041311211,0.025330449411451374,-0.063828514555133609,-0.22736198933153698,0.16016707899194838,0.289762339470791,-0.040035984923634492
56,672,579.5580,-0.23688343933463313,0.091089498485979276,-0.028760940811285576,-0.13790624520953687,-0.2699745179777463,0.15261337255793964,-0.66963773186471776,0.16689781826344829,0.30024313649278245,0.17612161049866629,-0.0063844432827069421,-0.0741280747657784,-0.23383892472685677,0.19075324612306482,0.31017221823353386,-0.055972381683407804
57,684,579.4520,-0.21490264908397191,0.096450746558049874,-0.030626392129623408,-0.1129002751645858,-0.25035617045585745,0.18244850285569034,-0.68571828863603956,0.17125777588986832,0.31227894168327125,0.19142317418025834,-0.027885009790881137,-0.080581376612377437,-0.23753502196344184,0.16676837221936955,0.2909409122670194,-0.048409425428210806
58,696,579.5860,-0.2180884785641474,0.13122006016106452,-0.075343485127499665,-0.099286973977815773,-0.23196292881524533,0.20294654796779793,-0.64894895877903591,0.14458930150722871,0.3272234727320863,0.21913712130709465,-0.0097191690660831664,-0.063775325327745935,-0.24995554167084386,0.1882168196077828,0.32127262062359346,-0.034809448409853658
59,708,579.5140,-0.19120955485760194,0.15600840822620743,-0.033232878288962368,-0.092214731669719677,-0.2428805271800733,0.18665045896837829,-0.66694516322241826,0.16307554442081812,0.30752927037847372,0.21488243889102787,-0.014294766484381995,-0.037510996867219606,-0.25829339009648511,0.18088662843416706,0.31662902232354873,-0.032182304859605965
60,720,579.4940,-0.1653392475556815,0.16659304594846575,-0.049731314584659708,-0.094576079184946746,-0.25941957274415256,0.16191259516133225,-0.67732026666403355,0.15990910155969781,0.3217008687166073,0.18730027077429162,0.029851832533169007,0.025658308349299119,-0.267735540612911,0.16721509334875775,0.32162121374541219,-0.031542077949010094
61,732,579.4900,-0.17859862325841541,0.18651600698535595,-0.02744604194357134,-0.094397458618794075,-0.25228145751184455,0.16995857876759529,-0.66276381937114526,0.11299901533841077,0.3399526561245601,0.16709352863523047,0.035952548061050513,-0.0043928420602867618,-0.28027366797775372,0.16897501673409168,0.3262615910892121,-0.066351474593624366
62,744,579.5120,-0.2214450481322455,0.18023476380816911,-0.018518784369163668,-0.093878430511448036,-0.24063235234264779,0.18391369257698548,-0.65111708890234787,0.10591228538277749,0.36522274293288903,0.17527662092720167,0.0034537386131575842,0.015085288997725113,-0.25793359673122579,0.18714729410236638,0.31122190651796128,-0.052498161505655568
63,756,579.5060,-0.23206055062921346,0.15755393555074687,-0.040179631820750475,-0.091186624704845731,-0.26959612035712771,0.21449252754407711,-0.62306250731919877,0.11948104356851119,0.37084742573510421,0.16455949810057705,0.002528611959723333,-0.0082460565114886118,-0.2595119796257635,0.19408092689995579,0.32014515828957818,-0.060158538287257111
64,768,579.4260,-0.20721966850855494,0.1484599411453979,-0.054609685320210107,-0.10804571788304232,-0.27662573833126541,0.21516956356359868,-0.61409627116814414,0.17749532954473765,0.37094143989705231,0.15696116748396785,0.011554721963809453,-0.016288549941401251,-0.26268115741583076,0.22105438200424529,0.30938824233329415,-0.034799932271121492
65,780,579.4860,-0.17559804746030597,0.16141597237651834,-0.057372015009835395,-0.1231956125277463,-0.26906726164842215,0.17457126547707041,-0.62159536103770507,0.15978873539800462,0.39123693210159705,0.1527216016799566,0.023636403149905935,-0.016655073570957135,-0.26144134207477254,0.21470332539400239,0.32300277055334742,-0.034774191157109488
66,792,579.4460,-0.2072253174295216,0.16893154068779564,-0.031879823758090571,-0.11891138880766748,-0.24129035797050857,0.18605565074715705,-0.62427054507381918,0.16899466756316522,0.41596766413821096,0.16232783174999899,0.024299643411014031,-0.016663801156782197,-0.25042634201973213,0.20093066659664863,0.30000550976759627,-0.056351209816480223
67,804,579.5220,-0.2131132135001054,0.17386018999966113,-0.044365744439116041,-0.12320975208949261,-0.23454979814130134,0.17621602675843734,-0.60971771159441479,0.17931663167447948,0.41600301651432786,0.15513688779158885,0.014057597552177239,-0.014650801155353717,-0.24729425473234865,0.21108751808155501,0.31936988810194777,-0.048223481300509505
68,816,579.4980,-0.20725282847912999,0.1755222455156831,-0.033391753753208367,-0.14695944768406013,-0.23581503766342798,0.16562590773630961,-0.61053485971178123,0.18548564049800026,0.42420047728168719,0.15036638215036549,0.0037242506759092059,-0.037486962946892625,-0.25308762720591427,0.19268439416730604,0.31362674679008096,-0.057045522469951385
69,828,579.5360,-0.19412429216179561,0.16427695491246208,-0.033756594092386245,-0.12976361378817594,-0.21704241368571245,0.17265492680983641,-0.623308713511399,0.19384967636345204,0.40392557396909518,0.13479986380460676,-0.0021588175560960311,-0.013079781558287342,-0.26743876198975614,0.19609245382870966,0.32874384930240907,-0.0696482170112117
70,840,579.4620,-0.22134404628585994,0.16447413320346183,-0.021209871653229302,-0.12855025557921515,-0.20913488096254154,0.17161769327651549,-0.6112092159556004,0.19210749973717206,0.40790840420286278,0.14979700741460891,-0.017130101773606094,-0.011192912769466134,-0.27155945705532919,0.18067322444948805,0.33959992207588852,-0.073700439848680938
71,852,579.5580,-0.21543962913965711,0.1640703016950868,-0.037862469194587675,-0.13294326926128205,-0.22375091430716909,0.17400420489173291,-0.60739667982600043,0.18655567357399294,0.41701812949703088,0.1444354539551502,-0.0026181903356808128,-0.029007231339225177,-0.27042798248073385,0.17069233444469428,0.34087826254309278,-0.054291145381960573
72,864,579.5040,-0.20747245647369078,0.16328218132760092,-0.016268032926438004,-0.11178921069675717,-0.22755552953323482,0.19409393424447824,-0.59666112456215947,0.20348176276719177,0.42726834996151719,0.13584259477206095,-0.0052028244847649443,-0.027205064522962584,-0.27731019256037809,0.17887025403500398,0.33294896763558862,-0.060723930425769963
73,876,579.4680,-0.23181597856309749,0.14944751580337645,-0.020120188738174387,-0.11682008247402566,-0.21812014004918273,0.20355836029924759,-0.595389753520117,0.21519408997164788,0.42955057025320631,0.14596308017587964,0.014332613780083835,-0.023061561470419913,-0.26564419518157228,0.17433061408106246,0.31991520462881723,-0.0670794746494989
74,888,579.4340,-0.22670043584723687,0.1438158406198454,-0.010653438931343115,-0.12230379579892002,-0.21905186891468664,0.19415996794157056,-0.59199512837238144,0.22666979918902189,0.424937483257002,0.13570098898067742,0.015218975874940942,-0.038701901165537608,-0.27973565965013142,0.17083276018400004,0.32854150372560392,-0.063554014023782079
75,900,579.4340,-0.22608699429616583,0.14351424159045073,-0.015800290993048235,-0.11532892747596725,-0.21724195158389153,0.2004843255717523,-0.59022971324267437,0.22747507421439639,0.42181480488199685,0.143151618076836,0.016522703315695365,-0.039905401945387553,-0.27577846448028176,0.2018126241887323,0.32086688819367887,-0.060110965602062146
76,912,579.4340,-0.22284891810936222,0.14132257526655886,-0.0016858914339360092,-0.10487392755185301,-0.21240482504481314,0.19423591261272116,-0.6093591122492853,0.22824534275280434,0.41341231780740484,0.13111980879058857,0.029903927498147444,-0.028750508457551931,-0.2762377337875333,0.19450992678005458,0.31476216377555266,-0.076251041287013391
77,924,579.4100,-0.22401265394668779,0.14989002739971066,-0.0038717096157813782,-0.12694155227067638,-0.21431079985773371,0.18802485496174984,-0.60491805381555253,0.21900595574178858,0.41356973217020776,0.13487286726649006,0.039173728038441748,-0.024219219362688157,-0.27262884329729786,0.20499153078119298,0.31454686845329827,-0.0832242212198183
78,936,579.4200,-0.21393958983817682,0.13242817965177189,0.0044102540038513938,-0.12261778666574806,-0.236683591674475,0.17191472963109511,-0.61108942807248423,0.22625603247208217,0.400397423195035,0.13265171543065649,0.044272412656147189,-0.012136562802317747,-0.2740976455742612,0.2153321079392049,0.31397464070383085,-0.086996768801165122
79,948,579.4240,-0.2018054059323614,0.14877193236867622,-0.00094789411701794233,-0.11970910422677414,-0.23086039885728671,0.17324464349762436,-0.61001019778307453,0.2416735844453182,0.40409334339608788,0.12705298732490702,0.054101972794988372,-0.020764175792341102,-0.27379440621069373,0.21406733330125774,0.30426804179662104,-0.097806999646850051
80,960,579.4500,-0.20452623264461631,0.13199552198345302,0.004508625314788006,-0.10800780886583393,-0.23349200423266417,0.17139580388531087,-0.61085334109470013,0.2514236424645564,0.40407108852208218,0.10738906933254232,0.034365828616965383,-0.010694007624697223,-0.27324696999729842,0.21401224318590509,0.30849103849711457,-0.1140051659594068
81,972,579.4200,-0.20802172808846153,0.13099088849458337,-0.0021911317053331758,-0.11246321558916267,-0.23779928907772258,0.17979574896314524,-0.60032355061688913,0.26344812498018,0.40422303866903642,0.11548244485192827,0.034996282064687662,-0.027785623739517724,-0.26814439498478421,0.21350403821981376,0.30836297610407004,-0.11342164985984732
82,984,579.4100,-0.21296890357923234,0.13502601611399903,0.0024654328677255919,-0.10233460954067912,-0.22991331768773987,0.1838835237122203,-0.60577713437328218,0.24802579621500048,0.4190784684277864,0.11894062277621065,0.025965389321514,-0.029603574987035315,-0.26966606397064,0.20194416805955018,0.3056927630510351,-0.093375268944804343
83,996,579.4420,-0.22304678959447152,0.11957301954253834,-0.0044956809447456543,-0.10691435332743768,-0.22169176781373776,0.18532706413679256,-0.60160309277601787,0.24431749770617847,0.41437092450476837,0.12593835494447261,0.019741445068122487,-0.034153141902219707,-0.27224231201553828,0.2109758349282474,0.31532083865193028,-0.098717982424585238
84,1008,579.4680,-0.22130702058326582,0.11875648576556717,-0.0069787909113021513,-0.096225111580535053,-0.22832911904278572,0.18724877502888898,-0.58803694416587238,0.24423357710441707,0.42008436211900746,0.13002976476478875,0.018169421265982564,-0.024140513921650168,-0.27811692009322586,0.22066524838462045,0.32100918510834525,-0.098540170185907022
85,1020,579.4200,-0.21369833114627307,0.12370513870785646,-0.011160524848324862,-0.0883152294677857,-0.22838638758893515,0.19087349404969339,-0.59326292194777341,0.23767273644248579,0.42142407576356794,0.13456664350024269,0.027507886081462408,-0.01781229114214224,-0.280041154685491,0.21269783669863082,0.3158852197670925,-0.10823137410733322
86,1032,579.4200,-0.20495761526333198,0.12672351052638609,-0.009413653337778877,-0.086645650686468137,-0.22896078569207298,0.18437722049013655,-0.59321361425649177,0.235378693396477,0.42541269951938415,0.12609871337765552,0.032327633636591066,-0.01771560469067467,-0.28250741258245365,0.21568183444947014,0.3138179228264284,-0.12310996220672167
87,1044,579.4200,-0.21125266577616283,0.12861310217362107,0.0041852485177477543,-0.076721988694817445,-0.23703964588085355,0.17877289155077805,-0.59800256304722443,0.23910302390412877,0.41281921131654825,0.11725837789474286,0.033967640709805194,-0.027919001830261508,-0.28378250383513726,0.21215155260416071,0.3177579541673492,-0.1257777420120075
88,1056,579.4420,-0.20746600932018353,0.13226964662824786,0.00559570397599762,-0.08576895388933406,-0.23860855420121621,0.17720271357177164,-0.59529125007604,0.24222700586287466,0.42136474276546465,0.11428937287656948,0.035484531663501691,-0.026307190312022218,-0.2814991496433592,0.20245056469482572,0.31621268509035633,-0.12860456586979285
89,1068,579.4620,-0.20045599626675803,0.11884080062197801,-0.0039184716624263306,-0.083239864099162078,-0.23591133823887603,0.17329989299236173,-0.59932294460756208,0.25150829365535404,0.41779716689768209,0.10059688591815451,0.034115102809546966,-0.028020951716821837,-0.28270392527636906,0.20674252369351323,0.31892018992331744,-0.13325832946601096
90,1080,579.4320,-0.19804323480427022,0.11321068127972748,-0.014688061922153368,-0.083863219526030278,-0.22975371933202285,0.18093471883446755,-0.5931385725477899,0.24483141087108459,0.42849387453372567,0.097771229000694612,0.019301516536033458,-0.034042198144222817,-0.28620989871631769,0.2125701881922602,0.32189543158612471,-0.12755037551057946
91,1092,579.4300,-0.21100936346481577,0.12035832745219466,-0.012249091668397747,-0.0828966042582314,-0.22362086748876905,0.18619868720340449,-0.597404271053221,0.23980633653247566,0.42181905956873977,0.1056449751814416,0.02769523774820613,-0.046853724027136348,-0.28537164048792524,0.20760703834410965,0.31796308166879778,-0.12368272666885313
92,1104,579.4160,-0.20219223130938851,0.12565678193577109,-0.013078324142658644,-0.080621688530697719,-0.22821182216191202,0.18372215217059662,-0.5956388151454528,0.24815309365564053,0.41932102235100488,0.10151184729378598,0.033279183417419006,-0.040802410952760368,-0.28217906480305893,0.208114076754112,0.32415849064212948,-0.12886432437026604
93,1116,579.4280,-0.20407661980451355,0.12395331612961928,-0.014345386038962363,-0.08269279798803586,-0.22677815334247364,0.18488040181600859,-0.59644982964545856,0.24884629517523829,0.42308541223456242,0.096101171378174047,0.033233741478164588,-0.048746222842547295,-0.2818549897133345,0.20555671837890008,0.32114435574827616,-0.12172627223849682
94,1128,579.3980,-0.20143511429359198,0.12327489144345025,-0.022856812171791648,-0.082411698204737413,-0.22561301654104443,0.19137360240600806,-0.59603329382203829,0.24965714715556539,0.41532282930354136,0.10151555133608024,0.030745993710939661,-0.051910126632480492,-0.28312928642048768,0.21094907081879005,0.324344166478186,-0.12201130228661557
95,1140,579.4260,-0.1973042050960252,0.12866144028203474,-0.01788436657795997,-0.082670447486466514,-0.22702136745297691,0.19417409036847702,-0.59209893843400152,0.24490680477525514,0.41323285462452469,0.1038889536074953,0.030257255618210861,-0.048728807593549556,-0.29213827029426903,0.21470805205748841,0.3229688180948237,-0.12647412331763969
96,1152,579.4100,-0.19765864904456218,0.12768009610594497,-0.026293600941352021,-0.083867727405574855,-0.22827131258671673,0.19835924112728556,-0.59086171903182272,0.24274706009105509,0.41527658446491256,0.099842425901873283,0.024755608733682422,-0.042548483243938395,-0.28927676906009986,0.21734697340332848,0.3251002337542761,-0.12421013641931085
97,1164,579.4220,-0.20275330955605214,0.13005025570735679,-0.028344410511000982,-0.084532600823693238,-0.23373419987768745,0.20194499902991325,-0.59329126550452427,0.24073488025375939,0.41037358580281597,0.096657279069355964,0.026868895330433629,-0.045020111803206489,-0.28485385668614571,0.21381527672532707,0.32408702957112595,-0.12422979214438362
98,1176,579.4120,-0.20318482424608908,0.12171704011123413,-0.022263341681355148,-0.087244737712126277,-0.23501046243126986,0.19770329552386326,-0.59702304004253692,0.24589246256423003,0.40501155056872395,0.0942218838899873,0.018632440006129569,-0.049143245908433886,-0.28671656082625591,0.21437978812514108,0.322738150191523,-0.12647535861286305
99,1188,579.4160,-0.20548198169915521,0.11527218537758332,-0.023593701388139439,-0.08935858573116566,-0.23484882339101426,0.20177167411152619,-0.59322628564960755,0.25095323802573477,0.40566875007501113,0.09493013011806424,0.0097124849433185782,-0.052972219708340061,-0.28822942464478946,0.21365071223879986,0.32225553403150131,-0.1245280177878641
100,1200,579.4060,-0.20270125795337532,0.11964146133534599,-0.02284870615786963,-0.0885276765349944,-0.229041059947904,0.20152633176736298,-0.59401339391486629,0.25365037362097337,0.40990864675429006,0.086836357738254238,0.007904154202981066,-0.048573816819077291,-0.28998526188086615,0.21355318610414184,0.32227561117386944,-0.11733446805332554
101,1212,579.4240,-0.20925034389464706,0.11934307042829989,-0.017453468708662687,-0.091399744303065189,-0.2330777188496348,0.20150807735660878,-0.59403351274689931,0.25692305481780253,0.400337361944269,0.089232178914878918,0.01036912656954612,-0.048786294494472984,-0.28869795515478736,0.21539999202441681,0.3220789353620398,-0.12145920721716412
102,1224,579.4340,-0.21076167742178048,0.12006617671868069,-0.025075170992097318,-0.086690017004519337,-0.23338295339372825,0.20729705983341748,-0.59685039373786863,0.24598295064706333,0.3927906292727914,0.093697532663873165,0.0081461257468133635,-0.050348766917311251,-0.29138817033724707,0.22024722059414076,0.32278586667734188,-0.12177843834989972
103,1236,579.4160,-0.20861788114140667,0.12168325855352466,-0.025945136932796282,-0.079305905616212924,-0.23230588434596289,0.20626041896807781,-0.5942006179950452,0.24285570360085063,0.39415619735786767,0.092781485671382419,0.013899567617914178,-0.046937667044766,-0.293464307805243,0.22778178427699514,0.32696997776082554,-0.11975193960315199
104,1248,579.4100,-0.20828584208616305,0.13177612243216197,-0.027578509132107073,-0.0789446305276442,-0.23119362148833236,0.20590379980338389,-0.59549835272254659,0.24031523617521672,0.39565279046428287,0.094151866180161067,0.010691223243277653,-0.052640594355618582,-0.29135946635120247,0.2233744551275747,0.32669195775944543,-0.11664313210556429
105,1260,579.4060,-0.20859372386781436,0.13158734794810092,-0.027282077406360249,-0.076416347666581563,-0.23073455819923924,0.20496693733436128,-0.595884857378873,0.24336906869148214,0.39745428481242684,0.091232299724722216,0.0074153792641129751,-0.049708075005130789,-0.2891518164975419,0.2215798995817122,0.32948471419130365,-0.11203149364199882
106,1272,579.4020,-0.21187847880437857,0.13438637045151858,-0.028218011032278893,-0.077560173651816083,-0.23303053571559748,0.20270340716392118,-0.59227141301928721,0.24108211325941634,0.39756538600698066,0.090292242585158139,0.012757271055323986,-0.0505090720184646,-0.29203168426903064,0.21998400146632383,0.33177657779176956,-0.11304532945264931
107,1284,579.4060,-0.20839411569320698,0.13323267377199724,-0.025536916232040508,-0.073538527166680454,-0.23694438931419595,0.19853196196555972,-0.5897123381425956,0.24410450877227066,0.39663547765525942,0.098116622993312835,0.00932592068545565,-0.050381214793944792,-0.29450084250462882,0.21988206972001645,0.33372658264162935,-0.11636735583072035
108,1296,579.3980,-0.21003648616941897,0.13057401776912045,-0.027391955985640482,-0.073040801370792968,-0.23900660608386609,0.20161952096290361,-0.590937527983126,0.24092670713846223,0.39772560994465095,0.10046904907022516,0.002665633179143579,-0.043032431258145959,-0.29458139339488865,0.21535658302034574,0.33278636422415181,-0.11522469479971188
109,1308,579.4120,-0.21046557361040155,0.13223249188909625,-0.025676904046020584,-0.074756215829285377,-0.23353363239326014,0.20573933654099869,-0.58732044973828779,0.24310407140313237,0.40179296592975938,0.10241831812687346,0.0057938061436004469,-0.047259291687250161,-0.29639795226275067,0.21313486014986954,0.33255215921007014,-0.11231764181736735
110,1320,579.4060,-0.2056175053898085,0.13286278655108918,-0.033001693606900237,-0.077153317322367937,-0.23227626546530722,0.20391674762968059,-0.5890234675366911,0.24100515669598488,0.40123623066441533,0.1006905341647286,0.0060779281997484311,-0.0454428861871722,-0.29551848455067142,0.21629354681731605,0.33479353750336893,-0.112627226882018
111,1332,579.4100,-0.2023591355571247,0.1326951149435335,-0.033772755149604976,-0.07326037726566044,-0.22920366871017636,0.20294758570141036,-0.58782412598903633,0.24422120921813822,0.40864082841493549,0.10192342188422464,0.0081924751059574991,-0.043272819857815933,-0.29430015223369566,0.2200549819152231,0.3311022054599439,-0.10853835493132219
112,1344,579.4120,-0.20190153108304609,0.1304897011380062,-0.034010081503287867,-0.071734449258184591,-0.23020540003052592,0.20292104382846021,-0.58859525823457792,0.24608665666584106,0.40636581896018531,0.10424156072492509,0.0036530476196238648,-0.047201682383502953,-0.29428502554837888,0.22082360406844731,0.33155951216423973,-0.10486676644210247
113,1356,579.4120,-0.20155487283707524,0.1277392614557869,-0.030959958074347413,-0.07169182601751109,-0.22765412088726167,0.20476294521579794,-0.58961999543360877,0.24998199916193836,0.40694045164279613,0.10151551073521076,0.0028165030155034793,-0.044420015779234434,-0.29548782309791516,0.21529600261736789,0.33078735450255509,-0.10857124815519102
114,1368,579.4200,-0.20169538178662594,0.12856418797144439,-0.032343481627236673,-0.07317966531675163,-0.22828113482353271,0.20459695601795749,-0.59102749320295822,0.25224697339318347,0.40461679227368386,0.10437838728140346,0.0057291698629958311,-0.048593192470303893,-0.29577170056050667,0.21039750184337019,0.3301893042865765,-0.10729708890409002
115,1380,579.4160,-0.1998844902524162,0.12810950370598215,-0.031440484742566319,-0.071810215618827763,-0.22729827676301251,0.2053484269758514,-0.59364793246579028,0.25420250680171463,0.40079625278745146,0.10091293138598763,0.0064257304869324468,-0.049179895528950843,-0.295031102805874,0.21295637301726886,0.32973761402168944,-0.10963831508533714
116,1392,579.4140,-0.19755951389739893,0.12983621999488296,-0.031116344343584786,-0.073355299154776218,-0.22898118823860789,0.2041161758475199,-0.59229805634494848,0.25289190300077258,0.40250246875051371,0.10449427411888704,0.0082290591333795925,-0.050500999081218488,-0.29684947868894684,0.20959431538176546,0.3319010695138353,-0.1048103442813227
117,1404,579.3920,-0.19883675692850358,0.13150262520018055,-0.031088603102844975,-0.07568574445462152,-0.2300190058990772,0.20318158991925256,-0.58763546048299331,0.25266547799953276,0.40463309283700283,0.10038010540521641,0.006667670257782538,-0.053820282295481754,-0.29866906675740912,0.21282423695930835,0.3328668612962401,-0.1042904395509074
118,1416,579.4040,-0.19965176360681081,0.13277761739090238,-0.029602495234730145,-0.07605044190880289,-0.23181916538939823,0.20379635089201142,-0.587130527539308,0.2556123040222345,0.4056171584550326,0.097509096852844493,0.0092587825058971281,-0.053078114024542745,-0.29604490562859059,0.21292669061498493,0.33063405934161705,-0.10546153860673814
119,1428,579.4080,-0.20058912635869663,0.13386583938313867,-0.028720539809417068,-0.077803520761505124,-0.23238502105280104,0.20239671347552765,-0.58534209101322443,0.25255232125984189,0.40711058575078313,0.09720079489219173,0.008415393884990274,-0.054033998647960914,-0.297520482756268,0.21392194212260887,0.33109297260802178,-0.10670006765756582
120,1440,579.4140,-0.19927693189193424,0.13390957302856504,-0.029349208830937185,-0.079124499321017949,-0.23048370853089462,0.20389197464812109,-0.58618352378310512,0.25068821121393864,0.40744321353625024,0.095112384390603,0.008670484922540439,-0.054040947056154434,-0.29865907592085572,0.21456577712253563,0.33005130927669374,-0.10828229391947458
121,1452,579.4080,-0.20197278108145275,0.13341615092341538,-0.029114198159024825,-0.079973459111152889,-0.23183736149949932,0.2059640586565,-0.582555823031615,0.25362191516474369,0.40690215257329038,0.0943124887378887,0.0078004411821136635,-0.050787186255837294,-0.29634872610422,0.21712711910819055,0.33113878171882788,-0.11121128024342518
122,1464,579.4020,-0.20208274375041285,0.13513567732582429,-0.027505723512271037,-0.080012554961210611,-0.22902893046300984,0.20461862885093571,-0.58122824806004,0.25138572647137319,0.40929332399783536,0.096517816552386615,0.0099819442775651371,-0.048818259535156755,-0.29721483619919503,0.2177147014744153,0.33243571008496448,-0.11269835548265136
123,1476,579.3960,-0.20455103207784442,0.13249980082429938,-0.025897239528002523,-0.078690303304213116,-0.23043113716784672,0.20318373163046527,-0.58132382634199553,0.25240618598298692,0.40994940855654011,0.098586717757878375,0.011837152533277193,-0.045069634468866589,-0.29504075212530478,0.21735633340707242,0.3328566771481779,-0.11216582105564056
124,1488,579.4160,-0.20437460399165755,0.13249618227411863,-0.026111076814211133,-0.077661711550303519,-0.22816705928915576,0.2052818267957052,-0.58224615357596876,0.25059487491403953,0.41122684370643031,0.097252594723918812,0.015078942095526291,-0.0488677204790495,-0.29557440719206129,0.21764207243567413,0.32919072913812875,-0.11644008834813853
125,1500,579.3940,-0.20511681178159669,0.13423202586579089,-0.026053932005531671,-0.080046098957965189,-0.22777325178805724,0.20569524378849707,-0.58066196182023588,0.25034150143173384,0.41203289769223544,0.093046692852827642,0.016370617521898709,-0.050210666768903414,-0.29540176187001577,0.21707467936645961,0.33055028132343617,-0.11724732942480146
126,1512,579.3980,-0.20316689292744192,0.13403983780948953,-0.027942332191488645,-0.078697236095019538,-0.22766564547016624,0.20542612538969446,-0.58167555251593739,0.24878584229143985,0.4119162644362136,0.092084984106192314,0.016925958321044467,-0.047378344299899393,-0.29518040085294672,0.21844123722663727,0.33256510191777022,-0.11518814360412827
127,1524,579.4180,-0.20058334811553211,0.13255515784092714,-0.03162658476892375,-0.076270120726145307,-0.23096291004622577,0.20974118342497697,-0.57972850221360894,0.24947116918374235,0.41404438030421808,0.092786962302146531,0.015988599911718294,-0.046407432234731753,-0.297300071975775,0.21782311627964393,0.32930260576089454,-0.11334125187538215
128,1536,579.4020,-0.20094207762024674,0.13368050695185921,-0.031419127537243595,-0.075587683327764929,-0.23055925913663211,0.20793021304445902,-0.578382661718924,0.25136357178517083,0.41446037263767832,0.091168455519569688,0.01922791776493088,-0.045762939871638479,-0.29888187325949922,0.21452552080935447,0.33066823515385391,-0.11643051566917159
129,1548,579.4120,-0.20017064175233856,0.13074160059926271,-0.029836893149713477,-0.074687011046940741,-0.22929945640034974,0.20809828093012483,-0.58024776570406111,0.25109625990498086,0.41644150715427836,0.089243147832855044,0.020459103193512296,-0.041273005956514418,-0.29705621969358709,0.21590874969365195,0.33040819830595552,-0.11442040724218765
130,1560,579.4080,-0.20136168902854942,0.13324516465876116,-0.032592145877555163,-0.074977401611962563,-0.23007839382273348,0.20908520349365484,-0.58070789992379113,0.24895956693861543,0.41660476655969736,0.089281431441228479,0.021071959100593379,-0.04111541140177629,-0.29568041123123412,0.21659024633896853,0.32852671149143997,-0.11442939971798258
131,1572,579.4000,-0.20281232348405612,0.13460929179693504,-0.033726618612163257,-0.0737558776488692,-0.23148260884969496,0.20910465793185612,-0.58157169777532336,0.24866925792891226,0.41290452113796816,0.090528557610449686,0.021744078811060906,-0.04072000407591591,-0.29516006585952553,0.21808771291144349,0.32956724577981061,-0.11214984696756836
132,1584,579.4000,-0.20062232141562941,0.13562551609319781,-0.034167732089621386,-0.075128698272038413,-0.23059577793875358,0.20773718209544331,-0.58099929808704887,0.24476900042182292,0.41335523846360506,0.0921741505775404,0.023169150370332962,-0.04004666032125434,-0.29690329804711013,0.2174105020015569,0.33296480008029811,-0.1131686780914784
133,1596,579.4100,-0.20158999458210616,0.13592926156104754,-0.036682353463837268,-0.073818007731934934,-0.23154480135924482,0.20859664440518652,-0.58174976605587214,0.24574798914224316,0.41129959664174959,0.094706770611722085,0.022990540878336664,-0.041994814153603788,-0.29652876767747355,0.21453682073022512,0.33344035301597486,-0.11170020098513285
134,1608,579.3900,-0.20092358606721819,0.13619974661762607,-0.034239742632976432,-0.073574226836656209,-0.23333730357716384,0.20903410323009231,-0.58212323765689589,0.24579745951309287,0.4093272275704693,0.094091928155385862,0.023711239666964271,-0.040991494438813926,-0.29676183675779833,0.21719316974492098,0.33251689703402926,-0.11180483970053917
135,1620,579.4060,-0.19950512413188914,0.13797231344779948,-0.032274492858170384,-0.074777393669023,-0.2354120364889907,0.20845006620073711,-0.58078845060944506,0.24299979315309367,0.41096147078029993,0.096315118534254465,0.024832399920289076,-0.0389867838457995,-0.29729730699771606,0.21685758620058029,0.33239203840463433,-0.11407449302186863
136,1632,579.4020,-0.19930854346125643,0.13651822094382124,-0.033420705790249444,-0.0763334847959794,-0.23595726254457175,0.20797171590653069,-0.58059772570035018,0.241760091328431,0.41110957714245289,0.096290281215758181,0.025022290649372426,-0.04177941491723524,-0.29780034988191023,0.21584372518923514,0.3331120903595714,-0.11516263766899344
137,1644,579.4020,-0.19926429713967295,0.13624633809369618,-0.034884218228671271,-0.076847037738507,-0.23612139714550234,0.20849352054386233,-0.5799206314800528,0.24360351484776296,0.41162815266268094,0.095845437938320233,0.023537290124699385,-0.044419317980249617,-0.29815966383206965,0.21381567478620397,0.33350383794846883,-0.11248370383987351
138,1656,579.3980,-0.19976441635910028,0.13636594123846543,-0.034816132886239283,-0.075059105265655054,-0.23529319967470733,0.2099945766406936,-0.58233532502502683,0.24093376289263554,0.40831482750375225,0.096547279402027286,0.020888338581031955,-0.046601610734461806,-0.29883445023443689,0.21355224405212675,0.33441003930942664,-0.11207677258631865
139,1668,579.4000,-0.1968815721211894,0.13738103207078664,-0.036187379872621696,-0.074723419801167049,-0.23706611700843316,0.20790006866426225,-0.58207598284643913,0.24097273832051827,0.40808091934034924,0.0971759302643404,0.019585693994528742,-0.046007324552063134,-0.2991642876743083,0.21589315366820142,0.33427552800780352,-0.11300683481214865
140,1680,579.4080,-0.19639196380054003,0.13914647676232145,-0.036096089085004557,-0.075656997153397659,-0.23662431659783706,0.20853747427955488,-0.58243730858734721,0.23956615577709561,0.40804829792781649,0.098377375890804045,0.018658139609856007,-0.046140327483856776,-0.2990758501860083,0.21637108926050377,0.33336415155736848,-0.11317343853791535
141,1692,579.4160,-0.1969231365907349,0.13859397267093351,-0.034853465206614309,-0.074621741625027341,-0.23564468792615534,0.20705309724250728,-0.58336182111843671,0.24052121798992313,0.40953767288900966,0.097194676939439562,0.018719522001443049,-0.042394397146401044,-0.29768671166947464,0.21701523162618908,0.3331058870563679,-0.11233681344988714
142,1704,579.4020,-0.19566564697354807,0.13988858899933715,-0.036712275794211,-0.074327183888131074,-0.23513190150318228,0.2074029892813799,-0.58177454573163745,0.24025539095466114,0.40976919001308065,0.098886718905770041,0.018508634558101363,-0.041274840762727721,-0.29846851442969169,0.2193429463546003,0.33380806740602414,-0.11123441823643981
143,1716,579.4040,-0.19387029526902375,0.13816800793446712,-0.038504484161437494,-0.07472036568528452,-0.23627688265558322,0.20738645616194762,-0.58399758435151317,0.2402058766734757,0.40663187998839867,0.098075898064588052,0.0166676952010417,-0.040571504557024338,-0.29983404591486518,0.22003202496876154,0.33367382538340978,-0.10983587069506937
144,1728,579.4000,-0.19368331635206065,0.13899594674322385,-0.037574451086209791,-0.073979751223475151,-0.23522842517967185,0.20530355889721894,-0.58420017373813238,0.238895443777413,0.40700334882473632,0.097382985120164592,0.013852636497700953,-0.041595089904996156,-0.3002897373114789,0.2201695611235191,0.33531010606041939,-0.11061690581713338
145,1740,579.4040,-0.1942237898533,0.14009083778646222,-0.037403107627267992,-0.073289470639097,-0.23317867188980787,0.20439473091609342,-0.58510375732555286,0.23850959758679643,0.40680008796625189,0.0987295803272742,0.014229697406992146,-0.040528207976790347,-0.2999330612378297,0.22063664353350193,0.33522838143070882,-0.1111325661818522
146,1752,579.3920,-0.19517909319479637,0.13940400610833961,-0.038088464152696906,-0.0744355133324952,-0.23336826677034361,0.20544522051085706,-0.58436170519515485,0.23836173416296283,0.40532350705476095,0.0980357520364395,0.015639808975476711,-0.041379629379354549,-0.29983167323094873,0.22241633079010226,0.335886549202227,-0.1112984100348877
147,1764,579.4040,-0.19347420311534355,0.13945180081757949,-0.040006816280505453,-0.076263152240170051,-0.23334799161090408,0.2065511356606306,-0.58440922876675938,0.2392504525756583,0.40507125783330639,0.098819532083373518,0.015204866611757774,-0.041220246630173617,-0.2996311618897437,0.22217356861085874,0.3356048355713146,-0.11052576269767901
148,1776,579.4100,-0.1936636191009688,0.13843856286547795,-0.03985613084285404,-0.077561674786470247,-0.23190120184378116,0.20588410065438326,-0.58659514069514151,0.24142535937261467,0.40357129823660753,0.0960455946189509,0.014863162186154978,-0.039776454716775232,-0.29871511484339885,0.22214557331500734,0.33530408521438054,-0.11050678338216831
149,1788,579.4080,-0.19380746106124042,0.13825120106382272,-0.037693954046891867,-0.077542442657730831,-0.23265354811993497,0.20583355598378092,-0.58455121882612648,0.24276352208831931,0.40437333309046286,0.0938174471899533,0.016480381915633967,-0.039440953740604884,-0.3004965097170198,0.22171035860425387,0.33510238380139656,-0.11319552847441873
150,1800,579.4100,-0.19494466817981193,0.13828420502338043,-0.0372515263377228,-0.078738921885015731,-0.23300160206260029,0.20523143427227061,-0.58404490378735974,0.24410914903628203,0.40447187988712247,0.093261176798344739,0.014197461365323912,-0.041704467046130365,-0.29987967380321734,0.22128602698607383,0.33538177861575685,-0.11191780351371197
151,1812,579.3960,-0.1944473138724295,0.13954431962138797,-0.036938653087542267,-0.081344813020531245,-0.23278324272669504,0.20639394712931253,-0.58239274399653407,0.24416515818709691,0.40722220331351172,0.094700334275187648,0.014485957675000848,-0.041318428339185025,-0.29941841762297794,0.2198829499512242,0.33464856049414932,-0.11138285004829183
152,1824,579.4020,-0.19405018735455493,0.13938181244030054,-0.038245735980881421,-0.081584005565923587,-0.23256432508531905,0.20733293524444138,-0.58049816566989376,0.24451931454872386,0.40841087072481913,0.094085975064673186,0.01541489015437782,-0.044884944185250956,-0.29903920821625141,0.22017257012165187,0.33546046547327862,-0.11210126906555087
153,1836,579.3960,-0.19378783143841827,0.13822912244859903,-0.038621034057555362,-0.080296078380110561,-0.23541501750142052,0.2057121147733364,-0.58020033321156306,0.24216716179309694,0.407281703812064,0.0936605636223543,0.016678302448169091,-0.045338707885621318,-0.30079627058731218,0.22237213714346946,0.33546049417435631,-0.11354637183056132
154,1848,579.4000,-0.19264942380237432,0.13808790409962035,-0.039015053631439256,-0.079590119590431468,-0.2358147374392984,0.20628930550283645,-0.57979871211583234,0.24155215614832651,0.4073427222796035,0.093280594995951011,0.016725611338441325,-0.043908912739904625,-0.30145317521052212,0.22412563557457077,0.33486048319803891,-0.11477057786177561
155,1860,579.3960,-0.19286623336947104,0.13726960348159661,-0.039874554061762275,-0.079886222668625884,-0.23652268445743116,0.20504365612499081,-0.5795944631418416,0.24226219538425006,0.4074073510576281,0.09426020379295208,0.017987867359682781,-0.043092083522456519,-0.30181591077990622,0.223656665257578,0.33465374757854432,-0.11479496104178807
156,1872,579.4100,-0.19326275786322797,0.13806667067492859,-0.039282238228808719,-0.079482389368104464,-0.23798446370851389,0.20349023118308968,-0.57898733205546427,0.24354668673205121,0.40859653397974705,0.092856427646993367,0.019745115258753988,-0.042611056663228557,-0.30149302192406274,0.22316972024898468,0.33387325750660118,-0.11462976957322374
157,1884,579.4160,-0.19280601727433333,0.13823754716057482,-0.038827974514084977,-0.079909077466059575,-0.23797133111287574,0.20422436702241878,-0.57895866885593372,0.24514308790688608,0.40868034073985071,0.0929341673413827,0.019693257055595072,-0.0417527464996341,-0.30144064607386872,0.22166645004541888,0.33361669374801367,-0.11420523862871707
158,1896,579.4080,-0.19277810829041184,0.13739871375184,-0.039637642844121267,-0.080534374934204081,-0.23691080224785038,0.20460947680805894,-0.57752404105149835,0.24397448724949194,0.41042940831037344,0.092113892172685272,0.018601835961580323,-0.043819643762438715,-0.3015808260118496,0.22127875343001885,0.33578227517622788,-0.11379795125676415
159,1908,579.4040,-0.19480544998085392,0.13701754725828427,-0.038233159417936945,-0.081272685941325834,-0.23718417218764942,0.20410393726860548,-0.57818733300076652,0.2437188458412336,0.40988071292292921,0.092105760690436,0.017512282742440256,-0.04499858732332334,-0.30124979788778711,0.22014299648681693,0.33580732460029339,-0.11295907586731581
160,1920,579.4060,-0.1962974396862954,0.13796594052906791,-0.037780608817144609,-0.0798509399964803,-0.23585082978565849,0.20443356491937512,-0.57886513782171978,0.24292715818959368,0.41076473029982891,0.091809819205270787,0.017401293220406875,-0.043043226367992807,-0.30055869575845062,0.21918498077872253,0.33576783005211763,-0.11242637034040433
161,1932,579.3980,-0.19669526282905972,0.1393678661673583,-0.039135726019431896,-0.0793782955472259,-0.23495416033988842,0.20305364162079123,-0.57974495846040253,0.24187012843810851,0.41016982498385374,0.091287238674531243,0.01768623670595609,-0.044160407064597888,-0.30117574448617696,0.21934837023841361,0.33580200914649105,-0.1120684893706072
162,1944,579.4020,-0.19680221551097135,0.13922842060703874,-0.038884643924357427,-0.079401628798077467,-0.23539883791214544,0.20223804177252741,-0.580422994445896,0.24149276564709171,0.41024064966158286,0.091729858841329573,0.017591201254878428,-0.044277271053703084,-0.30042557164007733,0.21852587821211544,0.33624362044736977,-0.11165419965814795
163,1956,579.4100,-0.19658787042072751,0.13931920162246753,-0.038864452791099978,-0.079948614480306643,-0.23524005242644577,0.20197147805125809,-0.5795080956264439,0.24142531897916905,0.41105218293353146,0.089922460617471375,0.017575447671088106,-0.04436242127042711,-0.30078286485168954,0.21895047958384273,0.33663375897439596,-0.11274756184625091
164,1968,579.4020,-0.1958641212490824,0.13812882279746616,-0.03868086046624751,-0.079383649298534392,-0.2357936784550228,0.20158957022508414,-0.57961358917077155,0.24114617949275988,0.41133523777603487,0.088688905100299781,0.018330405058200917,-0.042689311200254924,-0.30096136805607832,0.21927232499318333,0.33701482408228217,-0.11372122639109851
165,1980,579.3960,-0.19665361315559471,0.13894039363325156,-0.038466976693545048,-0.079659841852631558,-0.23603130178191695,0.20230762737885818,-0.57928265987309091,0.24112138286796875,0.41117048301887427,0.08721921294568008,0.018730890607522973,-0.044660076773632179,-0.30114306456706175,0.21836333531568852,0.33691034377021778,-0.1136813697933747
166,1992,579.3920,-0.19618959326296978,0.13830170241125378,-0.038121600977772049,-0.079356830489675512,-0.23529250615985692,0.20303363728598381,-0.57944175433548262,0.24104485730846306,0.4108691794738506,0.087558065262793472,0.019469282499226647,-0.044100792284177584,-0.30169815734176564,0.21872901544918816,0.33675754765535754,-0.11440816474631135
167,2004,579.4040,-0.19618314605293355,0.13808370834213143,-0.038037775517904743,-0.078587837859345935,-0.23586640606541912,0.20383579141619923,-0.57974083369531948,0.24043954022930361,0.40979436219071536,0.087482684086001475,0.019437665281761017,-0.04375488464370858,-0.30190250133378005,0.21895112727364788,0.33682246519663045,-0.11533374702074585
168,2016,579.4120,-0.19595815285914608,0.13799860427697472,-0.038343239234976019,-0.079462877481494651,-0.2353744925179144,0.20383390962556364,-0.57936164982392591,0.24013643419140818,0.40960524098146767,0.08622585116667808,0.020246759620500803,-0.043964663762787549,-0.30172612840479407,0.22030142707736108,0.33770983778220581,-0.11532058477865856
169,2028,579.4000,-0.19726745944446261,0.13779124467464238,-0.037528905359361778,-0.080146993300885344,-0.23491953352270703,0.20254472458037059,-0.57929182736848417,0.24120022797880353,0.40962639334457884,0.086412320584489014,0.020928312883790941,-0.044199386681775643,-0.30095864402085193,0.22000705372357771,0.33770130924018,-0.1166081784549096
170,2040,579.4020,-0.19820517004568766,0.13643744209477718,-0.036576649760946857,-0.080624583159509947,-0.23488104971173054,0.20245672549668467,-0.579780469948373,0.24197924192120485,0.40893687384946648,0.085759014118020865,0.020808961938895951,-0.046238351355804758,-0.30051754317401719,0.22022331759734393,0.33696653160229856,-0.11769336516009678
171,2052,579.3980,-0.1973935866647793,0.13710083890053998,-0.036761875313199154,-0.080034191285688658,-0.23474314936950191,0.20224153363306208,-0.579863193036743,0.24162823191144533,0.40930018636588433,0.08550676285950988,0.020215293697024475,-0.046618226638017575,-0.30066004368401894,0.22058751137770097,0.33709858637902074,-0.1171462090832112
172,2064,579.4140,-0.19794950050035878,0.13768948683320589,-0.03627073659940231,-0.080027550905319725,-0.23370019356737309,0.20303918637139429,-0.58023615842552834,0.24164365222148693,0.40773098397082225,0.08597066107757026,0.020094946288490186,-0.047318391723050461,-0.30076798942881583,0.22111141689445202,0.33762100569721187,-0.11661317813909772
173,2076,579.3980,-0.19791615383986308,0.138944645471142,-0.0371418615794567,-0.080664804231022125,-0.23424862637346783,0.20371244420748971,-0.57891347295574536,0.24104482259570764,0.40830723368141403,0.08642163943883123,0.02067284141407854,-0.046453589128673783,-0.30047623332106366,0.22226045865440383,0.33742209484386926,-0.11699026518928328
174,2088,579.3980,-0.19908157740927546,0.13927677485719181,-0.036154341031022962,-0.081249478347778348,-0.2341164215115796,0.20236329163019395,-0.5788667412534948,0.23993233561058527,0.40850575825318547,0.085513579786583929,0.020961909982640688,-0.046767584984678486,-0.30077616465254825,0.22210832159168578,0.337961600189067,-0.11743845438901511
175,2100,579.4000,-0.19920134651703977,0.13840365561963208,-0.037298677068214089,-0.082683763872293009,-0.23438334613908246,0.20179107455822634,-0.57854743661858177,0.23967576368197444,0.40856095720405161,0.0853726626655741,0.021018298804462925,-0.045360253934373526,-0.30067436622904758,0.22244212645837616,0.33885439809626583,-0.11696640141330508
176,2112,579.3960,-0.1986026961574687,0.13807979665747577,-0.036827751292794253,-0.0826763691930631,-0.23349494885621347,0.20092664384792885,-0.57950485152439557,0.23961874170107425,0.40895404406620767,0.0841171071035395,0.020852575570285945,-0.04604527991474703,-0.30107536563420195,0.22076519058231392,0.33919925974678933,-0.11758140835150949
177,2124,579.3920,-0.19867882369634943,0.13767082997543947,-0.035723710033558072,-0.083765858425927028,-0.23354173876633988,0.2013279177097283,-0.57921626614718857,0.23874235492425633,0.4076488830447535,0.085017635417429724,0.020220158094496527,-0.046910543509611866,-0.30149215052709954,0.22175339831366456,0.3401057276628644,-0.11807208197257202
178,2136,579.4020,-0.19835367058331063,0.13811762645381012,-0.035873060804327887,-0.0833852360843237,-0.23307391375528849,0.20113314618197559,-0.57986891304497545,0.23973777425886039,0.407403185373308,0.085640464167877614,0.0198494387303791,-0.047838710879569715,-0.30058151497517122,0.22081321257156608,0.34017125478270871,-0.1182960229554616
179,2148,579.3980,-0.20030195431370162,0.13773737502154654,-0.035207282557236722,-0.0840590185714808,-0.232181256836287,0.20187445029831139,-0.57970010171358533,0.23932409586345871,0.40704379162147947,0.085949960835447453,0.019410357672620476,-0.047762977473344945,-0.30093342039040738,0.22042436472589522,0.34000892736088378,-0.1187965593253363
180,2160,579.3900,-0.20066431497898618,0.13816489528740836,-0.035079719477302276,-0.083078834101042484,-0.23219153564844555,0.20251779569846598,-0.57984301180271092,0.23953518622222367,0.40641933214292059,0.086854186828293434,0.019247743062721378,-0.047818752709871556,-0.30117017885875164,0.22030395611361461,0.3394299073069319,-0.11893595146208019
181,2172,579.4000,-0.20040447138904177,0.13805956529580207,-0.035439780064712864,-0.082263412903250135,-0.23289206049791661,0.20284090313521039,-0.57918393134437385,0.2396353838508859,0.40712273562997831,0.0871557312219185,0.01846388872513249,-0.047337635524076493,-0.3016327083567506,0.22000110193523681,0.33903613890184725,-0.11919184233808509
182,2184,579.4000,-0.1995052512828413,0.13704767493086376,-0.036015718222695184,-0.082379654333920041,-0.23273999444963417,0.20317107603547982,-0.57946663684545352,0.23914498649269697,0.406486845673984,0.085905233435181777,0.01879759660006193,-0.046722697742745692,-0.30216085957462091,0.22159342478129113,0.33932897165611159,-0.11914312588766576
183,2196,579.3940,-0.19958506163128131,0.13788345807376098,-0.035887476852340318,-0.0822125347503819,-0.2326640834408068,0.20340921059803677,-0.5796523129459632,0.23976478677465055,0.40611549518514384,0.086116379475457944,0.019720895321585157,-0.046405405476315179,-0.30164344711662827,0.22091639020341741,0.33948583171207958,-0.1190333452466102
184,2208,579.3980,-0.19937504549964574,0.13792298571371586,-0.036437018089072737,-0.082351841124826561,-0.232751563617312,0.20399303615033332,-0.57961737372825828,0.2389577295444249,0.40604132554786232,0.085601749225845819,0.020288081566542118,-0.046408149976918882,-0.30177690904073068,0.22114217222524316,0.339858939016955,-0.11840466410499
185,2220,579.4080,-0.19913238067771144,0.13839700612941483,-0.03602953869559386,-0.082369013933991472,-0.2323218323293644,0.20347042996000389,-0.578777708587934,0.23941018222659977,0.40686065870637261,0.085603088883593137,0.020442996445139625,-0.045441974156350859,-0.3024773132663427,0.22130137025479232,0.339842383086379,-0.11882109076364274
186,2232,579.4100,-0.19929910819723928,0.13872311144276681,-0.035074498800136633,-0.082770214887449428,-0.2324017467109146,0.20321550067521243,-0.57900609697579919,0.23946063233099221,0.40735219999969419,0.084860159334359558,0.020418007839801751,-0.04494319442436516,-0.30230261064673769,0.22084609062865665,0.3392862159630059,-0.11916072251005244
187,2244,579.3980,-0.19880314323851497,0.13864192829037608,-0.035091850888299476,-0.082891977247394125,-0.23232482359412523,0.20244214625547191,-0.57912170667918927,0.23955327803051937,0.4073560603495846,0.08532888850584007,0.019611699723315241,-0.044641297786784793,-0.30263897067175655,0.22043625980975207,0.33984387783086067,-0.11892232266426785
188,2256,579.4060,-0.1996150003174299,0.13767308762225933,-0.034609982331140862,-0.08274680771478489,-0.23249898075992534,0.20215343520510726,-0.5791720005823463,0.23950081705712822,0.40691367253606886,0.085797672442770229,0.019490287559591219,-0.044029453094370549,-0.30263505765303922,0.22075920550542844,0.33977331633296615,-0.11998069103353813
189,2268,579.4020,-0.19987828680602041,0.13738548570193587,-0.03433682583402782,-0.08309019690221682,-0.23247729174964873,0.20250016404023924,-0.57915805435092294,0.24039776609577784,0.40616416205140204,0.0851711977317296,0.019774051539499949,-0.043978202915916934,-0.30262276024180407,0.22135379758280527,0.33947909414659283,-0.12017643202462069
190,2280,579.4000,-0.19937986128835367,0.13764982094322314,-0.034700554481897856,-0.082943291544559886,-0.23184004284060736,0.20299435445891878,-0.57947270105523063,0.24048356755560102,0.40623719166070815,0.085294910085822268,0.02015567151532004,-0.044548912977913094,-0.30230262932156921,0.22205725853581559,0.33924533333950091,-0.11895982388978577
191,2292,579.4100,-0.19927209369124166,0.13761223336073944,-0.034687998489434622,-0.081990332054347789,-0.23196726835629783,0.20302842597154724,-0.58002237040176341,0.24031113858790284,0.40654993420296681,0.084966923148637574,0.020181285773127996,-0.04355568496045327,-0.30238064638752343,0.22139620605091059,0.33881906072944945,-0.11900207392577714
192,2304,579.4040,-0.19938133217144932,0.13743838134968739,-0.034467191597351378,-0.081968846854867314,-0.23160845098062968,0.20292118602557946,-0.5803419987616929,0.24039876411065064,0.40653408092591264,0.08463949454088808,0.019751820424609746,-0.043822496954145272,-0.30221139605055425,0.22167925038334346,0.33863901240998906,-0.11892485786171789
193,2316,579.4040,-0.19947121011438515,0.13765081962616568,-0.034307095343010408,-0.081829760164400467,-0.23156023555908745,0.2025714830560558,-0.58051716730385228,0.24047443451967007,0.40688156627499555,0.08504870094457842,0.019779766973021702,-0.043794676118638,-0.30228894609242396,0.22123636352087292,0.33829115719555813,-0.11849907369388916
194,2328,579.3920,-0.19964457316855547,0.13831440171166987,-0.034041479721137649,-0.0821789103547843,-0.23169873771256233,0.20247722614103464,-0.58039823192474049,0.2396702630024635,0.40686970991506222,0.085237088271116826,0.020122179693917528,-0.044970719238523207,-0.30247035411604123,0.22106438849839921,0.338268328039468,-0.11869358390874048
195,2340,579.3980,-0.19947525679996625,0.13807596721833812,-0.034077629449148023,-0.082234817745800257,-0.23238088061466081,0.20281027763151205,-0.58035426554539593,0.23985022094525274,0.40670622768905557,0.085855974087626727,0.019984867557742928,-0.045649377883157677,-0.30240488360587525,0.22086450764905383,0.33784582910569633,-0.11878540444849441
196,2352,579.3980,-0.19939920172357489,0.13815352546877446,-0.034276232554412776,-0.082133707039862239,-0.23293076922067549,0.20261956967181025,-0.58031643218777251,0.24024423486041596,0.40689603897611859,0.0860121986090122,0.020249230510751479,-0.045247629094030448,-0.30260880344677449,0.22075842790027603,0.33712879682053581,-0.11852919425038959
197,2364,579.4020,-0.19925270628316452,0.13779557021661668,-0.035039175962506552,-0.081988340341088553,-0.23323484197538469,0.20253583682910214,-0.58027911323840864,0.24068029521088785,0.40660887928095923,0.085909006822772957,0.020423044663197179,-0.04484008597435974,-0.30225861131020404,0.22119263652661256,0.33738033085928026,-0.11846878143205651
198,2376,579.3940,-0.19893895465622191,0.13806838095836671,-0.034652545252201739,-0.081365214774083816,-0.23291471943682718,0.20210792937126329,-0.580277448468835,0.24043171275047034,0.40651583578431938,0.085571434601542276,0.020738324160528097,-0.044343825225343886,-0.30256799716159122,0.22156020723095163,0.33786186133474166,-0.11894040750741122
199,2388,579.4020,-0.19856619951000656,0.1378530134219568,-0.034787715090538386,-0.081146169252273914,-0.23321087540607324,0.20205366884902623,-0.58011124382496393,0.24049873196094015,0.40675233679770345,0.085323003062766647,0.020572361206247683,-0.044467409822261106,-0.3026507367844522,0.2212277485610416,0.33820769551333896,-0.11888740234530795
200,2400,579.4020,-0.19814213108593604,0.13778186321619101,-0.034587964482189114,-0.081056667892254269,-0.23430204425870169,0.20171070630661864,-0.57973448461330424,0.24090386228188865,0.40674823598525334,0.085616452391643158,0.020285180842742726,-0.0451223019883782,-0.30287024631424775,0.22105860715939207,0.33805424400259215,-0.11905750711211723
201,2412,579.3960,-0.19883071294953591,0.13742387128879691,-0.034605848215053359,-0.081684567763098487,-0.23374066516015302,0.20153950831298287,-0.5796316790976247,0.24117368295828109,0.40660262831068816,0.085053970222354738,0.019895185617947966,-0.045724080267992878,-0.30283066851634982,0.22117024436216678,0.338224757251039,-0.11937541087920792
202,2424,579.4000,-0.19868347535710756,0.13741370560382338,-0.03416967258717022,-0.081586933403459377,-0.23383458120722256,0.20096689267264417,-0.58013296402190762,0.24082566653883603,0.40606410155089584,0.085241442996815978,0.019288750906397981,-0.045635497939509058,-0.30293003787235195,0.22135968573732126,0.33837234234759572,-0.11968122991524863
203,2436,579.4060,-0.19891722046559007,0.1374460447421407,-0.034370658524293295,-0.0819557551000018,-0.23325085618231062,0.20162996798793914,-0.57994585730612813,0.24121944799501768,0.40569806766326916,0.085170075523791425,0.019508531961374403,-0.0465990415790894,-0.30277780343441429,0.22158782459168885,0.33845251906923463,-0.11970545735323641
204,2448,579.4000,-0.19908460307229234,0.13795684564520067,-0.034267673850408194,-0.081940116897457574,-0.23309128517861546,0.20188656556997084,-0.58009868230047468,0.24119271500609135,0.40601491159864206,0.085659838020626072,0.019701329590976882,-0.046271703922210528,-0.30223662367217408,0.22107195675721428,0.33839925305514157,-0.11922388921993199
205,2460,579.3940,-0.19950077549129491,0.13796946401600402,-0.033979746724046973,-0.081971238746302535,-0.23339068961503792,0.20181985471131125,-0.57976829773295679,0.24097256486700841,0.40647743916801704,0.085444834993079033,0.020128812316583724,-0.046243811163928922,-0.3023331506136353,0.2208471601943362,0.33817729065216723,-0.11946881244015477
206,2472,579.3960,-0.19990607548746603,0.13786457132948465,-0.033643094704837992,-0.082080639530885208,-0.23335081807466221,0.20190049218278674,-0.57996375816130052,0.24112022740824887,0.40613763871071434,0.085442920571704523,0.02028496302595096,-0.046177485093279867,-0.30204871293095042,0.22098782753645058,0.33796049404675388,-0.11986281849036243
207,2484,579.4020,-0.1999253902665879,0.13794466051250176,-0.033211731600620908,-0.082483776704698253,-0.23309193215664928,0.20163740189147669,-0.579906101185624,0.24137559251886287,0.4063051908059564,0.085585381784298975,0.020089794047163483,-0.046492982783943676,-0.30210758303798685,0.22081533907970757,0.33799238991200831,-0.11961307937463626
208,2496,579.4020,-0.19980822699568979,0.13817370826484549,-0.033478991150481467,-0.08205470823116344,-0.23267110314269621,0.20154394146417864,-0.57995999277812837,0.24121184319246203,0.40631788319972251,0.085713417152743734,0.020194364031896322,-0.046368785470256607,-0.30219810342134734,0.22088134641538754,0.33835263418597766,-0.11933715598902267
209,2508,579.3940,-0.20013106145616491,0.13787807878966443,-0.033519711777686853,-0.082053787726580174,-0.23298264864801954,0.20157034982140287,-0.57984678506902454,0.24151706194012598,0.40594564450719112,0.085851676108260527,0.019852166347124073,-0.0462929335114652,-0.30212077603983417,0.22108600105286089,0.33833709444118526,-0.11953019515092696
210,2520,579.3940,-0.19982686583113723,0.13787020257098037,-0.033708892287177952,-0.082179133681275038,-0.23291826210099548,0.20160056235737739,-0.5800355043805524,0.2415645639471381,0.40628486908786016,0.085810835339761748,0.020144916161315026,-0.045908399728477788,-0.3017867603011713,0.22097848597140479,0.33814632040383186,-0.11952993345570923
211,2532,579.3960,-0.20011299995937606,0.1379189752894622,-0.033407971446954704,-0.082216977955263171,-0.2329776900110504,0.20110534880719569,-0.58001985524596489,0.24149296678729115,0.40651102581877924,0.085717822860584159,0.02017199035518771,-0.045678266497481662,-0.30166502777021575,0.22048444417141327,0.33849772584349808,-0.11960145759034917
212,2544,579.4040,-0.20014743924756767,0.13809187780371593,-0.033476000683461744,-0.082401038289740949,-0.2329207538754591,0.20095380090766587,-0.57987885777234749,0.24118000004680726,0.40682955728809039,0.085669304946637936,0.020043920925747166,-0.045489729222403241,-0.30180490793302711,0.22050709004395519,0.33854289385522579,-0.11939784510781525
213,2556,579.3980,-0.19997470951931856,0.13796553338477915,-0.0337886042607354,-0.0822521919189884,-0.23230377393466084,0.20113346645536614,-0.58003837553672644,0.24097722156718451,0.40687203378170461,0.085312217403273424,0.020090579755626638,-0.045007246340362017,-0.30182287834000959,0.22084483464541671,0.33873619560670409,-0.11945254866991206
214,2568,579.4040,-0.19967899018197052,0.13809287374693621,-0.033928488148027965,-0.08224732085124975,-0.23203420452898124,0.20130178989284009,-0.58041347686591682,0.24107178591603404,0.40678817809699,0.085704058369654876,0.020234685798940274,-0.044637596201992591,-0.30149638901455184,0.22079123768720418,0.33873777975337788,-0.11902479904243311
215,2580,579.4080,-0.19998643924584497,0.13820963750926882,-0.034051756141003454,-0.082230870468840228,-0.23232007462965426,0.20114227939831925,-0.58053885064271982,0.24087541510247357,0.40630304684178076,0.085821508105229233,0.020531139621912303,-0.044168531072154009,-0.30132402593717483,0.22113970553841547,0.338772825020077,-0.11923524200101331
216,2592,579.3880,-0.20012600085633742,0.13817355151144317,-0.033792815913336528,-0.082292808766191841,-0.23260366498008733,0.20123598545942997,-0.5805514384758883,0.24054652447425304,0.40628502969547342,0.085996515882328414,0.020282989151572454,-0.044265397362504309,-0.30130254276884988,0.22090103325060456,0.33885666936164333,-0.1191670359045448
217,2604,579.4080,-0.19998695867738145,0.13825345580012549,-0.033965903848314383,-0.08228110303716038,-0.23243232607610526,0.20141346117849368,-0.58047405561834553,0.24035700786511691,0.40632055631224678,0.086054789934712911,0.019856151286853269,-0.044594970882804862,-0.30162450164023841,0.22103488496418236,0.33876192436252961,-0.11905264087724622
218,2616,579.4020,-0.19982206085456586,0.13800081200167769,-0.033846542447091427,-0.082230823439132933,-0.23260189097204814,0.20141117563116376,-0.58038810028611365,0.24061875234205307,0.40626716180972522,0.086099213490513346,0.019686183373371136,-0.044931103074459064,-0.3017910352481597,0.2210201178285453,0.3386142061549845,-0.11932948417026612
219,2628,579.3980,-0.19975529189804664,0.13765284996545679,-0.033536049818004669,-0.082365201910404473,-0.23253449000606452,0.20127793285539705,-0.58045430626963879,0.24050948917373627,0.40644940988331846,0.085719093058320858,0.020132149313451326,-0.044787424697893152,-0.30183219883910839,0.2211838112216363,0.33855452287472593,-0.11949034714464966
220,2640,579.4120,-0.19969005314720223,0.13766130097973417,-0.033424163210921107,-0.082330268323203268,-0.23254225662563477,0.20126720314244675,-0.58033883894717331,0.24056389908543896,0.40672298657003153,0.085657135211474444,0.020414588925306596,-0.044811891051442967,-0.30187805542956203,0.22109854437818724,0.33837806651698438,-0.11969832941248505
221,2652,579.3900,-0.19968540469904786,0.13771371371089552,-0.033623487243872437,-0.082285685810866011,-0.2326293704992419,0.20111188143000902,-0.58048123319921308,0.24062133837528193,0.40658542792208735,0.08585478226066566,0.020366264237756337,-0.044916952761300408,-0.30183561514335672,0.22101390473006038,0.33833153750125272,-0.11959500933073544
222,2664,579.3960,-0.19965512935064747,0.13780594554444661,-0.033524855634707716,-0.08211269662175523,-0.23274369467840755,0.20092915516572488,-0.58065092495329251,0.24073450896625628,0.40647611009301193,0.086209392756436021,0.020361762082213235,-0.044820383040898575,-0.30191207591983077,0.22080692547281455,0.33819720795890573,-0.11944341695134587
223,2676,579.3960,-0.19975269519928343,0.13780616995102832,-0.033188916857256348,-0.082297720373359626,-0.23248004052420357,0.20092348783840008,-0.58062439971564084,0.24073097052402423,0.40626406495650225,0.086108756435287384,0.020185591328547019,-0.044893737749702435,-0.30192452967968048,0.22109869356341968,0.33837864212435587,-0.11961722292726881
224,2688,579.3960,-0.19968100194353428,0.13772147376558416,-0.03322565598909507,-0.082238924683712522,-0.23242438627388259,0.20078177558451993,-0.58060548817518187,0.24034150261337939,0.40612968305052777,0.086068135344614827,0.020267350892418275,-0.0447200863049971,-0.30220861436205343,0.22122120918160115,0.33869924653706984,-0.1197719324069115
225,2700,579.4100,-0.19976834184144118,0.13785654485678739,-0.033011066357525126,-0.082411895292313644,-0.23232762077416128,0.2006635298887649,-0.58054625787229064,0.24019539813266627,0.40629939153762989,0.085882453870132644,0.020403840879499417,-0.04496632612023771,-0.30220184844752285,0.22130192449494165,0.338559327774711,-0.12008291868212397
226,2712,579.4060,-0.199945128120926,0.13778955804974083,-0.033044559232433796,-0.082521428278215236,-0.23224964331019773,0.20046083607045229,-0.58054815143800909,0.24004378099009971,0.40632511357549955,0.086080469899067508,0.020351250805376284,-0.044744788105195471,-0.30220509278888508,0.22151541710076403,0.33854553028346179,-0.12006446315390039
227,2724,579.3920,-0.19990713682586322,0.13765460889524253,-0.032908224436084724,-0.082741333353494026,-0.23223962710065138,0.20003052793251835,-0.58054745444304545,0.24014194563581498,0.40627846155898528,0.085972373558748011,0.020157260722790473,-0.044524242863296287,-0.30221749618588489,0.2217088348914395,0.33868809561768354,-0.12027042274546267
228,2736,579.3960,-0.20004213132253312,0.13747357356887457,-0.032506764426045581,-0.082976989400879789,-0.23206775406692709,0.19971581213309297,-0.58079815833641657,0.24016651048664883,0.40621422400165591,0.085903472498205125,0.020194819298608356,-0.044553335202300155,-0.30196166431249827,0.22184378534620144,0.3386689424705337,-0.12049143304867056
229,2748,579.3900,-0.19999795654517596,0.13763373332740891,-0.032513739330588758,-0.082865057504856676,-0.232003346443686,0.19997329422573282,-0.58090049308861946,0.23989739600813417,0.4064809089884982,0.086164794022075386,0.020282986488175343,-0.044502849927599931,-0.301873310381724,0.22162520164903513,0.33852215000061592,-0.12015040687693802
230,2760,579.4000,-0.20011833900346068,0.13768133893959342,-0.032386619277475909,-0.0830207235152002,-0.23196098587103026,0.19998367672104456,-0.58077720539153821,0.23991097865872121,0.40645890901995174,0.085963252000027912,0.020256063061120325,-0.045004189376568533,-0.30192712294352758,0.22167304597821874,0.33856795959003949,-0.12013650117766818
231,2772,579.4040,-0.20020693883839616,0.13788764153744199,-0.032565288139659934,-0.083208246328867461,-0.23186601028790402,0.199961116648613,-0.58070549005413241,0.23983425677648015,0.40668829549864238,0.086102465401757436,0.020389136582093403,-0.0455581856740163,-0.301963580886174,0.22133121308839412,0.33856492975967339,-0.11973751560472477
232,2784,579.4040,-0.20015908616862549,0.13780548671588985,-0.03258574068906403,-0.083320593705672991,-0.23171109508342075,0.20015844828561205,-0.58049718083020418,0.24007558396170789,0.40639699941400065,0.085804791231896715,0.020198218760652167,-0.045759595216895863,-0.30238747614907563,0.22163810448891058,0.33850831954956589,-0.12000467907741716
233,2796,579.4020,-0.20028688561811861,0.13800307730924988,-0.032634273679086938,-0.083430284690748785,-0.23151539711764926,0.20000990335562843,-0.58068242417584481,0.24027782486194843,0.406214733026839,0.08596994952469808,0.020003573290634555,-0.046269849509678995,-0.30219740024543823,0.22143896745685082,0.33857777863635558,-0.11978597981630025
234,2808,579.3980,-0.20040199613502982,0.13821047286597091,-0.032422662176931911,-0.08340382285114864,-0.23154917991413465,0.20012386888867495,-0.5806532084243049,0.24001339030541219,0.40651213022166,0.0862108886367791,0.019982883360585423,-0.046288600944925776,-0.302041870474809,0.22100273305442347,0.3386879103663169,-0.11954652087107413
235,2820,579.4000,-0.20046569260449493,0.13820010733435559,-0.0323093206483803,-0.083510680190452657,-0.23106209677297229,0.20033106457308986,-0.58100947862007069,0.23994399230703875,0.40626907700888237,0.086501237875076034,0.019979747183046351,-0.04630420222552753,-0.301862688335428,0.22112567936605024,0.33858757597229938,-0.11953000007597561
236,2832,579.3940,-0.20051709654523514,0.13839360525127992,-0.032328040028703223,-0.083363148800156009,-0.2309411227175806,0.20062706040811298,-0.581053896486424,0.2397642111516618,0.40606197741789457,0.087045610165207579,0.020102255658661104,-0.046228929566859651,-0.30182204510247329,0.22098004710481928,0.33866141869321942,-0.11968428042630691
237,2844,579.4000,-0.20088409971157151,0.13821016425042104,-0.032028812425163533,-0.083312757439539115,-0.23077675829959871,0.20058173019943512,-0.5810637199255434,0.23985573824465628,0.40582676300598142,0.087061157661837682,0.019979853457488244,-0.046452532701890287,-0.30178278323206964,0.22107102796634481,0.33872204279667728,-0.12003471474731267
238,2856,579.3940,-0.20093815799388506,0.13860989683016486,-0.032079631086589365,-0.0832006100321668,-0.23092262002894742,0.2005307579561981,-0.58099380296370251,0.2396794818053827,0.40585865302879059,0.0876176134734776,0.019671152588143195,-0.04685051572150533,-0.30192621121713537,0.22102819578641969,0.33847139406270477,-0.11985113013071542
239,2868,579.3980,-0.20103458578411004,0.13858585600517481,-0.031905835908777248,-0.0831793995581394,-0.23078762002267114,0.20038632980289267,-0.58091574552467762,0.23975505093400906,0.40586596077740483,0.088266910553433858,0.019376551043577338,-0.04712996000286155,-0.30195753539404635,0.2208112217965377,0.33871168598863233,-0.11958762011758983
240,2880,579.3960,-0.20126869625364796,0.13865452439316356,-0.031646123258217911,-0.083199835965424421,-0.23099128560046703,0.20003422506899546,-0.58092485939259664,0.23988401102279081,0.40587001600164258,0.088475845194482969,0.019314362452945405,-0.047001608139036366,-0.30179458904193757,0.22051608788271376,0.3388417173910277,-0.1195393663791499
241,2892,579.3940,-0.2008294702182645,0.1385913827028451,-0.0318554689574835,-0.08358122482557237,-0.23098445836825415,0.19978955124939635,-0.58090706815268156,0.24015099828471104,0.40587735814359588,0.088307988536405993,0.019110757324727386,-0.047147053586919438,-0.30182010650327468,0.22070077685583558,0.33892299747531257,-0.11943794457085113
242,2904,579.4060,-0.20094191054071261,0.13888217536022854,-0.031569704830614428,-0.083749962547581047,-0.23067722485599362,0.19970432061366097,-0.58106102999879972,0.24000505390361232,0.40589399966387268,0.0882449309286572,0.01909000414250045,-0.047465823577245971,-0.30186743010030742,0.22028985151503483,0.33896013983407824,-0.11955412446579833
243,2916,579.3980,-0.20102287093451232,0.13932626290304442,-0.031478555944419354,-0.084205841783510246,-0.23037171622021935,0.19925667981098177,-0.58088579752192016,0.24023304100827206,0.406044776803234,0.0887299428930764,0.019367174874666278,-0.047833243194697152,-0.30178688611984311,0.22013239520924946,0.33891420785420467,-0.11988992037014348
244,2928,579.4040,-0.20093455261869758,0.13924710838156168,-0.031777250189964981,-0.084263001658119563,-0.23041137579148957,0.19906479819430695,-0.58122711792751225,0.23990231709200596,0.40555940180661026,0.088422997950688351,0.019163844055083819,-0.047982786377731394,-0.30191752033527958,0.22045227982600774,0.3389855571699068,-0.11998932997362981
245,2940,579.4020,-0.20062297113515329,0.13932541299501738,-0.03215546627441556,-0.0838167294693535,-0.23022269238531751,0.19935554371636222,-0.58175070362912251,0.23985154885261542,0.40539711378714238,0.088481728455831257,0.019100530815367202,-0.047459154418768405,-0.30180204375796676,0.22050772068127542,0.33868960589871261,-0.11981599957288426
246,2952,579.4000,-0.20034026860429965,0.13926402413790961,-0.032177926191851461,-0.083614588256093983,-0.2303971186798314,0.1996625799607388,-0.58166386168854312,0.23989864820454643,0.40567659784137633,0.088425452468086252,0.018979713994570827,-0.047466648730892139,-0.30200312670427437,0.2204792734534364,0.3383418586514762,-0.11962069831233677
247,2964,579.4000,-0.19999870208640536,0.13898225814780266,-0.032375630603410178,-0.083273853386480176,-0.23040632493891874,0.20011604484397802,-0.5818431478295425,0.23995529015072695,0.40583888369872484,0.08805999626331798,0.019147664906621766,-0.047059995246548046,-0.30216023985495843,0.22047524969727839,0.33805752325730132,-0.11921389661352204
248,2976,579.4040,-0.2000449373688519,0.13861439154643124,-0.032161157457186104,-0.083144775105160287,-0.23034969167665417,0.19993442014570578,-0.582149973742068,0.23983191223778069,0.40593000944510516,0.088212743117830769,0.019127206400611448,-0.047036133491419746,-0.30202899293864161,0.22055007356148229,0.3379343855247719,-0.11901044770555561
249,2988,579.4040,-0.19995090906522553,0.13840746015015959,-0.032470641912344375,-0.082793863002609991,-0.23070518478158059,0.20013393368250149,-0.58217931855715177,0.24016147609440183,0.40611962957541564,0.0885363738997999,0.019115500758088638,-0.046974466255849286,-0.30181502154564327,0.22037843177807984,0.33760448040434404,-0.11867084802633958
250,3000,579.4040,-0.19981034125141409,0.13822158456556777,-0.032608587384542552,-0.083086425829316329,-0.23067200841221369,0.20023337530532367,-0.58197301276487523,0.2400544621239796,0.40579973577360245,0.08824305258252331,0.019054422259521833,-0.046837993361070022,-0.30203078147956341,0.22121207186573671,0.337691404996762,-0.11903925964894886
251,3012,579.4000,-0.19970086691177233,0.13865307729403684,-0.03277180384924077,-0.08303791835041123,-0.23074834635143759,0.20026721376752751,-0.58197323393574052,0.24002512016351976,0.40583472646832108,0.088291706004026874,0.018726611896716865,-0.046792809366788264,-0.30203770243277089,0.22113839905383012,0.33753446384980806,-0.11903913332726201
252,3024,579.3960,-0.19953480327917775,0.13862304657661784,-0.032912382532008615,-0.083075710674580042,-0.23099817701117242,0.20013806251823404,-0.58204582302303676,0.2400441702841056,0.40601101372233139,0.088117808108133827,0.018486678593237819,-0.047027668365301666,-0.30206133706209187,0.22123886847248073,0.33715918662444916,-0.11891878690835386
253,3036,579.3900,-0.19943083925221858,0.13868453100993275,-0.033430918826154621,-0.082605790975091867,-0.23113329513091446,0.20044405607634169,-0.58212295723842755,0.24013958895873513,0.40613438976446775,0.0883166545455509,0.018745436206987629,-0.046383092155794135,-0.30170086632553439,0.2212374018913337,0.33703578869460016,-0.11876644800227734
254,3048,579.4000,-0.19913406197374753,0.13829971241953579,-0.033651998638162872,-0.082342995346085121,-0.23143114515496777,0.20089429735066519,-0.58180117839975765,0.24039791593124432,0.40632038363294487,0.087810689601736158,0.018613960528257641,-0.045731732111237683,-0.30187957848041785,0.22146479937011929,0.33689556562198952,-0.1190770373752022
255,3060,579.4000,-0.19910885187972355,0.13844095141497723,-0.033268458097622564,-0.08263710048714222,-0.23143833230106295,0.20032852639951682,-0.58183337065235474,0.24065670901491629,0.40647235309638607,0.087759917387790515,0.018708845762249297,-0.046409147271455953,-0.30190866364199387,0.22115885597793136,0.336880057287451,-0.11889576910480459
256,3072,579.4000,-0.19888436769939535,0.13837987159246906,-0.033499315547693809,-0.0823161785275211,-0.23149832658659908,0.20084814703537993,-0.58216010318860145,0.24077497422515443,0.40621430054962288,0.087832897175450453,0.018595398701558095,-0.046265752484039281,-0.30173336556359703,0.22077247210589968,0.33685132477364327,-0.1188186869501706
257,3084,579.3960,-0.19878716776276673,0.13804346954687313,-0.033441389749184841,-0.08202068843655988,-0.23123860298147797,0.20094740975976619,-0.58200020436739386,0.24035409992257561,0.40623829822232987,0.087930882704340352,0.018160796375253595,-0.04613052392152496,-0.30196293551177239,0.22104102202668627,0.33729267092648973,-0.11919690546690977
258,3096,579.3940,-0.19909063051036269,0.13807120404081333,-0.033170990926627612,-0.082037128099934339,-0.23104449135761473,0.20115995478026846,-0.58177228776797907,0.2403781019814395,0.40608514904537374,0.0882454014731272,0.018759744622126522,-0.04622213928829122,-0.30202536521324636,0.22108930673675128,0.337441726412932,-0.11929347979875272
259,3108,579.4040,-0.19915821738900866,0.1378728542709039,-0.033060787352332671,-0.08237705973400461,-0.23106357053502985,0.20075028258359723,-0.58170436787334112,0.24029426603720805,0.40636045377629837,0.088292047948383315,0.018755761351421797,-0.046170893838649925,-0.30185751924142262,0.22105040664702796,0.33767937601271447,-0.11923723980148707
260,3120,579.3980,-0.1992733019738836,0.13811260556566377,-0.033044141952868908,-0.082293143709234642,-0.23100092218304913,0.20054001279865036,-0.5814744740361607,0.24027303560031188,0.40626431113186662,0.088236140837368957,0.018690754829980033,-0.046453951996603168,-0.30181395852345833,0.22121252451856679,0.33805744492320766,-0.11947316654022916
261,3132,579.3980,-0.19934994295954497,0.13797806346467231,-0.033025042691060914,-0.0821580426866895,-0.23111774609994329,0.20058329189004384,-0.581353152575687,0.23989195646613998,0.40643215616654266,0.088149263614342277,0.018966551700713374,-0.045722510717563607,-0.30186783699845432,0.22143366534689496,0.338156595055853,-0.11956439390745506
262,3144,579.3940,-0.19923309072068518,0.13790077033927906,-0.033250950090249788,-0.0817124475653079,-0.23145877757927405,0.20085771930644633,-0.58138724444184542,0.24027491101842896,0.40628177378299313,0.088126994215821722,0.019079218965510892,-0.045575995403668405,-0.3017843666794745,0.22148440361642197,0.3378246453704,-0.11965380226517698
263,3156,579.4060,-0.1994183547324887,0.13806750363663942,-0.03340627476403836,-0.081601403749900048,-0.23119522311096077,0.20092255310078092,-0.58116279879156962,0.23996591115511551,0.40670706514258537,0.088207385772479108,0.019256228316048042,-0.045506710984909493,-0.30162426489355465,0.22133973887570926,0.33817343872194006,-0.11947997070338143
264,3168,579.3940,-0.19973266273582133,0.13818332465144043,-0.0333867864092531,-0.081551300203258986,-0.23110099816421628,0.20117996759957102,-0.58105803651703758,0.2397724122573193,0.4067372501602326,0.0882751546295455,0.019373053668347157,-0.045243431716079932,-0.30146439007992881,0.22152793981843086,0.3382007195503024,-0.11941423277549626
265,3180,579.4100,-0.19973040384908461,0.13846699574468616,-0.033768876887587645,-0.0812266027876192,-0.23101590652662155,0.20121197790497672,-0.58117795376602155,0.23977921873102553,0.40668138573204415,0.087905435367578541,0.019567878559537209,-0.04509697667572414,-0.3014074536429629,0.22177981052227749,0.33803731110865815,-0.11933420876661006
266,3192,579.4040,-0.19974108296373827,0.13832667714080313,-0.033804397313946632,-0.081466526102156128,-0.23159570397270204,0.20108271963330979,-0.58105229250999935,0.23977616809322186,0.40682910222885021,0.088192128708690656,0.019606622845493325,-0.045386040440237856,-0.30133599707966824,0.22123950129760486,0.33808521082508936,-0.11923513194289775
267,3204,579.4120,-0.19978604043582274,0.13825547570444019,-0.033782565224139853,-0.081347480464746616,-0.23153569625541529,0.2010134693984052,-0.58068325218178773,0.23978630907893214,0.40713226389105617,0.087850337704665452,0.019897888398647291,-0.045125651848052679,-0.30153271168889006,0.22120631868253796,0.33833379590611767,-0.11947412420296839
268,3216,579.3980,-0.19977218845784156,0.13839969675207683,-0.034117776818665319,-0.081112861610239284,-0.23166936256913526,0.20109098465708403,-0.58087521128889286,0.23983007781821672,0.40685905145170792,0.087930926930674141,0.020239767929820011,-0.045055349406625492,-0.30142054466670049,0.22123210055787323,0.33817916416085869,-0.11949887957447292
269,3228,579.4020,-0.19967483291297772,0.13837854955969739,-0.03419431103052592,-0.081108115712678258,-0.2316475364702007,0.20103254784438621,-0.58092283312270976,0.2398713746153531,0.40672400039531514,0.087500032300527469,0.020421409301833705,-0.044979616351420559,-0.30183378765456642,0.22146537936250626,0.33789275814631453,-0.11960199945087857
270,3240,579.4020,-0.19971430584740296,0.13864119248092541,-0.033795623175956843,-0.081371095889057748,-0.23156372034413877,0.200629039771798,-0.58083013152675689,0.2396597461514561,0.40663743810023284,0.087646132225895942,0.020314324957158455,-0.045170005517523155,-0.30206604791481,0.22161324319811446,0.33802368104719027,-0.11978187195084188
271,3252,579.3880,-0.19953743441896779,0.13843845661169935,-0.033756951213516087,-0.08140127612316797,-0.23135298916946076,0.20075141669445445,-0.581034413485684,0.23938493324407345,0.4067204020919748,0.08756320278929329,0.020546964366452151,-0.044779875539759942,-0.3022162637151824,0.22168847559773405,0.33788844840133764,-0.11981484773258616
272,3264,579.4000,-0.19995319442104906,0.1381659683915723,-0.033507954718045276,-0.081483574863400174,-0.23130544430433808,0.20069697091422953,-0.58112569472557085,0.23949206029457587,0.40683588763370288,0.087672314954341871,0.020401785609859766,-0.044111024408853942,-0.30201609044292294,0.22139654323720559,0.3379429550361373,-0.1196642022155351
273,3276,579.3960,-0.19996444028108146,0.13790238936455013,-0.033652823792702589,-0.081028690662480626,-0.23168367177840543,0.20117131230916807,-0.58118097750912756,0.23933908908866888,0.40692793416022743,0.087240508391830063,0.020001577828114687,-0.044272786528091454,-0.30204321214438762,0.2211936067624127,0.33779014512074529,-0.11947738234166268
274,3288,579.4020,-0.2000040884315239,0.13777505266170792,-0.033526338777916852,-0.081117961057923654,-0.23155296154566513,0.201160312950693,-0.58095645753960368,0.23962823720114165,0.40701620283110218,0.086962439535476457,0.0196866675612338,-0.0448056026698835,-0.30240990510631083,0.22142619035905822,0.33754778830896354,-0.1193983544346981
275,3300,579.3960,-0.19989829893584452,0.13763359790439558,-0.033629462417795693,-0.081442467626707676,-0.23133480881164339,0.20122981936728956,-0.581184323321324,0.2399419664531881,0.40699122344296029,0.086362704567805565,0.019591526999572572,-0.045070114041141029,-0.3023989695921343,0.22134187908844644,0.33736681265287383,-0.11918365556023151
276,3312,579.3960,-0.20005373271073587,0.13788609375299896,-0.033380009228903953,-0.081418566258189717,-0.23170823683058855,0.20121311020048449,-0.58055285843890858,0.23969457821054246,0.4072990698701251,0.086209619219905442,0.019626820411484808,-0.044624985062916012,-0.30248802476812359,0.22162157252992137,0.3376286061620542,-0.11933374037361318
277,3324,579.4020,-0.20025515446242526,0.13785001022282667,-0.033963426604243944,-0.081205713431227872,-0.23154232159925622,0.20157996202856412,-0.58071149819655754,0.23943070863835614,0.40697615146290494,0.086480997957033262,0.019717203548399877,-0.043941889845826337,-0.30239250283723168,0.22157830289696778,0.33787105687893104,-0.11925748177296833
278,3336,579.3920,-0.20036858989260259,0.13792059896127123,-0.03390734863715323,-0.080829849846662583,-0.23160595399198969,0.20169667551464013,-0.5804283812223695,0.23940466576413508,0.4070387219109744,0.086555851179290072,0.019688025975226606,-0.044124488574431048,-0.30252664037425053,0.22160889952634757,0.337947294757896,-0.11942476327041555
279,3348,579.3960,-0.20007117581031414,0.13790112357426479,-0.034011699758987851,-0.080910316824872083,-0.2317846155727751,0.20160543541491821,-0.58052882485744739,0.23910108250854251,0.40689899253746148,0.086292929859104153,0.019563484512447035,-0.044547170357700616,-0.30262430556798142,0.22154187270277517,0.33813358915999747,-0.11966959912617091
280,3360,579.3980,-0.19993455273632019,0.13825177230257696,-0.034151004532918215,-0.080803259255955648,-0.23191578996678891,0.20180547552781142,-0.58028782815206859,0.2391578175492178,0.4071711433537834,0.086210374250064989,0.019407367536759649,-0.04486054720046,-0.30289662093269987,0.22123821865895446,0.33794100527028714,-0.11944552287117433
281,3372,579.3940,-0.20013764934385717,0.13845683179031962,-0.033857457080378225,-0.080959768354048708,-0.23173734289495224,0.20166624856108048,-0.58057412343564874,0.23924792131288167,0.40666193286534519,0.086475521478778142,0.019286851349621936,-0.045451728995984909,-0.30298086520318435,0.22122466685116104,0.33779395741724594,-0.11942310699417449
282,3384,579.3980,-0.20004412698405333,0.138248388444181,-0.033895913598142313,-0.08089393426210606,-0.23159333195442919,0.20183718233809758,-0.58058518130218384,0.23922957530384376,0.40661884387904856,0.086416385208170021,0.018976650702514534,-0.045433011561719056,-0.30310287828713306,0.22130559728677865,0.33788270148725957,-0.11936504843407358
283,3396,579.3920,-0.20042189924508194,0.13825594692474322,-0.033917504169957848,-0.080819165129731627,-0.23179261285608591,0.20194790680405841,-0.58067509623435676,0.23882583915184491,0.40659148425168207,0.086382375693862257,0.019354414544476416,-0.045626807271513851,-0.30295683741717927,0.22105954276034065,0.33782590218446606,-0.11953282542021745
284,3408,579.4020,-0.20056417069215834,0.13838676116917908,-0.034092147192254,-0.080749774732317259,-0.23173482373153018,0.20223396870126328,-0.580736389823549,0.23922618249316308,0.40650154281640033,0.086322012426840011,0.019472155886520334,-0.04620952092397352,-0.30292056546438056,0.22068161002931835,0.33752650000335477,-0.11941500765231057
285,3420,579.4080,-0.20035713998445492,0.13824350027954591,-0.0342635907615353,-0.080754661473949621,-0.23175407265791934,0.20218943034111611,-0.58069075509919221,0.23912749748303885,0.40647572855366576,0.086196604992181514,0.01907063468931414,-0.046296710365322909,-0.30305691362046111,0.22048887827875979,0.33791889950367043,-0.11944240178994793
286,3432,579.4040,-0.2004400081129159,0.13818351789299338,-0.034075284123898715,-0.0808279777394203,-0.231578366399118,0.20197643929767248,-0.58058499126977714,0.23921214361437107,0.40635763056354696,0.0862766131581703,0.019115573941513208,-0.046214792626523893,-0.30308641559579363,0.22092735397210733,0.33799566213960369,-0.11969098881682647
