Generation,CountEval,Fitness,phi.proc.1,phi.startTime.1,phi.endTime.1,phi.jobOps.1,phi.arrival.1,phi.procTotal.1,phi.wait.1,phi.mac.1,phi.macOps.1,phi.macFree.1,phi.makespan.1,phi.step.1,phi.slotReduced.1,phi.slots.1,phi.slotsTotal.1,phi.wrmMac.1,phi.wrmJob.1,phi.wrmTotal.1
1,12,516.346,0.283427197465163,0.251290526667438,0.0619455048476279,0.122613464262881,0.350954425974096,0.234672550464136,0.0710959630380066,0.107897916077736,0.340456720920654,0.0686445050663532,0.208214454097607,0.0810947327683477,0.145912908648118,0.344591109117244,0.0174909334375928,0.131755637450343,0.313866026232142,0.0559211613069538
2,24,514.674,0.0770032259261179,0.025504800797464,-0.23596676919597,0.0139205137412415,0.2065221103314,0.0165724152311263,0.0146956645375382,-0.0414083176223303,0.248359473869506,0.232049536157836,0.113660441199068,0.222014246482986,0.306978592355696,0.193376165381914,-0.158841871786708,0.0068762250532175,0.256575365745226,-0.197171723526269
3,36,509.868,-0.257234498553282,-0.0565295801541626,-0.131882494850174,0.0565344110611851,-0.122786346871076,-0.0620773653211214,0.0785923484858012,-0.108267163123034,0.0407831727468113,0.0214723219939245,-0.170887587896197,0.271981015107722,0.279287170749708,-0.0130352164771137,-0.0826521530054533,-0.153959701801511,-0.0767782983744186,-0.173375918504767
4,48,512.076,-0.181438073105563,-0.0407247907443836,-0.257834514259775,-0.0264143654756994,0.0467107702746913,-0.145672903966618,0.183983885021978,0.0854989081004772,-0.0880560477738012,-0.12294582536346,-0.261870521901301,0.13756167608781,0.207862881725815,-0.0916638885974355,-0.205430819955394,-0.0960855653848914,-0.290471279580844,0.0113544257885475
5,60,510.032,-0.0181851395185524,0.0490898799213179,-0.301839800755649,0.0752896798985276,-0.0526506972654417,0.0513515564270873,0.197862694310462,0.186596645608244,0.0321837730731382,-0.163672778607614,-0.316381530580616,0.20609619023754,-0.0830901678179814,0.0705210464920959,-0.144151881574801,-0.179541482570035,-0.105729682866867,-0.040017412727125
6,72,509.604,-0.0173539718855608,0.0604922411702073,-0.303013929082185,0.119120442163823,-0.274401750922837,0.153073715021712,-0.127293864097749,-0.0204946825065241,-0.190297082527665,-0.20061825377719,-0.27346914721179,0.198472157673435,-0.00134436724775671,0.206626031310481,-0.0961365804946715,-0.0913948100138491,-0.0879784401244593,-0.000273584482258643
7,84,510.826,-0.018106224099833,0.0608630117302243,-0.395279462327949,0.0494151947020659,-0.263887392124815,0.144310453974482,0.0591097411416224,0.12274212627875,-0.268861677083463,-0.245303172540598,-0.246106218221666,0.152933196479535,0.0251798154061998,0.0160802397535428,-0.203005269631379,-0.0343547350991471,-0.162418120545831,0.0176146923722443
8,96,509.646,-0.0534278537312947,0.0338038457659441,-0.293619536761491,0.23103976818833,-0.0982928951105123,0.14191054205449,-0.193925874185036,0.0956365409987084,-0.0301615162784711,-0.097485453452753,-0.265284826829201,0.0559121134146065,-0.137845562000066,-0.290209017717675,-0.0629530581248126,0.0180752637999905,-0.0440570692622175,0.104767069895886
9,108,509.508,-0.142943735946251,-0.0820430538875538,-0.220254655955575,0.108737089435014,0.0860798141759127,0.0561183811012274,-0.306809818331268,-0.0646250176016276,0.203851379649734,-0.055285051903817,-0.332537898555604,-0.0960839349500749,-0.0685560857206474,-0.153576887612097,-0.110436202739454,0.0997008177503189,0.0758278675852017,0.0792988325656332
10,120,509.966,-0.272381607840005,-0.0709163569949903,-0.317560737371799,0.0404636335166209,0.0979015617042821,0.187246504831239,-0.0690241422158333,-0.240516310906136,0.0828693524256002,-0.137957858154969,-0.30945915810389,-0.151468555874919,-0.230481725772868,-0.0481211545136326,-0.0612726012997895,0.144379282891894,-0.0566831879084436,-0.0886544858251485
11,132,509.966,-0.313213385875626,-0.0756793375999957,-0.24361574244951,-0.0159798546800889,0.115738600103424,0.23571077235761,-0.213154884667642,-0.130332658961265,0.0703029439810502,-0.294140697584799,-0.282650609541183,-0.100008226508195,-0.0922233451658472,-0.115585959807851,-0.163280885917908,0.0373852390387176,-0.102338780223722,0.0855958256222422
12,144,509.87,-0.259460943020726,-0.036815841833896,-0.138542634553248,0.06169121053536,-0.0241487305372277,0.367229967225889,-0.275166895739488,-0.0243009350930605,0.106623096490828,-0.260020867218268,-0.360693427423018,-0.0325572921012579,0.0914872090149436,-0.00515136873953929,0.064767148177841,0.0861223111231135,-0.0984833301816968,-0.218949308728299
13,156,509.292,-0.0447909240556362,0.122762090631256,-0.151766352386015,-0.195345009878952,0.0792156083769021,0.229521688760355,-0.0646319284424984,-0.094916165626527,0.0929735437662077,-0.330416008394996,-0.23214327532909,-0.0217430387402031,0.0365849765276889,-0.0777790000693306,0.0862799505034066,0.311134721134643,-0.118409078184949,-0.302333418750731
14,168,509.996,-0.187135692050288,0.0044030562838812,0.124719619888641,-0.0283747156934628,-0.09639763981818,0.174493759503858,0.00436641006537134,0.0467353178594326,0.0287715359488126,-0.360508337939218,-0.311479137080176,0.125530046928219,0.172504663859564,-0.00197065954652433,0.0338241201304273,0.300536496228617,-0.122628630736338,-0.187540707363694
15,180,509.856,-0.0855920753015024,0.0705127499363666,0.0228173610431781,-0.152693581047901,-0.0784245004169816,0.216774152239405,0.0836885196049247,-0.134362262105219,-0.00543331661937576,-0.400268488425368,-0.315405682278866,0.09726726504148,0.290702461048052,-0.191343948575811,-0.101712900388817,0.174120493913592,-0.0879911512789881,-0.175206426617882
16,192,509.946,-0.240210749804046,-0.0349425697892394,0.0757190080919246,-0.191469497841853,-0.118345891244334,0.225743703802865,0.00500867074101758,-0.109453771691469,-0.0358985560080034,-0.357930923566398,-0.186864897089727,0.050950773892993,0.262975964870433,-0.319627821060539,-0.121183460810839,0.00388950043917281,-0.0917060379126348,-0.3366597885151
17,204,509.86,-0.357166438234024,-0.0265585319789431,0.119269736984341,-0.230689686358063,0.0187301163937534,0.196880902629278,0.0378719950114899,-0.268558812285515,0.007443133927279,-0.349616643583434,-0.0679234557365448,-0.206954158410737,0.238408425937766,-0.270961462508287,-0.170146135121974,0.161094974214346,-0.0765122412271855,-0.234724023502215
18,216,509.926,-0.272551186948431,-0.0444197671245894,-0.0190720453456588,-0.137226062420416,0.043646603586161,0.12612365977886,0.174584255864031,-0.309906064351125,-0.0338256930437668,-0.283830829823326,-0.306285176866773,-0.217425026833752,0.166954529798462,-0.184363290249126,-0.25132825911639,0.101812982055294,0.0455784719171171,-0.162199358382309
19,228,509.836,-0.227828989595688,-0.0662695980742329,-0.00445401677250902,-0.0986533002575941,-0.0566621063904248,0.174141680901809,0.165681615401167,-0.325570514037268,-0.0296523894801983,-0.292440620180997,-0.410294307610454,-0.178859784953066,0.163885418816914,-0.347579766149781,-0.237972857338151,0.0191613001397642,0.019126735993627,-0.212155601521751
20,240,509.836,-0.170212544749911,-0.0515654198329114,-0.00407762932430431,-0.0127261677335091,-0.208587934496852,0.218339626199576,0.113123586587621,-0.266603628798787,-0.0254928273746481,-0.173979475950461,-0.367676562139106,-0.253235523673938,0.0862595364441371,-0.306446691513538,-0.238776685702266,-0.167391215119322,-0.0968448437881589,-0.196503035364601
21,252,509.958,-0.0142489132907996,-0.0939540045533456,-0.0476877691081721,0.0136140697465965,-0.238691167662301,0.219375123452068,0.0466665448164874,-0.237021049633731,-0.0349456824383713,-0.195365693710307,-0.301803996098408,-0.405661778831247,0.0548477986788628,-0.398033389466338,-0.219066919667949,-0.178242336734146,-0.0951091731912047,-0.223793117589484
22,264,509.946,-0.0760611091808395,-0.00724970293746146,-0.0592996710983121,0.0154502208575527,-0.187642247342139,0.222809106391822,0.0584526411341635,-0.230881199616928,-0.0628933420239199,-0.210540285145235,-0.297877818842421,-0.361003252393771,0.0823805612675906,-0.437114760648828,-0.236056824678026,-0.371895104086471,-0.0477290459607422,-0.209457196908529
23,276,509.828,-0.137135960276688,-0.0839289197833014,-0.0256392051736954,-0.0225608386747891,-0.169243553401518,0.148056425082779,0.115788238680964,-0.126472934493614,-0.0156772934537905,-0.338827080863154,-0.18616638331417,-0.403018067462129,0.0842530939774263,-0.448514574335493,-0.175899216664343,-0.325202536050916,0.00605870145719527,-0.238320687577968
24,288,510.026,-0.130960254408728,-0.0974926612754674,-0.0719751902486341,-0.0145144660694214,-0.13552230737619,0.235108620038532,0.142856686118381,-0.170021462712702,0.00282518450051301,-0.36287940785623,-0.173334789400237,-0.341573626277512,0.0139883453705398,-0.482955386932055,-0.160925556934054,-0.291494909876471,-0.0720811655244972,-0.142390966356816
25,300,509.836,-0.117149524337448,-0.202576192078458,0.0433875030384987,-0.0221379351081923,-0.126831889014394,0.266324357142596,0.0274382485237687,-0.0776914232989822,-0.0400036025749211,-0.382732597813722,-0.236487770593955,-0.329398229754177,0.0239703563533748,-0.385523566733974,-0.0784069840274386,-0.425608588665988,-0.11428532976826,-0.137220364275655
26,312,509.946,-0.10221832449138,-0.234374246291692,-0.0825121230910386,0.0639977914157063,-0.155913604944735,0.274394065325266,-0.00809750500041261,-0.0943345836746481,0.0841148509695854,-0.354648285045398,-0.214752153262293,-0.231204836322152,0.120385735820084,-0.42519014531996,-0.155905582216853,-0.456227616600881,-0.119318241188722,-0.0707887295791015
27,324,509.9,-0.138069561487191,-0.244542534323834,-0.0165127590569557,0.0921898576201392,-0.206300169497906,0.271792939392245,-0.0509437744005012,-0.167439311727992,0.124276981202915,-0.361980618476576,-0.182154575638775,-0.192661114731002,0.057787436545006,-0.413255295481319,-0.134436059994699,-0.449253155313679,-0.11174010517659,-0.0329996391919782
28,336,509.956,-0.135369278694598,-0.159779917210069,-0.0160332761133478,0.0205579137969734,-0.175793784342677,0.309138984577188,-0.0671864786454327,-0.154039070009639,0.096065583682671,-0.411727827662701,-0.254554661465193,-0.211808535930452,0.0366618888379956,-0.349914869100182,-0.145981694947263,-0.492271121819391,-0.12236161928317,-0.0221556536883156
29,348,509.836,-0.18691698119706,-0.226232033280887,-0.0579155004512372,0.04310152922486,-0.220623483166983,0.257662191959918,-0.0889504817075796,-0.159112157119853,0.117142394673808,-0.391359340546751,-0.250933726305599,-0.164203386171473,0.000186535060820712,-0.331523468672918,-0.18819850728572,-0.501154429869197,-0.0558552404456511,-0.0714313088694352
30,360,509.836,-0.219841859182038,-0.243164798388295,-0.0660624014906132,0.0666599190047242,-0.13926135058214,0.222516604395124,-0.0614664645277059,-0.153429235381391,0.121504273572249,-0.430074555211145,-0.204427589446246,-0.132722986831881,-0.0290169546862932,-0.327058494201546,-0.100341817398233,-0.531953980132643,-0.0125719730156034,-0.141024713042712
31,372,509.856,-0.287306342214339,-0.235746219289433,-0.12585672458583,0.0915328368213826,-0.171817645946722,0.256551319970197,-0.0390100989524705,-0.133722423646534,0.142985600546489,-0.464794654089895,-0.232140424715393,-0.106382064856949,-0.0379264248541885,-0.247151693084654,-0.162429842629017,-0.433080485237093,0.0281530260172408,-0.138473000084743
32,384,509.822,-0.343966249967624,-0.0745747026529468,-0.120315685274935,0.136263200938707,-0.247930513115906,0.288237754754898,0.0137076574797225,-0.146809039508276,0.0746976471420381,-0.446968007113944,-0.298261224988507,-0.0709151717735962,-0.0972461344371602,-0.288094326934919,-0.140889288805219,-0.31660523096774,-0.0211164913327343,-0.179066373634709
33,396,509.822,-0.382748668958909,-0.112407706291225,-0.164788447019674,0.167489636379789,-0.244411982729873,0.338566386581071,0.0350840981777119,-0.142340185219828,0.0797750535132513,-0.344779024448377,-0.296768505777372,-0.0817739884065327,-0.156696549685166,-0.237196586293292,-0.0971023830789853,-0.303392975609842,-0.0584996489781584,-0.246664709046065
34,408,509.92,-0.34772000964912,-0.0699714395136693,-0.0697021006221532,0.157735188800515,-0.30703856268947,0.285073874542146,0.107925228782755,-0.0942737324672512,0.118259030049778,-0.300120828107001,-0.393772410048762,-0.132344828347042,-0.157975519937709,-0.191507639584105,-0.093203948546289,-0.338402000215786,-0.0316410398124036,-0.267195366529955
35,420,509.918,-0.377069353929575,-0.156538413266751,-0.106079943025859,0.108242011059816,-0.26405138626739,0.287880760410786,0.0608297579066929,-0.0713661240008013,0.170764238477442,-0.30945929953327,-0.354268634823852,-0.174113527691787,-0.124589823970758,-0.234570204160291,-0.127413551192165,-0.369830868071735,0.00466940864985341,-0.23217190606035
36,432,509.868,-0.393519086421796,-0.183553208083872,-0.120902643158146,0.151698586160441,-0.275037019195087,0.22734692393077,0.0647022512833529,-0.0645080276792944,0.121827412072785,-0.301738901354262,-0.366905793623624,-0.140311967981655,-0.187764302588435,-0.190038493357171,-0.127863979321017,-0.369922441417445,0.0226403601147838,-0.274455298993583
37,444,509.914,-0.417122805457894,-0.235996564140618,-0.112884919556109,0.130515479629345,-0.25209816542358,0.203529364760264,0.042130843613819,-0.0344569360739391,0.107453670979271,-0.374511191692431,-0.347089604871542,-0.161686014081695,-0.184429848407029,-0.169285868337543,-0.143650091011023,-0.29656973913474,0.0601630475197412,-0.264209767232049
38,456,509.868,-0.385543811036872,-0.25627565991732,-0.0854399214246139,0.147773494599965,-0.209187901033076,0.220837896593827,0.0448761755076205,0.0116670265578869,0.0985422595632486,-0.350249204945832,-0.38278203253097,-0.08659450633883,-0.209388938887632,-0.217632064363828,-0.125987572648065,-0.289134468186197,0.0409444626408168,-0.321858353428272
39,468,509.836,-0.432423193977777,-0.238005017998791,-0.162817943053521,0.159295024374532,-0.224875369912509,0.237509957949712,0.054504499182144,0.00639766973182137,0.0724661713016565,-0.297453984519034,-0.376513484607842,-0.0677256877997697,-0.263878747394101,-0.202158326248737,-0.13699316576604,-0.251156528629141,0.049469446132998,-0.329150690885203
40,480,509.826,-0.432071981436414,-0.245144419536751,-0.181848275884924,0.108875632351625,-0.295944082458394,0.21717714817881,0.0376081570547428,0.00132403216529621,0.0594831404275366,-0.235807259355664,-0.395946252389923,-0.0909717444286435,-0.251235151484293,-0.236617438930436,-0.136931500398321,-0.175580084674593,0.0719632995128664,-0.332909178465847
41,492,509.832,-0.377159703366383,-0.242219507976587,-0.110956653189718,0.174017098188602,-0.328245179173244,0.211686045503548,0.0218743980279726,0.0422201359245943,0.091426871502049,-0.238186266554369,-0.411998560832377,-0.122654469493156,-0.232464820765587,-0.214719556330326,-0.108540512892462,-0.191371754081662,0.035383451328618,-0.330005345321613
42,504,509.822,-0.432968161202806,-0.288619868323647,-0.0783944680596992,0.168791479629396,-0.229622577877792,0.222458119904368,0.0148076016750419,0.0473748363722364,-0.00389203417176035,-0.292540238976191,-0.391952661890007,-0.130764569257905,-0.274702504701243,-0.176859373382829,-0.118325650861725,-0.24637695166239,0.053960021761752,-0.287548567551942
43,516,509.87,-0.499268384048408,-0.261185428163261,-0.062233310497278,0.147856018397062,-0.222423257471145,0.24580686830262,0.0479316862393151,-0.000269925904772679,0.0291549188199007,-0.282330909045686,-0.349302324525157,-0.11671523408772,-0.248291246235359,-0.201051571142548,-0.0868746804626913,-0.209065592686795,0.065821901657785,-0.324731395970796
44,528,509.822,-0.531586476176244,-0.282360417893086,-0.0483156107459094,0.142121807856527,-0.211259189391665,0.218329044282978,-0.0314389707862613,-0.0483328699756668,0.00855741938411975,-0.246936854849747,-0.394978987495098,-0.111807648027006,-0.246942144079361,-0.120380370469788,-0.0514608052101511,-0.238794333190323,0.0542410805236158,-0.308463646422934
45,540,509.87,-0.499043007883418,-0.340389285775649,-0.0489881758662743,0.113202428351555,-0.162247861224017,0.232111540761598,0.00610152573833522,-0.0142356956218589,0.0139950297328112,-0.222599258684683,-0.451385866280495,-0.0223883567665089,-0.179863283876363,-0.117406099027957,-0.0160632237878305,-0.214154195398468,0.06588615519901,-0.341109189709104
46,552,509.868,-0.550399086034693,-0.327899959991321,-0.098250338987185,0.131751762863717,-0.164544185485076,0.208698041347518,-0.00589202380065714,-0.0455360559065764,0.0171779049507728,-0.173547782632996,-0.457088581987337,0.00813866323619114,-0.129027649770551,-0.147709749072302,-0.0132242585517227,-0.258080100532785,0.0968405744863136,-0.273538904987424
47,564,509.832,-0.591303206136384,-0.325649561378346,-0.129811094181739,0.156466142202892,-0.153453677763984,0.240120179848982,-0.02632210884351,-0.00808017525832079,0.0206919078031636,-0.167814234704431,-0.426947182087769,-0.0251775617926405,-0.151600593762628,-0.169299472541254,0.0146416868134288,-0.21746161020736,0.0745083559866192,-0.225563741062745
48,576,509.822,-0.566849825047013,-0.347124039508187,-0.146074005551053,0.117567738167261,-0.173005261368855,0.257154880331827,-0.0326893174668705,0.0603699178898402,0.0395474705070442,-0.205612408374078,-0.420272223694076,0.0512386787444703,-0.173624960627903,-0.171560234412585,0.0136508500228047,-0.184617114556568,0.0658730473317376,-0.213552047784602
49,588,509.836,-0.590285406518601,-0.347515847135712,-0.154489855810134,0.0911705117388627,-0.159048176060781,0.240496891015883,-0.0769366992815684,-0.0220967822852125,0.0387493954860394,-0.174295783372881,-0.425309596238075,0.080977713649027,-0.140083063170541,-0.176072988570025,0.0687749444423138,-0.203415816632022,0.0816750093196358,-0.161857702523617
50,600,509.854,-0.577336858472549,-0.351185460655028,-0.121603343202008,0.108582339111533,-0.17081281625154,0.299430441578554,-0.0837050360045192,-0.0264338580054411,0.0280474207262052,-0.116817667010048,-0.455057614760427,0.0117109438391989,-0.132989681479664,-0.168599432907907,0.123090373069512,-0.186559418093359,0.0229000675692779,-0.144538698674505
51,612,509.836,-0.567285694871878,-0.281704958586399,-0.0930956562110824,0.0634039887666532,-0.156723897138622,0.321015511916687,-0.0929729339870544,-0.0361952174062224,0.0374091502672524,-0.117389550803123,-0.490030113474263,0.0149443666966164,-0.157027570593196,-0.147551663836966,0.135459038629734,-0.203306681564557,-0.0227704494529619,-0.195303669613524
52,624,509.688,-0.528025076252478,-0.353108674111711,-0.101804504993477,0.0738970187943102,-0.15609880083069,0.306847720331615,-0.121824020045507,0.0033324623481044,0.0196903501964093,-0.178785073813048,-0.437654043881778,0.0219354644412855,-0.193925538822458,-0.146835228096013,0.153705668993897,-0.149082074314298,-0.0443473720729977,-0.209374457004024
53,636,509.744,-0.512673115796717,-0.416398307359767,-0.0893602331199373,0.0867727597244038,-0.122749867232455,0.266360318823719,-0.146971611770977,-0.00415167557142873,0.000147407785086239,-0.142914658935373,-0.4524486815037,0.0245674864006862,-0.222667261448341,-0.175049207332938,0.141061365781374,-0.13133985549419,-0.0458076657703316,-0.232494706228266
54,648,509.406,-0.521475091463079,-0.403164332147624,-0.0561624174020699,0.116972877722631,-0.108700274972315,0.290266335280817,-0.190691958461895,0.0275849450299401,0.0187449302934227,-0.127493028177937,-0.43182402545407,0.0657062619707219,-0.227111167408652,-0.130323121473476,0.099397501988099,-0.0984430413782008,-0.0328723240895602,-0.2662479478308
55,660,509.292,-0.532054251849014,-0.436426869652502,-0.0308206530183957,0.09933766706633,-0.140311243312259,0.296546837944009,-0.201585219595512,-0.00713672496398155,0.0299675484345095,-0.0948979948997483,-0.378545261134459,0.065948804880878,-0.227505736513152,-0.134950288456683,0.163149630124091,-0.0340522275080746,-0.0609108310345111,-0.250207584749233
56,672,509.322,-0.531569326958175,-0.372007306037808,-0.0157626269063514,0.100473722958489,-0.198370382217685,0.348657597933838,-0.176905970337014,-0.0345544757537425,0.000557101275863365,-0.0815231525090813,-0.389200084934318,0.0839687171952582,-0.230429884117493,-0.15350153784402,0.162841573646521,0.0228285850969975,-0.127532730332662,-0.216759345457985
57,684,509.258,-0.49301811343823,-0.313253309881683,0.0294924657809015,0.101009050303081,-0.262629669908572,0.352558386284249,-0.173793530131367,-0.0615462582481423,-0.0666983121766922,-0.0844539744956493,-0.424772999690024,0.0815788373045618,-0.222879952697386,-0.159245061148114,0.175806000344072,-0.0253335079494831,-0.150477178052948,-0.195416102272216
58,696,509.156,-0.437294264016758,-0.338211527751503,0.0545221663105306,0.103450422336841,-0.194085737158615,0.378087736023828,-0.191461201012811,-0.0372484568504707,-0.0919671544589346,-0.079916175652756,-0.459889066115703,0.0733845681102637,-0.211832661928685,-0.175897758782724,0.228271285819408,-0.0213297354944442,-0.180856544597349,-0.182753300824329
59,708,509.418,-0.390914858937784,-0.336449778869296,0.0865068624669649,0.0669157025605291,-0.216413848724665,0.360884048006963,-0.198751749563787,-0.0200042034954537,-0.109415824575457,-0.0825924832389486,-0.43830107996057,0.0941800889022605,-0.166134483141086,-0.208593770646746,0.256837500090422,0.0244555293925795,-0.219181707663536,-0.175198563295033
60,720,509.172,-0.438611762819541,-0.32223667451522,0.0747185481759173,0.0279804388368916,-0.2502968912991,0.360009455167091,-0.160400797008471,-0.0479639120736643,-0.0908482267357791,-0.0525008959284315,-0.43631290564195,0.091424730589782,-0.155490715300913,-0.176219771173134,0.259930458866004,0.062498825411038,-0.209692765279689,-0.192693146215538
61,732,509.194,-0.445312312765368,-0.362776743642914,0.0846788741089946,0.0265338209424328,-0.224721918285393,0.326062892209844,-0.137509273549098,-0.0610867170987795,-0.052954027190814,-0.0787441358047101,-0.463652833408459,0.0672696299688778,-0.146852337123805,-0.199197228518466,0.279790326629435,0.0381846687559542,-0.172958933347474,-0.160016375747771
62,744,509.272,-0.41981057101065,-0.318897164260856,0.135821374251931,0.0312953010515155,-0.244627839697993,0.34237086255556,-0.106133592882481,-0.0985809050945428,-0.0216344418599052,-0.102475445984233,-0.443258307725908,0.0822533246913612,-0.136134391130901,-0.210189144412639,0.331468649466721,0.0204523602533945,-0.172160798042905,-0.155773146814087
63,756,509.308,-0.365730760089196,-0.324964652543476,0.154764279814367,0.0358645259200669,-0.287686256239974,0.348338820076275,-0.10716642122986,-0.0779735799039038,-0.0135417149278236,-0.145939587175053,-0.4459619118143,0.0175035675506033,-0.129596381476053,-0.165188776809187,0.367882805382295,0.0460811241717738,-0.202326131822768,-0.165418266585091
64,768,509.098,-0.329248115737199,-0.276173155558109,0.143410948545766,0.0559573380014766,-0.259516738698445,0.352476968279405,-0.0818469561871052,-0.0754763300730209,-0.0181399773590548,-0.132678445583363,-0.506586825577804,-0.000872774292549858,-0.111086387893509,-0.183411121875362,0.38382014391868,0.0469502291573065,-0.223822966698129,-0.150994807317112
65,780,509.31,-0.306554470498416,-0.329529320997037,0.16227256244302,0.0691003197373799,-0.274145223920587,0.373552221205927,-0.106950896718586,-0.0763613520575518,-0.0538344287387984,-0.129891652341504,-0.440313376144964,-0.0458730579686696,-0.10405168488074,-0.145832655632733,0.356414579584999,0.0625627586096793,-0.248904254508831,-0.170801002475347
66,792,509.276,-0.307158080659134,-0.360898529753498,0.146440122220293,0.0723009427169725,-0.261372381977416,0.365995238726173,-0.136867776787166,-0.067562433984838,-0.0937574021237731,-0.118942697304431,-0.424388073474736,-0.0421607315383878,-0.115435446129779,-0.138922874449082,0.347208839124854,0.123512985433014,-0.257776044251148,-0.167619878260848
67,804,509.044,-0.313195480723725,-0.373116016300818,0.181557663991867,0.083971436627083,-0.25721253092763,0.381249947393936,-0.120309357290789,-0.0320493382228463,-0.0568334791531447,-0.139540553079156,-0.405565221033303,-0.0599539811462199,-0.114808146175944,-0.169524863368581,0.293230394132262,0.167728061325018,-0.291398487269404,-0.175075463725526
68,816,509.324,-0.31600633126864,-0.304411164004188,0.16198411745818,0.0582237768770304,-0.222730867136635,0.371845866658122,-0.11772743239194,-0.0586124910808667,-0.0172251021404954,-0.0895250289622129,-0.398849976811135,-0.0181955771525336,-0.0514188717411752,-0.189233791261879,0.341321290663231,0.263924948749939,-0.290056951483438,-0.198621895276165
69,828,509.082,-0.25956873291676,-0.319001136373518,0.143136955454478,0.0819476293216464,-0.206812257297134,0.377754744792708,-0.115068254242493,-0.0787711441004403,-0.00362368258308588,-0.138517594409285,-0.4522344512806,-0.0415672428234877,-0.0421696461960345,-0.207279786579352,0.338842242829648,0.244053200612397,-0.286864849046816,-0.185185093208555
70,840,509.23,-0.257735392942839,-0.364142918247605,0.191429597360907,0.0756803967173191,-0.200443342038278,0.359808126159798,-0.158532995120572,-0.0780739811933347,-0.0079507775898018,-0.117497714629056,-0.444876958889499,-0.025339884499972,-0.0424377916527655,-0.203839407319289,0.338856571116391,0.209056262546999,-0.273572674579077,-0.181804787380869
71,852,508.982,-0.220999579259179,-0.348529378678752,0.20114862832507,0.0900608336551968,-0.23177322892791,0.353756510817005,-0.140065797342799,-0.0763971710728517,-0.0261946537808726,-0.125224877938742,-0.470568030509287,-0.0023980242237061,-0.0905020792387722,-0.217727058348504,0.29438507561699,0.203456768606923,-0.2872021020412,-0.195038939103464
72,864,509.01,-0.244002313712018,-0.347005338602453,0.205931575986203,0.10936524878691,-0.20732154916073,0.363723103695404,-0.136198076044189,-0.100586152442354,0.000649264285667487,-0.136278932278465,-0.434826266952111,0.0119742478340789,-0.0843807662822119,-0.305861334010277,0.251639397492632,0.190802714417916,-0.295638243499399,-0.15035371851311
73,876,509.056,-0.245157247233878,-0.367203032043724,0.197002989802965,0.10531342395181,-0.241312067632291,0.388026494623822,-0.0992442258221908,-0.106328666482404,0.0383711609963331,-0.133794036178627,-0.41003925445787,0.0211987584386471,-0.0722071996266177,-0.31850282483622,0.253094453715316,0.161154079036364,-0.304456786032672,-0.126501209862537
74,888,508.9,-0.220343858361376,-0.378159957672849,0.180593834839502,0.133988735674975,-0.23984769955741,0.38680592328031,-0.0846689318810138,-0.113639468417401,0.0692840458842612,-0.0993973674703043,-0.393360283909822,0.0150428561435031,-0.107690232013941,-0.318370062896817,0.240033148485842,0.202580088081306,-0.331276148265734,-0.126155747824209
75,900,509.022,-0.233411800450093,-0.378480139857837,0.117874267313563,0.139708231647551,-0.221254965676357,0.363875769006548,-0.0801113012365845,-0.146436115829602,0.0652193893206743,-0.0858202191602105,-0.444120359656615,-0.0321928319672582,-0.14907043115532,-0.315828924890951,0.215073175325717,0.192159824442238,-0.278688731515203,-0.181216205604219
76,912,509.028,-0.226802811309037,-0.390894075145928,0.127060866344525,0.0939039418863111,-0.194720477106376,0.349157070714,-0.100074360064227,-0.137817089484487,0.0738163982179853,-0.0900928760890247,-0.441669634759411,-0.0513514314238197,-0.142746058545885,-0.323080942429903,0.25809371631637,0.207807956966244,-0.270621617223729,-0.201620085573182
77,924,509.098,-0.227130096730639,-0.40627992116566,0.124385855689013,0.0752024819579187,-0.178886090723839,0.382209190580538,-0.107384893988972,-0.128468222025286,0.0823098929796193,-0.124176131155331,-0.438398541922851,-0.0114932279700828,-0.0932713221947372,-0.338684838363832,0.233166247007761,0.1455577246665,-0.280050247813334,-0.189981255188259
78,936,509.196,-0.15910988322142,-0.423242495388471,0.116166567921907,0.117226530229786,-0.180865597525867,0.407003372023085,-0.109030449596054,-0.136271694828149,0.150692392647255,-0.130265931915288,-0.408750097655033,-0.0264175086072859,-0.109123465493466,-0.322236151705373,0.205583319721543,0.128393181632851,-0.306410506460696,-0.192195129843017
79,948,508.866,-0.14194013574521,-0.409024915212747,0.078985981007548,0.0874660199599926,-0.156388079791277,0.387295197842002,-0.145306027025225,-0.155340406469825,0.108121122340596,-0.0939521844154219,-0.43759152225508,-0.0606871613020746,-0.147065513365152,-0.338251899842231,0.235191952325429,0.0884016279424579,-0.325634869444617,-0.196742838600813
80,960,508.928,-0.168192090130758,-0.399046634764439,0.109728382827223,0.0926151351121932,-0.1664968820906,0.378871267027617,-0.116919775284693,-0.156558122617961,0.085942612814254,-0.0843229041959459,-0.474346843266448,-0.065692271972641,-0.130075713407252,-0.314375319655658,0.203723746658117,0.117694019382189,-0.313095466919277,-0.22002857143945
81,972,508.828,-0.14793249770291,-0.417859853665032,0.153887326639606,0.109525576315987,-0.160899376771524,0.360941182241806,-0.117334665648931,-0.139520929864679,0.103789689877741,-0.14202659980161,-0.450028976001284,-0.0867183602934269,-0.11107005929582,-0.31025804662717,0.209944457839906,0.164474461007883,-0.306441475808005,-0.203941391901507
82,984,508.974,-0.165435541640958,-0.378423777150086,0.199691177609053,0.114295602975722,-0.158765104216078,0.355030619535153,-0.100277489385585,-0.157344651271644,0.137368874491084,-0.166294755775845,-0.46249058285654,-0.080805569662818,-0.135389260195687,-0.307089673696982,0.18982597203464,0.134777680414151,-0.283423254886602,-0.230740833342149
83,996,508.976,-0.139898633210186,-0.372510283605376,0.192431581270173,0.135429562456443,-0.113614731039736,0.355637749164414,-0.124753998381041,-0.139677393852091,0.135295610211354,-0.187054902058128,-0.466785007260782,-0.0550851540515238,-0.1776973481948,-0.300214533493905,0.18325260936693,0.154992814916889,-0.278142156186229,-0.248114501532232
84,1008,508.95,-0.148010457889541,-0.356171039981225,0.163247362293829,0.115814503586379,-0.0887315714889354,0.343511253475863,-0.12109501956149,-0.142530036506804,0.129320701368701,-0.197193674050183,-0.470538656630766,-0.0460754198924512,-0.187284611546299,-0.347404952660085,0.190574356148175,0.160063796954666,-0.271542227896525,-0.230121608557707
85,1020,508.986,-0.112133687420052,-0.365771311015617,0.185786521533461,0.174589208785231,-0.0797147088116681,0.340425843989395,-0.116351588425776,-0.113814718906277,0.115741778445653,-0.204658780913659,-0.473308436394795,-0.0707100832772495,-0.168662430507056,-0.350013248231199,0.163627907656101,0.178320020307992,-0.267220426991561,-0.222829086356209
86,1032,508.938,-0.13116606050496,-0.369245962442006,0.178375958560507,0.178570273483488,-0.076519484617394,0.340483947295363,-0.100254983215126,-0.0957642404300428,0.0823242191761507,-0.186489672793068,-0.464085626063978,-0.0843269225668773,-0.161604982429793,-0.39346634367541,0.159238717839192,0.180339404545234,-0.27771209984391,-0.190350635555094
87,1044,508.944,-0.111580436072996,-0.363542407701631,0.148848698784077,0.194074986649028,-0.0818088040840711,0.33922894033535,-0.133444806313628,-0.0725930669056464,0.0790023073279401,-0.188755509124572,-0.447481927767456,-0.0999960836625726,-0.178949285068527,-0.404784673448208,0.147889940679154,0.194704479131893,-0.27193881802484,-0.224703457976036
88,1056,508.97,-0.129849572420142,-0.351793566232439,0.144696177451524,0.203316574495935,-0.0660995909758656,0.346141745702739,-0.109351846377854,-0.102996240836831,0.100192328522814,-0.183021784237656,-0.45366706659788,-0.0954563840813659,-0.195093320815729,-0.400212550960331,0.143590173315095,0.15427848686133,-0.279108771199385,-0.227493659390363
89,1068,508.936,-0.140396596344317,-0.330123582651977,0.140753649193244,0.224078763816113,-0.068909570545616,0.354357872646693,-0.0852559674808105,-0.0971818476270217,0.103682348156336,-0.176817746364331,-0.46539913109715,-0.108896895885355,-0.208572254352218,-0.404249112037647,0.104694782897784,0.15380876666754,-0.279969555319953,-0.231022716426164
90,1080,508.992,-0.151303773571189,-0.325704824177891,0.109610885182027,0.215116016970711,-0.0360358555788641,0.3819916424159,-0.0999976117089678,-0.13177201696948,0.110396484177118,-0.192193939370387,-0.455940046605668,-0.0971388941178471,-0.209158822824365,-0.384066318331097,0.106702825321258,0.169362249948118,-0.27628642681685,-0.211731934816756
91,1092,508.966,-0.154515883928783,-0.28443212498253,0.104145425176473,0.225035094674363,-0.0373217782017666,0.363840644960236,-0.106293508206255,-0.136857520331359,0.114583277550464,-0.19640863426821,-0.496393090884778,-0.106611091352941,-0.204752619364409,-0.384486651905924,0.09040152085474,0.197088811093941,-0.276887296999334,-0.187526825013716
92,1104,508.976,-0.129048274492473,-0.281402587571056,0.0621778204090327,0.259265424886573,-0.0304953382954803,0.357839703746,-0.106110208528958,-0.12055896002849,0.0835959162497056,-0.205899054605705,-0.498079155356506,-0.131230796995414,-0.208002102815393,-0.389084836114682,0.0697310390749557,0.210299923318495,-0.257071079404247,-0.174894536273082
93,1116,508.978,-0.0968427540963935,-0.270548485412746,0.0685117146371662,0.254630487006339,-0.0547681939895663,0.36149885832242,-0.117394471125687,-0.0991601907821339,0.0885074418969668,-0.201237755187972,-0.509575603285101,-0.0994531981104489,-0.224500280344151,-0.399464973125037,0.0991365952364774,0.189560684337035,-0.27118076192445,-0.152220610337146
94,1128,508.934,-0.0960829368529875,-0.275162813649342,0.115279199350978,0.221731125448849,-0.0740244604383191,0.340289522358551,-0.123740984104597,-0.107540973966118,0.114865533256496,-0.170908076845459,-0.520289109862279,-0.085069879873648,-0.230093564760376,-0.399507049988672,0.102330722244866,0.216445707142564,-0.271743424372716,-0.127550565332477
95,1140,508.896,-0.111486046975072,-0.260005280380432,0.143477827913093,0.206645514465757,-0.0683829164660921,0.313724639707148,-0.135482144411999,-0.085961212982021,0.108321565254078,-0.151507540958882,-0.511749885342527,-0.074866877300066,-0.246902420463694,-0.441059242202948,0.0786952003103945,0.258670463454616,-0.258887105289381,-0.100960290625327
96,1152,509.024,-0.136345709262171,-0.225455809494798,0.105171522790473,0.186574863161372,-0.0778436618228776,0.341142421711797,-0.137643433345356,-0.0953869423252607,0.0902516986827013,-0.152712365339873,-0.512938817370564,-0.0622594155058873,-0.258945461607006,-0.446758770756419,0.115481527759985,0.245402373902856,-0.241685211657203,-0.125664004808891
97,1164,508.838,-0.112713451836546,-0.219917460032515,0.0883491800462599,0.235630942292769,-0.113752925903309,0.32436014408109,-0.144006815979922,-0.104845768397518,0.0976463451025826,-0.10898876200769,-0.532338851723128,-0.0324403229749019,-0.244690643166636,-0.429265713609149,0.114258266742419,0.260808703520889,-0.259690688439463,-0.117851880330567
98,1176,508.83,-0.106102330541885,-0.210565047853363,0.0661457075880394,0.209287484164441,-0.118306277621777,0.332013000997435,-0.149400346404129,-0.10635437494694,0.0817164193202217,-0.0792956657973625,-0.541775763110708,-0.0249596072899308,-0.216782179085009,-0.433477759747614,0.109314519351233,0.292355056379432,-0.268809188330224,-0.102301666218161
99,1188,508.874,-0.105261020865999,-0.21029466530823,0.0774440947973885,0.219569684909981,-0.135648433175012,0.31807516732277,-0.158264060435046,-0.100911519675328,0.0751910900145307,-0.0471040352568462,-0.550536593213973,-0.039187607639304,-0.198458692598921,-0.436804910100873,0.113160452667357,0.294364853958784,-0.262327270348854,-0.105854646944573
100,1200,508.906,-0.0942298996895683,-0.244666352257126,0.0572723969131225,0.226789918701521,-0.0961529079838252,0.316557642564141,-0.173086855150951,-0.0567356517588871,0.0430842315473366,-0.104304059502947,-0.554721406853834,0.000780708419047322,-0.231491059843688,-0.434720038557873,0.0785868448861325,0.282927493983974,-0.246266190365741,-0.0682063922735433
101,1212,508.984,-0.11544554989128,-0.22691575633356,0.0445043506346447,0.250167891627916,-0.0989836200288013,0.315011566353063,-0.142030695013222,-0.0707160821761711,0.0640939539887841,-0.0879772259136866,-0.557761640035003,-0.00407457549324778,-0.242802994255991,-0.444734793153246,0.0946644739566943,0.247882857904355,-0.233927341480572,-0.0847201215540371
102,1224,508.788,-0.0871977123243714,-0.217396033058717,0.0443593091829956,0.264481798310008,-0.089638859123939,0.299526666174714,-0.158584054040982,-0.0986244430740569,0.0410517190601927,-0.0781267760500811,-0.552981824272122,-0.00240565014614621,-0.248705637143273,-0.442602941405268,0.0979252255362666,0.262812473058047,-0.245098398435772,-0.0822339407155785
103,1236,508.932,-0.104679624358173,-0.207589309706484,0.0350985119148478,0.281144675993516,-0.066319761449864,0.295495825777305,-0.14457184390649,-0.0914077908992706,0.0126115614401855,-0.082296178976506,-0.56331232832681,-0.023515780977309,-0.250026799394732,-0.456501135569435,0.0783107744465424,0.261442250900699,-0.226310073633383,-0.0934774273192873
104,1248,508.878,-0.112148366085556,-0.189106073224577,0.0429539534082181,0.246738594730959,-0.0603041224587382,0.282031729248879,-0.141542612557023,-0.110083286240983,0.00677800432508703,-0.0804410009594623,-0.577409598769243,-0.0133341640088586,-0.252790432629114,-0.449890646704647,0.0765526754856528,0.295352619221103,-0.215334372323377,-0.071394415955961
105,1260,508.846,-0.116570395727546,-0.21980028895057,0.0607390646517303,0.235707205828921,-0.0263324134859839,0.281743781776209,-0.131920081215688,-0.129417118868339,0.00954760088179861,-0.0817830741534618,-0.596047459156362,-0.0331899932255661,-0.220167453136278,-0.441659115007686,0.0654294209333275,0.293458519514925,-0.212991709750528,-0.0789476692374872
106,1272,508.858,-0.126273578060013,-0.210905603448056,0.067877753482228,0.216163894646476,-0.0358516904501354,0.264855288805756,-0.0865216951340823,-0.130339706141941,0.0356923011381816,-0.0527139667047549,-0.603698176021736,-0.00742615947245086,-0.245361283617582,-0.456427961321809,0.076498552955049,0.292177955521478,-0.211359477210316,-0.0905436512958942
107,1284,508.86,-0.150606512612794,-0.227192017913818,0.0747963052848977,0.230780416390115,-0.0167250005794077,0.249643559540245,-0.056177276141636,-0.139034602838632,0.0328045948502095,-0.0832111665311717,-0.599970667234454,-0.00773446595675892,-0.26126272013945,-0.441626549730211,0.0926233715659499,0.291659434256483,-0.186097680928677,-0.0983416288860259
108,1296,508.91,-0.159693756666237,-0.203502822869183,0.0880010072126846,0.23927006783403,-0.0164019471973933,0.223236409500384,-0.0363661669610343,-0.131356564392937,0.0348040613046438,-0.0559054404345473,-0.604248618537147,0.0389545095926653,-0.284343338399076,-0.408291515051736,0.104784348043489,0.334791215660258,-0.16307346151106,-0.0971909635400819
109,1308,508.89,-0.197803920127897,-0.210500299825832,0.0837645058424036,0.221691799149765,-0.0246862523022654,0.212535741646973,-0.0418666528847721,-0.142381464475909,0.039274963309674,0.00500069605390666,-0.605473098757712,0.0433664599915521,-0.274610868745873,-0.402243542839152,0.125608685061486,0.352429882444549,-0.152029412451145,-0.0882992155195713
110,1320,508.834,-0.190394705231502,-0.185071217638729,0.0328019026571483,0.207621909545055,0.000166548080065698,0.196295673655501,-0.0475023290086124,-0.155036341992877,0.0296486423141858,0.0158397740567745,-0.620202348756606,0.0286821287094275,-0.280714047278758,-0.4263057543836,0.103651566086166,0.352498469796356,-0.140200420035031,-0.0639712274017818
111,1332,508.922,-0.187657862839171,-0.158884606317986,0.0478043130757859,0.224194845715009,0.0164889886944967,0.21229229491832,-0.072832467195561,-0.145970894513291,0.053476127974324,-0.00492125529345692,-0.607101608095187,0.0348417017917897,-0.286764750386801,-0.413864242166719,0.0859145452859003,0.373225755936511,-0.144473188163861,-0.088107304276623
112,1344,509.012,-0.165368773735165,-0.180193515698192,0.0558480441982895,0.215951082791604,0.00857115526602688,0.191187931921716,-0.0787352185442547,-0.159550718487941,0.0714039890786198,0.00668368891040311,-0.632975000821832,0.0425435878145836,-0.255707332821652,-0.388190645972983,0.103171270232813,0.38444411688318,-0.126714835244412,-0.0806440662938566
113,1356,508.934,-0.139730082693156,-0.145811150907878,0.0340688499235899,0.233998267672358,0.0339548512217991,0.196301330625322,-0.0450400364607078,-0.177917292424674,0.0771534563450083,-0.0094438969099876,-0.636757120640204,0.0701077084809306,-0.212308056330428,-0.425065789434029,0.107055879258672,0.375106434209112,-0.134140468297581,-0.0516814422017776
114,1368,508.942,-0.128657613573055,-0.185474495661142,0.0442784293740456,0.187430129598078,0.00148524354108821,0.199833097211845,-0.0456129351021023,-0.146647101757784,0.0613580553069624,-0.0467649740030445,-0.630629232846464,0.0735594519915324,-0.25894236382327,-0.426553296146035,0.0846049901161504,0.367614552942499,-0.131459130507695,-0.044242746467549
115,1380,508.95,-0.140797285238487,-0.178781074644368,0.0715455860975513,0.214820772367189,-0.00265652491081656,0.173964855834082,-0.0375885441250287,-0.14598900531788,0.0827160358534642,-0.0452782387905726,-0.614845622860925,0.0448566515690056,-0.265128840762837,-0.469047759544443,0.100669771694632,0.355578524134041,-0.112756148870126,-0.065161505734228
116,1392,508.892,-0.124926763145954,-0.176301825003181,0.0737113709006862,0.224790176271201,-0.00217656208643381,0.170626252278435,-0.0525980255804883,-0.149241629004759,0.0472656524280115,-0.0579836959784591,-0.621413688979857,0.00124748274497584,-0.258453150579298,-0.465031691821986,0.0842152072239435,0.356451889009862,-0.113879943371651,-0.0645137292705682
117,1404,508.93,-0.13022602289809,-0.187449667255327,0.0312545311706826,0.228379919364628,0.0171031619998865,0.156303086032335,-0.0526010748389658,-0.159818354587783,0.0487361189086751,-0.0241703758928036,-0.628147205244356,0.0198447566639163,-0.278643957585359,-0.455340291606558,0.0462301125307126,0.355631695487177,-0.102558025634655,-0.0826976443575997
118,1416,508.868,-0.110454318811265,-0.200843524977438,0.0320166131091129,0.231763991084312,0.0428584625478784,0.170922523088601,-0.060659148761634,-0.160942009303292,0.0690385838228624,-0.0396120407444217,-0.607832939945075,0.0357266754864744,-0.272813064696977,-0.456049102689514,0.0428877152197671,0.374232787837815,-0.115139548862556,-0.0823142012402059
119,1428,508.886,-0.100564319388914,-0.218638983742389,0.0377771654008238,0.237759065952405,0.0548038810331861,0.182684884108955,-0.0766612077958201,-0.160852171179622,0.0792026123440831,-0.0525016436894232,-0.619946196596296,0.0212427629261367,-0.270578793505107,-0.449121143362238,0.0485618040082295,0.321561205728107,-0.133504959441103,-0.0827297508939856
120,1440,508.924,-0.101980350315192,-0.214239150190011,0.0457780848039103,0.224885554326945,0.07887303360727,0.206993494243578,-0.0778751723052873,-0.188172558979157,0.105037769652252,-0.0352406876405754,-0.606500403948633,-0.00915237861010479,-0.275250494183208,-0.451638974065085,0.0707331656955674,0.307731995041356,-0.150462632531889,-0.0964254484344928
121,1452,508.908,-0.104683725272533,-0.194747351802005,0.0277873653080016,0.240165374573163,0.0897159291767579,0.186699408469897,-0.0822037098164445,-0.187247338467326,0.0966690228430159,-0.0142680027414042,-0.616385365998124,-0.016878404801251,-0.274925464193014,-0.438533058097312,0.0389389830107022,0.33361490474529,-0.12730828945227,-0.10727671586169
122,1464,508.874,-0.0917200955796412,-0.183078294712557,0.02093861775086,0.262866957381421,0.100468856629489,0.183747633069418,-0.0788939508833477,-0.16016976942364,0.0939719317796277,-0.0212685223565762,-0.627560261342016,-0.0353703953011674,-0.281413071975701,-0.423300876271789,0.0408507215329086,0.329084877759045,-0.124756003188604,-0.106716216265056
123,1476,508.864,-0.0994124879909884,-0.17490401032674,0.0110676027023207,0.260198358319919,0.109515260032567,0.173774063593472,-0.0464806936911846,-0.145133104215822,0.0840986294396166,-0.00547099437577018,-0.634449854969243,-0.0230967867726082,-0.274898912547009,-0.439277555491573,0.0260644755658094,0.326741861306241,-0.126323062728808,-0.121518241476771
124,1488,508.856,-0.120329894031668,-0.180183497590895,0.019556522221431,0.2501477020621,0.12063511235037,0.177724632340223,-0.0468593557319378,-0.160957663010881,0.115263138164423,-0.00379919374618987,-0.638977537202753,0.0118562925770181,-0.266964855444132,-0.419256098210664,0.0171619678839388,0.324589872382554,-0.130850947024718,-0.124218953769605
125,1500,508.844,-0.117548191024172,-0.169295448556007,0.00690207207611856,0.242281784907151,0.12461475254049,0.186953583302522,-0.0453943594013438,-0.16953628757293,0.0963930214987582,0.00999366233011258,-0.640935184532736,0.0146445891233211,-0.286447516650564,-0.406944494667698,0.0122759278992127,0.323066892165073,-0.138309839611386,-0.121310014121754
126,1512,508.824,-0.138297685171174,-0.161320938597869,0.00345156108863028,0.227412301646909,0.137437803496619,0.184170558383546,-0.0679204397459677,-0.141830821392519,0.0761408100559351,-0.00984261043793553,-0.660673762756801,0.030121748311911,-0.27483308928925,-0.410648050646919,-0.0165707601790667,0.319672775576785,-0.114959328013975,-0.118596708678217
127,1524,508.862,-0.122239292532548,-0.183868445784495,0.0259164264043632,0.21775101586403,0.160173787312401,0.174492808815682,-0.0739854011214812,-0.143057672486659,0.0687106782323525,-0.0354896953043165,-0.644462284684642,0.0307915816695601,-0.276433151375288,-0.409589842737158,-0.0474778264836479,0.33875161021477,-0.112420307573133,-0.10448360215569
128,1536,508.812,-0.119493550320482,-0.15522643402874,0.0163296744116937,0.236751209956639,0.179607411148276,0.151119937789088,-0.0553848722992417,-0.161763680767845,0.056121228585195,-0.0202288902959658,-0.651164446138479,0.0246813900117763,-0.272446207574591,-0.403148752037191,-0.0358330337944737,0.361166017942238,-0.0993846471359158,-0.0905416754175638
129,1548,508.83,-0.113840265041177,-0.146394558514765,0.0154846253993869,0.261455901847757,0.179385702761543,0.148731982634842,-0.046898801828737,-0.143677036440223,0.054509317771638,-6.87213403922204e-05,-0.636999429292336,0.0408958088730495,-0.257680092861638,-0.407894291227349,-0.0319259229165132,0.38141016627335,-0.106487930962959,-0.0842608914671056
130,1560,508.804,-0.106388606082897,-0.135450575715282,0.0152550830442581,0.264550212686654,0.200536004480914,0.127331693214303,-0.0228156792760333,-0.151017900038997,0.0593666392064385,-0.000680693626391618,-0.642701384375859,0.00772050696491966,-0.264480225750091,-0.397580192844928,-0.0461504642280784,0.380673273379861,-0.0901679103079227,-0.0842922228804137
131,1572,508.82,-0.105696810372607,-0.137798709745287,0.00915021925730886,0.283316099796557,0.217526438353804,0.117267498013032,-0.0280847069218405,-0.141059541122386,0.0652072983453897,0.00104435315507153,-0.637003615726101,-0.00721926839631487,-0.274520227156559,-0.394651264104218,-0.0552054738514769,0.381029578818381,-0.0658145669414294,-0.0808945005925444
132,1584,508.866,-0.082363151911402,-0.173444089450798,0.00516309654684874,0.276004835094835,0.185306133028191,0.131336698607612,-0.0262605838434858,-0.123994315152561,0.0702624210335337,-0.0159098557657635,-0.645109498516198,-0.0111518189766996,-0.262628399371819,-0.405633375460977,-0.0528057848838611,0.364129881976572,-0.0890791039676722,-0.0783628290985749
133,1596,508.802,-0.0801470987498304,-0.171629343319604,0.0129252839820693,0.279639771626333,0.213001495015846,0.137569351190643,-0.0232137770610263,-0.126664869389108,0.0709289838637606,-0.0373078316597153,-0.631932898947743,-0.00875212167859797,-0.266713312478893,-0.398737492913287,-0.0517519799364011,0.375897749814448,-0.0943460638960524,-0.0906881720696912
134,1608,508.788,-0.0656823220603016,-0.194577786899777,0.025303714213335,0.290704298456987,0.204084135177546,0.162207452364531,-0.0461418856866268,-0.101291306575584,0.0440832604853247,-0.0397338994387641,-0.634292001442272,0.00407963450601226,-0.258169430328587,-0.395649504945259,-0.0491674469911478,0.367175507640127,-0.126372186531696,-0.0595943179736324
135,1620,508.786,-0.0917637675580716,-0.195237405156427,0.0160887846994156,0.293381765799304,0.189111271006958,0.178172379672421,-0.0667260316658477,-0.0834290146246169,0.0746504474504152,-0.0425704033890819,-0.63176814066017,0.0183098154321253,-0.262981643248629,-0.389498790744582,-0.0716139249398684,0.358219774642526,-0.123533179896023,-0.0575067583712593
136,1632,508.832,-0.113400590949912,-0.207585227528257,0.012408134341161,0.279565613546266,0.19977380791481,0.161508578156816,-0.0832111828264652,-0.102670513743502,0.0673595231742279,-0.0149876300168181,-0.618030534637501,0.0327799903485896,-0.258579968616395,-0.386812900811908,-0.0560560433218967,0.386688172829571,-0.115305945026584,-0.0589261113790371
137,1644,508.778,-0.107954239250964,-0.197960699711638,-0.0123559838931811,0.273249635917483,0.182756385844976,0.163316648927007,-0.0840192106333232,-0.105920085880684,0.0757003356698834,0.00495384747814237,-0.62004119702251,0.0311291861026089,-0.269645796939361,-0.386155715325723,-0.0714679105788575,0.386180816747252,-0.11530599365165,-0.055610656987791
138,1656,508.824,-0.100246694695743,-0.191398173105574,-0.0228498542712183,0.278123300073785,0.196664966191056,0.169352780936116,-0.077620307423118,-0.105014543013692,0.0930015614105422,0.0012034075387111,-0.616959641704224,0.0158977728914475,-0.268483036088828,-0.375723001637466,-0.0922314729502107,0.387266186706418,-0.116916462519423,-0.0476069409010952
139,1668,508.828,-0.101409262867002,-0.200969301116745,-0.0273113036039655,0.318582091142428,0.197246264636478,0.173221526086546,-0.0806498029425576,-0.0850069695039023,0.096170507209921,-0.00681172667191953,-0.616070249762617,0.00204844624713326,-0.272889453986221,-0.363953903966627,-0.0840606229245989,0.368496139485926,-0.118245730784577,-0.0662633256540199
140,1680,508.758,-0.100768209769631,-0.207696613395158,-0.0119596038977336,0.310373792087396,0.189935967622567,0.171796878942729,-0.057577496012976,-0.0915625958749939,0.102133466234535,-0.00901039736233243,-0.634317174620164,0.00210380707387566,-0.257169769610023,-0.365030680428918,-0.07800367431586,0.357604888821698,-0.123855066003252,-0.0576603715744682
141,1692,508.804,-0.109526663405393,-0.184221077164373,-0.0200291776310465,0.320830057570076,0.183458707987263,0.170480086320769,-0.0491289091034007,-0.0936775851005264,0.0821390940082102,0.0153508689552946,-0.637380344097554,-0.00140183764694481,-0.253657789327864,-0.358797643806415,-0.0930112709087117,0.368230491762098,-0.127091244787562,-0.0516824105646794
142,1704,508.764,-0.0921457574441581,-0.173411923022753,-0.0153327762248469,0.324133530291564,0.169690158143565,0.179489389247796,-0.057640550156751,-0.0804024206978225,0.0780795793165357,0.00826668087294901,-0.63096197595056,0.00216524248716829,-0.25149976467444,-0.392693566476551,-0.090569010993233,0.359634363492269,-0.137244211775346,-0.0448704130808114
143,1716,508.836,-0.0947700225215152,-0.175049238688778,-0.0185140771655859,0.332181087393387,0.188257693703525,0.179519748918465,-0.061590924509354,-0.0720210787872636,0.0790476863961368,-0.00331660720793506,-0.646045887976768,-0.00528158794162795,-0.244270939965548,-0.374028465823707,-0.095674753247927,0.343029435506391,-0.124807634540824,-0.0457075202723258
144,1728,508.778,-0.0983103823068438,-0.167513149465759,-0.0259905474164127,0.331059876984057,0.206217607255458,0.177997003720519,-0.0582537280013721,-0.0683994153055112,0.0847506356975787,-0.0127485246385568,-0.644429830546266,-0.00449332806072085,-0.24860909479943,-0.364411252563265,-0.0919149341096818,0.349335588925236,-0.12391975040562,-0.0424804910190843
145,1740,508.792,-0.0906521999307142,-0.166153155329394,-0.018069404495557,0.338757781684286,0.203935623876554,0.176223508952689,-0.0654543673293398,-0.0617673238020865,0.0794559494225828,-0.0166510919844987,-0.645647449582629,-0.00747202432548082,-0.24866655221762,-0.37574131925089,-0.0959949283108869,0.330965079233827,-0.131273055443174,-0.0384961883545781
146,1752,508.812,-0.107896409392993,-0.150435141362636,-0.0109799665393176,0.349578429041166,0.209435011391226,0.177022251552394,-0.0663335601225613,-0.061849824491138,0.07572936019018,-0.0183421863845479,-0.644700968886717,0.00895964943062735,-0.261276655887237,-0.373044308147429,-0.102000009591886,0.317392922579285,-0.116535152155951,-0.0413537303182445
147,1764,508.8,-0.104972908191651,-0.147550444654684,0.0020865417173474,0.344254368850717,0.203282199877583,0.177805587820547,-0.06237061149659,-0.0646152278711222,0.0803722498383171,-0.0323359788654956,-0.653507968116054,0.00242609911477183,-0.249309333698838,-0.370850184053817,-0.0981991618976388,0.320249642401928,-0.122095885756587,-0.0506390684473757
148,1776,508.772,-0.124735781616542,-0.159364528189142,0.00456424842907081,0.346949367986291,0.18395240407935,0.174714054086461,-0.0718574858929018,-0.0569308961750317,0.0861197959393127,-0.0140778869591847,-0.65481781015516,0.0144145493614395,-0.239107681693636,-0.367390756670468,-0.0689410511642744,0.334075244995708,-0.120006004306867,-0.0437005761263285
149,1788,508.828,-0.12759688491513,-0.184193942437907,0.00518979687064403,0.34946969563133,0.19014064674099,0.180278760436718,-0.0905269588918102,-0.0587516605371015,0.0722062809719594,-0.0443902250444257,-0.642397983851582,0.0072460221614914,-0.239699475418654,-0.371869361078317,-0.0648749407537381,0.331833567263552,-0.111853888068694,-0.037038114326847
150,1800,508.798,-0.13656381132122,-0.176289095697854,0.0126846955383962,0.339714654044889,0.197712559687307,0.162199058765066,-0.0806681552595885,-0.0541407314735227,0.0651032793528743,-0.0402128411808454,-0.640831416496804,0.0305859693853152,-0.23397715868355,-0.378332254943862,-0.0718341434553333,0.353738700037089,-0.0979989136858178,-0.0295025723748505
151,1812,508.82,-0.134372631937407,-0.186526141292572,0.0130970372125417,0.333444849799885,0.184973940152218,0.156373753012664,-0.0665981236763167,-0.06584243201005,0.0657734599292303,-0.0437209286469328,-0.640825865019,0.0296984587471879,-0.243093082649887,-0.386366250017557,-0.0505853276400522,0.355135773136995,-0.0917325318015107,-0.0361198411488352
152,1824,508.778,-0.122394552114609,-0.175345643432861,0.00142181015522229,0.351812845144643,0.177241166491884,0.164128901791604,-0.0713443530992379,-0.046781448536256,0.0784689411543306,-0.0363774859831442,-0.650078949100848,0.0333582699828809,-0.249633609858669,-0.364545250700481,-0.0682943558782513,0.343662408499158,-0.102766906836568,-0.0426672948332477
153,1836,508.832,-0.126048708610152,-0.170300527147045,0.0154172630045432,0.361463772238937,0.181949820509974,0.161840873056921,-0.095441924872113,-0.0344788781445841,0.0700899071887885,-0.0441204795668659,-0.649589870780304,0.0413479196070133,-0.249204666598693,-0.361345844775898,-0.0691428439956755,0.335929036813985,-0.0980824139062317,-0.0288146255373778
154,1848,508.838,-0.131982130923861,-0.17903193534286,0.0179113274991321,0.357758019399327,0.163374597903116,0.158320144561939,-0.0872215992697859,-0.0428857531495155,0.0793543395343661,-0.0511111284503524,-0.656355218582293,0.0501416329538931,-0.243936944724925,-0.365048972100479,-0.0573792600964934,0.332248937548345,-0.0956811140224892,-0.0218374210720493
155,1860,508.788,-0.124672105813927,-0.173866745302417,0.0206114758112838,0.36266917921023,0.166539015093671,0.166920633173878,-0.0882452170124344,-0.0453380397681751,0.0857860375051978,-0.0649611659334957,-0.652020944464409,0.0456291086322823,-0.251516418867553,-0.372229208938615,-0.0593755818660471,0.313200337482347,-0.100644072097775,-0.0237320245808266
156,1872,508.796,-0.107272483878551,-0.18066305522616,0.0303528600058613,0.366034625141894,0.18391042133392,0.154043856477546,-0.0828693390335157,-0.0430943104658608,0.0857176916924171,-0.0565558914731128,-0.651983843669569,0.0315725593686015,-0.246248214185915,-0.372867029004589,-0.0455333707319215,0.319183529506239,-0.103430698926927,-0.031161721188884
157,1884,508.78,-0.0960751077720199,-0.1674946802112,0.0148403315701822,0.373405345371475,0.191229297495397,0.145938118946151,-0.070327145046606,-0.0461949885328591,0.0902301616379331,-0.0490688289637001,-0.652868366571323,0.0221479871933403,-0.241285474808115,-0.373078969017802,-0.056458265740834,0.3277572698507,-0.0959840406923115,-0.0355596502255503
158,1896,508.794,-0.101541102016709,-0.167582375212617,0.0407370947022603,0.3837352527161,0.185926910897826,0.143841254556664,-0.0782591860485872,-0.0402437804514087,0.0868895676288651,-0.05272373906731,-0.655894905428384,0.0278283570596714,-0.234985845025366,-0.368245872895201,-0.0501876431654002,0.320069256929055,-0.0992364449682038,-0.0187905740544715
159,1908,508.748,-0.10237883254254,-0.172995049990451,0.055506366711653,0.377146193368566,0.166928708008822,0.143960406242553,-0.0860186697122398,-0.0234606082109561,0.0761022344260089,-0.0543768196745089,-0.661634623711147,0.0383334680538631,-0.238045354717152,-0.366923778829649,-0.0586360750101208,0.31906154849564,-0.0988817557869832,-0.014027807842037
160,1920,508.782,-0.0951866615624784,-0.173965514189139,0.062442539277053,0.388124217277752,0.181533178927537,0.137543136125935,-0.0906211596018072,-0.012345651809632,0.0708275577074681,-0.0582624103138244,-0.655581497174393,0.0329620737127813,-0.240782702796036,-0.364631609408892,-0.0647818334154957,0.314566142803297,-0.0977228199839733,-0.00199372564887523
161,1932,508.792,-0.108669181136982,-0.156291639726691,0.0679280835712778,0.390482109326235,0.184779516907658,0.142667824406356,-0.0939862033108738,-0.019645065024202,0.0639607929920746,-0.0579572640768595,-0.648706401982196,0.0402910029590538,-0.243819249459644,-0.365418001691063,-0.0725060412005668,0.317600699714929,-0.104014985239854,-0.0069897226115272
162,1944,508.75,-0.0968755879093986,-0.160934007860073,0.0693320536093198,0.398458268906439,0.184653519567855,0.144075124906514,-0.0913506129899008,-0.0274762495088902,0.0745689785010648,-0.0729278812736986,-0.650434971889988,0.0326386881055148,-0.240055160653364,-0.366938093788256,-0.0755684042403546,0.299932045956199,-0.105456743767602,-0.00845300572311134
163,1956,508.784,-0.104818437357282,-0.170149035955419,0.0711153159153003,0.39398266738371,0.167449934849926,0.148033510384999,-0.0896745694944645,-0.037465933411588,0.0838161450343101,-0.0797260619187453,-0.663765091261915,0.0423526546770749,-0.235520931225499,-0.353697140012581,-0.0600953888711508,0.294981256541086,-0.104189722026768,-0.00156744684209435
164,1968,508.766,-0.10732366241991,-0.173954188509906,0.0698813019672011,0.382994000089679,0.168124795968607,0.150129559271089,-0.0849432394897482,-0.0419903112867535,0.105458432418997,-0.0823115297500054,-0.65320862307114,0.0372351659173017,-0.243081730394308,-0.361293556176719,-0.0550744426987281,0.308592606255498,-0.103162480246918,-0.00164263370454996
165,1980,508.766,-0.100228531094929,-0.177944230452302,0.0860012864217064,0.381049323594502,0.159245538139647,0.153157813146485,-0.0914856526858018,-0.0364370964091203,0.108650286274916,-0.0903512983386514,-0.650096655963879,0.0437764228950909,-0.236358066231709,-0.367033121167918,-0.0562846863464095,0.305303042954662,-0.112845009546751,0.000792117569444056
166,1992,508.792,-0.0982723825731814,-0.190722576060066,0.0776842269914365,0.373846242479809,0.161763107944293,0.162690941273455,-0.0943569837292646,-0.0440723596060429,0.114194711281608,-0.0923665928899867,-0.652537885423867,0.0340233300836999,-0.229842812573802,-0.367088079522454,-0.0465559528704807,0.299959614368305,-0.118510798427841,-0.00950022705716843
167,2004,508.774,-0.09155263097308,-0.198539417646211,0.0762208345353669,0.370180723107252,0.161679265295765,0.161522910422686,-0.0956056975705163,-0.0468753745753947,0.124588062331919,-0.080064592729018,-0.656037088619156,0.0316171549561509,-0.224636610678546,-0.365271411887306,-0.0259420335190401,0.301356160109522,-0.121599665239361,-0.00258020963358258
168,2016,508.748,-0.0810906708296079,-0.186168023668302,0.0708678320079432,0.378477114464407,0.150856952718452,0.165224760891716,-0.0960287780238557,-0.0420333690241167,0.118034972418014,-0.0913926318971425,-0.65925663430437,0.0249469445067262,-0.23113216691,-0.360940158571805,-0.0364329319379811,0.29730097837626,-0.125229091271035,-0.00146009890778953
169,2028,508.764,-0.0925979362199776,-0.181473561796786,0.0705957775553443,0.380487574739464,0.141500542430305,0.168032184600847,-0.0847380099540237,-0.0355306893152663,0.106381946118757,-0.079103157455784,-0.661110250110936,0.0291251510673755,-0.230394094563948,-0.360972129297399,-0.0469164941476607,0.304314052700148,-0.126912551720687,-0.00438301817038223
170,2040,508.766,-0.0934187136329155,-0.179209520086399,0.079503045724672,0.393655926104007,0.136446935306224,0.169009875757358,-0.0880054770195691,-0.0384928233814414,0.103264987339167,-0.0863818353237773,-0.663990961109136,0.033886746305476,-0.228122890125626,-0.346213682372392,-0.0587606413459583,0.294079963679032,-0.132048196207841,-0.0026964902594139
171,2052,508.752,-0.0910996977951776,-0.170754506457034,0.0767543719399534,0.392524298177721,0.148217623691447,0.160716501939311,-0.0895023320346372,-0.0466716802988267,0.105702126438324,-0.076330764003032,-0.664540114918837,0.0235371245778447,-0.229790034940472,-0.345748159767973,-0.0694228255735272,0.300762796195849,-0.124642399711526,-0.00627912221980551
172,2064,508.736,-0.0933014081751755,-0.175992365411245,0.0828168699798481,0.392087300422565,0.152105894578242,0.165471169746608,-0.0889365566053882,-0.0403637242989277,0.111608916082096,-0.0816799715723283,-0.661863733663455,0.0317933726212636,-0.224526890771132,-0.342455142956684,-0.074927943961875,0.298376554241035,-0.129124441042402,0.000390077428608635
173,2076,508.76,-0.0941370898615616,-0.178458789749684,0.0786821625241326,0.38931081810279,0.142891381540126,0.1651298091965,-0.0888701347610168,-0.0474660732241954,0.112098309428185,-0.0884362836966529,-0.663119646086428,0.0299323642786464,-0.229439585216737,-0.344949615029693,-0.0799298736039394,0.296198831139254,-0.124981112512256,0.000404052577935909
174,2088,508.766,-0.0987960344234358,-0.175434808002684,0.0796017300402464,0.391979873484779,0.138712147305196,0.166866588516551,-0.0865378688143257,-0.0472714974324688,0.115993063353686,-0.0918931642092766,-0.656376755349792,0.0273667940207903,-0.238413486054219,-0.345314945027173,-0.0760310428327146,0.302116571107289,-0.12303239885381,-0.00507445735662292
175,2100,508.77,-0.0926556270447625,-0.179923940629129,0.0807250870637626,0.400163997612402,0.144559230761958,0.16445195442642,-0.0859771361231884,-0.0447950760350532,0.118096770153532,-0.0998722081528916,-0.650407550398759,0.0256393491230706,-0.234979890022136,-0.34350059463052,-0.0850467842098339,0.301427528483092,-0.119397058755863,-0.00657213822971159
176,2112,508.766,-0.0919536973565423,-0.186634167388007,0.0816663166731536,0.399693208473308,0.149421078389772,0.163950853624447,-0.0860559892097657,-0.0512984267745568,0.115256509542085,-0.101478308407348,-0.658497738174641,0.0245297180998685,-0.232334932221861,-0.335805145286371,-0.0889956946175461,0.28713420971096,-0.1219994876367,-0.00496981013728475
177,2124,508.762,-0.0865186345994382,-0.180423664563344,0.0864436216898557,0.413820385815061,0.152533589437323,0.157297169737581,-0.0911133447424579,-0.0430294374503672,0.101797918480645,-0.100650069051815,-0.650225751349263,0.0166248263036882,-0.238052000336162,-0.341086039194775,-0.100742164472232,0.285351887374356,-0.118220318990311,0.00236885898039318
178,2136,508.774,-0.0931639351961556,-0.183804682725502,0.0831691726396615,0.415192830287506,0.143628700222144,0.162087461633304,-0.0929354112145362,-0.0458708049547998,0.104336606678699,-0.0967756161638,-0.645802919900334,0.0227071308775312,-0.239330811921828,-0.334941368847638,-0.105941119092253,0.293055003247106,-0.119971905734587,0.00569615557083222
179,2148,508.778,-0.0967376817848715,-0.179733687772523,0.0883552081983348,0.40733562134512,0.148757664109003,0.161453056735207,-0.100927560712992,-0.0449176832822207,0.113104756462809,-0.10132812821942,-0.650144799104034,0.0207702223323697,-0.244314257673816,-0.331140889713498,-0.105980530465971,0.286056745151175,-0.118611794869526,0.00297946144316706
180,2160,508.766,-0.101438968648499,-0.18242833029259,0.0776702069299774,0.406583941142003,0.153609536225929,0.162977714974426,-0.106243023971879,-0.0508824579783543,0.114014909204925,-0.0989303006928267,-0.650702051500311,0.0104377131250466,-0.2439763329485,-0.332897706878813,-0.109013295574434,0.279323263855349,-0.115087554148131,0.000226127680504669
181,2172,508.768,-0.101651958632287,-0.187396065193359,0.0768089720942078,0.402973342546395,0.159713551623446,0.161838596855351,-0.10776065940348,-0.0434470950653384,0.114099815128412,-0.097044467369061,-0.647468800241952,0.010616590412209,-0.254253096842879,-0.332937518401646,-0.101781736823013,0.280226035848191,-0.115574092011421,-0.000208450231499065
182,2184,508.766,-0.105877162804032,-0.188560775247183,0.0770907533191726,0.399931125368783,0.157162529192202,0.160545798016059,-0.105530381079683,-0.0446294643330775,0.113202302733838,-0.0971630511869266,-0.650828817716598,0.0126263821387804,-0.252898990160624,-0.3332642472293,-0.0978633144669322,0.282540365149356,-0.112138015458661,-0.00443361298744597
183,2196,508.784,-0.109504058446952,-0.193826332141315,0.0718713343266828,0.39931669230503,0.153954364723426,0.158234814111933,-0.106111547067458,-0.0416664085684858,0.107783591684464,-0.0856840798054787,-0.657366218270886,0.0261820328822872,-0.250191636425196,-0.332531306060943,-0.0908160849207793,0.277898745335514,-0.109380873756733,0.00240409226465102
184,2208,508.764,-0.106489054465429,-0.203010475554086,0.0696721569534406,0.397089840481053,0.160096185166409,0.155833443702739,-0.10787725200689,-0.0484231501716578,0.109362165439609,-0.0866877452397821,-0.659067611413854,0.0264445012222886,-0.249686891679965,-0.327493121732998,-0.0857750865933156,0.277432186620474,-0.108047829810995,0.00172166992673376
185,2220,508.782,-0.106700747548126,-0.196366917847067,0.0628772695233663,0.399197547000848,0.163999834448954,0.161275547637884,-0.10808259077871,-0.0524844112664214,0.109939361961641,-0.0868951503585796,-0.658225103706554,0.0219705853441353,-0.255120265733787,-0.321551554281596,-0.0931707651138706,0.274276867610255,-0.111732963640963,0.0054609537522186
186,2232,508.792,-0.10656488597395,-0.194775273589633,0.0587102418448332,0.402023941448689,0.165502711210941,0.154537715061079,-0.106633311626731,-0.0495291337422509,0.108290320181268,-0.0826895797753897,-0.664206959015494,0.0267463488956954,-0.250938900433036,-0.318460923514024,-0.0957279156729191,0.272710612684618,-0.105167188951653,0.0027133943957086
187,2244,508.778,-0.104916646804492,-0.195111247704726,0.064575445716144,0.39455526488963,0.165128292080641,0.153742952184465,-0.110722485866504,-0.0568117983423099,0.10804611368236,-0.0773005759597259,-0.668042042182438,0.0231607201877072,-0.250954304704309,-0.319722607656204,-0.0874896243677002,0.272194406780667,-0.110385064677365,0.00239462813791015
188,2256,508.764,-0.108334377431567,-0.197341993510502,0.0648104728776736,0.388557686019093,0.157955181753104,0.157097815715562,-0.112852616838558,-0.0562968293962599,0.107887367616521,-0.0754392058818785,-0.668425426696435,0.0222641898586451,-0.248948123248433,-0.327423413229723,-0.0819274911445339,0.273982039308605,-0.111229037106093,0.00298673651701877
189,2268,508.764,-0.106047982293379,-0.202872659108117,0.0645658992432744,0.392946813510309,0.157034717116101,0.1592324799192,-0.115536384820836,-0.0580819803306407,0.107257672118142,-0.0752633520229221,-0.665990095902745,0.0216328450576609,-0.249018936532369,-0.317143329101324,-0.0845120087199265,0.278549940384321,-0.113514284393921,0.00908215842329763
190,2280,508.766,-0.100338182836185,-0.200748895157199,0.0642612286745139,0.392054000866815,0.159069278491061,0.161408312384858,-0.115898415021567,-0.0561367457928482,0.107793876829733,-0.081066130730889,-0.664917014435772,0.0178988361207202,-0.247171056091899,-0.323280428558555,-0.0736010574028341,0.279694714883836,-0.114542637816239,0.00888251170819761
191,2292,508.798,-0.101461950783243,-0.198086362652707,0.0709402827744855,0.392081438212021,0.156676892072593,0.159958988963602,-0.112154310654481,-0.0546979018737397,0.110776105933101,-0.08889328341095,-0.666288592106354,0.0222593426489682,-0.244658199326618,-0.323222955008482,-0.0704065468875919,0.279738914293749,-0.113965917831156,0.0127962297456283
192,2304,508.79,-0.0961640622158523,-0.197549591398132,0.0719992953157533,0.392076044607838,0.159006751003706,0.152506291608843,-0.107671411062833,-0.0541269738413443,0.104890811134073,-0.0913560240131502,-0.666897669417056,0.0257571832254499,-0.246858716951825,-0.329639950717739,-0.0759670996473065,0.27663284384511,-0.111156413092724,0.0110287011461012
193,2316,508.766,-0.0927636900871866,-0.198501793639917,0.0735630423842618,0.388942835755252,0.162118167363674,0.152430741291721,-0.109039540394697,-0.0612237502098113,0.108139511131539,-0.088574648453725,-0.665900381884399,0.0286356435099035,-0.245434761717161,-0.32973660220238,-0.0742653755677398,0.280479131794067,-0.111678385685489,0.0153878385004474
194,2328,508.75,-0.0901414728091349,-0.198053859910375,0.0768745695370823,0.392015765877347,0.164710974061932,0.150197915279117,-0.104536851294481,-0.0604459431913125,0.106518832108105,-0.0871314745706905,-0.665894518776694,0.02451223855542,-0.246442842307241,-0.325921234851624,-0.0796256911389766,0.281802720385268,-0.11224606888449,0.0117159261476454
195,2340,508.748,-0.0893078911796237,-0.196824700560597,0.0787099117049355,0.394217823695518,0.161878935914038,0.149630197087172,-0.103965842422879,-0.0601869458923287,0.109495763197727,-0.0844465375641805,-0.66850777894912,0.0276876862268667,-0.244159547363016,-0.322265741664029,-0.0779147583891486,0.280656705393858,-0.114043455012747,0.0121044878787401
196,2352,508.736,-0.0891238907478223,-0.197896159604117,0.0782541870813268,0.398276626647873,0.156146570577197,0.154319263265145,-0.106881167705754,-0.0582664122374488,0.106423117518497,-0.0849401164737046,-0.66804410512226,0.025964083971878,-0.244940632140616,-0.320539329084368,-0.0800168106099012,0.275189084627346,-0.117240143368667,0.0194720087985219
197,2364,508.748,-0.0904318105512171,-0.197231743132449,0.0740298112273727,0.393840925450894,0.157477999787086,0.156188721474406,-0.108507824778295,-0.0587892769069402,0.106573618238278,-0.0815249572620686,-0.66712815606243,0.0294275765769281,-0.246263326236477,-0.322115992610693,-0.0819359595087012,0.279024534844925,-0.119382019044518,0.0147893458349317
198,2376,508.754,-0.0878409442307796,-0.199273409825708,0.071193143470256,0.391343694484858,0.156611313722318,0.157789072974392,-0.112726332002389,-0.0605344392617781,0.101680674083025,-0.0820639148545376,-0.665463149205401,0.0256361492634674,-0.246806003898198,-0.324877212290023,-0.0756472850073381,0.284243556867683,-0.119600470587479,0.0175375078742251
199,2388,508.736,-0.086288086100819,-0.199794634835671,0.0691183644192494,0.395472973903208,0.158549588554946,0.157629756961652,-0.112771793608452,-0.0605202576212667,0.100466850404037,-0.0816767301326443,-0.666158397770589,0.019164301826184,-0.248676611960656,-0.32270554436094,-0.0784072225553053,0.277654531062928,-0.119634638621974,0.0162036865044659
200,2400,508.736,-0.0834811953759792,-0.197092129332634,0.0675664714008473,0.394375424441308,0.156358166782277,0.160072249312073,-0.110813645621896,-0.0576721964651951,0.103146545307077,-0.0825079006370572,-0.667176316638878,0.0193386413641837,-0.246744005601553,-0.323027311158879,-0.0740594476135809,0.281325293351401,-0.122315953929869,0.0158962087591973
201,2412,508.736,-0.0845392168292068,-0.193918654004444,0.066989500881667,0.394319411961351,0.157775939748895,0.158343468530475,-0.110454273947123,-0.0546423199114135,0.0992308343150869,-0.0797840318225634,-0.668500386067919,0.0191311102129522,-0.243025462709057,-0.324021368992405,-0.0754396059495077,0.286054273411625,-0.120264557123376,0.0164508846265817
202,2424,508.758,-0.0823415949245703,-0.196793010873512,0.0706433646355276,0.390756949611775,0.158539591460511,0.156952227116522,-0.112259923966693,-0.0533957080209935,0.0977378182911555,-0.0806040469669772,-0.669488986413978,0.0204718382856189,-0.243249269767216,-0.325413382685346,-0.0761501134279207,0.284755956138014,-0.119677017841542,0.01463630222508
203,2436,508.736,-0.0793702419889968,-0.196079059372631,0.0664516161197581,0.387508387057314,0.156299727058656,0.157288889583127,-0.114508914047126,-0.0530776523754986,0.0970766883543635,-0.0784250562741806,-0.672077990888815,0.0172470370341787,-0.239993338482301,-0.32576643958758,-0.0785010769239279,0.288289074137873,-0.120572086530472,0.0159644733526367
204,2448,508.736,-0.0798716771184134,-0.196547108724637,0.0655637303464011,0.38615524668084,0.157611306852548,0.156416779460424,-0.115436637538854,-0.0522177619340356,0.0940169582118744,-0.0799332963259652,-0.673104460083274,0.0179492995938192,-0.236882939684675,-0.325178508817144,-0.0842483606608461,0.28973375979513,-0.119155304996588,0.0140177950526782
205,2460,508.75,-0.0790683752911913,-0.193447507894808,0.0661784532354315,0.386730426951678,0.160375234195939,0.150442523628666,-0.109933118845085,-0.0560386616069118,0.0899973123148795,-0.0815625046936288,-0.677638055496664,0.0182479460768082,-0.23380424103341,-0.321368390289214,-0.0856678892304171,0.292531445490781,-0.114577535515361,0.0162983385452946
206,2472,508.75,-0.0802424125321375,-0.194728135199795,0.0658264769889898,0.387748536887044,0.163954474466115,0.147788205784358,-0.109258467231929,-0.0567546172725643,0.0908797220725991,-0.080902633017123,-0.678269898036204,0.0199711250481,-0.230615797668807,-0.319084734200485,-0.0853959902184338,0.294047909132424,-0.111711804108296,0.0124969140492204
207,2484,508.764,-0.0781382492772937,-0.193107675607894,0.0676163479251542,0.388201546533879,0.161082420555249,0.149416899134359,-0.113451236975777,-0.0528722727054225,0.0944273618772448,-0.0802578390149627,-0.678781818385412,0.0228439211188251,-0.22879112740352,-0.318504926681785,-0.0896315836723442,0.29226435000683,-0.112901756168977,0.0137022313019778
208,2496,508.75,-0.0848705735508227,-0.194373322281588,0.0667208099636583,0.383110557199207,0.159657610791217,0.151501862607242,-0.110373177093712,-0.0615233420026354,0.0978299937829115,-0.0805867278232786,-0.68174034932064,0.0279261785566305,-0.228365835958032,-0.316592451771872,-0.0787952659436715,0.2924449503925,-0.114247129025941,0.0123065822984137
209,2508,508.764,-0.079954123386757,-0.196778347277773,0.0607023106676637,0.381930828779245,0.160326829018447,0.154682089537017,-0.110835253830845,-0.0628900307997377,0.100211131884846,-0.0770282255219032,-0.682545742025209,0.022524533800441,-0.226805158475531,-0.317219842714154,-0.0749318226367241,0.291156312092932,-0.119129922196232,0.0120758317259884
210,2520,508.736,-0.0781745924815045,-0.195719533991168,0.0625368634774695,0.382022709767066,0.158769324792515,0.155912292861318,-0.107968640496039,-0.0610468262288555,0.100617863298638,-0.0752562241191843,-0.684912726203415,0.0235740142136684,-0.220966133523128,-0.314656036676217,-0.0738708264277456,0.295488741481482,-0.119928225828468,0.00945383161802936
211,2532,508.758,-0.0798338290006278,-0.196955209027179,0.0638301331831578,0.384241646568663,0.159293330099633,0.152120712305204,-0.10560442509286,-0.0596415101484678,0.0999434244125947,-0.0743632434455189,-0.684490666305614,0.0224600321920419,-0.219657370651786,-0.315929118171304,-0.0721383270284753,0.296496723370075,-0.116806879960631,0.00946157222593144
212,2544,508.742,-0.0818937963979826,-0.194988462045916,0.0641288785945971,0.383238740587212,0.162627223328208,0.154307197145738,-0.106288534820453,-0.0580094926807504,0.0993632211145212,-0.0693140255329357,-0.682898232667394,0.01934597261963,-0.220801275471576,-0.314943791429592,-0.0787461872770631,0.298749906687867,-0.119056454088566,0.00931836345077049
213,2556,508.752,-0.0820522315668802,-0.191159916776646,0.0621105820322628,0.386046783372439,0.160650786498897,0.153967082325239,-0.113449578330315,-0.0526584921020896,0.095132025992362,-0.0677756698539138,-0.683026403541559,0.0189119114436195,-0.21933497450171,-0.313104452000208,-0.0861702487490305,0.300159795213325,-0.118423516475551,0.0118328403244638
214,2568,508.736,-0.0840524444710665,-0.191342941055049,0.0620418479003616,0.381292116085068,0.167268957698424,0.152092709824981,-0.112565874126502,-0.0536308414357489,0.095499613470709,-0.0670920569924019,-0.684598647465085,0.01505094703372,-0.216797838065173,-0.315200892407823,-0.0839864541402194,0.300916826834276,-0.116235653628912,0.013128581617384
215,2580,508.736,-0.0838697010718007,-0.191554136257545,0.061492652598748,0.378418652455467,0.167918395945641,0.153403237100905,-0.113223838025253,-0.0577732721086745,0.089175820277612,-0.0669736861620978,-0.683456881836309,0.0176142077419011,-0.213858747904659,-0.315434660995322,-0.0841420514325217,0.308287966408385,-0.117028172261721,0.0127372932710079
216,2592,508.754,-0.0879631766311736,-0.191617269898986,0.0597722211117861,0.375896137706042,0.165558129274688,0.150659042334741,-0.113954440061282,-0.056388620947832,0.0873815180535541,-0.0652300724855611,-0.687255401731742,0.0193753073709828,-0.213892268952715,-0.314148602680142,-0.0866076148230627,0.306837222072486,-0.114705505187995,0.0143864280741968
217,2604,508.748,-0.0886599832278604,-0.193759290161299,0.059416965727047,0.375780321154998,0.163495618746021,0.152596975226026,-0.114690473268068,-0.053845261422787,0.0845886943210936,-0.0672418933132446,-0.687177781024148,0.0155828210358244,-0.213229803434982,-0.31669828965309,-0.0853697359877966,0.304440239130199,-0.116125186857953,0.0102523254290708
218,2616,508.736,-0.0919645909624807,-0.19333703497748,0.0623601833527073,0.378694980644726,0.158291733018099,0.155794148603185,-0.11672498481038,-0.0519125820205586,0.0845790570374063,-0.0646618824494801,-0.683388492116794,0.0149272644455968,-0.215546062318174,-0.320704778007996,-0.0820311327631228,0.303920548025294,-0.117805113861739,0.00824847168217368
219,2628,508.742,-0.0905938265109158,-0.191192628061206,0.0614213498068556,0.379591159352343,0.160900802307236,0.154389652043767,-0.119317243089676,-0.0493762140172136,0.0820993625365122,-0.0624619496073124,-0.680574573955994,0.0120246860098677,-0.214923613660872,-0.322255814419074,-0.0881783676516595,0.308019073094494,-0.118133305939144,0.00723998427618696
220,2640,508.736,-0.0898418127963973,-0.189741571772975,0.0631978568006333,0.375689832876827,0.162123513098828,0.153509767974881,-0.119735354839044,-0.0495482699556296,0.0855125878218275,-0.0602340594891162,-0.681641252749514,0.0167131808716744,-0.213060774270992,-0.320680613265504,-0.0875341082612425,0.312271487685127,-0.119409676908349,0.0114640787352946
221,2652,508.754,-0.0887528400173482,-0.187669547889266,0.0621381020409108,0.375007786708566,0.166752435143509,0.149092699487958,-0.120001811244598,-0.0462564798487271,0.0830613924045346,-0.0630079375088915,-0.680268435162983,0.0112890171464784,-0.213000068066409,-0.321634534610896,-0.0918720368344832,0.318186722953283,-0.114636641135255,0.0119334021605469
222,2664,508.764,-0.0890979984258997,-0.184870235852401,0.0639019412121793,0.379661242818411,0.168529324912741,0.145978423127181,-0.120869946576471,-0.0429759756262247,0.0811270590370241,-0.0635576293429111,-0.678440606380528,0.0112468919853253,-0.210437984261872,-0.321962619384269,-0.0982531832131685,0.319235205620525,-0.111647297006517,0.0116897637932829
223,2676,508.736,-0.090710693386674,-0.183087593857473,0.0627559111701932,0.382048156141432,0.17074959632055,0.143963921454211,-0.124533491785136,-0.0373100891538397,0.0812465335199537,-0.0599240038499588,-0.677042243457137,0.0101047576528826,-0.21336411100854,-0.320881678850417,-0.101316376640469,0.318992846590681,-0.108638368628756,0.0116805539910588
224,2688,508.75,-0.0871467138133502,-0.187129989460458,0.0573540133130875,0.380007501902404,0.171868916732973,0.146354748975509,-0.122531166230112,-0.0384043192416428,0.0851947183142355,-0.0601460023322858,-0.673495798102909,0.0121760519609115,-0.215321590041906,-0.32290997504144,-0.100184875663209,0.322545706923493,-0.111340201075741,0.012823017850786
225,2700,508.768,-0.0849735719139375,-0.189400290945848,0.0543971293308173,0.377524919457006,0.172844372040941,0.145935150221051,-0.127898321021347,-0.0400193684963325,0.0843431689268485,-0.066025757084866,-0.675095436006656,0.00752255240201468,-0.216521343511163,-0.322189741952805,-0.0985470823580744,0.319306578793899,-0.10973723941604,0.0180199601567156
226,2712,508.764,-0.0847526519575222,-0.184913681560049,0.0548862996570736,0.377272058773551,0.174795776533262,0.146408061927724,-0.131988185990401,-0.0331031669780995,0.0797246646085247,-0.0657295393684424,-0.67670711895009,0.00439345286249637,-0.21090028973049,-0.325091491250495,-0.105607198077754,0.316788856579094,-0.10854204466685,0.016718271043046
227,2724,508.756,-0.0802526778495995,-0.185515989883482,0.0565916146516454,0.377218943835227,0.179426423380782,0.144766261509319,-0.131298221420503,-0.0340382842591978,0.0803945332121125,-0.0696064893712313,-0.671891534275485,-0.00202674627699531,-0.216681684585165,-0.328493275584692,-0.110465937593528,0.315873856452904,-0.108526021333624,0.0184988530892672
228,2736,508.736,-0.07833583997485,-0.182970211798712,0.0520683921813722,0.377547233945814,0.183232311248516,0.143568300126473,-0.12328480261735,-0.041945474289485,0.0867063719491611,-0.0661905438638166,-0.66941286331969,-0.00187785298703685,-0.217748117308116,-0.326197224842552,-0.109911481220323,0.325275099872556,-0.107700271343601,0.0121189020996429
229,2748,508.736,-0.0716366071229715,-0.17914117296465,0.0503072874922418,0.375768489348194,0.182822746962989,0.145225701040365,-0.121921548467875,-0.0400658961378307,0.0899660005468622,-0.0689097333527469,-0.669322094724477,-0.00267966209065369,-0.215008291742834,-0.331082695975391,-0.112484180619495,0.325797316332525,-0.109999296104052,0.00965251003914298
230,2760,508.736,-0.0729624457110993,-0.180316533014007,0.0528374857493258,0.379821355804832,0.18572727953058,0.141853941264535,-0.124498118420325,-0.0387188076722914,0.0937719690001944,-0.0684609628353795,-0.667051933952431,0.00236761063773098,-0.213312809843727,-0.326217887208335,-0.116661449002213,0.327589771163094,-0.106772143854109,0.0115385722957637
231,2772,508.758,-0.0733877899953483,-0.18113809219082,0.0528888672379123,0.38373147263032,0.18293301997642,0.146285490873297,-0.13084914378925,-0.0345634193895291,0.0966354315791007,-0.0713468742588304,-0.664583337131174,0.00874529173552588,-0.216224349985829,-0.323017285956592,-0.110794269604493,0.325479871199808,-0.109655604473602,0.017260342832718
232,2784,508.75,-0.0796251806152325,-0.186579180924029,0.0518861837693009,0.381714182233066,0.18419307138642,0.148318500852569,-0.13043123163363,-0.0369050009230456,0.106343886799103,-0.0704694901009204,-0.667964883952034,0.00761791904188551,-0.213115415847394,-0.320738001960431,-0.106928612015931,0.317865095042541,-0.110349834557815,0.0147321169523866
233,2796,508.758,-0.0763358003512674,-0.183426374941589,0.0558120724409531,0.384366353512006,0.180667911690962,0.146263220880296,-0.128067246852494,-0.0331553384528866,0.102602608382735,-0.0706759303019223,-0.667154665730852,0.00713155313414683,-0.215882306202358,-0.32584078311957,-0.104386571667393,0.317690261959878,-0.11017375411019,0.0165345681882086
234,2808,508.736,-0.076257052370202,-0.182900921426942,0.0582795423989003,0.382505660326135,0.181511164927108,0.145422991393341,-0.124130014608067,-0.0313671678283492,0.107013114922932,-0.0749419958233459,-0.665645555014446,0.00917341036882868,-0.217227281659825,-0.327544095814903,-0.106345048204202,0.319285051173211,-0.108428617434582,0.0150348236646459
235,2820,508.75,-0.0750468383143622,-0.18679690348321,0.0588757966363546,0.38563626587118,0.178414841197339,0.149466812869127,-0.129746505659136,-0.0240381791383379,0.109182921496932,-0.0788617516615277,-0.660404032112928,0.0117953258196892,-0.22112306693531,-0.325166396201675,-0.105859668112835,0.319359113261468,-0.112980443854966,0.0151983365881278
236,2832,508.75,-0.0785801685878325,-0.190327437951414,0.0594852559581797,0.385448954436952,0.180586680452327,0.147121075441722,-0.134675495627824,-0.0232106898931098,0.111266756135629,-0.0811185384854497,-0.658802409472631,0.0161680038303274,-0.223748461943656,-0.325577588789652,-0.107291938823465,0.314728802329515,-0.109994600407693,0.0140315081006529
237,2844,508.764,-0.0811354065241368,-0.184088751193308,0.0597292418976942,0.387460058624449,0.178543638632829,0.150715550884213,-0.132378595577677,-0.0215785483242527,0.103470885617246,-0.0769420575445784,-0.660977623000254,0.0167431636617638,-0.219011739303755,-0.325311907578191,-0.107464131239282,0.31779061118879,-0.111756499668446,0.0106773600873602
238,2856,508.75,-0.0824660940325823,-0.182669353035818,0.0582129896972471,0.379986067352508,0.176740760098544,0.150351783065517,-0.13201441843927,-0.0231393925739776,0.102040545926564,-0.075761167393204,-0.664075304663691,0.0106723904638951,-0.218375835902148,-0.328740228249991,-0.108367228802145,0.31981533950101,-0.112008267574834,0.01129225694754
239,2868,508.748,-0.0852179534778697,-0.181382418391544,0.055760705450148,0.375943446547762,0.178909431614809,0.148344189702974,-0.128909646724146,-0.0286654864987817,0.104555642564955,-0.0760221294492862,-0.669787250765294,0.0158733074652274,-0.215594648645018,-0.324641377243163,-0.106061256509971,0.320338141857147,-0.109474935273018,0.00960320392900194
240,2880,508.75,-0.081350546932948,-0.178986298899988,0.0507758638078006,0.375244241247103,0.179733655205536,0.147738929907852,-0.129084465776231,-0.0296659843113405,0.0991453999702524,-0.075701856668137,-0.670725151171055,0.0109127706552224,-0.219124559935926,-0.3252587553776,-0.108253177933481,0.321397103284924,-0.107339998766519,0.0114707540700901
241,2892,508.75,-0.082535166938323,-0.177021163025599,0.0511423164834485,0.376767783661282,0.180485674002808,0.148979951640237,-0.127958328391815,-0.0277239501446795,0.0946598202839393,-0.0723473815625736,-0.671784597993636,0.0088846995931306,-0.21716089044754,-0.325103457582727,-0.107145847162588,0.320712553863361,-0.109896911653114,0.0120907367428066
242,2904,508.75,-0.0833202827184558,-0.178504351190771,0.0532058212296845,0.3780590082471,0.179526645331499,0.147696859965999,-0.133150318247878,-0.024024807841043,0.0934110251632734,-0.0745671782591111,-0.671675838468984,0.00928545353600381,-0.218583193178055,-0.32632680916085,-0.10780662429953,0.315780372859577,-0.107876555845404,0.0108891921950145
243,2916,508.748,-0.0835754915979485,-0.177353061488308,0.0567968058298063,0.376799347444917,0.175825952486296,0.148704743583872,-0.135335024695588,-0.030879691949219,0.0919448019809822,-0.0768110284491315,-0.674771252088447,0.0117610924858709,-0.218115618009844,-0.32383921791684,-0.102118169412355,0.314616401177518,-0.109394521848488,0.0111954842330919
244,2928,508.75,-0.0837192972053084,-0.179668987546548,0.0560549918942223,0.377581587463486,0.174282737964053,0.151097132878705,-0.13278867313154,-0.0326551840913815,0.089842534251862,-0.0759367485664324,-0.673650748007864,0.0103239027094014,-0.219905668097736,-0.326193936314802,-0.0984225036301638,0.313067289411527,-0.111776752629796,0.0114852455075758
245,2940,508.748,-0.0805950224492097,-0.179037325081814,0.0578935952359526,0.380146948329607,0.171303398249814,0.150789458645372,-0.136015779835917,-0.0306462200712969,0.0883067015408188,-0.0786214794100993,-0.673040819523613,0.00756947890456041,-0.220285335977975,-0.32592598078037,-0.10165858700119,0.311336994484172,-0.111947607451591,0.0157754969106316
246,2952,508.736,-0.0802134419330388,-0.177099223748228,0.0598634023710026,0.382199502595214,0.173877880121063,0.151736416736414,-0.135390780161748,-0.0304419736251261,0.0893678076470188,-0.0797253721407492,-0.671366926513368,0.00990129139847032,-0.22369830719517,-0.327719161813299,-0.100045138398033,0.3069475436298,-0.112772216438748,0.0179764367598878
247,2964,508.748,-0.0841284141043236,-0.177172966453725,0.0622214207776717,0.379722934434066,0.173819772493047,0.150728306644007,-0.134741065766264,-0.0316007412619794,0.0887343290286317,-0.0788148448777175,-0.673431895560112,0.0117741052353907,-0.221772766734032,-0.32595054203551,-0.0992337483430652,0.308303024346386,-0.11256672915291,0.0190967012215623
248,2976,508.748,-0.0869912919994206,-0.177555438536948,0.0594665554368273,0.378627340309951,0.172629285060613,0.151096259011766,-0.13233880024804,-0.0320242879953817,0.090267109675379,-0.072110586735527,-0.67538435744003,0.0149492391095865,-0.220324776861354,-0.321249021647968,-0.0978456400060433,0.313622712374814,-0.113221348111982,0.0190279967993021
249,2988,508.742,-0.0852132596998907,-0.175182485436203,0.0601879434260436,0.376040302787139,0.169868279508156,0.153121997662791,-0.135149695625566,-0.0315594577878674,0.0880993284092588,-0.0724622876632622,-0.677878322417008,0.011863680927365,-0.220308976983425,-0.324350187780862,-0.0946409735551501,0.310400335427067,-0.114641344762431,0.019279969260873
250,3000,508.736,-0.0830860970116024,-0.177614884975281,0.0615411119472708,0.375834387604925,0.169972859284775,0.152410217837851,-0.13518993477671,-0.0312276259258447,0.087870924856768,-0.0722762515696195,-0.677930883403581,0.00982559526688748,-0.221827311563365,-0.322062457386663,-0.0976288689056496,0.310217671386311,-0.115039665064743,0.0199427535659318
251,3012,508.736,-0.0842593997485605,-0.177580681021133,0.0623895891326886,0.373507289691641,0.170393103838161,0.151824527209609,-0.135203440915679,-0.0284499163260364,0.0869725091587752,-0.0718308456242354,-0.679967471573258,0.0120676351687944,-0.219018121437032,-0.322189288439166,-0.0989087142912659,0.310614302531194,-0.114013845129145,0.0202473409725498
252,3024,508.736,-0.0851305157406457,-0.178657172629838,0.0627501404254785,0.374239598807796,0.17023291909375,0.151741382576178,-0.136195606849313,-0.0281146772197576,0.0874315987462587,-0.0716067661159241,-0.680818737503511,0.0127957681691661,-0.218828916145773,-0.320980370141838,-0.0974858222287809,0.308673647518628,-0.113479572754618,0.0192342907241264
253,3036,508.736,-0.0865760686632983,-0.179162949340579,0.064892265564343,0.376605639033526,0.169109468129681,0.153134451506693,-0.136431285768285,-0.027228795866824,0.0878634131408112,-0.0734781592582544,-0.679880767426484,0.0162285080722057,-0.21816890932829,-0.319868992817214,-0.0978135268387663,0.306834900594326,-0.115089419027652,0.018634969459709
254,3048,508.736,-0.0870530150176377,-0.17918673641121,0.0661730127109155,0.375785813315842,0.165763299203127,0.15416414215567,-0.135176923259342,-0.0298573023669354,0.0900452302072133,-0.07387241157528,-0.678044078530365,0.0166979526184073,-0.220463627555903,-0.32371529577633,-0.0962709278335027,0.306745078510017,-0.115927083348074,0.0194667384962041
255,3060,508.742,-0.0915033343729439,-0.180372055006386,0.0672940331985252,0.374539023988148,0.163498801863166,0.155354807484585,-0.133008002653641,-0.0318708528947273,0.089351044219416,-0.0709676388623608,-0.678408244099893,0.0194299400001252,-0.221494153312441,-0.325613487634147,-0.0912762243781941,0.306071382200816,-0.116386095833784,0.0184862752997253
256,3072,508.758,-0.0905655659175197,-0.178576519349846,0.0653261444434426,0.373734706827992,0.164279504323455,0.155029412251397,-0.134101137307451,-0.0306382046202227,0.0903801655957288,-0.0692178051894164,-0.677568426532959,0.0183139285208432,-0.221203311092071,-0.325715218177942,-0.094687558160765,0.309103661956296,-0.11705447666737,0.017074740773029
257,3084,508.736,-0.0896193552532498,-0.176378934031678,0.064573675159286,0.376177766544638,0.164861950161583,0.153346576415517,-0.132219600662055,-0.0308058284100498,0.0921366771319571,-0.066705750346103,-0.677206012445075,0.0183293096401885,-0.220460577412646,-0.326494336584424,-0.0943587892725494,0.310095407581065,-0.116015474327826,0.016681351025028
258,3096,508.736,-0.0859215970374924,-0.175714194411267,0.0665521178477913,0.374301124710295,0.165157805624918,0.152533152724101,-0.132587836181732,-0.0297934437650652,0.0916260949038917,-0.0690909504948623,-0.679411535460228,0.0190883956483311,-0.217937090883833,-0.325427297507846,-0.0943544951888031,0.311057068725928,-0.116567689416464,0.017993036779842
259,3108,508.736,-0.0853077383741081,-0.174051550945592,0.0651434981696251,0.372647214953896,0.162349498381026,0.153699335808638,-0.133173743649728,-0.0307860457759986,0.0892592807798848,-0.0688266859424119,-0.679316954659043,0.01599729712822,-0.22060054184816,-0.328607112703509,-0.0941443379669823,0.310670492518006,-0.117621082220143,0.016714204360935
260,3120,508.736,-0.0852981740383475,-0.172348343411386,0.0641920149150135,0.371976603442941,0.161431928474093,0.153573420658367,-0.130592688362426,-0.032411366286565,0.0891994019083657,-0.0678200970071108,-0.680820087966073,0.0180500535084891,-0.218991833845823,-0.32872561124743,-0.0940778753128404,0.311962633453582,-0.117553576376649,0.0171289396609596
261,3132,508.736,-0.0882853719229574,-0.172031235466138,0.0628337275309547,0.371709499973828,0.162643140837868,0.153978025659854,-0.130467011827639,-0.0321309160461486,0.0899123016370238,-0.0683189760534138,-0.68095440440918,0.0191972085377327,-0.220537503914769,-0.32837446111226,-0.0904022558061935,0.311364378363616,-0.116326694871634,0.0155375654445798
262,3144,508.736,-0.0890111414883415,-0.173454327507162,0.0637462938944249,0.371185841279853,0.162452684159044,0.154130334159923,-0.131111479050446,-0.0284421392906667,0.0898295400122387,-0.0667275130283526,-0.680665292852404,0.0192643203482453,-0.220024743963284,-0.329324493010004,-0.0881718085056965,0.31171571628471,-0.11694481423109,0.0157103411592329
263,3156,508.736,-0.0891391229293284,-0.173147903413324,0.0641830741163258,0.370426382612797,0.162468570390872,0.154631603883469,-0.129729219872454,-0.0302939790587647,0.0912159119745828,-0.0667422825890582,-0.680674840933194,0.0196862253070153,-0.220580890965145,-0.330376418404881,-0.0865056356585422,0.311108637993121,-0.117542153559718,0.0157958899134614
264,3168,508.736,-0.0896752151685403,-0.1737994435532,0.0654202175790312,0.372812984027271,0.160395596048313,0.155202595776444,-0.129197419794387,-0.0294782101178172,0.0891716019054472,-0.0664788156232224,-0.679948951614594,0.0169037100505828,-0.22139137458846,-0.329713722807233,-0.084871755066491,0.311166525960078,-0.11825227557061,0.0172915352856159
265,3180,508.736,-0.0908095880868987,-0.172465918666061,0.0638211881880674,0.372547650754718,0.160535254311084,0.155076251205563,-0.12866133766331,-0.0305299705277107,0.0893914865473564,-0.0654616448723199,-0.680643886625148,0.0153560363222453,-0.219945668353374,-0.329392890679748,-0.0864573418987599,0.312268214979519,-0.11752341798374,0.0177538270537282
266,3192,508.736,-0.0918620720557002,-0.171061318294808,0.0640965516212397,0.37319427520403,0.160462399560015,0.15398628638942,-0.127132928300477,-0.032999081630669,0.0889568448556266,-0.0652148796814603,-0.680830315205432,0.015366507280416,-0.220145642625662,-0.328958049787074,-0.0857879856506082,0.313432710209355,-0.116536317059646,0.0188104413357645
267,3204,508.736,-0.0938497659320855,-0.16994862436022,0.0651342988749701,0.372735844551428,0.159896451974861,0.154393051985327,-0.126580848340911,-0.0324307795218598,0.0891059572807673,-0.0644811310060513,-0.68125383615108,0.0171485897121333,-0.221764663131101,-0.329252673082853,-0.0847331629266297,0.312015625085607,-0.116762282461159,0.0178153731704076
268,3216,508.736,-0.0937415078440146,-0.169701876004124,0.0650214012033634,0.37297683649283,0.158037625771141,0.1551242182789,-0.126843600244447,-0.0322147714252031,0.0888247302473959,-0.0636905535355408,-0.681332336867443,0.0159299128025778,-0.222741384832202,-0.328660473584536,-0.083853324160671,0.312533118376315,-0.117448563496494,0.0166565428529394
269,3228,508.736,-0.0947259599997067,-0.16879200278144,0.0641530731179471,0.374049863486222,0.157973780961117,0.15548800285827,-0.127150526400064,-0.0313661519122559,0.0872215945024836,-0.0636294235842635,-0.681173605479022,0.0161570452779652,-0.222209939400039,-0.328927304302764,-0.0849474092608845,0.312065243330311,-0.117291698689954,0.0173783433588251
270,3240,508.736,-0.0950431966806697,-0.167663132327542,0.0643869280661118,0.373940699095676,0.157220660411694,0.155719397682256,-0.127262473377643,-0.0299244947157065,0.0862198413769465,-0.0653325793429367,-0.680256382388555,0.0161692564544935,-0.222207299443099,-0.331027963839143,-0.0858354252015274,0.312754180018821,-0.116706079946767,0.0171010703434331
271,3252,508.736,-0.0955384324712206,-0.166846700336794,0.0666292654435478,0.374253326383506,0.157220681031848,0.155759501138669,-0.126137540809187,-0.0298043763955793,0.0866463941102206,-0.0655633910929864,-0.680485946391951,0.0165941086569139,-0.222975655871051,-0.329965482587615,-0.0858847941015578,0.312147336451531,-0.117521130804015,0.0175031728306643
272,3264,508.736,-0.0964576211634425,-0.166750323587087,0.0677304700623979,0.373558453550186,0.157650757708599,0.15581425585486,-0.126125292414035,-0.0313682238300232,0.0888066054510251,-0.0651291361351328,-0.680372524908355,0.0170950258902717,-0.223221038354692,-0.330192310845315,-0.0828120882142221,0.312095220860286,-0.11775897089225,0.0190091800233182
273,3276,508.736,-0.0954182446044527,-0.165682147028353,0.0677665667998978,0.372231200833735,0.157663277403309,0.156050819269428,-0.126558159279462,-0.0311627747770186,0.0903807265023323,-0.0654213761099543,-0.680646423046743,0.015252764409039,-0.222868552076124,-0.329773107167463,-0.0820505994691349,0.313985131324101,-0.118214094150335,0.0188742650803671
274,3288,508.736,-0.0947595441669319,-0.166044037689108,0.0663510803052881,0.371064030602524,0.159215674303208,0.155142083750922,-0.126129193372223,-0.030490635349072,0.0901870307472062,-0.0648728716235101,-0.679828102201762,0.0166310054841611,-0.224824850713383,-0.331396271878507,-0.0810732856669067,0.314994437161996,-0.117120879826774,0.0190680374539831
275,3300,508.736,-0.0936656670733864,-0.165911649117069,0.0680943636893779,0.372937021364175,0.16029410326073,0.154752772630931,-0.126285238840031,-0.0303702495310015,0.0908164625758267,-0.0657894648470175,-0.679434135423215,0.0159988983654171,-0.22432256923726,-0.330732336831156,-0.0799829150465077,0.314121951705533,-0.117514931338696,0.0194308849792376
276,3312,508.736,-0.0940601568553224,-0.165065826176081,0.0686259881780649,0.371323467899598,0.162334241535824,0.154315726320425,-0.125599161644294,-0.0319895762203965,0.093126054900651,-0.0669470275465798,-0.679991208757321,0.0173312088377082,-0.224262525937683,-0.33069380322695,-0.0804633753854864,0.313467252129489,-0.117067724162736,0.019033082016908
277,3324,508.736,-0.0936579297602287,-0.165453222181322,0.0675117116021707,0.370771039938945,0.161088936863348,0.15557553412115,-0.126123080315929,-0.0328205450371286,0.0914289330233703,-0.0645578788945957,-0.680354723846954,0.0161970864586429,-0.224047602481859,-0.330247800433806,-0.0806388667749397,0.314241560127575,-0.118767373804352,0.0191914060104762
278,3336,508.736,-0.0928871464619837,-0.166074483264625,0.0658659747784903,0.37081102965673,0.160892789526614,0.155644342933469,-0.126639310393304,-0.0323957433614611,0.0927194537528609,-0.064109137267153,-0.679992221230857,0.0159533243699079,-0.226672908152281,-0.330815478156905,-0.0790558479041662,0.312781568751146,-0.118565131352307,0.019642459288656
279,3348,508.736,-0.0937089764757821,-0.16591899115434,0.0661826967553066,0.370457334194476,0.161243948713526,0.156202428600933,-0.126636661819879,-0.0333350253054268,0.0924573528423065,-0.0635990976721393,-0.68122654643685,0.0161864873254767,-0.226496507538008,-0.330038723659821,-0.0769957368984773,0.311201466092756,-0.119288406245805,0.0179576433848176
