Generation,CountEval,Fitness,phi.proc.1,phi.startTime.1,phi.endTime.1,phi.jobOps.1,phi.arrivalTime.1,phi.totProc.1,phi.wait.1,phi.mac.1,phi.macOps.1,phi.macFree.1,phi.makespan.1,phi.step.1,phi.slotReduced.1,phi.slots.1,phi.slotsTotal.1,phi.wrmMac.1,phi.wrmJob.1,phi.wrmTotal.1
1,12,5.1827,0.14238051335745888,0.097488704915956792,0.23181051054121043,-0.10551493511881466,0.1746539506641864,0.11076556664512578,0.16717054229053238,0.2462403880584734,0.25834904459977565,0.22981349292255934,-0.0092636510149325425,0.16726110549476503,0.33810290544434857,0.13650219323087945,0.22191395792724916,0.20502143422132335,0.089858402498590825,-0.0882229265486797
2,24,1.1429,-0.024367037601010208,-0.12819861387107914,-0.12149074818738048,0.26233211291366887,-0.14100851543767051,0.043037127440126978,-0.036460416908931516,-0.098158054023470664,0.0085516969316996785,0.10299721651616361,-0.041443585687224213,0.05343188933248913,0.19215602473341459,0.023824899309098476,-0.21031132119119963,-0.0079604454191260672,-0.030203311042376221,0.025203730719788549
3,36,1.1410,0.047399324656105746,-0.22897379686062233,-0.27620026622918104,0.229698846990204,0.054819004926380178,0.046780944516986472,-0.065109751602658236,0.0100583191455095,0.181412341517751,-0.092070267118214616,-0.22543921732176123,0.1485382204539242,0.16124840700269036,0.025934724761415822,-0.26160603084258111,-0.068637409646913269,-0.14781162536316389,-0.087498074314705673
4,48,1.1962,-0.0046516372582129251,-0.1711111892918617,-0.33997031350423967,0.27632547902789845,-0.0033051504886829086,-0.034440995339037668,-0.053615468243684065,0.061813234241070728,-0.012165390169551392,-0.0094595764963341239,-0.16587163289723655,-0.13384387890072663,0.29913646961629203,-0.12112357278245059,-0.075401606439132837,0.11931716102609323,-0.047929773202725033,-0.055139335615886589
5,60,1.1900,0.17987819950687392,-0.099151909544385242,-0.098890112218651044,0.2223151046305854,-0.13164899271173616,0.1155534657873597,-0.2730839292341028,-0.18478190671368491,-0.0086181835644243542,-0.31214417092698626,0.0978157273531404,-0.11086433084786944,0.06443945639373877,-0.022859512343872963,-0.14335361867327806,0.10318016322465449,-0.26984803166013477,-0.072305996524000049
6,72,1.3534,0.17007059257248078,-0.044414325816413851,-0.11950179527664528,0.0144831380679785,-0.18951178331317617,-0.17522409102347458,-0.22262056108575978,-0.072193923529508069,-0.01289873220497228,-0.22983534742943354,-0.0718655928957653,0.067388660268479131,-0.11197481739857322,0.13256115963593851,-0.031783856955189906,0.010463506352622094,-0.2384197690653094,-0.039216797029604046
7,84,1.4047,0.22528960081736429,-0.099321540484657453,-0.065131736614330832,0.12941215102591608,-0.18046426095145671,-0.32990381792719908,0.15918562579709891,-0.10678650812523527,-0.18360845733941863,-0.17308920060736196,-0.33074941988142814,-0.041993836928598073,0.023505030320400973,-0.14910779426833171,0.030182248664545813,0.19478708887246982,-0.0071067004890269375,-0.0680847107954286
8,96,0.9120,0.155810231784182,-0.097655496637208808,-0.11175412146346232,-0.043029110670403346,0.10214470240300416,-0.1063065720433006,0.044651092084320755,-0.098761911724494639,0.030095571819682181,-0.055875990038514137,-0.347140443219882,-0.11326355145926266,0.18690657150473802,-0.063572839017431521,0.080314668847315016,0.1853921513842684,0.031562707793829095,-0.19161415012090172
9,108,1.0848,0.43535384132774568,0.0042998930314886372,-0.13690010599051824,0.11186348940009251,0.022132276205574456,0.062042015322225912,0.016385202963019263,0.043591596400814364,0.092317675863859,-0.1084660134769969,-0.25407252018449905,-0.07131515558451712,0.070901296755661578,-0.087075785975437761,-0.028028743592608443,0.095109635466386108,-0.027867582327832569,-0.17763190853475688
10,120,1.0803,0.33510190320139466,-0.02495971896563089,-0.42850505407790929,-0.020528838139361537,0.010488963645930662,0.035280440455553591,0.092998864851262353,0.014585411700829793,-0.097717902560468764,-0.29283735381096,-0.22931187684156731,-0.074870319583003733,-0.0026712153470303812,0.016333425466899518,-0.055219861101222296,0.13130256483970013,-0.0044766220163437349,-0.27428478877449358
11,132,1.1318,0.36588565390724853,-0.038212068307831359,-0.42534228258841328,-0.13650333068050188,0.045116822998872805,-0.044686589230293138,0.053200839583180434,0.039058623894068854,-0.1543259000916915,-0.32644434843934905,-0.07401970293934533,-0.27622939752933734,0.06766153412190215,-0.067793576027941574,0.074513290515893935,0.20718476388872475,-0.044022439760757766,-0.22696013387550223
12,144,1.1216,0.12926636820283016,-0.20511273590130008,-0.21400052202383232,-0.11288342807829632,-0.12761981284820539,0.0368905861327353,-0.12277802133997352,0.11934561152018408,-0.27846365940675366,-0.30982764892267572,-0.030382856251898533,-0.32331397625100922,-0.022303800803150378,-0.21530985442030981,0.11314689479408813,0.13850402388037306,-0.10470008950110803,-0.14414620388736468
13,156,0.9990,0.20037388321040042,0.0074093824504997772,-0.24842955247794,-0.19582071004983315,-0.3757073829869666,0.0552638819027253,-0.20559244957415512,0.26411572016564361,0.005023893285907635,-0.29537423725535517,-0.075449401395059359,-0.11158260048734119,-0.0029957477292832046,-0.19521761367080026,0.10624682123063163,0.18715293838951461,-0.067694783870659123,-0.18496334928953795
14,168,1.1852,0.11044224181445407,-0.13561965184473787,-0.32130531345451385,-0.10980711966818568,-0.2437567527586445,0.0079688277847082354,-0.29470488975237047,0.30357705623955533,0.031529084667238062,-0.18835333941086435,-0.14106903050653893,0.086705483883927376,-0.033906862071883995,-0.35197225836554957,0.22777337144680637,0.12526772594591515,-0.10416036369249496,-0.029848290920503933
15,180,1.1675,0.19899584682392607,-0.057764704344207184,-0.36243521023911007,-0.078447017829185284,-0.10283334771441922,0.010145399371445568,-0.26546700410956303,0.25444501158782312,0.16329311550687936,-0.13123114304178454,-0.14036167560724713,-0.097124710739489209,-0.18015221436749695,-0.31542635412815034,0.13700280271044019,0.072799893440005314,-0.21369626565871147,-0.079898874087804189
16,192,0.9528,0.15523887549854123,0.0068145783067835265,-0.48300255056133051,-0.095008989400167637,-0.0375834389601912,0.15074807454987704,-0.20567508995023454,0.1989526758171434,0.15385766617717386,-0.13732489099049658,-0.27475626517712071,-0.097772999947927972,-0.15135591616468572,-0.20067730962641106,0.057447744576384858,0.12641843498121794,-0.15042105454330579,-0.0062958140193451239
17,204,1.1678,0.18362477748906134,0.0912148332438509,-0.57473235393656708,-0.06550520938965064,-0.030046176487541175,0.12005248790269479,-0.0808252316513318,0.27752192016077354,0.21445808965925542,-0.19262502883701207,-0.23050020270834054,-0.10127724023438091,-0.057875213420320905,-0.1437101207891105,0.10011183493854291,0.036217081094410311,-0.1350070621415585,-0.036838621451439749
18,216,1.0037,0.15491472067194775,0.081598273689106229,-0.6209805458745512,-0.058262364138059165,-0.025104208768976052,0.20191957424370807,-0.02441018446451906,0.20180061319293402,0.18980424125733888,-0.18247712653889248,-0.20934283303880249,-0.10347905001939947,-0.033897725615510022,-0.089077749752729418,0.12621243577873811,-0.020013672584932918,-0.19725461234598232,-0.15014590402720782
19,228,0.9641,0.081010582622381,0.10559622303886283,-0.57510182031881041,0.049438947552874674,-0.057654721427846375,0.1583684742334634,0.0438870610191529,0.11940168154682809,0.046464241722382636,-0.10157191945418784,-0.33942378714569471,-0.069397603439665348,0.093571394901135363,0.049525310233581366,0.23692321694747223,0.10031228060641115,-0.066046253751544576,-0.18999193010825147
20,240,1.2117,-0.00767978585002757,0.11864273510487607,-0.60990609555506015,-0.091678491073677551,0.026014885038563116,0.073375629869470757,0.078653220916559421,0.16228349531520939,0.0028587425351718752,-0.14055911141002106,-0.4705477775986735,-0.082057293682827367,0.10754892345238437,-0.02550329224547597,0.048398791338848862,0.112048181171648,-0.023199128872245026,-0.19039083632882159
21,252,0.9506,-0.072906885395118082,0.15643625499384234,-0.51602180785321339,-0.18230075336184864,-0.022735369485333095,0.088998891862630047,0.030305362303187328,0.21361965511737435,-0.024567867570198614,0.021846706180149052,-0.42771154292986724,-0.0032601328176488538,0.21847770995883739,-0.028159379730088089,0.15069253303151436,0.25435629034520568,0.032944783459930266,-0.1939792881332654
22,264,0.9089,-0.056015599821618835,0.10558828494045676,-0.55609624783350631,-0.087895609361459542,0.034670030602842038,0.0896716996641412,0.022042717220948565,0.22499774481321938,0.056908998872165877,0.038929813562447908,-0.42351653682093021,-0.0024543836224848077,0.31416356098121717,-0.028205733394638711,0.13380918704183611,0.14323270946686426,0.037812716577578932,-0.30311525792528327
23,276,1.2536,-0.15125016899003055,0.14620425818794761,-0.5309234505020014,-0.19464259475238294,0.05664878074044221,-0.009600899025037201,-0.0075527432179091332,0.23465666134042309,-0.0044901416255760454,0.019399211803956543,-0.3802124639487417,0.15507609338139158,0.2310252229910959,-0.093016891835985077,0.18106843730809108,0.033709043729023308,0.042191627283537328,-0.299888707663596
24,288,1.1681,-0.19269298470418569,0.14057433818251724,-0.48822773473693115,-0.2904504491619635,0.093940686020567321,0.014821786617048917,0.013660286194175985,0.29888278890729975,-0.10000379028861663,-0.013335607776732396,-0.41854881697554819,0.13657800852790075,0.14652141136907212,-0.1891467201624755,0.14826065570251437,0.026799239944515125,0.027603580375493632,-0.2418924450457767
25,300,1.1573,-0.060689583867663842,0.1250725274514039,-0.47728152804699703,-0.33079816749625696,0.01933981017130991,0.024675927067076605,-0.14271828266292769,0.24479242422523165,-0.11067931476558968,-0.079740727965361732,-0.43820432005218413,0.0921920886717136,0.11485585039375883,-0.29866823395521835,0.054407362679160361,0.082091117571737,-0.061948298841267437,-0.27438352597305327
26,312,1.1129,0.1010331959763702,0.049649091289960347,-0.407183127875272,-0.18339185116894213,-0.031917811005303408,0.054817161381327507,-0.15220067453572858,0.35323969124390614,-0.0950738086741639,-0.18952873101856996,-0.550107396383377,0.075495447071867144,0.13803695426780385,-0.21596813354993269,0.038149140295936065,0.14737656051777176,-0.07971346250630193,-0.22662094005384342
27,324,1.1847,0.046369138998347527,0.049679483696289696,-0.51071239348669262,-0.15106185619940438,-0.013963965109331261,-0.028774422599878998,-0.15455264512786993,0.372529024106614,-0.16930490963263148,-0.20860039343806913,-0.49313553446347624,-0.0055733626076091758,0.059641115736068631,-0.20151827090117577,-0.0553961636360757,0.12252929485211249,-0.10100716327449213,-0.20114861086136335
28,336,0.8942,0.012453845291309643,0.065126721530400583,-0.4351724925265148,-0.054867067897018146,0.13326867188711727,0.07815880486815624,-0.1743029808689662,0.371161580460961,-0.1951124252587299,-0.21207086958398658,-0.43308263588143997,-0.15138843676433675,0.10519014323505674,-0.17229865464527372,-0.052458071616168576,0.1835701315667721,0.0362742763642536,-0.20653337437667932
29,348,1.0908,0.019237990506300498,-0.014223662459425435,-0.49543027282095292,-0.0042585322739982241,0.016115083726479802,0.046920481149125122,-0.2048054536930449,0.4486021317712951,-0.21722238525646118,-0.13033206701214772,-0.38813848783426808,-0.17718722075183288,0.10453413925294114,-0.214466107911507,-0.090869877383643619,0.14076863387844638,0.017489016345492246,-0.21165668073806482
30,360,1.0935,-0.010901476808767813,-0.072385111705616262,-0.55256234637092139,0.064592227144193978,-0.0109850826235463,0.1027427011328141,-0.18519853639751629,0.4320741798343945,-0.26351757797963749,-0.089484787458087689,-0.37686538481838128,-0.180706957373446,0.0806605911599246,-0.15762827726214357,-0.058621590498815129,0.1576439303844801,-0.039651505509577537,-0.13186054457827376
31,372,1.1359,-0.012217903218518792,-0.10184390475436361,-0.62135167697953753,-0.0040487004438480145,-0.019940808534818125,0.054226709629299222,-0.14538480601451051,0.42979456906132113,-0.23550750395097308,-0.076269414565394461,-0.34111541725111361,-0.20223874612057885,0.033440094316609742,-0.15159389397006731,0.07004671434862654,0.16030619376315206,-0.032032715853923581,-0.09196317740203741
32,384,1.1348,-0.012248568353017814,-0.12030086988930073,-0.59812882390437172,-0.034669297109513587,-0.050747796422383258,0.090018206251028951,-0.18940906803448429,0.36741427001369242,-0.27772538846699446,-0.17265243003076761,-0.27539551173113225,-0.20918070718423917,-4.68549810799055E-05,-0.22728857165644425,0.12038619022997114,0.11749765893595869,-0.038452876060125804,-0.03859906632187099
33,396,1.0932,0.070264539962720113,-0.18070416715662185,-0.5483769880719791,-0.010574577332550404,-0.098502071498195357,0.10181265376257553,-0.19354281147552393,0.35524925667963431,-0.2112017209817543,-0.17339441740929742,-0.32777364723860719,-0.29080114047767736,-0.10636521122113995,-0.1256590209598431,0.10010620295370651,0.015050320829167548,-0.0099495461299402045,-0.089967602118113
34,408,1.1339,0.093902861729119977,-0.18353501473089773,-0.51079766351271227,-0.053002258480084531,-0.1320706415152865,0.10057169335025609,-0.18378792694305757,0.33012847549931634,-0.25046200430482657,-0.18878669356080396,-0.30851560336735612,-0.33705266268701678,-0.15555432061110433,-0.17723149216883266,0.15182815946968306,0.084271294202652836,-0.045419304711131696,-0.076818365765242355
35,420,0.9758,0.14599953708093064,-0.12675578105227606,-0.407481357042557,-0.072911838855623592,-0.16713701321886262,0.10253401332090976,-0.1936707950779126,0.36007171654269482,-0.23437755520532388,-0.21322321894034746,-0.31297969983689694,-0.35692729067775569,-0.10000465716285986,-0.082805668697812418,0.18215754192236705,0.059486391970982211,-0.018699049865507366,-0.1048896526459137
36,432,0.9418,0.13855212946176793,-0.078403750120002932,-0.48491727685558589,-0.05566084506591213,-0.22879588066119413,0.093964477696913185,-0.18612329726380172,0.34054674351981723,-0.13946709544825922,-0.25662316402697266,-0.23647452521210846,-0.37306905909000659,-0.068613801518953424,-0.098442783625104779,0.21673780440695808,0.10355286770434602,0.0083607061305419,-0.18028182304875609
37,444,1.1197,0.13865893957830178,-0.02649137483261918,-0.55172083616776835,-0.059389922538540911,-0.22546225192549488,0.066985744611569989,-0.28030152177663781,0.29850326492180213,0.049904106429263934,-0.22670033998985137,-0.24020510486193633,-0.34620971270336987,-0.11713209688465277,-0.11516964402555964,0.15305403263297457,0.08302135097539115,-0.0075216006513823923,-0.18373771151793256
38,456,1.1073,0.16935574698652375,0.0023811240099349943,-0.54848746936722415,-0.14313381836169745,-0.20196525703702553,0.11774822495879335,-0.2770452019202328,0.20798809365236945,0.080985182158291882,-0.12671275828583156,-0.34621895948192777,-0.32198460158718828,-0.067317008112549231,-0.081627460072270855,0.081134892937474418,0.03105339647997318,-0.059715122766798287,-0.18550600988417415
39,468,1.0518,0.20789012077348695,-0.051930250619174688,-0.48770533681740319,-0.22367525163449006,-0.17332176239243088,0.16196955532956553,-0.368614072011883,0.14445603878091878,0.11103553840698963,-0.16823393686024535,-0.40848319026069568,-0.27756857618447583,-0.056168886741799789,-0.10508884269577046,0.047401893949736561,0.077291933647383126,-0.075176118928946586,-0.20991089559775214
40,480,0.8865,0.16869381647038106,-0.0035627433128793537,-0.48959022078100639,-0.26681516230915531,-0.19392634159268107,0.21993659537724458,-0.32916962593883314,0.085787334981024879,0.10721183586073421,-0.20780695108501951,-0.46982358442491551,-0.17660266370468938,-0.047461953169235675,-0.041456283222941107,-0.015691343666618965,0.084031660180761455,-0.1202807599906956,-0.13324888388954664
41,492,0.9681,0.12978649903491649,-0.014146166598308673,-0.45566980525367834,-0.30057745954552151,-0.20633481983294646,0.23628869366621016,-0.35789925192754291,0.15721098010358814,0.14500063833028282,-0.14939805737197073,-0.46849942280941126,-0.15188336082128723,-0.066152789640706533,-0.0050126398453308515,-0.021534054113779559,0.065422572392316636,-0.10724110397529761,-0.05138284512108969
42,504,0.9989,0.11871544427373679,-0.074441395085198522,-0.417754965886565,-0.34276802947382651,-0.23641761556591329,0.23958197057568151,-0.36755415395841612,0.13062631938875283,0.15574708111306826,-0.23570506089038012,-0.45538285728946759,-0.1620667476191523,-0.089780105444928121,0.012088277942846139,-0.057158595838414927,0.038942022239579023,-0.094654755413044689,-0.073917332163386751
43,516,0.9575,0.052482926545018932,-0.0037176430298446307,-0.34488818516139252,-0.32312100153422479,-0.25977034545491973,0.20339194870440033,-0.27272869505905684,0.15654944879361687,0.16014256260572265,-0.29256843217814482,-0.47040795067418317,-0.2261990051375336,-0.036981625673844,0.095569842893736115,0.026594582122517609,0.13165087538758105,-0.062761792449210541,-0.093960110184539564
44,528,0.7030,0.09079039239841763,-0.043090849063060793,-0.24613280512911165,-0.39483506513504957,-0.2241682078481981,0.18871915061565891,-0.32327336443802168,0.12747402547243206,0.12351382653210267,-0.30756002290354795,-0.4699185975278144,-0.23387051552658078,-0.063067996118959885,0.15010746685563681,0.061320058657892251,0.10431532881457929,-0.069880365736847166,-0.13752165839135708
45,540,0.6932,0.12676521365535659,-0.023067249994380416,-0.20182847574649418,-0.43928172094275125,-0.18187216004440512,0.22576773433444766,-0.19647891274137852,0.17033805989866396,0.10544837961913762,-0.26292133704613374,-0.50686126740812953,-0.22626364930820272,0.048721172601310626,0.18773564574890622,0.12337353263708228,0.072215194061928681,-0.092391285482710264,-0.18629644269015896
46,552,0.7378,0.14116581059283353,-0.047987418954674656,-0.17487457028515621,-0.3710124665388026,-0.19452514675559229,0.21567417151910845,-0.12095437486736682,0.10282505988236876,0.05320661674638117,-0.23639347043752143,-0.57087679540129688,-0.22692204964007159,0.065225433577171768,0.25362206496790363,0.12838566074975394,0.14790204789365652,-0.10610488823757797,-0.15727512801805729
47,564,0.4790,0.035837127752789855,-0.07948720514768795,-0.12084243104153888,-0.38531687354415017,-0.15887757292889493,0.23133373508719351,-0.10145338410204581,0.058295684714686859,0.0066297664908418225,-0.20473507563632354,-0.64466690910544433,-0.2060384584088148,0.040297427599647877,0.24335791869215442,0.025133372836662567,0.15669686211728415,-0.11584670262959072,-0.073016922203443316
48,576,0.6864,0.086542720300787149,-0.045115479862328479,-0.081664991807006981,-0.41377600407993775,-0.23711924244733151,0.23547915895795529,-0.047990259266806071,0.14628153430763785,-0.087786712431321787,-0.24342371114852851,-0.60830469368646445,-0.16085990136136966,-0.00581961335940094,0.19051381737956016,0.025635913509027195,0.17032539442544783,-0.11174290653919647,-0.099453495436450878
49,588,0.8421,0.061505410967614971,-0.12109350686310671,-0.12317713085096438,-0.41608891066127585,-0.16401526162571411,0.19296224353969998,-0.092196557608450178,0.21171844569837969,-0.14374570411554147,-0.259613971134997,-0.54631031186220935,-0.13395322217143013,0.018826838743033376,0.073135183463376163,0.013695630752680267,0.2027554200995749,-0.10981113527595754,-0.20350310101535654
50,600,0.6221,0.016692140415187493,-0.14432427471399942,-0.066346382276958937,-0.39642001175205088,-0.099107877898864591,0.23543607823865711,-0.16021520876464523,0.24234000105966025,-0.17581144869544998,-0.13766958267374713,-0.577450721369241,-0.10998568481982329,0.029005663242284197,0.11553631974339963,0.022703995853386318,0.25701520587850729,-0.16845482319242336,-0.22408545227906304
51,612,0.5900,0.068772052186319876,-0.092934829507376318,-0.027782835378296348,-0.42788836281900533,-0.072507608755557659,0.23911306026051171,-0.10128927136532664,0.16922323948205159,-0.17069974856314615,-0.14617803629990767,-0.65320265502119357,-0.092711355434372075,-0.040157808458602715,0.11840251743412225,-0.0918845749540514,0.23278203618071228,-0.14511753650255776,-0.11258379718330057
52,624,0.5402,0.046078437043434159,-0.077383631112769927,0.042992566842259564,-0.39515459046932577,-0.10073408799190385,0.21524827557340087,-0.11535565147059214,0.20658567746501741,-0.16284260498466266,-0.18186385661276358,-0.65360810875368347,-0.024436450380328757,0.026706639240644366,0.17679791736459372,-0.086584106796658386,0.2199520210946283,-0.12974338995973023,-0.16160088239459516
53,636,0.6820,0.12255687481116662,-0.099454190235769235,0.03186216218264909,-0.36965521379926769,-0.031638184038915856,0.24341290910759808,-0.16041495191246916,0.17749152645080921,-0.18313864715328121,-0.1772255395415053,-0.62383212964629675,-0.044923984533929422,0.023968102061250388,0.18105041626942944,-0.097921280786715831,0.16685422138833914,-0.19121109736245984,-0.24080765574358484
54,648,0.5217,0.15583252197941014,-0.04617706583532602,0.068241782473738147,-0.39045372357735381,0.0087815522285966917,0.24786069241517497,-0.11869504796924445,0.15622071104624002,-0.15779366706923192,-0.21741812070851121,-0.62839656399313748,-0.048503196851040445,0.0888344088787451,0.15646454215938976,-0.09318013730550985,0.099636858022023281,-0.2109928806632643,-0.24735308009551624
55,660,0.5319,0.13507951114685951,7.99120250058584E-05,0.025511591845462592,-0.36513860735521103,0.0467946933889996,0.26428924504371992,-0.079241148173773673,0.21789547550286506,-0.16645946381406709,-0.24571537638040475,-0.60535397848648331,-0.082545927729470919,0.12526642891102319,0.21598800540651072,-0.033362725780902644,0.15014597885909761,-0.19596574936244751,-0.229994377036219
56,672,0.4470,0.17045855714493091,0.035257001090403188,0.037191661741196057,-0.3777300464036179,0.070824861283523638,0.30125153597854309,-0.0674417228595426,0.2540289239736514,-0.17678145397976711,-0.23639068979774597,-0.5564429675521182,-0.060421364220217127,0.1773274962352516,0.16932834945350725,-0.0094918056736949755,0.12247314109605274,-0.26165198740469625,-0.22844591427130478
57,684,0.5211,0.1849769063034348,0.07577199578690906,-0.0090958880157208221,-0.36419188361256316,-0.01899601552721315,0.318708198060376,-0.11488763065621024,0.25798225978522776,-0.13778828038988208,-0.19135399030782532,-0.52282744197240127,-0.063673903726473732,0.20467388621012683,0.14017694138746792,-0.030315422391360695,0.20681889894314728,-0.2680642779286237,-0.24127488428594571
58,696,0.5555,0.19978779085783571,0.088294311358972477,-0.017975784707895157,-0.34027588491650984,0.038215236923365717,0.3316999051841466,-0.088822789286103543,0.24978610390886755,-0.16209443928229031,-0.20109490937458732,-0.51101361621843489,-0.022255420530229612,0.18796142306327368,0.093859065027973684,-0.11896020813769757,0.260347573894124,-0.27385987346602919,-0.1876694808931168
59,708,0.4957,0.21722310823350144,0.054978617019019842,-0.01903216656481627,-0.33989547205816723,0.031778660378430815,0.30599518961532457,-0.0802774617788369,0.17512787963340765,-0.15495429011218556,-0.16026306595425746,-0.5724145291563808,-0.037352908333615951,0.17219906655876205,0.15403346297895051,-0.1307840810446293,0.28321548646165107,-0.27400135681931409,-0.19218308162300998
60,720,0.5132,0.20303098112518356,0.013964434698544791,-0.025733882556361064,-0.35955809303829878,0.041178403187523367,0.2710164342717597,-0.052044343637485273,0.18014494230734426,-0.11341743963499951,-0.16424414871720397,-0.59889635384417528,-0.063425129942222075,0.20053023790175983,0.13330641671904037,-0.16562016835147028,0.26882773996163895,-0.21366421406832106,-0.1901954709594815
61,732,0.5103,0.24489358671617176,0.053725160471415415,-0.05859150869891766,-0.29730324618869053,0.047976244456519178,0.31565652763363894,-0.061198798097292784,0.24093997665456979,-0.15876216787011294,-0.1371878343136623,-0.56702591733688934,-0.053217275772324081,0.2040935294964917,0.1075867698479727,-0.14387249537275765,0.25489059146625342,-0.25428537504903359,-0.19382131868957192
62,744,0.5106,0.31697666003596509,0.055488498612228793,-0.02845155646341874,-0.32641129296397386,0.083313109402902291,0.30605511010967262,-0.057990188002458573,0.22527662722778857,-0.12973519596755284,-0.2197117609723728,-0.51214703920051563,-0.043986822151798076,0.19781682745197857,0.056625126032544416,-0.19180910939530013,0.25867829297360984,-0.27850587835620044,-0.15668984006448994
63,756,0.5267,0.3123238161633981,0.029019479306447372,-0.068276797696319419,-0.29368707765564867,0.0630106307854573,0.35344805662590534,-0.070023018904813245,0.19326433569315679,-0.092583601942461874,-0.19255088298249404,-0.52613133410797475,-0.11811275365958955,0.19240046078529147,0.03598715574544907,-0.1906166584731315,0.28335890174684564,-0.31690527848796229,-0.12404841895717343
64,768,0.5121,0.28595436590592421,-0.0061415013138834476,-0.10717371720288855,-0.33859990119436528,0.067247119314264386,0.35523276197003345,-0.056675393796960315,0.24668826649157258,-0.12021502535900676,-0.20888247976091875,-0.44424974530998473,-0.073301562257909653,0.18058314999979519,0.053849321957838842,-0.22578665001130244,0.28205017201818705,-0.31181113846355135,-0.097346375057720119
65,780,0.5179,0.27016532441110219,0.0017535216561637076,-0.11683405535678207,-0.3297341054698677,0.068262258338705667,0.36156742815703413,-0.064064134936304029,0.17593382618586015,-0.0968684046718025,-0.16902345402116661,-0.44003595174498583,-0.049501562997503336,0.22778057218906961,0.090728310649120569,-0.28396437012656706,0.27582153591216518,-0.32917565632643758,-0.15964029112221015
66,792,0.5660,0.28500631089896289,0.022603686867869791,-0.086551925307456021,-0.352103462639897,0.047543366687767215,0.3641620364407126,-0.066238714350081107,0.15671184286141263,-0.16256638466710308,-0.11971160934439376,-0.44595794910371561,-0.014347722569944479,0.22295628878772891,0.05299609088864362,-0.29055935541123223,0.28241140873171833,-0.323567772018043,-0.12585869715161382
67,804,0.5705,0.268162436998991,0.065200236489309893,-0.12778254281266457,-0.35772188948529732,0.0019947554015426476,0.33783407628524992,-0.071775555412865483,0.21043323685883278,-0.17272497932275374,-0.14576652226980857,-0.41823689145367465,-0.024555021351244675,0.25235997789799419,0.066746703300391327,-0.26305549952469787,0.29416486306005535,-0.30731034901196769,-0.13246881029058249
68,816,0.5405,0.28854154110593033,0.0868105964364122,-0.11610432421285234,-0.29106283849492082,0.041217867731954877,0.33321988819650927,-0.083385429726650764,0.27214195400982588,-0.21048239268354557,-0.19715704016152424,-0.37655209444818227,-0.050882127019834827,0.21871222643374333,0.0968219284218701,-0.29810877104542688,0.31231151602226026,-0.27496578132174554,-0.10914050880157206
69,828,0.5656,0.28207260567856007,0.034261090639521118,-0.10620835533313353,-0.29631504721333235,0.037769929196284857,0.33019337220549272,-0.12718417470437407,0.27255912293286849,-0.24058473434024022,-0.22153918775777517,-0.39627234635737307,-0.024276895753619496,0.18752502100460519,0.098910990107927158,-0.33319221768201074,0.27136342512260292,-0.27640781236488882,-0.14679200198290468
70,840,0.5228,0.27036663583883613,0.01912026553951118,-0.084525442591637939,-0.27380960935277171,0.12701327619251249,0.33685856726093949,-0.089772696889495338,0.25398092018588619,-0.25871134130923445,-0.20292187141121623,-0.381240527150414,0.010963592835214402,0.15969124375177288,0.081495448194022754,-0.36288417436833248,0.28372406179095311,-0.29494524102501568,-0.15028029258353351
71,852,0.5265,0.27368249358378793,0.017107540246776867,-0.11455958623137932,-0.28481821113450367,0.1542715989679368,0.34471304536462727,-0.079698379941624362,0.26648393988836877,-0.225143756237123,-0.169849938218426,-0.36835215561981643,0.017783672481184964,0.11257118680034342,0.058867075226787823,-0.37361941516812686,0.27679037521483385,-0.31950541005713007,-0.15644704604881196
72,864,0.5163,0.26432366561086307,0.020443958436420825,-0.08405642596207033,-0.26502959521236208,0.1834338692125996,0.35817187866834654,-0.10374511342412482,0.25970012536328413,-0.25209501947282054,-0.14499833663691652,-0.33781835459402165,0.016516295187795581,0.088306857240636333,0.075413640922135317,-0.4069070522701661,0.26642152664474805,-0.33736878499679152,-0.13589198706797292
73,876,0.4939,0.22497995498450268,0.0065662984006979062,-0.11556821854024642,-0.24004281993786317,0.22377264823880888,0.3880354692460305,-0.12449908912878384,0.20021393888311972,-0.19046898499654455,-0.099839614115380337,-0.32833332375669594,-0.0088868936704472757,0.10409452902891619,0.10548758091644031,-0.4443252357529181,0.21783828728464694,-0.36234380254800697,-0.15896277581049958
74,888,0.5151,0.23062989528693145,0.052196129721699326,-0.11419224740914888,-0.23196193641457682,0.192295917993189,0.38652176036687308,-0.12921212922713074,0.23837338545962861,-0.18601327112825181,-0.10058950805525259,-0.33612320382193628,0.026726158894872478,0.084204571664111813,0.064825952863850053,-0.441337418496983,0.25547216470793238,-0.35240424744834947,-0.12523430193893906
75,900,0.5684,0.234709088510838,0.090762823541493926,-0.12139298635226489,-0.26329931835655651,0.2035846346533243,0.38043021537559985,-0.0895296504346558,0.23458381694113142,-0.16261209366828697,-0.11920868592038913,-0.3764856334695425,0.04208045733395064,0.079842457151478086,0.050252305649436495,-0.45087109912266593,0.23267905588177815,-0.3069038114772738,-0.1606952916241001
76,912,0.5635,0.24044705827340221,0.050872285832027943,-0.16655974529494957,-0.2006279602855697,0.18242909681793057,0.39438316010007368,-0.094876271042307669,0.22431162028591881,-0.14814618871833846,-0.10671014531559272,-0.4188726236778994,0.020093988123064586,0.087183724315754441,0.0546885426759408,-0.43980036716640775,0.23645488861982583,-0.32626401339530525,-0.087202425314302709
77,924,0.5137,0.268695803420499,0.044731939190666072,-0.15832868446912871,-0.2231438214773773,0.15904000260928819,0.37026446203902935,-0.14760749051856403,0.21648352086154032,-0.11366265996420213,-0.095062167913221626,-0.43968276204412404,0.0089192768673911123,0.066306752634989377,0.057932221990841776,-0.42415173225836372,0.24853714826826095,-0.33293147901113213,-0.0815225418576566
78,936,0.5222,0.24301269781636339,0.10260245977455235,-0.14848870429226191,-0.24675778210216973,0.12311774951610036,0.38597918386141739,-0.12254287608190867,0.19391249831226526,-0.068843529088050331,-0.12477226406837046,-0.47267189770968182,-0.0096577670452755709,0.10395036037772092,0.052597025939106153,-0.41432698002575558,0.251810869412199,-0.31078302261452306,-0.0916657977714616
79,948,0.5198,0.28259300380022007,0.11076095043721709,-0.1490920546092368,-0.24050143081438277,0.16952238230851419,0.33739815505169868,-0.089400457913119749,0.20763115950633765,-0.0878621397805305,-0.15446173716408046,-0.44696227057350518,-0.00021269640689517539,0.10190755899898316,0.06209611986585898,-0.42051306351783729,0.30423791374569992,-0.29664272416912862,-0.099197121960647158
80,960,0.4909,0.25111825501716722,0.097960437401444486,-0.11333204927404762,-0.25716745221376958,0.22205987067310398,0.30800867979086144,-0.1347995047399585,0.19421524598358972,-0.090024144142119539,-0.13082952603047363,-0.48665851493372614,0.0089489932896712632,0.044321472150015917,0.076276708345059119,-0.42238507645640994,0.29136352635763324,-0.27740027686447566,-0.11146028371368881
81,972,0.4781,0.20699716021058337,0.092095033026935363,-0.11686867189199601,-0.2546065442803695,0.2775892754574521,0.294017552906039,-0.12905628978677688,0.191627807751371,-0.13236860929802333,-0.14046635704849075,-0.5007085359718324,0.0051593743686590265,0.023659810083864519,0.071028569848501047,-0.42709139241761834,0.27549007671281434,-0.26253107095164596,-0.0861022912437927
82,984,0.5106,0.21969310358052963,0.097236633251742463,-0.12211302118270136,-0.23765961832994809,0.306690180131232,0.29965230711346474,-0.11672931197363628,0.20590932169939644,-0.10670412751680163,-0.14154550754645251,-0.4774908364672793,0.028775439300913239,0.010474822837467347,0.091530415753197022,-0.42377787187196103,0.28405760219685167,-0.24054576560498628,-0.07879601837000294
83,996,0.4708,0.25056693696144317,0.049239525932619189,-0.102739351452157,-0.19949704866935467,0.32260749192904137,0.29641165908876416,-0.13608886930383718,0.20418858952068758,-0.12587498194240768,-0.16683080223185792,-0.4589157698754347,0.061100275962850129,-0.01922546040445736,0.10096090977017717,-0.41800386069330819,0.26483711457363562,-0.27096201217845728,-0.0862819602354541
84,1008,0.4406,0.23546377661202833,0.0752301816817424,-0.12698093120136594,-0.1528161645507333,0.39741108681821818,0.2917789896089919,-0.12951226469476146,0.20073605942306311,-0.068568578972397862,-0.1560563860250741,-0.42697107228240816,0.12630702963859977,0.016451478941057321,0.10802568529102805,-0.4457042633530785,0.25354347715830633,-0.25714395026680376,-0.082090175644525823
85,1020,0.4778,0.26091558925670977,0.014191297929729771,-0.088752866115921453,-0.16276571128969428,0.44621106353280127,0.30567376148258824,-0.05895892700911623,0.20321956193980986,-0.13405047327944275,-0.18904575712927182,-0.40149884356268506,0.084982078394251856,0.039829405218336042,0.12462696413741879,-0.37004978803343525,0.25307841179584806,-0.26276356671241685,-0.079541983470475919
86,1032,0.4710,0.26536137018979727,-0.01530122403627477,-0.068151082874318147,-0.093747991040326981,0.48934566679842467,0.27795276527760915,-0.043581355413236489,0.18860365644547619,-0.12726683607415726,-0.25177020957398655,-0.4361820377622283,0.060938304872643283,0.0401474527499342,0.11272646290736159,-0.34098271379424444,0.25812982992673328,-0.23190171405293575,-0.072708136641690749
87,1044,0.4652,0.29810461322018916,-0.0096265061817195248,-0.072043251676767756,-0.086085834481504864,0.45947028758764197,0.26590736900304313,-0.021682063194423146,0.17333959117686898,-0.083117056027128433,-0.23247917001986643,-0.47682773946040746,0.045738569982602881,0.026435121000235935,0.094357582397479892,-0.36462583682032335,0.24866448870750141,-0.23172701274930993,-0.10293602436186079
88,1056,0.4471,0.26643133362440224,0.048777804762345264,-0.036631669757613172,-0.062058836225671508,0.47347391860720911,0.28914311642851892,-0.044721046100513,0.19030575015306256,-0.090877251855140728,-0.22393174661433612,-0.44777595631474154,0.021882219338746994,0.045821808881664761,0.080372711888894291,-0.37785564358085838,0.22558290360324473,-0.24586328966500029,-0.10388034643078375
89,1068,0.4399,0.2947828204339194,0.013773076764136971,-0.052187951603547653,-0.086101927539909376,0.47373215295802634,0.26405143335210363,-0.0392251336151137,0.18083153863476537,-0.00078331121732770842,-0.22198060815464854,-0.45984797109164544,0.031814463357879415,-0.02000776015573728,0.10737991178527313,-0.35751216609306374,0.20782239382747456,-0.24017312523187792,-0.12615548116606604
90,1080,0.4310,0.336784788690715,0.030305749813170673,-0.056798150772767425,-0.083923687950365644,0.468173615252373,0.23134283647577122,0.041009352000933447,0.19063750110471075,0.0057186477458186641,-0.22839340228027932,-0.45751724311352104,0.047621495956123881,-0.054444330037713533,0.12024194714017788,-0.3482602023054362,0.20286006653344182,-0.20318814047402037,-0.15138718430381887
91,1092,0.4330,0.30984978094106241,0.021735540374078877,-0.062684772114998552,-0.064543884226574727,0.43955735592770823,0.24548737211827334,0.065047248323880771,0.18146389054238329,0.0319582249754611,-0.20357501713484383,-0.50967770146532643,0.046448219107378889,-0.08986565010535251,0.17497778484594834,-0.34099040822488319,0.18814852945327271,-0.21200534111612437,-0.13694339593626459
92,1104,0.4321,0.2674395454959887,0.0019293161889946909,-0.073643507516613207,-0.044080136282390756,0.47362761285482424,0.248167875557203,0.11904283280240958,0.20963613007847762,-0.067063639597770924,-0.19831036142316227,-0.47181740311741194,0.0075935406304660251,-0.086670154598950958,0.19892109533904215,-0.3496459731250966,0.17617409571740936,-0.21314755661081256,-0.12756949359288552
93,1116,0.4298,0.24799032459050621,0.02653120277610755,-0.0086941450620724517,-0.10644324610762357,0.44262338288247366,0.26276066638496987,0.10940744979026304,0.1966094785029302,-0.10751998952587556,-0.20590256680154637,-0.5052028948106968,0.027821209402168867,-0.12467771295279557,0.23349238060421082,-0.32429207117122261,0.1575290136325328,-0.23130708361843519,-0.11189410880838237
94,1128,0.4264,0.26621413551105616,0.0195372872334449,0.025566417753579963,-0.19273868453899498,0.429169810618433,0.22965298853259819,0.11305757923873194,0.15933671765231849,-0.0990432709117582,-0.19603759610207858,-0.51288197494971233,0.0096319614414626942,-0.13187165318338478,0.22477688527170961,-0.34375021994349636,0.087183245993841516,-0.20587938308135481,-0.16015547078804696
95,1140,0.4367,0.29241948713535393,0.025030400029275372,0.034369612614394113,-0.17182349957598514,0.42402372402815164,0.27056740916865907,0.11360343253796062,0.17743239838139532,-0.100773590187861,-0.17760242705257903,-0.49302961843101423,-0.044127638252474864,-0.059406153476908988,0.22549954307010156,-0.33026295497904173,0.11070020633992556,-0.23649948902417509,-0.18192745928802326
96,1152,0.4383,0.30514156038431745,0.0022404364377332,0.0033778340511398624,-0.2374077089811486,0.40219562695787164,0.21035214322277379,0.087925291374136724,0.17961113350426344,-0.067162075399409132,-0.24331557805169202,-0.5015916074573501,-0.075447127742290079,-0.026313093452761963,0.21843133487571489,-0.30323585073743348,0.10553069954798207,-0.17325977530278847,-0.21441007583864519
97,1164,0.4310,0.3245960900854562,0.010212660188270068,0.033286537331816704,-0.17007843411223139,0.43111102838194071,0.20719945735252293,0.098183960104108653,0.13761137250964964,-0.10902991771572103,-0.23512108022795045,-0.49549226395815765,-0.16694959280560945,-0.013625174137013911,0.21883489758849875,-0.25396416440705044,0.1138629961385532,-0.18165299733901721,-0.22585337821126797
98,1176,0.4306,0.30044410774978281,-0.019324271810491067,0.00015513536374428251,-0.13329998744342561,0.41743065651677935,0.21529535273247311,0.12161661677863198,0.16400790772145638,-0.089151954202236885,-0.27251923263311578,-0.53198873230186716,-0.17292735714915716,-0.040004722977645429,0.20855740633488476,-0.23866784943078737,0.10823354393827264,-0.18566512037304694,-0.21263362947804879
99,1188,0.4310,0.36016707984064811,-0.024947514642187155,0.0023167162226208106,-0.093226728378030449,0.41850196656832928,0.23667234771026879,0.14123831808424761,0.16152338324983923,-0.022813953564362763,-0.27879346785981463,-0.49193664242647628,-0.17794159081418534,-0.07890612331537275,0.20988831109934719,-0.21889571605240524,0.11049452113662739,-0.22102097796105286,-0.19403926059785109
100,1200,0.4342,0.36623129399108134,-0.038068740906493294,-0.010126544878418835,-0.11583108125851672,0.416677523135694,0.24525437003100811,0.16303513265238176,0.15861085975624173,0.040745238556173964,-0.24056464839703051,-0.5043574844297406,-0.097205238233999208,-0.07419602620897349,0.23489413315217245,-0.19514991673912521,0.13051758746290468,-0.21586448441632503,-0.15990816231412178
101,1212,0.4330,0.36759018371745206,-5.9822866294928219E-05,-0.025133783690208886,-0.14942714721474198,0.39766902992477571,0.21344785815689729,0.13927227217463367,0.16012798985991633,0.049035548401427612,-0.26369866787529422,-0.51688638455536529,-0.0497684224344602,-0.12894682967894339,0.23106211840689039,-0.21597439096580112,0.13164770397207365,-0.1967036989909362,-0.18821281894285882
102,1224,0.5271,0.36476607492809165,0.013429182239828419,0.0015715133200772669,-0.18735471421455879,0.34978131486934128,0.23118888861895695,0.165857051376577,0.17840382495758519,0.0353399434006926,-0.26792644345245281,-0.51411100321135206,-0.036693566939114269,-0.061298599324247915,0.26462467361257452,-0.18166266468187836,0.15210082171576145,-0.17374621137809723,-0.2113062121558365
103,1236,0.4298,0.35585504308635785,0.041476001190047171,-0.04552220877458734,-0.21090498772973634,0.33536546112474519,0.24188697590590061,0.12678635193245558,0.15600710906655998,0.00982917133331745,-0.21669412519896342,-0.55937960084853,-0.0033020397613568184,-0.058639275170422722,0.25903154802964357,-0.1809802097349536,0.14785167585381534,-0.19721949414533624,-0.22498586799906672
104,1248,0.4485,0.34874714899588172,0.039857470822264811,-0.077953388212376323,-0.21559647716818017,0.355310920583144,0.24015856429080412,0.11206441394453737,0.15414825188912967,0.034102133806626009,-0.22209068931473422,-0.568687298725753,0.025556892058356494,-0.096518471131934083,0.23185530295452422,-0.20657230967721252,0.15521285325669087,-0.2043050115762339,-0.17569587782905555
105,1260,0.4310,0.37867143282468885,0.040162688863358921,-0.075729074956267212,-0.16615542937658842,0.39113280969652625,0.21466961426898931,0.14293106674329215,0.15230913570784713,0.026165202105857311,-0.20194259541786991,-0.56986221330658648,-0.025093663108582076,-0.14000910440270703,0.20801806434704348,-0.17514898876668816,0.17843249098757527,-0.18665343540558718,-0.14800385842576355
106,1272,0.4298,0.345520396295987,0.0045258918890451827,-0.038736697535617468,-0.18618752138255165,0.39486128239811452,0.17477531203700841,0.19831745121502614,0.12305920754738885,0.034023673969086558,-0.23044458403866636,-0.586365625036865,-0.021562629698468255,-0.15287768503965421,0.21247306300385804,-0.11641313377290885,0.1699845737001015,-0.14971503897070731,-0.18448729726921556
107,1284,0.4298,0.30125026171231611,0.010826487705362108,-0.062440511688248476,-0.15270581711608419,0.41614901406140803,0.17443041158534686,0.2273492641244457,0.11382942035261318,0.020798380391362652,-0.23198294257842919,-0.6037942733031334,0.025455275165660728,-0.19126016519076383,0.21355365195848969,-0.080011843473752911,0.14709222136267194,-0.14807582772762407,-0.19784348570857044
108,1296,0.4513,0.32932729097801805,0.004814813270808958,-0.097034139918196607,-0.1185364812741105,0.4191050366907042,0.2146129937187328,0.18541069611208816,0.15503915009771788,0.032208064688295478,-0.23613330932980964,-0.55276133889251755,0.055732317199595927,-0.20785169104801776,0.19614558351803327,-0.087614901095123543,0.18034180414129944,-0.16276326217497045,-0.19808058167260706
109,1308,0.4298,0.30664973069710311,0.030353804398995071,-0.0642940531853311,-0.15757702224079906,0.38139644096997771,0.19262417156817047,0.19073153335142806,0.11808227990070941,0.032307956569148581,-0.21339336397227363,-0.60214517812354618,0.081708896391184643,-0.1929999016233922,0.25579740071115464,-0.068685881392403655,0.14601112886704656,-0.16500010471198781,-0.22169774684177757
110,1320,0.4298,0.30779929702091224,0.050019814733809023,-0.034473612220277207,-0.17440597795202567,0.38571068323857749,0.18563963125406313,0.20641231305858629,0.12645477218330919,0.0087083851915707514,-0.236778962920223,-0.58474506285900552,0.067103570953020553,-0.18753377468560081,0.27081413842392721,-0.0082851169286709755,0.12416222124148248,-0.16171350937360895,-0.23218678240083052
111,1332,0.4259,0.28485995484553717,0.048286679699864672,-0.05325208240549343,-0.19942867559843913,0.3534101115747193,0.19316104885761937,0.21560206121613448,0.076662113446669886,0.05833204658343176,-0.2271849603162634,-0.6286707837917076,0.13267479870412341,-0.15574814821675992,0.26228349775211823,-0.033552724235231188,0.10263028901043528,-0.16085432162330612,-0.20663819351747298
112,1344,0.4308,0.2863496600112635,0.067445229131006659,-0.082020233717105359,-0.19183061392349282,0.34608179563680552,0.18390924276423803,0.23617833187066814,0.06625374761353757,0.011483139562982499,-0.2319387283388967,-0.6219500002066225,0.10721483986814125,-0.1298695659828881,0.27832166240590533,-0.023225449702751116,0.1197064370406921,-0.14053974119499874,-0.21611178154276708
113,1356,0.4437,0.23913634092332825,0.081104815000626579,-0.050986552470288729,-0.19920168857943113,0.32585047852927856,0.17355074021474945,0.25073377326628182,0.046683050949129806,0.050721089930425067,-0.24216757835217945,-0.6218128712028822,0.13040618423846012,-0.1716924310275689,0.28879735052662991,0.047742729806116838,0.13361993649930071,-0.11566856907131859,-0.215679535569095
114,1368,0.4298,0.25568431282015297,0.070360825309996752,-0.046184704870470092,-0.1821037688421572,0.35008151305971813,0.15380928487181816,0.26860799565177784,0.031902662517986249,0.073834367789917629,-0.22488360066390226,-0.62358261230567191,0.11343358365934376,-0.20899767815175149,0.26019759006501242,0.064473965816917458,0.15860260204122847,-0.11124206455397152,-0.19612064907782092
115,1380,0.4298,0.26061430814804309,0.05752810571044692,-0.0318794841418543,-0.18859761614824677,0.37916495894880342,0.13967353179728287,0.29901327228481794,0.037048021736719491,0.044647817058965651,-0.2077188165862395,-0.607787550195462,0.11358948861625533,-0.18340114441702166,0.23509139974086438,0.089366394133521779,0.14930633370922258,-0.12377325496431933,-0.2304506256903778
116,1392,0.4298,0.260847244459153,0.066377174440863079,-0.011619200638057726,-0.23533497793620373,0.303394838986534,0.1370841485723315,0.27917101223337265,0.03185518880159522,0.05309846715510811,-0.22659564472232258,-0.62741042543991943,0.097934031913737368,-0.15792864479535251,0.25239219379109584,0.12346974180350094,0.18261414699315517,-0.11322024072050238,-0.19622023875983047
117,1404,0.4298,0.27059267959054839,0.041936067542594296,0.0584263869641665,-0.24248545073308067,0.31192132354077778,0.14014803130955775,0.29545767173395976,0.017586031631991156,0.015116581018809971,-0.21961035801792295,-0.61557212536131245,0.06082011980677212,-0.10259009274296166,0.30068899930878151,0.13907348514562287,0.136951131070212,-0.12456962871687713,-0.21864474647365725
118,1416,0.4298,0.24670120728133296,0.033390312555920433,0.072433296687527543,-0.24414617160987684,0.36955694784359544,0.12925195176126231,0.32077774395285474,0.032319905745716929,-0.070284218906517953,-0.23097878043633471,-0.58642697004023281,0.11279653502622271,-0.10743108172406626,0.2625744659371092,0.13162611297474561,0.13823344081515704,-0.10978317416826383,-0.20705891892855557
119,1428,0.4298,0.26672627047467,-0.0074617654326284873,0.076679210643192511,-0.237696122789181,0.34782070894281208,0.1487703087293977,0.34333292056759257,0.024297192348668374,-0.034498543241835045,-0.22359203683826318,-0.590628470252374,0.12243226390691568,-0.14033537270596039,0.24307357253743161,0.12533587166787916,0.15804461720068633,-0.14031267684785367,-0.17482728826909566
120,1440,0.4330,0.26517175649451918,0.024978250422726032,0.087050811425344113,-0.27063402207035986,0.35814225818705658,0.14698296733282426,0.3232933594303809,0.043359316062673042,-0.04339036813472108,-0.22344707186299151,-0.57620455944073845,0.095546141312797081,-0.12000083800698327,0.2117311760048603,0.18919910417655036,0.1588790652587076,-0.11767381028083422,-0.19732856299702359
121,1452,0.4298,0.23978873404324622,0.0076152587464251723,0.071720777189498153,-0.28272216138142819,0.35155017819870216,0.12943210826038676,0.2942459663421812,0.056840746669586849,-0.089199387261914412,-0.23610034582127962,-0.59010522986982417,0.10210010389289467,-0.081089542342120832,0.21010868473243477,0.20824522751862073,0.17347548669062929,-0.11532982422766039,-0.19955371201162511
122,1464,0.4298,0.23866817306566845,0.0060078322488592165,0.072931978953788112,-0.27788627732906424,0.32429970788370377,0.12795098837498353,0.29363909285941403,0.068191773066906478,-0.13595833085843242,-0.24881258516345139,-0.58439116113372747,0.069292409438726069,-0.049908937221714675,0.23293186089398105,0.23625401970902354,0.1820484112927245,-0.099031519022594938,-0.1872445302029242
123,1476,0.4298,0.27982109276246114,-0.027913714802927515,0.11534435659382603,-0.29046774372543843,0.30534229445196742,0.14087084975946382,0.27081324849713206,0.081861245631184229,-0.099399369603794169,-0.27347374678019404,-0.57178185121509972,0.031211323002957037,-0.027220703402282057,0.2148109168446167,0.2552319600862254,0.16346506744651979,-0.12747741398706813,-0.18737327258109215
124,1488,0.4298,0.29524207849725903,-0.013642189562920105,0.093877488544799229,-0.267359086516953,0.35578769324875853,0.13225825730064741,0.32723565454612547,0.078207176411959026,-0.0759265887592007,-0.26825346959360552,-0.5554974806086227,0.043902307052304523,-0.04001007284687437,0.21686978032624463,0.20715965248545043,0.15094468235244718,-0.10933650901223184,-0.19378650302093836
125,1500,0.4298,0.26980839358156233,-0.015025854517004368,0.06988553930151023,-0.29312215844505807,0.34681457735943244,0.1508758539815348,0.30146428900277289,0.080274405109308611,-0.054239956305348738,-0.28434922592993905,-0.5524098003769462,0.023094398512098605,-0.062475625332661745,0.22601904109613294,0.207809656215068,0.17497096889451622,-0.11588877585031337,-0.19640983227390643
126,1512,0.4298,0.25008947035947021,-0.0078890502137700051,0.10137594334233486,-0.28020166680539332,0.31501381811236662,0.12262681134800529,0.33470624575052971,0.047880117691839988,-0.022412642906269938,-0.27100560458282208,-0.56500538532881872,-0.018955966584634519,-0.003657685244663803,0.25249574217147114,0.23083974839148602,0.14243261571635424,-0.098420455382676381,-0.220392023658563
127,1524,0.4284,0.22444293674442725,-0.011410018460546067,0.14393079196007236,-0.2547337389022023,0.32065566843130372,0.1042600425163559,0.36741312338768889,0.039559706578284615,0.010525108829053588,-0.25415082689819424,-0.53825021531205741,-0.015271862376910663,-0.038886400472830207,0.27921327414329861,0.27522314681454185,0.14157242987678828,-0.084011054095468107,-0.24807289361425763
128,1536,0.4298,0.25876273601197725,-0.032627215804876659,0.13313813671466182,-0.22799188017106739,0.30963213921473454,0.12138275045531269,0.36924348518912137,0.067278883546581708,0.020494837083925247,-0.24446490487732492,-0.53462539692705435,-0.051470435106408183,-0.069570897396648762,0.285778090770574,0.25869174737613271,0.14934947235675358,-0.10191768460590855,-0.23093102029634271
129,1548,0.4298,0.26919198605506739,-0.036301118499772606,0.16919529379986603,-0.23429451462853096,0.31728080086051647,0.13945064478941993,0.35777133268186756,0.10625952637963026,-0.0091308757605913678,-0.23716167758342721,-0.52343756676746134,-0.062138231878480506,-0.023007488273219346,0.2704606524413361,0.26236532316501177,0.14387447527016342,-0.12181042937266069,-0.22933661312256418
130,1560,0.4298,0.27955788768818529,0.015046333654911601,0.12339062140196749,-0.22669497060568142,0.30834661163775812,0.158543781691663,0.36459060322093079,0.15633402244302103,0.016649040853019943,-0.23070467708050432,-0.5211603184035255,-0.081876925210602511,-0.02795126463654795,0.26736186476182527,0.23842874166342143,0.16813983998181184,-0.13314101011368276,-0.23063333001241021
131,1572,0.4298,0.28462490836317172,0.019509446434336448,0.0845188420761182,-0.23954257737069115,0.33386212605171778,0.15384005505996431,0.36484953665521863,0.15915288249878518,-0.0058507868153442021,-0.20140016235390326,-0.55838045040007278,-0.0247211844690125,-0.026409720692529302,0.23304428695789176,0.19712658516094861,0.15780619477697691,-0.13357715351005472,-0.23033853387548225
132,1584,0.4298,0.29031455774938236,0.028208234106996539,0.07099003874263754,-0.222726624825057,0.35562673201766321,0.15315527044708122,0.34934097407280862,0.15213879268326494,-0.00986239522171978,-0.18345590437595688,-0.55906704547945907,-0.025096001929843858,-0.022430164559405524,0.24049093128164406,0.17564058243996714,0.15788281923732694,-0.13278249688659091,-0.24616762706454876
133,1596,0.4298,0.27761716034929979,0.01194008696085232,0.10771934393156964,-0.23244229222964896,0.37536925533714977,0.12928919493313759,0.34451690479960012,0.13477142021147837,-0.016500938204909544,-0.2030240179010846,-0.56002322717423458,-0.033994418132615264,-0.040130971224232835,0.22370655522949295,0.1905853045616473,0.15927917153914811,-0.11394204459528058,-0.24748800998729703
134,1608,0.4298,0.23471503078345968,-0.0032794522983653732,0.0892914087876799,-0.23365383216933919,0.38631197109671456,0.12550642309865107,0.33645842061843045,0.11423846344450302,-0.0040770352344139784,-0.19544398652992961,-0.5883843465917199,-0.01330512011114255,-0.07523241053549716,0.21670339377582518,0.19894404033309415,0.16193632315248624,-0.10196697569338137,-0.24217965369797703
135,1620,0.4298,0.21307081765767602,-0.006532156913490874,0.096751332248958183,-0.28316569312140855,0.38242625737584257,0.14360048464782504,0.31576946634360709,0.11172434315508384,-0.029653807180408571,-0.19775120975225877,-0.60055789396680515,0.005559273962081542,-0.077158627697490462,0.22105590370963957,0.17908841645014092,0.1582007802745756,-0.12161423334939914,-0.21213848271468932
136,1632,0.4298,0.204647485375283,-0.00024051444606641817,0.065640531414203188,-0.27052066017108578,0.3739217935739772,0.13483780515508825,0.29685832382380989,0.0974972921413709,-0.0426199297671564,-0.18110247741707214,-0.62968783459368249,0.024381777196643313,-0.0725352790746997,0.21603205021446098,0.19780433848083687,0.14231038346129368,-0.11804148731041753,-0.23476405858324589
137,1644,0.4298,0.17301616179880516,0.0017180041859350143,0.082184431587494777,-0.27487259494467992,0.37853980931387937,0.12265082823223526,0.31689032063905653,0.084325639133829886,-0.026331975580094074,-0.17287171613597327,-0.63453428887552166,0.020832933954295994,-0.067320263757469953,0.21978351530394452,0.19700305228864778,0.1335774782642894,-0.11249731191741702,-0.22899746276001118
138,1656,0.4298,0.19294665165975347,0.00055264277406476769,0.097358847505920443,-0.29551796526935664,0.37757893909685042,0.11326887359060199,0.31444425047626368,0.076935734399235359,-0.030636039668101356,-0.183361830614774,-0.6267971613371458,0.011725024301768142,-0.06048542287780144,0.18733323728299009,0.1860239838341293,0.14425951066387688,-0.10155517586171917,-0.2522630456302597
139,1668,0.4298,0.21744775200621252,0.0022584086642674318,0.078474720982226673,-0.27958183579237667,0.38453956650699006,0.13318809382019306,0.29258767236849043,0.069901810876661474,-0.0034165612013577294,-0.18516273730312377,-0.62741901534457689,0.0028204853208612917,-0.10748848967939612,0.19244698746713151,0.16344822144309371,0.14319998611054274,-0.11195935803867955,-0.25300228329361074
140,1680,0.4298,0.19094499562162254,-0.0098381874932209016,0.0865996354329631,-0.27956573828091491,0.40750261748303657,0.13313698339112565,0.30068236001787957,0.0947742083510382,-0.01197955385556846,-0.18612012506457887,-0.61594207041728077,0.0047971585127816662,-0.10317523204076051,0.18510766440736776,0.17510978863443633,0.12634496356599961,-0.12207804046745628,-0.25574018797234788
141,1692,0.4298,0.16106625123532226,-0.011981411940729509,0.098856525155022079,-0.26135395274938139,0.41183620930113796,0.11149635937716011,0.30932122558343839,0.091219557865846526,-0.02340788099040058,-0.19805841151869727,-0.61199115413454741,0.0018229524207274005,-0.087410876144800823,0.2106110636592233,0.21460394035860134,0.11767381944904781,-0.095921964587048408,-0.25436609988276809
142,1704,0.4282,0.15888199037106446,-0.0178739935503199,0.11406966982365051,-0.24738224298297387,0.39284583357635711,0.11718304623912118,0.31594516186661925,0.0682775542746766,-0.016897935190013157,-0.19216255650847308,-0.63031426688633607,-0.00034607242328529972,-0.083650778816602558,0.20787083944921642,0.22086329041735436,0.10120519908722692,-0.1063122856730367,-0.24654239770421904
143,1716,0.4298,0.15114209610823923,0.0059799944506568128,0.109715611825365,-0.272065910792179,0.37706950669387984,0.11193660613928257,0.31530701974190245,0.064213873384928108,-0.0069206258016489041,-0.19515855117371758,-0.63504156160194314,0.03197156233410179,-0.08276498949350479,0.20775477542923268,0.22585083702992467,0.10161007735711054,-0.089914192357845965,-0.24907385645788716
144,1728,0.4282,0.15537464169186521,-0.0083363399677974862,0.11722064432116248,-0.28640629616914925,0.34822728734779573,0.11644833121965945,0.30177322310148741,0.058127804445554876,-0.0066163701684257541,-0.22155353971020506,-0.64530078332522356,0.041569740942811781,-0.0793759969441178,0.20147154731651504,0.21826395987742081,0.10477919489460778,-0.10305393489002992,-0.24902694716073576
145,1740,0.4298,0.15028070199382898,0.0057842719571251731,0.11812113718734348,-0.30678370177131342,0.34238674563413007,0.11261028279347253,0.30744239408654328,0.042608557245880439,-0.0012111430959286104,-0.22096977221519559,-0.63877833569914189,0.046541413823624311,-0.060791435094233646,0.20325475966720877,0.2283168717633349,0.11375827359122527,-0.094370281252263918,-0.24020145155711345
146,1752,0.4298,0.14876185493558725,0.023987989606223357,0.10062016469383511,-0.31309402419891147,0.35145734979495635,0.099499983204056133,0.30603254819598252,0.047080444213643838,-0.00894813867577805,-0.215189528647069,-0.63917595004771632,0.085092388628559362,-0.076455561602282882,0.2128844689426444,0.2006735943309442,0.1201099201819841,-0.0775388917760947,-0.24279032375115328
147,1764,0.4276,0.13253037497307432,0.0088550663051591913,0.11992589223885092,-0.31553336934517778,0.36151296323010773,0.063816615758141321,0.31422326947801432,0.02679391850225854,-0.024535191821172746,-0.21104812732073272,-0.63392766589048388,0.080305150494864155,-0.089127468487096267,0.20077222320096111,0.21508267594845387,0.09383310192442737,-0.052341752978815319,-0.26075266702873923
148,1776,0.4276,0.1445582252391879,-0.013963789013080451,0.11140128997774072,-0.317163638356301,0.37033444050720593,0.079960705503719351,0.28781464338205692,0.038372629828075842,-0.04243557950714006,-0.20839524606531254,-0.64150410094939425,0.063072272215131953,-0.094878470504789772,0.19785631265599771,0.19644262097807658,0.10557967664376132,-0.063527759315964147,-0.26218771296346444
149,1788,0.4276,0.13316629903759636,-0.000910386339598499,0.0960843178271072,-0.32582657873069515,0.36235108811930195,0.089896502478766946,0.26867879387823362,0.039516911193264836,-0.043192002516708523,-0.20451992096153795,-0.6529704231668304,0.074101964978697213,-0.0851606249215624,0.1946135445068857,0.17893062389512168,0.10165543254872252,-0.064915628306528389,-0.27797129134234411
150,1800,0.4282,0.12914714308837646,0.0044349580817049112,0.090731685526291711,-0.33613106921802566,0.3658465054007714,0.099074283310846833,0.24684219021589443,0.027615975482417843,-0.04019605698991003,-0.18597979718151053,-0.66401530485142635,0.079716049857127325,-0.092577460016101912,0.20217157679824013,0.18017037354020732,0.095097123828140645,-0.078321933319032366,-0.2670370205339237
151,1812,0.4284,0.13786251653552065,0.0174032982330957,0.0947033222515014,-0.35173187944223921,0.35158631500876325,0.10609774528025312,0.24075610622359941,0.042588761450636295,-0.055446317719124158,-0.17610206518862351,-0.66985065704659263,0.0739644847066728,-0.067840456221991724,0.19673837303349062,0.16194304370259921,0.091369506295286229,-0.082707047741132647,-0.27163261411241679
152,1824,0.4265,0.14456184305289135,0.012805840373296908,0.095237142462733723,-0.3510309218991714,0.34951572410151049,0.12396439974734356,0.2210709508193798,0.054529245581178346,-0.029728988660482486,-0.18372330168847406,-0.67167592830874945,0.059300216586111121,-0.041511654687264733,0.17429115948653978,0.16837164295089063,0.0901683087770738,-0.10038126016762922,-0.27971997173597507
153,1836,0.4276,0.17618205342615326,0.0053166594883362036,0.080780877972362608,-0.34252540745986421,0.34414360405705985,0.1208694954168939,0.23875834937589974,0.0628503076559147,-0.016317330436336978,-0.17525824681665542,-0.67339457577502448,0.054803295128392382,-0.035597894207596716,0.16915504839367196,0.15878286182293713,0.0949676099648151,-0.09893115315136701,-0.28654651797658265
154,1848,0.4284,0.17186358152485273,0.0071763159332325962,0.05393614290777779,-0.3435745753416094,0.36445457622930771,0.13171127677538888,0.21808666325120868,0.0687620922283186,-0.037569823727615831,-0.17536328291055717,-0.67178681258980255,0.0763296778202892,-0.045602814820066381,0.16303937137743918,0.13515631308391884,0.08935341460987449,-0.10482380775271814,-0.28332079780183594
155,1860,0.4282,0.19292728278778135,-0.00060280259958420449,0.051152007475255036,-0.34764206863787062,0.36268718392725413,0.12250318571806237,0.2371801811184813,0.071716518930516865,-0.036474799972239687,-0.19507381063403695,-0.658504166058137,0.072163877139077084,-0.05920194982847693,0.15221319871187536,0.12444288823877714,0.093933205803585954,-0.098632208120782439,-0.28926584622774232
156,1872,0.4278,0.2143298075525655,-0.00554509666689528,0.052868288790614726,-0.33883564954287004,0.3559444644634478,0.11433047812899326,0.23646372472613389,0.075581205309860858,-0.045360015650966048,-0.20558519001162726,-0.65945363877544194,0.047688223068171845,-0.035919357399957962,0.16266111210868242,0.13863050631871368,0.0938322283335226,-0.096544527151266726,-0.289216663798725
157,1884,0.4254,0.21310065959027508,0.011793812433528148,0.05997688935720244,-0.33622192945925955,0.33878606745294854,0.12246971868538258,0.25367731410912275,0.094525845661733374,-0.052507613636086567,-0.19861389937836019,-0.65931295912317245,0.056094770291829119,-0.026123077389546934,0.17483815240325679,0.14429066557331036,0.083542579055574925,-0.10270703611430007,-0.28052781391508619
158,1896,0.4254,0.21966541089385122,0.0064132038825494416,0.057259070703129793,-0.32685410013303212,0.34840727630079016,0.11869623196030149,0.26118752114810112,0.1042994049127214,-0.046709867276613339,-0.18878294574153065,-0.65158407246820138,0.066406618112440835,-0.020894337465840941,0.17727046048056658,0.11480367935981706,0.077526151561849943,-0.10989855741140135,-0.3024166064503776
159,1908,0.4254,0.21226956885575546,-0.010973331427593779,0.045050726835367587,-0.32607076653119987,0.35807599500751464,0.12416375222620234,0.24899542213341633,0.099038318050591961,-0.066328021856010361,-0.17382708380134582,-0.66299805222647468,0.077101532165374617,-0.018819571499461236,0.17401479867315281,0.12810844323944856,0.083504008687260531,-0.11237614421360732,-0.28085970894100509
160,1920,0.4282,0.21654882630131644,-0.012842799253215749,0.059799958435609014,-0.3358534555817968,0.34339270589560916,0.12328028660034866,0.24268477817284,0.099339128764623474,-0.084622793117421588,-0.16365209122515464,-0.66839298056076435,0.062148926910453504,-0.02610259211024905,0.17340318151937925,0.11984887634814818,0.0840480692518515,-0.1143085648200292,-0.28244420396390646
161,1932,0.4254,0.20270280347472927,-0.0028422145348635033,0.037516656656620281,-0.32174781802060559,0.35263616252915747,0.13472923034469084,0.24516676672560533,0.10613127565324407,-0.0835979772921481,-0.14006738679698563,-0.676162921683986,0.064648004431458087,-0.023379389283256034,0.1629096239297827,0.097500742210355762,0.082019405643433435,-0.1159792932337613,-0.29762954728347596
162,1944,0.4276,0.2099744978282706,-0.0046732952440666047,0.041681632876231736,-0.34771852268844972,0.33751142974261045,0.13681533939487034,0.23409227701704574,0.093932162891576076,-0.096988012014577726,-0.14373470846982317,-0.6717155461742117,0.06561831573258349,-0.0286972937083839,0.16586705879073152,0.11068473536162472,0.0937927441804014,-0.12784237182932626,-0.28816826630135578
163,1956,0.4282,0.19681872905377928,0.01497990610257538,0.028168341121727565,-0.35958972249194532,0.34558739585437559,0.13807140213752503,0.22536333592064009,0.094456846606763109,-0.086370645309462021,-0.13330978381905451,-0.67132058989905452,0.089024623030914032,-0.034689103093557126,0.15582451250931448,0.098907468053681225,0.086408319939756367,-0.126299965193958,-0.29198654287337156
164,1968,0.4278,0.1924784252030533,0.019744397115812638,0.025414286501278367,-0.36780438649486485,0.3387246688831364,0.14850035504409356,0.23327808738144712,0.097282035266398129,-0.10166226343897067,-0.12323735504507471,-0.67237207905672947,0.10720901749984772,-0.023685358590540863,0.15348512377274959,0.08102161941513901,0.087499116411652658,-0.13143510504555084,-0.27463541212482423
165,1980,0.4254,0.21137679121565392,0.017679734537398375,-0.00015635037539132239,-0.36857767923430412,0.33091676688488525,0.16109323670457057,0.22283452025809708,0.10684054139900571,-0.0965662173028305,-0.11493921249498858,-0.67542841387613284,0.097942103462173025,-0.020590514756715462,0.15158985267539224,0.063324020012173313,0.082512321843029063,-0.15145311875107773,-0.26610207736288444
166,1992,0.4278,0.21007123523672025,0.016597064160415835,0.0058018217670457372,-0.37603893325927079,0.33052317827532168,0.15404360986643087,0.21234245597769347,0.10102846027664773,-0.12100315022054156,-0.11088257224793621,-0.68104449381714238,0.090747235041754359,-0.038627927025688687,0.13923129186767721,0.05130073276762491,0.085464921958478463,-0.14972981774733538,-0.26227499943431554
167,2004,0.4254,0.20504524678938144,0.016086721368776497,-0.0113499350396381,-0.37601308440466841,0.32311776903635575,0.16759026369040309,0.190720806797698,0.096341294227950486,-0.11504499659853666,-0.095065545451588476,-0.69118660886865657,0.10804035216352983,-0.0541187104040953,0.14317666463585452,0.0283899754558223,0.08150722995109444,-0.1556504802979258,-0.25952738003253151
168,2016,0.4254,0.23710675832566291,0.019950980166526456,-0.010489741049564223,-0.38328120962957818,0.30162523533072189,0.16602118629124263,0.191169409928839,0.084403873888382608,-0.109161165878838,-0.092455583421967136,-0.68655717300228336,0.11023955697152658,-0.058220766520151582,0.14670656066956358,0.01470243749286328,0.080745010119400787,-0.15791575042360143,-0.25701880708225039
169,2028,0.4278,0.23198217799128487,0.015064597591445933,-0.016011447248070736,-0.36334181609489941,0.31151702513810864,0.17896787671710121,0.20250065413536314,0.095817354416391068,-0.12627045956286995,-0.069451044636197334,-0.68550514851512145,0.10979769259508902,-0.079455649464312064,0.14527499392457963,0.00027302467281991271,0.075908281061018268,-0.16401366204764,-0.25553186941273209
170,2040,0.4254,0.24678037553281298,0.030666637653281242,-0.013585863487821294,-0.35929078450515378,0.28804800090957094,0.16999218395951013,0.20534746511482332,0.074411384005734618,-0.1205073140836161,-0.0912647157745664,-0.690747864667628,0.10093620121501418,-0.079254006576749761,0.15085369854281708,0.0077655409459987381,0.079697616983362474,-0.16430176440785782,-0.26464688438745659
171,2052,0.4254,0.24932797181655694,0.026672127641705446,-0.00025320567281784088,-0.35581999382154772,0.28433472219937078,0.16634370078870411,0.21362507005180342,0.078774510791907726,-0.13837213855478611,-0.092676651847289418,-0.6879267598486527,0.0709333840784289,-0.0784946539119905,0.14352815663977406,0.0060758976135958263,0.0780043808176853,-0.15136454274961739,-0.2877649604836191
172,2064,0.4254,0.20810268011881014,0.029120783563884707,-0.019226898078580391,-0.35052029027057241,0.29266834672634512,0.16908518072498185,0.18814907397988909,0.0762246361997877,-0.15839331291275424,-0.076022593902015517,-0.69878761322874516,0.080419392952641444,-0.0987621344056615,0.1353714046013888,0.013790168564586789,0.083505237976399457,-0.1533228935917576,-0.29136485959514669
173,2076,0.4254,0.21050150462753622,0.026407773442387757,-0.02698297956718532,-0.34586411640821274,0.27830092732533551,0.16743372468507109,0.18375010730879943,0.07393975149711153,-0.16395149533283415,-0.068889155596878179,-0.70365711495674721,0.08328387271290616,-0.079243502680843611,0.15430319174278351,0.017932041990873369,0.090289157692631017,-0.15772989005361984,-0.2917317137838919
174,2088,0.4254,0.2237490775021459,0.027682952473884536,-0.015200301420649372,-0.34153171679308564,0.27460524455192825,0.153679437363071,0.2017801725674917,0.092588473995199969,-0.13886913909037052,-0.074894762744299723,-0.700266914712467,0.074150819043705171,-0.063751729266064747,0.16760906166060813,0.049598452662009934,0.099499363265622157,-0.14401978433248658,-0.29861222720516406
175,2100,0.4282,0.201456586948567,0.023593173204502528,-0.0057387397628771717,-0.33646976671236772,0.28747775818256649,0.15707529778586768,0.19511991188005151,0.071069191227052533,-0.12774847568197856,-0.064161730105541354,-0.7077628076613921,0.075832378275265191,-0.080240589412527541,0.15454117463948719,0.044835595942734251,0.10363575053549035,-0.14232895865170456,-0.30890654718569993
176,2112,0.4298,0.20680990786047754,0.018723237638030209,0.0022062083662672104,-0.33328624876762364,0.27639565700780888,0.16085984431210865,0.18813358142829842,0.080901561940228225,-0.13731516855056777,-0.067403571630456016,-0.70503774332327251,0.067405360389571664,-0.060800150007971718,0.15037376067375946,0.0366005313833001,0.10030422441971851,-0.14725773665085934,-0.33286465343064603
177,2124,0.4276,0.21461038152487491,0.022723228436443421,-0.0024222713057742424,-0.32951495642564277,0.28378813295976113,0.16787901248062148,0.18261447199170955,0.07816316175908726,-0.13969497733302466,-0.06681528926876068,-0.69767067567589358,0.086245078405056838,-0.0724644318602012,0.15850861331199378,0.014257630811201641,0.092384979318808083,-0.15171090084324371,-0.33295319711554183
178,2136,0.4254,0.17921641042398276,0.018289123208183395,-0.000629818497389298,-0.32180050789683279,0.27862575328772976,0.17076109873913456,0.17197285436960646,0.086679301962946945,-0.13270247537491095,-0.056986841386844518,-0.72048560253570881,0.088585065652332248,-0.067004149885255063,0.15741751567803006,0.00116261595897286,0.085795278904912148,-0.15783147300461359,-0.3247806107646391
179,2148,0.4254,0.1667202511250401,-0.0020463563761136489,0.00576636802261184,-0.31228961595072696,0.28411575013648344,0.16059533351137864,0.17625378943397166,0.093317186435220328,-0.13155469713293047,-0.056125691093686786,-0.72204311543476374,0.083758758937210284,-0.072376594042973239,0.17262489965161557,0.022371913398381241,0.085914422264002588,-0.142902196937051,-0.331414792627619
180,2160,0.4254,0.17323881494606705,0.0034567646225759077,0.0032479687696582021,-0.30948880476173535,0.27237911752927385,0.172685379273489,0.16782374717255349,0.082760715980916319,-0.12350794837614208,-0.04583267665127741,-0.72809106618796715,0.08579454748020747,-0.062373963068688414,0.16925203394892779,0.034041867475040337,0.0847655573354598,-0.14914462167521275,-0.33530853015377182
181,2172,0.4254,0.17521005048016247,-0.0060889023491282335,0.0020936042683952806,-0.32012880216236922,0.2537732460485439,0.17568241592253397,0.15247588902903106,0.0679582213734856,-0.14190803774625357,-0.040065991544954944,-0.73506251092744646,0.089750212241350685,-0.0869938522015801,0.16532130973482961,0.040455741763069909,0.08197168535700454,-0.15910838422006024,-0.31705991587704019
182,2184,0.4254,0.17300373511968162,-0.0034203917462169555,0.014922209108247434,-0.31412050099883121,0.25183053323378674,0.16844289685593092,0.16876303866977707,0.067727487567316863,-0.13793123059778903,-0.037701143289582559,-0.731617016894579,0.07893042483272289,-0.071379321535013543,0.18480242631292934,0.053259253334521167,0.079533189352727254,-0.154865949094833,-0.32433586171425155
183,2196,0.4254,0.19082238326806861,0.010391385070944019,0.011799766923468668,-0.31065967059910066,0.24214655518650371,0.1692841153180113,0.18223513346503964,0.085200188160791043,-0.13938283940979557,-0.039572224055117906,-0.72358437730697256,0.0666427589293887,-0.074611823250183271,0.19921870766770516,0.043927779713845379,0.078907697392934267,-0.15238920641789852,-0.32941337393308384
184,2208,0.4254,0.20193035431619538,0.024400274613941283,0.0117873844313571,-0.31683006854542256,0.22574328793805912,0.17730928593816569,0.18056462951260238,0.10534960583588178,-0.14429924126126908,-0.04439612791172904,-0.716622486660649,0.062600733063171141,-0.077240081389777324,0.19753450863499639,0.043839883662953404,0.072408603071419039,-0.15952571145732466,-0.33013068259862077
185,2220,0.4254,0.21023331833375697,0.021507617355774354,0.010780077120826138,-0.30956640086460208,0.23474380489417529,0.17772810789150062,0.19765690458944371,0.097957049253723727,-0.14645061619252553,-0.03696140334919807,-0.71595709224914916,0.052543680433151621,-0.065547514158867642,0.20491775187869213,0.060515430692597745,0.074431237149800641,-0.16083152694052241,-0.31531904195108551
186,2232,0.4254,0.20548683786725302,0.021774435347418655,0.00059405158725854557,-0.29460543503743214,0.23761197714395849,0.18395124865184104,0.19360543897155419,0.0998467329174758,-0.14126511109072,-0.028510799382109417,-0.7146407990406225,0.06195490332262537,-0.0790653506156287,0.21017215136328365,0.067759267401096279,0.072940450922882566,-0.17370400883465298,-0.32188235044914854
187,2244,0.4282,0.21090326613393554,0.015207884664180217,0.011789825147555291,-0.29144907395210989,0.22841720794942746,0.18550999928306644,0.202091124328772,0.10239454788981582,-0.13721970896752769,-0.025482693671907593,-0.71157552780006694,0.051980438954172856,-0.069893593615653837,0.19938945789301316,0.075222419352786785,0.078779671301239765,-0.17609499063720102,-0.33395471151026968
188,2256,0.4254,0.19424545501784934,0.023021180809395008,0.0030127038767375353,-0.29625594628401758,0.21359201458597354,0.17843977559034171,0.19378993117758578,0.090743729267036416,-0.1519449883268881,-0.022251860452941988,-0.71927202738509388,0.059972258094357828,-0.069456088593144047,0.21045722045210377,0.093431609298975177,0.0729839602830598,-0.16290678305349715,-0.33535125498012042
189,2268,0.4254,0.18249931219772722,0.019356672431184267,-0.00023689794771562469,-0.29678618204768931,0.21574292175059684,0.17848206557736881,0.19947151296379226,0.092796070226849256,-0.15468252970128948,-0.033410247988072621,-0.7137626144276249,0.047083351575239192,-0.063393622127815491,0.21553862428410323,0.11567226601173781,0.079620786185076092,-0.16227523708939859,-0.33939044460299944
190,2280,0.4254,0.18061835065538512,0.021456800833623092,-0.0041219490509614588,-0.29905323146371221,0.21660744916054792,0.17150625275257703,0.19771099626724184,0.092717747515099536,-0.15867824449195939,-0.026785243586567482,-0.718294832195465,0.060064581332088786,-0.072464409051531911,0.21516573038408618,0.11060880271221835,0.075756253543266455,-0.15478612804870237,-0.33368098797507761
191,2292,0.4254,0.20026492564543633,0.0097559246165992153,0.002807291898052022,-0.30515857716307127,0.20997345636013146,0.18373077766781865,0.19640039962289443,0.10048311747783258,-0.16212756488871752,-0.043195609105882139,-0.71097947746206236,0.041756204086011682,-0.054733961232008639,0.22179109524265425,0.09215674754390589,0.072094684160100911,-0.1682818347500166,-0.32744029974380862
192,2304,0.4254,0.20449659260690284,0.0047708129714984157,0.012129854306407119,-0.28782448980007869,0.21725577516778077,0.18071956522953578,0.20404431382863053,0.0960859246130795,-0.16766376826883178,-0.044673492479830483,-0.708445194311514,0.052455726985596994,-0.056242652678917163,0.23245319157640668,0.086731930990607858,0.068752820991281272,-0.16965304150502417,-0.33024420128130294
193,2316,0.4254,0.19798375780621857,0.005812624530940262,0.016333356932100255,-0.30831034474917485,0.20836988001875439,0.17782143738950812,0.19713058271772271,0.10214674047259907,-0.15843878805194461,-0.045153705009082792,-0.71156294444283152,0.056207839503846273,-0.0376013624166534,0.22839203716770876,0.087882778105701012,0.071863295734318156,-0.16645078783013814,-0.3275680075910265
194,2328,0.4254,0.20005327399190009,0.0053509798002500577,0.028029961966689096,-0.30896857594726934,0.19992678582556611,0.17227653111752089,0.20173961035199703,0.10269735125781385,-0.1677978904377567,-0.053507645168830893,-0.71031156496298486,0.0480460066316193,-0.025593981528019248,0.24286359558886428,0.1051524255789795,0.070886970972992291,-0.16081832865753273,-0.31590481514042473
195,2340,0.4254,0.1975753027733303,0.012692784039952087,0.036845695910203063,-0.31401908604528717,0.191124009039181,0.17353531551043644,0.20668180708688433,0.0949703475204603,-0.17627906550058711,-0.060259604810324004,-0.70924711975569221,0.044057723914788537,-0.018310465311132132,0.25002364571550462,0.11021048698108231,0.071724765527804921,-0.16265127910122912,-0.30647870773489166
196,2352,0.4254,0.20030276454610191,0.017410064797285352,0.035690563791223984,-0.31073559209504803,0.17698589437874152,0.17996509024167526,0.20437100872707825,0.09541216254332166,-0.19066656975747598,-0.0356616376928966,-0.71290857296642363,0.041842095206446842,-0.021420542558000126,0.24277270702212214,0.10657628639023878,0.065998967719035351,-0.1677254635901208,-0.3072972497454729
197,2364,0.4254,0.18370383341108915,0.01820429773218844,0.03279647154221256,-0.31803629048128745,0.17707433996882979,0.18472803802278576,0.19594237905620762,0.095967806780450762,-0.18459680108128212,-0.026913607319862302,-0.71688041921741119,0.041516457160019268,-0.02562551526864729,0.23743364973606926,0.094861789182381417,0.072299615196743952,-0.16863300074297677,-0.31244599826625385
198,2376,0.4254,0.17131333712268135,0.022721111158502127,0.034216332207299208,-0.3152416042635901,0.18002362012417822,0.18649049062816844,0.2060327885772722,0.10029435680533919,-0.16545703738057813,-0.030294127234331777,-0.71766509201387041,0.047069542865085391,-0.017998258976754465,0.24361202184710024,0.099619461335582249,0.071822903373299385,-0.16805811850541977,-0.31421907603663485
199,2388,0.4282,0.15519401533175622,0.024404446406771543,0.0520105307170642,-0.32147777996985494,0.18795940618460713,0.18644026032999386,0.21370321097229858,0.097387769370579663,-0.16449438775914596,-0.028010881388938379,-0.712485554995991,0.05119098688194354,-0.01762772975073814,0.23318088935949863,0.10497672526407992,0.079765266257077971,-0.16856049531551254,-0.32141891466080413
200,2400,0.4254,0.15111174745783987,0.016390696263465003,0.052863554929825314,-0.3271513921301451,0.20752133668428704,0.18037673551416492,0.2140111651406168,0.10249315681250375,-0.16356077769839425,-0.034274603486320082,-0.7097867793916649,0.049402737864774053,-0.033288844246127394,0.21721115862916388,0.10180465388710211,0.075103616809604243,-0.16625816265296947,-0.32339016034442697
201,2412,0.4254,0.1612172668787597,0.020476643287851717,0.051202510151764934,-0.33195276402602453,0.20879884752910341,0.17246063682455376,0.20867567101967785,0.10796007252544217,-0.17013323138908892,-0.036422100790611124,-0.712343285255242,0.040130679564172926,-0.033610683578330684,0.20737187269732929,0.0893303221263764,0.074081641143483687,-0.16408161899050996,-0.32524169130205244
202,2424,0.4254,0.16848686582515612,0.017221378827200897,0.048833399291444354,-0.32437905316960525,0.21197001174692667,0.16349348134330377,0.22177397440226743,0.11241633466084787,-0.16869205254349204,-0.040320164341376218,-0.7083389624275187,0.028341789445722885,-0.029848859060866682,0.20568096697465144,0.11673119867187684,0.072372091940866551,-0.15324388595904787,-0.33128893158282458
203,2436,0.4254,0.17007674787304436,0.024691814928802631,0.057621871781627414,-0.3156952284521542,0.20305587867169045,0.15698612547449958,0.21960291764106415,0.11890423168738716,-0.16907492352969467,-0.044279095693998051,-0.71265997559867889,0.034048538668111486,-0.041365178595747204,0.20671340664208926,0.10994968717399074,0.074570560563523361,-0.14711111500900595,-0.33678602067079538
204,2448,0.4264,0.17383692796622549,0.013167025964310075,0.064165182088633421,-0.31281275981731677,0.19487415633347904,0.15375601430664948,0.22174338307367061,0.12328412159243092,-0.16191545935969634,-0.046859680286775736,-0.71437503706880245,0.031454062931265347,-0.04755859205418321,0.21506087814528416,0.12210733731038126,0.0731545761872481,-0.13819648156535655,-0.33363660768450482
205,2460,0.4254,0.17328431603787492,0.0010476595489244773,0.053757297433941219,-0.30457607662401193,0.19289003544352876,0.15543664266120091,0.2171524980600901,0.1117910279885941,-0.14733070409679533,-0.053830001132368167,-0.71849762750128843,0.033378429759248623,-0.058314271436662984,0.21727486561988088,0.13359272451918305,0.07584367939726315,-0.14015656323657646,-0.33833322471552885
206,2472,0.4254,0.16265403654003613,0.0075762180248578892,0.040602833735206317,-0.30724004444521158,0.20645476129555576,0.15943016844669489,0.22386936025391621,0.10579578286610607,-0.14207977997228102,-0.047521995920186466,-0.72104399346421832,0.049675607405346836,-0.059393103729077,0.21375064795324794,0.12659321896641676,0.078802597303312572,-0.14092623266003859,-0.33071875570312292
207,2484,0.4254,0.1475970701410399,0.0056513478010346181,0.022824304806936722,-0.31357018967959582,0.20380361254110504,0.16673791354214521,0.21857632091186019,0.10551546602353007,-0.14073657727161079,-0.04044998946143,-0.7238916225878268,0.069737599405231179,-0.075129707765726569,0.20486446763149413,0.1194806399712154,0.080305644550282065,-0.14588187303016845,-0.32978022619663627
208,2496,0.4254,0.14677231440334712,-0.0059220225788201956,0.026333664922928626,-0.30721355456844868,0.20750751799191708,0.16697164704241491,0.22379446260948396,0.10149725975227003,-0.13397695933455894,-0.039911956200188149,-0.72851688211453081,0.069577099304594769,-0.074940893800176489,0.20010757855187783,0.11732089897152198,0.084525503284414535,-0.15048132214963564,-0.32587197236954962
209,2508,0.4254,0.14465346722838907,-0.00422343744189095,0.025632751647491306,-0.30681398546456384,0.19740973249889954,0.16008446045132238,0.2225503440578562,0.10013571665684153,-0.12691870927678955,-0.049564027410073895,-0.72998776449184577,0.069103792226774235,-0.073980863627042162,0.20005955641275616,0.12521268906547023,0.082742068132164115,-0.15133612212755032,-0.33342752553774907
210,2520,0.4254,0.13814732746048844,0.00188641326402567,0.021959255809423782,-0.29996453052688188,0.21017060190562248,0.15812360120248922,0.22248034619992457,0.099636219625169761,-0.13024901812501563,-0.052621071623002454,-0.72976863194250563,0.065749961793742651,-0.0716750264016775,0.20988082160004964,0.1265646803492432,0.083126371169272434,-0.14654098995957243,-0.33131782949823119
211,2532,0.4254,0.14516059814224883,-0.00696359659053085,0.025012628373864004,-0.28499197685772226,0.20690155160428411,0.15862744784328009,0.22099306916061243,0.09739539452593568,-0.13085519838122592,-0.039198062968346471,-0.73567845628601081,0.063050904646388212,-0.064952482018017663,0.22057866257565731,0.11361804783472526,0.082467066284603721,-0.14630701844128838,-0.3324433177188198
212,2544,0.4254,0.13752130184055983,-0.0048747047420720953,0.022440604208776003,-0.2862990088272,0.20748499134972681,0.1593807286994941,0.21564292562096149,0.091653976131603573,-0.13401212024976897,-0.033020470458551658,-0.73810353777275983,0.0645972105163429,-0.070970663049497784,0.226988580441577,0.097835208792820746,0.0809517328694511,-0.14708549864887219,-0.3321754400557046
213,2556,0.4254,0.14345459081271658,0.0060606762140314983,0.0090552470812971832,-0.29081672796311442,0.20814404980949727,0.16786625702486568,0.21084321912487558,0.091285542081207982,-0.13518091927719186,-0.025362978426113156,-0.734976010449732,0.072321573052623392,-0.07098065845726817,0.23055714536268204,0.077818646324686644,0.08206686230792036,-0.15500457131430942,-0.32988769288108549
214,2568,0.4254,0.14328842361431463,0.0073208298885615005,0.010764244602423209,-0.29768395328525815,0.20536398219975649,0.16625300549079411,0.22445669062845156,0.093554596269966886,-0.14621491738862449,-0.034814733025660884,-0.72858046515993236,0.080671313635364436,-0.072892648582697936,0.23242883091402627,0.081994648405029069,0.083723676436234976,-0.15265194289294048,-0.3203512652789644
215,2580,0.4254,0.15024855030389092,0.017041628285459128,0.0035653133761064226,-0.29734189347945716,0.20793878697525656,0.16757000450822335,0.21478484694342351,0.1007988827738323,-0.14245155672407922,-0.037633350138255126,-0.72829624861985554,0.084122159967142923,-0.086630536817836237,0.22988467543070523,0.062272893236959753,0.083595430856460054,-0.15482968728659813,-0.32341748162983192
216,2592,0.4254,0.16538459351257589,0.013050331394778228,0.011065006240454485,-0.293336966477638,0.20917349857329356,0.17061248387414807,0.22671477805892573,0.10138311728510725,-0.15165907531842371,-0.040176813393786322,-0.71835431955629914,0.077419421755988316,-0.070197242848840241,0.2282632993864156,0.064157191288800555,0.083110038496143734,-0.15922715129469908,-0.33219194981372974
217,2604,0.4254,0.160989880420317,0.01683905438054405,0.01400687908216418,-0.29342266842503884,0.21957617300526733,0.17411586071027407,0.22329463099676561,0.10552324094303125,-0.14680380790523839,-0.039512273612319695,-0.71953642296590892,0.0861060901956293,-0.060763371595492457,0.22151912678395391,0.052209288431212468,0.079793776356978277,-0.16190731051985005,-0.33175532136731578
218,2616,0.4254,0.16122445466377894,0.010130376185535932,0.020236787685154484,-0.29099591013495407,0.2329979885092637,0.16620424029975039,0.22170435689973417,0.10591622547494051,-0.14469421475908542,-0.048583290566644094,-0.71321377145263443,0.079817485915722478,-0.065539106552782042,0.22551703572412179,0.064059337749599737,0.078366775784873638,-0.15860328791971265,-0.33996882299697168
219,2628,0.4254,0.16544991463955019,0.014871083457591005,0.019193081666465339,-0.29087377426459071,0.23327493346060166,0.16618866551832581,0.22636896599242873,0.10375796803919778,-0.15386432488821186,-0.04519269817817289,-0.70732486560444185,0.0786657876530931,-0.058710463430350635,0.22925077186179169,0.06022189204055934,0.074224776963939337,-0.16075298542650929,-0.344806950438829
220,2640,0.4254,0.15656395549725979,0.014955378391109999,0.013242440105266512,-0.28182001511051685,0.23331552985154697,0.17866431961067833,0.22488558745172876,0.11042254071155438,-0.16834628054323653,-0.032914759003893769,-0.708115324673458,0.080011255344041271,-0.049333440682249645,0.22899754794533417,0.05366078470022681,0.078499066538217047,-0.16700010704981821,-0.34077602907818916
221,2652,0.4254,0.15562446701816471,0.0031987063584471538,0.01450370661352364,-0.28482134643155205,0.23923016391483673,0.17570506280577486,0.22420061569766012,0.10872161042012544,-0.15975502661988214,-0.034970549256981905,-0.7062855424636193,0.08309583787052216,-0.045248601970225462,0.23040022154827014,0.05986070381996824,0.078408321036837467,-0.1662532704270854,-0.34282132888518496
222,2664,0.4254,0.14337769187031865,-0.00078273908888372489,0.021318620624061889,-0.28755124024748663,0.24276751192088811,0.17187062341544806,0.22605945160944754,0.10617254872838672,-0.15552570752494219,-0.040722218965109129,-0.70662904531615378,0.086734100827058166,-0.052210386908468381,0.22930456415494821,0.071467389967010325,0.077780821576755158,-0.15723702173651188,-0.34534151802686114
223,2676,0.4254,0.14114360731903053,-0.0026884599504377127,0.021811070463831524,-0.29233106598259651,0.23312802496984733,0.17005913430504915,0.21816004949384313,0.099333084785344056,-0.16336437101625489,-0.03386279626488288,-0.7094319129925436,0.097968289140968542,-0.064264530475864182,0.22847763847824132,0.065435578711659184,0.077289011346341766,-0.15720542628582562,-0.3455977940783746
224,2688,0.4254,0.14830351815737433,-0.012195548152668217,0.024411567739624506,-0.28610905664466785,0.23770185044724002,0.16430304791317857,0.21853308303217789,0.09154994425939636,-0.16090467177836815,-0.04190994150301993,-0.708427374439512,0.09769741374980527,-0.072010671413562724,0.23032874377562795,0.069006895189431289,0.075576601095661389,-0.15183949219233212,-0.35145661495243868
225,2700,0.4254,0.14612271865602591,-0.011105257146923423,0.025705796430934683,-0.28787719524199723,0.23370339529791107,0.15995868519683548,0.21831776508987033,0.0879561320623053,-0.15873399279121492,-0.046659260448203559,-0.71038003025409,0.10081690784240682,-0.070118039907617086,0.23416525549153816,0.072850390668000017,0.0783153300480513,-0.14848315803645326,-0.34892943473489346
226,2712,0.4254,0.1538141827874781,-0.014427972128583266,0.035936927980839792,-0.29102792684364459,0.23292067447041115,0.15488235497191319,0.22286580167236741,0.08819626400161712,-0.16336561334392366,-0.049903512802616977,-0.70812903243098979,0.08931949126621902,-0.059240160799556678,0.23174990838604023,0.075627163379132264,0.077754634045065329,-0.14525422041964622,-0.35301721258067853
227,2724,0.4254,0.15136489658132959,-0.016158802831613583,0.0404470474358622,-0.284705211316016,0.2325530017104373,0.15545943039590551,0.22656589986775957,0.088688829722756546,-0.16544868278323621,-0.050903436353550532,-0.7084837360370877,0.081029128633061373,-0.060439958721946456,0.23611826450021603,0.075717820305103725,0.075825856126218408,-0.14462320950232635,-0.35375640777523032
228,2736,0.4254,0.14727366691367688,-0.0139951227716318,0.043792915114148886,-0.2834914616365049,0.23509735191897907,0.15095142691287358,0.22812239728904854,0.0911290338029787,-0.16484749297310475,-0.053291702210688505,-0.70811523544800392,0.08074830350618635,-0.059683455625256614,0.23811170566051676,0.078358557176816862,0.077914746469161453,-0.14247208370212139,-0.35477998711094855
229,2748,0.4254,0.1469105907311879,-0.013276842167145139,0.04343243102630262,-0.28621677106500404,0.2265714698594051,0.15103999375490731,0.22148405227491866,0.092459511800059749,-0.17499491099877731,-0.055158168338133882,-0.70929873921862607,0.08405963443100066,-0.05196300076427169,0.2364130523457883,0.074935939406388652,0.075274668178953855,-0.14333325549054404,-0.35732178413278465
230,2760,0.4254,0.1449923290679519,-0.014292084935872931,0.046759583882260522,-0.27773448236893311,0.23678467607119466,0.14896896196865528,0.22605577144392558,0.0957448926996991,-0.1765543121955736,-0.048209440013068469,-0.70919217509389343,0.083627217342744017,-0.048825768248045916,0.23644505560895354,0.075978676772176124,0.07365262081428231,-0.14174083733708712,-0.3567657788044008
231,2772,0.4254,0.14474299263575888,-0.013339016347351188,0.049376082918627946,-0.27827039209021226,0.23649024877979744,0.14834384480360566,0.22944454766407946,0.098939456873201048,-0.17954649334973632,-0.043559427635371434,-0.70983733966281282,0.0805845298747116,-0.047184850961201778,0.23789727263133673,0.0790235199689728,0.074494345953045729,-0.14318017779481945,-0.34963049237245575
232,2784,0.4254,0.15051691337616679,-0.01298628546114894,0.04567699862443228,-0.28117836276194869,0.23795723857037593,0.15203217503634547,0.23040779610150353,0.0986723314598922,-0.17801268119092936,-0.036311666578628027,-0.710910982721035,0.0816641367700338,-0.049694926438233221,0.23230602614872878,0.070059410677107067,0.073436212903377818,-0.14205075733741679,-0.34737015184396436
233,2796,0.4254,0.15121254510548543,-0.011323806659690908,0.045037290207614412,-0.28462958822060219,0.24172693251773184,0.15090087868632035,0.22841967232934993,0.10104401448504029,-0.17472046199821128,-0.037351600406229375,-0.70916866220255059,0.082780801680467142,-0.054247859256209542,0.23330508298909222,0.073815825594449283,0.0721008159664153,-0.14342986036514963,-0.3453599280273702
234,2808,0.4254,0.15918689914020742,-0.014994668157181024,0.044970077778256519,-0.29243045157886405,0.23878628784155581,0.1543431983332991,0.22655437615477081,0.10364261778305278,-0.17829123074542375,-0.03330363410537001,-0.70468821552840144,0.082037511888375311,-0.0569624449988864,0.23292933635009042,0.066989848019916448,0.070010170795758483,-0.14801390458549352,-0.34405640950844479
235,2820,0.4254,0.15497410984472612,-0.01940221757329599,0.042664556820010892,-0.29319426353549466,0.24113947242400977,0.15200313757960651,0.223906318754376,0.096551001273094322,-0.17965300793437849,-0.034308111051802773,-0.70809113783107647,0.090207159590833988,-0.056261517106486948,0.23375803992903549,0.064802323313641982,0.07266923756929787,-0.14398814959433048,-0.3398885195032601
236,2832,0.4254,0.1522645257220149,-0.016428188838511885,0.043004468580333188,-0.29551997129891583,0.23489790301968172,0.15186917352032289,0.22025338704569836,0.0997764527524797,-0.18047342756977636,-0.036019827751406781,-0.7097008281364392,0.08457955385221276,-0.057305363399046842,0.23737055605223553,0.0754922869179791,0.071989418352582241,-0.14466876436127796,-0.33766190924007949
237,2844,0.4254,0.1541818344718294,-0.02163416529393403,0.040891341397270062,-0.29445779998691335,0.2327342885651775,0.15416448149847797,0.226940304864262,0.097894945548982135,-0.1760054572182766,-0.039125134495142842,-0.70957534909985287,0.083149379721653136,-0.061333921375553081,0.23519814780892706,0.072082442912400818,0.074317145867207182,-0.14557760486510896,-0.33740708350585935
238,2856,0.4254,0.15437854264387502,-0.023990131104215721,0.042741852853452583,-0.29638953575126525,0.23339773396197713,0.15005436245816756,0.22324708476053962,0.10051498985111176,-0.17278558463102575,-0.047067177965621161,-0.70947361708835233,0.0811038682739234,-0.0578218363113235,0.23285180161148161,0.07021665986434994,0.075195716420256742,-0.14308050069761091,-0.3431240857089457
239,2868,0.4254,0.15354032593221498,-0.021480389281372938,0.0433425649038149,-0.29025008879565983,0.23553505120976387,0.15070293919024355,0.22450099576878513,0.1048478411099986,-0.16310839362528526,-0.043337003383920936,-0.71204304477710112,0.081177777182774163,-0.0590853595736465,0.23964004639427061,0.072154728745388128,0.073230098584472755,-0.14197551570379191,-0.34029574058710177
240,2880,0.4254,0.15138312950666344,-0.025720055052890448,0.043498205312118635,-0.28861010019138039,0.23115253206840009,0.14932229744206649,0.22440730092337421,0.10091506741740841,-0.16412937119384907,-0.043407291750371453,-0.71587870633520745,0.08026336864216102,-0.054992506142600109,0.24446099204874375,0.080224137553518232,0.07287747366632702,-0.14161914363157088,-0.33477169438369686
241,2892,0.4254,0.15535543724149772,-0.028688663137683614,0.045860189780707113,-0.28567035585356576,0.23039176156069979,0.1478507003990937,0.2248777695883469,0.10554346284906153,-0.16070777744664491,-0.0462219427594427,-0.7166797626881185,0.0752860672884504,-0.052899385669763231,0.24935512912791019,0.082121722997551147,0.074312805629945064,-0.13996031076335386,-0.33189607865418796
242,2904,0.4254,0.15623894701987953,-0.032867454153881495,0.051457504353013363,-0.286089310601613,0.23564081838993486,0.14521117327981362,0.22480211274566811,0.10380255909958407,-0.16117671011275317,-0.047812350975650314,-0.71287874693882158,0.0721760298509826,-0.050049156599240169,0.25054438747681884,0.08355967701676513,0.072707663023621943,-0.14021965854928251,-0.33508502129004886
243,2916,0.4254,0.1548126867789377,-0.0320679961687135,0.048775000507905765,-0.2819657924942181,0.23602218947247311,0.14654436066592511,0.21867613200253941,0.10595100016670946,-0.16774727649348833,-0.0438739198957809,-0.71385757858515808,0.0681750669849016,-0.055209321544643558,0.25396503377791291,0.079169721943635751,0.072817559540423668,-0.13879050136035312,-0.33711246303943959
244,2928,0.4254,0.15618969187745585,-0.029416259072483221,0.048949283657308169,-0.2785249534844641,0.23430009432108129,0.14878402362188911,0.21777160216667407,0.10865543918460767,-0.16917461358515914,-0.03789292423762352,-0.71477744524068543,0.066015639840564619,-0.0510993818381022,0.25250798200917196,0.077050438194200627,0.070628872636641374,-0.14018777615391684,-0.33984662711509639
245,2940,0.4254,0.16248431233826671,-0.026265091534514652,0.051500756061260533,-0.27809453358494518,0.24186198379858598,0.15058233354582237,0.22071285854438191,0.1093283465239672,-0.16786766552655263,-0.037608874818384375,-0.71155511944251848,0.071465858655314407,-0.051266804181765747,0.25187980440091373,0.077557635427641269,0.068838307861545739,-0.1407595308761318,-0.33618697354394583
246,2952,0.4254,0.16792830158150535,-0.026554279278921952,0.055556220149365641,-0.27984899198971031,0.23926502727741644,0.15455946142989177,0.2207193670351397,0.1116741158842047,-0.16735598447269329,-0.037941174610328504,-0.70913178020109979,0.064387312845106265,-0.043327815795756661,0.25563846925470618,0.080053180361609383,0.066287440319854549,-0.14190593679568958,-0.33482613845948933
247,2964,0.4254,0.16390962171612578,-0.022314246816632115,0.053265497458830767,-0.27636709159209749,0.22739610817979358,0.1587691383595507,0.22794423295392888,0.11401892442687986,-0.16630107846492639,-0.032165035622301046,-0.71072544938537319,0.06284840993587569,-0.040461193077034656,0.25814680604767887,0.079812291125993112,0.067252554807575027,-0.14400036069113203,-0.33623863582824109
248,2976,0.4254,0.16446705456216434,-0.031555621861723185,0.054050758895817071,-0.27144710789082904,0.22619577047252615,0.15520982277436451,0.23364943124910009,0.10900710380778478,-0.16072080871272965,-0.036113991406125021,-0.71084731166351811,0.0655939661433982,-0.038585121048018881,0.25451616672090194,0.090373713722805629,0.068010444177149992,-0.14356092575584989,-0.34131949072424439
249,2988,0.4254,0.16346794235680351,-0.031933987754356012,0.054913155851380652,-0.26776012863908538,0.22646822919010112,0.15312679336823973,0.23675022387608938,0.10457825341895884,-0.15741767688333547,-0.040961861190598019,-0.71090916944953308,0.062393755611130176,-0.03508661156146612,0.25657314755197752,0.10280156327020069,0.069122892583805176,-0.14137605121848007,-0.34215545604755521
250,3000,0.4254,0.16540120930208355,-0.031150914937597893,0.051876387270490536,-0.26162185676392807,0.2312308943236262,0.15628547489356104,0.23088429995180071,0.10911994297792776,-0.16201629856214086,-0.0413071771924655,-0.71233546381426327,0.06106828558052859,-0.0363286456479838,0.25622672104871086,0.11069480941767758,0.069756041339389313,-0.14202831971683555,-0.33668160908538719
251,3012,0.4254,0.16401304353956081,-0.032933616450453458,0.055684866137192437,-0.26022596234971163,0.22516143950346865,0.15719338639052005,0.23189140259726052,0.10997818753850375,-0.15913892247226938,-0.041908756274176812,-0.7130739828413426,0.059008870623521135,-0.038317922547626795,0.25492784431340676,0.11404557909459949,0.069872316628890874,-0.14806236816808033,-0.33778440016562722
252,3024,0.4254,0.16145456130635688,-0.031386202343622785,0.054406137602204932,-0.25898609899334712,0.22102897750980394,0.16030135883683225,0.23166360048668788,0.11154457664449335,-0.16142848538124371,-0.038800678505830057,-0.7152099744616226,0.053195161127258549,-0.033210307991582456,0.25451450644560597,0.11204842104659216,0.0690837885935211,-0.14541465992676886,-0.33956629135520688
253,3036,0.4254,0.16429070505110235,-0.0331133470949902,0.050733326701843433,-0.25564940517429369,0.22604586289642994,0.1620669908833566,0.23272461816069184,0.11366714911252163,-0.15534447303788446,-0.038213500630049337,-0.71140719707462419,0.057916801838123748,-0.035157985735573,0.2577017731361182,0.10777657294978962,0.0663381885873123,-0.14793321061694978,-0.3438205435344599
254,3048,0.4254,0.16552698597958151,-0.03228266488737102,0.052699583920727835,-0.25577047169993572,0.21572607904296587,0.16195763912614491,0.23346814913789285,0.11671596185212973,-0.15487831298448329,-0.039685469755414676,-0.70970489840486439,0.053296906321767826,-0.033615304433231817,0.25868286240141353,0.11560105328032219,0.068966388033451342,-0.14798313961901879,-0.34905029897111006
255,3060,0.4254,0.16267087247747308,-0.027985282272909553,0.051289796259425133,-0.2577537932297439,0.20915974994097969,0.16535828132324551,0.23033883979890174,0.11743461188690343,-0.15541296341752436,-0.036521836512386135,-0.70915518050960769,0.050129157948571278,-0.028872379516962813,0.26260268112499752,0.1198254432078794,0.067651879958610786,-0.15031305160044253,-0.35051804397963343
256,3072,0.4254,0.16130162393935807,-0.023101388195829974,0.049036487215630316,-0.26240365239321983,0.20605352536937588,0.16967766921684643,0.22721300424871341,0.12410278134831657,-0.1582374732917336,-0.035915746601439771,-0.70606557604359776,0.046429737628184128,-0.02600789208227642,0.26083021438891885,0.11960084173941575,0.067518558006632923,-0.15230064537076732,-0.354303434553211
257,3084,0.4254,0.16590432292889237,-0.025708109918605993,0.045570043399735846,-0.25580424340578456,0.21265275026259051,0.16868579864317002,0.22944804703592461,0.12339701383331327,-0.15828373515605265,-0.040938687976110659,-0.70877685178153638,0.046895181554055365,-0.031013292362009795,0.25271672528153677,0.11914650587613412,0.069424703216050265,-0.15163119692593802,-0.35224034728189518
