Type,NrFeat,Model,Feature,mean,Step.1,Step.2,Step.3,Step.4,Step.5,Step.6,Step.7,Step.8,Step.9,Step.10,Step.11,Step.12,Step.13,Step.14,Step.15,Step.16,Step.17,Step.18,Step.19,Step.20,Step.21,Step.22,Step.23,Step.24,Step.25,Step.26,Step.27,Step.28,Step.29,Step.30,Step.31,Step.32,Step.33,Step.34,Step.35,Step.36,Step.37,Step.38,Step.39,Step.40,Step.41,Step.42,Step.43,Step.44,Step.45,Step.46,Step.47,Step.48,Step.49,Step.50,Step.51,Step.52,Step.53,Step.54,Step.55,Step.56,Step.57,Step.58,Step.59,Step.60,Step.61,Step.62,Step.63,Step.64,Step.65,Step.66,Step.67,Step.68,Step.69,Step.70,Step.71,Step.72,Step.73,Step.74,Step.75,Step.76,Step.77,Step.78,Step.79,Step.80,Step.81,Step.82,Step.83,Step.84,Step.85,Step.86,Step.87,Step.88,Step.89,Step.90,Step.91,Step.92,Step.93,Step.94,Step.95,Step.96,Step.97,Step.98
Weight,16,1,phi.proc,NA,-0.009230976,-0.03854306,-0.02715333,-0.0267304,-0.0306084,-0.02563685,-0.01265182,-0.01482533,-0.01894305,-0.009339122,-0.01449849,-0.008438112,-0.005692702,0.00333643,0.001429209,0.003232636,0.005885023,0.007632417,0.02194968,0.02823953,0.02111743,0.01524077,0.01965577,0.01881694,0.01715286,0.01264019,0.002210042,0.008078917,0.007151727,0.01992429,0.01515255,0.006760776,0.006641971,0.01243822,0.0101564,0.003026498,0.006999828,0.004721439,0.02083137,0.01206373,0.008183353,0.008475171,0.00695732,-0.003656664,-0.001427149,0.007190387,0.001451436,0.001402621,0.02050722,0.00749756,0.02267943,0.004351031,0.00392018,0.01124,0.01661077,0.01668869,0.02263019,0.02635663,0.0266904,0.01930873,0.01266715,0.02884313,0.03130767,0.03996317,0.02901171,0.006894503,0.008000725,0.01968267,0.01605982,0.01242407,0.004425095,0.009548607,0.01368832,0.01046986,0.002268465,-0.002689433,-0.01179287,0.003012177,0.005660656,0.005998165,-0.001174139,0.007108851,0.008331332,-0.0004094295,0.01844652,5.403998e-05,-0.0009792259,0.01329107,0.02629197,-0.01798134,-0.02618644,-0.02865692,-0.02232052,-0.01426871,0.04741551,-0.03240961,-0.01425815,-1.339541e-05,0
Weight,16,1,phi.startTime,NA,0,0.0191451,0.008334247,0.004875491,0.01595036,0.01759298,0.01569483,0.009593899,0.007834378,0.006765603,0.01191079,0.01508688,0.01504115,0.007423389,0.007419717,0.007346418,0.006940461,-0.0003680907,0.0003478227,-0.0001654235,-0.002288624,-0.01212343,-0.005336752,-0.001045309,0.001060869,0.006567804,0.008219695,0.01186184,0.01029887,0.01214679,0.0142418,0.01220608,0.0127033,0.01220047,0.004877602,0.007425215,0.004541095,0.007583969,0.01416025,0.008120556,0.008216646,0.006856719,0.007238002,0.007719394,0.01231322,0.0195198,0.0147744,0.01375616,0.008212494,0.007298616,0.003193655,0.008103867,0.004004388,0.006257522,0.007913024,0.00513382,0.00136697,-4.701571e-05,-0.002327711,0.002335168,0.006671381,-0.003757416,0.0001177244,-0.003333727,0.004940534,0.01056594,0.009551087,0.004726418,0.007462721,0.003257113,0.006097613,0.008443306,0.0005128092,0.006413821,0.01136003,0.01621601,0.008366132,0.01498494,0.01081106,0.0008249393,0.01222648,0.008789868,0.01001253,0.01755324,0.005229509,0.008661859,0.01365821,0.01071188,0.00867496,0.02018151,0.02965786,0.02429315,0.02211424,0.0307608,0.08457185,0.1690447,0.01472444,-0.01463048,0
Weight,16,1,phi.endTime,NA,-0.009230976,-0.01939796,-0.01881908,-0.02185491,-0.01465804,-0.008043874,0.003043002,-0.005231429,-0.01110868,-0.002573518,-0.002587707,0.006648772,0.009348451,0.01075982,0.008848925,0.01057905,0.01282548,0.007264327,0.0222975,0.02807411,0.0188288,0.00311734,0.01431901,0.01777163,0.01821372,0.01920799,0.01042974,0.01994076,0.0174506,0.03207108,0.02939434,0.01896685,0.01934527,0.02463869,0.015034,0.01045171,0.01154092,0.01230541,0.03499162,0.02018428,0.0164,0.01533189,0.01419532,0.00406273,0.01088607,0.02671019,0.01622584,0.01515879,0.02871971,0.01479618,0.02587309,0.0124549,0.007924569,0.01749752,0.0245238,0.02182251,0.02399716,0.02630961,0.02436269,0.0216439,0.01933853,0.02508572,0.03142539,0.03662945,0.03395225,0.01746044,0.01755181,0.02440909,0.02352254,0.01568118,0.01052271,0.01799191,0.01420113,0.01688368,0.0136285,0.01352657,-0.003426741,0.01799711,0.01647171,0.006823104,0.01105234,0.01589872,0.01834386,0.01714381,0.02367603,0.008715899,0.01267898,0.02400295,0.03496693,0.002200166,0.003471421,-0.004363774,-0.0002062813,0.01649209,0.1319874,0.1366351,0.0004662894,-0.01464388,0
Weight,16,1,phi.arrival,NA,0,0.00561833,0.006482887,0.00661621,0.01015521,0.01529984,0.00496816,0.00169133,0.004400825,0.002743615,0.006640036,0.006911348,0.006881342,0.004456974,0.004548393,0.004118542,0.004335926,0.0009864033,-0.0003183387,0.0001561133,-0.0005816792,-0.004831642,-0.001306941,0.001022695,0.002081195,0.00558807,0.004602789,0.006054576,0.004459389,0.004828548,0.006681931,0.005908177,0.007020845,0.00580194,0.002525312,0.00383973,0.003084165,0.004855896,0.00923563,0.005551801,0.005931216,0.004282471,0.003999954,0.003807738,0.006059414,0.009482793,0.007233379,0.007847158,0.004501256,0.003628899,0.002294245,0.004213459,0.001769335,0.003632372,0.00448279,0.002273337,0.00146495,0.0009661427,-0.0005929443,0.0002574324,0.002995077,-0.001852362,0.001871785,0.0005948911,0.004021417,0.007188651,0.00616505,0.002695284,0.005079251,0.002956282,0.004597508,0.006296543,0.002411697,0.005180495,0.008206395,0.009465059,0.005217294,0.008321375,0.006220905,0.001400097,0.006854627,0.004450886,0.005856314,0.009812299,0.003914043,0.005058515,0.007608803,0.005104278,0.004162031,0.01023136,0.01698318,0.01380621,0.0117895,0.01944529,0.02082345,0.07112858,0.01111667,-0.01635359,0
Weight,16,1,phi.wait,NA,0,0.01352677,0.001851359,-0.001740719,0.005795152,0.002293144,0.01072667,0.007902569,0.003433552,0.004021988,0.005270751,0.008175536,0.008159811,0.002966415,0.002871323,0.003227876,0.002604536,-0.001354494,0.0006661614,-0.0003215368,-0.001706944,-0.007291785,-0.004029812,-0.002068004,-0.001020326,0.0009797336,0.003616906,0.005807269,0.00583948,0.007318241,0.007559865,0.006297899,0.005682454,0.006398529,0.00235229,0.003585485,0.00145693,0.002728073,0.004924623,0.002568756,0.00228543,0.002574248,0.003238048,0.003911656,0.006253803,0.01003701,0.007541024,0.005909007,0.003711238,0.003669717,0.0008994092,0.003890409,0.002235053,0.00262515,0.003430234,0.002860483,-9.797991e-05,-0.001013158,-0.001734767,0.002077735,0.003676304,-0.001905055,-0.001754061,-0.003928618,0.0009191172,0.003377288,0.003386037,0.002031134,0.002383469,0.0003008311,0.001500105,0.002146763,-0.001898888,0.001233326,0.003153639,0.006750946,0.003148838,0.006663561,0.00459015,-0.0005751581,0.005371855,0.004338982,0.004156218,0.007740937,0.001315466,0.003603344,0.006049407,0.005607603,0.004512929,0.009950149,0.01267468,0.01048694,0.01032474,0.01131551,0.06374841,0.09791612,0.003607765,0.001723106,0
Weight,16,1,phi.macFree,NA,-0.009230976,-0.01939796,-0.01881908,-0.02185491,-0.01465804,-0.008043874,0.003043002,-0.005231429,-0.01110868,-0.002573518,-0.002587707,0.006648772,0.009348451,0.01075982,0.008848925,0.01057905,0.01282548,0.007264327,0.0222975,0.02807411,0.0188288,0.00311734,0.01431901,0.01777163,0.01821372,0.01920799,0.01042974,0.01994076,0.0174506,0.03207108,0.02939434,0.01896685,0.01934527,0.02463869,0.015034,0.01045171,0.01154092,0.01230541,0.03499162,0.02018428,0.0164,0.01533189,0.01419532,0.00406273,0.01088607,0.02671019,0.01622584,0.01515879,0.02871971,0.01479618,0.02587309,0.0124549,0.007924569,0.01749752,0.0245238,0.02182251,0.02399716,0.02630961,0.02436269,0.0216439,0.01933853,0.02508572,0.03142539,0.03662945,0.03395225,0.01746044,0.01755181,0.02440909,0.02352254,0.01568118,0.01052271,0.01799191,0.01420113,0.01688368,0.0136285,0.01352657,-0.003426741,0.01799711,0.01647171,0.006823104,0.01105234,0.01589872,0.01834386,0.01714381,0.02367603,0.008715899,0.01267898,0.02400295,0.03496693,0.002200166,0.003471421,-0.004363774,-0.0002062813,0.01649209,0.1319874,0.1366351,0.0004662894,-0.01464388,0
Weight,16,1,phi.makespan,NA,-0.009230976,-0.005044063,0.01859506,0.03214529,-0.01030134,-0.02685217,-0.0417291,-0.02107893,-0.002375536,-0.01691914,-0.02643253,-0.05331331,-0.06194189,-0.05055026,-0.04682159,-0.05226183,-0.05347556,-0.02422593,-0.06082428,-0.07512056,-0.05615295,0.0004914913,-0.0346291,-0.04878424,-0.0562985,-0.06563624,-0.05414347,-0.07631452,-0.0674426,-0.1026076,-0.1041925,-0.07475653,-0.07676369,-0.08461482,-0.04806444,-0.03791059,-0.03967582,-0.04770448,-0.1100307,-0.07085147,-0.06126499,-0.06042689,-0.05711188,-0.03490129,-0.05499019,-0.1026648,-0.07494528,-0.06957797,-0.08803177,-0.05643141,-0.06955419,-0.05254946,-0.03584198,-0.06173586,-0.07895869,-0.0638556,-0.06355421,-0.06317643,-0.05669938,-0.05890123,-0.05734111,-0.05310912,-0.07449425,-0.08416858,-0.1016668,-0.07081262,-0.06603396,-0.06907962,-0.07325607,-0.0495338,-0.04493902,-0.06271311,-0.04514261,-0.06060241,-0.06458964,-0.07193982,-0.02116298,-0.07603951,-0.06614153,-0.02499413,-0.05352909,-0.06456565,-0.06737832,-0.07553584,-0.06756328,-0.03733886,-0.05973922,-0.07738406,-0.09988575,-0.05122761,-0.06779656,-0.02947721,-0.03368445,-0.08391617,-0.3883872,-0.5450144,-0.07115569,-0.01369712,0
Weight,16,1,phi.reducedSlack,NA,0,-0.00561833,-0.0003549202,0.001581383,-0.002435547,-0.002515875,0.01922007,0.007642489,0.002797551,0.003009991,0.00420252,0.003760152,0.0004282294,-0.0007847212,-0.0007434492,-0.0003828225,-0.0002578183,0.0002733292,-0.0003041201,9.438876e-05,0.001309206,-7.157604e-05,-5.781458e-05,0.001190591,0.0005861084,0.001230229,0.0005315464,0.0003803947,-0.0002478061,-0.0003002166,0.0008783327,0.0005432841,-0.0009735878,-0.0008112004,-7.939172e-05,-0.0002190268,-0.0004107832,0.0008656707,0.0009493571,-0.0001407542,-0.0003218992,-0.001422803,0.0001623793,0.0002202318,0.0003759973,0.0009623996,0.001054989,0.0006862339,0.0006737479,-0.0003002345,-8.589078e-05,0.0003823224,0.0002238428,0.0003384889,0.000727563,0.0003609328,0.001162097,0.001184546,0.0007584295,-0.0002151683,0.0002343997,0.0008072657,0.002551061,0.001830926,0.001189682,0.001090075,0.00019188,0.0003545623,0.001333392,0.0009381996,0.001164172,0.00192528,0.001952145,0.000793849,0.001400221,0.0006723287,7.996699e-05,0.000318426,0.0004925788,0.0004745802,0.0006188499,0.0005142237,0.0005934876,0.00137976,0.001132076,0.001135125,0.001250017,0.001681871,0.00210037,0.001964654,0.002660533,0.003003874,0.001156725,0.006165736,-0.0003562068,0.01574514,0.01046297,0.03439375,0
Weight,16,1,phi.macSlack,NA,0,0.00561833,0.0003549202,-0.001581383,0.002435547,0.002515875,0.03431607,0.01807559,0.008131721,0.01042675,0.0122493,0.01506262,0.01012593,0.008251328,0.007151584,0.01010809,0.005417931,0.003230021,0.006581632,0.006492864,0.005682405,0.0009862827,0.004979489,0.007504323,0.008359776,0.008243151,0.009426811,0.009812725,0.004011451,0.006519022,0.008894677,0.005256885,0.003168569,0.003903595,0.001797992,0.003193583,0.002382105,0.002292884,0.005039009,0.003732732,0.00256437,0.002653273,0.003200695,0.002423313,0.001303653,0.00501719,0.005051171,0.003573824,0.00283998,0.002540841,0.001189193,0.002402407,-0.0001043148,0.0007467805,0.002708897,0.001540486,0.0008503356,-0.002417202,-0.002230722,-0.0005720947,-0.002632289,-0.004641506,-0.001568926,-0.001628598,0.0009513487,0.002330963,0.001325655,0.001045613,0.002385759,-0.0009600718,-0.0007619933,-0.0005098453,-0.0008277304,0.001412133,0.0028725,0.002399113,-0.001081342,0.0001546257,-0.0001129869,-0.003036793,0.001399301,0.002285057,0.003480197,0.002908422,-0.0006022778,-0.001804414,-0.001148963,-0.002315143,-0.01198662,-0.01473646,-0.02196305,-0.0380633,-0.03944234,-0.04285435,-0.0835602,-0.09739631,-0.09841932,-0.0345697,0
Weight,16,1,phi.allSlack,NA,0,0.00561833,0.0003549202,-0.001581383,0.002435547,0.002515875,-0.01922007,-0.007642489,-0.002797551,-0.003009991,-0.00420252,-0.003760152,-0.0004282294,0.0007847212,0.0007434492,0.0003828225,0.0002578183,-0.0002733292,0.0003041201,-9.438876e-05,-0.001309206,7.157604e-05,5.781458e-05,-0.001190591,-0.0005861084,-0.001230229,-0.0005315464,-0.0003803947,0.0002478061,0.0003002166,-0.0008783327,-0.0005432841,0.0009735878,0.0008112004,7.939172e-05,0.0002190268,0.0004107832,-0.0008656707,-0.0009493571,0.0001407542,0.0003218992,0.001422803,-0.0001623793,-0.0002202318,-0.0003759973,-0.0009623996,-0.001054989,-0.0006862339,-0.0006737479,0.0003002345,8.589078e-05,-0.0003823224,-0.0002238428,-0.0003384889,-0.000727563,-0.0003609328,-0.001162097,-0.001184546,-0.0007584295,0.0002151683,-0.0002343997,-0.0008072657,-0.002551061,-0.001830926,-0.001189682,-0.001090075,-0.00019188,-0.0003545623,-0.001333392,-0.0009381996,-0.001164172,-0.00192528,-0.001952145,-0.000793849,-0.001400221,-0.0006723287,-7.996699e-05,-0.000318426,-0.0004925788,-0.0004745802,-0.0006188499,-0.0005142237,-0.0005934876,-0.00137976,-0.001132076,-0.001135125,-0.001250017,-0.001681871,-0.00210037,-0.001964654,-0.002660533,-0.003003874,-0.001156725,-0.006165736,0.0003562068,-0.01574514,-0.01046297,-0.03439375,0
Weight,16,1,phi.jobOps,NA,0,5.423307e-05,-0.0002564211,0.0002562588,0.0002985952,0.0005172926,0.007058199,0.0008782855,2.014234e-05,-0.001315461,-0.001961571,-0.002319242,-0.002594852,-0.001842624,-0.003962637,-0.002551513,-0.02260389,-0.009088531,-0.01920094,-0.008390189,-0.000562905,6.562884e-05,0.0006455904,-0.001732106,-0.05668131,-0.01287945,-0.003841559,0.008079612,0.006444296,0.00431644,0.02246951,0.006159006,0.0001515065,-0.0001946131,0.0008229409,-0.001788989,0.0002455945,0.003909186,0.004887075,0.001720694,-0.01520028,-0.01926076,-0.00332753,0.0005145449,0.002402761,0.01611538,0.004288735,0.03093204,0.004634121,0.0683976,0.05892186,0.002037955,0.001911162,0.005241852,0.01069461,0.001481876,-0.002027428,-0.001059877,-0.0001151945,-0.001123522,-0.001909366,-0.001592638,-0.002970606,0.00385426,0.003567277,0.003395919,0.001067123,0.002264289,-1.876511e-05,-0.0009830701,-0.001244096,-0.0005980705,-0.0006264729,0.001365858,0.0008820326,-0.00136384,-0.0005219032,-0.0001926406,0.001870582,0.0005421852,0.002278865,-0.0002934792,0.0005123326,-0.0005962034,0.0004969614,-0.0004174572,-0.001014002,-0.0001960709,-0.0007912734,-0.001458119,-0.002074478,-0.002374014,-0.002176057,-0.003059541,-0.003757356,-0.00421276,-0.003072258,0,0
Weight,16,1,phi.macOps,NA,0,0.0002677356,0.0001189688,-0.0002194481,-3.525034e-05,-0.001661551,-0.005548224,-0.0004663062,0.000957149,0.001145212,0.001819466,0.002970368,-0.0006097908,0.0008381509,0.001331148,0.0003338614,0.007005801,0.002556264,0.006107976,0.007983473,0.002299201,0.0007372819,0.001266036,0.002663009,0.1512042,0.07826103,0.08163129,0.09589016,0.03226581,0.008558148,0.1048768,0.03039891,0.00564632,0.004170727,0.001696475,0.01567374,0.003004527,0.09702349,0.0109403,0.02973212,0.02343085,0.01864316,0.001489834,0.001741405,0.0006344593,0.01194832,0.007051919,0.003153972,0.007996608,0.03659282,0.04344234,0.004171799,0.003475265,0.000962653,0.01039691,0.006448738,0.00534674,0.00412863,0.001483114,-0.0003814532,-9.056209e-05,0.001079182,0.008061053,0.002969658,0.001507637,0.001251575,0.001889301,0.003801663,0.002205869,0.003610022,0.002359877,0.002279851,0.001074281,0.002298141,0.001592461,0.0005487271,0.001245375,0.004538923,0.002434654,0.002013952,0.003039511,0.003719093,0.002473899,0.002095744,0.002484275,0.002707702,0.004040973,0.001877058,0.0027003,0.001502062,0.001969103,0.002662105,0.002339197,0.00518954,0.01221058,0.004088546,0.002014003,0.0004669289,0
Weight,16,1,phi.jobWrm,NA,0.002020674,0.0005787589,-0.002857321,-0.003584631,-0.003060798,0.00370466,-0.01461533,-0.01431936,-0.007186464,-0.006131955,-0.003563631,-0.004205091,-0.002195627,0.0013919,3.734832e-05,-0.001280666,-0.0008583782,-0.0006069034,-0.003333381,-0.001168726,-0.001961838,-0.0009194108,0.0004998711,0.001539833,0.0005440572,0.002778851,0.000509724,0.001462419,0.0007174046,0.001100145,0.00247245,0.003058777,0.004135664,0.002502798,0.001990422,0.002934398,0.001334303,0.002085968,0.002218449,0.003532576,0.00339023,0.001153711,0.001943958,0.00218331,0.002879461,0.002982577,0.002946919,0.003071848,0.003345684,0.003880939,0.004628912,0.004302179,0.00562964,0.005363881,0.00567639,0.005296385,0.005532833,0.006973391,0.007726926,0.007889954,0.007469638,0.006833804,0.007650063,0.007103953,0.006598785,0.007612353,0.008591004,0.008040274,0.008534199,0.00738955,0.008386908,0.008723103,0.008888951,0.009212766,0.009694771,0.01078595,0.01095101,0.01059549,0.0105216,0.01142697,0.01393294,0.01349536,0.01521818,0.01688139,0.02024979,0.02046302,0.0222615,0.02433304,0.03258793,0.03955127,0.06279977,0.08134741,0.08198706,0.13344,0.2296253,0.1752768,0.1298957,-1.339541e-05,0
Weight,16,1,phi.macWrm,NA,0.003603606,-0.001914133,-0.001174012,-0.0003771229,-0.004698527,-0.004809148,0.01066069,0.002425319,-0.002093438,-0.001165658,-0.0008797092,-0.001261315,-0.001336156,-0.00174456,-0.001870102,-0.003270209,-0.0003859341,0.0009734255,-0.001823786,-0.001313219,-0.0006180345,0.001674808,-0.002876187,-0.004156311,-0.002894183,-0.004822556,-0.005296481,-0.00639115,-0.002352977,-0.004695191,-0.003882008,-0.001737265,-0.001115554,-0.001834224,0.000440303,-0.0006155797,-0.001394225,0.0009669312,-0.004019926,-0.002639747,-0.001593705,-0.002735497,-0.00221114,-0.001298115,-0.0009271287,-0.004750434,-0.004287017,-0.003566988,-0.002411447,-0.002470765,-0.001030199,-0.003384305,-0.0008630547,-0.002427844,-0.00394257,-0.002922076,-0.00373623,-0.0006711979,-0.0004203279,-0.0009810821,0.0003434972,0.002487324,0.0005068539,-0.000687283,-0.004517657,-0.006786807,-0.006186709,-0.004991348,-0.00670132,-0.005431148,-0.006725468,-0.007112164,-0.007130661,-0.009071501,-0.01162626,-0.01127197,-0.007862041,-0.008989756,-0.01179018,-0.01023536,-0.01511426,-0.01784752,-0.02072453,-0.02379307,-0.0208419,-0.02345819,-0.02872182,-0.03587154,-0.04384726,-0.0520841,-0.06454115,-0.07649353,-0.07984999,-0.1068757,-0.159157,-0.1983534,-0.0882867,-0.02334644,0
Weight,16,1,phi.jobTotProcTime,NA,0.002020674,0.006197089,0.003625566,0.003031579,0.007094411,-0.001054546,0.01315439,0.01428458,0.004928156,0.004051982,0.00735138,0.004138393,0.002186364,-0.008970447,-0.003133982,0.0001196754,0.005332433,0.0001429061,0.001525241,0.0002020691,0.006635732,0.007347481,0.006044937,0.004406034,0.009244839,0.003791043,0.007750362,0.003108395,-0.0001986953,0.00148078,0.0004556702,0.005469771,0.003726373,0.004710088,0.005415025,0.009366124,0.01346022,0.01163649,0.01174861,0.0113177,0.006102681,0.005364251,0.009014199,0.01132988,0.01083933,0.01333035,0.01118457,0.01824916,0.009162958,0.01012706,0.0001841692,0.005891403,0.004185994,0.008801163,0.006967648,0.004394481,0.002897142,0.0007728014,-1.817454e-05,-0.005904332,-0.001477027,0.001152155,-0.004201816,-0.009453337,-0.00188352,-0.0008164466,-0.007835816,-0.009006211,-0.002520334,-0.00449531,0.002505158,0.003450471,0.007677783,0.0083943,0.01550554,0.0133904,0.02005133,0.007728971,0.005428357,0.0001519738,-3.482116e-05,0.005855746,0.00372523,0.001604171,-0.001434714,0.007139834,0.0008482006,-0.002779697,-0.007383545,0.001160941,0.004464912,-0.004014834,-0.008720971,0.0002884356,-0.06812652,-0.1276076,0.0310984,0.007333947,0
Weight,16,1,phi.macTotProcTime,NA,0.003603606,0.01161264,0.006805315,0.006079751,0.008816287,0.01026796,-0.007960554,-0.006056367,-0.002390781,-0.00482681,-0.001218224,-0.001237052,0.003579062,-0.0025725,-0.001601969,-0.006031885,0.001136596,-0.002624686,-0.008057595,-0.007971507,-0.008589063,-0.0114349,-0.01319243,-0.01270594,-0.01019309,-0.006497904,-0.006503597,-0.004342031,0.003934441,0.0009325763,0.001465111,0.005211926,0.008419176,0.006462649,0.003519913,0.003616052,0.0007647651,0.006258016,0.005101318,0.001748077,0.004058572,0.001467949,0.001826166,0.003997966,0.01008243,0.009752178,0.005436215,0.006615352,0.002961067,0.00228701,0.0009742625,0.002317155,0.003245649,0.003082898,0.001261557,0.0006712579,-0.003219596,0.001698989,-0.0005173176,0.00192618,0.009647167,0.003371414,0.002193505,-0.002392412,-0.0005284719,0.00144817,0.002038722,-0.001310543,-0.001624358,-0.001213964,0.0001341383,0.001840987,-0.005790121,-0.004069814,-0.003138728,0.002544919,0.001585433,0.005840554,-0.0008661333,-0.006373628,-0.00428708,-0.01134271,-0.0141922,-0.00914825,-0.01501011,-0.01299192,-0.01391465,-0.02284451,-0.02318569,-0.01716614,-0.01292024,-0.01413709,-0.01829342,-0.03326052,0.008975066,0.06808762,0.02485706,-0.003407228,0
Training.Accuracy,16,1,NA,66.27,52.75,56.73,56.94,57.08,58.85,59.51,61.04,60.85,57.64,57.2,59.05,60.69,59.63,61.09,59.68,60.46,60.57,57.59,58.59,59.06,60.05,58.46,58.12,58.82,58.95,58.65,58.23,57.07,58.13,57.99,61.11,60.37,61.02,58.26,56.35,56.64,56.56,57.49,59.78,59.27,58.87,58.81,58.05,57.15,58,60.75,59.72,59.75,60.38,59.2,60.2,62.8,64.15,64.41,63.55,62.04,62.87,65.17,67.04,66.47,65.74,65.89,66.37,66.19,67.14,67.67,68.11,68.01,68.93,68.18,69.88,69.83,69.34,67.92,69.16,70.61,70.12,69.97,69.56,70.76,71.91,73.34,74.07,76.73,77.29,78.01,80.04,80.08,84.45,86.56,89.38,91.73,92.81,95.24,97.46,100,100,100
Validation.Accuracy,16,1,NA,NA,48.85,51.25,50.75,53.93,52.49,51.34,52.92,52.04,54.63,50,55.74,50.19,51.67,55.56,53.86,52.59,51.3,48.52,52.78,50.74,48.7,55.56,44.07,51.11,51.79,51.67,51.85,50,48.7,47.59,48.89,51.3,53.52,53.15,55.74,55.56,55.37,52.04,48.21,51.85,48.89,47.41,48.4,51.04,51.67,47.83,49.81,49.26,49.81,47.41,50.74,45.93,50.65,46.47,46.1,45.91,48.96,52.69,56.25,49.5,52.65,55.9,53.59,53.95,55.16,54.05,53.88,53.79,56.95,58.93,60.38,58.94,61.46,58.8,55.67,56.54,66.4,56.88,57.98,66.15,60.48,62.33,63.97,68,64.72,69.33,67.11,72.78,71.86,80.07,81.65,79.31,85.44,87.65,78.43,67.16,89.29,72.73,NA